~o
<STREAMINFO> 1 26
<VECSIZE> 26<NULLD><MFCC_E_D><DIAGC>
~v "varFloor1"
<VARIANCE> 26
 7.528608e-01 4.836471e-01 6.936527e-01 1.165170e+00 5.971813e-01 4.755226e-01 8.837133e-01 4.464411e-01 6.617475e-01 5.043612e-01 3.577261e-01 3.682624e-01 2.346386e-01 2.926073e-02 2.980258e-02 2.837205e-02 5.332779e-02 3.412719e-02 3.071158e-02 4.275788e-02 3.327679e-02 3.738448e-02 3.113799e-02 2.695941e-02 2.419822e-02 4.406946e-03
~h "_"
<BEGINHMM>
<NUMSTATES> 5
<STATE> 2
<MEAN> 26
 -8.502477e+00 -5.420763e-01 -1.529177e+00 -1.165461e+01 -2.976526e+00 -6.339400e+00 -5.543552e+00 -5.556722e+00 -3.280117e+00 6.776735e+00 2.372813e+00 1.886271e-01 1.352164e+01 -1.310045e+00 7.557858e-01 -7.528564e-01 2.971380e+00 2.171978e-02 1.096012e+00 1.092972e+00 1.130493e+00 2.143670e+00 -4.186332e-01 6.758078e-01 -1.566652e-01 -1.420817e+00
<VARIANCE> 26
 2.483547e+01 3.251023e+01 6.534943e+01 8.529699e+01 6.153339e+01 9.192767e+01 6.805351e+01 5.872799e+01 1.285801e+02 1.000707e+02 6.661245e+01 4.805691e+01 9.568733e+00 2.661984e+00 3.875731e+00 6.156307e+00 6.298465e+00 6.200512e+00 5.925233e+00 5.856617e+00 6.648778e+00 9.755499e+00 8.234499e+00 6.462552e+00 5.193983e+00 3.523463e-01
<GCONST> 1.199445e+02
<STATE> 3
<MEAN> 26
 -1.358396e+01 1.778854e+00 -1.551439e+00 -4.659035e-01 4.485611e-01 5.225141e-01 -1.177346e+00 9.299461e-01 -4.301532e-01 1.206540e+00 1.341081e+00 -6.124741e-01 8.637797e+00 -2.263930e-01 -2.803840e-02 1.567235e-01 2.757138e-01 2.724612e-01 1.141571e-01 1.326403e-01 2.811208e-01 -9.458341e-02 -1.905196e-01 -1.969377e-01 4.411298e-02 -1.185252e-01
<VARIANCE> 26
 2.377543e+00 4.105602e+00 5.894398e+00 8.322232e+00 1.105530e+01 1.298837e+01 1.260158e+01 1.382186e+01 1.377461e+01 1.508178e+01 1.531027e+01 1.161010e+01 8.561317e-01 5.685382e-01 7.816371e-01 1.090763e+00 1.670542e+00 1.833488e+00 2.173690e+00 1.765207e+00 2.403710e+00 2.528576e+00 2.605093e+00 2.172893e+00 1.632647e+00 1.838946e-01
<GCONST> 7.851946e+01
<STATE> 4
<MEAN> 26
 -1.321930e+01 1.645742e+00 -8.924849e-01 -1.051295e+00 8.630017e-04 -8.093276e-01 -1.476877e+00 9.164482e-01 -9.326481e-01 8.985053e-01 1.036270e+00 -6.850262e-01 9.150472e+00 2.099501e+00 -1.106460e+00 8.709373e-01 -3.235348e+00 -6.569402e-02 -1.329558e+00 -1.444975e+00 -9.416975e-01 -2.258584e+00 1.097452e-01 -8.851629e-01 -8.691377e-02 1.883777e+00
<VARIANCE> 26
 5.922791e+00 8.371623e+00 9.299469e+00 1.703162e+01 1.338707e+01 2.003943e+01 1.223720e+01 1.611289e+01 2.193865e+01 1.528259e+01 1.305928e+01 1.336464e+01 2.272153e+00 3.360976e+00 5.468451e+00 5.336698e+00 1.171373e+01 5.035008e+00 4.538136e+00 3.681284e+00 5.029690e+00 5.300904e+00 4.023995e+00 3.584451e+00 3.111974e+00 8.585364e-01
<GCONST> 9.784101e+01
<TRANSP> 5
 0.000000e+00 1.000000e+00 0.000000e+00 0.000000e+00 0.000000e+00
 0.000000e+00 7.977115e-01 2.022885e-01 0.000000e+00 0.000000e+00
 0.000000e+00 0.000000e+00 8.170044e-01 1.829956e-01 0.000000e+00
 0.000000e+00 0.000000e+00 0.000000e+00 4.238776e-01 5.761224e-01
 0.000000e+00 0.000000e+00 0.000000e+00 0.000000e+00 0.000000e+00
<ENDHMM>
~h "a"
<BEGINHMM>
<NUMSTATES> 5
<STATE> 2
<MEAN> 26
 -1.347737e+00 -9.488633e+00 -2.067417e+00 -2.131535e+01 -1.318395e-01 -6.993628e-02 -1.205520e+01 -6.598052e-02 -4.025806e+00 6.336009e+00 -1.504388e+00 -8.326897e+00 2.006981e+01 1.874356e+00 -3.272233e+00 -1.026726e+00 -3.479685e+00 6.964678e-01 7.634958e-01 -1.114789e+00 1.618398e+00 -8.835983e-02 6.246922e-01 -9.859427e-01 -2.382567e+00 9.080601e-01
<VARIANCE> 26
 1.986179e+01 3.603252e+01 3.768178e+01 5.103168e+01 6.308418e+01 5.079412e+01 8.970322e+01 5.432482e+01 3.164765e+01 3.780162e+01 3.443703e+01 2.965354e+01 6.952525e+00 3.593464e+00 2.937471e+00 3.304184e+00 7.267496e+00 4.555426e+00 3.923561e+00 7.015542e+00 7.825415e+00 5.321497e+00 4.183949e+00 2.754972e+00 2.815464e+00 7.883691e-01
<GCONST> 1.117761e+02
<STATE> 3
<MEAN> 26
 6.838889e-01 -1.612067e+01 -5.411818e+00 -2.614267e+01 4.835319e+00 3.332401e+00 -1.150352e+01 1.631026e+00 -3.593230e+00 3.830032e+00 -4.402259e+00 -1.288652e+01 2.180003e+01 -5.948016e-02 -1.884123e-01 9.469224e-03 1.221985e-01 2.176763e-01 -4.165548e-01 3.478069e-01 -8.401626e-02 5.081721e-02 -1.575003e-01 -2.927586e-01 8.379503e-02 2.468007e-03
<VARIANCE> 26
 6.698440e+00 1.715781e+01 2.235126e+01 2.128765e+01 3.954242e+01 4.491898e+01 4.117491e+01 5.249869e+01 2.554285e+01 2.668542e+01 2.972399e+01 2.065477e+01 4.913386e-01 5.512019e-01 1.516455e+00 2.055040e+00 1.635584e+00 2.880849e+00 2.697922e+00 2.857122e+00 2.632545e+00 1.517925e+00 2.090338e+00 2.218366e+00 1.850317e+00 4.264314e-02
<GCONST> 9.060199e+01
<STATE> 4
<MEAN> 26
 2.391117e-01 -1.048495e+01 -1.184868e+00 -2.078361e+01 1.137461e+00 -4.041681e+00 -1.063076e+01 -7.565057e-01 -4.744759e+00 5.553696e+00 -4.392282e+00 -7.923982e+00 2.059281e+01 -4.549685e-01 3.406596e+00 1.269648e+00 3.489901e+00 -2.444686e-01 -6.214002e-01 6.536225e-01 -1.979950e+00 -4.842812e-01 -6.268192e-01 4.011643e-01 1.575401e+00 -6.282588e-01
<VARIANCE> 26
 1.013999e+01 3.388299e+01 3.710526e+01 3.924679e+01 4.441168e+01 6.521626e+01 7.061539e+01 7.295506e+01 3.818330e+01 3.023609e+01 3.750195e+01 2.611781e+01 1.096749e+00 2.029756e+00 4.439196e+00 2.793875e+00 5.184967e+00 3.747994e+00 3.492483e+00 4.528580e+00 4.280650e+00 4.513562e+00 3.091172e+00 2.654108e+00 1.899543e+00 1.823417e-01
<GCONST> 1.044163e+02
<TRANSP> 5
 0.000000e+00 1.000000e+00 0.000000e+00 0.000000e+00 0.000000e+00
 0.000000e+00 5.926383e-01 4.073617e-01 0.000000e+00 0.000000e+00
 0.000000e+00 0.000000e+00 8.354886e-01 1.645114e-01 0.000000e+00
 0.000000e+00 0.000000e+00 0.000000e+00 6.549698e-01 3.450303e-01
 0.000000e+00 0.000000e+00 0.000000e+00 0.000000e+00 0.000000e+00
<ENDHMM>
~h "b"
<BEGINHMM>
<NUMSTATES> 5
<STATE> 2
<MEAN> 26
 4.838084e+00 2.468754e+00 5.021960e+00 -6.917466e-01 -2.030461e+00 5.847651e+00 -1.163316e+01 -5.693909e+00 -1.512894e+01 -5.144425e+00 4.784950e+00 -6.893949e+00 1.873315e+01 1.904293e+00 2.798099e+00 -9.292566e-02 1.398491e+00 2.179743e+00 8.313112e-02 4.143032e-01 -1.460998e+00 1.241099e+00 7.030665e-01 6.479471e-01 1.561795e-01 -1.968083e-01
<VARIANCE> 26
 2.301202e+01 2.104734e+01 3.202764e+01 3.752372e+01 5.544113e+01 5.588832e+01 4.041282e+01 3.377162e+01 8.976537e+01 6.582178e+01 3.410160e+01 3.102652e+01 2.859670e+00 2.947092e+00 2.605238e+00 3.476791e+00 9.788908e+00 4.431879e+00 5.083127e+00 4.927517e+00 3.298872e+00 8.886849e+00 5.357441e+00 4.005247e+00 2.949387e+00 2.954221e-01
<GCONST> 1.095974e+02
<STATE> 3
<MEAN> 26
 7.306000e+00 1.108378e+01 5.833111e+00 8.572851e-01 3.637085e+00 4.408141e+00 -8.810500e+00 -8.334653e+00 -8.453305e+00 -9.418402e-01 5.687626e+00 -5.299417e+00 1.778121e+01 -7.586920e-01 4.513213e-01 -7.542363e-02 -1.509636e-01 4.528393e-01 -1.927195e-01 8.065194e-01 -3.746164e-01 4.712966e-01 2.819555e-01 -5.772105e-01 5.331791e-01 -1.275217e-01
<VARIANCE> 26
 6.999595e+00 1.927930e+01 1.406292e+01 2.901137e+01 3.060735e+01 2.871850e+01 4.413160e+01 1.801540e+01 1.885344e+01 2.838642e+01 2.326434e+01 2.439025e+01 6.460345e-01 2.286056e+00 3.738291e+00 1.575664e+00 3.993698e+00 2.336267e+00 2.018326e+00 1.645329e+00 1.968509e+00 3.323741e+00 2.011902e+00 2.755084e+00 1.560628e+00 2.720276e-02
<GCONST> 9.081008e+01
<STATE> 4
<MEAN> 26
 -3.688863e-01 4.624109e+00 6.029384e+00 -5.362092e+00 4.447365e+00 1.573317e+00 -7.678567e+00 -9.308383e+00 -8.189484e+00 2.511193e-01 -4.753253e-01 -3.008433e+00 1.810121e+01 -1.338596e+00 -3.534065e+00 -6.579548e-01 -2.633109e+00 -7.730243e-01 -1.108404e+00 -1.321592e+00 2.616946e-01 8.227586e-01 8.013042e-01 -6.046172e-01 7.995677e-01 4.216878e-01
<VARIANCE> 26
 1.745473e+01 3.925509e+01 1.691263e+01 5.982812e+01 2.887161e+01 2.633558e+01 6.369490e+01 2.096961e+01 3.389765e+01 4.935214e+01 3.729953e+01 1.960964e+01 1.133269e+00 2.310433e+00 4.249477e+00 3.316717e+00 6.230392e+00 4.017313e+00 4.855575e+00 4.477614e+00 3.172751e+00 2.819156e+00 5.553215e+00 3.137134e+00 2.338605e+00 1.254508e-01
<GCONST> 1.028123e+02
<TRANSP> 5
 0.000000e+00 1.000000e+00 0.000000e+00 0.000000e+00 0.000000e+00
 0.000000e+00 5.658661e-01 4.341339e-01 0.000000e+00 0.000000e+00
 0.000000e+00 0.000000e+00 7.544240e-01 2.455760e-01 0.000000e+00
 0.000000e+00 0.000000e+00 0.000000e+00 4.771647e-01 5.228353e-01
 0.000000e+00 0.000000e+00 0.000000e+00 0.000000e+00 0.000000e+00
<ENDHMM>
~h "d"
<BEGINHMM>
<NUMSTATES> 5
<STATE> 2
<MEAN> 26
 3.610221e+00 8.130085e+00 9.796090e+00 1.858598e+00 -2.441792e+00 -3.115787e+00 -9.631941e+00 -9.337313e-01 -6.699483e+00 1.178185e+00 -1.559980e+00 -8.384459e+00 1.774472e+01 2.006844e+00 2.624121e+00 6.241666e-01 2.478967e+00 2.896000e-01 -1.417333e+00 6.443077e-01 6.519796e-01 2.707359e+00 2.308217e-01 -1.167386e+00 -1.183096e+00 -5.914100e-02
<VARIANCE> 26
 2.723258e+01 3.275911e+01 5.047295e+01 3.690056e+01 3.614097e+01 5.104853e+01 4.540245e+01 3.122652e+01 6.216830e+01 2.273748e+01 3.401586e+01 4.465385e+01 3.218317e+00 3.115203e+00 4.126650e+00 4.595052e+00 8.557508e+00 4.236201e+00 3.128027e+00 6.096965e+00 2.785947e+00 6.637484e+00 2.689485e+00 2.693151e+00 3.738677e+00 7.124191e-01
<GCONST> 1.091280e+02
<STATE> 3
<MEAN> 26
 5.529047e+00 1.452945e+01 1.171159e+01 5.811659e+00 -2.499875e+00 -6.770108e+00 -7.923816e+00 9.607848e-01 5.426607e-01 7.195579e-01 -4.467687e+00 -8.528614e+00 1.747142e+01 -1.666506e+00 -5.880766e-01 -9.686614e-02 -9.343410e-01 9.846900e-01 8.300529e-01 8.335045e-01 -7.654356e-01 2.983743e-01 -2.358761e-01 -1.135950e-01 1.243727e+00 -1.258437e-01
<VARIANCE> 26
 6.961046e+00 1.857966e+01 1.433032e+01 1.329202e+01 2.093876e+01 2.076167e+01 1.956416e+01 1.861314e+01 2.493965e+01 1.388084e+01 2.373174e+01 2.014638e+01 4.135247e-01 3.452282e+00 6.370904e+00 2.958395e+00 4.233792e+00 3.366840e+00 4.285067e+00 2.687597e+00 2.912797e+00 3.721081e+00 1.989222e+00 2.306138e+00 2.588822e+00 5.288276e-02
<GCONST> 9.219704e+01
<STATE> 4
<MEAN> 26
 -7.170549e+00 2.515068e+00 8.536539e+00 -5.760007e+00 3.537009e+00 2.308968e-01 -5.235360e+00 -6.659883e+00 -3.691321e+00 -2.093912e-01 -3.264427e+00 -9.885501e-01 1.777193e+01 -3.054968e+00 -3.083046e+00 5.956345e-03 -3.348504e+00 -2.170321e-01 3.963276e-01 -1.072486e+00 -1.289550e+00 -1.073655e+00 -4.346436e-01 1.036977e+00 1.815893e+00 4.597067e-01
<VARIANCE> 26
 2.286352e+01 5.194703e+01 4.291938e+01 4.957008e+01 3.246275e+01 6.519278e+01 4.290417e+01 3.433943e+01 2.502850e+01 2.805678e+01 2.306618e+01 2.601084e+01 1.246984e+00 4.077173e+00 5.115602e+00 4.916294e+00 4.962659e+00 5.303453e+00 4.686255e+00 6.569826e+00 3.502975e+00 4.508229e+00 5.142189e+00 2.776311e+00 3.054092e+00 1.885327e-01
<GCONST> 1.068456e+02
<TRANSP> 5
 0.000000e+00 1.000000e+00 0.000000e+00 0.000000e+00 0.000000e+00
 0.000000e+00 5.927144e-01 4.072856e-01 0.000000e+00 0.000000e+00
 0.000000e+00 0.000000e+00 7.137317e-01 2.862683e-01 0.000000e+00
 0.000000e+00 0.000000e+00 0.000000e+00 5.622359e-01 4.377641e-01
 0.000000e+00 0.000000e+00 0.000000e+00 0.000000e+00 0.000000e+00
<ENDHMM>
~h "e"
<BEGINHMM>
<NUMSTATES> 5
<STATE> 2
<MEAN> 26
 -3.391128e+00 -6.871397e+00 8.259212e+00 -1.454613e+01 -7.087212e+00 -7.395649e+00 -1.644953e+01 9.422063e-01 -7.722868e+00 2.502567e+00 1.253970e+00 -3.121271e+00 2.021342e+01 2.006589e+00 -2.860022e+00 1.618143e+00 -2.808911e+00 -2.551790e+00 -1.326670e+00 -2.773025e+00 2.676449e+00 -1.250102e+00 1.051587e+00 1.969000e-01 -8.786678e-01 8.241419e-01
<VARIANCE> 26
 1.207808e+01 3.573086e+01 4.761959e+01 3.905460e+01 3.480219e+01 3.517741e+01 6.252562e+01 4.211457e+01 3.403596e+01 3.288140e+01 3.332861e+01 1.969849e+01 2.983141e+00 4.337508e+00 2.633827e+00 4.334435e+00 3.707731e+00 4.599681e+00 3.609903e+00 6.158072e+00 4.548902e+00 4.532621e+00 3.163561e+00 3.541755e+00 2.389993e+00 3.475893e-01
<GCONST> 1.060640e+02
<STATE> 3
<MEAN> 26
 -2.148396e+00 -1.174706e+01 9.135507e+00 -2.017152e+01 -1.041797e+01 -8.552963e+00 -1.584753e+01 7.000124e+00 -7.994747e+00 5.112888e+00 9.763170e-01 -4.490836e+00 2.125249e+01 -7.232306e-03 -1.568274e-01 9.680191e-02 -3.292650e-01 8.382641e-02 -2.550842e-01 5.239807e-01 -1.007172e-01 -1.876479e-01 2.058562e-02 -1.875877e-01 -8.583316e-02 -1.085717e-02
<VARIANCE> 26
 7.222515e+00 2.096538e+01 4.186515e+01 1.941498e+01 2.756338e+01 2.825490e+01 3.707929e+01 2.740747e+01 3.612149e+01 2.080732e+01 2.436263e+01 1.374154e+01 3.388677e-01 4.645217e-01 9.740071e-01 1.806207e+00 1.574947e+00 1.799825e+00 1.699689e+00 2.157996e+00 2.300303e+00 1.941884e+00 1.515903e+00 1.528437e+00 1.118953e+00 2.055976e-02
<GCONST> 8.514516e+01
<STATE> 4
<MEAN> 26
 -2.102603e+00 -9.634294e+00 9.275233e+00 -1.830967e+01 -6.174745e+00 -8.343152e+00 -1.356329e+01 6.354493e-01 -1.023513e+01 3.352027e+00 -1.521125e+00 -4.667510e+00 2.045494e+01 -2.036033e-01 2.159444e+00 -5.532458e-01 2.129321e+00 2.044271e+00 1.171991e+00 1.289975e+00 -2.566598e+00 5.553962e-01 -7.488649e-01 -9.079597e-01 8.685365e-02 -4.784944e-01
<VARIANCE> 26
 8.760667e+00 3.251525e+01 6.796062e+01 3.714479e+01 3.721487e+01 4.088782e+01 5.945235e+01 4.355033e+01 6.966115e+01 3.321908e+01 3.501093e+01 2.393157e+01 8.172765e-01 1.409261e+00 3.426694e+00 3.649093e+00 4.481322e+00 2.180717e+00 3.286775e+00 3.904774e+00 4.442697e+00 4.843944e+00 3.040092e+00 2.496902e+00 1.660136e+00 9.640338e-02
<GCONST> 1.016975e+02
<TRANSP> 5
 0.000000e+00 1.000000e+00 0.000000e+00 0.000000e+00 0.000000e+00
 0.000000e+00 5.693474e-01 4.306526e-01 0.000000e+00 0.000000e+00
 0.000000e+00 0.000000e+00 8.472629e-01 1.527371e-01 0.000000e+00
 0.000000e+00 0.000000e+00 0.000000e+00 6.592792e-01 3.407208e-01
 0.000000e+00 0.000000e+00 0.000000e+00 0.000000e+00 0.000000e+00
<ENDHMM>
~h "f"
<BEGINHMM>
<NUMSTATES> 5
<STATE> 2
<MEAN> 26
 -1.574181e+01 -2.294176e+00 1.283323e+00 -5.233875e+00 2.828860e+00 2.881476e-01 -1.130844e+00 -1.722947e+00 -1.852935e+00 1.822794e+00 -2.694224e+00 -2.352897e-01 1.557654e+01 -3.355890e+00 -1.912924e+00 -2.037286e+00 -2.220567e-01 6.177726e-01 4.095683e-01 6.118058e-01 5.051287e-01 1.356072e+00 8.987043e-01 5.827504e-01 1.119619e+00 -8.092379e-01
<VARIANCE> 26
 3.762264e+01 1.979371e+01 3.138342e+01 2.076276e+01 2.308165e+01 2.450519e+01 2.241611e+01 2.262418e+01 3.078366e+01 2.804507e+01 2.050288e+01 1.355468e+01 4.863321e+00 3.676797e+00 1.663492e+00 3.249628e+00 6.019614e+00 5.117239e+00 4.344196e+00 4.470196e+00 3.340943e+00 3.814940e+00 3.009622e+00 2.722114e+00 1.889684e+00 3.246230e-01
<GCONST> 1.009569e+02
<STATE> 3
<MEAN> 26
 -2.247639e+01 -6.405624e+00 -4.979288e+00 -8.939072e+00 5.276759e-01 5.120391e-01 -3.743871e+00 -2.985885e+00 -1.596952e+00 5.577638e+00 1.117786e-01 3.540152e+00 1.403354e+01 -1.126658e-01 -6.631059e-02 -1.911627e-01 -9.549603e-02 -2.726063e-01 -2.575768e-02 -2.082593e-01 -1.473775e-01 -9.281875e-02 1.281285e-01 9.061045e-02 1.150823e-01 3.230089e-03
<VARIANCE> 26
 6.516932e+00 5.715555e+00 8.950494e+00 1.122777e+01 2.018302e+01 1.883216e+01 1.849260e+01 1.885592e+01 1.914576e+01 1.931164e+01 1.581505e+01 1.512898e+01 1.259116e+00 7.472339e-01 5.740597e-01 8.690007e-01 1.118424e+00 1.632579e+00 1.449098e+00 1.799315e+00 1.895790e+00 1.830501e+00 2.006691e+00 1.657368e+00 1.605060e+00 7.398807e-02
<GCONST> 8.031675e+01
<STATE> 4
<MEAN> 26
 -1.951014e+01 -5.665276e+00 -2.420296e+00 -8.538243e+00 2.697707e-01 -2.262439e-01 -2.722608e+00 -3.090454e+00 -1.848338e+00 3.716367e+00 -1.742149e+00 1.990348e+00 1.496680e+01 3.455245e+00 1.506956e+00 1.692263e+00 -2.843506e-02 2.274969e-01 2.124410e-01 -6.975288e-01 -4.825905e-01 -1.115986e+00 -1.617327e+00 -7.285390e-01 -1.231127e+00 8.124670e-01
<VARIANCE> 26
 1.741883e+01 1.009366e+01 1.986422e+01 1.508874e+01 3.331181e+01 2.426493e+01 1.743959e+01 2.349040e+01 1.855354e+01 2.000846e+01 1.941535e+01 2.464677e+01 1.406559e+00 4.398406e+00 1.421873e+00 3.207456e+00 3.759661e+00 3.094804e+00 3.693022e+00 4.727962e+00 3.443718e+00 4.199385e+00 2.266135e+00 3.645601e+00 1.974855e+00 3.544841e-01
<GCONST> 9.653525e+01
<TRANSP> 5
 0.000000e+00 1.000000e+00 0.000000e+00 0.000000e+00 0.000000e+00
 0.000000e+00 7.071560e-01 2.928440e-01 0.000000e+00 0.000000e+00
 0.000000e+00 0.000000e+00 8.899853e-01 1.100147e-01 0.000000e+00
 0.000000e+00 0.000000e+00 0.000000e+00 6.161972e-01 3.838029e-01
 0.000000e+00 0.000000e+00 0.000000e+00 0.000000e+00 0.000000e+00
<ENDHMM>
~h "g"
<BEGINHMM>
<NUMSTATES> 5
<STATE> 2
<MEAN> 26
 1.312366e+00 8.345681e+00 1.174019e+01 2.169267e+00 -5.782882e+00 -3.849717e+00 -6.565292e+00 -4.470439e-01 -1.275343e+01 -5.845057e-01 4.944259e+00 -8.796021e+00 1.788153e+01 2.060322e+00 1.333038e+00 4.238295e-01 1.992799e+00 -1.613701e+00 -1.204651e+00 1.359921e+00 1.147578e-01 -1.757929e-01 1.476648e-02 1.082383e+00 -4.837758e-01 3.146894e-02
<VARIANCE> 26
 4.196690e+01 4.715242e+01 7.205002e+01 3.944975e+01 7.661265e+01 2.611604e+01 4.237856e+01 3.498650e+01 7.202235e+01 3.016183e+01 4.084035e+01 4.738188e+01 2.297565e+00 4.829315e+00 5.025309e+00 4.662576e+00 2.506697e+00 7.060105e+00 2.450279e+00 5.164266e+00 3.780627e+00 1.199555e+01 2.131005e+00 4.235301e+00 2.564086e+00 4.219435e-01
<GCONST> 1.105470e+02
<STATE> 3
<MEAN> 26
 5.249551e+00 8.963836e+00 1.079112e+01 2.973526e+00 -1.096601e+01 -3.355155e+00 -3.122610e+00 1.136786e+00 -1.457901e+01 -4.125603e+00 8.515292e+00 -1.011388e+01 1.834678e+01 -1.490129e+00 -7.854936e-01 -1.448027e-01 -1.716572e+00 2.440771e+00 1.565235e+00 -9.389258e-02 -8.354142e-01 3.948840e-01 2.974890e-01 -1.623892e+00 1.836825e+00 -1.570328e-01
<VARIANCE> 26
 6.888226e+00 1.962336e+01 5.834032e+01 3.476586e+01 4.159076e+01 2.651546e+01 2.968565e+01 2.036370e+01 8.384996e+01 3.927016e+01 4.670194e+01 2.984921e+01 7.901267e-01 3.842227e+00 3.823671e+00 5.099494e+00 4.212606e+00 5.773680e+00 1.712748e+00 3.388751e+00 5.093012e+00 3.332186e+00 4.576564e+00 5.692767e+00 3.447645e+00 9.096072e-02
<GCONST> 1.030185e+02
<STATE> 4
<MEAN> 26
 -4.049942e+00 2.109053e+00 8.779139e+00 -7.069472e+00 1.263076e+00 2.039931e+00 -8.704292e+00 -3.308380e+00 -1.381230e+01 9.867691e-01 1.694612e-02 -2.514169e+00 1.796673e+01 -2.186752e+00 -1.802278e+00 5.873146e-02 -2.624173e+00 2.641003e-01 -1.097843e-01 -1.791640e+00 -2.380346e-01 4.087937e-01 -2.808647e-01 -1.721966e-01 1.959046e+00 2.818255e-01
<VARIANCE> 26
 3.196249e+01 3.543138e+01 6.971289e+01 5.972190e+01 4.981449e+01 4.842210e+01 5.976621e+01 3.113937e+01 4.207406e+01 3.812373e+01 5.402091e+01 1.404227e+01 1.377810e+00 3.382418e+00 7.271062e+00 7.278687e+00 3.412794e+00 9.011751e+00 4.771768e+00 4.490158e+00 4.256699e+00 5.637447e+00 6.452997e+00 4.081128e+00 3.045727e+00 1.807742e-01
<GCONST> 1.103306e+02
<TRANSP> 5
 0.000000e+00 1.000000e+00 0.000000e+00 0.000000e+00 0.000000e+00
 0.000000e+00 6.168318e-01 3.831682e-01 0.000000e+00 0.000000e+00
 0.000000e+00 0.000000e+00 5.922898e-01 4.077102e-01 0.000000e+00
 0.000000e+00 0.000000e+00 0.000000e+00 5.339915e-01 4.660085e-01
 0.000000e+00 0.000000e+00 0.000000e+00 0.000000e+00 0.000000e+00
<ENDHMM>
~h "h"
<BEGINHMM>
<NUMSTATES> 5
<STATE> 2
<MEAN> 26
 -1.991351e+01 -7.451971e+00 5.832653e+00 -2.923263e+00 -6.032590e+00 -1.950684e+00 -3.671162e-01 -1.389802e+00 -5.435364e+00 3.272007e+00 -7.523028e-01 1.980129e+00 1.664550e+01 6.831918e-01 -2.051768e-02 1.715967e+00 2.433478e+00 -2.279472e-01 -1.338478e+00 -1.527033e-01 3.633034e-01 -6.894592e-01 -1.352720e+00 -3.465431e-01 -5.152744e-01 3.944674e-01
<VARIANCE> 26
 3.528217e+01 2.351091e+01 2.943847e+01 2.942755e+01 2.967621e+01 4.212241e+01 2.639465e+01 2.996121e+01 2.328168e+01 3.186242e+01 1.296865e+01 1.762165e+01 8.621709e-01 4.460007e+00 2.226675e+00 1.994795e+00 2.179467e+00 1.989496e+00 3.269132e+00 4.616193e+00 2.912107e+00 2.530519e+00 5.419315e+00 1.637455e+00 1.572628e+00 2.433455e-01
<GCONST> 9.735347e+01
<STATE> 3
<MEAN> 26
 -7.337387e+00 -2.606989e+00 1.452691e+01 7.594793e+00 -5.436679e+00 -8.176105e+00 -1.109640e+01 -1.317288e+00 -1.067692e+01 -1.087966e+01 -2.199975e+00 2.687902e+00 1.914263e+01 2.994359e+00 -1.650455e-01 1.778079e+00 1.338142e+00 -4.522223e-01 -1.267272e+00 -4.012719e+00 5.734427e-01 -1.046147e+00 -5.007997e+00 1.101196e+00 7.865773e-01 6.644417e-01
<VARIANCE> 26
 2.051670e+01 1.101543e+01 1.786147e+01 1.024602e+01 2.043070e+01 1.802365e+01 4.529200e+01 1.685875e+01 2.822695e+01 3.770120e+01 1.428234e+01 2.080184e+01 4.196350e-01 3.215615e+00 2.552641e+00 2.405330e+00 2.974023e+00 3.234281e+00 3.578598e+00 4.144771e+00 2.538213e+00 3.610041e+00 5.089434e+00 2.655879e+00 2.427737e+00 1.743201e-01
<GCONST> 9.465986e+01
<STATE> 4
<MEAN> 26
 -3.567635e+00 -5.947642e+00 1.811350e+01 6.368304e+00 -6.932829e+00 -6.083634e+00 -1.811804e+01 9.047997e-01 -9.886222e+00 -1.882298e+01 4.967185e+00 2.300812e+00 1.993247e+01 -7.545306e-02 -2.771773e-01 8.117260e-01 -1.200726e+00 -9.667998e-01 9.561145e-01 -5.014737e-01 -3.319347e-01 1.052797e-01 2.093171e-01 7.153108e-01 -8.104818e-01 1.223009e-01
<VARIANCE> 26
 6.535129e+00 1.235384e+01 3.039593e+01 4.313668e+01 2.103586e+01 1.977269e+01 4.056941e+01 2.295025e+01 3.653513e+01 4.290723e+01 1.648127e+01 2.496270e+01 3.010440e-01 8.668705e-01 5.801747e-01 2.448326e+00 3.304464e+00 2.536866e+00 2.561898e+00 3.207337e+00 2.339644e+00 1.604169e+00 4.742954e+00 1.830023e+00 1.277762e+00 2.078824e-02
<GCONST> 8.869379e+01
<TRANSP> 5
 0.000000e+00 1.000000e+00 0.000000e+00 0.000000e+00 0.000000e+00
 0.000000e+00 7.400261e-01 2.599739e-01 0.000000e+00 0.000000e+00
 0.000000e+00 0.000000e+00 6.272100e-01 3.727901e-01 0.000000e+00
 0.000000e+00 0.000000e+00 0.000000e+00 8.029357e-01 1.970644e-01
 0.000000e+00 0.000000e+00 0.000000e+00 0.000000e+00 0.000000e+00
<ENDHMM>
~h "i"
<BEGINHMM>
<NUMSTATES> 5
<STATE> 2
<MEAN> 26
 -1.105570e+01 4.793590e+00 1.795258e+01 -8.351755e+00 -2.448475e+00 -3.059880e+00 -1.378127e+01 -7.181067e+00 -8.600931e+00 -9.888265e+00 -1.987922e+00 1.897750e+00 1.927188e+01 1.078871e+00 -1.584400e-01 3.248013e+00 -1.250637e+00 -1.619529e+00 5.206874e-01 -2.706096e+00 -8.495031e-02 -2.030116e+00 -2.325212e+00 7.617968e-01 -2.940588e-01 4.429796e-01
<VARIANCE> 26
 2.417047e+01 3.350834e+01 2.891622e+01 2.785169e+01 4.770875e+01 2.618794e+01 3.389166e+01 2.883661e+01 3.799592e+01 4.501652e+01 3.279630e+01 2.253413e+01 1.343642e+00 4.140169e+00 3.119169e+00 4.144801e+00 3.709511e+00 5.516903e+00 3.646306e+00 4.072987e+00 2.491328e+00 4.433987e+00 3.956459e+00 3.019366e+00 2.193152e+00 1.818130e-01
<GCONST> 1.031935e+02
<STATE> 3
<MEAN> 26
 -9.860728e+00 4.053662e+00 2.284557e+01 -1.224853e+01 -6.067628e+00 2.044140e+00 -2.017208e+01 -4.366629e+00 -1.340770e+01 -1.461973e+01 3.247608e+00 -1.534924e+00 1.999652e+01 -5.041797e-02 2.572996e-01 1.112998e-01 -5.689718e-01 -2.581964e-01 2.388033e-01 -2.305121e-01 2.806286e-01 -5.376263e-01 2.396201e-01 4.397188e-02 -4.903827e-01 -1.073901e-02
<VARIANCE> 26
 7.652100e+00 1.766966e+01 1.585613e+01 2.412995e+01 3.390967e+01 2.372983e+01 2.717121e+01 2.539262e+01 4.201645e+01 2.756186e+01 3.182982e+01 2.154612e+01 3.783613e-01 8.255820e-01 1.946523e+00 1.736886e+00 1.970477e+00 2.414973e+00 2.110072e+00 2.336340e+00 2.024140e+00 2.416918e+00 2.313432e+00 1.843585e+00 1.352603e+00 2.248274e-02
<GCONST> 8.820573e+01
<STATE> 4
<MEAN> 26
 -7.867649e+00 4.547598e+00 1.802932e+01 -1.021603e+01 -5.968084e+00 -1.706524e+00 -1.417551e+01 -4.880414e+00 -1.314510e+01 -7.668837e+00 -1.435676e-01 -2.018058e+00 1.932057e+01 6.496401e-01 3.184817e-01 -2.102657e+00 1.713891e+00 8.981985e-01 -8.693376e-01 2.140355e+00 -3.584191e-01 1.210365e+00 1.684792e+00 -8.751487e-01 5.804243e-02 -3.381173e-01
<VARIANCE> 26
 2.262947e+01 5.029922e+01 3.579837e+01 5.813908e+01 5.576735e+01 3.230716e+01 5.002720e+01 4.361419e+01 6.974313e+01 4.423840e+01 4.828726e+01 3.222337e+01 1.406325e+00 3.970264e+00 3.684676e+00 3.644675e+00 4.337645e+00 4.281605e+00 3.868662e+00 3.830358e+00 3.832077e+00 4.522856e+00 3.875685e+00 3.306186e+00 3.071192e+00 1.312392e-01
<GCONST> 1.074607e+02
<TRANSP> 5
 0.000000e+00 1.000000e+00 0.000000e+00 0.000000e+00 0.000000e+00
 0.000000e+00 5.974227e-01 4.025773e-01 0.000000e+00 0.000000e+00
 0.000000e+00 0.000000e+00 7.993041e-01 2.006959e-01 0.000000e+00
 0.000000e+00 0.000000e+00 0.000000e+00 7.068621e-01 2.931379e-01
 0.000000e+00 0.000000e+00 0.000000e+00 0.000000e+00 0.000000e+00
<ENDHMM>
~h "j"
<BEGINHMM>
<NUMSTATES> 5
<STATE> 2
<MEAN> 26
 -1.104952e+01 6.180292e+00 2.160653e+01 -8.314612e+00 -2.198448e+00 -1.932279e+00 -1.430481e+01 -4.841807e+00 -1.045064e+01 -7.490323e+00 -1.795827e-01 1.367699e+00 1.913339e+01 9.582347e-01 -1.291737e-01 7.321015e-01 2.995789e-01 -7.338666e-01 -5.672514e-01 -1.060583e+00 4.994873e-01 -6.909402e-01 -1.303644e+00 4.227020e-01 4.665178e-02 2.196919e-01
<VARIANCE> 26
 1.529719e+01 2.362811e+01 2.400378e+01 4.434376e+01 4.527687e+01 2.601989e+01 3.609194e+01 2.975051e+01 4.372668e+01 3.593409e+01 2.307196e+01 1.868155e+01 6.844935e-01 6.505559e+00 4.074501e+00 3.708340e+00 3.459513e+00 4.510623e+00 4.068407e+00 5.781489e+00 3.478081e+00 3.363663e+00 4.659405e+00 1.960776e+00 1.432356e+00 1.750123e-01
<GCONST> 1.015240e+02
<STATE> 3
<MEAN> 26
 -6.673036e+00 -1.685200e+00 1.749488e+01 -6.978516e+00 -1.055246e+01 -5.087651e+00 -1.798082e+01 -2.100025e+00 -1.131272e+01 -1.045033e+01 1.890457e+00 7.884311e-01 2.024209e+01 2.772040e+00 -2.783142e+00 -1.431461e+00 -1.150686e+00 -1.828616e+00 -9.016482e-01 -3.047907e+00 2.938838e+00 8.634636e-02 3.437696e-01 1.607236e+00 -9.707213e-01 5.023824e-01
<VARIANCE> 26
 9.614671e+00 1.637234e+01 3.350446e+01 8.404214e+01 2.676511e+01 3.128984e+01 3.421195e+01 4.109370e+01 3.557835e+01 4.652243e+01 1.761279e+01 1.092225e+01 5.269419e-01 3.211402e+00 1.720833e+00 3.885008e+00 3.731980e+00 4.700463e+00 3.856392e+00 7.740067e+00 3.205266e+00 2.753753e+00 9.432512e+00 3.544860e+00 2.146040e+00 6.605987e-02
<GCONST> 9.985718e+01
<STATE> 4
<MEAN> 26
 -2.243364e+00 -7.942197e+00 9.424932e+00 -1.269842e+01 -1.082241e+01 -1.839043e+00 -2.214634e+01 4.480867e+00 -8.803500e+00 -1.975059e+00 3.600459e+00 -3.676060e+00 2.081966e+01 1.229045e+00 -9.775573e-01 -2.919614e+00 -1.791991e+00 7.983329e-01 2.240124e+00 2.230106e-01 1.805410e-01 2.591114e-01 2.259210e+00 3.097873e-01 -1.291213e+00 1.048451e-01
<VARIANCE> 26
 7.301534e+00 2.075589e+01 5.177839e+01 5.973735e+01 2.452308e+01 3.853314e+01 3.737770e+01 3.305981e+01 3.924035e+01 7.026603e+01 4.308004e+01 2.807210e+01 8.568731e-01 8.067136e-01 3.205144e+00 2.428471e+00 4.513654e+00 3.372929e+00 5.541348e+00 6.283610e+00 6.561930e+00 4.870598e+00 3.625203e+00 5.726088e+00 2.072353e+00 4.404699e-02
<GCONST> 1.018925e+02
<TRANSP> 5
 0.000000e+00 1.000000e+00 0.000000e+00 0.000000e+00 0.000000e+00
 0.000000e+00 7.150841e-01 2.849159e-01 0.000000e+00 0.000000e+00
 0.000000e+00 0.000000e+00 4.657101e-01 5.342899e-01 0.000000e+00
 0.000000e+00 0.000000e+00 0.000000e+00 5.814025e-01 4.185975e-01
 0.000000e+00 0.000000e+00 0.000000e+00 0.000000e+00 0.000000e+00
<ENDHMM>
~h "k"
<BEGINHMM>
<NUMSTATES> 5
<STATE> 2
<MEAN> 26
 -8.320390e+00 7.101933e-01 -1.838610e-02 -1.174045e+00 1.839173e+00 3.878193e-01 -2.672363e+00 -9.450354e-01 -6.201481e+00 7.304741e-02 -1.772681e-01 -2.315231e+00 1.264674e+01 -1.486714e+00 -1.047006e+00 -1.302188e+00 -9.855393e-01 2.568615e-01 4.794819e-01 3.336674e-01 -4.788387e-01 7.451156e-01 1.365781e-01 -1.097804e-01 9.260620e-01 -4.741966e-01
<VARIANCE> 26
 4.070688e+01 3.978065e+01 4.132125e+01 4.441048e+01 3.348238e+01 3.234092e+01 4.495669e+01 3.263126e+01 5.294639e+01 4.415611e+01 3.705011e+01 2.684577e+01 9.717045e+00 5.600704e+00 5.296325e+00 5.914469e+00 1.680947e+01 5.723270e+00 3.519822e+00 8.742885e+00 5.286201e+00 7.340296e+00 4.923707e+00 4.398829e+00 3.433884e+00 2.687922e+00
<GCONST> 1.160178e+02
<STATE> 3
<MEAN> 26
 -9.974635e+00 -6.481965e+00 -7.955274e+00 -1.686986e+01 3.460261e-01 1.926319e+00 -7.861039e+00 -2.529114e+00 -8.369419e+00 3.114150e+00 3.047866e-01 -6.766621e-01 1.565066e+01 6.567544e-01 -1.493475e+00 -1.831853e+00 -5.027929e+00 -3.104706e-01 4.591679e-02 -2.030616e+00 -1.366746e+00 -1.867033e+00 1.024514e+00 -1.014379e-02 -2.216264e-01 1.683895e+00
<VARIANCE> 26
 3.093782e+01 3.751409e+01 7.292363e+01 7.007372e+01 5.473280e+01 4.395627e+01 6.529116e+01 5.048838e+01 4.268086e+01 3.545094e+01 2.573758e+01 2.909707e+01 5.461106e+00 3.615929e+00 3.412064e+00 6.829508e+00 7.636627e+00 4.288369e+00 3.353943e+00 4.016032e+00 4.090895e+00 6.220423e+00 2.044621e+00 3.053452e+00 3.179585e+00 7.779613e-01
<GCONST> 1.114018e+02
<STATE> 4
<MEAN> 26
 -1.020183e+01 -4.162135e+00 -5.902287e+00 -1.687065e+01 7.733148e-01 4.232872e-01 -6.088229e+00 -5.140459e+00 -8.135928e+00 3.515545e+00 -5.787922e-02 -1.254085e-01 1.673627e+01 9.303632e-01 1.394466e+00 2.048584e+00 1.412383e+00 -4.494030e-01 -4.534687e-01 3.646675e-01 -4.272879e-01 -2.214293e-01 -8.372812e-01 5.099842e-01 -9.252200e-02 4.730788e-01
<VARIANCE> 26
 4.606604e+01 2.909232e+01 8.466445e+01 7.665874e+01 5.230049e+01 3.706361e+01 5.832787e+01 4.434552e+01 6.911150e+01 3.746276e+01 3.069200e+01 2.906936e+01 3.286268e+00 5.020965e+00 3.574888e+00 3.936934e+00 6.077281e+00 5.349934e+00 4.178625e+00 6.930227e+00 4.258914e+00 4.675238e+00 3.768941e+00 4.453241e+00 3.277257e+00 4.375618e-01
<GCONST> 1.123113e+02
<TRANSP> 5
 0.000000e+00 1.000000e+00 0.000000e+00 0.000000e+00 0.000000e+00
 0.000000e+00 7.008008e-01 2.991992e-01 0.000000e+00 0.000000e+00
 0.000000e+00 0.000000e+00 4.005459e-01 5.994540e-01 0.000000e+00
 0.000000e+00 0.000000e+00 0.000000e+00 6.140500e-01 3.859500e-01
 0.000000e+00 0.000000e+00 0.000000e+00 0.000000e+00 0.000000e+00
<ENDHMM>
~h "l"
<BEGINHMM>
<NUMSTATES> 5
<STATE> 2
<MEAN> 26
 -1.135399e+00 -3.144734e+00 3.794761e+00 -2.843476e+00 1.273326e+00 -2.585344e+00 -1.344965e+01 -7.178640e+00 -3.080293e+00 2.889996e+00 -3.316100e+00 -3.188482e+00 1.726836e+01 2.209046e+00 -2.620537e-01 1.438334e+00 -1.488616e-02 1.326800e+00 -1.255952e+00 -3.234708e+00 -1.543242e+00 -1.076173e+00 -3.161101e-01 -1.103378e+00 -1.199411e+00 8.292570e-01
<VARIANCE> 26
 5.046483e+01 3.000052e+01 7.763298e+01 3.767792e+01 3.650151e+01 5.094078e+01 9.636429e+01 9.395472e+01 4.185311e+01 4.790268e+01 3.582667e+01 2.829195e+01 1.014002e+01 5.822893e+00 5.133212e+00 4.199893e+00 4.113285e+00 6.705181e+00 4.105237e+00 8.211473e+00 5.937305e+00 4.394589e+00 4.543807e+00 4.184980e+00 3.678769e+00 7.723243e-01
<GCONST> 1.154870e+02
<STATE> 3
<MEAN> 26
 2.488313e+00 -1.785885e+00 1.030154e+01 -4.343349e+00 3.783180e+00 -4.362535e+00 -2.444430e+01 -7.818015e+00 -5.705548e+00 -1.520549e+00 -2.865258e+00 -6.682297e+00 1.961176e+01 -1.441654e-01 1.191027e-01 4.722374e-01 -1.683220e-01 1.094515e-01 8.678457e-02 -7.768477e-01 5.415030e-01 -4.739850e-02 -5.741970e-01 4.699817e-01 -6.137497e-01 1.032341e-01
<VARIANCE> 26
 1.871984e+01 2.816080e+01 9.327166e+01 5.201555e+01 5.400316e+01 4.881509e+01 5.665660e+01 7.307394e+01 3.571821e+01 4.872502e+01 3.342658e+01 4.019558e+01 3.879762e-01 8.174665e-01 2.323654e+00 2.498312e+00 2.324195e+00 2.548059e+00 3.042626e+00 4.694843e+00 4.274755e+00 3.423205e+00 3.170959e+00 2.105365e+00 2.617866e+00 3.463359e-02
<GCONST> 1.006395e+02
<STATE> 4
<MEAN> 26
 1.766099e+00 -5.541084e+00 7.111454e+00 -6.239174e+00 4.689923e-01 -2.864004e+00 -2.050842e+01 -5.377180e+00 -6.603176e+00 2.696787e-01 -8.592011e-01 -8.891668e+00 1.974110e+01 -5.595211e-01 -8.442917e-01 -1.013909e-01 -1.892987e+00 -1.860146e+00 1.035310e-01 1.741107e+00 1.396383e+00 -4.666582e-01 8.983735e-01 1.349671e+00 3.752242e-01 8.154606e-02
<VARIANCE> 26
 1.560934e+01 2.320795e+01 6.580652e+01 8.440400e+01 6.134816e+01 4.730310e+01 8.307958e+01 8.468282e+01 4.605589e+01 7.906224e+01 4.092863e+01 3.635983e+01 1.207515e+00 1.175768e+00 3.465612e+00 8.077090e+00 5.719782e+00 7.225053e+00 5.384653e+00 5.062581e+00 7.341506e+00 6.033560e+00 7.355974e+00 5.156619e+00 3.961280e+00 5.700504e-02
<GCONST> 1.112847e+02
<TRANSP> 5
 0.000000e+00 1.000000e+00 0.000000e+00 0.000000e+00 0.000000e+00
 0.000000e+00 5.704531e-01 4.295469e-01 0.000000e+00 0.000000e+00
 0.000000e+00 0.000000e+00 7.278491e-01 2.721509e-01 0.000000e+00
 0.000000e+00 0.000000e+00 0.000000e+00 6.120336e-01 3.879664e-01
 0.000000e+00 0.000000e+00 0.000000e+00 0.000000e+00 0.000000e+00
<ENDHMM>
~h "m"
<BEGINHMM>
<NUMSTATES> 5
<STATE> 2
<MEAN> 26
 2.101664e+00 -9.236748e-01 2.605385e+00 1.827004e+00 -5.644941e+00 1.125299e+00 -1.005521e+01 -2.932896e-01 -1.976345e+01 -4.715590e+00 8.351316e+00 -6.960323e+00 1.924495e+01 9.693407e-01 6.444296e-01 -1.293740e-01 4.131001e+00 -7.879975e-02 -2.541750e-01 1.683372e-01 -7.658651e-01 -3.721364e+00 -7.334383e-01 1.302737e+00 -1.181819e+00 2.753279e-01
<VARIANCE> 26
 1.673994e+01 2.624621e+01 3.554811e+01 6.446261e+01 3.009446e+01 4.420309e+01 7.053942e+01 3.500881e+01 7.545570e+01 5.990909e+01 4.222790e+01 2.674584e+01 4.818875e+00 2.483090e+00 2.331589e+00 4.604943e+00 9.594510e+00 2.579440e+00 4.385837e+00 6.578446e+00 5.345757e+00 6.234825e+00 3.089895e+00 4.394597e+00 2.340192e+00 3.821913e-01
<GCONST> 1.094879e+02
<STATE> 3
<MEAN> 26
 2.455802e+00 -1.199593e+00 3.210110e+00 7.454202e+00 -7.100545e+00 7.978178e-01 -1.216031e+01 -3.586812e+00 -2.580236e+01 -5.484091e+00 1.291765e+01 -9.725969e+00 2.041386e+01 -1.204888e-01 -2.340784e-01 5.113781e-02 1.692855e-01 9.904231e-02 8.263096e-02 1.216902e-02 -3.130519e-01 -3.975397e-01 1.108115e-01 9.180173e-02 2.935230e-02 3.775732e-02
<VARIANCE> 26
 6.050982e+00 2.064237e+01 1.293377e+01 1.382993e+01 1.953492e+01 4.211937e+01 5.008171e+01 4.228715e+01 3.783164e+01 7.070654e+01 3.914602e+01 3.369897e+01 1.308396e-01 2.271747e-01 1.043540e+00 1.035969e+00 3.114126e+00 1.051745e+00 1.860614e+00 2.309796e+00 1.820398e+00 2.564626e+00 2.308293e+00 2.641068e+00 1.834887e+00 8.633021e-03
<GCONST> 8.565633e+01
<STATE> 4
<MEAN> 26
 2.080880e+00 -3.771417e+00 2.446812e+00 -4.267790e-01 -7.314859e+00 3.579854e+00 -1.304772e+01 -2.320980e+00 -2.156719e+01 -5.315207e+00 9.205109e+00 -7.283837e+00 2.043967e+01 -3.647215e-01 -9.366933e-01 9.286302e-02 -5.271932e+00 -5.070599e-01 7.858234e-01 -4.342050e-01 1.589865e+00 3.655520e+00 2.913056e-01 -1.790951e+00 8.604395e-01 7.358034e-02
<VARIANCE> 26
 7.395440e+00 1.911807e+01 2.274195e+01 7.430798e+01 2.969088e+01 5.743866e+01 5.565671e+01 3.686875e+01 6.335065e+01 6.052518e+01 4.755964e+01 2.498762e+01 1.635493e-01 7.831662e-01 2.613869e+00 4.851723e+00 8.235714e+00 2.864709e+00 3.202308e+00 2.823391e+00 4.471588e+00 4.238779e+00 2.680028e+00 3.558441e+00 2.294954e+00 2.767028e-02
<GCONST> 9.885732e+01
<TRANSP> 5
 0.000000e+00 1.000000e+00 0.000000e+00 0.000000e+00 0.000000e+00
 0.000000e+00 5.908383e-01 4.091617e-01 0.000000e+00 0.000000e+00
 0.000000e+00 0.000000e+00 7.823905e-01 2.176094e-01 0.000000e+00
 0.000000e+00 0.000000e+00 0.000000e+00 6.062793e-01 3.937208e-01
 0.000000e+00 0.000000e+00 0.000000e+00 0.000000e+00 0.000000e+00
<ENDHMM>
~h "n"
<BEGINHMM>
<NUMSTATES> 5
<STATE> 2
<MEAN> 26
 6.430984e-01 2.427451e+00 6.766467e+00 2.977652e+00 -1.158178e+01 2.534480e+00 -1.001944e+01 -1.930781e+00 -1.895731e+01 -1.288317e+00 -3.215249e-02 -7.366895e+00 1.987709e+01 1.037778e+00 1.153296e+00 -1.079187e+00 3.546507e+00 -1.497127e+00 -5.445544e-02 2.120771e+00 -1.401165e+00 -1.989625e+00 7.099218e-01 -8.389043e-01 -1.936038e-01 2.337693e-01
<VARIANCE> 26
 9.628462e+00 2.407029e+01 2.030472e+01 4.202475e+01 4.207216e+01 4.649916e+01 4.525652e+01 4.507072e+01 5.790773e+01 5.060698e+01 4.160500e+01 2.077266e+01 2.171283e+00 1.705509e+00 2.171201e+00 5.506096e+00 4.831118e+00 4.334715e+00 3.229365e+00 6.756238e+00 3.675928e+00 5.734318e+00 3.860479e+00 3.146330e+00 2.873232e+00 3.336147e-01
<GCONST> 1.053416e+02
<STATE> 3
<MEAN> 26
 1.590571e+00 2.409740e+00 5.352329e+00 7.856641e+00 -1.446966e+01 2.396955e+00 -5.997522e+00 -5.114090e+00 -1.840805e+01 -1.755947e+00 -9.827126e-01 -6.367093e+00 2.042772e+01 -8.282735e-02 -8.433836e-02 -2.773732e-02 3.544918e-02 7.786393e-02 -2.480333e-01 2.999764e-01 2.392153e-02 2.419773e-01 -3.245275e-01 2.244977e-01 1.286719e-01 2.941820e-02
<VARIANCE> 26
 5.725166e+00 1.317822e+01 7.848821e+00 1.583499e+01 1.428949e+01 1.973978e+01 2.675696e+01 2.541752e+01 3.525824e+01 5.977547e+01 4.326342e+01 2.029543e+01 1.866390e-01 2.462063e-01 1.049516e+00 6.765285e-01 1.058900e+00 1.173823e+00 1.622447e+00 1.331509e+00 1.320764e+00 1.854175e+00 2.213864e+00 1.965024e+00 1.719425e+00 6.937599e-03
<GCONST> 7.902843e+01
<STATE> 4
<MEAN> 26
 -3.075148e-01 3.652490e-01 7.497281e+00 1.647334e+00 -1.210392e+01 9.545148e-01 -1.042430e+01 -2.443752e+00 -1.512884e+01 -5.304434e+00 1.720699e+00 -6.463110e+00 2.056029e+01 -8.560947e-01 -1.156335e+00 8.766547e-01 -3.799544e+00 1.317003e+00 -2.629514e-01 -2.479514e+00 1.524408e+00 2.134010e+00 -1.205187e+00 1.458383e+00 -1.009295e-01 3.249450e-02
<VARIANCE> 26
 6.490768e+00 1.697025e+01 1.950106e+01 5.073711e+01 2.913886e+01 3.441114e+01 4.009046e+01 3.130161e+01 4.915033e+01 8.109814e+01 4.989981e+01 3.551943e+01 1.445691e-01 5.318310e-01 1.435330e+00 3.104679e+00 5.087574e+00 3.679676e+00 3.204381e+00 5.415245e+00 3.903180e+00 5.285798e+00 3.271701e+00 3.398445e+00 2.122576e+00 7.713398e-03
<GCONST> 9.523521e+01
<TRANSP> 5
 0.000000e+00 1.000000e+00 0.000000e+00 0.000000e+00 0.000000e+00
 0.000000e+00 6.015638e-01 3.984361e-01 0.000000e+00 0.000000e+00
 0.000000e+00 0.000000e+00 7.242446e-01 2.757553e-01 0.000000e+00
 0.000000e+00 0.000000e+00 0.000000e+00 6.717036e-01 3.282964e-01
 0.000000e+00 0.000000e+00 0.000000e+00 0.000000e+00 0.000000e+00
<ENDHMM>
~h "o"
<BEGINHMM>
<NUMSTATES> 5
<STATE> 2
<MEAN> 26
 -2.868117e-01 -6.364582e-02 1.075276e+00 -2.057231e+01 -8.292216e+00 6.565713e+00 -1.440370e+01 -7.445302e+00 -1.235433e+01 -6.066108e-03 7.917204e+00 -5.864966e+00 2.034028e+01 1.993834e+00 -7.313093e-01 7.785797e-02 -3.078625e+00 -3.061405e+00 2.174563e+00 -2.858114e+00 1.691909e-01 -1.962217e+00 -1.115164e-01 2.644015e+00 -1.704009e+00 7.926145e-01
<VARIANCE> 26
 1.441382e+01 3.667414e+01 2.353885e+01 7.463869e+01 5.102615e+01 3.341644e+01 7.509649e+01 5.291108e+01 5.252296e+01 4.923642e+01 7.315863e+01 3.307401e+01 2.628929e+00 4.232859e+00 3.206551e+00 4.074205e+00 6.759935e+00 4.774929e+00 3.013947e+00 4.640757e+00 4.242487e+00 6.145027e+00 4.957672e+00 5.280359e+00 3.749294e+00 2.902925e-01
<GCONST> 1.106067e+02
<STATE> 3
<MEAN> 26
 1.524609e+00 -3.694693e+00 -1.713631e+00 -2.709040e+01 -1.182884e+01 1.156390e+01 -1.580742e+01 -5.552356e+00 -1.441030e+01 1.698607e+00 1.109335e+01 -8.038525e+00 2.171173e+01 3.696776e-02 -6.123435e-02 -2.514923e-01 -3.328455e-01 2.799635e-02 1.702928e-01 3.623782e-01 -4.855074e-03 -2.054160e-01 -9.696189e-02 -3.659574e-01 4.193899e-03 2.574085e-02
<VARIANCE> 26
 5.133077e+00 3.239471e+01 2.521750e+01 3.729570e+01 3.130107e+01 1.653307e+01 4.775364e+01 3.533564e+01 3.527366e+01 8.502969e+01 4.214074e+01 2.948335e+01 3.377669e-01 3.944744e-01 1.161654e+00 1.341140e+00 3.133608e+00 2.087450e+00 1.932199e+00 3.581102e+00 1.769049e+00 2.464642e+00 2.438841e+00 2.612512e+00 1.959664e+00 2.818696e-02
<GCONST> 9.122430e+01
<STATE> 4
<MEAN> 26
 1.147171e+00 -1.758178e+00 8.376013e-02 -2.062291e+01 -7.759098e+00 6.774942e+00 -1.630240e+01 -6.935703e+00 -1.345444e+01 -3.377859e-01 6.568674e+00 -8.162156e+00 2.078681e+01 -3.550090e-01 9.571491e-01 7.830248e-01 3.681059e+00 2.184329e+00 -2.007717e+00 1.750378e+00 -2.485359e-02 1.394347e+00 -3.892811e-01 -2.560072e+00 8.610256e-01 -4.869669e-01
<VARIANCE> 26
 9.312241e+00 4.375442e+01 3.412768e+01 9.981929e+01 3.866643e+01 3.579131e+01 1.253737e+02 5.888067e+01 3.560882e+01 5.844485e+01 6.589325e+01 5.571114e+01 1.190045e+00 2.139538e+00 3.522053e+00 2.962950e+00 6.176142e+00 4.625736e+00 3.460030e+00 6.465191e+00 3.511467e+00 5.922884e+00 4.741955e+00 5.196351e+00 2.672131e+00 1.293321e-01
<GCONST> 1.088332e+02
<TRANSP> 5
 0.000000e+00 1.000000e+00 0.000000e+00 0.000000e+00 0.000000e+00
 0.000000e+00 5.895833e-01 4.104168e-01 0.000000e+00 0.000000e+00
 0.000000e+00 0.000000e+00 8.323845e-01 1.676155e-01 0.000000e+00
 0.000000e+00 0.000000e+00 0.000000e+00 6.181903e-01 3.818097e-01
 0.000000e+00 0.000000e+00 0.000000e+00 0.000000e+00 0.000000e+00
<ENDHMM>
~h "p"
<BEGINHMM>
<NUMSTATES> 5
<STATE> 2
<MEAN> 26
 -4.308069e+00 7.550031e+00 4.119091e+00 2.910511e+00 1.786178e+00 3.520827e-01 -4.017928e+00 -3.718709e+00 -6.544669e+00 -2.189673e+00 -1.292147e+00 -5.389838e+00 1.393994e+01 -3.032636e+00 2.001439e-01 -5.302561e-01 1.777203e+00 9.781550e-01 1.597554e-01 1.537798e+00 6.929645e-01 1.789997e+00 -5.370391e-02 -4.507985e-01 2.107133e-01 -1.654063e+00
<VARIANCE> 26
 5.037539e+01 2.676023e+01 2.426576e+01 2.202663e+01 2.110185e+01 1.888237e+01 3.661830e+01 2.388639e+01 3.662624e+01 2.815330e+01 2.484336e+01 1.895621e+01 8.413146e+00 3.328565e+00 7.839245e+00 3.602310e+00 8.857399e+00 2.401777e+00 3.330894e+00 3.971751e+00 3.267022e+00 3.137536e+00 3.908634e+00 3.046820e+00 2.359276e+00 5.468851e-01
<GCONST> 1.044995e+02
<STATE> 3
<MEAN> 26
 -1.345946e+01 2.170121e+00 -1.073827e-01 1.593773e+00 1.993354e+00 1.507770e+00 -3.151918e-01 1.613887e+00 1.841683e-01 1.726883e+00 1.533799e+00 -8.049871e-01 9.685845e+00 1.320273e-02 -7.509844e-01 -3.715461e-01 -1.174825e+00 -2.591719e-01 -2.361703e-01 6.137504e-02 -8.644371e-02 3.939985e-01 4.233183e-01 3.081990e-01 7.225398e-01 3.034179e-01
<VARIANCE> 26
 2.045299e+00 3.911498e+00 5.833491e+00 8.317726e+00 1.064776e+01 1.080626e+01 1.418737e+01 1.298547e+01 1.345477e+01 1.380978e+01 1.337739e+01 1.680322e+01 2.745659e+00 1.535517e+00 1.049847e+00 1.378454e+00 2.783821e+00 1.617298e+00 1.371196e+00 1.827703e+00 2.948224e+00 2.240616e+00 2.087718e+00 1.735591e+00 2.188213e+00 1.106365e+00
<GCONST> 8.263913e+01
<STATE> 4
<MEAN> 26
 -1.061633e+01 -1.981941e+00 7.878935e-01 -6.944767e+00 2.778890e+00 -7.378811e-01 -1.139320e+00 -3.680670e+00 -3.754538e-01 3.030199e+00 2.345774e-01 2.124167e+00 1.519778e+01 2.026668e+00 -1.246606e+00 -5.120544e-02 -3.361562e+00 -3.970450e-01 5.351599e-01 -1.721708e+00 -1.172069e+00 -1.200706e+00 1.753706e-01 9.540176e-03 -6.852255e-01 1.981553e+00
<VARIANCE> 26
 1.664091e+01 1.475445e+01 1.725151e+01 2.029030e+01 1.897403e+01 2.303662e+01 2.149822e+01 2.273569e+01 2.711951e+01 1.685414e+01 1.678719e+01 1.961054e+01 4.627349e+00 4.688698e+00 2.928514e+00 3.352981e+00 6.432053e+00 4.305610e+00 5.392312e+00 5.411897e+00 3.094636e+00 5.258827e+00 3.379405e+00 3.241705e+00 4.109600e+00 1.083416e+00
<GCONST> 1.020729e+02
<TRANSP> 5
 0.000000e+00 1.000000e+00 0.000000e+00 0.000000e+00 0.000000e+00
 0.000000e+00 6.837689e-01 3.162312e-01 0.000000e+00 0.000000e+00
 0.000000e+00 0.000000e+00 7.838178e-01 2.161822e-01 0.000000e+00
 0.000000e+00 0.000000e+00 0.000000e+00 5.652870e-01 4.347130e-01
 0.000000e+00 0.000000e+00 0.000000e+00 0.000000e+00 0.000000e+00
<ENDHMM>
~h "q"
<BEGINHMM>
<NUMSTATES> 5
<STATE> 2
<MEAN> 26
 -1.632864e+00 -3.757008e+00 6.031285e+00 -1.475631e+01 -5.529041e+00 2.910972e+00 -1.871690e+01 -5.937471e+00 -9.225578e+00 3.061289e+00 4.456801e+00 -6.504867e+00 2.023222e+01 1.448145e+00 -1.479551e+00 7.968589e-02 -6.714141e-01 -1.449475e+00 3.904723e-01 -3.533748e+00 5.943165e-01 -9.883046e-01 1.132735e+00 1.853546e+00 -1.955546e+00 4.242316e-01
<VARIANCE> 26
 1.704375e+01 2.126267e+01 4.149562e+01 6.571806e+01 5.304896e+01 6.681013e+01 7.476267e+01 4.828413e+01 2.965252e+01 5.118755e+01 3.142916e+01 3.405268e+01 1.723054e+00 4.150262e+00 2.082753e+00 2.531158e+00 4.349335e+00 5.436606e+00 4.352737e+00 6.765181e+00 3.740829e+00 3.762022e+00 3.273530e+00 4.023712e+00 3.638093e+00 1.625645e-01
<GCONST> 1.071262e+02
<STATE> 3
<MEAN> 26
 -1.037453e+00 -6.397178e+00 7.234522e+00 -1.313122e+01 -6.955424e+00 1.070095e+00 -2.593436e+01 -2.962271e+00 -9.124187e+00 3.584232e+00 7.137993e+00 -1.078220e+01 2.074121e+01 1.805148e-01 3.818779e-01 -1.501260e-01 2.517588e-01 5.749232e-01 -2.756856e-01 4.171778e-01 2.843711e-01 -3.394694e-01 2.327745e-01 -2.901884e-01 3.487809e-01 -1.091523e-01
<VARIANCE> 26
 1.073623e+01 1.276677e+01 3.296147e+01 2.495803e+01 3.133502e+01 2.400751e+01 4.939516e+01 4.478438e+01 3.477441e+01 5.616359e+01 3.184832e+01 2.010795e+01 1.300459e+00 5.496669e-01 1.366999e+00 1.864876e+00 3.640795e+00 2.327748e+00 2.832190e+00 3.219871e+00 3.017153e+00 1.922173e+00 4.185993e+00 2.363755e+00 1.789590e+00 5.019324e-02
<GCONST> 9.436933e+01
<STATE> 4
<MEAN> 26
 1.174551e+00 -1.293903e+00 1.280077e+00 -9.435701e+00 3.549222e+00 -8.385958e-01 -8.951051e+00 -2.869590e+00 -8.114884e+00 2.354673e+00 4.581078e-01 -3.256821e+00 1.866904e+01 -5.201984e-01 1.658382e+00 3.116081e-02 2.468498e+00 1.108817e+00 2.956562e-01 3.078072e+00 -4.300052e-01 1.532318e+00 -1.051894e+00 -8.605740e-01 1.037421e+00 -5.100356e-01
<VARIANCE> 26
 2.009664e+01 2.457839e+01 5.488023e+01 5.343093e+01 7.456133e+01 4.561554e+01 1.799388e+02 3.787698e+01 4.455230e+01 7.310088e+01 4.581354e+01 3.381464e+01 2.455163e+00 2.393367e+00 3.276511e+00 2.042365e+00 3.744211e+00 3.441395e+00 4.676538e+00 4.624131e+00 4.139023e+00 3.839976e+00 3.389284e+00 3.322797e+00 2.785410e+00 1.563133e-01
<GCONST> 1.080212e+02
<TRANSP> 5
 0.000000e+00 1.000000e+00 0.000000e+00 0.000000e+00 0.000000e+00
 0.000000e+00 5.102323e-01 4.897678e-01 0.000000e+00 0.000000e+00
 0.000000e+00 0.000000e+00 6.878343e-01 3.121657e-01 0.000000e+00
 0.000000e+00 0.000000e+00 0.000000e+00 6.333141e-01 3.666859e-01
 0.000000e+00 0.000000e+00 0.000000e+00 0.000000e+00 0.000000e+00
<ENDHMM>
~h "r"
<BEGINHMM>
<NUMSTATES> 5
<STATE> 2
<MEAN> 26
 -2.623621e+00 -7.970031e-02 -2.294400e+00 -2.124841e+01 1.045115e+00 7.372431e+00 -5.151423e+00 -8.598566e+00 -3.277956e+00 3.775919e+00 -1.781169e+00 -1.169940e+00 1.885777e+01 -8.670906e-01 1.840504e+00 -7.771850e-01 5.322219e-01 1.449029e+00 1.214765e+00 7.141476e-01 -6.394853e-01 1.484448e+00 -6.085944e-01 -2.038266e-01 1.302709e+00 -3.972684e-01
<VARIANCE> 26
 1.682224e+01 4.055207e+01 2.346584e+01 4.775844e+01 8.216179e+01 3.888915e+01 5.298680e+01 3.767252e+01 4.721782e+01 5.601031e+01 3.508937e+01 3.059060e+01 2.107172e+00 2.503488e+00 3.104245e+00 2.603740e+00 6.035752e+00 5.030637e+00 5.257138e+00 5.146231e+00 4.215428e+00 4.423453e+00 3.801750e+00 4.098365e+00 3.255058e+00 2.845632e-01
<GCONST> 1.079181e+02
<STATE> 3
<MEAN> 26
 -8.651976e+00 1.120514e+00 -5.125911e+00 -1.702288e+01 9.018152e+00 1.220562e+01 -4.970125e+00 -6.453916e+00 1.827247e+00 2.569591e+00 4.543976e-01 2.434145e+00 1.708842e+01 -4.286657e-01 2.337303e-02 -1.819093e-01 4.700871e-01 -2.233818e-02 -2.111815e-01 1.549871e-01 4.136489e-01 1.156101e-01 -1.425050e-01 3.807930e-01 2.570386e-01 -2.101697e-01
<VARIANCE> 26
 1.676938e+01 2.263492e+01 1.575730e+01 3.235792e+01 7.542669e+01 3.855333e+01 4.229492e+01 3.300367e+01 3.289634e+01 3.267270e+01 2.930226e+01 2.262790e+01 2.689879e+00 1.261171e+00 1.369007e+00 1.649077e+00 2.141645e+00 3.183885e+00 3.055268e+00 2.771139e+00 3.467009e+00 2.794347e+00 3.111615e+00 2.528403e+00 1.892779e+00 1.078696e-01
<GCONST> 9.748774e+01
<STATE> 4
<MEAN> 26
 -4.993024e+00 2.697665e+00 -3.533546e+00 -1.764034e+01 2.918304e-01 6.065945e+00 -3.419124e+00 -6.813392e+00 -9.937426e-01 1.528486e+00 2.956698e-01 1.786447e+00 1.753215e+01 7.350906e-01 -4.652297e-01 8.976700e-01 9.793326e-01 -1.298262e+00 -1.277341e+00 -4.273945e-02 4.282403e-01 -1.115415e+00 -9.890852e-02 2.989705e-01 -6.644787e-01 7.699119e-02
<VARIANCE> 26
 3.248156e+01 5.034132e+01 3.344799e+01 5.238876e+01 8.955770e+01 4.308986e+01 5.560518e+01 4.733047e+01 6.245295e+01 4.040289e+01 3.248207e+01 3.241924e+01 5.886443e+00 2.516818e+00 2.773430e+00 3.164111e+00 6.057925e+00 5.608642e+00 3.753123e+00 3.658767e+00 4.541659e+00 3.984642e+00 3.404619e+00 3.509671e+00 2.668500e+00 3.992279e-01
<GCONST> 1.100320e+02
<TRANSP> 5
 0.000000e+00 1.000000e+00 0.000000e+00 0.000000e+00 0.000000e+00
 0.000000e+00 5.920480e-01 4.079520e-01 0.000000e+00 0.000000e+00
 0.000000e+00 0.000000e+00 6.530499e-01 3.469501e-01 0.000000e+00
 0.000000e+00 0.000000e+00 0.000000e+00 5.666173e-01 4.333827e-01
 0.000000e+00 0.000000e+00 0.000000e+00 0.000000e+00 0.000000e+00
<ENDHMM>
~h "s"
<BEGINHMM>
<NUMSTATES> 5
<STATE> 2
<MEAN> 26
 -1.909057e+01 3.446409e+00 -9.047947e-01 -7.288664e+00 3.236145e+00 -2.192417e+00 -1.798203e+00 -1.855918e+00 -2.473702e+00 1.824044e+00 -1.365245e+00 8.581346e-01 1.614431e+01 -3.909162e+00 -4.760904e-01 -2.162010e+00 -5.253865e-01 2.102771e-01 5.838543e-01 4.750393e-01 3.918537e-01 7.446361e-01 5.905254e-01 4.231472e-01 1.114441e+00 -2.285754e-01
<VARIANCE> 26
 4.545997e+01 3.418599e+01 3.923560e+01 3.346526e+01 3.314706e+01 4.218350e+01 2.672305e+01 3.633403e+01 3.039090e+01 2.414504e+01 2.576016e+01 2.037748e+01 5.728223e+00 3.799328e+00 3.695520e+00 5.066084e+00 5.570181e+00 4.295367e+00 5.156057e+00 4.184624e+00 3.162179e+00 4.309633e+00 2.817275e+00 2.579168e+00 2.611254e+00 4.067601e-01
<GCONST> 1.062084e+02
<STATE> 3
<MEAN> 26
 -2.823071e+01 1.774553e+00 -8.835551e+00 -1.134953e+01 -3.710693e-01 -1.529566e+00 -3.975446e+00 -2.408417e+00 -3.440239e+00 2.650597e+00 3.790765e-01 3.619369e+00 1.669232e+01 -2.118592e-01 -1.026383e-02 3.855341e-02 -1.942884e-01 -2.268126e-01 2.173350e-02 -2.426981e-01 -2.078630e-01 -2.107613e-02 -7.138734e-02 -2.571310e-03 1.062478e-01 5.987222e-02
<VARIANCE> 26
 5.997874e+00 8.887824e+00 2.293125e+01 3.044012e+01 2.861183e+01 2.750239e+01 2.100704e+01 2.458539e+01 2.132767e+01 1.811463e+01 1.360395e+01 1.349014e+01 9.161478e-01 6.045663e-01 7.318511e-01 1.738628e+00 1.345207e+00 1.786550e+00 2.032343e+00 1.742308e+00 1.792273e+00 1.800932e+00 1.763662e+00 1.468389e+00 1.444339e+00 4.394582e-02
<GCONST> 8.355083e+01
<STATE> 4
<MEAN> 26
 -2.495950e+01 1.773400e+00 -2.292779e+00 -1.079120e+01 9.539409e-01 -9.758002e-01 -3.684117e+00 -3.802078e+00 -2.534383e+00 2.067791e+00 -1.773222e+00 2.470486e+00 1.672180e+01 4.007140e+00 5.139593e-02 2.978795e+00 5.240607e-01 -2.718021e-01 -6.248069e-01 -1.128848e+00 -4.160354e-01 -1.135224e+00 -6.085084e-01 -4.398690e-01 -1.518029e+00 2.059926e-01
<VARIANCE> 26
 2.780576e+01 2.867976e+01 4.941255e+01 3.340726e+01 4.678983e+01 4.492562e+01 2.488371e+01 2.883169e+01 2.362871e+01 2.065975e+01 1.781849e+01 2.099627e+01 1.769389e+00 5.893112e+00 3.155241e+00 4.469889e+00 5.426412e+00 3.427182e+00 5.567148e+00 5.532248e+00 3.058944e+00 3.149249e+00 3.829083e+00 2.733834e+00 3.241085e+00 5.415792e-01
<GCONST> 1.047343e+02
<TRANSP> 5
 0.000000e+00 1.000000e+00 0.000000e+00 0.000000e+00 0.000000e+00
 0.000000e+00 7.259320e-01 2.740680e-01 0.000000e+00 0.000000e+00
 0.000000e+00 0.000000e+00 8.845918e-01 1.154082e-01 0.000000e+00
 0.000000e+00 0.000000e+00 0.000000e+00 6.364673e-01 3.635326e-01
 0.000000e+00 0.000000e+00 0.000000e+00 0.000000e+00 0.000000e+00
<ENDHMM>
~h "t"
<BEGINHMM>
<NUMSTATES> 5
<STATE> 2
<MEAN> 26
 -4.890273e+00 8.197594e+00 6.169044e+00 2.097360e+00 3.176873e-01 -3.175695e+00 -4.791759e+00 -2.529160e+00 -6.463678e+00 -1.635185e+00 -2.305189e+00 -4.106281e+00 1.468516e+01 -2.023196e+00 2.159547e-01 -1.206583e+00 1.688386e+00 8.855951e-01 1.016456e+00 1.330326e+00 4.555449e-01 1.533238e+00 -7.426032e-01 -1.583303e-01 8.839311e-02 -1.711491e+00
<VARIANCE> 26
 4.601041e+01 3.452375e+01 3.556450e+01 3.474017e+01 3.981092e+01 4.099727e+01 3.416109e+01 2.780457e+01 4.087981e+01 3.417390e+01 2.518444e+01 2.421913e+01 7.509741e+00 4.475716e+00 8.664020e+00 4.201278e+00 9.011354e+00 3.871790e+00 4.592433e+00 3.669770e+00 3.652468e+00 3.658345e+00 2.947849e+00 2.858437e+00 2.789041e+00 5.282736e-01
<GCONST> 1.087815e+02
<STATE> 3
<MEAN> 26
 -1.335357e+01 2.487697e+00 4.427420e-01 1.025659e+00 1.882869e+00 1.211398e+00 -8.721883e-01 9.253222e-01 -6.187872e-01 7.217484e-01 5.964718e-01 -1.153823e+00 9.842660e+00 -9.461907e-01 -1.936136e+00 -7.649976e-01 -1.958653e+00 -3.350656e-01 3.439104e-01 1.507133e-01 -7.453944e-02 5.813807e-01 6.025802e-01 3.716974e-01 9.335382e-01 2.862013e-01
<VARIANCE> 26
 5.033826e+00 7.913938e+00 8.415492e+00 1.718656e+01 1.230955e+01 1.311962e+01 1.544771e+01 1.617545e+01 1.836756e+01 1.583182e+01 1.623194e+01 1.572159e+01 2.985784e+00 2.495802e+00 3.902693e+00 3.255474e+00 6.652138e+00 2.337037e+00 3.324269e+00 2.384588e+00 3.225934e+00 3.577338e+00 2.503930e+00 1.999853e+00 2.772479e+00 1.375503e+00
<GCONST> 9.302378e+01
<STATE> 4
<MEAN> 26
 -1.733099e+01 -4.231144e+00 -9.322326e-01 -1.262849e+01 1.218407e+00 -8.146002e-01 -4.138094e+00 -3.460876e+00 -1.344079e+00 2.412426e+00 1.181373e-01 3.471598e+00 1.613462e+01 3.802732e-01 6.710803e-02 3.933400e-01 -1.676962e+00 1.062592e-01 -6.362267e-01 -1.481269e+00 -5.497712e-01 -5.582016e-01 2.310389e-01 -1.703862e-01 -2.590816e-01 1.250296e+00
<VARIANCE> 26
 2.830762e+01 3.902387e+01 4.007160e+01 3.361751e+01 4.083532e+01 4.451049e+01 2.974345e+01 3.413369e+01 3.131881e+01 2.265959e+01 2.223063e+01 2.125147e+01 2.839398e+00 6.047728e+00 4.792790e+00 6.095412e+00 7.525931e+00 4.595398e+00 4.919182e+00 5.270987e+00 3.728050e+00 4.277782e+00 3.720965e+00 2.616426e+00 4.663231e+00 9.153184e-01
<GCONST> 1.086617e+02
<TRANSP> 5
 0.000000e+00 1.000000e+00 0.000000e+00 0.000000e+00 0.000000e+00
 0.000000e+00 6.167381e-01 3.832619e-01 0.000000e+00 0.000000e+00
 0.000000e+00 0.000000e+00 6.900811e-01 3.099189e-01 0.000000e+00
 0.000000e+00 0.000000e+00 0.000000e+00 7.337435e-01 2.662565e-01
 0.000000e+00 0.000000e+00 0.000000e+00 0.000000e+00 0.000000e+00
<ENDHMM>
~h "u"
<BEGINHMM>
<NUMSTATES> 5
<STATE> 2
<MEAN> 26
 4.571226e-01 4.451284e+00 1.765005e+00 -1.295284e+01 -5.473073e+00 1.876708e+00 -1.075430e+01 -6.679118e+00 -1.171110e+01 -8.055281e+00 3.990223e+00 -5.355463e+00 1.940250e+01 3.089320e+00 1.565055e+00 9.182914e-02 -2.779121e+00 -2.757460e+00 1.452505e+00 -1.246114e+00 -5.349728e-01 -2.063614e+00 -3.027695e+00 1.826200e+00 -1.048639e+00 8.037934e-01
<VARIANCE> 26
 2.610974e+01 3.372929e+01 9.675014e+00 6.230927e+01 7.016016e+01 5.163300e+01 4.651741e+01 7.923647e+01 3.968930e+01 5.365672e+01 6.459721e+01 4.938251e+01 1.143824e+00 4.217537e+00 2.644940e+00 2.202627e+00 4.772829e+00 6.922210e+00 4.101646e+00 4.550636e+00 6.629669e+00 6.278504e+00 6.515383e+00 4.254532e+00 4.598004e+00 4.655759e-01
<GCONST> 1.106781e+02
<STATE> 3
<MEAN> 26
 3.578458e+00 5.103759e+00 7.224658e-01 -1.671302e+01 -1.354964e+01 6.288426e+00 -1.114108e+01 -5.712832e+00 -1.319755e+01 -1.503878e+01 6.298233e+00 -6.583711e+00 2.054237e+01 1.244607e-01 1.618419e-01 -8.906855e-02 -4.620554e-01 -5.157126e-01 1.716430e-01 6.522676e-02 3.237328e-01 -1.966007e-01 2.209765e-01 -3.555645e-01 -3.149752e-01 1.010014e-04
<VARIANCE> 26
 1.074130e+01 1.112272e+01 1.601525e+01 1.111184e+02 4.612743e+01 3.507967e+01 3.014802e+01 4.698805e+01 3.943282e+01 5.686281e+01 5.266468e+01 4.842889e+01 3.612690e-01 4.499300e-01 1.074298e+00 9.477010e-01 2.104900e+00 2.626229e+00 2.520696e+00 2.585445e+00 3.026921e+00 2.510150e+00 3.180536e+00 2.727280e+00 2.180406e+00 2.011155e-02
<GCONST> 9.310305e+01
<STATE> 4
<MEAN> 26
 2.552349e+00 5.331700e+00 2.047217e+00 -1.572334e+01 -8.933856e+00 4.394062e+00 -1.105995e+01 -5.832796e+00 -1.443105e+01 -8.778286e+00 4.384748e+00 -5.821962e+00 1.977110e+01 -1.042808e+00 -6.467661e-02 4.052728e-01 4.064328e-01 1.748537e+00 -6.194050e-01 7.930365e-01 -1.406783e+00 1.140539e+00 2.249213e+00 -1.596103e+00 1.289871e+00 -3.128648e-01
<VARIANCE> 26
 1.524150e+01 2.129956e+01 2.034505e+01 1.191727e+02 6.614426e+01 3.958984e+01 4.531959e+01 9.847214e+01 6.368496e+01 5.222757e+01 5.457332e+01 5.637002e+01 7.389328e-01 1.064300e+00 1.853004e+00 2.186606e+00 3.870045e+00 6.265778e+00 4.160222e+00 4.192163e+00 4.794814e+00 4.894490e+00 7.537519e+00 5.490867e+00 3.343668e+00 7.851120e-02
<GCONST> 1.065231e+02
<TRANSP> 5
 0.000000e+00 1.000000e+00 0.000000e+00 0.000000e+00 0.000000e+00
 0.000000e+00 5.887930e-01 4.112071e-01 0.000000e+00 0.000000e+00
 0.000000e+00 0.000000e+00 8.182637e-01 1.817364e-01 0.000000e+00
 0.000000e+00 0.000000e+00 0.000000e+00 6.492925e-01 3.507076e-01
 0.000000e+00 0.000000e+00 0.000000e+00 0.000000e+00 0.000000e+00
<ENDHMM>
~h "v"
<BEGINHMM>
<NUMSTATES> 5
<STATE> 2
<MEAN> 26
 -1.977820e+00 2.559697e+00 3.469478e+00 -5.638960e+00 4.111130e+00 9.117273e-01 -1.021950e+01 -7.227579e+00 -8.003107e+00 4.048483e+00 4.492561e+00 -6.974929e-01 1.785033e+01 -5.981265e-01 1.527692e+00 5.314663e-01 1.395973e+00 1.611927e+00 8.315969e-01 7.213326e-01 -1.359680e+00 1.042569e-01 -2.467408e-01 -3.594289e-01 4.295301e-01 -4.369570e-02
<VARIANCE> 26
 1.838673e+01 1.109132e+01 1.540162e+01 2.862713e+01 1.703497e+01 3.495796e+01 3.292799e+01 3.113284e+01 3.174753e+01 2.658934e+01 1.635192e+01 1.340339e+01 4.234455e+00 4.832767e+00 2.490605e+00 1.827734e+00 6.321950e+00 2.438431e+00 1.809726e+00 6.123628e+00 2.573960e+00 4.731729e+00 2.928232e+00 2.091163e+00 1.216959e+00 5.975316e-01
<GCONST> 9.830986e+01
<STATE> 3
<MEAN> 26
 -8.063969e+00 7.628230e+00 6.821998e+00 2.633561e-01 7.354932e+00 4.411548e+00 -5.907230e+00 -8.160982e+00 -7.353481e+00 1.604252e+00 -3.553977e-01 5.879183e-01 1.755721e+01 -1.015026e+00 -4.926658e-02 1.717963e-01 2.981813e-01 7.373448e-02 3.556039e-01 6.114957e-01 3.098684e-01 -1.710062e-02 -2.362059e-01 -6.518884e-01 1.291092e-01 -1.087378e-01
<VARIANCE> 26
 8.487012e+00 7.171083e+00 1.977956e+01 1.762047e+01 1.667246e+01 2.209551e+01 2.246471e+01 1.976827e+01 1.779473e+01 1.231244e+01 1.566429e+01 8.953663e+00 2.801138e-01 8.169860e-01 1.331180e+00 1.316693e+00 1.514640e+00 1.500661e+00 1.410830e+00 1.492985e+00 1.917199e+00 1.017128e+00 1.538315e+00 1.700410e+00 9.711314e-01 2.647314e-02
<GCONST> 7.870624e+01
<STATE> 4
<MEAN> 26
 -8.019516e+00 3.420247e+00 4.121263e+00 -4.239834e+00 3.978428e+00 4.004696e+00 -5.679564e+00 -6.598440e+00 -7.324473e+00 5.617972e-01 9.649441e-03 4.211917e-01 1.803784e+01 1.338708e+00 -2.014591e+00 -3.432625e-01 -2.753498e+00 -2.299801e+00 -8.926012e-01 -2.097845e+00 9.044585e-01 3.704173e-01 -2.110552e-01 1.305888e+00 -9.264776e-01 4.989506e-01
<VARIANCE> 26
 7.747851e+00 1.153450e+01 2.220657e+01 2.304463e+01 1.849282e+01 2.022592e+01 2.362115e+01 1.753419e+01 1.702132e+01 1.629326e+01 1.668797e+01 1.065320e+01 4.334872e-01 1.857692e+00 2.042682e+00 2.691783e+00 2.647105e+00 2.208072e+00 2.674592e+00 3.197788e+00 2.265234e+00 1.513998e+00 3.066277e+00 2.552728e+00 1.892806e+00 7.122184e-02
<GCONST> 8.795770e+01
<TRANSP> 5
 0.000000e+00 1.000000e+00 0.000000e+00 0.000000e+00 0.000000e+00
 0.000000e+00 6.373227e-01 3.626773e-01 0.000000e+00 0.000000e+00
 0.000000e+00 0.000000e+00 7.549729e-01 2.450272e-01 0.000000e+00
 0.000000e+00 0.000000e+00 0.000000e+00 5.587718e-01 4.412282e-01
 0.000000e+00 0.000000e+00 0.000000e+00 0.000000e+00 0.000000e+00
<ENDHMM>
~h "w"
<BEGINHMM>
<NUMSTATES> 5
<STATE> 2
<MEAN> 26
 8.186331e-02 4.755291e+00 1.318335e+00 -1.557667e+01 -7.334119e+00 2.508923e+00 -5.672707e+00 -2.946563e+00 -8.855233e+00 -3.864338e+00 3.736884e+00 -2.050371e+00 1.827816e+01 3.048056e+00 4.989652e-01 -9.329096e-03 -2.448630e+00 -2.062242e+00 3.476414e-01 -1.381344e+00 1.616684e+00 -2.490322e+00 -1.557352e+00 6.178639e-01 -1.842786e+00 8.116796e-01
<VARIANCE> 26
 3.474849e+01 3.322160e+01 2.617502e+01 7.375155e+01 4.878204e+01 4.762555e+01 5.128093e+01 7.531240e+01 7.894566e+01 5.316171e+01 4.900595e+01 4.759777e+01 6.192554e+00 4.757362e+00 4.387907e+00 2.667197e+00 5.664173e+00 5.341990e+00 5.002328e+00 5.137983e+00 4.244918e+00 6.059476e+00 5.008461e+00 3.705268e+00 3.192606e+00 4.651625e-01
<GCONST> 1.135711e+02
<STATE> 3
<MEAN> 26
 5.686121e+00 3.470262e+00 1.010727e+00 -1.635804e+01 -1.193418e+01 5.020956e+00 -8.594489e+00 1.936206e-01 -1.216626e+01 -6.581587e+00 4.487864e+00 -6.023040e+00 2.009700e+01 5.223935e-02 -3.786024e-01 -2.240302e-02 -8.204976e-01 -4.644337e-01 2.748487e-01 -1.491448e-01 5.111217e-01 -3.008436e-01 3.645001e-01 2.329562e-01 2.403348e-02 1.027633e-01
<VARIANCE> 26
 1.572651e+01 2.391665e+01 1.780740e+01 7.665459e+01 3.983979e+01 5.159333e+01 3.285484e+01 3.931874e+01 3.494960e+01 3.380734e+01 3.937563e+01 2.449309e+01 5.218490e-01 1.067151e+00 1.333197e+00 1.622854e+00 3.254322e+00 2.505249e+00 2.668012e+00 2.362305e+00 2.859218e+00 2.461506e+00 2.304753e+00 2.407472e+00 1.887417e+00 5.783017e-02
<GCONST> 9.524740e+01
<STATE> 4
<MEAN> 26
 3.086622e+00 -4.643387e+00 -4.051186e+00 -2.739088e+01 -8.817335e+00 1.148312e+01 -8.481413e+00 2.525173e+00 -1.379194e+01 -7.822772e-01 6.569092e+00 -5.117976e+00 2.135888e+01 -4.463830e-01 -1.544925e+00 -9.786263e-01 -7.189760e-02 2.118824e+00 3.667085e-01 -3.779913e-01 -1.840121e-01 -8.680063e-02 8.100869e-01 2.461218e-01 -5.329983e-01 1.341823e-01
<VARIANCE> 26
 9.477201e+00 2.583300e+01 3.257656e+01 8.284538e+01 6.082693e+01 2.172644e+01 4.578725e+01 3.910819e+01 2.838415e+01 5.054024e+01 4.545346e+01 2.356673e+01 6.127297e-01 3.604638e-01 1.092438e+00 1.824486e+00 2.774962e+00 2.122803e+00 1.811911e+00 2.462054e+00 2.160673e+00 2.180785e+00 3.514466e+00 1.872605e+00 2.294937e+00 3.744269e-02
<GCONST> 9.353629e+01
<TRANSP> 5
 0.000000e+00 1.000000e+00 0.000000e+00 0.000000e+00 0.000000e+00
 0.000000e+00 5.446427e-01 4.553573e-01 0.000000e+00 0.000000e+00
 0.000000e+00 0.000000e+00 8.283654e-01 1.716345e-01 0.000000e+00
 0.000000e+00 0.000000e+00 0.000000e+00 7.426636e-01 2.573364e-01
 0.000000e+00 0.000000e+00 0.000000e+00 0.000000e+00 0.000000e+00
<ENDHMM>
~h "x"
<BEGINHMM>
<NUMSTATES> 5
<STATE> 2
<MEAN> 26
 -1.152950e+00 -4.117401e+00 4.103966e+00 -1.076170e+01 -4.852411e+00 1.992487e+00 -2.371346e+01 -9.245853e+00 -1.042238e+01 7.748700e-01 1.107224e+01 -8.236503e+00 2.017654e+01 1.908355e+00 -7.153952e-01 -2.799295e-01 -1.769649e+00 -1.679151e+00 2.109458e+00 -4.339799e+00 -6.079410e-02 -1.533570e+00 6.298653e-01 2.995003e+00 -2.318851e+00 8.697609e-01
<VARIANCE> 26
 4.570030e+00 8.277425e+00 1.101429e+01 3.284563e+01 1.552955e+01 3.441214e+01 4.291322e+01 3.234808e+01 6.076405e+01 5.087908e+01 2.239341e+01 2.204544e+01 1.315716e+00 2.342466e+00 1.343958e+00 1.061620e+00 2.296996e+00 1.807973e+00 2.411791e+00 5.340115e+00 3.792194e+00 5.634640e+00 3.625103e+00 2.204238e+00 2.193623e+00 8.628215e-01
<GCONST> 9.630267e+01
<STATE> 3
<MEAN> 26
 -1.370124e-01 -4.894726e+00 2.403827e+00 -1.294467e+01 -9.583436e+00 7.462712e+00 -2.878708e+01 -1.059580e+01 -9.592623e+00 1.787143e-01 1.592037e+01 -1.240387e+01 2.133564e+01 -5.521545e-02 7.683831e-02 1.270359e-02 -1.533758e-01 -1.135089e-01 4.369001e-02 6.155437e-02 -1.328621e-01 -2.440017e-01 3.056944e-02 -2.357521e-01 -5.273066e-02 -5.104440e-04
<VARIANCE> 26
 1.880616e+00 5.248559e+00 7.162844e+00 2.595943e+01 9.816963e+00 1.778100e+01 1.463543e+01 1.762185e+01 2.023569e+01 1.696577e+01 8.615192e+00 2.267557e+01 1.795442e-01 1.981611e-01 4.909319e-01 1.505875e+00 1.263357e+00 1.355615e+00 1.279473e+00 1.292645e+00 1.078553e+00 1.886970e+00 1.082423e+00 1.086184e+00 1.481250e+00 1.098139e-02
<GCONST> 7.128497e+01
<STATE> 4
<MEAN> 26
 2.923634e-01 -1.858995e+00 4.879560e+00 -1.229074e+01 -2.427833e+00 4.217700e+00 -2.087206e+01 -6.191443e+00 -1.161771e+01 1.925808e+00 8.287029e+00 -8.392796e+00 1.980540e+01 -2.893250e-01 1.497202e+00 2.687944e-01 8.747919e-01 2.125533e+00 -5.596185e-01 3.370152e+00 6.182817e-01 3.645447e-02 4.285065e-01 -2.447482e+00 1.307817e+00 -5.374032e-01
<VARIANCE> 26
 7.766812e+00 1.777871e+01 1.360808e+01 4.863037e+01 5.446669e+01 3.878807e+01 6.213182e+01 4.514191e+01 3.408496e+01 3.286034e+01 2.966470e+01 2.248956e+01 1.841371e+00 8.399817e-01 2.431111e+00 2.048615e+00 5.773831e+00 2.530652e+00 3.740893e+00 2.856843e+00 1.070593e+00 2.159153e+00 4.095881e+00 2.156301e+00 2.031889e+00 1.034736e-01
<GCONST> 9.687582e+01
<TRANSP> 5
 0.000000e+00 1.000000e+00 0.000000e+00 0.000000e+00 0.000000e+00
 0.000000e+00 6.419051e-01 3.580949e-01 0.000000e+00 0.000000e+00
 0.000000e+00 0.000000e+00 8.497040e-01 1.502960e-01 0.000000e+00
 0.000000e+00 0.000000e+00 0.000000e+00 7.290210e-01 2.709790e-01
 0.000000e+00 0.000000e+00 0.000000e+00 0.000000e+00 0.000000e+00
<ENDHMM>
~h "y"
<BEGINHMM>
<NUMSTATES> 5
<STATE> 2
<MEAN> 26
 -7.619233e+00 -7.137306e-01 1.410612e+01 4.853360e+00 -6.544465e+00 -6.618150e+00 -1.115911e+01 3.674674e-01 -1.295184e+01 -8.081832e+00 -4.775218e-01 2.073292e+00 1.815839e+01 1.682131e+00 -2.835404e-01 2.087409e+00 1.169218e+00 -6.190917e-01 -2.138361e+00 -3.002826e+00 1.362291e+00 -1.653108e+00 -3.506215e+00 1.103565e+00 6.311492e-01 7.828789e-01
<VARIANCE> 26
 2.648007e+01 2.320582e+01 4.017673e+01 2.563006e+01 2.910761e+01 4.864964e+01 9.708977e+01 4.928545e+01 5.867362e+01 6.776751e+01 2.716230e+01 2.631285e+01 5.432375e+00 4.585777e+00 2.727354e+00 4.680003e+00 3.083820e+00 2.732262e+00 5.224083e+00 7.610974e+00 2.845790e+00 6.036076e+00 5.006330e+00 2.107082e+00 2.521292e+00 5.514320e-01
<GCONST> 1.088368e+02
<STATE> 3
<MEAN> 26
 -3.115110e+00 -4.132510e+00 1.584504e+01 5.417180e+00 -1.056146e+01 -7.483478e+00 -2.060412e+01 2.902143e+00 -1.351903e+01 -2.001054e+01 4.757324e+00 2.434176e+00 2.017789e+01 1.790902e-01 -2.713452e-01 -8.905583e-02 -6.350970e-01 -6.729565e-01 3.476335e-01 -3.614209e-01 -4.081768e-02 1.655749e-01 -1.996523e-01 2.545742e-01 -4.705209e-01 9.833045e-02
<VARIANCE> 26
 7.176689e+00 1.634823e+01 1.752481e+01 2.298148e+01 2.930288e+01 1.903850e+01 4.013804e+01 4.246253e+01 4.225626e+01 3.184904e+01 2.222885e+01 2.133179e+01 4.162194e-01 8.024266e-01 1.035982e+00 2.504963e+00 2.304954e+00 2.572252e+00 2.747364e+00 4.919390e+00 2.760438e+00 2.114116e+00 4.366256e+00 1.772761e+00 1.549319e+00 3.912847e-02
<GCONST> 9.092751e+01
<STATE> 4
<MEAN> 26
 -2.432594e+00 -4.096342e+00 1.372408e+01 -3.676439e+00 -1.201395e+01 -7.580605e-01 -1.906929e+01 -3.119583e+00 -1.129408e+01 -8.489542e+00 4.133545e+00 -3.446094e+00 2.027220e+01 1.057004e-01 1.006468e+00 -1.331660e+00 -1.658995e+00 2.731047e-01 2.248527e+00 1.782069e+00 -2.226748e+00 5.033055e-01 3.258881e+00 -1.055885e+00 -7.916354e-01 -1.432945e-01
<VARIANCE> 26
 1.221197e+01 1.889641e+01 7.383285e+01 6.669011e+01 3.286194e+01 8.354603e+01 7.492361e+01 4.273822e+01 3.817743e+01 9.387611e+01 3.840698e+01 3.710582e+01 7.290784e-01 1.412202e+00 2.198588e+00 3.259303e+00 4.744776e+00 2.588696e+00 5.825168e+00 5.795386e+00 4.492493e+00 4.328517e+00 3.376295e+00 3.490026e+00 5.419804e+00 9.861243e-02
<GCONST> 1.059974e+02
<TRANSP> 5
 0.000000e+00 1.000000e+00 0.000000e+00 0.000000e+00 0.000000e+00
 0.000000e+00 6.150442e-01 3.849558e-01 0.000000e+00 0.000000e+00
 0.000000e+00 0.000000e+00 7.674003e-01 2.325998e-01 0.000000e+00
 0.000000e+00 0.000000e+00 0.000000e+00 6.899527e-01 3.100473e-01
 0.000000e+00 0.000000e+00 0.000000e+00 0.000000e+00 0.000000e+00
<ENDHMM>
~h "z"
<BEGINHMM>
<NUMSTATES> 5
<STATE> 2
<MEAN> 26
 -9.429023e+00 1.003822e+01 3.568229e+00 -3.947073e+00 9.664479e-01 -6.837490e+00 -1.023644e+01 -7.623199e+00 -7.833170e+00 1.636260e+00 -2.213524e+00 -3.073879e+00 1.907067e+01 -2.320392e+00 3.097154e+00 -9.853778e-01 1.863080e+00 1.851781e+00 -4.129589e-02 1.845812e+00 -3.168839e-01 1.225264e+00 1.844455e-01 -1.188103e+00 1.631387e+00 -4.555124e-01
<VARIANCE> 26
 1.124795e+01 1.895147e+01 3.211076e+01 4.631715e+01 4.270320e+01 3.414903e+01 2.617139e+01 2.355794e+01 2.446435e+01 3.870607e+01 2.400465e+01 2.375295e+01 5.876660e-01 8.646236e-01 2.514089e+00 2.450108e+00 4.022215e+00 2.831336e+00 3.803035e+00 3.057129e+00 2.434379e+00 2.555242e+00 2.426925e+00 2.491938e+00 1.538125e+00 2.598179e-02
<GCONST> 9.379447e+01
<STATE> 3
<MEAN> 26
 -1.645672e+01 1.452448e+01 2.777714e+00 3.654348e-01 3.799636e+00 -2.967371e+00 -5.139218e+00 -7.053938e+00 -5.594924e+00 -3.616257e-01 -3.325915e+00 1.412109e+00 1.783247e+01 -5.918986e-01 -2.826055e-01 8.631981e-03 -2.365428e-01 2.872702e-01 2.428544e-01 3.418281e-01 -3.598152e-01 2.731097e-01 2.191954e-01 -7.001336e-02 1.653844e-01 -6.106132e-02
<VARIANCE> 26
 8.497379e+00 8.910631e+00 2.912162e+01 3.350489e+01 3.384079e+01 2.928062e+01 2.251025e+01 2.123341e+01 1.845419e+01 3.752954e+01 1.766648e+01 1.918114e+01 5.528520e-01 1.350999e+00 1.033420e+00 1.510324e+00 1.564003e+00 1.866707e+00 3.597831e+00 2.089443e+00 1.614231e+00 1.125278e+00 2.030850e+00 8.902738e-01 1.605126e+00 4.617679e-02
<GCONST> 8.625820e+01
<STATE> 4
<MEAN> 26
 -1.162666e+01 8.524018e+00 2.014352e+00 -6.885884e+00 3.173522e+00 -7.043457e+00 -9.440771e+00 -9.135944e+00 -4.655520e+00 4.743189e+00 -2.893723e+00 -2.636131e+00 1.873554e+01 2.940434e+00 -3.701825e+00 5.484521e-01 -3.225332e+00 -1.439530e+00 -4.685538e-01 -2.392959e+00 9.213212e-01 -3.083414e-01 1.503472e+00 9.948406e-01 -1.810336e+00 4.856622e-01
<VARIANCE> 26
 2.023343e+01 2.464815e+01 3.042372e+01 4.304153e+01 2.163529e+01 3.018645e+01 2.429746e+01 2.431641e+01 2.096328e+01 3.135846e+01 2.165738e+01 2.266810e+01 9.585764e-01 1.530326e+00 2.545077e+00 1.761338e+00 4.469839e+00 1.979602e+00 4.987346e+00 4.072183e+00 3.928585e+00 2.061483e+00 3.334861e+00 2.470510e+00 3.342125e+00 9.824915e-02
<GCONST> 9.688369e+01
<TRANSP> 5
 0.000000e+00 1.000000e+00 0.000000e+00 0.000000e+00 0.000000e+00
 0.000000e+00 6.826217e-01 3.173783e-01 0.000000e+00 0.000000e+00
 0.000000e+00 0.000000e+00 7.325220e-01 2.674780e-01 0.000000e+00
 0.000000e+00 0.000000e+00 0.000000e+00 6.232645e-01 3.767355e-01
 0.000000e+00 0.000000e+00 0.000000e+00 0.000000e+00 0.000000e+00
<ENDHMM>
~h "__"
<BEGINHMM>
<NUMSTATES> 5
<STATE> 2
<MEAN> 26
 -9.610692e+00 1.188410e+00 -2.204471e-01 -4.896598e-02 2.169081e+00 3.664973e+00 7.771627e-01 3.189051e-01 -1.619223e+00 -1.168995e+00 -9.725854e-01 3.528271e-01 1.216444e+01 -3.179781e-01 6.636178e-02 -2.500464e-01 1.772788e-01 -2.714613e-01 -4.017643e-02 4.171186e-02 2.513457e-01 2.578138e-01 2.888521e-01 3.921196e-01 1.901561e-01 -1.952084e-01
<VARIANCE> 26
 1.792903e+01 1.630474e+01 2.656524e+01 3.149929e+01 2.421854e+01 2.183329e+01 2.851661e+01 2.147024e+01 2.299679e+01 2.494539e+01 2.327143e+01 1.498151e+01 3.865490e+00 1.104908e+00 1.215438e+00 1.609055e+00 2.367217e+00 2.469583e+00 2.654916e+00 2.458191e+00 2.336310e+00 2.383634e+00 2.200753e+00 2.017169e+00 1.356373e+00 3.465289e-01
<GCONST> 9.330299e+01
<STATE> 3
<MEAN> 26
 -1.267221e+01 3.395912e+00 8.115900e-01 2.233826e+00 2.336768e+00 3.180317e+00 1.606271e+00 3.524263e+00 1.269951e+00 2.691672e+00 3.306134e+00 1.989817e+00 1.184151e+01 -6.184749e-02 -3.446132e-02 -7.463599e-02 -5.681212e-02 -3.248936e-02 -4.940639e-02 3.570606e-02 7.186335e-02 6.254745e-02 9.377258e-02 1.083283e-01 1.427895e-02 -5.275281e-02
<VARIANCE> 26
 2.454062e+00 4.591551e+00 7.773969e+00 1.148412e+01 9.940832e+00 1.056234e+01 1.276838e+01 1.456136e+01 1.443295e+01 1.444185e+01 1.300331e+01 1.135240e+01 2.111878e+00 2.206038e-01 4.151067e-01 5.258880e-01 1.130502e+00 9.914013e-01 1.077379e+00 1.312393e+00 1.505155e+00 1.392002e+00 1.375245e+00 1.358454e+00 1.211509e+00 5.245630e-02
<GCONST> 7.169549e+01
<STATE> 4
<MEAN> 26
 -1.334679e+01 2.125520e+00 -8.791056e-01 2.798233e-01 -2.449119e-01 3.815015e-01 -6.644084e-01 8.553447e-01 -1.490498e+00 -1.750242e-01 9.397544e-01 -4.446292e-01 8.634693e+00 -9.342895e-02 -3.023664e-02 1.119869e-01 -5.465399e-02 6.593573e-02 5.312454e-02 -5.995228e-02 2.226281e-02 9.190754e-02 2.632146e-02 1.257717e-02 -1.272109e-02 -1.352368e-02
<VARIANCE> 26
 3.324129e+00 2.895189e+00 5.349020e+00 6.209078e+00 8.629972e+00 1.001779e+01 1.068240e+01 1.296285e+01 1.457357e+01 1.367041e+01 1.180681e+01 1.060361e+01 7.834298e-01 2.470450e-01 3.278362e-01 5.764989e-01 7.230459e-01 8.900847e-01 1.034668e+00 1.220050e+00 1.343015e+00 1.378799e+00 1.390706e+00 1.377617e+00 1.186848e+00 4.638205e-02
<GCONST> 6.791731e+01
<TRANSP> 5
 0.000000e+00 1.000000e+00 0.000000e+00 0.000000e+00 0.000000e+00
 0.000000e+00 8.978075e-01 1.021925e-01 0.000000e+00 0.000000e+00
 0.000000e+00 0.000000e+00 9.443977e-01 5.560235e-02 0.000000e+00
 0.000000e+00 0.000000e+00 0.000000e+00 9.611093e-01 3.889071e-02
 0.000000e+00 0.000000e+00 0.000000e+00 0.000000e+00 0.000000e+00
<ENDHMM>
~h "a~"
<BEGINHMM>
<NUMSTATES> 5
<STATE> 2
<MEAN> 26
 8.163153e-01 -6.220277e+00 -4.816937e+00 -2.349084e+01 -5.422602e+00 9.502507e+00 -9.629783e+00 1.076544e+00 -1.268730e+01 -6.719075e-01 4.788482e+00 -3.517495e+00 2.074084e+01 1.847400e+00 -6.255519e-01 -1.442074e+00 -2.139244e+00 -1.438342e+00 1.782482e+00 7.587754e-01 2.238996e+00 -1.447402e+00 -2.299442e+00 1.749037e-01 7.274976e-01 5.780668e-01
<VARIANCE> 26
 8.133635e+00 1.965181e+01 1.850633e+01 3.802725e+01 3.456326e+01 4.512679e+01 6.987576e+01 3.538330e+01 2.350736e+01 6.697076e+01 4.063123e+01 4.196924e+01 1.457655e+00 3.986157e+00 2.841400e+00 1.800948e+00 8.484423e+00 3.369885e+00 6.537073e+00 6.961520e+00 3.003979e+00 4.991887e+00 4.681398e+00 3.783546e+00 4.640692e+00 6.197056e-01
<GCONST> 1.065853e+02
<STATE> 3
<MEAN> 26
 2.454151e+00 -5.616481e+00 -7.166940e+00 -2.129614e+01 -1.135899e+01 8.645756e+00 -4.541937e+00 8.470949e+00 -1.398646e+01 -9.963546e+00 2.959446e+00 -4.032762e+00 2.118317e+01 6.248569e-02 3.514492e-01 7.676439e-02 4.478885e-01 -2.995634e-01 -6.224334e-01 3.913909e-01 1.614443e-01 -3.364308e-01 2.932014e-01 -6.765901e-01 -4.646711e-01 -5.687169e-02
<VARIANCE> 26
 6.257505e+00 1.017465e+01 1.370671e+01 2.179836e+01 1.842213e+01 2.981907e+01 2.536219e+01 1.559674e+01 1.663901e+01 2.220919e+01 2.030330e+01 1.750294e+01 3.037453e-01 3.467592e-01 9.266077e-01 1.053434e+00 1.521131e+00 1.546059e+00 1.533160e+00 1.986114e+00 1.988413e+00 1.267619e+00 2.845501e+00 1.334737e+00 1.178865e+00 2.222494e-02
<GCONST> 8.002341e+01
<STATE> 4
<MEAN> 26
 3.019490e+00 -6.582937e-02 -4.218486e+00 -1.232526e+01 -9.476160e+00 4.609991e+00 -2.424307e+00 1.857869e+00 -1.734704e+01 -2.455184e+00 -1.666738e+00 -4.132907e+00 1.991039e+01 -5.435734e-01 1.447361e+00 1.131116e+00 2.956859e+00 1.334542e+00 -2.880863e-01 3.890086e-01 -2.066203e+00 4.967158e-01 6.198435e-01 -1.107651e-01 4.641181e-01 -4.399395e-01
<VARIANCE> 26
 7.181717e+00 2.589050e+01 2.190239e+01 9.081653e+01 3.158422e+01 2.531749e+01 6.040181e+01 4.455080e+01 5.134291e+01 2.699060e+01 2.704499e+01 2.204846e+01 1.107221e+00 2.400128e+00 2.162521e+00 2.068701e+00 6.260460e+00 5.137880e+00 2.934210e+00 3.442832e+00 3.899930e+00 5.316093e+00 2.998324e+00 1.857263e+00 2.283370e+00 1.027769e-01
<GCONST> 1.003707e+02
<TRANSP> 5
 0.000000e+00 1.000000e+00 0.000000e+00 0.000000e+00 0.000000e+00
 0.000000e+00 6.712350e-01 3.287650e-01 0.000000e+00 0.000000e+00
 0.000000e+00 0.000000e+00 8.640397e-01 1.359604e-01 0.000000e+00
 0.000000e+00 0.000000e+00 0.000000e+00 7.590773e-01 2.409227e-01
 0.000000e+00 0.000000e+00 0.000000e+00 0.000000e+00 0.000000e+00
<ENDHMM>
~h "e^"
<BEGINHMM>
<NUMSTATES> 5
<STATE> 2
<MEAN> 26
 -5.467503e+00 -4.396204e+00 1.393179e+01 -1.291069e+01 -7.837842e+00 -8.145271e+00 -1.520654e+01 -2.025827e+00 -1.082958e+01 3.800642e-01 1.672098e+00 -1.275672e+00 1.985795e+01 1.365905e+00 -2.198987e+00 2.872011e+00 -2.248480e+00 -3.058353e+00 -1.104887e+00 -2.800344e+00 1.599421e+00 -2.768630e+00 5.084388e-01 1.039824e+00 -1.997150e-01 8.735343e-01
<VARIANCE> 26
 1.335550e+01 2.730834e+01 4.238285e+01 4.755798e+01 2.866747e+01 3.174564e+01 4.582383e+01 3.479843e+01 4.999267e+01 5.464866e+01 2.718341e+01 1.453379e+01 3.263690e+00 3.231362e+00 2.053506e+00 4.823602e+00 4.193236e+00 2.801164e+00 3.890413e+00 5.156766e+00 3.811141e+00 4.073135e+00 3.530569e+00 3.014060e+00 2.119123e+00 5.871601e-01
<GCONST> 1.048092e+02
<STATE> 3
<MEAN> 26
 -4.375241e+00 -6.979346e+00 1.835616e+01 -1.604536e+01 -1.387081e+01 -6.164067e+00 -1.891207e+01 1.178800e+00 -1.688519e+01 1.421176e+00 3.950577e+00 -2.214183e+00 2.099533e+01 8.625836e-02 2.532175e-01 2.137482e-01 1.166633e-01 -1.668025e-01 3.072119e-02 3.466367e-01 -1.440435e-01 -7.845994e-01 3.861852e-01 -1.873933e-01 -1.288407e-02 -1.161559e-02
<VARIANCE> 26
 4.487749e+00 1.463700e+01 2.007316e+01 1.636130e+01 1.794622e+01 2.117011e+01 1.956551e+01 1.986163e+01 2.732619e+01 2.997736e+01 1.883600e+01 1.267587e+01 3.066356e-01 4.008911e-01 1.285695e+00 1.281580e+00 2.139883e+00 1.914678e+00 1.787166e+00 1.814792e+00 1.725515e+00 1.810902e+00 1.926571e+00 1.288604e+00 8.891003e-01 3.120525e-02
<GCONST> 8.130437e+01
<STATE> 4
<MEAN> 26
 -2.934556e+00 -5.319307e-01 1.679654e+01 -1.114458e+01 -7.880919e+00 -6.446749e+00 -8.908924e+00 -1.676436e+00 -1.610881e+01 2.462635e+00 -3.691155e-01 -1.836298e+00 1.964801e+01 2.033891e-01 2.100288e+00 -1.606547e+00 2.817642e+00 2.459600e+00 4.409334e-01 2.716484e+00 -3.853436e-01 2.229010e+00 -7.422665e-01 -8.298916e-01 -3.551240e-01 -5.684952e-01
<VARIANCE> 26
 5.541906e+00 3.787776e+01 2.516862e+01 4.222753e+01 3.316245e+01 4.302336e+01 1.195265e+02 3.153428e+01 3.663804e+01 4.311397e+01 3.068091e+01 1.697449e+01 1.530703e+00 2.238323e+00 4.865647e+00 2.695843e+00 4.971368e+00 2.558640e+00 3.573262e+00 3.416105e+00 5.339234e+00 3.278048e+00 3.601081e+00 2.621578e+00 2.093578e+00 1.083451e-01
<GCONST> 1.016925e+02
<TRANSP> 5
 0.000000e+00 1.000000e+00 0.000000e+00 0.000000e+00 0.000000e+00
 0.000000e+00 5.666443e-01 4.333556e-01 0.000000e+00 0.000000e+00
 0.000000e+00 0.000000e+00 8.034400e-01 1.965600e-01 0.000000e+00
 0.000000e+00 0.000000e+00 0.000000e+00 6.752900e-01 3.247100e-01
 0.000000e+00 0.000000e+00 0.000000e+00 0.000000e+00 0.000000e+00
<ENDHMM>
~h "e~"
<BEGINHMM>
<NUMSTATES> 5
<STATE> 2
<MEAN> 26
 -1.262527e+00 -1.204796e+01 -2.447322e+00 -1.990030e+01 -3.133517e-02 5.829621e+00 -1.754636e+01 2.326043e+00 -6.584677e+00 3.624835e+00 2.569134e+00 -8.741250e+00 2.087505e+01 1.451264e+00 -2.663669e+00 -7.837209e-01 -2.319440e+00 9.007547e-01 1.781578e+00 -2.199723e+00 1.271148e+00 -1.221476e+00 7.882814e-01 1.891225e-01 -1.197291e+00 6.403802e-01
<VARIANCE> 26
 6.184262e+00 2.638364e+01 2.077031e+01 2.052187e+01 3.555514e+01 3.187035e+01 2.741422e+01 2.696621e+01 2.556881e+01 3.029647e+01 5.106170e+01 4.068272e+01 1.599196e+00 2.508259e+00 3.800986e+00 1.696786e+00 5.327557e+00 4.344984e+00 2.172715e+00 3.772305e+00 3.548059e+00 1.772190e+00 2.631568e+00 2.480770e+00 2.534791e+00 6.173313e-01
<GCONST> 9.952542e+01
<STATE> 3
<MEAN> 26
 2.630008e-02 -1.431532e+01 -5.365662e+00 -2.081251e+01 3.629337e+00 7.886771e+00 -1.979772e+01 3.087222e+00 -1.031993e+01 4.137936e-01 5.209816e+00 -8.663301e+00 2.160132e+01 1.852746e-01 3.401138e-01 -2.113644e-01 9.514596e-02 5.490695e-01 -8.752468e-01 1.471586e-01 -2.127623e-01 -5.663192e-01 -1.286964e-01 -1.928459e-01 2.828824e-02 -7.655345e-02
<VARIANCE> 26
 5.508696e+00 8.629493e+00 1.227921e+01 1.363864e+01 2.028967e+01 2.294964e+01 2.052362e+01 1.240970e+01 1.817898e+01 1.705280e+01 2.408931e+01 1.568773e+01 3.069972e-01 3.404272e-01 8.072369e-01 1.204353e+00 1.003573e+00 1.471263e+00 1.857297e+00 1.152155e+00 8.804312e-01 1.232890e+00 1.290890e+00 2.232894e+00 1.046058e+00 1.674360e-02
<GCONST> 7.608156e+01
<STATE> 4
<MEAN> 26
 1.097955e+00 -6.529578e+00 -4.456316e+00 -1.424032e+01 1.771188e+00 -1.223314e+00 -1.362267e+01 -6.960573e-01 -1.447758e+01 1.429150e+00 -1.023573e+00 -8.165639e+00 2.036293e+01 -3.241273e-01 2.758575e+00 7.266262e-01 3.164610e+00 -1.103579e+00 -7.572705e-01 2.644932e+00 -1.481313e+00 2.610228e-01 -4.083857e-01 -1.189115e+00 1.197280e+00 -4.254797e-01
<VARIANCE> 26
 6.985847e+00 3.651135e+01 3.545383e+01 8.716267e+01 7.226920e+01 4.541162e+01 4.745258e+01 5.066762e+01 4.792708e+01 3.754914e+01 3.450635e+01 2.644481e+01 4.935689e-01 2.987124e+00 3.330017e+00 2.394491e+00 7.074331e+00 4.953643e+00 2.882094e+00 1.934286e+00 2.849715e+00 4.892148e+00 3.327077e+00 3.133455e+00 2.087907e+00 7.275574e-02
<GCONST> 1.023889e+02
<TRANSP> 5
 0.000000e+00 1.000000e+00 0.000000e+00 0.000000e+00 0.000000e+00
 0.000000e+00 5.170248e-01 4.829752e-01 0.000000e+00 0.000000e+00
 0.000000e+00 0.000000e+00 8.628531e-01 1.371470e-01 0.000000e+00
 0.000000e+00 0.000000e+00 0.000000e+00 7.147423e-01 2.852577e-01
 0.000000e+00 0.000000e+00 0.000000e+00 0.000000e+00 0.000000e+00
<ENDHMM>
~h "o^"
<BEGINHMM>
<NUMSTATES> 5
<STATE> 2
<MEAN> 26
 1.777743e+00 2.183101e-01 1.909958e+00 -2.747453e+01 -9.776236e+00 6.104686e+00 -1.195842e+01 -4.944837e+00 -1.557253e+01 2.939859e-01 6.961089e+00 -4.238661e+00 2.037443e+01 1.606928e+00 5.709279e-01 6.799704e-01 -3.958295e+00 -2.954882e+00 2.320280e+00 -1.414246e+00 5.613961e-01 -2.527194e+00 -1.208773e+00 2.026315e+00 -1.101282e+00 9.723164e-01
<VARIANCE> 26
 7.946833e+00 3.824858e+01 1.313595e+01 9.198251e+01 3.391064e+01 2.039743e+01 5.257150e+01 5.384572e+01 5.827654e+01 5.343768e+01 8.612874e+01 2.240578e+01 2.768116e+00 3.845330e+00 1.712303e+00 1.621684e+00 1.521442e+01 2.820310e+00 2.318625e+00 4.175246e+00 2.769209e+00 7.520704e+00 3.185260e+00 3.892539e+00 5.338555e+00 1.403347e+00
<GCONST> 1.076782e+02
<STATE> 3
<MEAN> 26
 2.935857e+00 4.335323e-01 3.063774e+00 -2.998067e+01 -1.628042e+01 1.083346e+01 -1.309449e+01 -4.354961e+00 -1.581195e+01 -6.426875e+00 1.246070e+01 -7.434007e+00 2.164295e+01 8.329615e-02 1.722030e-02 -1.472450e-02 -7.436381e-02 9.998841e-03 1.048460e-01 -3.051248e-01 9.272151e-02 -5.954372e-01 -1.119482e-01 -2.540580e-02 -9.512810e-02 -1.228311e-03
<VARIANCE> 26
 5.779027e+00 1.150208e+01 1.919238e+01 2.535651e+01 2.095843e+01 1.516543e+01 2.092153e+01 3.888850e+01 4.671167e+01 4.127030e+01 3.664881e+01 2.663821e+01 3.218418e-01 3.751226e-01 1.036070e+00 9.553742e-01 2.798245e+00 2.054896e+00 1.067964e+00 1.588209e+00 2.218033e+00 2.180631e+00 3.414260e+00 2.184410e+00 1.824815e+00 2.957511e-02
<GCONST> 8.589938e+01
<STATE> 4
<MEAN> 26
 2.069151e+00 8.633190e-01 1.647672e+00 -2.533264e+01 -7.669462e+00 6.023465e+00 -1.557638e+01 -4.439389e+00 -1.976530e+01 8.548367e-02 8.763780e+00 -6.507422e+00 2.039009e+01 -6.664065e-01 7.113966e-01 -1.326518e-01 3.122080e+00 2.540656e+00 -2.180170e+00 1.286559e+00 -6.571231e-01 1.754159e+00 1.204630e+00 -1.956666e+00 6.210132e-01 -6.322578e-01
<VARIANCE> 26
 1.092764e+01 3.321424e+01 1.816535e+01 1.011638e+02 5.179207e+01 4.115276e+01 7.301343e+01 6.428060e+01 5.683327e+01 5.005482e+01 5.988789e+01 5.256790e+01 1.910962e+00 1.042007e+00 3.466967e+00 3.075769e+00 7.638522e+00 3.284114e+00 2.848722e+00 7.826921e+00 3.865835e+00 6.245926e+00 7.769936e+00 6.452137e+00 6.541126e+00 2.371947e-01
<GCONST> 1.102419e+02
<TRANSP> 5
 0.000000e+00 1.000000e+00 0.000000e+00 0.000000e+00 0.000000e+00
 0.000000e+00 5.861082e-01 4.138918e-01 0.000000e+00 0.000000e+00
 0.000000e+00 0.000000e+00 8.689600e-01 1.310400e-01 0.000000e+00
 0.000000e+00 0.000000e+00 0.000000e+00 7.099999e-01 2.900002e-01
 0.000000e+00 0.000000e+00 0.000000e+00 0.000000e+00 0.000000e+00
<ENDHMM>
~h "n~"
<BEGINHMM>
<NUMSTATES> 5
<STATE> 2
<MEAN> 26
 4.562021e-01 3.094176e-01 8.144858e+00 -2.548171e+00 -9.033014e+00 -4.175905e+00 -1.158585e+01 2.308524e+00 -1.937956e+01 -1.536861e+01 9.448059e+00 -4.459663e+00 2.070678e+01 -2.490113e-01 -2.775843e-02 2.145119e-01 -8.691188e-02 1.115410e-01 -1.910065e-02 1.778951e-02 6.420317e-01 -1.492697e-01 -9.252267e-01 1.662662e+00 -5.160695e-01 1.108279e-02
<VARIANCE> 26
 4.910721e+00 5.060159e+00 1.964277e+01 3.882544e+01 2.077029e+01 3.052201e+01 1.305480e+01 2.152061e+01 1.513564e+01 1.874131e+01 4.286119e+01 1.223180e+01 1.388983e-01 1.774594e+00 9.583094e-01 3.995532e+00 6.907700e+00 2.641051e+00 3.942125e+00 4.090425e+00 2.325112e+00 1.090805e+00 1.681199e+00 2.755140e+00 1.326414e+00 1.215733e-03
<GCONST> 8.329437e+01
<STATE> 3
<MEAN> 26
 -4.545193e+00 -8.166891e-02 1.801823e+01 -1.108890e+01 -1.571422e+01 6.217228e+00 -1.626202e+01 -4.344762e-01 -1.624339e+01 -1.339219e+01 9.685479e+00 -5.651057e+00 2.076912e+01 -5.822607e-01 -5.442347e-01 1.443167e+00 -7.719042e-01 -2.362651e+00 1.616342e+00 -5.359490e-02 -9.833906e-01 1.578488e+00 1.278268e+00 -1.204852e+00 4.618800e-01 -7.657348e-03
<VARIANCE> 26
 7.056365e+00 1.407584e+01 1.543594e+01 3.507085e+01 4.841053e+01 3.169513e+01 2.030440e+01 4.358638e+01 2.509412e+01 2.900038e+01 2.841907e+01 9.260409e+00 9.163635e-02 6.273329e-01 1.218433e+00 2.958653e+00 4.499234e+00 2.832593e+00 1.026900e+01 1.775789e+00 4.905624e+00 9.171745e-01 1.681518e+00 1.664697e+00 7.300221e-01 5.051420e-03
<GCONST> 8.576654e+01
<STATE> 4
<MEAN> 26
 -3.227531e+00 -5.163390e+00 1.354285e+01 -7.956603e+00 -1.709112e+01 1.228656e+00 -1.823550e+01 2.376148e+00 -9.249950e+00 -8.703303e+00 6.157022e+00 -4.303696e+00 2.089656e+01 8.441945e-01 -3.058412e-01 -2.422081e+00 1.337989e-01 2.329505e+00 -1.259561e+00 -1.063043e+00 4.498768e-01 7.989573e-01 1.337130e+00 -2.780293e-01 -2.838664e-01 -7.121588e-03
<VARIANCE> 26
 9.362725e+00 1.551602e+01 3.278117e+01 1.428178e+01 2.998069e+01 4.140824e+01 1.999547e+01 2.098787e+01 3.243964e+01 2.429323e+01 1.078921e+01 6.168421e+00 9.636597e-02 2.184154e-01 2.309075e+00 2.178714e+00 3.054269e+00 2.364335e+00 6.743383e+00 4.634315e+00 3.951931e+00 3.328324e+00 2.081218e+00 1.355475e+00 2.086554e+00 1.778544e-02
<GCONST> 8.643694e+01
<TRANSP> 5
 0.000000e+00 1.000000e+00 0.000000e+00 0.000000e+00 0.000000e+00
 0.000000e+00 7.802044e-01 2.197956e-01 0.000000e+00 0.000000e+00
 0.000000e+00 0.000000e+00 7.470083e-01 2.529918e-01 0.000000e+00
 0.000000e+00 0.000000e+00 0.000000e+00 7.422481e-01 2.577519e-01
 0.000000e+00 0.000000e+00 0.000000e+00 0.000000e+00 0.000000e+00
<ENDHMM>
~h "o~"
<BEGINHMM>
<NUMSTATES> 5
<STATE> 2
<MEAN> 26
 6.265404e-01 5.536790e-01 2.477776e-01 -1.575446e+01 -1.204873e+01 6.720321e+00 -7.866397e+00 1.717766e+00 -1.173705e+01 -5.138000e+00 5.113796e+00 -2.345207e+00 1.978505e+01 2.078983e+00 -1.837049e-02 -4.976597e-02 -1.213962e+00 -3.578858e+00 5.786275e-01 -6.883160e-01 2.011151e+00 -1.158755e+00 -6.127697e-01 8.533838e-01 -9.704435e-01 6.170480e-01
<VARIANCE> 26
 1.446350e+01 2.130407e+01 1.733890e+01 3.376379e+01 4.829580e+01 3.197719e+01 4.433717e+01 4.429112e+01 4.274485e+01 2.963478e+01 3.742612e+01 1.648183e+01 2.398134e+00 5.160701e+00 2.013369e+00 2.671132e+00 4.971107e+00 4.078885e+00 3.728647e+00 6.214887e+00 4.548372e+00 6.007615e+00 3.230801e+00 3.990154e+00 1.362086e+00 2.442054e-01
<GCONST> 1.034957e+02
<STATE> 3
<MEAN> 26
 1.899382e+00 -2.086005e+00 -1.010488e+00 -1.240504e+01 -1.884319e+01 6.299387e+00 -9.473765e+00 2.903453e+00 -1.351917e+01 -3.693451e+00 2.947312e+00 -5.860702e+00 2.066076e+01 2.937963e-02 1.022747e-01 -1.048614e-01 6.741736e-01 -8.991749e-02 4.978983e-02 1.960206e-01 -3.267596e-01 -6.981902e-01 4.158201e-01 -8.378698e-01 -2.399554e-01 -4.477310e-02
<VARIANCE> 26
 3.820526e+00 1.337087e+01 1.331549e+01 2.386881e+01 1.665733e+01 1.890935e+01 1.967356e+01 2.091984e+01 3.126140e+01 2.225647e+01 2.198275e+01 1.557836e+01 1.671479e-01 2.894951e-01 7.172241e-01 1.160855e+00 2.480371e+00 1.850015e+00 2.266135e+00 1.649726e+00 1.712623e+00 2.110809e+00 1.636312e+00 1.607113e+00 9.412600e-01 1.354357e-02
<GCONST> 7.915359e+01
<STATE> 4
<MEAN> 26
 2.979741e+00 9.729203e-01 -5.702120e-01 -6.240122e+00 -1.108231e+01 5.423391e+00 -3.888995e+00 -1.064316e+00 -1.849769e+01 -3.996674e-01 -3.621035e+00 -3.662587e+00 1.939179e+01 -3.525105e-01 1.096746e+00 1.310408e-01 1.723767e+00 2.562683e+00 -1.220325e+00 1.927076e+00 -1.434908e+00 1.137730e+00 5.628655e-03 -1.635751e-01 9.000483e-01 -5.253400e-01
<VARIANCE> 26
 5.041385e+00 2.891336e+01 1.258292e+01 8.322586e+01 4.714952e+01 4.056532e+01 4.393966e+01 3.368579e+01 3.030313e+01 2.962683e+01 3.662708e+01 2.721960e+01 7.954510e-01 1.782695e+00 2.338005e+00 1.186212e+00 5.911039e+00 2.662724e+00 3.259004e+00 2.684612e+00 3.081353e+00 4.523215e+00 2.619843e+00 3.522022e+00 2.347544e+00 1.233772e-01
<GCONST> 9.819353e+01
<TRANSP> 5
 0.000000e+00 1.000000e+00 0.000000e+00 0.000000e+00 0.000000e+00
 0.000000e+00 5.857310e-01 4.142690e-01 0.000000e+00 0.000000e+00
 0.000000e+00 0.000000e+00 8.759822e-01 1.240179e-01 0.000000e+00
 0.000000e+00 0.000000e+00 0.000000e+00 7.296828e-01 2.703173e-01
 0.000000e+00 0.000000e+00 0.000000e+00 0.000000e+00 0.000000e+00
<ENDHMM>
~h "s^"
<BEGINHMM>
<NUMSTATES> 5
<STATE> 2
<MEAN> 26
 -2.018243e+01 -6.479822e-01 9.069421e+00 -7.338046e+00 3.235658e+00 -3.404962e+00 5.290876e-01 -8.613976e+00 -2.641200e+00 -2.384119e+00 -3.787171e+00 -5.823867e-01 1.828042e+01 -4.934339e+00 -1.656472e+00 -4.326945e-01 -4.073363e-02 1.136876e+00 2.986858e-01 2.521014e+00 4.801100e-01 2.439211e+00 5.682740e-01 1.367295e+00 5.918500e-01 -3.594307e-01
<VARIANCE> 26
 5.132059e+01 2.501752e+01 2.207638e+01 2.176419e+01 4.419287e+01 4.480543e+01 4.448618e+01 4.153358e+01 3.141020e+01 4.686266e+01 2.550816e+01 1.981285e+01 6.711232e-01 2.507148e+00 3.659955e+00 4.667253e+00 5.156261e+00 4.107390e+00 5.811089e+00 3.775087e+00 3.152282e+00 3.278672e+00 3.511226e+00 3.016986e+00 2.060112e+00 1.308419e-01
<GCONST> 1.026338e+02
<STATE> 3
<MEAN> 26
 -3.055046e+01 -6.926909e+00 5.557937e+00 -1.263686e+01 1.519644e+00 -5.344981e+00 3.539901e+00 -7.173333e+00 1.939912e+00 1.476608e+00 -1.910836e-01 1.841841e+00 1.817680e+01 -8.559682e-02 -2.162365e-02 -7.297972e-02 -2.374161e-01 -6.798984e-02 -2.189792e-01 -2.721878e-03 -1.493841e-01 1.807236e-01 1.869831e-01 -9.504898e-03 7.529750e-03 -7.726836e-03
<VARIANCE> 26
 7.177906e+00 9.158731e+00 9.691588e+00 1.116102e+01 2.445432e+01 2.969960e+01 1.923723e+01 1.667061e+01 1.246830e+01 1.689812e+01 1.055181e+01 1.406007e+01 3.479902e-01 1.189968e+00 7.353063e-01 6.646416e-01 1.054131e+00 1.358117e+00 1.355010e+00 1.390734e+00 1.668188e+00 1.347819e+00 1.592550e+00 1.351766e+00 1.506724e+00 2.500375e-02
<GCONST> 7.705569e+01
<STATE> 4
<MEAN> 26
 -2.036327e+01 -3.454855e+00 4.861982e+00 -1.139045e+01 1.761561e+00 -6.180294e+00 -3.820667e-01 -9.585037e+00 1.273063e+00 7.709689e-01 -1.585382e+00 -1.269587e-01 1.716068e+01 5.096581e+00 6.293917e-01 -4.115867e-01 8.818285e-01 -9.318216e-01 6.659199e-01 -2.759306e+00 -3.785381e-01 -1.393720e+00 -4.084722e-01 -1.228436e-01 -6.436798e-01 2.182814e-03
<VARIANCE> 26
 6.834480e+01 1.845341e+01 2.230184e+01 2.419475e+01 4.336323e+01 3.055322e+01 3.809404e+01 2.259960e+01 2.041910e+01 4.339138e+01 2.147421e+01 2.015183e+01 3.543599e+00 6.446334e+00 2.870636e+00 2.783193e+00 2.025839e+00 5.791056e+00 7.070404e+00 5.728827e+00 4.072011e+00 4.082595e+00 3.754116e+00 3.631618e+00 2.585891e+00 4.878424e-01
<GCONST> 1.050456e+02
<TRANSP> 5
 0.000000e+00 1.000000e+00 0.000000e+00 0.000000e+00 0.000000e+00
 0.000000e+00 6.947275e-01 3.052725e-01 0.000000e+00 0.000000e+00
 0.000000e+00 0.000000e+00 8.929275e-01 1.070725e-01 0.000000e+00
 0.000000e+00 0.000000e+00 0.000000e+00 7.052922e-01 2.947079e-01
 0.000000e+00 0.000000e+00 0.000000e+00 0.000000e+00 0.000000e+00
<ENDHMM>
~h "x^"
<BEGINHMM>
<NUMSTATES> 5
<STATE> 2
<MEAN> 26
 -1.193718e+00 -9.347033e+00 5.456502e+00 -1.807154e+01 -4.714365e+00 -2.513378e+00 -2.365826e+01 -5.261167e-01 -7.951480e+00 1.065174e+01 4.828571e+00 -1.160587e+01 2.079736e+01 1.080431e+00 -2.039451e+00 -7.040742e-02 -3.509955e+00 -1.412219e+00 1.016694e+00 -2.617555e+00 1.351214e+00 4.534726e-01 2.804835e+00 1.157947e+00 -1.188129e+00 7.256589e-01
<VARIANCE> 26
 6.164200e+00 1.742636e+01 2.127420e+01 3.756212e+01 3.361457e+01 3.648699e+01 2.271863e+01 2.170757e+01 2.140126e+01 3.599395e+01 3.055667e+01 1.471686e+01 7.537482e-01 4.179660e+00 1.658376e+00 2.244807e+00 6.739403e+00 3.897763e+00 2.871172e+00 6.211103e+00 3.488026e+00 4.842087e+00 2.288170e+00 2.785533e+00 3.514192e+00 6.728638e-01
<GCONST> 9.936408e+01
<STATE> 3
<MEAN> 26
 7.287914e-02 -1.214165e+01 1.691375e+00 -2.115854e+01 -6.453905e+00 4.392863e-02 -2.476428e+01 5.191068e+00 -6.798485e+00 1.331432e+01 4.223227e+00 -1.169275e+01 2.170591e+01 1.078493e-01 1.226313e-01 -5.646853e-01 -4.747316e-01 2.717633e-01 4.020109e-01 2.318333e-01 5.214294e-02 -2.942978e-01 3.043834e-01 -3.751176e-01 -1.261977e-01 -8.505193e-03
<VARIANCE> 26
 2.607940e+00 9.276259e+00 1.761425e+01 1.662974e+01 1.828153e+01 1.933891e+01 1.213206e+01 2.147062e+01 8.095284e+00 1.632012e+01 1.766552e+01 1.518828e+01 2.470341e-01 2.712142e-01 6.681393e-01 1.036758e+00 1.773088e+00 1.313908e+00 1.871890e+00 1.220355e+00 1.468449e+00 1.106703e+00 1.224957e+00 1.132926e+00 1.203307e+00 1.735262e-02
<GCONST> 7.410303e+01
<STATE> 4
<MEAN> 26
 1.000352e+00 -7.985243e+00 -1.030734e-01 -2.462937e+01 -1.112991e+00 3.156610e+00 -1.683143e+01 -2.742856e+00 -1.060840e+01 1.331934e+01 1.981508e+00 -8.256098e+00 2.077606e+01 3.439697e-02 1.261133e+00 -2.201357e-01 6.114882e-01 1.171978e+00 7.413740e-01 2.966059e+00 -2.353231e+00 -2.570132e-01 -1.461917e+00 -3.072663e-01 1.820033e+00 -3.611767e-01
<VARIANCE> 26
 3.076646e+00 2.333652e+01 1.736764e+01 3.168177e+01 2.129760e+01 4.052012e+01 7.385899e+01 3.105229e+01 3.198140e+01 1.775652e+01 2.904900e+01 2.187071e+01 5.662808e-01 8.191916e-01 2.043204e+00 1.710363e+00 4.546013e+00 1.936057e+00 1.929766e+00 3.936709e+00 2.421546e+00 2.981168e+00 2.775971e+00 1.395561e+00 1.729195e+00 8.208794e-02
<GCONST> 9.172776e+01
<TRANSP> 5
 0.000000e+00 1.000000e+00 0.000000e+00 0.000000e+00 0.000000e+00
 0.000000e+00 5.201741e-01 4.798259e-01 0.000000e+00 0.000000e+00
 0.000000e+00 0.000000e+00 8.367382e-01 1.632619e-01 0.000000e+00
 0.000000e+00 0.000000e+00 0.000000e+00 7.345906e-01 2.654094e-01
 0.000000e+00 0.000000e+00 0.000000e+00 0.000000e+00 0.000000e+00
<ENDHMM>
~h "x~"
<BEGINHMM>
<NUMSTATES> 5
<STATE> 2
<MEAN> 26
 -1.174597e+00 -1.119142e+01 -2.765823e+00 -2.146347e+01 8.185925e+00 -4.515946e+00 -1.149194e+01 -3.033285e+00 -2.811010e+00 5.182355e+00 -2.813875e+00 -8.274823e+00 1.920350e+01 2.520638e+00 -3.054844e+00 2.663310e-01 -3.511772e+00 1.678037e+00 5.590979e-01 -2.365033e+00 9.642007e-01 -1.701324e+00 3.284150e-01 -7.251149e-02 -1.652310e+00 1.483254e+00
<VARIANCE> 26
 1.029997e+01 3.769997e+01 1.480597e+01 2.483281e+01 5.260827e+01 2.061512e+01 4.101565e+01 3.810155e+01 2.109569e+01 2.567494e+01 2.692517e+01 2.768270e+01 2.541763e+00 3.140854e+00 3.869836e+00 1.721540e+00 6.480069e+00 3.396892e+00 3.684560e+00 3.583886e+00 5.339892e+00 2.283523e+00 3.026755e+00 2.086896e+00 2.794583e+00 1.291819e+00
<GCONST> 1.021792e+02
<STATE> 3
<MEAN> 26
 3.189416e-01 -1.466572e+01 -2.195538e+00 -2.189476e+01 7.171935e+00 4.665559e+00 -1.788248e+01 2.333385e+00 -7.929779e+00 2.541803e+00 1.013934e+00 -8.637729e+00 2.118889e+01 -3.178883e-02 4.572116e-01 5.195644e-02 4.252287e-01 -5.928753e-01 5.993270e-01 -5.526905e-01 5.419133e-01 -4.226257e-01 4.618928e-02 1.488716e-01 1.078861e-01 5.911988e-02
<VARIANCE> 26
 4.000547e+00 1.106635e+01 6.619742e+00 1.368158e+01 1.966473e+01 2.665021e+01 1.821044e+01 1.375798e+01 1.116536e+01 1.442420e+01 3.337902e+01 1.131560e+01 3.286436e-01 2.915815e-01 1.268792e+00 7.408936e-01 7.565925e-01 1.565055e+00 2.262612e+00 1.601135e+00 1.120240e+00 9.772823e-01 9.365883e-01 1.369153e+00 7.247202e-01 4.902923e-02
<GCONST> 7.493345e+01
<STATE> 4
<MEAN> 26
 1.022323e+00 -5.972815e+00 -8.062109e-01 -1.319205e+01 -4.141201e-01 2.152833e+00 -1.602060e+01 3.501360e+00 -1.401708e+01 3.724745e+00 7.051702e-01 -9.315753e+00 2.055844e+01 3.024571e-01 2.760573e+00 5.619208e-01 3.937163e+00 -2.297570e+00 -2.758107e-01 2.740310e+00 -1.734568e+00 -1.106532e+00 -4.383118e-01 -2.928198e-01 7.242765e-01 -3.084915e-01
<VARIANCE> 26
 6.681801e+00 2.948426e+01 2.230901e+01 9.259608e+01 4.864112e+01 5.010426e+01 4.718851e+01 4.240447e+01 5.382903e+01 3.586728e+01 4.585731e+01 1.783871e+01 4.496037e-01 1.336413e+00 3.442951e+00 1.831991e+00 6.539447e+00 2.833553e+00 1.828348e+00 3.534583e+00 3.369854e+00 5.556276e+00 2.646657e+00 3.637852e+00 1.713483e+00 4.326634e-02
<GCONST> 9.908417e+01
<TRANSP> 5
 0.000000e+00 1.000000e+00 0.000000e+00 0.000000e+00 0.000000e+00
 0.000000e+00 6.706084e-01 3.293916e-01 0.000000e+00 0.000000e+00
 0.000000e+00 0.000000e+00 8.734141e-01 1.265859e-01 0.000000e+00
 0.000000e+00 0.000000e+00 0.000000e+00 6.723030e-01 3.276970e-01
 0.000000e+00 0.000000e+00 0.000000e+00 0.000000e+00 0.000000e+00
<ENDHMM>
~h "z^"
<BEGINHMM>
<NUMSTATES> 5
<STATE> 2
<MEAN> 26
 -1.044612e+01 3.108093e+00 1.194903e+01 -7.477046e+00 -1.084600e+00 -6.009018e+00 -4.261997e+00 -1.204715e+01 -1.845662e+00 -1.711367e+00 -3.475209e+00 6.649135e-01 1.905728e+01 -3.225867e+00 1.680695e+00 1.663324e+00 1.306626e+00 1.666240e+00 8.600661e-02 1.964176e+00 -1.033790e+00 1.205958e+00 -5.851230e-01 2.873588e-01 5.416890e-01 -3.544792e-01
<VARIANCE> 26
 2.917777e+01 1.765849e+01 2.361540e+01 3.087585e+01 3.832648e+01 3.926284e+01 2.748503e+01 2.942344e+01 2.185975e+01 2.834979e+01 2.654103e+01 1.855245e+01 5.430753e-01 1.691210e+00 2.538222e+00 2.181740e+00 2.940396e+00 2.020237e+00 4.039369e+00 2.344433e+00 4.472819e+00 3.197540e+00 2.388377e+00 2.018444e+00 1.737733e+00 4.664819e-02
<GCONST> 9.463893e+01
<STATE> 3
<MEAN> 26
 -2.076327e+01 5.258673e+00 1.721699e+01 -5.123145e+00 4.367708e+00 -1.910680e+00 1.959817e+00 -1.017217e+01 -5.277873e-01 -2.307899e+00 -3.459338e+00 8.821065e-01 1.815578e+01 -3.204866e-01 1.501353e-02 -1.124744e-01 -6.534937e-02 1.621174e-01 -4.943260e-02 -2.643887e-02 2.074982e-01 1.194906e-01 -8.318825e-02 3.936507e-02 2.830287e-02 5.546917e-03
<VARIANCE> 26
 1.439252e+01 9.004792e+00 1.361078e+01 2.198791e+01 2.803571e+01 3.081607e+01 2.799393e+01 1.681425e+01 1.618701e+01 1.778299e+01 1.603887e+01 1.515862e+01 3.470367e-01 2.635164e+00 1.014178e+00 1.578538e+00 9.363062e-01 1.599018e+00 2.679074e+00 2.527011e+00 1.589193e+00 1.099471e+00 9.896800e-01 1.498506e+00 1.338675e+00 3.149090e-02
<GCONST> 8.290545e+01
<STATE> 4
<MEAN> 26
 -1.215399e+01 2.577176e+00 1.061361e+01 -8.018472e+00 1.177811e+00 -7.800545e+00 -3.666479e+00 -1.179102e+01 -1.527859e-01 -1.883240e+00 -2.594802e+00 3.403633e-01 1.898501e+01 3.683220e+00 -2.102299e+00 -1.855269e+00 -6.129783e-01 -1.869942e+00 -3.763174e-01 -2.712086e+00 4.999246e-01 -6.555679e-01 2.767838e-01 8.468072e-01 -4.452551e-01 3.785647e-01
<VARIANCE> 26
 3.782030e+01 2.370958e+01 2.967382e+01 1.985868e+01 3.228617e+01 2.533907e+01 3.120725e+01 3.372522e+01 1.469626e+01 2.221305e+01 1.661835e+01 1.831371e+01 9.003672e-01 1.696616e+00 2.787374e+00 2.787951e+00 1.235085e+00 2.595328e+00 5.297469e+00 3.908132e+00 3.997887e+00 2.739046e+00 3.344416e+00 2.365606e+00 1.708559e+00 6.511176e-02
<GCONST> 9.506966e+01
<TRANSP> 5
 0.000000e+00 1.000000e+00 0.000000e+00 0.000000e+00 0.000000e+00
 0.000000e+00 7.188614e-01 2.811386e-01 0.000000e+00 0.000000e+00
 0.000000e+00 0.000000e+00 7.657956e-01 2.342044e-01 0.000000e+00
 0.000000e+00 0.000000e+00 0.000000e+00 6.382487e-01 3.617513e-01
 0.000000e+00 0.000000e+00 0.000000e+00 0.000000e+00 0.000000e+00
<ENDHMM>
