~o
<STREAMINFO> 1 26
<VECSIZE> 26<NULLD><MFCC_E_D><DIAGC>
~v "varFloor1"
<VARIANCE> 26
 7.528608e-01 4.836471e-01 6.936527e-01 1.165170e+00 5.971813e-01 4.755226e-01 8.837133e-01 4.464411e-01 6.617475e-01 5.043612e-01 3.577261e-01 3.682624e-01 2.346386e-01 2.926073e-02 2.980258e-02 2.837205e-02 5.332779e-02 3.412719e-02 3.071158e-02 4.275788e-02 3.327679e-02 3.738448e-02 3.113799e-02 2.695941e-02 2.419822e-02 4.406946e-03
~h "_"
<BEGINHMM>
<NUMSTATES> 5
<STATE> 2
<MEAN> 26
 -8.660150e+00 -5.554927e-01 -1.935568e+00 -1.115842e+01 -3.064834e+00 -6.136115e+00 -5.179181e+00 -5.367722e+00 -2.444288e+00 6.939879e+00 2.661321e+00 2.528456e-01 1.326780e+01 -1.336771e+00 8.359351e-01 -6.854291e-01 3.061115e+00 4.994985e-02 1.226963e+00 1.066216e+00 1.262673e+00 2.113956e+00 -5.495698e-01 6.804562e-01 -2.342699e-01 -1.440678e+00
<VARIANCE> 26
 2.231199e+01 3.185201e+01 5.864833e+01 8.286415e+01 6.147135e+01 9.159803e+01 6.501347e+01 5.992260e+01 1.190406e+02 9.990791e+01 6.435539e+01 4.807391e+01 9.020600e+00 2.560110e+00 3.823536e+00 6.158072e+00 5.672537e+00 6.244617e+00 5.761028e+00 5.777805e+00 6.323363e+00 9.993330e+00 8.020625e+00 6.366858e+00 4.877027e+00 3.391564e-01
<GCONST> 1.191178e+02
<STATE> 3
<MEAN> 26
 -1.358644e+01 1.792919e+00 -1.540888e+00 -4.324570e-01 4.264896e-01 5.032729e-01 -1.189825e+00 9.577492e-01 -4.056941e-01 1.169762e+00 1.331451e+00 -6.055790e-01 8.628431e+00 -2.116804e-01 -4.353312e-02 1.571069e-01 2.592499e-01 2.753600e-01 1.014952e-01 1.081998e-01 2.655180e-01 -1.004882e-01 -1.902412e-01 -1.983894e-01 3.477497e-02 -1.058294e-01
<VARIANCE> 26
 2.302019e+00 4.043655e+00 5.788901e+00 8.140470e+00 1.087384e+01 1.273423e+01 1.245602e+01 1.369055e+01 1.366005e+01 1.474896e+01 1.515245e+01 1.153878e+01 8.257275e-01 5.862276e-01 7.894798e-01 1.090822e+00 1.713603e+00 1.843601e+00 2.177724e+00 1.765328e+00 2.418334e+00 2.527385e+00 2.584465e+00 2.163529e+00 1.680865e+00 1.949636e-01
<GCONST> 7.844545e+01
<STATE> 4
<MEAN> 26
 -1.297151e+01 1.416304e+00 -7.017172e-01 -1.693642e+00 1.812834e-02 -1.083400e+00 -1.765038e+00 3.697916e-01 -1.332023e+00 9.709201e-01 9.426612e-01 -6.696864e-01 9.439123e+00 2.083202e+00 -1.151645e+00 9.650773e-01 -3.229947e+00 1.881716e-02 -1.411254e+00 -1.455388e+00 -9.518918e-01 -2.308563e+00 1.228051e-01 -8.871179e-01 -8.801501e-02 1.901970e+00
<VARIANCE> 26
 8.737377e+00 1.062428e+01 1.677376e+01 2.420531e+01 1.471406e+01 2.685901e+01 1.605619e+01 1.953094e+01 2.328608e+01 1.627463e+01 1.675973e+01 1.400070e+01 3.565496e+00 3.340007e+00 5.550750e+00 5.975077e+00 1.164785e+01 4.863675e+00 4.516852e+00 3.712416e+00 4.553781e+00 5.399700e+00 3.883575e+00 3.571761e+00 2.963229e+00 8.923445e-01
<GCONST> 1.010847e+02
<TRANSP> 5
 0.000000e+00 1.000000e+00 0.000000e+00 0.000000e+00 0.000000e+00
 0.000000e+00 7.847098e-01 2.152903e-01 0.000000e+00 0.000000e+00
 0.000000e+00 0.000000e+00 8.176405e-01 1.823595e-01 0.000000e+00
 0.000000e+00 0.000000e+00 0.000000e+00 4.172319e-01 5.827680e-01
 0.000000e+00 0.000000e+00 0.000000e+00 0.000000e+00 0.000000e+00
<ENDHMM>
~h "a"
<BEGINHMM>
<NUMSTATES> 5
<STATE> 2
<MEAN> 26
 -9.828305e-01 -1.052762e+01 -2.321082e+00 -2.219186e+01 3.503304e-01 4.656225e-01 -1.222508e+01 4.072783e-01 -4.171184e+00 6.560428e+00 -1.840294e+00 -8.950989e+00 2.021832e+01 1.676867e+00 -3.124289e+00 -1.064407e+00 -3.264699e+00 8.919287e-01 7.755859e-01 -8.221138e-01 1.454724e+00 -1.275613e-01 4.651228e-01 -1.055890e+00 -2.228168e+00 8.629319e-01
<VARIANCE> 26
 1.815739e+01 3.077795e+01 3.461395e+01 4.845483e+01 6.302631e+01 4.501952e+01 9.309357e+01 5.450684e+01 3.043098e+01 3.678632e+01 3.363866e+01 2.951425e+01 6.736214e+00 2.967624e+00 2.769695e+00 2.987865e+00 6.400278e+00 3.998872e+00 3.726861e+00 6.433440e+00 7.735763e+00 4.194994e+00 3.948023e+00 2.578600e+00 2.734252e+00 6.745621e-01
<GCONST> 1.098797e+02
<STATE> 3
<MEAN> 26
 6.277068e-01 -1.610940e+01 -5.307789e+00 -2.603890e+01 4.746711e+00 3.051979e+00 -1.146648e+01 1.665713e+00 -3.587949e+00 3.870151e+00 -4.534249e+00 -1.279837e+01 2.178428e+01 -5.622412e-02 -5.086033e-02 9.028969e-02 2.104797e-01 1.269701e-01 -4.881711e-01 3.478675e-01 -1.760266e-01 1.381835e-02 -1.322560e-01 -2.343714e-01 2.005273e-01 -1.983416e-02
<VARIANCE> 26
 6.875328e+00 1.705284e+01 2.275181e+01 2.106927e+01 3.970480e+01 4.660585e+01 4.061015e+01 5.279548e+01 2.518333e+01 2.608772e+01 2.937856e+01 2.078149e+01 4.891300e-01 5.455809e-01 1.695708e+00 2.101734e+00 1.643336e+00 2.902709e+00 2.662395e+00 2.943718e+00 2.704957e+00 1.566873e+00 2.090921e+00 2.228465e+00 1.941814e+00 4.571317e-02
<GCONST> 9.094958e+01
<STATE> 4
<MEAN> 26
 1.964552e-01 -9.106686e+00 -8.883166e-01 -1.935688e+01 1.310040e+00 -4.154941e+00 -1.032161e+01 -1.453249e+00 -4.744931e+00 5.169928e+00 -4.255486e+00 -7.406905e+00 2.029323e+01 -6.398696e-01 3.595258e+00 1.228737e+00 3.883508e+00 -9.116478e-02 -3.840865e-01 7.537048e-01 -1.917102e+00 -4.185268e-01 -7.952500e-01 4.166869e-01 1.509214e+00 -7.085717e-01
<VARIANCE> 26
 1.165539e+01 4.125788e+01 3.880962e+01 5.173484e+01 4.640176e+01 6.733653e+01 7.572630e+01 7.192278e+01 4.255747e+01 3.502873e+01 3.955695e+01 2.665948e+01 1.686755e+00 2.569157e+00 4.574715e+00 2.820631e+00 5.089349e+00 3.852026e+00 3.761843e+00 4.668759e+00 4.981101e+00 4.844879e+00 3.179796e+00 2.669588e+00 2.085213e+00 2.363835e-01
<GCONST> 1.069632e+02
<TRANSP> 5
 0.000000e+00 1.000000e+00 0.000000e+00 0.000000e+00 0.000000e+00
 0.000000e+00 5.559118e-01 4.440882e-01 0.000000e+00 0.000000e+00
 0.000000e+00 0.000000e+00 8.403858e-01 1.596142e-01 0.000000e+00
 0.000000e+00 0.000000e+00 0.000000e+00 6.415978e-01 3.584023e-01
 0.000000e+00 0.000000e+00 0.000000e+00 0.000000e+00 0.000000e+00
<ENDHMM>
~h "b"
<BEGINHMM>
<NUMSTATES> 5
<STATE> 2
<MEAN> 26
 5.143157e+00 2.946734e+00 4.637312e+00 -3.561821e-01 -2.457720e+00 6.141953e+00 -1.121916e+01 -5.776300e+00 -1.551078e+01 -5.405452e+00 4.753773e+00 -6.948341e+00 1.874256e+01 1.811933e+00 2.636114e+00 -5.677600e-02 1.224593e+00 2.044944e+00 7.819162e-02 3.169379e-01 -1.357305e+00 1.255806e+00 7.444363e-01 6.977754e-01 2.252472e-01 -1.725838e-01
<VARIANCE> 26
 2.166674e+01 2.067755e+01 3.081726e+01 3.829379e+01 5.657936e+01 5.748668e+01 3.879885e+01 3.247544e+01 9.126029e+01 6.430784e+01 3.446262e+01 2.947686e+01 2.963318e+00 2.905918e+00 2.349296e+00 3.194219e+00 9.495989e+00 4.487399e+00 5.162748e+00 4.791049e+00 3.143194e+00 9.258358e+00 5.187737e+00 4.145636e+00 3.129773e+00 2.894835e-01
<GCONST> 1.092593e+02
<STATE> 3
<MEAN> 26
 7.060053e+00 1.126290e+01 5.959835e+00 1.009034e+00 3.759182e+00 4.266901e+00 -8.647500e+00 -8.307566e+00 -8.447232e+00 -8.421728e-01 5.511061e+00 -5.240067e+00 1.773165e+01 -8.567603e-01 1.903427e-01 -8.753364e-02 -2.880458e-01 3.918545e-01 -2.262921e-01 7.884752e-01 -3.371034e-01 5.207736e-01 2.524518e-01 -6.070272e-01 5.538934e-01 -1.046641e-01
<VARIANCE> 26
 8.026786e+00 1.944120e+01 1.444356e+01 2.811514e+01 2.984976e+01 2.785774e+01 4.451349e+01 1.763228e+01 1.868205e+01 2.718620e+01 2.392107e+01 2.386812e+01 6.803858e-01 2.308666e+00 4.410292e+00 1.545183e+00 3.985872e+00 2.419024e+00 1.985406e+00 1.544485e+00 1.998559e+00 3.171690e+00 1.972941e+00 2.703161e+00 1.481674e+00 3.332072e-02
<GCONST> 9.107747e+01
<STATE> 4
<MEAN> 26
 -1.848587e-01 2.494781e+00 4.950916e+00 -7.727184e+00 3.470847e+00 1.964170e+00 -8.405615e+00 -9.640652e+00 -8.148376e+00 4.616774e-01 -2.211697e-01 -3.058048e+00 1.840535e+01 -1.019674e+00 -3.510920e+00 -8.707110e-01 -2.832339e+00 -9.602196e-01 -9.301755e-01 -1.723018e+00 2.974932e-01 5.926600e-01 1.059730e+00 -2.992408e-01 7.091389e-01 4.664071e-01
<VARIANCE> 26
 1.542193e+01 3.211002e+01 1.940785e+01 6.173154e+01 3.851333e+01 3.219458e+01 6.978889e+01 2.281703e+01 3.397999e+01 6.149725e+01 4.339866e+01 2.081360e+01 1.140285e+00 2.448575e+00 4.542832e+00 3.064602e+00 7.099579e+00 4.562218e+00 5.803821e+00 5.498309e+00 3.823124e+00 3.415128e+00 5.708228e+00 3.412874e+00 2.705472e+00 1.479235e-01
<GCONST> 1.052488e+02
<TRANSP> 5
 0.000000e+00 1.000000e+00 0.000000e+00 0.000000e+00 0.000000e+00
 0.000000e+00 5.534827e-01 4.465173e-01 0.000000e+00 0.000000e+00
 0.000000e+00 0.000000e+00 7.624725e-01 2.375274e-01 0.000000e+00
 0.000000e+00 0.000000e+00 0.000000e+00 4.940914e-01 5.059086e-01
 0.000000e+00 0.000000e+00 0.000000e+00 0.000000e+00 0.000000e+00
<ENDHMM>
~h "d"
<BEGINHMM>
<NUMSTATES> 5
<STATE> 2
<MEAN> 26
 3.575955e+00 8.089262e+00 9.187094e+00 2.305254e+00 -3.244594e+00 -2.387581e+00 -9.539544e+00 -1.154387e+00 -7.659546e+00 1.120688e+00 -1.632522e+00 -8.417846e+00 1.784739e+01 1.975734e+00 2.555951e+00 6.120812e-01 2.401171e+00 3.349123e-01 -1.466297e+00 7.558590e-01 6.215303e-01 2.728794e+00 2.178017e-01 -1.078778e+00 -1.114092e+00 -6.453536e-02
<VARIANCE> 26
 2.659834e+01 2.976036e+01 5.348381e+01 3.296745e+01 4.185958e+01 5.291828e+01 4.582011e+01 3.167841e+01 7.439322e+01 2.271251e+01 3.585369e+01 4.383414e+01 3.479006e+00 3.148870e+00 3.928482e+00 4.315453e+00 8.241935e+00 4.292953e+00 3.113196e+00 6.137327e+00 2.932582e+00 6.608249e+00 2.710425e+00 2.749777e+00 3.895993e+00 6.799935e-01
<GCONST> 1.093969e+02
<STATE> 3
<MEAN> 26
 5.491744e+00 1.445427e+01 1.168311e+01 5.733325e+00 -2.368734e+00 -6.678493e+00 -7.970640e+00 8.445966e-01 4.551237e-01 7.721391e-01 -4.400298e+00 -8.475657e+00 1.747333e+01 -1.645857e+00 -5.776636e-01 -9.638785e-02 -9.019715e-01 9.514157e-01 7.880387e-01 8.209611e-01 -7.328083e-01 3.438795e-01 -2.414087e-01 -1.359092e-01 1.217699e+00 -1.214148e-01
<VARIANCE> 26
 7.338453e+00 1.890926e+01 1.417231e+01 1.350486e+01 2.097557e+01 2.106054e+01 1.977709e+01 1.933613e+01 2.511483e+01 1.411477e+01 2.346117e+01 2.060150e+01 4.317604e-01 3.694653e+00 6.740898e+00 2.927656e+00 4.394026e+00 3.385665e+00 4.338344e+00 2.721409e+00 2.939126e+00 3.877478e+00 2.087870e+00 2.365347e+00 2.708357e+00 5.562964e-02
<GCONST> 9.281609e+01
<STATE> 4
<MEAN> 26
 -7.220885e+00 1.789191e+00 8.547018e+00 -6.665761e+00 3.132516e+00 -1.277467e-01 -6.105766e+00 -6.923287e+00 -4.041991e+00 -2.311884e-01 -2.880038e+00 -9.922302e-01 1.798489e+01 -2.566488e+00 -2.867334e+00 -4.726657e-02 -3.239199e+00 -5.527539e-01 2.926895e-01 -1.501673e+00 -1.147236e+00 -1.079663e+00 -2.321632e-01 1.193771e+00 1.451540e+00 5.047898e-01
<VARIANCE> 26
 1.884722e+01 4.402666e+01 4.209207e+01 5.364337e+01 3.484789e+01 6.878326e+01 5.088935e+01 3.386032e+01 2.653349e+01 2.947930e+01 2.517443e+01 2.580477e+01 1.477141e+00 5.397716e+00 5.495245e+00 4.965349e+00 5.653402e+00 6.006348e+00 4.949783e+00 7.505549e+00 4.178623e+00 4.503489e+00 5.597497e+00 3.004013e+00 4.203626e+00 2.043407e-01
<GCONST> 1.087281e+02
<TRANSP> 5
 0.000000e+00 1.000000e+00 0.000000e+00 0.000000e+00 0.000000e+00
 0.000000e+00 5.742095e-01 4.257905e-01 0.000000e+00 0.000000e+00
 0.000000e+00 0.000000e+00 7.272016e-01 2.727984e-01 0.000000e+00
 0.000000e+00 0.000000e+00 0.000000e+00 5.927261e-01 4.072739e-01
 0.000000e+00 0.000000e+00 0.000000e+00 0.000000e+00 0.000000e+00
<ENDHMM>
~h "e"
<BEGINHMM>
<NUMSTATES> 5
<STATE> 2
<MEAN> 26
 -3.022874e+00 -7.928602e+00 8.678226e+00 -1.512229e+01 -7.852129e+00 -7.397830e+00 -1.722574e+01 1.895802e+00 -8.014242e+00 2.691767e+00 1.562322e+00 -3.160314e+00 2.033945e+01 1.704557e+00 -2.808085e+00 1.462770e+00 -2.799626e+00 -2.436227e+00 -1.183719e+00 -2.441918e+00 2.654065e+00 -1.203095e+00 1.172224e+00 1.173261e-01 -7.307914e-01 7.668014e-01
<VARIANCE> 26
 1.056217e+01 2.948441e+01 4.657664e+01 3.729317e+01 3.201027e+01 3.452264e+01 6.144158e+01 3.723872e+01 3.245878e+01 3.557714e+01 3.423243e+01 2.036920e+01 3.141015e+00 3.621646e+00 2.741789e+00 4.236293e+00 3.551152e+00 4.295737e+00 3.441488e+00 6.226055e+00 4.815464e+00 4.214581e+00 2.908837e+00 3.361650e+00 2.116875e+00 3.351599e-01
<GCONST> 1.049485e+02
<STATE> 3
<MEAN> 26
 -2.173230e+00 -1.182135e+01 9.095050e+00 -2.032023e+01 -1.021283e+01 -8.654181e+00 -1.567355e+01 6.833469e+00 -8.059864e+00 5.106599e+00 8.205347e-01 -4.604937e+00 2.124681e+01 7.715486e-03 -9.784649e-02 4.610468e-02 -2.606603e-01 1.965551e-01 -1.980865e-01 5.321368e-01 -2.298885e-01 -1.873698e-01 -2.098157e-02 -2.329141e-01 -9.596195e-02 -2.520197e-02
<VARIANCE> 26
 7.286024e+00 2.113850e+01 4.341295e+01 1.923024e+01 2.854540e+01 2.855266e+01 3.766732e+01 2.826956e+01 3.741368e+01 2.068283e+01 2.497973e+01 1.465086e+01 3.383107e-01 4.642627e-01 1.008174e+00 1.953898e+00 1.591494e+00 1.904769e+00 1.850239e+00 2.176732e+00 2.509186e+00 2.096639e+00 1.510163e+00 1.625165e+00 1.133021e+00 2.204648e-02
<GCONST> 8.597430e+01
<STATE> 4
<MEAN> 26
 -2.097023e+00 -8.554320e+00 9.348306e+00 -1.706400e+01 -5.643048e+00 -8.130437e+00 -1.310332e+01 -1.370742e-01 -1.024950e+01 3.027480e+00 -1.627807e+00 -4.285309e+00 2.022576e+01 -3.798702e-01 2.433266e+00 -5.760906e-01 2.473803e+00 2.149130e+00 1.331205e+00 1.406975e+00 -2.526982e+00 8.125100e-01 -8.514016e-01 -8.653082e-01 1.647490e-01 -5.531630e-01
<VARIANCE> 26
 9.215666e+00 3.567445e+01 6.770242e+01 4.575037e+01 3.824157e+01 4.343023e+01 6.440983e+01 4.458844e+01 7.188988e+01 3.676780e+01 3.547905e+01 2.300931e+01 9.993086e-01 1.753673e+00 3.436089e+00 3.690284e+00 4.339182e+00 2.339093e+00 3.415806e+00 4.109288e+00 4.820142e+00 4.892375e+00 3.152224e+00 2.424409e+00 1.774743e+00 1.184179e-01
<GCONST> 1.032754e+02
<TRANSP> 5
 0.000000e+00 1.000000e+00 0.000000e+00 0.000000e+00 0.000000e+00
 0.000000e+00 5.291795e-01 4.708205e-01 0.000000e+00 0.000000e+00
 0.000000e+00 0.000000e+00 8.542501e-01 1.457498e-01 0.000000e+00
 0.000000e+00 0.000000e+00 0.000000e+00 6.336359e-01 3.663642e-01
 0.000000e+00 0.000000e+00 0.000000e+00 0.000000e+00 0.000000e+00
<ENDHMM>
~h "f"
<BEGINHMM>
<NUMSTATES> 5
<STATE> 2
<MEAN> 26
 -1.556171e+01 -2.088031e+00 1.453189e+00 -5.035798e+00 2.991727e+00 4.433633e-01 -9.023473e-01 -1.522156e+00 -1.706554e+00 1.819391e+00 -2.666139e+00 -1.839219e-01 1.561443e+01 -3.437396e+00 -1.991131e+00 -2.059035e+00 -2.723809e-01 6.624126e-01 3.775538e-01 6.801485e-01 5.128098e-01 1.409144e+00 8.962344e-01 5.664484e-01 1.118566e+00 -8.302007e-01
<VARIANCE> 26
 3.698076e+01 1.958737e+01 3.091037e+01 2.114786e+01 2.319431e+01 2.334145e+01 2.087152e+01 2.209190e+01 3.094890e+01 2.840433e+01 2.073643e+01 1.338548e+01 4.914574e+00 3.707637e+00 1.630748e+00 3.384691e+00 6.074875e+00 5.156526e+00 4.375939e+00 4.603952e+00 3.337700e+00 3.764875e+00 3.065078e+00 2.782815e+00 1.872915e+00 3.199407e-01
<GCONST> 1.009062e+02
<STATE> 3
<MEAN> 26
 -2.241047e+01 -6.445373e+00 -4.898393e+00 -8.915944e+00 5.508159e-01 4.666810e-01 -3.687494e+00 -2.912741e+00 -1.602997e+00 5.494984e+00 1.823395e-02 3.437675e+00 1.406185e+01 -8.293491e-02 -6.572406e-02 -1.566946e-01 -9.404372e-02 -2.368187e-01 -9.492959e-03 -1.885289e-01 -1.456147e-01 -9.029916e-02 8.512849e-02 5.391585e-02 7.574392e-02 9.727694e-03
<VARIANCE> 26
 7.196827e+00 5.702952e+00 9.363002e+00 1.131262e+01 2.060840e+01 1.880845e+01 1.818982e+01 1.860983e+01 1.890116e+01 1.941104e+01 1.584156e+01 1.567330e+01 1.264402e+00 8.932239e-01 6.142488e-01 9.997529e-01 1.191543e+00 1.718748e+00 1.485887e+00 1.804590e+00 1.905922e+00 1.865344e+00 2.087515e+00 1.737234e+00 1.688331e+00 8.311190e-02
<GCONST> 8.129646e+01
<STATE> 4
<MEAN> 26
 -1.689583e+01 -4.200882e+00 -1.736646e+00 -8.690238e+00 3.988883e-01 -2.380168e-02 -3.151041e+00 -3.922000e+00 -2.728538e+00 2.709080e+00 -2.261107e+00 1.084854e+00 1.561187e+01 4.212330e+00 1.494310e+00 1.654644e+00 -4.394876e-01 -2.327658e-01 2.687263e-01 -1.360069e+00 -3.985194e-01 -1.457081e+00 -1.717673e+00 -3.487083e-01 -1.344703e+00 9.802851e-01
<VARIANCE> 26
 3.701977e+01 1.527730e+01 2.194671e+01 1.692952e+01 2.969688e+01 2.877177e+01 2.013157e+01 2.460786e+01 2.429887e+01 2.158807e+01 1.950337e+01 2.459630e+01 2.659196e+00 4.469028e+00 2.127010e+00 3.572320e+00 4.900065e+00 4.300030e+00 4.497209e+00 6.561156e+00 4.754027e+00 4.568629e+00 2.988900e+00 4.778544e+00 2.384965e+00 3.520841e-01
<GCONST> 1.019300e+02
<TRANSP> 5
 0.000000e+00 1.000000e+00 0.000000e+00 0.000000e+00 0.000000e+00
 0.000000e+00 6.834021e-01 3.165978e-01 0.000000e+00 0.000000e+00
 0.000000e+00 0.000000e+00 8.966901e-01 1.033099e-01 0.000000e+00
 0.000000e+00 0.000000e+00 0.000000e+00 6.342059e-01 3.657941e-01
 0.000000e+00 0.000000e+00 0.000000e+00 0.000000e+00 0.000000e+00
<ENDHMM>
~h "g"
<BEGINHMM>
<NUMSTATES> 5
<STATE> 2
<MEAN> 26
 1.293435e+00 8.913483e+00 1.236067e+01 2.814405e+00 -5.603084e+00 -3.623542e+00 -6.525955e+00 -1.126323e+00 -1.200598e+01 -1.325024e-01 4.655775e+00 -8.554317e+00 1.775690e+01 2.215132e+00 1.284903e+00 4.693826e-01 1.826588e+00 -1.555616e+00 -1.150972e+00 1.176642e+00 1.476043e-01 -1.896107e-01 -1.303968e-01 1.107519e+00 -5.047445e-01 6.163006e-02
<VARIANCE> 26
 4.634554e+01 4.517092e+01 6.540685e+01 3.531758e+01 7.781198e+01 2.342579e+01 4.327665e+01 2.544052e+01 6.801091e+01 2.791627e+01 4.040706e+01 4.647192e+01 2.333370e+00 4.639986e+00 5.267989e+00 4.948343e+00 2.544803e+00 7.147533e+00 2.672312e+00 5.551169e+00 4.025934e+00 1.173130e+01 1.934778e+00 4.416573e+00 2.600934e+00 4.440790e-01
<GCONST> 1.101602e+02
<STATE> 3
<MEAN> 26
 5.200944e+00 9.234644e+00 1.093837e+01 3.078711e+00 -1.045335e+01 -3.313707e+00 -3.258495e+00 9.017360e-01 -1.414264e+01 -4.062476e+00 8.258117e+00 -9.922716e+00 1.824590e+01 -1.580153e+00 -9.796205e-01 -2.650084e-01 -1.802525e+00 2.432958e+00 1.566096e+00 -1.435002e-01 -8.642741e-01 3.629449e-01 3.390512e-01 -1.693159e+00 1.825213e+00 -1.462362e-01
<VARIANCE> 26
 6.961116e+00 2.070659e+01 5.595407e+01 3.513717e+01 4.539004e+01 2.637839e+01 2.918392e+01 2.173155e+01 7.921643e+01 3.917278e+01 4.896105e+01 2.964095e+01 9.268397e-01 4.000138e+00 4.871512e+00 5.397207e+00 4.235923e+00 6.192920e+00 1.998603e+00 3.645827e+00 4.909239e+00 3.343795e+00 4.446503e+00 5.413776e+00 3.392294e+00 9.690558e-02
<GCONST> 1.038994e+02
<STATE> 4
<MEAN> 26
 -4.495100e+00 1.342552e+00 9.296150e+00 -7.790322e+00 2.588110e-01 1.848525e+00 -9.258037e+00 -2.918778e+00 -1.399207e+01 7.913673e-01 2.928600e-01 -2.201546e+00 1.812964e+01 -1.757683e+00 -1.570528e+00 1.777266e-01 -2.429838e+00 -1.704034e-01 -4.229763e-01 -1.868867e+00 1.028935e-01 4.286133e-01 -4.379269e-01 2.370425e-01 1.600264e+00 3.353263e-01
<VARIANCE> 26
 3.023477e+01 2.868260e+01 8.114387e+01 5.309335e+01 6.238974e+01 4.738268e+01 6.385383e+01 3.067509e+01 4.114399e+01 3.894358e+01 5.227638e+01 1.373692e+01 1.502057e+00 4.033053e+00 5.971344e+00 6.604062e+00 3.689651e+00 8.743483e+00 4.706222e+00 4.813663e+00 5.356723e+00 5.798833e+00 6.505862e+00 4.831935e+00 4.118774e+00 1.746364e-01
<GCONST> 1.110706e+02
<TRANSP> 5
 0.000000e+00 1.000000e+00 0.000000e+00 0.000000e+00 0.000000e+00
 0.000000e+00 5.757386e-01 4.242614e-01 0.000000e+00 0.000000e+00
 0.000000e+00 0.000000e+00 6.031144e-01 3.968857e-01 0.000000e+00
 0.000000e+00 0.000000e+00 0.000000e+00 5.598752e-01 4.401248e-01
 0.000000e+00 0.000000e+00 0.000000e+00 0.000000e+00 0.000000e+00
<ENDHMM>
~h "h"
<BEGINHMM>
<NUMSTATES> 5
<STATE> 2
<MEAN> 26
 -1.997770e+01 -7.611821e+00 5.636232e+00 -3.253792e+00 -6.200943e+00 -1.939386e+00 -7.199639e-01 -1.268126e+00 -5.521376e+00 3.214594e+00 -7.502045e-01 2.103712e+00 1.650580e+01 5.765355e-01 -2.411647e-02 1.645975e+00 2.354225e+00 -2.315726e-01 -1.264656e+00 -6.909081e-02 3.757620e-01 -7.050126e-01 -1.162879e+00 -3.302700e-01 -5.308785e-01 4.095845e-01
<VARIANCE> 26
 3.202578e+01 2.017970e+01 3.193146e+01 3.352980e+01 2.955582e+01 4.347390e+01 3.054325e+01 2.913401e+01 2.442095e+01 3.401962e+01 1.306435e+01 1.730215e+01 1.677878e+00 4.456577e+00 2.152434e+00 2.362080e+00 2.263075e+00 2.098380e+00 3.249019e+00 4.565464e+00 2.918397e+00 2.402832e+00 5.509596e+00 1.747185e+00 1.587123e+00 2.386848e-01
<GCONST> 9.845896e+01
<STATE> 3
<MEAN> 26
 -7.128025e+00 -2.747351e+00 1.448974e+01 7.510016e+00 -5.710597e+00 -8.299279e+00 -1.127134e+01 -1.205111e+00 -1.066723e+01 -1.079499e+01 -2.122378e+00 2.471458e+00 1.912587e+01 3.036022e+00 -6.235895e-02 1.838317e+00 1.357861e+00 -4.408093e-01 -1.289459e+00 -4.105616e+00 5.805435e-01 -1.083027e+00 -5.021122e+00 1.129279e+00 7.417747e-01 7.140828e-01
<VARIANCE> 26
 2.095166e+01 1.091144e+01 1.880527e+01 1.073582e+01 1.972454e+01 1.775586e+01 4.516829e+01 1.754876e+01 2.820507e+01 3.746503e+01 1.709092e+01 2.108341e+01 5.474209e-01 3.264615e+00 2.473402e+00 2.349732e+00 2.852112e+00 3.245259e+00 3.586922e+00 4.154426e+00 2.515867e+00 3.844331e+00 5.164551e+00 2.587626e+00 2.592116e+00 2.284167e-01
<GCONST> 9.551333e+01
<STATE> 4
<MEAN> 26
 -3.474521e+00 -5.783108e+00 1.749439e+01 7.080542e+00 -6.354451e+00 -6.694919e+00 -1.823737e+01 1.255326e+00 -9.894354e+00 -1.939132e+01 4.941195e+00 2.710444e+00 1.989974e+01 -2.054222e-03 -3.699397e-01 7.874242e-01 -9.674184e-01 -9.120245e-01 8.262383e-01 -4.288474e-01 -2.786450e-01 -2.673857e-03 8.469132e-02 8.874657e-01 -8.209850e-01 1.128117e-01
<VARIANCE> 26
 6.135523e+00 1.255711e+01 2.300585e+01 3.772203e+01 1.824988e+01 1.607701e+01 3.817272e+01 2.062777e+01 3.709256e+01 4.275837e+01 1.725454e+01 2.530753e+01 2.847980e-01 8.523840e-01 4.619077e-01 2.492739e+00 2.724339e+00 2.555900e+00 2.056857e+00 3.124590e+00 2.154461e+00 1.303952e+00 4.619289e+00 1.393725e+00 1.320375e+00 1.739621e-02
<GCONST> 8.634164e+01
<TRANSP> 5
 0.000000e+00 1.000000e+00 0.000000e+00 0.000000e+00 0.000000e+00
 0.000000e+00 7.503907e-01 2.496093e-01 0.000000e+00 0.000000e+00
 0.000000e+00 0.000000e+00 6.198606e-01 3.801394e-01 0.000000e+00
 0.000000e+00 0.000000e+00 0.000000e+00 7.830826e-01 2.169174e-01
 0.000000e+00 0.000000e+00 0.000000e+00 0.000000e+00 0.000000e+00
<ENDHMM>
~h "i"
<BEGINHMM>
<NUMSTATES> 5
<STATE> 2
<MEAN> 26
 -1.068978e+01 4.698845e+00 1.802880e+01 -8.007901e+00 -2.957661e+00 -3.116216e+00 -1.373010e+01 -6.989485e+00 -8.858313e+00 -1.020835e+01 -1.603855e+00 1.939383e+00 1.934279e+01 9.132340e-01 -1.889204e-01 3.193996e+00 -1.334840e+00 -1.604280e+00 6.445992e-01 -2.587683e+00 -1.074320e-01 -1.915483e+00 -2.215480e+00 7.796301e-01 -2.790370e-01 4.144074e-01
<VARIANCE> 26
 2.485351e+01 3.459813e+01 2.903711e+01 3.286095e+01 4.979526e+01 2.632576e+01 3.516510e+01 2.867111e+01 3.663002e+01 4.527126e+01 3.562907e+01 2.215018e+01 1.332077e+00 4.351199e+00 2.976813e+00 3.924857e+00 3.841131e+00 5.207560e+00 3.795189e+00 4.290595e+00 2.632769e+00 4.514001e+00 4.139363e+00 3.096391e+00 2.243278e+00 1.635566e-01
<GCONST> 1.036062e+02
<STATE> 3
<MEAN> 26
 -9.865705e+00 4.128052e+00 2.280863e+01 -1.233108e+01 -6.092992e+00 1.944595e+00 -2.003101e+01 -4.330698e+00 -1.350693e+01 -1.436149e+01 3.107722e+00 -1.608413e+00 1.997974e+01 -1.517443e-02 2.342099e-01 5.497259e-03 -4.723122e-01 -2.239668e-01 1.534042e-01 -8.461393e-02 2.188628e-01 -4.505311e-01 3.005700e-01 -5.039039e-03 -4.580218e-01 -1.803919e-02
<VARIANCE> 26
 7.719315e+00 1.908450e+01 1.541281e+01 2.568492e+01 3.484454e+01 2.343518e+01 2.793937e+01 2.673485e+01 4.229910e+01 2.871003e+01 3.235384e+01 2.137082e+01 4.000918e-01 8.743093e-01 1.987040e+00 1.784722e+00 2.169117e+00 2.422715e+00 2.246637e+00 2.537760e+00 2.150820e+00 2.491994e+00 2.482386e+00 1.887318e+00 1.381581e+00 2.451146e-02
<GCONST> 8.917377e+01
<STATE> 4
<MEAN> 26
 -7.701904e+00 4.656878e+00 1.712115e+01 -9.388156e+00 -5.496682e+00 -2.133213e+00 -1.309547e+01 -5.007391e+00 -1.295669e+01 -6.912412e+00 -5.396385e-01 -2.023870e+00 1.909621e+01 5.788242e-01 3.192509e-01 -2.304210e+00 1.864964e+00 9.411019e-01 -8.154535e-01 2.191462e+00 -3.161483e-01 1.409958e+00 1.710776e+00 -8.035366e-01 3.705531e-02 -4.326180e-01
<VARIANCE> 26
 2.746806e+01 5.320124e+01 4.001756e+01 6.080960e+01 5.882017e+01 3.581799e+01 5.464969e+01 4.408931e+01 7.149569e+01 4.531519e+01 4.940658e+01 3.514291e+01 1.925343e+00 4.465090e+00 4.062463e+00 3.721525e+00 4.600253e+00 4.591155e+00 3.988629e+00 3.838856e+00 3.833542e+00 4.729335e+00 3.801556e+00 3.473029e+00 3.374552e+00 1.892655e-01
<GCONST> 1.095277e+02
<TRANSP> 5
 0.000000e+00 1.000000e+00 0.000000e+00 0.000000e+00 0.000000e+00
 0.000000e+00 6.017532e-01 3.982467e-01 0.000000e+00 0.000000e+00
 0.000000e+00 0.000000e+00 8.135045e-01 1.864955e-01 0.000000e+00
 0.000000e+00 0.000000e+00 0.000000e+00 6.893091e-01 3.106909e-01
 0.000000e+00 0.000000e+00 0.000000e+00 0.000000e+00 0.000000e+00
<ENDHMM>
~h "j"
<BEGINHMM>
<NUMSTATES> 5
<STATE> 2
<MEAN> 26
 -1.125677e+01 6.290610e+00 2.157460e+01 -8.281880e+00 -1.977239e+00 -1.860318e+00 -1.421448e+01 -4.826951e+00 -1.029163e+01 -7.281411e+00 -2.180474e-01 1.354285e+00 1.909916e+01 8.807077e-01 -6.082863e-02 7.933521e-01 3.193630e-01 -6.990191e-01 -5.698099e-01 -1.007543e+00 4.351787e-01 -6.649073e-01 -1.309608e+00 3.599233e-01 4.324308e-02 2.109348e-01
<VARIANCE> 26
 1.646073e+01 2.435852e+01 2.422207e+01 4.333372e+01 4.578337e+01 2.517962e+01 3.786037e+01 3.113829e+01 4.345356e+01 3.667301e+01 2.312351e+01 1.896837e+01 7.161518e-01 6.706419e+00 3.865668e+00 3.682693e+00 3.507737e+00 4.214945e+00 4.065827e+00 5.427399e+00 3.340806e+00 3.294218e+00 4.493173e+00 1.839961e+00 1.413412e+00 1.690059e-01
<GCONST> 1.014060e+02
<STATE> 3
<MEAN> 26
 -6.807354e+00 -1.561645e+00 1.767443e+01 -7.233413e+00 -1.050355e+01 -4.963083e+00 -1.783040e+01 -2.159026e+00 -1.137114e+01 -1.022696e+01 1.801139e+00 7.680815e-01 2.022776e+01 2.730029e+00 -2.731910e+00 -1.383001e+00 -1.166072e+00 -1.865883e+00 -9.178900e-01 -2.957325e+00 2.899522e+00 3.309557e-02 3.792926e-01 1.570093e+00 -9.154066e-01 4.999949e-01
<VARIANCE> 26
 9.873748e+00 1.852902e+01 3.320038e+01 8.032368e+01 2.825520e+01 3.000745e+01 3.378277e+01 4.017313e+01 3.494409e+01 4.664023e+01 1.861940e+01 1.136758e+01 5.584737e-01 3.341012e+00 1.761537e+00 4.025116e+00 3.566006e+00 4.589460e+00 3.995214e+00 7.721141e+00 3.294535e+00 2.950358e+00 9.383341e+00 3.537363e+00 2.191660e+00 6.841477e-02
<GCONST> 1.002754e+02
<STATE> 4
<MEAN> 26
 -2.057719e+00 -7.886748e+00 9.086089e+00 -1.308966e+01 -9.983236e+00 -1.823212e+00 -2.142509e+01 4.345005e+00 -8.252289e+00 -1.271674e+00 2.710760e+00 -3.660140e+00 2.072518e+01 1.221517e+00 -8.096804e-01 -2.888788e+00 -1.617106e+00 9.733994e-01 2.262840e+00 3.534818e-01 -4.538888e-02 3.374898e-01 2.123798e+00 2.709362e-01 -1.283331e+00 7.175848e-02
<VARIANCE> 26
 8.083000e+00 2.223285e+01 5.190714e+01 6.018755e+01 3.514477e+01 3.820524e+01 4.856615e+01 3.440960e+01 3.887842e+01 7.079686e+01 4.812321e+01 2.854004e+01 1.157087e+00 7.563017e-01 3.415723e+00 2.418209e+00 4.841015e+00 2.942202e+00 5.079905e+00 6.044349e+00 6.282496e+00 4.789045e+00 3.927552e+00 5.636376e+00 2.069295e+00 5.325406e-02
<GCONST> 1.031467e+02
<TRANSP> 5
 0.000000e+00 1.000000e+00 0.000000e+00 0.000000e+00 0.000000e+00
 0.000000e+00 7.049500e-01 2.950499e-01 0.000000e+00 0.000000e+00
 0.000000e+00 0.000000e+00 5.262374e-01 4.737626e-01 0.000000e+00
 0.000000e+00 0.000000e+00 0.000000e+00 5.873764e-01 4.126237e-01
 0.000000e+00 0.000000e+00 0.000000e+00 0.000000e+00 0.000000e+00
<ENDHMM>
~h "k"
<BEGINHMM>
<NUMSTATES> 5
<STATE> 2
<MEAN> 26
 -9.796967e+00 8.464573e-01 -5.005174e-02 -2.542437e-01 1.685352e+00 5.886035e-01 -1.529412e+00 -3.620293e-01 -5.102642e+00 -6.729275e-01 -1.941733e-01 -1.957220e+00 1.181688e+01 -1.333249e+00 -1.360444e+00 -1.390090e+00 -1.814647e+00 -2.460228e-02 3.562475e-01 -1.901502e-01 -4.730828e-01 4.734245e-01 4.040727e-01 4.844408e-02 8.432481e-01 -2.157972e-01
<VARIANCE> 26
 3.257080e+01 3.635751e+01 3.373828e+01 3.190233e+01 3.007866e+01 2.699735e+01 3.200511e+01 2.500572e+01 4.570649e+01 3.512899e+01 2.563471e+01 2.293482e+01 7.895924e+00 6.100710e+00 4.882657e+00 6.035041e+00 1.524962e+01 5.070751e+00 3.474733e+00 7.239694e+00 4.989242e+00 7.188204e+00 4.037002e+00 3.863234e+00 3.299229e+00 2.718177e+00
<GCONST> 1.123369e+02
<STATE> 3
<MEAN> 26
 -9.745505e+00 -6.697536e+00 -8.101242e+00 -1.770172e+01 2.146323e-01 1.813185e+00 -8.047368e+00 -2.785509e+00 -8.827000e+00 3.521700e+00 2.182100e-01 -6.530824e-01 1.584400e+01 7.388901e-01 -1.485433e+00 -1.604243e+00 -5.008420e+00 -3.001786e-01 1.475282e-02 -1.995234e+00 -1.397645e+00 -1.951514e+00 1.134654e+00 4.226652e-02 -1.271459e-01 1.713088e+00
<VARIANCE> 26
 3.410276e+01 3.601235e+01 7.001541e+01 5.695452e+01 5.480542e+01 4.460294e+01 6.551900e+01 4.509193e+01 4.154206e+01 3.764470e+01 2.864286e+01 2.934060e+01 4.763262e+00 4.072514e+00 3.220163e+00 6.901549e+00 7.489718e+00 4.295476e+00 3.377930e+00 4.069059e+00 4.023848e+00 6.775243e+00 2.690221e+00 3.069432e+00 3.094436e+00 8.983430e-01
<GCONST> 1.116676e+02
<STATE> 4
<MEAN> 26
 -9.621010e+00 -3.824675e+00 -5.454188e+00 -1.651794e+01 5.069367e-01 4.668913e-01 -6.161598e+00 -5.578617e+00 -8.395168e+00 3.280945e+00 -6.440303e-02 -1.963368e-01 1.685167e+01 1.109049e+00 1.424561e+00 2.138582e+00 1.424831e+00 -6.745581e-01 -4.715974e-01 2.191469e-01 -3.303787e-01 -3.137820e-01 -9.232707e-01 6.036317e-01 -2.193375e-01 5.336773e-01
<VARIANCE> 26
 4.374722e+01 2.978687e+01 8.965656e+01 7.983566e+01 5.153106e+01 3.874876e+01 5.343219e+01 4.716413e+01 7.134239e+01 3.851132e+01 3.226906e+01 2.984960e+01 3.607828e+00 5.091232e+00 3.613289e+00 3.946751e+00 5.759046e+00 5.870068e+00 4.275986e+00 7.327098e+00 4.509321e+00 4.878220e+00 3.815421e+00 4.749129e+00 3.376427e+00 4.275255e-01
<GCONST> 1.129417e+02
<TRANSP> 5
 0.000000e+00 1.000000e+00 0.000000e+00 0.000000e+00 0.000000e+00
 0.000000e+00 6.574911e-01 3.425089e-01 0.000000e+00 0.000000e+00
 0.000000e+00 0.000000e+00 4.202019e-01 5.797981e-01 0.000000e+00
 0.000000e+00 0.000000e+00 0.000000e+00 6.190049e-01 3.809952e-01
 0.000000e+00 0.000000e+00 0.000000e+00 0.000000e+00 0.000000e+00
<ENDHMM>
~h "l"
<BEGINHMM>
<NUMSTATES> 5
<STATE> 2
<MEAN> 26
 -9.270978e-01 -3.235679e+00 3.607004e+00 -2.866380e+00 1.198265e+00 -2.381081e+00 -1.364684e+01 -7.318544e+00 -3.246000e+00 3.101528e+00 -3.133969e+00 -3.441664e+00 1.732832e+01 2.127302e+00 -2.499113e-01 1.433122e+00 -4.898155e-02 1.412334e+00 -1.319507e+00 -3.192905e+00 -1.511233e+00 -1.003990e+00 -2.500090e-01 -1.154715e+00 -1.206406e+00 8.163575e-01
<VARIANCE> 26
 5.018280e+01 3.022682e+01 8.116187e+01 3.718895e+01 3.902172e+01 5.396777e+01 9.789445e+01 9.629009e+01 4.326868e+01 4.964486e+01 3.798968e+01 2.955507e+01 1.030601e+01 5.607539e+00 4.931860e+00 4.030345e+00 4.050262e+00 6.785473e+00 4.089389e+00 8.411434e+00 5.689040e+00 4.623861e+00 4.575490e+00 4.181601e+00 3.787315e+00 7.861193e-01
<GCONST> 1.158315e+02
<STATE> 3
<MEAN> 26
 2.443516e+00 -1.827126e+00 1.035025e+01 -4.294348e+00 3.825136e+00 -4.431331e+00 -2.448876e+01 -7.742351e+00 -5.601897e+00 -1.631241e+00 -2.947642e+00 -6.715359e+00 1.960993e+01 -1.480843e-01 1.072443e-01 4.643455e-01 -2.060436e-01 3.438559e-02 9.966419e-02 -7.130247e-01 5.532303e-01 -7.737555e-02 -5.577418e-01 4.976147e-01 -5.682011e-01 1.026948e-01
<VARIANCE> 26
 1.915674e+01 2.812234e+01 9.150031e+01 5.291299e+01 5.246281e+01 4.791785e+01 5.582435e+01 7.264839e+01 3.648618e+01 4.843965e+01 3.209299e+01 4.065568e+01 3.807546e-01 8.324423e-01 2.271608e+00 2.651749e+00 2.313320e+00 2.569659e+00 3.071711e+00 4.717209e+00 4.269694e+00 3.495681e+00 3.230307e+00 2.162660e+00 2.568499e+00 3.350513e-02
<GCONST> 1.006444e+02
<STATE> 4
<MEAN> 26
 1.718221e+00 -5.245596e+00 6.600312e+00 -6.620155e+00 8.107080e-01 -2.805593e+00 -1.900737e+01 -4.958671e+00 -6.337177e+00 5.870019e-01 -9.420558e-01 -8.466887e+00 1.957028e+01 -5.712129e-01 -8.034693e-01 -1.888895e-01 -1.769819e+00 -1.737271e+00 2.855681e-01 1.749550e+00 1.485822e+00 -3.635092e-01 8.203409e-01 1.317678e+00 3.955855e-01 6.812202e-02
<VARIANCE> 26
 1.495716e+01 2.647986e+01 6.493501e+01 8.184418e+01 6.688922e+01 4.497269e+01 1.072222e+02 7.827988e+01 4.729160e+01 7.615074e+01 4.169910e+01 3.865572e+01 1.725664e+00 1.162555e+00 3.582979e+00 7.621305e+00 7.023989e+00 7.380475e+00 5.633811e+00 4.976388e+00 7.136686e+00 5.926868e+00 7.786090e+00 4.975738e+00 3.857752e+00 6.768968e-02
<GCONST> 1.123070e+02
<TRANSP> 5
 0.000000e+00 1.000000e+00 0.000000e+00 0.000000e+00 0.000000e+00
 0.000000e+00 5.661086e-01 4.338914e-01 0.000000e+00 0.000000e+00
 0.000000e+00 0.000000e+00 7.354155e-01 2.645846e-01 0.000000e+00
 0.000000e+00 0.000000e+00 0.000000e+00 6.228845e-01 3.771155e-01
 0.000000e+00 0.000000e+00 0.000000e+00 0.000000e+00 0.000000e+00
<ENDHMM>
~h "m"
<BEGINHMM>
<NUMSTATES> 5
<STATE> 2
<MEAN> 26
 2.020258e+00 -9.401729e-01 2.655729e+00 2.138649e+00 -6.003027e+00 1.225094e+00 -1.000436e+01 -5.276918e-01 -1.986333e+01 -5.197233e+00 8.519922e+00 -6.876347e+00 1.928884e+01 1.016336e+00 6.045899e-01 -1.724727e-01 4.223123e+00 -3.982684e-02 -2.927661e-01 1.564149e-01 -7.999553e-01 -3.841066e+00 -6.554254e-01 1.361967e+00 -1.268187e+00 2.752236e-01
<VARIANCE> 26
 1.647952e+01 2.682651e+01 3.549945e+01 6.432317e+01 3.211628e+01 4.330990e+01 6.837926e+01 3.504756e+01 7.479642e+01 6.262291e+01 4.371535e+01 2.752582e+01 4.745644e+00 2.508432e+00 2.326831e+00 5.091088e+00 9.361764e+00 2.702207e+00 4.639503e+00 6.506242e+00 5.420839e+00 5.352972e+00 3.014217e+00 4.446129e+00 2.326162e+00 3.910877e-01
<GCONST> 1.096296e+02
<STATE> 3
<MEAN> 26
 2.504873e+00 -1.170788e+00 3.175678e+00 7.340065e+00 -7.100086e+00 9.827438e-01 -1.214797e+01 -3.609596e+00 -2.577056e+01 -5.638449e+00 1.264721e+01 -9.528301e+00 2.040495e+01 -1.079606e-01 -2.420260e-01 6.750315e-02 -2.387925e-02 6.218484e-02 1.279075e-01 1.681591e-02 -2.376995e-01 -1.891218e-01 9.696719e-02 -2.753690e-02 9.002186e-02 3.710679e-02
<VARIANCE> 26
 5.887440e+00 2.096650e+01 1.398243e+01 1.416226e+01 1.940640e+01 4.348463e+01 5.031217e+01 4.201049e+01 3.813280e+01 7.247110e+01 3.978993e+01 3.455751e+01 1.499804e-01 2.308194e-01 1.057613e+00 1.056417e+00 3.332719e+00 1.165847e+00 1.848371e+00 2.258797e+00 1.832700e+00 2.811411e+00 2.316800e+00 2.773860e+00 1.829982e+00 9.101206e-03
<GCONST> 8.637239e+01
<STATE> 4
<MEAN> 26
 2.039240e+00 -4.386573e+00 2.232784e+00 -2.794680e+00 -6.701798e+00 3.582995e+00 -1.379381e+01 -1.668442e+00 -1.993213e+01 -4.591285e+00 8.711740e+00 -6.827199e+00 2.043397e+01 -4.016499e-01 -1.089012e+00 -1.796471e-02 -5.626305e+00 -3.773073e-01 7.426236e-01 -3.707456e-01 1.671305e+00 3.895730e+00 3.611402e-01 -1.893754e+00 7.619478e-01 8.326297e-02
<VARIANCE> 26
 7.831508e+00 2.099841e+01 2.689294e+01 9.840131e+01 3.490617e+01 5.885926e+01 5.258315e+01 3.748763e+01 7.423942e+01 6.215584e+01 4.835606e+01 2.398212e+01 2.859808e-01 8.005035e-01 2.769711e+00 4.948979e+00 8.130651e+00 3.227552e+00 3.290823e+00 3.096589e+00 4.447528e+00 4.561814e+00 2.745257e+00 3.663210e+00 2.647189e+00 4.234164e-02
<GCONST> 1.013376e+02
<TRANSP> 5
 0.000000e+00 1.000000e+00 0.000000e+00 0.000000e+00 0.000000e+00
 0.000000e+00 5.724359e-01 4.275641e-01 0.000000e+00 0.000000e+00
 0.000000e+00 0.000000e+00 7.977229e-01 2.022770e-01 0.000000e+00
 0.000000e+00 0.000000e+00 0.000000e+00 6.017713e-01 3.982287e-01
 0.000000e+00 0.000000e+00 0.000000e+00 0.000000e+00 0.000000e+00
<ENDHMM>
~h "n"
<BEGINHMM>
<NUMSTATES> 5
<STATE> 2
<MEAN> 26
 6.695994e-01 2.579217e+00 6.605182e+00 3.155268e+00 -1.151384e+01 2.355719e+00 -9.987866e+00 -1.903610e+00 -1.934308e+01 -1.097547e+00 4.390198e-02 -7.443666e+00 1.986471e+01 1.073306e+00 1.123097e+00 -1.052016e+00 3.626052e+00 -1.595804e+00 -4.453404e-02 2.142972e+00 -1.502831e+00 -2.005091e+00 7.553061e-01 -8.758786e-01 -1.696853e-01 2.402722e-01
<VARIANCE> 26
 9.923837e+00 2.506264e+01 1.974308e+01 4.082837e+01 4.311374e+01 4.617884e+01 4.258931e+01 4.499692e+01 5.585798e+01 4.798736e+01 4.108818e+01 2.093591e+01 2.245883e+00 1.727493e+00 2.207211e+00 5.657217e+00 5.015370e+00 4.414056e+00 3.199613e+00 6.562209e+00 3.707479e+00 5.838668e+00 3.813038e+00 3.188429e+00 2.860499e+00 3.321472e-01
<GCONST> 1.053425e+02
<STATE> 3
<MEAN> 26
 1.516448e+00 2.387647e+00 5.450862e+00 7.729328e+00 -1.449129e+01 2.361980e+00 -6.098907e+00 -5.173418e+00 -1.824110e+01 -2.054427e+00 -7.395883e-01 -6.269228e+00 2.044120e+01 -1.100795e-01 -9.061548e-02 2.407459e-02 1.016977e-02 5.187940e-02 -2.538667e-01 2.850754e-01 4.726418e-02 2.394016e-01 -3.750147e-01 2.800789e-01 1.078517e-01 2.908061e-02
<VARIANCE> 26
 5.707612e+00 1.298590e+01 8.300868e+00 1.621800e+01 1.452258e+01 1.962650e+01 2.625767e+01 2.549488e+01 3.696327e+01 6.133921e+01 4.389101e+01 2.182089e+01 1.894175e-01 2.690014e-01 1.090553e+00 8.227244e-01 1.301033e+00 1.298711e+00 1.709000e+00 1.551136e+00 1.491234e+00 1.979632e+00 2.423441e+00 2.208513e+00 1.743670e+00 6.928561e-03
<GCONST> 8.050095e+01
<STATE> 4
<MEAN> 26
 -4.287179e-01 -3.203447e-01 7.319105e+00 -1.348407e-01 -1.102411e+01 7.453161e-01 -1.164869e+01 -1.448415e+00 -1.472206e+01 -4.337768e+00 1.321850e+00 -7.112102e+00 2.052590e+01 -7.994679e-01 -1.299007e+00 6.437500e-01 -4.147879e+00 1.555945e+00 -3.099539e-01 -2.686498e+00 1.698119e+00 2.403889e+00 -1.085116e+00 1.434392e+00 -5.582564e-02 4.020002e-02
<VARIANCE> 26
 6.555928e+00 1.932805e+01 2.213276e+01 7.078137e+01 3.830396e+01 3.544749e+01 4.971810e+01 3.469639e+01 5.222102e+01 7.723708e+01 4.678617e+01 3.325238e+01 1.613983e-01 5.302541e-01 1.431650e+00 3.314866e+00 5.074217e+00 3.649037e+00 3.099127e+00 5.087247e+00 3.427187e+00 4.782326e+00 3.319280e+00 3.354618e+00 2.140986e+00 1.035693e-02
<GCONST> 9.647546e+01
<TRANSP> 5
 0.000000e+00 1.000000e+00 0.000000e+00 0.000000e+00 0.000000e+00
 0.000000e+00 5.586298e-01 4.413703e-01 0.000000e+00 0.000000e+00
 0.000000e+00 0.000000e+00 7.490710e-01 2.509290e-01 0.000000e+00
 0.000000e+00 0.000000e+00 0.000000e+00 6.680666e-01 3.319333e-01
 0.000000e+00 0.000000e+00 0.000000e+00 0.000000e+00 0.000000e+00
<ENDHMM>
~h "o"
<BEGINHMM>
<NUMSTATES> 5
<STATE> 2
<MEAN> 26
 3.505843e-01 -4.589010e-01 1.095366e+00 -2.147281e+01 -9.376366e+00 7.359595e+00 -1.528105e+01 -7.046429e+00 -1.290983e+01 1.761421e-01 8.909681e+00 -6.354661e+00 2.050644e+01 1.706265e+00 -7.449835e-01 -4.813021e-02 -2.979386e+00 -2.993266e+00 2.216937e+00 -2.583381e+00 3.420357e-01 -1.905317e+00 -1.237128e-01 2.569056e+00 -1.487373e+00 7.350206e-01
<VARIANCE> 26
 1.200971e+01 3.814919e+01 2.350354e+01 7.071164e+01 4.589737e+01 3.024472e+01 7.120337e+01 5.750626e+01 5.209910e+01 5.400140e+01 6.933423e+01 3.428297e+01 2.679770e+00 3.252933e+00 2.960498e+00 3.648799e+00 7.088905e+00 4.817933e+00 3.039363e+00 4.673366e+00 3.773643e+00 5.911057e+00 4.841663e+00 5.395389e+00 3.309389e+00 2.847781e-01
<GCONST> 1.096345e+02
<STATE> 3
<MEAN> 26
 1.466824e+00 -3.712352e+00 -1.810144e+00 -2.711930e+01 -1.171590e+01 1.160928e+01 -1.586641e+01 -5.708308e+00 -1.453107e+01 1.871769e+00 1.110626e+01 -8.117604e+00 2.171262e+01 2.128258e-02 -6.591173e-02 -2.300463e-01 -2.096204e-01 1.229656e-01 8.581774e-02 3.442672e-01 -3.988487e-02 -1.672133e-01 -8.576045e-02 -3.864439e-01 2.890148e-02 1.479887e-02
<VARIANCE> 26
 4.963009e+00 3.199860e+01 2.514197e+01 3.796680e+01 3.104243e+01 1.619146e+01 4.864554e+01 3.566068e+01 3.509106e+01 8.211777e+01 4.207419e+01 2.815383e+01 3.350469e-01 3.946595e-01 1.169280e+00 1.340559e+00 3.322078e+00 2.218611e+00 1.985788e+00 3.675505e+00 1.803066e+00 2.450410e+00 2.451678e+00 2.640024e+00 1.968176e+00 2.867173e-02
<GCONST> 9.132542e+01
<STATE> 4
<MEAN> 26
 1.202996e+00 -1.480192e+00 2.222259e-01 -1.997410e+01 -7.315784e+00 6.495983e+00 -1.593589e+01 -6.579957e+00 -1.322242e+01 -5.478566e-01 6.265611e+00 -8.042601e+00 2.066089e+01 -4.021040e-01 1.030148e+00 8.214554e-01 3.822862e+00 2.174279e+00 -1.979530e+00 1.935048e+00 -2.322051e-02 1.433120e+00 -4.710762e-01 -2.643565e+00 9.259260e-01 -5.217023e-01
<VARIANCE> 26
 9.555157e+00 4.612089e+01 3.405502e+01 1.037456e+02 3.949514e+01 3.561418e+01 1.327544e+02 6.122981e+01 3.506221e+01 6.019249e+01 6.527193e+01 5.659065e+01 1.487170e+00 2.262262e+00 3.590648e+00 2.985455e+00 6.526250e+00 4.717166e+00 3.603894e+00 6.047334e+00 3.578575e+00 6.158973e+00 4.755548e+00 5.055012e+00 2.613352e+00 1.550302e-01
<GCONST> 1.096273e+02
<TRANSP> 5
 0.000000e+00 1.000000e+00 0.000000e+00 0.000000e+00 0.000000e+00
 0.000000e+00 5.531341e-01 4.468660e-01 0.000000e+00 0.000000e+00
 0.000000e+00 0.000000e+00 8.317432e-01 1.682567e-01 0.000000e+00
 0.000000e+00 0.000000e+00 0.000000e+00 6.005852e-01 3.994148e-01
 0.000000e+00 0.000000e+00 0.000000e+00 0.000000e+00 0.000000e+00
<ENDHMM>
~h "p"
<BEGINHMM>
<NUMSTATES> 5
<STATE> 2
<MEAN> 26
 -4.841695e+00 7.733108e+00 4.013865e+00 3.167567e+00 1.797847e+00 4.869311e-01 -3.653528e+00 -3.625259e+00 -6.233080e+00 -2.075580e+00 -1.241364e+00 -5.295423e+00 1.369449e+01 -3.167578e+00 -3.933069e-02 -5.239191e-01 1.544950e+00 9.774141e-01 2.039400e-01 1.505642e+00 7.824682e-01 1.782692e+00 2.566093e-02 -4.179958e-01 2.555662e-01 -1.659322e+00
<VARIANCE> 26
 4.896009e+01 2.640700e+01 2.414843e+01 1.980126e+01 2.016800e+01 1.584121e+01 3.566507e+01 2.290527e+01 3.486316e+01 2.744302e+01 2.389000e+01 1.879885e+01 7.941883e+00 3.093147e+00 7.023721e+00 3.411817e+00 7.881005e+00 2.211013e+00 3.184997e+00 3.950040e+00 3.187588e+00 2.978510e+00 3.800898e+00 3.103545e+00 2.321747e+00 5.415958e-01
<GCONST> 1.032780e+02
<STATE> 3
<MEAN> 26
 -1.345712e+01 2.177982e+00 -9.814800e-02 1.559440e+00 1.972707e+00 1.486055e+00 -3.653420e-01 1.597006e+00 1.951914e-01 1.730407e+00 1.529691e+00 -8.116133e-01 9.694659e+00 2.674449e-02 -7.490540e-01 -3.557385e-01 -1.181545e+00 -2.540267e-01 -2.378777e-01 6.293900e-02 -1.028583e-01 3.805202e-01 4.197305e-01 2.955804e-01 7.108359e-01 3.190300e-01
<VARIANCE> 26
 2.029386e+00 3.883152e+00 5.823468e+00 8.131345e+00 1.052906e+01 1.074691e+01 1.303024e+01 1.285644e+01 1.320680e+01 1.374934e+01 1.324711e+01 1.634794e+01 2.748456e+00 1.509846e+00 1.054276e+00 1.394119e+00 2.685900e+00 1.619877e+00 1.372775e+00 1.800474e+00 2.961471e+00 2.244951e+00 2.092944e+00 1.731932e+00 2.190199e+00 1.113002e+00
<GCONST> 8.239294e+01
<STATE> 4
<MEAN> 26
 -9.747213e+00 -1.872634e+00 4.903575e-01 -7.398347e+00 2.499474e+00 -2.186673e-01 -1.749657e+00 -3.896792e+00 -8.794656e-01 2.921131e+00 3.114766e-01 1.534464e+00 1.558891e+01 2.326069e+00 -1.405202e+00 -2.092586e-01 -3.657990e+00 -5.399178e-01 6.469393e-01 -2.055248e+00 -1.011678e+00 -1.338733e+00 2.388366e-01 1.234457e-01 -9.225390e-01 2.042391e+00
<VARIANCE> 26
 2.109410e+01 1.363010e+01 1.919105e+01 2.680507e+01 2.014286e+01 1.811490e+01 2.487342e+01 2.364812e+01 2.591574e+01 1.631493e+01 1.692565e+01 2.395947e+01 5.700206e+00 4.400996e+00 3.776350e+00 3.475007e+00 6.861040e+00 4.540576e+00 5.514956e+00 5.624867e+00 3.502051e+00 5.435706e+00 3.561799e+00 3.323123e+00 4.582384e+00 1.076096e+00
<GCONST> 1.037012e+02
<TRANSP> 5
 0.000000e+00 1.000000e+00 0.000000e+00 0.000000e+00 0.000000e+00
 0.000000e+00 6.654819e-01 3.345180e-01 0.000000e+00 0.000000e+00
 0.000000e+00 0.000000e+00 7.841324e-01 2.158676e-01 0.000000e+00
 0.000000e+00 0.000000e+00 0.000000e+00 5.880331e-01 4.119669e-01
 0.000000e+00 0.000000e+00 0.000000e+00 0.000000e+00 0.000000e+00
<ENDHMM>
~h "q"
<BEGINHMM>
<NUMSTATES> 5
<STATE> 2
<MEAN> 26
 -1.181969e+00 -4.156441e+00 5.701012e+00 -1.562311e+01 -6.470648e+00 3.893661e+00 -1.921749e+01 -5.627547e+00 -9.486347e+00 3.342078e+00 4.871549e+00 -6.805147e+00 2.037274e+01 1.129477e+00 -1.442423e+00 -3.228784e-04 -6.291733e-01 -1.316653e+00 4.760945e-01 -3.079679e+00 5.757663e-01 -9.591289e-01 1.135583e+00 1.806651e+00 -1.717817e+00 3.629372e-01
<VARIANCE> 26
 1.778000e+01 2.242575e+01 4.215901e+01 6.584335e+01 5.062738e+01 6.272705e+01 8.427287e+01 5.007364e+01 2.837381e+01 5.234891e+01 3.079357e+01 3.636012e+01 1.387346e+00 2.918862e+00 2.017869e+00 2.236071e+00 3.865920e+00 5.246565e+00 3.842906e+00 6.356689e+00 3.286093e+00 3.402496e+00 3.253482e+00 4.126292e+00 3.574249e+00 1.379001e-01
<GCONST> 1.058516e+02
<STATE> 3
<MEAN> 26
 -9.714333e-01 -6.259069e+00 7.221248e+00 -1.301502e+01 -6.709717e+00 1.053907e+00 -2.570910e+01 -2.900582e+00 -9.464280e+00 3.633629e+00 6.930832e+00 -1.058383e+01 2.071513e+01 1.858800e-01 5.507439e-01 -1.531317e-01 4.951424e-01 6.907265e-01 -3.145126e-01 7.401372e-01 1.824903e-01 -2.534871e-01 1.070194e-01 -4.305235e-01 4.500751e-01 -1.462580e-01
<VARIANCE> 26
 1.190316e+01 1.351261e+01 3.467804e+01 2.614508e+01 3.393937e+01 2.618230e+01 5.236967e+01 4.260963e+01 3.567787e+01 5.970869e+01 3.255968e+01 1.966334e+01 1.083439e+00 6.006952e-01 1.625095e+00 1.877341e+00 3.984349e+00 2.425429e+00 2.960333e+00 3.808592e+00 3.140175e+00 2.418679e+00 4.357864e+00 2.480822e+00 1.947672e+00 5.979118e-02
<GCONST> 9.593558e+01
<STATE> 4
<MEAN> 26
 1.980234e-01 -5.041804e-01 5.685171e-01 -7.594009e+00 4.877398e+00 -8.224770e-04 -5.608912e+00 -2.566681e+00 -6.477817e+00 1.162242e+00 -1.304463e-02 -2.319038e+00 1.798750e+01 -6.738539e-01 1.347627e+00 6.187704e-02 2.320676e+00 7.754512e-01 5.526124e-01 2.746091e+00 -8.121758e-02 1.421533e+00 -8.658934e-01 -6.318044e-01 8.134293e-01 -5.566198e-01
<VARIANCE> 26
 3.381234e+01 2.275032e+01 4.883993e+01 6.684753e+01 7.173405e+01 5.278285e+01 1.735003e+02 4.017910e+01 4.809121e+01 7.069000e+01 4.786183e+01 3.137976e+01 3.974450e+00 2.646650e+00 3.648742e+00 2.009982e+00 4.177998e+00 3.760365e+00 4.575761e+00 5.644903e+00 4.542302e+00 4.129294e+00 3.724394e+00 3.532412e+00 2.942475e+00 1.933291e-01
<GCONST> 1.103516e+02
<TRANSP> 5
 0.000000e+00 1.000000e+00 0.000000e+00 0.000000e+00 0.000000e+00
 0.000000e+00 4.668262e-01 5.331738e-01 0.000000e+00 0.000000e+00
 0.000000e+00 0.000000e+00 7.083153e-01 2.916847e-01 0.000000e+00
 0.000000e+00 0.000000e+00 0.000000e+00 6.509973e-01 3.490026e-01
 0.000000e+00 0.000000e+00 0.000000e+00 0.000000e+00 0.000000e+00
<ENDHMM>
~h "r"
<BEGINHMM>
<NUMSTATES> 5
<STATE> 2
<MEAN> 26
 -2.951670e+00 -1.806955e-01 -2.562396e+00 -2.114875e+01 1.339527e+00 7.717845e+00 -5.082643e+00 -8.800954e+00 -3.108472e+00 3.905940e+00 -1.553911e+00 -9.969578e-01 1.876846e+01 -8.689025e-01 1.811094e+00 -7.751240e-01 6.030124e-01 1.347964e+00 1.141799e+00 7.263185e-01 -5.294151e-01 1.423109e+00 -5.847510e-01 -1.625797e-01 1.295183e+00 -4.031065e-01
<VARIANCE> 26
 1.876242e+01 4.171573e+01 2.390426e+01 4.786797e+01 8.526004e+01 3.739490e+01 5.368160e+01 3.958076e+01 4.920371e+01 5.303094e+01 3.496399e+01 3.113583e+01 2.379420e+00 2.385321e+00 3.064217e+00 2.504121e+00 5.435979e+00 4.995931e+00 5.055115e+00 5.024209e+00 4.280297e+00 4.220159e+00 3.760676e+00 4.194276e+00 3.176544e+00 2.832581e-01
<GCONST> 1.079351e+02
<STATE> 3
<MEAN> 26
 -8.895441e+00 7.055805e-01 -5.526249e+00 -1.632774e+01 8.350548e+00 1.177415e+01 -4.319604e+00 -6.078809e+00 1.315195e+00 1.934072e+00 9.051012e-01 2.463768e+00 1.667212e+01 -2.429166e-01 -1.000297e-02 -9.835188e-02 5.404704e-01 -3.069412e-01 -5.061293e-01 2.319909e-01 4.216545e-01 -3.212114e-02 -1.906806e-01 2.261915e-01 1.119794e-01 -2.076938e-01
<VARIANCE> 26
 1.662668e+01 2.418399e+01 1.753618e+01 3.598183e+01 7.707941e+01 4.049931e+01 4.277108e+01 3.262606e+01 3.481886e+01 3.706318e+01 3.017939e+01 2.233913e+01 4.361403e+00 1.419237e+00 1.278324e+00 1.700469e+00 2.236322e+00 3.333362e+00 3.337196e+00 2.737714e+00 3.512081e+00 2.804214e+00 3.195122e+00 2.651512e+00 1.994554e+00 1.188122e-01
<GCONST> 9.899690e+01
<STATE> 4
<MEAN> 26
 -4.397585e+00 3.464918e+00 -2.588859e+00 -1.775096e+01 -3.110679e-01 5.176496e+00 -3.628052e+00 -6.759493e+00 -1.040204e+00 1.442179e+00 -1.828047e-01 1.586424e+00 1.782092e+01 8.269373e-01 -5.525734e-01 1.075003e+00 9.523306e-01 -1.379855e+00 -1.146576e+00 -1.934787e-01 4.192388e-01 -1.273388e+00 -6.081852e-02 3.195862e-01 -7.459101e-01 1.503843e-01
<VARIANCE> 26
 3.196735e+01 4.841796e+01 3.327236e+01 5.511002e+01 8.985358e+01 4.045724e+01 5.652048e+01 4.641293e+01 6.457913e+01 3.789579e+01 3.045927e+01 3.232645e+01 4.988431e+00 2.701339e+00 3.077950e+00 3.402351e+00 7.355397e+00 6.374782e+00 3.739387e+00 3.703890e+00 4.220572e+00 4.472367e+00 3.221710e+00 3.510263e+00 2.733480e+00 4.188991e-01
<GCONST> 1.103337e+02
<TRANSP> 5
 0.000000e+00 1.000000e+00 0.000000e+00 0.000000e+00 0.000000e+00
 0.000000e+00 6.151997e-01 3.848003e-01 0.000000e+00 0.000000e+00
 0.000000e+00 0.000000e+00 6.896362e-01 3.103638e-01 0.000000e+00
 0.000000e+00 0.000000e+00 0.000000e+00 5.129973e-01 4.870026e-01
 0.000000e+00 0.000000e+00 0.000000e+00 0.000000e+00 0.000000e+00
<ENDHMM>
~h "s"
<BEGINHMM>
<NUMSTATES> 5
<STATE> 2
<MEAN> 26
 -1.935738e+01 3.239769e+00 -1.041281e+00 -7.291290e+00 3.381131e+00 -1.941742e+00 -1.882813e+00 -1.722297e+00 -2.393777e+00 1.903152e+00 -1.292451e+00 9.740856e-01 1.600388e+01 -3.859821e+00 -5.797651e-01 -2.148070e+00 -6.476311e-01 1.478443e-01 5.536596e-01 4.446179e-01 4.562103e-01 7.006857e-01 6.213554e-01 4.012803e-01 1.135489e+00 -2.063552e-01
<VARIANCE> 26
 4.088550e+01 3.431507e+01 3.773223e+01 3.383762e+01 3.259600e+01 3.940065e+01 2.854987e+01 3.519212e+01 3.018212e+01 2.400388e+01 2.590959e+01 1.958958e+01 5.649450e+00 3.904370e+00 3.443118e+00 5.079460e+00 5.089499e+00 3.982299e+00 5.146122e+00 4.014761e+00 3.246823e+00 4.235443e+00 2.738194e+00 2.726125e+00 2.599966e+00 4.055273e-01
<GCONST> 1.057456e+02
<STATE> 3
<MEAN> 26
 -2.822792e+01 1.743801e+00 -8.659271e+00 -1.141185e+01 -3.053831e-01 -1.485833e+00 -3.961362e+00 -2.444044e+00 -3.365343e+00 2.662806e+00 3.356474e-01 3.635733e+00 1.669776e+01 -1.436359e-01 2.626884e-03 1.318652e-01 -1.560901e-01 -2.097529e-01 2.415076e-02 -2.260018e-01 -2.192263e-01 -1.676462e-02 -7.690177e-02 -4.324855e-02 6.826344e-02 5.757393e-02
<VARIANCE> 26
 6.014131e+00 9.162279e+00 2.451351e+01 3.061213e+01 2.939662e+01 2.821072e+01 2.108579e+01 2.476073e+01 2.102535e+01 1.783141e+01 1.364547e+01 1.355738e+01 9.049708e-01 8.246335e-01 8.061165e-01 2.029900e+00 1.400708e+00 1.905742e+00 2.104048e+00 1.754207e+00 1.820854e+00 1.807791e+00 1.763103e+00 1.526726e+00 1.484337e+00 4.871412e-02
<GCONST> 8.458241e+01
<STATE> 4
<MEAN> 26
 -2.237704e+01 2.053207e+00 -1.069375e+00 -1.048724e+01 9.191446e-01 -1.809318e+00 -4.546260e+00 -4.281788e+00 -3.144018e+00 1.937458e+00 -1.946255e+00 1.497464e+00 1.697339e+01 4.763175e+00 -2.793853e-01 3.140348e+00 2.260042e-01 -6.235086e-01 -6.449018e-01 -1.763361e+00 -2.969326e-01 -1.481366e+00 -5.486691e-01 -1.264723e-01 -1.816537e+00 3.395446e-01
<VARIANCE> 26
 5.523721e+01 2.992917e+01 4.960049e+01 3.389452e+01 4.462667e+01 4.981329e+01 3.034593e+01 3.055693e+01 2.527300e+01 2.304262e+01 1.749352e+01 2.489174e+01 2.683252e+00 5.381214e+00 4.125954e+00 5.050887e+00 6.667831e+00 3.577408e+00 6.172084e+00 6.871152e+00 3.706392e+00 3.490936e+00 4.710440e+00 3.303519e+00 3.914342e+00 6.271578e-01
<GCONST> 1.084340e+02
<TRANSP> 5
 0.000000e+00 1.000000e+00 0.000000e+00 0.000000e+00 0.000000e+00
 0.000000e+00 7.134707e-01 2.865293e-01 0.000000e+00 0.000000e+00
 0.000000e+00 0.000000e+00 8.908918e-01 1.091082e-01 0.000000e+00
 0.000000e+00 0.000000e+00 0.000000e+00 6.180803e-01 3.819198e-01
 0.000000e+00 0.000000e+00 0.000000e+00 0.000000e+00 0.000000e+00
<ENDHMM>
~h "t"
<BEGINHMM>
<NUMSTATES> 5
<STATE> 2
<MEAN> 26
 -5.418585e+00 8.251471e+00 5.680629e+00 2.484049e+00 7.119572e-01 -2.727948e+00 -4.483918e+00 -2.469714e+00 -6.118226e+00 -1.948097e+00 -2.319177e+00 -4.168173e+00 1.427711e+01 -2.231488e+00 -1.408868e-01 -1.222473e+00 1.394865e+00 8.662642e-01 1.098042e+00 1.238675e+00 5.190611e-01 1.468784e+00 -6.778369e-01 -5.289128e-02 1.715097e-01 -1.716244e+00
<VARIANCE> 26
 4.384152e+01 3.311921e+01 3.225295e+01 3.081827e+01 3.540921e+01 3.615782e+01 3.229168e+01 2.590253e+01 3.797032e+01 3.190984e+01 2.413249e+01 2.177752e+01 7.541987e+00 4.164562e+00 8.027495e+00 4.271202e+00 8.692085e+00 3.836578e+00 4.546312e+00 3.544213e+00 3.581136e+00 3.652154e+00 2.978256e+00 2.886655e+00 2.636420e+00 5.469691e-01
<GCONST> 1.075724e+02
<STATE> 3
<MEAN> 26
 -1.345019e+01 2.369560e+00 3.596816e-01 1.065891e+00 1.929135e+00 1.417795e+00 -6.540774e-01 1.103624e+00 -3.329453e-01 9.175875e-01 8.620399e-01 -9.032090e-01 9.879725e+00 -8.434980e-01 -1.827070e+00 -7.097511e-01 -1.926430e+00 -3.428325e-01 3.085153e-01 1.143641e-01 -9.341405e-02 5.494562e-01 5.732018e-01 3.410107e-01 9.039371e-01 3.348231e-01
<VARIANCE> 26
 4.590545e+00 7.946920e+00 8.114104e+00 1.572592e+01 1.219630e+01 1.353594e+01 1.519789e+01 1.644028e+01 1.835763e+01 1.527446e+01 1.614974e+01 1.559996e+01 3.121441e+00 2.340765e+00 4.010884e+00 3.154932e+00 6.539409e+00 2.288134e+00 3.298042e+00 2.318614e+00 3.279715e+00 3.499439e+00 2.434596e+00 1.989983e+00 2.824892e+00 1.267511e+00
<GCONST> 9.258370e+01
<STATE> 4
<MEAN> 26
 -1.704150e+01 -4.050499e+00 -7.808394e-01 -1.242010e+01 9.282356e-01 -1.070265e+00 -4.299313e+00 -3.666708e+00 -1.527104e+00 2.403158e+00 -4.892233e-02 3.271498e+00 1.622168e+01 4.756276e-01 -3.627295e-02 4.875245e-01 -1.742850e+00 -1.060377e-02 -7.440651e-01 -1.685058e+00 -5.213155e-01 -6.829783e-01 2.947245e-01 -1.566211e-01 -3.668168e-01 1.292549e+00
<VARIANCE> 26
 3.017316e+01 4.019960e+01 4.109792e+01 3.299498e+01 3.966325e+01 4.393758e+01 3.167001e+01 3.339680e+01 3.160175e+01 2.284826e+01 2.236171e+01 2.259238e+01 3.189857e+00 6.389310e+00 4.794078e+00 6.241765e+00 7.543219e+00 4.770263e+00 4.720590e+00 5.526351e+00 3.931336e+00 4.251055e+00 3.878785e+00 2.681000e+00 5.144820e+00 8.704312e-01
<GCONST> 1.092468e+02
<TRANSP> 5
 0.000000e+00 1.000000e+00 0.000000e+00 0.000000e+00 0.000000e+00
 0.000000e+00 6.011867e-01 3.988132e-01 0.000000e+00 0.000000e+00
 0.000000e+00 0.000000e+00 6.906353e-01 3.093648e-01 0.000000e+00
 0.000000e+00 0.000000e+00 0.000000e+00 7.318071e-01 2.681930e-01
 0.000000e+00 0.000000e+00 0.000000e+00 0.000000e+00 0.000000e+00
<ENDHMM>
~h "u"
<BEGINHMM>
<NUMSTATES> 5
<STATE> 2
<MEAN> 26
 2.121630e-01 4.409749e+00 1.471892e+00 -1.252796e+01 -5.608253e+00 1.932605e+00 -1.095518e+01 -6.617707e+00 -1.156820e+01 -8.034894e+00 4.156130e+00 -5.022607e+00 1.931355e+01 3.226395e+00 1.769558e+00 1.028195e-01 -3.088174e+00 -3.058497e+00 1.453575e+00 -1.470030e+00 -4.647275e-01 -2.233719e+00 -3.132887e+00 1.820252e+00 -1.226531e+00 8.704430e-01
<VARIANCE> 26
 2.220922e+01 3.367807e+01 1.019665e+01 5.653778e+01 6.211193e+01 4.874557e+01 4.711733e+01 8.000492e+01 3.626324e+01 5.209122e+01 6.471765e+01 4.837155e+01 1.765904e+00 3.972844e+00 2.430917e+00 1.944459e+00 4.175555e+00 6.762844e+00 4.502757e+00 4.388003e+00 7.025237e+00 5.460129e+00 5.938210e+00 4.789108e+00 4.832578e+00 5.329818e-01
<GCONST> 1.103687e+02
<STATE> 3
<MEAN> 26
 3.677602e+00 5.085723e+00 9.377676e-01 -1.749441e+01 -1.359068e+01 6.188797e+00 -1.127937e+01 -5.352273e+00 -1.327439e+01 -1.477060e+01 6.465001e+00 -6.913062e+00 2.051426e+01 9.259705e-02 1.485652e-01 -4.258312e-02 -4.698557e-01 -4.999479e-01 1.635057e-01 8.041735e-02 2.263245e-01 -2.073174e-01 2.108036e-01 -2.551698e-01 -2.772009e-01 1.858355e-03
<VARIANCE> 26
 1.094756e+01 1.379601e+01 1.474043e+01 1.002792e+02 4.692629e+01 3.714244e+01 2.973650e+01 4.855616e+01 3.964323e+01 5.671361e+01 5.252946e+01 4.993787e+01 4.358294e-01 5.668236e-01 1.260174e+00 1.022649e+00 2.259542e+00 2.737940e+00 2.478411e+00 2.658937e+00 3.213208e+00 2.674775e+00 3.424822e+00 2.732826e+00 2.234705e+00 2.480236e-02
<GCONST> 9.448752e+01
<STATE> 4
<MEAN> 26
 2.240483e+00 5.424109e+00 1.912018e+00 -1.568159e+01 -8.750945e+00 3.943403e+00 -1.030647e+01 -6.449805e+00 -1.453659e+01 -7.721168e+00 3.841467e+00 -5.079059e+00 1.952183e+01 -1.177366e+00 -1.184944e-01 1.246067e-01 8.038840e-01 1.963154e+00 -5.772740e-01 9.875225e-01 -1.577010e+00 1.436803e+00 2.140001e+00 -1.803801e+00 1.497162e+00 -4.135214e-01
<VARIANCE> 26
 1.561347e+01 2.315999e+01 2.306925e+01 1.192092e+02 6.292522e+01 4.968767e+01 4.599891e+01 1.044738e+02 7.214373e+01 4.930774e+01 5.502192e+01 5.010614e+01 1.469838e+00 1.236665e+00 1.585259e+00 3.106908e+00 5.038775e+00 7.033173e+00 4.495803e+00 4.962236e+00 4.981048e+00 4.980876e+00 8.274218e+00 5.362971e+00 3.747365e+00 1.685969e-01
<GCONST> 1.096281e+02
<TRANSP> 5
 0.000000e+00 1.000000e+00 0.000000e+00 0.000000e+00 0.000000e+00
 0.000000e+00 5.364990e-01 4.635010e-01 0.000000e+00 0.000000e+00
 0.000000e+00 0.000000e+00 8.357270e-01 1.642730e-01 0.000000e+00
 0.000000e+00 0.000000e+00 0.000000e+00 6.333672e-01 3.666327e-01
 0.000000e+00 0.000000e+00 0.000000e+00 0.000000e+00 0.000000e+00
<ENDHMM>
~h "v"
<BEGINHMM>
<NUMSTATES> 5
<STATE> 2
<MEAN> 26
 -1.811755e+00 2.810831e+00 3.550033e+00 -5.781637e+00 4.047587e+00 1.181570e+00 -1.020835e+01 -7.562644e+00 -8.315885e+00 3.744788e+00 4.307576e+00 -6.520987e-01 1.803527e+01 -7.321434e-01 1.504751e+00 5.177230e-01 1.398072e+00 1.587119e+00 9.161019e-01 8.125877e-01 -1.251295e+00 1.519947e-01 -2.108963e-01 -4.112708e-01 5.012643e-01 -7.180564e-02
<VARIANCE> 26
 1.514462e+01 1.132936e+01 1.446808e+01 2.916890e+01 1.840507e+01 3.542550e+01 2.986838e+01 2.641735e+01 3.156272e+01 2.761472e+01 1.759107e+01 1.294589e+01 3.133718e+00 4.429668e+00 2.246011e+00 1.754175e+00 5.636840e+00 2.391582e+00 1.765831e+00 5.668583e+00 2.589415e+00 4.499812e+00 2.800339e+00 2.051718e+00 1.181553e+00 5.529341e-01
<GCONST> 9.700900e+01
<STATE> 3
<MEAN> 26
 -8.344346e+00 7.534884e+00 6.636975e+00 2.887844e-01 7.258213e+00 4.487094e+00 -5.599399e+00 -8.107314e+00 -7.439842e+00 1.578088e+00 -5.341315e-01 6.687426e-01 1.752268e+01 -8.273099e-01 -2.753392e-01 8.037136e-02 3.580018e-02 -1.364295e-01 1.689323e-01 4.102662e-01 3.568019e-01 5.330186e-02 -2.444204e-01 -5.370857e-01 7.500496e-02 -5.873971e-02
<VARIANCE> 26
 7.756817e+00 7.123591e+00 1.974363e+01 1.654577e+01 1.686149e+01 2.093155e+01 2.195331e+01 1.929332e+01 1.712113e+01 1.183938e+01 1.527502e+01 8.642562e+00 2.537199e-01 1.017032e+00 1.550204e+00 1.456072e+00 1.797407e+00 1.676854e+00 1.469337e+00 1.748520e+00 1.885836e+00 1.149649e+00 1.482184e+00 1.702535e+00 9.646767e-01 3.927850e-02
<GCONST> 7.962815e+01
<STATE> 4
<MEAN> 26
 -6.709122e+00 1.729659e+00 3.591262e+00 -6.606268e+00 2.777660e+00 3.534969e+00 -7.683338e+00 -6.399844e+00 -6.819003e+00 4.652122e-01 1.628655e+00 -4.155058e-01 1.846500e+01 1.704204e+00 -2.290505e+00 -2.411829e-01 -3.209522e+00 -2.752293e+00 -6.993347e-01 -2.842380e+00 1.260275e+00 1.721789e-01 3.324503e-02 1.620588e+00 -1.349527e+00 6.141889e-01
<VARIANCE> 26
 1.150560e+01 1.362056e+01 2.473938e+01 2.847166e+01 1.903160e+01 2.439298e+01 3.442471e+01 1.719341e+01 1.976267e+01 1.973859e+01 2.423604e+01 1.520457e+01 6.259652e-01 1.732463e+00 2.381900e+00 2.793999e+00 2.547431e+00 2.321512e+00 3.600628e+00 3.611734e+00 2.899065e+00 1.511062e+00 4.398039e+00 2.550727e+00 2.011342e+00 8.012742e-02
<GCONST> 9.218446e+01
<TRANSP> 5
 0.000000e+00 1.000000e+00 0.000000e+00 0.000000e+00 0.000000e+00
 0.000000e+00 6.511843e-01 3.488157e-01 0.000000e+00 0.000000e+00
 0.000000e+00 0.000000e+00 7.738518e-01 2.261482e-01 0.000000e+00
 0.000000e+00 0.000000e+00 0.000000e+00 5.591347e-01 4.408653e-01
 0.000000e+00 0.000000e+00 0.000000e+00 0.000000e+00 0.000000e+00
<ENDHMM>
~h "w"
<BEGINHMM>
<NUMSTATES> 5
<STATE> 2
<MEAN> 26
 7.708225e-01 4.376062e+00 1.108389e+00 -1.541448e+01 -7.534369e+00 3.063408e+00 -5.984504e+00 -1.750681e+00 -9.928990e+00 -4.845078e+00 4.168108e+00 -2.831595e+00 1.841861e+01 3.023338e+00 6.387586e-01 6.683391e-02 -2.467469e+00 -2.134653e+00 3.375925e-01 -1.553703e+00 1.840991e+00 -2.459956e+00 -1.547311e+00 6.584076e-01 -1.828616e+00 8.020935e-01
<VARIANCE> 26
 3.259645e+01 3.196979e+01 2.129990e+01 7.197498e+01 4.599339e+01 4.934014e+01 5.170358e+01 7.144894e+01 6.967484e+01 4.520903e+01 5.221752e+01 4.673035e+01 6.329096e+00 5.073088e+00 4.113483e+00 2.458367e+00 5.372631e+00 4.994910e+00 4.872501e+00 5.015468e+00 4.264732e+00 6.062348e+00 4.864101e+00 3.639338e+00 3.269318e+00 5.008246e-01
<GCONST> 1.127535e+02
<STATE> 3
<MEAN> 26
 5.668935e+00 3.399962e+00 9.647743e-01 -1.658277e+01 -1.204303e+01 5.233967e+00 -8.650713e+00 3.420002e-01 -1.255156e+01 -6.676793e+00 4.711052e+00 -6.132119e+00 2.011192e+01 1.859467e-03 -3.966067e-01 -4.414094e-02 -7.651113e-01 -4.366648e-01 2.307594e-01 -1.383936e-01 4.847306e-01 -3.298973e-01 4.333071e-01 2.075419e-01 5.337680e-02 1.021496e-01
<VARIANCE> 26
 1.533144e+01 2.385870e+01 1.806470e+01 8.129367e+01 3.970145e+01 5.133535e+01 3.260625e+01 4.042830e+01 3.879949e+01 3.403208e+01 3.976398e+01 2.558398e+01 5.332764e-01 1.039093e+00 1.356478e+00 1.684077e+00 3.369257e+00 2.524719e+00 2.670750e+00 2.393900e+00 2.718573e+00 2.536982e+00 2.372969e+00 2.376482e+00 1.846370e+00 5.767192e-02
<GCONST> 9.554626e+01
<STATE> 4
<MEAN> 26
 2.867125e+00 -5.440771e+00 -4.355986e+00 -2.723559e+01 -7.917037e+00 1.150161e+01 -8.847882e+00 2.416435e+00 -1.363152e+01 -4.418855e-01 6.729263e+00 -5.444364e+00 2.142505e+01 -4.354408e-01 -1.534451e+00 -8.753418e-01 4.542283e-02 2.117938e+00 1.761355e-01 -4.172183e-01 -2.192895e-01 7.947048e-02 8.180898e-01 1.145219e-01 -6.609343e-01 1.235553e-01
<VARIANCE> 26
 9.130055e+00 2.813891e+01 3.187841e+01 8.633205e+01 6.264238e+01 2.280089e+01 4.993305e+01 3.803738e+01 2.681078e+01 5.054890e+01 4.682929e+01 2.418889e+01 6.220515e-01 3.735068e-01 1.072999e+00 2.009754e+00 2.811899e+00 2.172494e+00 2.101471e+00 2.420667e+00 2.129140e+00 2.116164e+00 3.350813e+00 2.079561e+00 2.344549e+00 3.484346e-02
<GCONST> 9.399854e+01
<TRANSP> 5
 0.000000e+00 1.000000e+00 0.000000e+00 0.000000e+00 0.000000e+00
 0.000000e+00 4.930226e-01 5.069774e-01 0.000000e+00 0.000000e+00
 0.000000e+00 0.000000e+00 8.352439e-01 1.647561e-01 0.000000e+00
 0.000000e+00 0.000000e+00 0.000000e+00 7.528498e-01 2.471503e-01
 0.000000e+00 0.000000e+00 0.000000e+00 0.000000e+00 0.000000e+00
<ENDHMM>
~h "x"
<BEGINHMM>
<NUMSTATES> 5
<STATE> 2
<MEAN> 26
 -8.036126e-01 -4.600604e+00 4.078266e+00 -1.146362e+01 -5.553868e+00 2.433271e+00 -2.433661e+01 -9.587874e+00 -1.057955e+01 5.972202e-01 1.183734e+01 -8.995869e+00 2.034619e+01 1.785020e+00 -6.543685e-01 -4.194758e-01 -1.754330e+00 -1.657275e+00 2.022687e+00 -4.100726e+00 -1.280644e-02 -1.391018e+00 7.999288e-01 2.813399e+00 -2.233588e+00 7.989637e-01
<VARIANCE> 26
 3.601014e+00 6.627818e+00 1.059462e+01 2.924644e+01 1.297997e+01 3.402712e+01 4.267751e+01 3.306524e+01 6.427416e+01 5.180209e+01 1.761648e+01 2.037780e+01 1.066579e+00 2.201051e+00 1.326778e+00 9.820697e-01 2.095306e+00 1.910700e+00 2.353454e+00 5.382806e+00 3.889021e+00 5.458635e+00 3.800701e+00 2.185944e+00 2.142779e+00 8.089429e-01
<GCONST> 9.479696e+01
<STATE> 3
<MEAN> 26
 -1.537479e-01 -4.874957e+00 2.349374e+00 -1.289662e+01 -9.577025e+00 7.399481e+00 -2.886297e+01 -1.056277e+01 -9.640045e+00 1.825626e-01 1.591318e+01 -1.243124e+01 2.133656e+01 -6.167763e-02 6.787059e-02 2.389155e-02 -1.439123e-01 -9.110992e-02 6.309828e-03 7.468773e-02 -1.491297e-01 -2.254427e-01 1.897883e-02 -2.505693e-01 -5.989586e-02 -2.902956e-03
<VARIANCE> 26
 1.910400e+00 5.159089e+00 6.901653e+00 2.596548e+01 9.815176e+00 1.825783e+01 1.412073e+01 1.777185e+01 2.053281e+01 1.728183e+01 8.728130e+00 2.272328e+01 1.822921e-01 1.984853e-01 4.898862e-01 1.512455e+00 1.260805e+00 1.307687e+00 1.252355e+00 1.233842e+00 1.062284e+00 1.852800e+00 1.055181e+00 1.113814e+00 1.479658e+00 1.101938e-02
<GCONST> 7.117526e+01
<STATE> 4
<MEAN> 26
 4.649757e-01 -2.017911e+00 4.979294e+00 -1.183899e+01 -1.654101e+00 3.802032e+00 -2.107812e+01 -6.129986e+00 -1.155715e+01 2.344727e+00 8.339294e+00 -8.395946e+00 1.972103e+01 -2.484063e-01 1.457599e+00 3.006051e-01 9.727254e-01 2.172807e+00 -5.706359e-01 3.348295e+00 6.164283e-01 -2.682144e-02 4.238782e-01 -2.249822e+00 1.268923e+00 -5.500114e-01
<VARIANCE> 26
 7.312760e+00 1.775960e+01 1.383430e+01 4.498174e+01 4.277555e+01 3.135948e+01 6.132536e+01 4.599539e+01 3.746498e+01 3.753648e+01 2.831794e+01 2.141732e+01 1.812480e+00 8.603940e-01 2.436623e+00 2.050722e+00 5.854863e+00 2.312669e+00 3.691023e+00 2.793205e+00 1.176539e+00 1.962474e+00 4.246315e+00 2.175628e+00 1.924666e+00 1.069122e-01
<GCONST> 9.635846e+01
<TRANSP> 5
 0.000000e+00 1.000000e+00 0.000000e+00 0.000000e+00 0.000000e+00
 0.000000e+00 6.159319e-01 3.840682e-01 0.000000e+00 0.000000e+00
 0.000000e+00 0.000000e+00 8.490666e-01 1.509334e-01 0.000000e+00
 0.000000e+00 0.000000e+00 0.000000e+00 7.249926e-01 2.750075e-01
 0.000000e+00 0.000000e+00 0.000000e+00 0.000000e+00 0.000000e+00
<ENDHMM>
~h "y"
<BEGINHMM>
<NUMSTATES> 5
<STATE> 2
<MEAN> 26
 -7.375522e+00 -6.894954e-01 1.434837e+01 4.991331e+00 -6.597821e+00 -6.780930e+00 -1.146573e+01 4.732414e-01 -1.304048e+01 -8.393454e+00 -3.384788e-01 2.196778e+00 1.823178e+01 1.671265e+00 -3.062736e-01 2.081202e+00 1.085557e+00 -6.597965e-01 -2.058071e+00 -3.030515e+00 1.355755e+00 -1.606771e+00 -3.512078e+00 1.152864e+00 6.142223e-01 7.929023e-01
<VARIANCE> 26
 2.484501e+01 2.301038e+01 3.756342e+01 2.458942e+01 2.942483e+01 4.807257e+01 9.651266e+01 4.956101e+01 5.733775e+01 6.604750e+01 2.708157e+01 2.680869e+01 5.310250e+00 4.549873e+00 2.684967e+00 4.612596e+00 2.869307e+00 2.576137e+00 5.273731e+00 7.502926e+00 2.864054e+00 6.185289e+00 5.189567e+00 2.134337e+00 2.571970e+00 5.482838e-01
<GCONST> 1.085186e+02
<STATE> 3
<MEAN> 26
 -3.093377e+00 -4.276245e+00 1.579682e+01 4.966429e+00 -1.062398e+01 -7.422539e+00 -2.079929e+01 2.763212e+00 -1.339134e+01 -1.976535e+01 4.801019e+00 2.150970e+00 2.020442e+01 1.957923e-01 -2.512712e-01 -1.575502e-01 -7.309567e-01 -6.235016e-01 4.272596e-01 -3.573600e-01 -9.970179e-02 1.704245e-01 2.399661e-02 2.306804e-01 -5.522360e-01 9.374264e-02
<VARIANCE> 26
 7.047343e+00 1.588210e+01 1.903161e+01 2.614268e+01 2.936381e+01 1.916170e+01 4.134542e+01 4.091343e+01 4.146061e+01 3.294782e+01 2.220615e+01 2.233182e+01 3.948529e-01 8.015795e-01 1.035697e+00 2.625385e+00 2.603538e+00 2.541147e+00 2.826422e+00 4.899729e+00 2.847024e+00 2.128373e+00 4.966479e+00 1.822908e+00 1.789201e+00 3.666045e-02
<GCONST> 9.155253e+01
<STATE> 4
<MEAN> 26
 -2.642747e+00 -3.310190e+00 1.401601e+01 -3.093041e+00 -1.182840e+01 -1.126674e+00 -1.760470e+01 -3.423247e+00 -1.134303e+01 -7.812635e+00 3.118767e+00 -2.916211e+00 2.002444e+01 3.178549e-02 1.244695e+00 -1.490249e+00 -1.483777e+00 4.372802e-01 2.204185e+00 2.041737e+00 -2.278486e+00 6.973269e-01 3.106840e+00 -1.109238e+00 -7.167618e-01 -2.283435e-01
<VARIANCE> 26
 1.393568e+01 2.173405e+01 7.337218e+01 6.806813e+01 3.192613e+01 9.516889e+01 7.835098e+01 4.427687e+01 4.804733e+01 8.794247e+01 4.417012e+01 3.829568e+01 1.317357e+00 1.713423e+00 2.631055e+00 3.365226e+00 4.770191e+00 2.847578e+00 6.369983e+00 4.951543e+00 4.605022e+00 4.666315e+00 4.048945e+00 3.306863e+00 5.503423e+00 1.644697e-01
<GCONST> 1.085846e+02
<TRANSP> 5
 0.000000e+00 1.000000e+00 0.000000e+00 0.000000e+00 0.000000e+00
 0.000000e+00 6.065474e-01 3.934526e-01 0.000000e+00 0.000000e+00
 0.000000e+00 0.000000e+00 7.812909e-01 2.187090e-01 0.000000e+00
 0.000000e+00 0.000000e+00 0.000000e+00 6.760599e-01 3.239400e-01
 0.000000e+00 0.000000e+00 0.000000e+00 0.000000e+00 0.000000e+00
<ENDHMM>
~h "z"
<BEGINHMM>
<NUMSTATES> 5
<STATE> 2
<MEAN> 26
 -9.597583e+00 1.017469e+01 3.617030e+00 -3.963248e+00 1.239654e+00 -6.834889e+00 -1.022705e+01 -7.618193e+00 -7.890763e+00 1.663891e+00 -2.231919e+00 -3.130829e+00 1.903434e+01 -2.326376e+00 3.020820e+00 -9.499559e-01 1.774303e+00 1.844054e+00 -5.262087e-02 1.828140e+00 -2.915653e-01 1.254166e+00 2.074426e-01 -1.227037e+00 1.611180e+00 -4.447356e-01
<VARIANCE> 26
 1.090406e+01 1.971494e+01 3.060421e+01 4.706266e+01 4.163206e+01 3.408659e+01 2.654285e+01 2.398588e+01 2.382311e+01 3.901299e+01 2.359043e+01 2.469887e+01 5.751019e-01 8.460348e-01 2.303420e+00 2.447831e+00 3.517545e+00 2.686764e+00 3.827261e+00 3.067811e+00 2.476954e+00 2.459674e+00 2.259355e+00 2.546319e+00 1.559103e+00 2.808700e-02
<GCONST> 9.349095e+01
<STATE> 3
<MEAN> 26
 -1.654370e+01 1.450185e+01 2.745011e+00 2.184575e-01 3.951022e+00 -3.145532e+00 -5.212542e+00 -7.173357e+00 -5.513111e+00 -2.324248e-01 -3.379790e+00 1.354955e+00 1.781467e+01 -4.044828e-01 -3.916124e-01 1.307961e-02 -3.675659e-01 2.265413e-01 1.412965e-01 2.090918e-01 -4.015429e-01 2.677793e-01 3.133215e-01 -2.588751e-02 8.704103e-02 -3.629292e-02
<VARIANCE> 26
 8.221970e+00 8.711744e+00 2.866728e+01 3.280981e+01 3.295899e+01 3.014639e+01 2.235859e+01 2.126864e+01 1.814923e+01 3.636687e+01 1.788088e+01 1.864653e+01 5.792564e-01 1.808317e+00 1.106105e+00 1.508063e+00 1.766594e+00 1.840783e+00 3.698454e+00 2.303456e+00 1.642986e+00 1.146734e+00 2.208686e+00 9.338677e-01 1.678458e+00 5.177731e-02
<GCONST> 8.706434e+01
<STATE> 4
<MEAN> 26
 -1.029801e+01 6.930601e+00 2.214822e+00 -8.264804e+00 2.658508e+00 -6.895563e+00 -1.038508e+01 -8.570791e+00 -4.859357e+00 5.405614e+00 -2.400413e+00 -3.391500e+00 1.895807e+01 2.964986e+00 -3.890801e+00 5.683441e-01 -3.295985e+00 -1.507786e+00 -2.175688e-01 -2.378768e+00 1.244769e+00 -4.087264e-01 1.489867e+00 1.002404e+00 -1.829861e+00 4.970599e-01
<VARIANCE> 26
 2.268535e+01 3.205626e+01 3.111129e+01 4.934904e+01 2.228611e+01 3.223559e+01 2.798959e+01 2.820839e+01 2.327231e+01 3.235678e+01 2.365150e+01 2.412291e+01 9.956369e-01 1.422945e+00 2.395700e+00 1.776073e+00 4.907089e+00 2.244543e+00 5.296988e+00 4.287624e+00 4.290572e+00 2.110360e+00 3.603745e+00 2.807507e+00 3.460612e+00 1.094177e-01
<GCONST> 9.879456e+01
<TRANSP> 5
 0.000000e+00 1.000000e+00 0.000000e+00 0.000000e+00 0.000000e+00
 0.000000e+00 6.765183e-01 3.234817e-01 0.000000e+00 0.000000e+00
 0.000000e+00 0.000000e+00 7.447295e-01 2.552705e-01 0.000000e+00
 0.000000e+00 0.000000e+00 0.000000e+00 6.330196e-01 3.669804e-01
 0.000000e+00 0.000000e+00 0.000000e+00 0.000000e+00 0.000000e+00
<ENDHMM>
~h "__"
<BEGINHMM>
<NUMSTATES> 5
<STATE> 2
<MEAN> 26
 -1.009331e+01 1.334256e+00 -1.115047e-01 1.900170e-01 1.847127e+00 3.543988e+00 4.533299e-01 4.222039e-01 -1.574008e+00 -9.081235e-01 -8.575432e-01 4.469577e-01 1.198357e+01 -2.733449e-01 9.218624e-02 -2.236048e-01 8.949671e-02 -2.455069e-01 -9.760743e-02 1.356419e-02 2.149696e-01 2.071339e-01 3.276324e-01 4.189191e-01 1.918137e-01 -1.570104e-01
<VARIANCE> 26
 1.386680e+01 1.604766e+01 2.568161e+01 2.961419e+01 2.104692e+01 2.038107e+01 2.598827e+01 2.063396e+01 2.207566e+01 2.433691e+01 2.245326e+01 1.492511e+01 3.160399e+00 1.034438e+00 1.148674e+00 1.463807e+00 2.174632e+00 2.347532e+00 2.401849e+00 2.408310e+00 2.222392e+00 2.292633e+00 2.122500e+00 1.947331e+00 1.345623e+00 3.389308e-01
<GCONST> 9.162260e+01
<STATE> 3
<MEAN> 26
 -1.266619e+01 3.401676e+00 8.001488e-01 2.224828e+00 2.363997e+00 3.183984e+00 1.652510e+00 3.569152e+00 1.329235e+00 2.745881e+00 3.396878e+00 2.025741e+00 1.186463e+01 -6.357343e-02 -3.863405e-02 -7.314616e-02 -6.103435e-02 -3.648447e-02 -5.244058e-02 2.487380e-02 6.169945e-02 5.461313e-02 8.977862e-02 9.785655e-02 1.082317e-02 -5.630426e-02
<VARIANCE> 26
 2.440514e+00 4.474618e+00 7.661238e+00 1.145148e+01 9.896080e+00 1.043219e+01 1.271757e+01 1.436983e+01 1.432252e+01 1.419777e+01 1.265208e+01 1.123914e+01 2.081820e+00 2.190095e-01 4.002994e-01 5.232145e-01 1.127772e+00 9.800783e-01 1.062039e+00 1.286932e+00 1.471225e+00 1.375468e+00 1.362424e+00 1.337564e+00 1.198521e+00 4.945742e-02
<GCONST> 7.131033e+01
<STATE> 4
<MEAN> 26
 -1.335277e+01 2.129985e+00 -8.697351e-01 2.897004e-01 -2.296443e-01 3.988101e-01 -6.507508e-01 8.747541e-01 -1.476026e+00 -1.573444e-01 9.484336e-01 -4.376071e-01 8.647741e+00 -9.183636e-02 -3.168229e-02 1.097542e-01 -5.452462e-02 6.427741e-02 5.090755e-02 -6.040853e-02 2.237154e-02 9.117152e-02 2.538827e-02 1.200188e-02 -1.404451e-02 -1.376759e-02
<VARIANCE> 26
 3.292128e+00 2.885793e+00 5.338667e+00 6.246257e+00 8.650414e+00 1.003339e+01 1.068220e+01 1.301225e+01 1.455805e+01 1.366513e+01 1.182190e+01 1.061695e+01 7.996820e-01 2.506554e-01 3.280830e-01 5.767550e-01 7.265420e-01 8.926752e-01 1.041042e+00 1.225495e+00 1.351607e+00 1.382798e+00 1.387471e+00 1.378380e+00 1.191848e+00 4.802092e-02
<GCONST> 6.801821e+01
<TRANSP> 5
 0.000000e+00 1.000000e+00 0.000000e+00 0.000000e+00 0.000000e+00
 0.000000e+00 8.949056e-01 1.050944e-01 0.000000e+00 0.000000e+00
 0.000000e+00 0.000000e+00 9.422565e-01 5.774347e-02 0.000000e+00
 0.000000e+00 0.000000e+00 0.000000e+00 9.615239e-01 3.847608e-02
 0.000000e+00 0.000000e+00 0.000000e+00 0.000000e+00 0.000000e+00
<ENDHMM>
~h "a~"
<BEGINHMM>
<NUMSTATES> 5
<STATE> 2
<MEAN> 26
 8.599103e-01 -6.343132e+00 -4.953094e+00 -2.357030e+01 -5.601647e+00 9.635106e+00 -9.413239e+00 1.224994e+00 -1.259467e+01 -5.325351e-01 4.785440e+00 -3.452532e+00 2.069191e+01 1.797596e+00 -6.099063e-01 -1.423733e+00 -2.053575e+00 -1.396429e+00 1.747499e+00 8.978230e-01 2.290195e+00 -1.628925e+00 -2.344353e+00 6.066605e-02 8.214371e-01 5.891050e-01
<VARIANCE> 26
 8.328281e+00 1.992280e+01 1.737058e+01 4.051897e+01 3.340732e+01 4.423685e+01 7.191013e+01 3.309067e+01 2.506053e+01 6.821643e+01 3.975983e+01 4.448115e+01 2.063285e+00 3.321012e+00 2.708002e+00 1.821596e+00 7.945468e+00 3.174117e+00 6.316197e+00 6.671090e+00 2.966949e+00 4.538308e+00 4.460840e+00 3.500755e+00 4.638268e+00 6.462535e-01
<GCONST> 1.063830e+02
<STATE> 3
<MEAN> 26
 2.467358e+00 -5.589804e+00 -7.159384e+00 -2.133479e+01 -1.128212e+01 8.658923e+00 -4.536523e+00 8.381958e+00 -1.403459e+01 -9.810589e+00 2.893128e+00 -3.982593e+00 2.117576e+01 7.060082e-02 3.657342e-01 6.207936e-02 4.831303e-01 -3.061948e-01 -6.192200e-01 4.072635e-01 1.707614e-01 -3.440222e-01 2.630630e-01 -6.739067e-01 -4.414786e-01 -5.743618e-02
<VARIANCE> 26
 6.228380e+00 1.031645e+01 1.371417e+01 2.248027e+01 1.915448e+01 3.023851e+01 2.547144e+01 1.603289e+01 1.675784e+01 2.282737e+01 2.050658e+01 1.765797e+01 3.089848e-01 3.579856e-01 9.491214e-01 1.090234e+00 1.539896e+00 1.585057e+00 1.565101e+00 2.065634e+00 2.087918e+00 1.289263e+00 3.108295e+00 1.347427e+00 1.232347e+00 2.315888e-02
<GCONST> 8.065558e+01
<STATE> 4
<MEAN> 26
 2.978839e+00 2.359280e-01 -4.058681e+00 -1.223948e+01 -8.963709e+00 4.416812e+00 -1.983233e+00 1.866005e+00 -1.688206e+01 -2.700998e+00 -1.760834e+00 -3.887769e+00 1.978489e+01 -6.941446e-01 1.414285e+00 1.164315e+00 3.024340e+00 1.423285e+00 -2.503002e-01 4.324046e-01 -2.119803e+00 5.465978e-01 5.557173e-01 -8.978619e-02 4.989161e-01 -4.729585e-01
<VARIANCE> 26
 7.706379e+00 2.608126e+01 2.241963e+01 9.263416e+01 3.379261e+01 2.426130e+01 5.813492e+01 4.216015e+01 5.586281e+01 2.559294e+01 2.591534e+01 2.213453e+01 1.276203e+00 2.800981e+00 2.209527e+00 2.082990e+00 6.313629e+00 5.274267e+00 2.968915e+00 3.306967e+00 3.717315e+00 5.234585e+00 2.839302e+00 1.818327e+00 2.179432e+00 1.188621e-01
<GCONST> 1.007065e+02
<TRANSP> 5
 0.000000e+00 1.000000e+00 0.000000e+00 0.000000e+00 0.000000e+00
 0.000000e+00 6.345576e-01 3.654424e-01 0.000000e+00 0.000000e+00
 0.000000e+00 0.000000e+00 8.683491e-01 1.316509e-01 0.000000e+00
 0.000000e+00 0.000000e+00 0.000000e+00 7.529083e-01 2.470917e-01
 0.000000e+00 0.000000e+00 0.000000e+00 0.000000e+00 0.000000e+00
<ENDHMM>
~h "e^"
<BEGINHMM>
<NUMSTATES> 5
<STATE> 2
<MEAN> 26
 -5.097101e+00 -4.999450e+00 1.439772e+01 -1.346811e+01 -8.168910e+00 -7.983288e+00 -1.578633e+01 -1.765336e+00 -1.108807e+01 5.792787e-01 1.824742e+00 -1.406494e+00 1.999582e+01 1.244571e+00 -2.192612e+00 2.739877e+00 -2.261462e+00 -3.039239e+00 -1.069453e+00 -2.668118e+00 1.623945e+00 -2.733167e+00 5.795276e-01 1.008500e+00 -1.414096e-01 8.480655e-01
<VARIANCE> 26
 1.142118e+01 2.358102e+01 3.877816e+01 4.493745e+01 2.845129e+01 3.191142e+01 4.237624e+01 3.490629e+01 5.023334e+01 5.627037e+01 2.722013e+01 1.454589e+01 2.806034e+00 2.423191e+00 1.978415e+00 4.674152e+00 3.946808e+00 2.606858e+00 3.795141e+00 5.109450e+00 3.856297e+00 3.989709e+00 3.388925e+00 2.929321e+00 2.010769e+00 5.794778e-01
<GCONST> 1.035010e+02
<STATE> 3
<MEAN> 26
 -4.338169e+00 -6.900756e+00 1.837457e+01 -1.599705e+01 -1.375822e+01 -6.257296e+00 -1.877670e+01 1.109496e+00 -1.707481e+01 1.561515e+00 3.825495e+00 -2.165788e+00 2.097451e+01 1.034274e-01 3.249167e-01 1.586353e-01 1.846089e-01 -6.008044e-02 4.620086e-03 4.590483e-01 -1.899344e-01 -7.214311e-01 3.786118e-01 -2.524814e-01 -7.604556e-03 -2.736882e-02
<VARIANCE> 26
 4.412651e+00 1.466991e+01 2.026385e+01 1.622732e+01 1.771041e+01 2.137030e+01 2.034982e+01 1.983039e+01 2.712913e+01 2.953543e+01 1.894391e+01 1.299710e+01 3.249007e-01 4.265733e-01 1.422505e+00 1.345160e+00 2.271688e+00 2.134299e+00 1.850464e+00 2.089254e+00 1.817585e+00 1.871241e+00 1.980609e+00 1.411113e+00 9.077084e-01 3.634937e-02
<GCONST> 8.232357e+01
<STATE> 4
<MEAN> 26
 -2.808544e+00 3.283964e-01 1.580807e+01 -9.953758e+00 -6.651375e+00 -6.180139e+00 -7.429974e+00 -1.406108e+00 -1.467934e+01 2.458876e+00 -6.537678e-01 -2.062888e+00 1.928472e+01 6.163529e-02 2.052580e+00 -1.870954e+00 2.943975e+00 2.457025e+00 6.763853e-01 2.534471e+00 -2.189039e-01 2.527446e+00 -8.734980e-01 -7.607760e-01 -3.800731e-01 -6.786138e-01
<VARIANCE> 26
 8.061514e+00 3.834665e+01 3.132983e+01 5.379919e+01 4.158299e+01 5.025373e+01 1.245339e+02 3.632435e+01 4.954876e+01 4.709244e+01 3.214324e+01 1.833250e+01 2.179425e+00 2.588844e+00 5.557822e+00 3.151497e+00 4.704443e+00 2.895197e+00 3.667278e+00 4.146900e+00 5.841712e+00 3.282933e+00 3.514605e+00 2.695187e+00 2.296891e+00 1.870379e-01
<GCONST> 1.054282e+02
<TRANSP> 5
 0.000000e+00 1.000000e+00 0.000000e+00 0.000000e+00 0.000000e+00
 0.000000e+00 5.295259e-01 4.704741e-01 0.000000e+00 0.000000e+00
 0.000000e+00 0.000000e+00 8.136348e-01 1.863653e-01 0.000000e+00
 0.000000e+00 0.000000e+00 0.000000e+00 6.826146e-01 3.173854e-01
 0.000000e+00 0.000000e+00 0.000000e+00 0.000000e+00 0.000000e+00
<ENDHMM>
~h "e~"
<BEGINHMM>
<NUMSTATES> 5
<STATE> 2
<MEAN> 26
 -1.069208e+00 -1.279643e+01 -2.797926e+00 -2.044784e+01 7.516408e-02 6.282389e+00 -1.819838e+01 2.824998e+00 -7.112258e+00 4.218818e+00 2.418832e+00 -9.448566e+00 2.108583e+01 1.282108e+00 -2.414789e+00 -6.909063e-01 -2.038342e+00 1.075605e+00 1.695948e+00 -1.859952e+00 1.199010e+00 -1.286080e+00 6.823219e-01 4.378778e-02 -1.065582e+00 5.529694e-01
<VARIANCE> 26
 5.865795e+00 1.992931e+01 1.861441e+01 1.690403e+01 3.609346e+01 3.183544e+01 2.666100e+01 2.275133e+01 2.200065e+01 2.838882e+01 4.715451e+01 3.822390e+01 1.039666e+00 2.510873e+00 3.751189e+00 1.645957e+00 4.560982e+00 2.945343e+00 2.490666e+00 3.525328e+00 3.246554e+00 1.680990e+00 2.504084e+00 2.490038e+00 2.383853e+00 5.118397e-01
<GCONST> 9.696250e+01
<STATE> 3
<MEAN> 26
 7.698096e-02 -1.429311e+01 -5.396895e+00 -2.085712e+01 3.858496e+00 7.674782e+00 -1.975822e+01 3.086762e+00 -1.038863e+01 4.718749e-01 5.074587e+00 -8.666294e+00 2.158175e+01 1.982983e-01 3.865914e-01 -2.077780e-01 1.234121e-01 5.091759e-01 -9.042310e-01 1.899322e-01 -2.164458e-01 -5.976096e-01 -1.648026e-01 -1.608853e-01 5.036011e-02 -8.336884e-02
<VARIANCE> 26
 5.561861e+00 8.847352e+00 1.261030e+01 1.381681e+01 1.963469e+01 2.308120e+01 2.094364e+01 1.268919e+01 1.841849e+01 1.647177e+01 2.297912e+01 1.580346e+01 3.136257e-01 3.397280e-01 7.864982e-01 1.205610e+00 1.005715e+00 1.484640e+00 1.864577e+00 1.126940e+00 8.854069e-01 1.205861e+00 1.243036e+00 2.146843e+00 1.040144e+00 1.613484e-02
<GCONST> 7.596066e+01
<STATE> 4
<MEAN> 26
 1.138806e+00 -6.745278e+00 -4.587600e+00 -1.450673e+01 2.040220e+00 -1.306969e+00 -1.360981e+01 -7.086781e-01 -1.457962e+01 1.451884e+00 -8.645582e-01 -8.179447e+00 2.035770e+01 -3.167838e-01 2.760639e+00 7.230495e-01 3.212918e+00 -1.173141e+00 -7.408124e-01 2.623487e+00 -1.517126e+00 2.467878e-01 -3.638793e-01 -1.261690e+00 1.200701e+00 -4.235719e-01
<VARIANCE> 26
 7.010600e+00 3.280490e+01 3.551540e+01 8.026611e+01 6.879677e+01 4.559391e+01 4.788581e+01 5.064657e+01 4.712890e+01 3.788686e+01 3.250676e+01 2.690249e+01 5.059782e-01 2.747178e+00 3.433502e+00 2.300869e+00 7.145410e+00 4.950627e+00 2.712033e+00 1.768152e+00 2.864156e+00 4.919525e+00 3.144007e+00 3.085538e+00 2.077499e+00 7.227837e-02
<GCONST> 1.018354e+02
<TRANSP> 5
 0.000000e+00 1.000000e+00 0.000000e+00 0.000000e+00 0.000000e+00
 0.000000e+00 4.807434e-01 5.192566e-01 0.000000e+00 0.000000e+00
 0.000000e+00 0.000000e+00 8.592517e-01 1.407483e-01 0.000000e+00
 0.000000e+00 0.000000e+00 0.000000e+00 7.023264e-01 2.976736e-01
 0.000000e+00 0.000000e+00 0.000000e+00 0.000000e+00 0.000000e+00
<ENDHMM>
~h "o^"
<BEGINHMM>
<NUMSTATES> 5
<STATE> 2
<MEAN> 26
 1.725862e+00 2.705051e-01 1.752229e+00 -2.755390e+01 -9.528660e+00 5.476581e+00 -1.176841e+01 -5.127031e+00 -1.566234e+01 5.302662e-01 6.674575e+00 -3.619182e+00 2.023272e+01 1.925145e+00 6.197177e-01 7.587191e-01 -4.588248e+00 -3.039876e+00 2.252121e+00 -1.471149e+00 5.435148e-01 -2.794448e+00 -1.073952e+00 1.965605e+00 -1.212136e+00 1.124084e+00
<VARIANCE> 26
 8.680127e+00 3.720901e+01 1.328896e+01 8.704352e+01 2.934902e+01 2.153037e+01 5.736186e+01 5.072365e+01 5.833142e+01 5.304251e+01 9.464030e+01 1.865496e+01 3.086632e+00 3.897152e+00 1.662583e+00 1.837156e+00 1.565461e+01 2.894235e+00 2.323234e+00 4.625688e+00 3.188956e+00 7.917784e+00 3.296281e+00 4.254807e+00 5.397329e+00 1.604335e+00
<GCONST> 1.083739e+02
<STATE> 3
<MEAN> 26
 2.855199e+00 4.246503e-01 3.048834e+00 -3.003717e+01 -1.608740e+01 1.081914e+01 -1.327912e+01 -4.353167e+00 -1.606846e+01 -6.106862e+00 1.230768e+01 -7.500329e+00 2.162053e+01 6.628792e-02 9.539165e-04 1.945496e-04 -5.884327e-02 -1.301226e-02 1.723867e-01 -3.558114e-01 6.768152e-02 -5.799550e-01 -1.388436e-01 6.324771e-02 -1.365513e-01 9.944140e-03
<VARIANCE> 26
 5.883959e+00 1.253143e+01 1.882292e+01 2.728211e+01 2.157771e+01 1.504551e+01 2.237428e+01 4.023079e+01 4.755300e+01 4.283754e+01 3.855860e+01 2.654085e+01 3.416187e-01 3.763064e-01 1.102730e+00 9.314631e-01 2.965520e+00 2.298782e+00 1.374553e+00 1.743211e+00 2.259128e+00 2.220642e+00 3.694471e+00 2.321244e+00 1.949404e+00 3.494899e-02
<GCONST> 8.730605e+01
<STATE> 4
<MEAN> 26
 2.123733e+00 1.257167e+00 1.513211e+00 -2.483678e+01 -7.032623e+00 5.412467e+00 -1.445650e+01 -4.176597e+00 -1.916199e+01 1.956151e-01 8.021647e+00 -6.244967e+00 2.016970e+01 -7.147369e-01 8.339201e-01 -2.414249e-01 3.348434e+00 2.348192e+00 -2.202600e+00 1.559549e+00 -5.879318e-01 1.975252e+00 9.563688e-01 -2.021807e+00 6.820761e-01 -7.194757e-01
<VARIANCE> 26
 1.106876e+01 3.483103e+01 2.070216e+01 1.108218e+02 5.450566e+01 4.257585e+01 9.209401e+01 6.815060e+01 5.939521e+01 5.282945e+01 6.232473e+01 5.841608e+01 2.309467e+00 1.225980e+00 3.453729e+00 3.406821e+00 7.857623e+00 3.687492e+00 2.977283e+00 7.405390e+00 3.869756e+00 6.381107e+00 7.965693e+00 6.832158e+00 6.574128e+00 2.869843e-01
<GCONST> 1.120267e+02
<TRANSP> 5
 0.000000e+00 1.000000e+00 0.000000e+00 0.000000e+00 0.000000e+00
 0.000000e+00 4.861048e-01 5.138953e-01 0.000000e+00 0.000000e+00
 0.000000e+00 0.000000e+00 8.773957e-01 1.226043e-01 0.000000e+00
 0.000000e+00 0.000000e+00 0.000000e+00 7.096737e-01 2.903263e-01
 0.000000e+00 0.000000e+00 0.000000e+00 0.000000e+00 0.000000e+00
<ENDHMM>
~h "n~"
<BEGINHMM>
<NUMSTATES> 5
<STATE> 2
<MEAN> 26
 5.162973e-01 2.450284e-01 8.076234e+00 -2.653827e+00 -8.958148e+00 -4.166934e+00 -1.126490e+01 2.271194e+00 -1.936219e+01 -1.536995e+01 9.544077e+00 -4.427197e+00 2.072835e+01 -2.783177e-01 -2.323828e-02 3.080636e-01 -1.097416e-01 1.997943e-01 -6.221868e-03 -7.920358e-02 5.983163e-01 -1.911753e-01 -9.451350e-01 1.751076e+00 -5.450968e-01 1.190107e-02
<VARIANCE> 26
 4.867744e+00 5.009038e+00 2.026421e+01 3.366120e+01 2.051314e+01 3.082559e+01 1.098736e+01 2.039999e+01 1.517852e+01 2.012195e+01 4.510540e+01 1.236985e+01 1.212619e-01 1.761671e+00 9.986839e-01 3.899165e+00 6.933883e+00 2.274598e+00 3.931136e+00 3.918362e+00 2.332141e+00 1.070755e+00 1.829413e+00 2.657313e+00 1.398132e+00 1.294776e-03
<GCONST> 8.290243e+01
<STATE> 3
<MEAN> 26
 -4.495056e+00 -4.719917e-02 1.794842e+01 -1.102540e+01 -1.560263e+01 6.200872e+00 -1.625125e+01 -3.017678e-01 -1.626638e+01 -1.344786e+01 9.702151e+00 -5.620682e+00 2.076206e+01 -5.850945e-01 -5.262738e-01 1.423131e+00 -7.734448e-01 -2.365878e+00 1.610994e+00 -5.902786e-02 -9.678694e-01 1.544192e+00 1.284553e+00 -1.197974e+00 4.426997e-01 -6.907396e-03
<VARIANCE> 26
 7.294137e+00 1.423905e+01 1.584859e+01 3.523395e+01 4.951172e+01 3.161078e+01 2.042599e+01 4.531091e+01 2.537896e+01 2.877111e+01 2.807095e+01 9.123422e+00 8.997816e-02 6.221881e-01 1.227062e+00 2.961099e+00 4.456514e+00 2.726312e+00 1.012079e+01 1.763977e+00 4.858826e+00 9.914476e-01 1.645414e+00 1.659544e+00 7.148570e-01 4.969516e-03
<GCONST> 8.580150e+01
<STATE> 4
<MEAN> 26
 -3.041549e+00 -4.838869e+00 1.303297e+01 -7.947453e+00 -1.636941e+01 1.309706e+00 -1.855234e+01 1.983697e+00 -9.096661e+00 -8.369870e+00 6.227298e+00 -4.743232e+00 2.087148e+01 8.896689e-01 -1.306120e-01 -2.357866e+00 1.360580e-01 2.346757e+00 -1.067963e+00 -1.020834e+00 4.273447e-01 5.999700e-01 1.379020e+00 -1.685543e-01 -4.513115e-01 -2.436243e-02
<VARIANCE> 26
 1.025006e+01 1.646874e+01 3.631438e+01 1.403472e+01 3.421560e+01 3.887240e+01 2.340410e+01 2.116872e+01 3.503300e+01 2.443298e+01 1.060857e+01 8.278659e+00 1.174221e-01 2.652120e-01 2.542929e+00 2.305700e+00 3.098058e+00 2.204031e+00 7.307057e+00 4.479951e+00 3.723046e+00 3.932683e+00 2.099862e+00 1.660150e+00 2.478874e+00 2.874040e-02
<GCONST> 8.877327e+01
<TRANSP> 5
 0.000000e+00 1.000000e+00 0.000000e+00 0.000000e+00 0.000000e+00
 0.000000e+00 7.695604e-01 2.304396e-01 0.000000e+00 0.000000e+00
 0.000000e+00 0.000000e+00 7.510685e-01 2.489315e-01 0.000000e+00
 0.000000e+00 0.000000e+00 0.000000e+00 7.651060e-01 2.348940e-01
 0.000000e+00 0.000000e+00 0.000000e+00 0.000000e+00 0.000000e+00
<ENDHMM>
~h "o~"
<BEGINHMM>
<NUMSTATES> 5
<STATE> 2
<MEAN> 26
 1.143600e+00 2.805583e-01 2.807617e-01 -1.601223e+01 -1.297474e+01 6.919552e+00 -8.473436e+00 2.482440e+00 -1.187539e+01 -5.274619e+00 5.664144e+00 -2.681491e+00 1.989193e+01 1.786000e+00 -3.444579e-02 -9.598696e-02 -1.169511e+00 -3.440278e+00 5.437627e-01 -6.301833e-01 1.922932e+00 -9.990041e-01 -5.030746e-01 8.053042e-01 -9.718314e-01 5.736955e-01
<VARIANCE> 26
 1.132258e+01 2.179775e+01 1.609401e+01 3.555280e+01 4.242648e+01 3.268917e+01 4.499755e+01 3.861828e+01 4.340963e+01 3.141018e+01 3.580309e+01 1.557514e+01 2.444757e+00 3.856790e+00 1.886699e+00 2.623525e+00 4.937435e+00 4.003386e+00 3.894142e+00 6.221285e+00 4.747805e+00 5.796567e+00 3.069244e+00 3.780539e+00 1.356981e+00 2.335388e-01
<GCONST> 1.025112e+02
<STATE> 3
<MEAN> 26
 1.915630e+00 -2.109926e+00 -1.012974e+00 -1.232841e+01 -1.870687e+01 6.342883e+00 -9.494417e+00 2.887568e+00 -1.372947e+01 -3.617042e+00 2.869901e+00 -5.831007e+00 2.064784e+01 3.514650e-02 1.221869e-01 -1.040226e-01 6.846793e-01 -6.538307e-02 4.304422e-02 2.418252e-01 -3.544404e-01 -7.166453e-01 4.193675e-01 -8.521104e-01 -2.231772e-01 -4.921720e-02
<VARIANCE> 26
 3.839315e+00 1.329195e+01 1.318910e+01 2.368757e+01 1.720444e+01 1.941383e+01 1.989523e+01 2.094006e+01 3.195430e+01 2.220225e+01 2.283585e+01 1.562751e+01 1.730535e-01 2.928679e-01 7.371756e-01 1.153238e+00 2.648165e+00 1.880197e+00 2.310124e+00 1.738729e+00 1.767853e+00 2.097002e+00 1.650941e+00 1.637204e+00 9.697328e-01 1.406016e-02
<GCONST> 7.960738e+01
<STATE> 4
<MEAN> 26
 2.910275e+00 1.158302e+00 -5.538664e-01 -5.946859e+00 -1.038599e+01 5.142764e+00 -3.215857e+00 -1.301515e+00 -1.800404e+01 -4.055654e-01 -3.874177e+00 -3.352373e+00 1.929222e+01 -4.662109e-01 1.072748e+00 1.224179e-01 1.699949e+00 2.608056e+00 -1.161227e+00 1.936692e+00 -1.422380e+00 1.302831e+00 -6.136107e-02 -6.753513e-02 9.348645e-01 -5.564156e-01
<VARIANCE> 26
 4.983144e+00 2.934549e+01 1.293379e+01 8.894318e+01 5.429855e+01 4.191537e+01 4.189579e+01 3.266014e+01 3.307070e+01 3.102141e+01 3.634230e+01 2.810983e+01 8.882449e-01 1.928727e+00 2.418586e+00 1.223093e+00 5.739110e+00 2.607595e+00 3.380860e+00 2.853651e+00 3.033818e+00 4.367628e+00 2.654136e+00 3.491729e+00 2.380959e+00 1.319600e-01
<GCONST> 9.887996e+01
<TRANSP> 5
 0.000000e+00 1.000000e+00 0.000000e+00 0.000000e+00 0.000000e+00
 0.000000e+00 5.514238e-01 4.485762e-01 0.000000e+00 0.000000e+00
 0.000000e+00 0.000000e+00 8.790968e-01 1.209032e-01 0.000000e+00
 0.000000e+00 0.000000e+00 0.000000e+00 7.226999e-01 2.773001e-01
 0.000000e+00 0.000000e+00 0.000000e+00 0.000000e+00 0.000000e+00
<ENDHMM>
~h "s^"
<BEGINHMM>
<NUMSTATES> 5
<STATE> 2
<MEAN> 26
 -1.993314e+01 -1.133948e+00 8.446649e+00 -7.814319e+00 2.997134e+00 -4.336664e+00 6.407511e-01 -8.810407e+00 -2.055761e+00 -1.885784e+00 -3.476782e+00 -5.620716e-01 1.803059e+01 -4.785847e+00 -1.522878e+00 -2.860245e-01 -4.931878e-02 1.231853e+00 1.802714e-01 2.554207e+00 3.797518e-01 2.253147e+00 4.657539e-01 1.154051e+00 5.582913e-01 -2.904067e-01
<VARIANCE> 26
 5.054435e+01 2.689354e+01 2.428057e+01 2.308559e+01 4.394033e+01 5.402190e+01 4.543225e+01 4.135402e+01 3.652519e+01 4.873388e+01 2.835882e+01 1.973422e+01 1.860653e+00 2.841278e+00 3.933207e+00 4.470071e+00 4.703947e+00 3.942564e+00 5.595712e+00 4.311453e+00 3.099232e+00 3.712691e+00 3.474490e+00 3.411930e+00 1.978076e+00 1.941489e-01
<GCONST> 1.050449e+02
<STATE> 3
<MEAN> 26
 -3.048453e+01 -6.866205e+00 5.532816e+00 -1.268622e+01 1.511397e+00 -5.301486e+00 3.496778e+00 -7.195121e+00 1.929535e+00 1.458531e+00 -1.983850e-01 1.854935e+00 1.816851e+01 1.759181e-02 3.704438e-02 -5.762989e-02 -2.045648e-01 -3.131090e-02 -2.134097e-01 -6.476083e-02 -1.727269e-01 1.486147e-01 1.686730e-01 -2.448490e-02 -1.129812e-02 -9.973244e-03
<VARIANCE> 26
 7.294339e+00 9.290844e+00 9.920019e+00 1.163850e+01 2.438770e+01 2.945326e+01 1.925090e+01 1.635702e+01 1.239786e+01 1.714431e+01 1.063130e+01 1.414911e+01 3.539059e-01 1.637433e+00 8.818651e-01 7.005643e-01 1.108045e+00 1.377711e+00 1.345350e+00 1.499842e+00 1.658491e+00 1.385787e+00 1.649415e+00 1.372625e+00 1.521055e+00 2.622392e-02
<GCONST> 7.797706e+01
<STATE> 4
<MEAN> 26
 -1.827444e+01 -3.430034e+00 4.572109e+00 -1.082037e+01 1.439003e+00 -6.418001e+00 -1.167951e+00 -9.841574e+00 1.102405e+00 7.351060e-01 -1.869130e+00 -4.608849e-01 1.700216e+01 5.197201e+00 3.688103e-01 -6.353445e-01 8.736917e-01 -1.233087e+00 9.480051e-01 -3.022038e+00 -1.913279e-01 -1.424290e+00 -2.131619e-01 8.684102e-02 -6.424883e-01 1.195584e-02
<VARIANCE> 26
 7.531526e+01 1.782459e+01 2.216291e+01 2.405040e+01 4.597591e+01 3.166737e+01 4.241795e+01 2.647354e+01 2.177803e+01 4.659527e+01 2.283711e+01 1.973833e+01 4.582944e+00 7.028461e+00 2.906112e+00 2.798939e+00 2.207758e+00 6.163623e+00 7.780813e+00 6.822180e+00 4.511373e+00 4.474609e+00 4.343734e+00 4.456408e+00 2.879773e+00 5.826386e-01
<GCONST> 1.072426e+02
<TRANSP> 5
 0.000000e+00 1.000000e+00 0.000000e+00 0.000000e+00 0.000000e+00
 0.000000e+00 7.124680e-01 2.875320e-01 0.000000e+00 0.000000e+00
 0.000000e+00 0.000000e+00 8.973650e-01 1.026350e-01 0.000000e+00
 0.000000e+00 0.000000e+00 0.000000e+00 6.923277e-01 3.076722e-01
 0.000000e+00 0.000000e+00 0.000000e+00 0.000000e+00 0.000000e+00
<ENDHMM>
~h "x^"
<BEGINHMM>
<NUMSTATES> 5
<STATE> 2
<MEAN> 26
 -1.109821e+00 -9.434009e+00 5.052124e+00 -1.824368e+01 -5.206524e+00 -2.196276e+00 -2.360809e+01 -3.669746e-01 -7.179030e+00 1.009221e+01 5.334630e+00 -1.106858e+01 2.081643e+01 1.205304e+00 -1.954347e+00 -1.100041e-01 -3.319038e+00 -1.316945e+00 1.038740e+00 -2.751544e+00 1.183429e+00 1.933833e-01 2.783533e+00 1.155762e+00 -1.249831e+00 7.675225e-01
<VARIANCE> 26
 5.631303e+00 1.796231e+01 2.134201e+01 3.950552e+01 3.335203e+01 3.795927e+01 2.930044e+01 1.972427e+01 2.176924e+01 5.046558e+01 2.945415e+01 1.690324e+01 8.729963e-01 3.678286e+00 1.735579e+00 2.047638e+00 6.400938e+00 3.027188e+00 3.171779e+00 6.229455e+00 3.039876e+00 4.340804e+00 2.139758e+00 3.082758e+00 3.370885e+00 7.498561e-01
<GCONST> 9.962977e+01
<STATE> 3
<MEAN> 26
 7.274365e-02 -1.202389e+01 1.564236e+00 -2.126299e+01 -6.310622e+00 2.149817e-01 -2.463515e+01 5.073789e+00 -6.945961e+00 1.341478e+01 4.100718e+00 -1.178643e+01 2.168712e+01 1.075450e-01 1.296961e-01 -5.667644e-01 -4.936906e-01 2.857001e-01 4.196641e-01 2.924396e-01 -4.310452e-02 -3.417092e-01 2.968709e-01 -3.905960e-01 -5.546939e-02 -1.258619e-02
<VARIANCE> 26
 2.569207e+00 9.825136e+00 1.835708e+01 1.722712e+01 1.840397e+01 2.042710e+01 1.275683e+01 2.183318e+01 8.307103e+00 1.605302e+01 1.802793e+01 1.473637e+01 2.486329e-01 2.713670e-01 6.858962e-01 1.083359e+00 1.841426e+00 1.273962e+00 1.879761e+00 1.383474e+00 1.689154e+00 1.320909e+00 1.206991e+00 1.195961e+00 1.277927e+00 1.799818e-02
<GCONST> 7.501679e+01
<STATE> 4
<MEAN> 26
 1.149344e+00 -7.645625e+00 1.765285e-01 -2.421845e+01 -5.752151e-01 2.865603e+00 -1.626270e+01 -3.336542e+00 -1.063574e+01 1.291967e+01 1.965163e+00 -8.007247e+00 2.064466e+01 3.789895e-02 1.436622e+00 -1.319990e-01 8.927583e-01 1.224436e+00 7.881215e-01 3.072344e+00 -2.328216e+00 -1.125414e-01 -1.644185e+00 -2.520875e-01 1.719175e+00 -3.979418e-01
<VARIANCE> 26
 3.451221e+00 2.347546e+01 1.949803e+01 3.668264e+01 2.185008e+01 4.302955e+01 7.840079e+01 2.809304e+01 3.418520e+01 1.894755e+01 2.970309e+01 1.977136e+01 6.989049e-01 9.470679e-01 2.400745e+00 1.596558e+00 4.930617e+00 2.398382e+00 2.143485e+00 3.779155e+00 2.853812e+00 2.908422e+00 2.560772e+00 1.277022e+00 1.994558e+00 9.359145e-02
<GCONST> 9.326041e+01
<TRANSP> 5
 0.000000e+00 1.000000e+00 0.000000e+00 0.000000e+00 0.000000e+00
 0.000000e+00 4.776013e-01 5.223987e-01 0.000000e+00 0.000000e+00
 0.000000e+00 0.000000e+00 8.447117e-01 1.552883e-01 0.000000e+00
 0.000000e+00 0.000000e+00 0.000000e+00 7.261579e-01 2.738421e-01
 0.000000e+00 0.000000e+00 0.000000e+00 0.000000e+00 0.000000e+00
<ENDHMM>
~h "x~"
<BEGINHMM>
<NUMSTATES> 5
<STATE> 2
<MEAN> 26
 -1.342607e+00 -1.177059e+01 -3.151052e+00 -2.149752e+01 8.119526e+00 -4.200449e+00 -1.114463e+01 -2.779577e+00 -2.790669e+00 5.503739e+00 -2.551234e+00 -8.322574e+00 1.901020e+01 2.767432e+00 -3.404657e+00 2.859088e-01 -4.016253e+00 2.020690e+00 4.037030e-01 -2.223286e+00 6.872439e-01 -1.815575e+00 1.729961e-01 -9.519859e-02 -1.694697e+00 1.646513e+00
<VARIANCE> 26
 1.057556e+01 3.082309e+01 1.351283e+01 2.360686e+01 5.151117e+01 2.075024e+01 4.656023e+01 3.977777e+01 2.436406e+01 2.669230e+01 2.803444e+01 3.263009e+01 3.062494e+00 2.503359e+00 3.699158e+00 1.660758e+00 5.824968e+00 2.811265e+00 3.918451e+00 3.416766e+00 5.709403e+00 2.265630e+00 2.715848e+00 2.153912e+00 2.116996e+00 1.380604e+00
<GCONST> 1.017727e+02
<STATE> 3
<MEAN> 26
 3.475498e-01 -1.456648e+01 -2.130057e+00 -2.198169e+01 7.343909e+00 4.298281e+00 -1.770354e+01 2.180146e+00 -7.756931e+00 2.554303e+00 7.949486e-01 -8.570452e+00 2.114960e+01 -2.463144e-02 4.275666e-01 5.894144e-02 4.286079e-01 -5.843968e-01 6.370896e-01 -6.150181e-01 6.020246e-01 -4.697139e-01 4.716127e-02 1.539202e-01 9.106999e-02 7.385211e-02
<VARIANCE> 26
 4.065351e+00 1.152182e+01 6.865458e+00 1.367359e+01 2.066014e+01 2.952135e+01 1.849153e+01 1.490596e+01 1.186131e+01 1.452378e+01 3.384143e+01 1.127610e+01 3.582811e-01 3.007208e-01 1.286916e+00 7.656141e-01 7.758898e-01 1.577404e+00 2.293881e+00 1.845916e+00 1.207262e+00 1.058612e+00 9.589609e-01 1.370221e+00 7.345093e-01 5.743717e-02
<GCONST> 7.605453e+01
<STATE> 4
<MEAN> 26
 1.067529e+00 -5.817462e+00 -8.789333e-01 -1.312294e+01 -2.129937e-01 2.059986e+00 -1.556353e+01 3.264443e+00 -1.406529e+01 3.694700e+00 8.090472e-01 -9.185943e+00 2.046902e+01 2.397627e-01 2.662391e+00 4.523985e-01 3.919649e+00 -2.279900e+00 -2.317123e-01 2.876483e+00 -1.848305e+00 -1.034230e+00 -4.673498e-01 -2.995793e-01 7.750980e-01 -3.471358e-01
<VARIANCE> 26
 6.479789e+00 3.143575e+01 2.365805e+01 9.482117e+01 4.842287e+01 4.888004e+01 5.048344e+01 4.416135e+01 5.387107e+01 3.541642e+01 4.354491e+01 1.808533e+01 5.733137e-01 1.405083e+00 3.829379e+00 2.102083e+00 6.539994e+00 2.805701e+00 1.859420e+00 3.925629e+00 3.290371e+00 5.423046e+00 2.625763e+00 3.575481e+00 1.687015e+00 7.545104e-02
<GCONST> 1.003452e+02
<TRANSP> 5
 0.000000e+00 1.000000e+00 0.000000e+00 0.000000e+00 0.000000e+00
 0.000000e+00 6.131335e-01 3.868665e-01 0.000000e+00 0.000000e+00
 0.000000e+00 0.000000e+00 8.791108e-01 1.208893e-01 0.000000e+00
 0.000000e+00 0.000000e+00 0.000000e+00 6.773829e-01 3.226170e-01
 0.000000e+00 0.000000e+00 0.000000e+00 0.000000e+00 0.000000e+00
<ENDHMM>
~h "z^"
<BEGINHMM>
<NUMSTATES> 5
<STATE> 2
<MEAN> 26
 -9.825595e+00 2.833033e+00 1.147624e+01 -7.861640e+00 -1.427939e+00 -6.046968e+00 -4.609588e+00 -1.208749e+01 -2.182610e+00 -1.678965e+00 -3.568999e+00 4.501531e-01 1.915151e+01 -3.251271e+00 1.805557e+00 1.692113e+00 1.393464e+00 1.710935e+00 -5.759686e-02 2.001794e+00 -1.231277e+00 1.361988e+00 -6.556146e-01 3.011890e-01 6.237997e-01 -3.574152e-01
<VARIANCE> 26
 3.014450e+01 1.898794e+01 2.488820e+01 3.100431e+01 3.668901e+01 3.954266e+01 2.936053e+01 3.240718e+01 2.355967e+01 2.790690e+01 2.655326e+01 1.902869e+01 5.166302e-01 1.805703e+00 2.532316e+00 2.325027e+00 3.041590e+00 2.089616e+00 4.275202e+00 2.454434e+00 4.655468e+00 3.258794e+00 2.565698e+00 2.076542e+00 1.732504e+00 5.651924e-02
<GCONST> 9.560674e+01
<STATE> 3
<MEAN> 26
 -2.006972e+01 5.320615e+00 1.693390e+01 -5.260042e+00 4.129495e+00 -2.569398e+00 1.412901e+00 -1.018611e+01 -3.810193e-01 -2.346649e+00 -3.195919e+00 1.194480e+00 1.819712e+01 -1.159748e-01 -3.304844e-02 -2.022935e-01 -8.183534e-02 1.146324e-01 -1.706450e-01 -1.159911e-01 1.668817e-01 6.556390e-02 -1.245080e-01 7.968108e-02 4.499316e-03 1.930725e-02
<VARIANCE> 26
 1.625840e+01 8.713692e+00 1.339202e+01 2.180140e+01 2.783383e+01 3.205600e+01 2.795470e+01 1.653426e+01 1.596824e+01 1.862016e+01 1.659727e+01 1.463606e+01 3.529119e-01 3.966499e+00 1.085382e+00 1.958475e+00 1.030818e+00 1.826866e+00 2.984358e+00 2.873994e+00 1.636028e+00 1.139955e+00 1.137581e+00 1.503838e+00 1.289390e+00 4.199516e-02
<GCONST> 8.464890e+01
<STATE> 4
<MEAN> 26
 -9.796559e+00 1.130808e+00 9.180735e+00 -8.075521e+00 1.871192e-01 -7.791865e+00 -5.056029e+00 -1.177185e+01 -7.613871e-01 -1.658138e+00 -2.432115e+00 -1.587800e-01 1.922808e+01 3.558696e+00 -2.382393e+00 -1.730645e+00 -5.738823e-01 -2.135837e+00 3.504910e-01 -3.001981e+00 8.600180e-01 -7.991650e-01 3.628927e-01 9.624714e-01 -6.664287e-01 3.890129e-01
<VARIANCE> 26
 4.099771e+01 2.737197e+01 3.004209e+01 2.029984e+01 3.617096e+01 2.635602e+01 4.089561e+01 4.258606e+01 1.824736e+01 2.398408e+01 1.800375e+01 1.854408e+01 1.125304e+00 2.045789e+00 2.567816e+00 3.050914e+00 1.389238e+00 3.118371e+00 6.133467e+00 5.318779e+00 4.455659e+00 3.151224e+00 3.651993e+00 3.208273e+00 2.259003e+00 7.546537e-02
<GCONST> 9.861291e+01
<TRANSP> 5
 0.000000e+00 1.000000e+00 0.000000e+00 0.000000e+00 0.000000e+00
 0.000000e+00 6.983189e-01 3.016810e-01 0.000000e+00 0.000000e+00
 0.000000e+00 0.000000e+00 8.050630e-01 1.949371e-01 0.000000e+00
 0.000000e+00 0.000000e+00 0.000000e+00 6.206921e-01 3.793079e-01
 0.000000e+00 0.000000e+00 0.000000e+00 0.000000e+00 0.000000e+00
<ENDHMM>
