~o
<STREAMINFO> 1 26
<VECSIZE> 26<NULLD><MFCC_E_D><DIAGC>
~v "varFloor1"
<VARIANCE> 26
 7.528608e-01 4.836471e-01 6.936527e-01 1.165170e+00 5.971813e-01 4.755226e-01 8.837133e-01 4.464411e-01 6.617475e-01 5.043612e-01 3.577261e-01 3.682624e-01 2.346386e-01 2.926073e-02 2.980258e-02 2.837205e-02 5.332779e-02 3.412719e-02 3.071158e-02 4.275788e-02 3.327679e-02 3.738448e-02 3.113799e-02 2.695941e-02 2.419822e-02 4.406946e-03
~h "_"
<BEGINHMM>
<NUMSTATES> 5
<STATE> 2
<MEAN> 26
 -8.534029e+00 -5.180068e-01 -1.535176e+00 -1.159932e+01 -2.987760e+00 -6.315099e+00 -5.470349e+00 -5.530099e+00 -3.223971e+00 6.778711e+00 2.371364e+00 2.017765e-01 1.349804e+01 -1.312613e+00 7.675226e-01 -7.589048e-01 2.997873e+00 1.633890e-02 1.116893e+00 1.099374e+00 1.142651e+00 2.152689e+00 -4.420820e-01 6.887912e-01 -1.547605e-01 -1.431011e+00
<VARIANCE> 26
 2.462764e+01 3.240051e+01 6.548011e+01 8.534052e+01 6.161069e+01 9.242404e+01 6.739647e+01 5.880447e+01 1.287699e+02 1.001045e+02 6.644424e+01 4.803440e+01 9.500272e+00 2.653321e+00 3.871932e+00 6.176363e+00 6.208481e+00 6.204882e+00 5.895732e+00 5.826692e+00 6.662337e+00 9.783497e+00 8.184732e+00 6.458222e+00 5.138800e+00 3.366099e-01
<GCONST> 1.198421e+02
<STATE> 3
<MEAN> 26
 -1.358761e+01 1.786875e+00 -1.547469e+00 -4.609919e-01 4.360771e-01 5.254502e-01 -1.178155e+00 9.461941e-01 -4.123834e-01 1.192118e+00 1.340513e+00 -5.956558e-01 8.632985e+00 -2.207416e-01 -3.427797e-02 1.545165e-01 2.683142e-01 2.742377e-01 1.060599e-01 1.182173e-01 2.714185e-01 -9.543234e-02 -1.841984e-01 -1.936736e-01 3.568034e-02 -1.148410e-01
<VARIANCE> 26
 2.360235e+00 4.069741e+00 5.865816e+00 8.297318e+00 1.109495e+01 1.288900e+01 1.258254e+01 1.374465e+01 1.370604e+01 1.500593e+01 1.528292e+01 1.161258e+01 8.382727e-01 5.687221e-01 7.877113e-01 1.084038e+00 1.677323e+00 1.836024e+00 2.181038e+00 1.767246e+00 2.396788e+00 2.525529e+00 2.592937e+00 2.149368e+00 1.662909e+00 1.859115e-01
<GCONST> 7.847309e+01
<STATE> 4
<MEAN> 26
 -1.314842e+01 1.528689e+00 -8.578174e-01 -1.289139e+00 -1.989073e-02 -8.406347e-01 -1.634489e+00 8.123917e-01 -1.095308e+00 9.068484e-01 1.042061e+00 -6.937248e-01 9.252724e+00 2.132620e+00 -1.120260e+00 9.144703e-01 -3.257563e+00 -4.276299e-02 -1.376437e+00 -1.497961e+00 -9.558793e-01 -2.292946e+00 1.347039e-01 -8.638184e-01 -1.103681e-01 1.904939e+00
<VARIANCE> 26
 6.328180e+00 9.664845e+00 1.298300e+01 1.939351e+01 1.399283e+01 2.176203e+01 1.467193e+01 1.688231e+01 2.277008e+01 1.567663e+01 1.369758e+01 1.388527e+01 2.711528e+00 3.246303e+00 5.614449e+00 5.647394e+00 1.169166e+01 5.135061e+00 4.457838e+00 3.719135e+00 4.746872e+00 5.245846e+00 4.018473e+00 3.493739e+00 3.129410e+00 8.624318e-01
<GCONST> 9.916781e+01
<TRANSP> 5
 0.000000e+00 1.000000e+00 0.000000e+00 0.000000e+00 0.000000e+00
 0.000000e+00 7.960368e-01 2.039632e-01 0.000000e+00 0.000000e+00
 0.000000e+00 0.000000e+00 8.173708e-01 1.826292e-01 0.000000e+00
 0.000000e+00 0.000000e+00 0.000000e+00 4.285083e-01 5.714917e-01
 0.000000e+00 0.000000e+00 0.000000e+00 0.000000e+00 0.000000e+00
<ENDHMM>
~h "a"
<BEGINHMM>
<NUMSTATES> 5
<STATE> 2
<MEAN> 26
 -1.212349e+00 -9.655310e+00 -2.170950e+00 -2.150206e+01 7.430002e-03 -8.879770e-03 -1.204378e+01 -3.056460e-02 -3.993632e+00 6.363845e+00 -1.541154e+00 -8.489669e+00 2.011592e+01 1.836324e+00 -3.237322e+00 -1.024802e+00 -3.442008e+00 7.324383e-01 7.775220e-01 -1.058028e+00 1.586312e+00 -8.345666e-02 5.973899e-01 -9.979399e-01 -2.356700e+00 8.976167e-01
<VARIANCE> 26
 1.901972e+01 3.527079e+01 3.593092e+01 4.982360e+01 6.318422e+01 4.939206e+01 9.017891e+01 5.510577e+01 3.175043e+01 3.742603e+01 3.418832e+01 2.939046e+01 6.685512e+00 3.533219e+00 2.932527e+00 3.243090e+00 7.255802e+00 4.354853e+00 3.894250e+00 6.876552e+00 7.705896e+00 5.133123e+00 4.179122e+00 2.704840e+00 2.836327e+00 7.748745e-01
<GCONST> 1.113787e+02
<STATE> 3
<MEAN> 26
 6.736417e-01 -1.614699e+01 -5.401247e+00 -2.613087e+01 4.810905e+00 3.314733e+00 -1.153130e+01 1.670672e+00 -3.596724e+00 3.836800e+00 -4.432864e+00 -1.288230e+01 2.180339e+01 -6.215901e-02 -1.661656e-01 2.477564e-02 1.362052e-01 2.024493e-01 -4.328572e-01 3.495079e-01 -9.877045e-02 4.622772e-02 -1.528461e-01 -2.855857e-01 1.027180e-01 -2.177449e-03
<VARIANCE> 26
 6.736021e+00 1.701050e+01 2.241446e+01 2.124405e+01 3.948093e+01 4.511329e+01 4.071490e+01 5.217629e+01 2.548380e+01 2.652374e+01 2.967942e+01 2.068141e+01 4.847522e-01 5.499088e-01 1.519740e+00 2.058922e+00 1.623524e+00 2.889203e+00 2.679527e+00 2.861552e+00 2.629301e+00 1.521539e+00 2.091179e+00 2.224648e+00 1.854210e+00 4.179085e-02
<GCONST> 9.054122e+01
<STATE> 4
<MEAN> 26
 2.364516e-01 -1.032548e+01 -1.153962e+00 -2.062750e+01 1.173144e+00 -4.049582e+00 -1.056140e+01 -8.534164e-01 -4.754222e+00 5.511128e+00 -4.374188e+00 -7.852615e+00 2.055900e+01 -4.823667e-01 3.430017e+00 1.266019e+00 3.539282e+00 -2.234384e-01 -5.878149e-01 6.700619e-01 -1.980775e+00 -4.694028e-01 -6.558048e-01 4.025697e-01 1.573037e+00 -6.390010e-01
<VARIANCE> 26
 1.023499e+01 3.442968e+01 3.730555e+01 4.048507e+01 4.472951e+01 6.550583e+01 7.136483e+01 7.305528e+01 3.852424e+01 3.095278e+01 3.759391e+01 2.607938e+01 1.142326e+00 2.109593e+00 4.449286e+00 2.799074e+00 5.175173e+00 3.766106e+00 3.549396e+00 4.539536e+00 4.350206e+00 4.566097e+00 3.100016e+00 2.662882e+00 1.910943e+00 1.902589e-01
<GCONST> 1.047222e+02
<TRANSP> 5
 0.000000e+00 1.000000e+00 0.000000e+00 0.000000e+00 0.000000e+00
 0.000000e+00 5.931256e-01 4.068744e-01 0.000000e+00 0.000000e+00
 0.000000e+00 0.000000e+00 8.351751e-01 1.648249e-01 0.000000e+00
 0.000000e+00 0.000000e+00 0.000000e+00 6.543590e-01 3.456410e-01
 0.000000e+00 0.000000e+00 0.000000e+00 0.000000e+00 0.000000e+00
<ENDHMM>
~h "b"
<BEGINHMM>
<NUMSTATES> 5
<STATE> 2
<MEAN> 26
 4.868491e+00 2.506013e+00 4.970930e+00 -6.960858e-01 -2.067942e+00 5.912146e+00 -1.156404e+01 -5.727192e+00 -1.513315e+01 -5.194439e+00 4.751757e+00 -6.883609e+00 1.873753e+01 1.888721e+00 2.779526e+00 -8.120766e-02 1.381768e+00 2.159789e+00 8.930353e-02 3.982345e-01 -1.450587e+00 1.226860e+00 6.990572e-01 6.591890e-01 1.730924e-01 -1.950883e-01
<VARIANCE> 26
 2.309789e+01 2.068249e+01 3.162446e+01 3.745623e+01 5.568907e+01 5.621498e+01 3.992134e+01 3.360756e+01 9.048624e+01 6.539119e+01 3.410557e+01 3.094768e+01 2.857032e+00 2.957247e+00 2.595680e+00 3.425593e+00 9.763190e+00 4.440855e+00 5.082440e+00 4.890676e+00 3.301925e+00 8.913413e+00 5.332510e+00 4.006274e+00 2.969084e+00 2.927498e-01
<GCONST> 1.095342e+02
<STATE> 3
<MEAN> 26
 7.283882e+00 1.112055e+01 5.830351e+00 9.094151e-01 3.667298e+00 4.381041e+00 -8.838894e+00 -8.340682e+00 -8.434875e+00 -8.933848e-01 5.665843e+00 -5.293837e+00 1.777308e+01 -7.793462e-01 3.965767e-01 -6.840705e-02 -1.767812e-01 4.310932e-01 -2.039154e-01 8.063925e-01 -3.570801e-01 4.772415e-01 2.785355e-01 -5.718348e-01 5.370859e-01 -1.228032e-01
<VARIANCE> 26
 6.996089e+00 1.918479e+01 1.407803e+01 2.869427e+01 3.032852e+01 2.831198e+01 4.395831e+01 1.808203e+01 1.894340e+01 2.806860e+01 2.323915e+01 2.422886e+01 6.442012e-01 2.317432e+00 3.938820e+00 1.571895e+00 4.045878e+00 2.372669e+00 2.013660e+00 1.634174e+00 2.002914e+00 3.289548e+00 2.001754e+00 2.773539e+00 1.545933e+00 2.845741e-02
<GCONST> 9.088107e+01
<STATE> 4
<MEAN> 26
 -4.966179e-01 4.326962e+00 5.968795e+00 -5.757465e+00 4.292194e+00 1.549153e+00 -7.600448e+00 -9.285127e+00 -8.220396e+00 3.089641e-01 -5.161299e-01 -2.942342e+00 1.813013e+01 -1.297901e+00 -3.513844e+00 -7.021984e-01 -2.676696e+00 -7.728846e-01 -1.091039e+00 -1.376155e+00 2.453841e-01 7.959175e-01 8.525207e-01 -5.993229e-01 8.111221e-01 4.279246e-01
<VARIANCE> 26
 1.662889e+01 3.872953e+01 1.699986e+01 6.157689e+01 3.107432e+01 2.713926e+01 6.491067e+01 2.081586e+01 3.444518e+01 5.188075e+01 3.728745e+01 1.971679e+01 1.135081e+00 2.278463e+00 4.320918e+00 3.297510e+00 6.365287e+00 4.063994e+00 5.000362e+00 4.477012e+00 3.213816e+00 2.912590e+00 5.695693e+00 3.166639e+00 2.415013e+00 1.282552e-01
<GCONST> 1.031658e+02
<TRANSP> 5
 0.000000e+00 1.000000e+00 0.000000e+00 0.000000e+00 0.000000e+00
 0.000000e+00 5.666170e-01 4.333830e-01 0.000000e+00 0.000000e+00
 0.000000e+00 0.000000e+00 7.564756e-01 2.435244e-01 0.000000e+00
 0.000000e+00 0.000000e+00 0.000000e+00 4.725017e-01 5.274984e-01
 0.000000e+00 0.000000e+00 0.000000e+00 0.000000e+00 0.000000e+00
<ENDHMM>
~h "d"
<BEGINHMM>
<NUMSTATES> 5
<STATE> 2
<MEAN> 26
 3.655268e+00 8.188017e+00 9.689219e+00 1.953189e+00 -2.537354e+00 -3.034425e+00 -9.651708e+00 -9.445341e-01 -6.794604e+00 1.183892e+00 -1.608145e+00 -8.434135e+00 1.777411e+01 1.994495e+00 2.620784e+00 5.939048e-01 2.482494e+00 2.904056e-01 -1.407151e+00 6.687844e-01 6.595787e-01 2.717252e+00 2.209652e-01 -1.156356e+00 -1.161830e+00 -6.812006e-02
<VARIANCE> 26
 2.665296e+01 3.201514e+01 5.066745e+01 3.654160e+01 3.733227e+01 5.099569e+01 4.547591e+01 3.124372e+01 6.395000e+01 2.267509e+01 3.436424e+01 4.406340e+01 3.214122e+00 3.097084e+00 4.078262e+00 4.396208e+00 8.491245e+00 4.226500e+00 3.156418e+00 6.112764e+00 2.804362e+00 6.559944e+00 2.700558e+00 2.693355e+00 3.785361e+00 6.876710e-01
<GCONST> 1.090480e+02
<STATE> 3
<MEAN> 26
 5.519456e+00 1.453354e+01 1.171361e+01 5.811018e+00 -2.492325e+00 -6.754519e+00 -7.916273e+00 9.503546e-01 5.367628e-01 7.162373e-01 -4.465036e+00 -8.517766e+00 1.746923e+01 -1.674482e+00 -5.990398e-01 -9.746719e-02 -9.406059e-01 9.871304e-01 8.344470e-01 8.341141e-01 -7.690569e-01 2.934971e-01 -2.351607e-01 -1.116515e-01 1.247746e+00 -1.254469e-01
<VARIANCE> 26
 6.994988e+00 1.858258e+01 1.432815e+01 1.328949e+01 2.095735e+01 2.084860e+01 1.954738e+01 1.866070e+01 2.493837e+01 1.388632e+01 2.369867e+01 2.014631e+01 4.151717e-01 3.454692e+00 6.398563e+00 2.962258e+00 4.232020e+00 3.363066e+00 4.286631e+00 2.688717e+00 2.911523e+00 3.719457e+00 1.992066e+00 2.310688e+00 2.589216e+00 5.298258e-02
<GCONST> 9.222155e+01
<STATE> 4
<MEAN> 26
 -7.196358e+00 2.466378e+00 8.484509e+00 -5.875277e+00 3.490499e+00 1.414725e-01 -5.303761e+00 -6.704597e+00 -3.691598e+00 -2.043635e-01 -3.254576e+00 -9.532501e-01 1.779156e+01 -3.011337e+00 -3.060517e+00 1.755064e-02 -3.341868e+00 -2.489121e-01 3.747469e-01 -1.111466e+00 -1.268068e+00 -1.065210e+00 -4.270482e-01 1.041488e+00 1.786798e+00 4.636990e-01
<VARIANCE> 26
 2.253266e+01 5.127267e+01 4.293284e+01 5.015640e+01 3.257879e+01 6.605252e+01 4.373803e+01 3.442843e+01 2.524007e+01 2.803910e+01 2.313275e+01 2.592717e+01 1.273719e+00 4.183196e+00 5.129662e+00 4.938631e+00 5.006297e+00 5.347898e+00 4.710618e+00 6.655901e+00 3.546853e+00 4.509872e+00 5.252542e+00 2.800992e+00 3.128201e+00 1.945449e-01
<GCONST> 1.070638e+02
<TRANSP> 5
 0.000000e+00 1.000000e+00 0.000000e+00 0.000000e+00 0.000000e+00
 0.000000e+00 5.940166e-01 4.059834e-01 0.000000e+00 0.000000e+00
 0.000000e+00 0.000000e+00 7.138736e-01 2.861264e-01 0.000000e+00
 0.000000e+00 0.000000e+00 0.000000e+00 5.665192e-01 4.334808e-01
 0.000000e+00 0.000000e+00 0.000000e+00 0.000000e+00 0.000000e+00
<ENDHMM>
~h "e"
<BEGINHMM>
<NUMSTATES> 5
<STATE> 2
<MEAN> 26
 -3.287631e+00 -7.120284e+00 8.340802e+00 -1.472690e+01 -7.299354e+00 -7.453485e+00 -1.667715e+01 1.171687e+00 -7.769290e+00 2.548771e+00 1.310276e+00 -3.169508e+00 2.025992e+01 1.940039e+00 -2.842969e+00 1.582616e+00 -2.799867e+00 -2.518031e+00 -1.275052e+00 -2.679805e+00 2.657182e+00 -1.245840e+00 1.072888e+00 1.667494e-01 -8.529376e-01 8.098313e-01
<VARIANCE> 26
 1.155880e+01 3.492684e+01 4.704410e+01 3.858654e+01 3.409032e+01 3.504377e+01 6.169165e+01 4.169921e+01 3.358225e+01 3.337277e+01 3.343235e+01 1.981399e+01 2.979462e+00 4.250208e+00 2.644939e+00 4.370926e+00 3.677488e+00 4.602424e+00 3.567001e+00 6.215249e+00 4.569488e+00 4.501418e+00 3.113247e+00 3.478712e+00 2.363355e+00 3.475886e-01
<GCONST> 1.058688e+02
<STATE> 3
<MEAN> 26
 -2.146445e+00 -1.175352e+01 9.110443e+00 -2.020968e+01 -1.036976e+01 -8.574071e+00 -1.579148e+01 6.985537e+00 -7.993681e+00 5.126151e+00 9.347866e-01 -4.520115e+00 2.125045e+01 -5.865119e-03 -1.424264e-01 8.657612e-02 -3.142757e-01 1.114281e-01 -2.454927e-01 5.289131e-01 -1.329212e-01 -1.855600e-01 7.293404e-03 -1.936836e-01 -8.807954e-02 -1.431467e-02
<VARIANCE> 26
 7.263010e+00 2.107026e+01 4.215335e+01 1.937268e+01 2.784609e+01 2.830771e+01 3.707507e+01 2.751906e+01 3.632932e+01 2.070794e+01 2.436909e+01 1.390296e+01 3.403578e-01 4.625500e-01 9.630184e-01 1.828562e+00 1.563859e+00 1.812636e+00 1.731351e+00 2.159598e+00 2.302810e+00 1.960151e+00 1.501226e+00 1.544754e+00 1.126015e+00 2.013029e-02
<GCONST> 8.520615e+01
<STATE> 4
<MEAN> 26
 -2.119135e+00 -9.453125e+00 9.311348e+00 -1.808563e+01 -6.126941e+00 -8.302252e+00 -1.350516e+01 4.818133e-01 -1.025125e+01 3.269959e+00 -1.513287e+00 -4.585144e+00 2.042195e+01 -2.403491e-01 2.217617e+00 -5.428022e-01 2.193116e+00 2.060466e+00 1.195527e+00 1.310896e+00 -2.565440e+00 5.900496e-01 -7.737210e-01 -9.001443e-01 1.012131e-01 -4.901435e-01
<VARIANCE> 26
 8.766302e+00 3.341616e+01 6.783892e+01 3.866829e+01 3.718411e+01 4.117778e+01 6.025183e+01 4.348539e+01 7.004989e+01 3.367444e+01 3.509044e+01 2.372161e+01 8.384135e-01 1.512849e+00 3.405566e+00 3.667200e+00 4.445884e+00 2.200808e+00 3.279881e+00 3.948045e+00 4.499359e+00 4.839278e+00 3.087200e+00 2.470871e+00 1.653820e+00 9.686810e-02
<GCONST> 1.019176e+02
<TRANSP> 5
 0.000000e+00 1.000000e+00 0.000000e+00 0.000000e+00 0.000000e+00
 0.000000e+00 5.675182e-01 4.324818e-01 0.000000e+00 0.000000e+00
 0.000000e+00 0.000000e+00 8.477920e-01 1.522080e-01 0.000000e+00
 0.000000e+00 0.000000e+00 0.000000e+00 6.559006e-01 3.440993e-01
 0.000000e+00 0.000000e+00 0.000000e+00 0.000000e+00 0.000000e+00
<ENDHMM>
~h "f"
<BEGINHMM>
<NUMSTATES> 5
<STATE> 2
<MEAN> 26
 -1.584610e+01 -2.338933e+00 1.213447e+00 -5.245667e+00 2.864756e+00 3.531710e-01 -1.099736e+00 -1.696465e+00 -1.796856e+00 1.851355e+00 -2.682602e+00 -2.013929e-01 1.555195e+01 -3.345477e+00 -1.935277e+00 -2.037612e+00 -2.579730e-01 5.939050e-01 3.883925e-01 5.889310e-01 4.916382e-01 1.336710e+00 9.214889e-01 5.990536e-01 1.118877e+00 -8.058683e-01
<VARIANCE> 26
 3.714811e+01 1.980719e+01 3.090256e+01 2.100157e+01 2.310769e+01 2.419225e+01 2.214769e+01 2.245311e+01 3.042485e+01 2.790460e+01 2.045942e+01 1.338054e+01 4.825892e+00 3.700598e+00 1.613916e+00 3.247462e+00 5.903332e+00 5.108105e+00 4.334163e+00 4.426579e+00 3.314093e+00 3.765986e+00 2.960700e+00 2.710219e+00 1.869434e+00 3.251401e-01
<GCONST> 1.007612e+02
<STATE> 3
<MEAN> 26
 -2.246295e+01 -6.408115e+00 -4.972719e+00 -8.935452e+00 5.294902e-01 5.044339e-01 -3.743872e+00 -2.975555e+00 -1.600133e+00 5.576524e+00 1.142947e-01 3.539079e+00 1.403624e+01 -1.038274e-01 -6.227934e-02 -1.841965e-01 -9.525757e-02 -2.648993e-01 -2.240829e-02 -2.017338e-01 -1.448407e-01 -9.202934e-02 1.205982e-01 8.517264e-02 1.072477e-01 4.022161e-03
<VARIANCE> 26
 6.612222e+00 5.712935e+00 8.995154e+00 1.122534e+01 2.021006e+01 1.884201e+01 1.848170e+01 1.883702e+01 1.914519e+01 1.927526e+01 1.576845e+01 1.514081e+01 1.257641e+00 7.523218e-01 5.732758e-01 8.739189e-01 1.126204e+00 1.644250e+00 1.448242e+00 1.803320e+00 1.895495e+00 1.831778e+00 2.008055e+00 1.664338e+00 1.614800e+00 7.452286e-02
<GCONST> 8.037600e+01
<STATE> 4
<MEAN> 26
 -1.941973e+01 -5.601469e+00 -2.331755e+00 -8.514136e+00 2.678947e-01 -1.950229e-01 -2.708924e+00 -3.126841e+00 -1.856693e+00 3.661047e+00 -1.806720e+00 1.937491e+00 1.499680e+01 3.521343e+00 1.526800e+00 1.705609e+00 -4.521279e-02 1.991236e-01 2.086150e-01 -7.480696e-01 -4.892681e-01 -1.148294e+00 -1.627969e+00 -7.303322e-01 -1.244678e+00 8.307358e-01
<VARIANCE> 26
 1.797671e+01 1.033877e+01 2.034831e+01 1.542413e+01 3.334765e+01 2.446992e+01 1.743133e+01 2.361898e+01 1.865623e+01 2.013976e+01 1.953673e+01 2.478696e+01 1.449708e+00 4.384772e+00 1.467385e+00 3.258445e+00 3.836327e+00 3.119126e+00 3.737739e+00 4.781443e+00 3.486197e+00 4.211614e+00 2.314559e+00 3.687257e+00 2.029917e+00 3.490415e-01
<GCONST> 9.686065e+01
<TRANSP> 5
 0.000000e+00 1.000000e+00 0.000000e+00 0.000000e+00 0.000000e+00
 0.000000e+00 7.047387e-01 2.952614e-01 0.000000e+00 0.000000e+00
 0.000000e+00 0.000000e+00 8.905217e-01 1.094783e-01 0.000000e+00
 0.000000e+00 0.000000e+00 0.000000e+00 6.121165e-01 3.878835e-01
 0.000000e+00 0.000000e+00 0.000000e+00 0.000000e+00 0.000000e+00
<ENDHMM>
~h "g"
<BEGINHMM>
<NUMSTATES> 5
<STATE> 2
<MEAN> 26
 1.333074e+00 8.405941e+00 1.178514e+01 2.204345e+00 -5.856061e+00 -3.859419e+00 -6.546019e+00 -4.667855e-01 -1.267297e+01 -5.686889e-01 4.910536e+00 -8.773766e+00 1.787845e+01 2.053540e+00 1.313174e+00 4.233352e-01 1.979195e+00 -1.619805e+00 -1.209073e+00 1.346957e+00 1.151241e-01 -1.866126e-01 3.882627e-03 1.087419e+00 -4.988857e-01 3.321970e-02
<VARIANCE> 26
 4.207838e+01 4.691140e+01 7.180746e+01 3.904595e+01 7.620688e+01 2.535441e+01 4.231191e+01 3.387960e+01 7.175551e+01 3.007163e+01 4.081905e+01 4.746158e+01 2.265814e+00 4.848673e+00 5.008144e+00 4.647427e+00 2.506459e+00 7.058218e+00 2.467907e+00 5.186019e+00 3.799164e+00 1.186087e+01 2.134642e+00 4.242543e+00 2.547155e+00 4.174761e-01
<GCONST> 1.104309e+02
<STATE> 3
<MEAN> 26
 5.248866e+00 8.962126e+00 1.075906e+01 2.955592e+00 -1.094114e+01 -3.333580e+00 -3.104305e+00 1.146573e+00 -1.460155e+01 -4.138367e+00 8.523139e+00 -1.010666e+01 1.834698e+01 -1.495904e+00 -7.871215e-01 -1.463621e-01 -1.722056e+00 2.441984e+00 1.568953e+00 -9.335970e-02 -8.414015e-01 3.928439e-01 3.038402e-01 -1.628920e+00 1.839930e+00 -1.567764e-01
<VARIANCE> 26
 6.889925e+00 1.959250e+01 5.835809e+01 3.509661e+01 4.183674e+01 2.675952e+01 2.969830e+01 2.041958e+01 8.354559e+01 3.926904e+01 4.669641e+01 2.977039e+01 7.882866e-01 3.835275e+00 3.829550e+00 5.106869e+00 4.213759e+00 5.770687e+00 1.706448e+00 3.389783e+00 5.081468e+00 3.328022e+00 4.577297e+00 5.683046e+00 3.446542e+00 9.106238e-02
<GCONST> 1.030297e+02
<STATE> 4
<MEAN> 26
 -4.288859e+00 1.909447e+00 9.115953e+00 -7.244037e+00 7.692966e-01 1.795478e+00 -9.027704e+00 -3.347135e+00 -1.385533e+01 9.393755e-01 1.058676e-01 -2.529260e+00 1.802623e+01 -2.043599e+00 -1.767320e+00 7.201808e-02 -2.532099e+00 9.413534e-02 -2.259131e-01 -1.857235e+00 -7.576558e-02 4.029378e-01 -3.298062e-01 -4.221957e-02 1.821229e+00 3.040417e-01
<VARIANCE> 26
 3.171505e+01 3.555093e+01 7.454866e+01 5.819013e+01 5.681542e+01 4.774659e+01 6.095887e+01 3.004415e+01 4.134666e+01 3.741436e+01 5.282541e+01 1.390190e+01 1.553970e+00 3.682669e+00 7.060636e+00 7.159282e+00 3.606551e+00 9.163878e+00 4.917638e+00 4.698379e+00 4.855188e+00 5.642145e+00 6.277501e+00 4.312329e+00 3.313220e+00 1.839571e-01
<GCONST> 1.109685e+02
<TRANSP> 5
 0.000000e+00 1.000000e+00 0.000000e+00 0.000000e+00 0.000000e+00
 0.000000e+00 6.141211e-01 3.858789e-01 0.000000e+00 0.000000e+00
 0.000000e+00 0.000000e+00 5.920205e-01 4.079795e-01 0.000000e+00
 0.000000e+00 0.000000e+00 0.000000e+00 5.565374e-01 4.434626e-01
 0.000000e+00 0.000000e+00 0.000000e+00 0.000000e+00 0.000000e+00
<ENDHMM>
~h "h"
<BEGINHMM>
<NUMSTATES> 5
<STATE> 2
<MEAN> 26
 -1.991516e+01 -7.454468e+00 5.819596e+00 -2.935181e+00 -6.037283e+00 -1.949568e+00 -3.786526e-01 -1.392577e+00 -5.441906e+00 3.270245e+00 -7.483665e-01 1.982933e+00 1.664437e+01 6.806675e-01 -1.989054e-02 1.715250e+00 2.434576e+00 -2.266494e-01 -1.337521e+00 -1.481027e-01 3.640251e-01 -6.881952e-01 -1.347165e+00 -3.458656e-01 -5.141802e-01 3.945076e-01
<VARIANCE> 26
 3.525087e+01 2.345368e+01 2.951224e+01 2.950367e+01 2.967021e+01 4.215024e+01 2.648363e+01 2.993860e+01 2.334343e+01 3.187590e+01 1.298575e+01 1.760787e+01 8.622616e-01 4.458965e+00 2.226405e+00 1.996639e+00 2.180903e+00 1.989770e+00 3.268397e+00 4.621737e+00 2.914724e+00 2.530952e+00 5.432057e+00 1.636442e+00 1.573927e+00 2.431560e-01
<GCONST> 9.736720e+01
<STATE> 3
<MEAN> 26
 -7.340987e+00 -2.608432e+00 1.452508e+01 7.592468e+00 -5.447121e+00 -8.177617e+00 -1.109637e+01 -1.318950e+00 -1.067725e+01 -1.086672e+01 -2.208251e+00 2.671976e+00 1.914258e+01 2.999621e+00 -1.648326e-01 1.781447e+00 1.338534e+00 -4.530166e-01 -1.267930e+00 -4.021898e+00 5.757184e-01 -1.047599e+00 -5.016726e+00 1.099322e+00 7.853780e-01 6.661719e-01
<VARIANCE> 26
 2.055853e+01 1.102807e+01 1.789476e+01 1.027210e+01 2.043438e+01 1.804706e+01 4.537965e+01 1.686606e+01 2.827421e+01 3.766967e+01 1.428854e+01 2.074904e+01 4.202354e-01 3.212038e+00 2.558243e+00 2.406931e+00 2.980891e+00 3.241858e+00 3.585973e+00 4.120493e+00 2.537736e+00 3.617205e+00 5.069164e+00 2.659426e+00 2.431395e+00 1.735776e-01
<GCONST> 9.467040e+01
<STATE> 4
<MEAN> 26
 -3.504040e+00 -5.965814e+00 1.790283e+01 6.456615e+00 -6.696080e+00 -6.256121e+00 -1.822443e+01 9.991511e-01 -9.883037e+00 -1.894857e+01 4.972085e+00 2.380453e+00 1.992637e+01 -5.999075e-02 -3.038818e-01 8.089211e-01 -1.145932e+00 -9.764629e-01 9.109600e-01 -4.937199e-01 -2.974533e-01 5.494970e-02 1.821458e-01 7.870285e-01 -8.167328e-01 1.231865e-01
<VARIANCE> 26
 6.302709e+00 1.254712e+01 2.874189e+01 4.316980e+01 1.904274e+01 1.860961e+01 4.039257e+01 2.242899e+01 3.665710e+01 4.293750e+01 1.676838e+01 2.509550e+01 3.013778e-01 8.565665e-01 5.521011e-01 2.475668e+00 3.133185e+00 2.568969e+00 2.419875e+00 3.190003e+00 2.255004e+00 1.497190e+00 4.754695e+00 1.610994e+00 1.288119e+00 2.108286e-02
<GCONST> 8.809584e+01
<TRANSP> 5
 0.000000e+00 1.000000e+00 0.000000e+00 0.000000e+00 0.000000e+00
 0.000000e+00 7.404053e-01 2.595948e-01 0.000000e+00 0.000000e+00
 0.000000e+00 0.000000e+00 6.262591e-01 3.737409e-01 0.000000e+00
 0.000000e+00 0.000000e+00 0.000000e+00 7.986533e-01 2.013467e-01
 0.000000e+00 0.000000e+00 0.000000e+00 0.000000e+00 0.000000e+00
<ENDHMM>
~h "i"
<BEGINHMM>
<NUMSTATES> 5
<STATE> 2
<MEAN> 26
 -1.101705e+01 4.786099e+00 1.801675e+01 -8.323222e+00 -2.484387e+00 -3.080047e+00 -1.383156e+01 -7.163298e+00 -8.641634e+00 -9.973889e+00 -1.967815e+00 1.911474e+00 1.928913e+01 1.071519e+00 -1.775520e-01 3.226814e+00 -1.248517e+00 -1.631496e+00 5.496404e-01 -2.693631e+00 -7.707685e-02 -2.013124e+00 -2.314119e+00 7.696666e-01 -3.004039e-01 4.336605e-01
<VARIANCE> 26
 2.393884e+01 3.359955e+01 2.864585e+01 2.828284e+01 4.803980e+01 2.610481e+01 3.387082e+01 2.869734e+01 3.741792e+01 4.472490e+01 3.279138e+01 2.250352e+01 1.300177e+00 4.127617e+00 3.085609e+00 4.121294e+00 3.720333e+00 5.482134e+00 3.629805e+00 4.069089e+00 2.501000e+00 4.451316e+00 3.969798e+00 3.034611e+00 2.185039e+00 1.641630e-01
<GCONST> 1.030165e+02
<STATE> 3
<MEAN> 26
 -9.854384e+00 4.038537e+00 2.285917e+01 -1.225529e+01 -6.111637e+00 2.059603e+00 -2.016239e+01 -4.364063e+00 -1.341595e+01 -1.460836e+01 3.251106e+00 -1.558086e+00 1.999687e+01 -4.767517e-02 2.591183e-01 9.733068e-02 -5.642693e-01 -2.497452e-01 2.306257e-01 -2.130382e-01 2.732334e-01 -5.240102e-01 2.518159e-01 3.112717e-02 -4.869079e-01 -1.216346e-02
<VARIANCE> 26
 7.656806e+00 1.787496e+01 1.577905e+01 2.439881e+01 3.403746e+01 2.369774e+01 2.731923e+01 2.554527e+01 4.219654e+01 2.755232e+01 3.187355e+01 2.150147e+01 3.803896e-01 8.346633e-01 1.949556e+00 1.729192e+00 2.008310e+00 2.413991e+00 2.129047e+00 2.355236e+00 2.025015e+00 2.434228e+00 2.320573e+00 1.852799e+00 1.355495e+00 2.251742e-02
<GCONST> 8.830952e+01
<STATE> 4
<MEAN> 26
 -7.818336e+00 4.564522e+00 1.792773e+01 -1.012948e+01 -5.915714e+00 -1.761377e+00 -1.409145e+01 -4.921734e+00 -1.309712e+01 -7.591740e+00 -2.088976e-01 -2.019045e+00 1.930677e+01 6.430292e-01 3.352340e-01 -2.123057e+00 1.727997e+00 9.183037e-01 -8.609106e-01 2.140305e+00 -3.582807e-01 1.223684e+00 1.682893e+00 -8.766326e-01 5.567209e-02 -3.444313e-01
<VARIANCE> 26
 2.321752e+01 5.068153e+01 3.625316e+01 5.839547e+01 5.579330e+01 3.230838e+01 5.001437e+01 4.382288e+01 6.998241e+01 4.431461e+01 4.824796e+01 3.243925e+01 1.419497e+00 4.004366e+00 3.700521e+00 3.638233e+00 4.363440e+00 4.286132e+00 3.896946e+00 3.854342e+00 3.840771e+00 4.527730e+00 3.890583e+00 3.292445e+00 3.087051e+00 1.340749e-01
<GCONST> 1.075974e+02
<TRANSP> 5
 0.000000e+00 1.000000e+00 0.000000e+00 0.000000e+00 0.000000e+00
 0.000000e+00 5.978197e-01 4.021803e-01 0.000000e+00 0.000000e+00
 0.000000e+00 0.000000e+00 8.003402e-01 1.996598e-01 0.000000e+00
 0.000000e+00 0.000000e+00 0.000000e+00 7.057927e-01 2.942073e-01
 0.000000e+00 0.000000e+00 0.000000e+00 0.000000e+00 0.000000e+00
<ENDHMM>
~h "j"
<BEGINHMM>
<NUMSTATES> 5
<STATE> 2
<MEAN> 26
 -1.104098e+01 6.176955e+00 2.162659e+01 -8.299438e+00 -2.208208e+00 -1.989293e+00 -1.433825e+01 -4.820270e+00 -1.045860e+01 -7.537979e+00 -1.676446e-01 1.395222e+00 1.913803e+01 9.650673e-01 -1.366067e-01 7.340921e-01 2.956980e-01 -7.447277e-01 -5.748196e-01 -1.072287e+00 5.152866e-01 -6.836646e-01 -1.311677e+00 4.350989e-01 3.889913e-02 2.211101e-01
<VARIANCE> 26
 1.497344e+01 2.382240e+01 2.368207e+01 4.436662e+01 4.533206e+01 2.581747e+01 3.587860e+01 2.993685e+01 4.325176e+01 3.550114e+01 2.277812e+01 1.870504e+01 6.841540e-01 6.513448e+00 4.053060e+00 3.731396e+00 3.436595e+00 4.535531e+00 4.073766e+00 5.828338e+00 3.466712e+00 3.356513e+00 4.669911e+00 2.007896e+00 1.439001e+00 1.753768e-01
<GCONST> 1.014942e+02
<STATE> 3
<MEAN> 26
 -6.659084e+00 -1.693317e+00 1.752840e+01 -7.040954e+00 -1.061266e+01 -5.070713e+00 -1.801242e+01 -2.054915e+00 -1.130931e+01 -1.048021e+01 1.929514e+00 7.669417e-01 2.025130e+01 2.754144e+00 -2.788254e+00 -1.464072e+00 -1.177004e+00 -1.818175e+00 -8.726715e-01 -3.007439e+00 2.941935e+00 9.870377e-02 3.971857e-01 1.582434e+00 -9.714850e-01 4.975430e-01
<VARIANCE> 26
 9.446305e+00 1.637164e+01 3.365656e+01 8.414165e+01 2.680278e+01 3.128563e+01 3.373028e+01 4.105795e+01 3.594282e+01 4.672026e+01 1.740436e+01 1.079826e+01 5.284156e-01 3.205065e+00 1.734269e+00 3.763348e+00 3.637341e+00 4.673769e+00 3.802381e+00 7.749729e+00 3.230154e+00 2.743599e+00 9.192239e+00 3.554780e+00 2.145333e+00 6.520355e-02
<GCONST> 9.972273e+01
<STATE> 4
<MEAN> 26
 -2.236557e+00 -7.928830e+00 9.443869e+00 -1.270076e+01 -1.080447e+01 -1.834788e+00 -2.212531e+01 4.456030e+00 -8.792994e+00 -1.953517e+00 3.584752e+00 -3.682911e+00 2.081477e+01 1.230326e+00 -9.602598e-01 -2.918194e+00 -1.794742e+00 8.111079e-01 2.244584e+00 2.311285e-01 1.663116e-01 2.639882e-01 2.258337e+00 3.104653e-01 -1.289375e+00 1.031304e-01
<VARIANCE> 26
 7.350496e+00 2.077032e+01 5.208102e+01 5.973340e+01 2.474776e+01 3.848630e+01 3.791367e+01 3.305540e+01 3.933412e+01 7.004324e+01 4.310006e+01 2.811658e+01 8.640237e-01 7.978719e-01 3.249701e+00 2.434671e+00 4.511565e+00 3.298562e+00 5.502426e+00 6.298456e+00 6.570523e+00 4.877768e+00 3.624879e+00 5.721765e+00 2.087150e+00 4.446024e-02
<GCONST> 1.019335e+02
<TRANSP> 5
 0.000000e+00 1.000000e+00 0.000000e+00 0.000000e+00 0.000000e+00
 0.000000e+00 7.141632e-01 2.858368e-01 0.000000e+00 0.000000e+00
 0.000000e+00 0.000000e+00 4.635013e-01 5.364987e-01 0.000000e+00
 0.000000e+00 0.000000e+00 0.000000e+00 5.815393e-01 4.184607e-01
 0.000000e+00 0.000000e+00 0.000000e+00 0.000000e+00 0.000000e+00
<ENDHMM>
~h "k"
<BEGINHMM>
<NUMSTATES> 5
<STATE> 2
<MEAN> 26
 -8.529292e+00 7.157137e-01 3.106635e-02 -1.041778e+00 1.914238e+00 4.611548e-01 -2.528414e+00 -8.287706e-01 -6.001581e+00 -1.488508e-02 -1.680262e-01 -2.216595e+00 1.253639e+01 -1.452756e+00 -1.076704e+00 -1.336141e+00 -1.116428e+00 2.092603e-01 4.520092e-01 2.578163e-01 -4.868782e-01 6.905553e-01 1.778809e-01 -1.063069e-01 9.033009e-01 -4.264627e-01
<VARIANCE> 26
 3.927393e+01 3.939799e+01 4.043739e+01 4.280347e+01 3.266153e+01 3.178147e+01 4.264225e+01 3.120999e+01 5.244017e+01 4.218389e+01 3.581289e+01 2.676509e+01 9.477662e+00 5.653563e+00 5.301773e+00 6.006721e+00 1.687377e+01 5.667826e+00 3.479011e+00 8.697467e+00 5.268055e+00 7.342731e+00 4.774077e+00 4.421825e+00 3.450339e+00 2.722027e+00
<GCONST> 1.156487e+02
<STATE> 3
<MEAN> 26
 -9.858184e+00 -6.605369e+00 -8.188234e+00 -1.737807e+01 1.979395e-01 1.852658e+00 -7.969656e+00 -2.668644e+00 -8.616795e+00 3.156094e+00 2.272470e-01 -7.546436e-01 1.576787e+01 6.599305e-01 -1.490359e+00 -1.757347e+00 -5.013653e+00 -3.059395e-01 3.292180e-02 -2.003932e+00 -1.348237e+00 -1.883119e+00 1.029267e+00 -5.687155e-03 -2.123559e-01 1.694305e+00
<VARIANCE> 26
 3.212344e+01 3.736078e+01 7.094226e+01 6.205350e+01 5.488462e+01 4.513827e+01 6.597733e+01 4.949134e+01 4.145269e+01 3.553882e+01 2.590125e+01 2.929395e+01 5.051742e+00 3.679142e+00 3.352541e+00 6.875757e+00 7.551219e+00 4.304486e+00 3.397254e+00 4.023776e+00 4.099050e+00 6.362470e+00 2.062445e+00 3.046958e+00 3.235833e+00 7.964729e-01
<GCONST> 1.113004e+02
<STATE> 4
<MEAN> 26
 -1.017997e+01 -4.080326e+00 -5.705435e+00 -1.677654e+01 7.132550e-01 3.799265e-01 -6.063962e+00 -5.212639e+00 -8.137970e+00 3.474326e+00 -1.203093e-01 -1.283906e-01 1.676518e+01 9.775022e-01 1.382039e+00 2.047878e+00 1.408380e+00 -4.997894e-01 -4.603646e-01 3.181415e-01 -3.752000e-01 -2.489799e-01 -8.421126e-01 5.248756e-01 -1.189392e-01 4.814695e-01
<VARIANCE> 26
 4.591090e+01 2.922708e+01 8.704932e+01 7.720528e+01 5.241454e+01 3.710756e+01 5.734509e+01 4.462121e+01 6.900329e+01 3.751827e+01 3.099060e+01 2.895233e+01 3.306563e+00 5.112175e+00 3.653121e+00 3.922097e+00 6.010305e+00 5.478131e+00 4.173085e+00 7.042361e+00 4.445212e+00 4.768489e+00 3.744125e+00 4.444009e+00 3.274695e+00 4.408421e-01
<GCONST> 1.124755e+02
<TRANSP> 5
 0.000000e+00 1.000000e+00 0.000000e+00 0.000000e+00 0.000000e+00
 0.000000e+00 7.008224e-01 2.991776e-01 0.000000e+00 0.000000e+00
 0.000000e+00 0.000000e+00 3.908009e-01 6.091991e-01 0.000000e+00
 0.000000e+00 0.000000e+00 0.000000e+00 6.188148e-01 3.811851e-01
 0.000000e+00 0.000000e+00 0.000000e+00 0.000000e+00 0.000000e+00
<ENDHMM>
~h "l"
<BEGINHMM>
<NUMSTATES> 5
<STATE> 2
<MEAN> 26
 -1.140069e+00 -3.127371e+00 3.813223e+00 -2.843911e+00 1.273728e+00 -2.585310e+00 -1.345000e+01 -7.163357e+00 -3.073165e+00 2.856610e+00 -3.312072e+00 -3.168974e+00 1.726548e+01 2.209810e+00 -2.676966e-01 1.439068e+00 -2.431767e-02 1.314476e+00 -1.251182e+00 -3.253953e+00 -1.534528e+00 -1.079632e+00 -3.031364e-01 -1.091612e+00 -1.205728e+00 8.313862e-01
<VARIANCE> 26
 5.052420e+01 2.998127e+01 7.761835e+01 3.774627e+01 3.642010e+01 5.108720e+01 9.672723e+01 9.390348e+01 4.197863e+01 4.765161e+01 3.604028e+01 2.793146e+01 1.013912e+01 5.824045e+00 5.103570e+00 4.197281e+00 4.092392e+00 6.636834e+00 4.104009e+00 8.136575e+00 5.926033e+00 4.364861e+00 4.552132e+00 4.178048e+00 3.696840e+00 7.695006e-01
<GCONST> 1.154455e+02
<STATE> 3
<MEAN> 26
 2.482218e+00 -1.802038e+00 1.033330e+01 -4.360699e+00 3.759630e+00 -4.360920e+00 -2.446895e+01 -7.820303e+00 -5.712401e+00 -1.520195e+00 -2.851858e+00 -6.692981e+00 1.961642e+01 -1.434787e-01 1.121902e-01 4.679976e-01 -1.791013e-01 1.016726e-01 8.582647e-02 -7.801192e-01 5.488127e-01 -5.220662e-02 -5.649014e-01 4.761789e-01 -6.174284e-01 1.043049e-01
<VARIANCE> 26
 1.874160e+01 2.826334e+01 9.314727e+01 5.207549e+01 5.380263e+01 4.896081e+01 5.635374e+01 7.312949e+01 3.574860e+01 4.889526e+01 3.345532e+01 4.021382e+01 3.857535e-01 8.139587e-01 2.317733e+00 2.497298e+00 2.335179e+00 2.545358e+00 3.058012e+00 4.672040e+00 4.293321e+00 3.422193e+00 3.170808e+00 2.111321e+00 2.602732e+00 3.405612e-02
<GCONST> 1.006194e+02
<STATE> 4
<MEAN> 26
 1.823737e+00 -5.459711e+00 6.883471e+00 -6.260461e+00 6.370817e-01 -2.897748e+00 -2.021564e+01 -5.376359e+00 -6.546114e+00 4.104464e-01 -9.073342e-01 -8.856545e+00 1.970176e+01 -5.606068e-01 -8.136207e-01 -1.046602e-01 -1.831411e+00 -1.818646e+00 1.215292e-01 1.758234e+00 1.383065e+00 -4.247868e-01 8.513061e-01 1.322337e+00 3.886923e-01 7.461961e-02
<VARIANCE> 26
 1.544922e+01 2.340740e+01 6.595854e+01 8.373123e+01 6.218944e+01 4.700768e+01 8.737578e+01 8.430025e+01 4.644253e+01 7.877824e+01 4.082988e+01 3.675549e+01 1.293855e+00 1.168676e+00 3.503930e+00 8.012822e+00 6.029086e+00 7.364813e+00 5.369584e+00 5.004263e+00 7.296953e+00 6.070704e+00 7.513083e+00 5.163471e+00 3.923251e+00 5.865983e-02
<GCONST> 1.115086e+02
<TRANSP> 5
 0.000000e+00 1.000000e+00 0.000000e+00 0.000000e+00 0.000000e+00
 0.000000e+00 5.700648e-01 4.299352e-01 0.000000e+00 0.000000e+00
 0.000000e+00 0.000000e+00 7.279054e-01 2.720947e-01 0.000000e+00
 0.000000e+00 0.000000e+00 0.000000e+00 6.141248e-01 3.858751e-01
 0.000000e+00 0.000000e+00 0.000000e+00 0.000000e+00 0.000000e+00
<ENDHMM>
~h "m"
<BEGINHMM>
<NUMSTATES> 5
<STATE> 2
<MEAN> 26
 2.101396e+00 -9.104490e-01 2.575538e+00 1.861614e+00 -5.659787e+00 1.149197e+00 -1.005714e+01 -3.240154e-01 -1.977698e+01 -4.740589e+00 8.376656e+00 -6.957102e+00 1.924501e+01 9.662793e-01 6.401159e-01 -1.240631e-01 4.138200e+00 -7.881883e-02 -2.567510e-01 1.657345e-01 -7.742928e-01 -3.736985e+00 -7.278618e-01 1.305288e+00 -1.186569e+00 2.762790e-01
<VARIANCE> 26
 1.676366e+01 2.631384e+01 3.516137e+01 6.446183e+01 3.000235e+01 4.411692e+01 7.005062e+01 3.505225e+01 7.534324e+01 5.977611e+01 4.239293e+01 2.662027e+01 4.832275e+00 2.491384e+00 2.332277e+00 4.610047e+00 9.601817e+00 2.572405e+00 4.399287e+00 6.586463e+00 5.334395e+00 6.185503e+00 3.088890e+00 4.404326e+00 2.338381e+00 3.828537e-01
<GCONST> 1.094683e+02
<STATE> 3
<MEAN> 26
 2.458826e+00 -1.201424e+00 3.213771e+00 7.446062e+00 -7.108419e+00 7.977957e-01 -1.214567e+01 -3.579047e+00 -2.580217e+01 -5.485718e+00 1.289381e+01 -9.720630e+00 2.041344e+01 -1.210792e-01 -2.331928e-01 5.386724e-02 1.508983e-01 9.430958e-02 8.747019e-02 1.410977e-02 -3.078911e-01 -3.815945e-01 1.099496e-01 8.101309e-02 3.486509e-02 3.771628e-02
<VARIANCE> 26
 6.044232e+00 2.064045e+01 1.296808e+01 1.385710e+01 1.958924e+01 4.211567e+01 5.016666e+01 4.230059e+01 3.779356e+01 7.086081e+01 3.918409e+01 3.377048e+01 1.313566e-01 2.301429e-01 1.048643e+00 1.048049e+00 3.126156e+00 1.060663e+00 1.860103e+00 2.307009e+00 1.832616e+00 2.574592e+00 2.313349e+00 2.653812e+00 1.837071e+00 8.623709e-03
<GCONST> 8.573059e+01
<STATE> 4
<MEAN> 26
 2.074405e+00 -3.818232e+00 2.426461e+00 -5.790086e-01 -7.295942e+00 3.595681e+00 -1.311861e+01 -2.268473e+00 -2.147719e+01 -5.304847e+00 9.198281e+00 -7.247687e+00 2.044156e+01 -3.651865e-01 -9.534742e-01 8.650320e-02 -5.319766e+00 -5.014327e-01 7.894535e-01 -4.344119e-01 1.607748e+00 3.685245e+00 2.887202e-01 -1.800818e+00 8.630584e-01 7.529612e-02
<VARIANCE> 26
 7.433177e+00 1.922970e+01 2.295361e+01 7.525191e+01 2.978677e+01 5.738588e+01 5.549676e+01 3.713775e+01 6.383946e+01 6.024382e+01 4.760149e+01 2.490064e+01 1.655382e-01 7.858753e-01 2.614423e+00 4.874612e+00 8.173439e+00 2.881357e+00 3.217829e+00 2.833464e+00 4.473405e+00 4.231477e+00 2.674285e+00 3.565007e+00 2.306758e+00 2.793860e-02
<GCONST> 9.893746e+01
<TRANSP> 5
 0.000000e+00 1.000000e+00 0.000000e+00 0.000000e+00 0.000000e+00
 0.000000e+00 5.895838e-01 4.104162e-01 0.000000e+00 0.000000e+00
 0.000000e+00 0.000000e+00 7.836661e-01 2.163338e-01 0.000000e+00
 0.000000e+00 0.000000e+00 0.000000e+00 6.034108e-01 3.965892e-01
 0.000000e+00 0.000000e+00 0.000000e+00 0.000000e+00 0.000000e+00
<ENDHMM>
~h "n"
<BEGINHMM>
<NUMSTATES> 5
<STATE> 2
<MEAN> 26
 6.455802e-01 2.442123e+00 6.773740e+00 3.018538e+00 -1.159573e+01 2.529912e+00 -9.988793e+00 -1.932952e+00 -1.898553e+01 -1.273135e+00 -3.365907e-02 -7.366300e+00 1.987425e+01 1.038086e+00 1.146311e+00 -1.073518e+00 3.532432e+00 -1.501065e+00 -4.627342e-02 2.117864e+00 -1.410345e+00 -1.980973e+00 7.157424e-01 -8.431437e-01 -1.918379e-01 2.350414e-01
<VARIANCE> 26
 9.642775e+00 2.408258e+01 2.043531e+01 4.165770e+01 4.186409e+01 4.652106e+01 4.494371e+01 4.500877e+01 5.784470e+01 5.038459e+01 4.152283e+01 2.070755e+01 2.172975e+00 1.707961e+00 2.178759e+00 5.516336e+00 4.880177e+00 4.320439e+00 3.243928e+00 6.766499e+00 3.701164e+00 5.766003e+00 3.847650e+00 3.140244e+00 2.870513e+00 3.336390e-01
<GCONST> 1.053444e+02
<STATE> 3
<MEAN> 26
 1.580269e+00 2.401983e+00 5.358625e+00 7.828215e+00 -1.445403e+01 2.378238e+00 -6.026144e+00 -5.129456e+00 -1.835225e+01 -1.816656e+00 -9.665743e-01 -6.326181e+00 2.043203e+01 -8.435807e-02 -8.446985e-02 -2.206872e-02 3.315694e-02 7.932063e-02 -2.549408e-01 2.995239e-01 3.336365e-02 2.394170e-01 -3.364246e-01 2.367803e-01 1.310346e-01 2.882754e-02
<VARIANCE> 26
 5.699453e+00 1.317600e+01 7.869813e+00 1.588369e+01 1.432525e+01 1.969611e+01 2.673414e+01 2.536469e+01 3.552959e+01 6.025233e+01 4.329295e+01 2.070438e+01 1.853462e-01 2.473483e-01 1.051751e+00 6.863984e-01 1.071853e+00 1.190829e+00 1.640761e+00 1.344922e+00 1.348691e+00 1.863333e+00 2.245322e+00 2.006968e+00 1.733659e+00 6.790216e-03
<GCONST> 7.917303e+01
<STATE> 4
<MEAN> 26
 -3.282424e-01 3.205741e-01 7.516573e+00 1.551456e+00 -1.207695e+01 9.429312e-01 -1.048527e+01 -2.364016e+00 -1.512797e+01 -5.266670e+00 1.713519e+00 -6.518595e+00 2.055789e+01 -8.598847e-01 -1.166930e+00 8.741968e-01 -3.838871e+00 1.330146e+00 -2.600901e-01 -2.505052e+00 1.527194e+00 2.157612e+00 -1.191000e+00 1.451415e+00 -1.004035e-01 3.296016e-02
<VARIANCE> 26
 6.539455e+00 1.705348e+01 1.965092e+01 5.169334e+01 2.945079e+01 3.471215e+01 4.079631e+01 3.144661e+01 4.921048e+01 8.093297e+01 5.000718e+01 3.506741e+01 1.456189e-01 5.322193e-01 1.434774e+00 3.131891e+00 5.023506e+00 3.687626e+00 3.196365e+00 5.394568e+00 3.914502e+00 5.246389e+00 3.272664e+00 3.391707e+00 2.112871e+00 7.835074e-03
<GCONST> 9.530810e+01
<TRANSP> 5
 0.000000e+00 1.000000e+00 0.000000e+00 0.000000e+00 0.000000e+00
 0.000000e+00 6.005210e-01 3.994789e-01 0.000000e+00 0.000000e+00
 0.000000e+00 0.000000e+00 7.268987e-01 2.731012e-01 0.000000e+00
 0.000000e+00 0.000000e+00 0.000000e+00 6.699381e-01 3.300619e-01
 0.000000e+00 0.000000e+00 0.000000e+00 0.000000e+00 0.000000e+00
<ENDHMM>
~h "o"
<BEGINHMM>
<NUMSTATES> 5
<STATE> 2
<MEAN> 26
 -1.976597e-01 -1.311804e-01 1.085992e+00 -2.067400e+01 -8.435910e+00 6.664951e+00 -1.453095e+01 -7.401599e+00 -1.243484e+01 7.524230e-03 8.038701e+00 -5.911728e+00 2.036365e+01 1.960786e+00 -7.372457e-01 4.488193e-02 -3.068280e+00 -3.039187e+00 2.182788e+00 -2.827085e+00 1.852146e-01 -1.948190e+00 -1.078057e-01 2.630612e+00 -1.672277e+00 7.830288e-01
<VARIANCE> 26
 1.400295e+01 3.659248e+01 2.366819e+01 7.431204e+01 5.057209e+01 3.302066e+01 7.455676e+01 5.346806e+01 5.242835e+01 4.958332e+01 7.293586e+01 3.292194e+01 2.623083e+00 4.195479e+00 3.165784e+00 4.005750e+00 6.810136e+00 4.791950e+00 3.019984e+00 4.615877e+00 4.231471e+00 6.194711e+00 4.935799e+00 5.314145e+00 3.653406e+00 2.856328e-01
<GCONST> 1.104887e+02
<STATE> 3
<MEAN> 26
 1.519346e+00 -3.698679e+00 -1.724537e+00 -2.707596e+01 -1.181214e+01 1.156586e+01 -1.581693e+01 -5.585136e+00 -1.441914e+01 1.691942e+00 1.110076e+01 -8.036355e+00 2.171188e+01 3.558460e-02 -5.867143e-02 -2.483737e-01 -3.158853e-01 4.318452e-02 1.553557e-01 3.652770e-01 -9.933844e-03 -1.989352e-01 -9.528036e-02 -3.739495e-01 8.430731e-03 2.352242e-02
<VARIANCE> 26
 5.126048e+00 3.233311e+01 2.517103e+01 3.744928e+01 3.127338e+01 1.648031e+01 4.781485e+01 3.540242e+01 3.531936e+01 8.491675e+01 4.204361e+01 2.949851e+01 3.372487e-01 3.950927e-01 1.159935e+00 1.341219e+00 3.162330e+00 2.107499e+00 1.934159e+00 3.583745e+00 1.774402e+00 2.460842e+00 2.444936e+00 2.607332e+00 1.960984e+00 2.812835e-02
<GCONST> 9.124016e+01
<STATE> 4
<MEAN> 26
 1.154926e+00 -1.721892e+00 1.293235e-01 -2.055668e+01 -7.683738e+00 6.719551e+00 -1.620713e+01 -6.921804e+00 -1.338733e+01 -3.462662e-01 6.432039e+00 -8.142778e+00 2.076668e+01 -3.667733e-01 9.884404e-01 7.941179e-01 3.703555e+00 2.183463e+00 -2.005708e+00 1.782141e+00 -2.282426e-02 1.409695e+00 -4.015893e-01 -2.581813e+00 8.749447e-01 -4.953594e-01
<VARIANCE> 26
 9.391909e+00 4.394164e+01 3.429383e+01 1.007476e+02 3.859486e+01 3.583047e+01 1.267250e+02 5.910504e+01 3.535125e+01 5.895476e+01 6.581038e+01 5.601571e+01 1.218146e+00 2.154974e+00 3.550022e+00 2.983218e+00 6.195746e+00 4.621491e+00 3.473893e+00 6.394861e+00 3.504240e+00 5.911514e+00 4.752197e+00 5.153500e+00 2.653778e+00 1.334427e-01
<GCONST> 1.089343e+02
<TRANSP> 5
 0.000000e+00 1.000000e+00 0.000000e+00 0.000000e+00 0.000000e+00
 0.000000e+00 5.881755e-01 4.118245e-01 0.000000e+00 0.000000e+00
 0.000000e+00 0.000000e+00 8.327313e-01 1.672687e-01 0.000000e+00
 0.000000e+00 0.000000e+00 0.000000e+00 6.166401e-01 3.833600e-01
 0.000000e+00 0.000000e+00 0.000000e+00 0.000000e+00 0.000000e+00
<ENDHMM>
~h "p"
<BEGINHMM>
<NUMSTATES> 5
<STATE> 2
<MEAN> 26
 -4.467655e+00 7.566133e+00 4.095756e+00 2.997213e+00 1.810477e+00 3.549878e-01 -3.932097e+00 -3.637804e+00 -6.453164e+00 -2.171669e+00 -1.263795e+00 -5.353547e+00 1.386143e+01 -3.061034e+00 1.381246e-01 -5.433216e-01 1.710604e+00 9.659896e-01 1.823032e-01 1.535653e+00 7.163028e-01 1.796674e+00 -2.823392e-02 -4.397141e-01 2.225634e-01 -1.651774e+00
<VARIANCE> 26
 4.993356e+01 2.655202e+01 2.416203e+01 2.136534e+01 2.077629e+01 1.871091e+01 3.623803e+01 2.324010e+01 3.585049e+01 2.762339e+01 2.451538e+01 1.863311e+01 8.318591e+00 3.273203e+00 7.704425e+00 3.553595e+00 8.684092e+00 2.353333e+00 3.313573e+00 3.952183e+00 3.268898e+00 3.108765e+00 3.905191e+00 3.061641e+00 2.351255e+00 5.522752e-01
<GCONST> 1.042072e+02
<STATE> 3
<MEAN> 26
 -1.346634e+01 2.163288e+00 -1.142745e-01 1.584395e+00 1.984061e+00 1.503951e+00 -3.048875e-01 1.627347e+00 1.961366e-01 1.739779e+00 1.546597e+00 -7.839310e-01 9.686041e+00 2.247181e-02 -7.450899e-01 -3.677288e-01 -1.174668e+00 -2.597613e-01 -2.389665e-01 5.754894e-02 -9.386683e-02 3.881617e-01 4.202058e-01 3.055759e-01 7.183835e-01 3.082988e-01
<VARIANCE> 26
 2.034510e+00 3.897370e+00 5.800456e+00 8.338107e+00 1.061654e+01 1.078928e+01 1.419925e+01 1.299728e+01 1.346091e+01 1.377530e+01 1.334254e+01 1.673113e+01 2.749254e+00 1.513845e+00 1.041664e+00 1.372755e+00 2.801891e+00 1.621809e+00 1.373669e+00 1.828529e+00 2.938014e+00 2.233401e+00 2.081126e+00 1.736895e+00 2.192265e+00 1.101742e+00
<GCONST> 8.259047e+01
<STATE> 4
<MEAN> 26
 -1.060742e+01 -1.985719e+00 7.898809e-01 -6.952694e+00 2.777182e+00 -7.364171e-01 -1.146597e+00 -3.690933e+00 -3.889070e-01 3.024999e+00 2.246053e-01 2.108231e+00 1.520865e+01 2.029675e+00 -1.244064e+00 -5.160768e-02 -3.362864e+00 -4.062703e-01 5.406522e-01 -1.727121e+00 -1.171964e+00 -1.204870e+00 1.700829e-01 1.335874e-02 -6.924363e-01 1.981085e+00
<VARIANCE> 26
 1.672966e+01 1.475785e+01 1.731897e+01 2.030054e+01 1.895761e+01 2.301211e+01 2.142633e+01 2.269139e+01 2.715110e+01 1.684361e+01 1.680629e+01 1.970308e+01 4.642709e+00 4.689351e+00 2.943127e+00 3.353742e+00 6.433963e+00 4.334771e+00 5.395602e+00 5.416928e+00 3.097008e+00 5.257010e+00 3.396035e+00 3.267043e+00 4.114844e+00 1.082810e+00
<GCONST> 1.021131e+02
<TRANSP> 5
 0.000000e+00 1.000000e+00 0.000000e+00 0.000000e+00 0.000000e+00
 0.000000e+00 6.808821e-01 3.191179e-01 0.000000e+00 0.000000e+00
 0.000000e+00 0.000000e+00 7.832072e-01 2.167929e-01 0.000000e+00
 0.000000e+00 0.000000e+00 0.000000e+00 5.664308e-01 4.335692e-01
 0.000000e+00 0.000000e+00 0.000000e+00 0.000000e+00 0.000000e+00
<ENDHMM>
~h "q"
<BEGINHMM>
<NUMSTATES> 5
<STATE> 2
<MEAN> 26
 -1.596320e+00 -3.868348e+00 6.051134e+00 -1.478290e+01 -5.592434e+00 2.988019e+00 -1.895385e+01 -5.840201e+00 -9.267099e+00 3.112172e+00 4.562721e+00 -6.636014e+00 2.024764e+01 1.412336e+00 -1.457224e+00 6.560318e-02 -6.625778e-01 -1.422256e+00 3.746005e-01 -3.494046e+00 6.017190e-01 -9.720814e-01 1.134582e+00 1.833912e+00 -1.932145e+00 4.164888e-01
<VARIANCE> 26
 1.692348e+01 2.087485e+01 4.157448e+01 6.507295e+01 5.265159e+01 6.539794e+01 7.418633e+01 4.825472e+01 2.948947e+01 5.151902e+01 3.154966e+01 3.356699e+01 1.724598e+00 4.030939e+00 2.074643e+00 2.510664e+00 4.351509e+00 5.437702e+00 4.272626e+00 6.791890e+00 3.689851e+00 3.725173e+00 3.263709e+00 4.005000e+00 3.681069e+00 1.619996e-01
<GCONST> 1.069687e+02
<STATE> 3
<MEAN> 26
 -1.011988e+00 -6.401157e+00 7.217938e+00 -1.309423e+01 -6.935013e+00 1.054058e+00 -2.591553e+01 -2.956601e+00 -9.153881e+00 3.600881e+00 7.094733e+00 -1.075151e+01 2.073554e+01 1.815158e-01 4.103122e-01 -1.511265e-01 2.847914e-01 6.061460e-01 -2.871992e-01 4.846683e-01 2.558554e-01 -3.219951e-01 2.216573e-01 -3.316028e-01 3.707740e-01 -1.164929e-01
<VARIANCE> 26
 1.078767e+01 1.287701e+01 3.330193e+01 2.524405e+01 3.164269e+01 2.420503e+01 4.963538e+01 4.450015e+01 3.483358e+01 5.667003e+01 3.199772e+01 2.010064e+01 1.297714e+00 5.515494e-01 1.385725e+00 1.864123e+00 3.659992e+00 2.346721e+00 2.843799e+00 3.295872e+00 3.086312e+00 1.945495e+00 4.201143e+00 2.419377e+00 1.791449e+00 5.122668e-02
<GCONST> 9.457415e+01
<STATE> 4
<MEAN> 26
 1.147392e+00 -1.107850e+00 1.183614e+00 -9.142715e+00 3.823095e+00 -7.466333e-01 -8.433255e+00 -2.918298e+00 -7.881314e+00 2.176390e+00 3.279792e-01 -3.108850e+00 1.859334e+01 -5.655875e-01 1.633511e+00 4.692007e-02 2.479650e+00 1.075826e+00 3.536558e-01 3.046889e+00 -3.582566e-01 1.537793e+00 -1.049592e+00 -8.097942e-01 1.008152e+00 -5.171505e-01
<VARIANCE> 26
 2.017872e+01 2.402700e+01 5.400491e+01 5.595939e+01 7.375719e+01 4.633975e+01 1.790031e+02 3.844474e+01 4.548832e+01 7.360380e+01 4.624435e+01 3.347864e+01 2.532790e+00 2.425330e+00 3.320250e+00 2.031984e+00 3.691081e+00 3.445823e+00 4.720026e+00 4.712278e+00 4.221234e+00 3.836844e+00 3.426732e+00 3.308902e+00 2.799596e+00 1.622449e-01
<GCONST> 1.082100e+02
<TRANSP> 5
 0.000000e+00 1.000000e+00 0.000000e+00 0.000000e+00 0.000000e+00
 0.000000e+00 5.084490e-01 4.915510e-01 0.000000e+00 0.000000e+00
 0.000000e+00 0.000000e+00 6.900761e-01 3.099239e-01 0.000000e+00
 0.000000e+00 0.000000e+00 0.000000e+00 6.354138e-01 3.645862e-01
 0.000000e+00 0.000000e+00 0.000000e+00 0.000000e+00 0.000000e+00
<ENDHMM>
~h "r"
<BEGINHMM>
<NUMSTATES> 5
<STATE> 2
<MEAN> 26
 -2.682101e+00 -6.990566e-02 -2.344426e+00 -2.122683e+01 1.155156e+00 7.428931e+00 -5.126933e+00 -8.636827e+00 -3.204766e+00 3.779165e+00 -1.798070e+00 -1.139914e+00 1.884311e+01 -8.743842e-01 1.835932e+00 -7.688046e-01 5.371552e-01 1.440399e+00 1.213861e+00 6.959491e-01 -6.174343e-01 1.475776e+00 -6.120054e-01 -1.886392e-01 1.296761e+00 -3.965486e-01
<VARIANCE> 26
 1.686237e+01 4.027882e+01 2.321237e+01 4.752300e+01 8.209596e+01 3.852011e+01 5.263629e+01 3.738966e+01 4.708593e+01 5.590693e+01 3.482461e+01 3.066804e+01 2.107790e+00 2.506779e+00 3.089934e+00 2.588285e+00 5.943266e+00 4.991354e+00 5.259220e+00 5.109172e+00 4.225321e+00 4.391487e+00 3.788751e+00 4.091675e+00 3.243530e+00 2.837940e-01
<GCONST> 1.078083e+02
<STATE> 3
<MEAN> 26
 -8.706866e+00 1.057836e+00 -5.174343e+00 -1.696502e+01 9.043880e+00 1.222133e+01 -4.946992e+00 -6.416495e+00 1.816108e+00 2.543604e+00 5.148735e-01 2.443437e+00 1.705563e+01 -4.065838e-01 1.398373e-02 -1.791434e-01 4.728619e-01 -5.630180e-02 -2.395730e-01 1.626906e-01 4.154056e-01 9.278870e-02 -1.551855e-01 3.719559e-01 2.362002e-01 -2.097616e-01
<VARIANCE> 26
 1.678835e+01 2.274186e+01 1.592505e+01 3.223121e+01 7.491759e+01 3.845927e+01 4.229448e+01 3.295008e+01 3.289980e+01 3.270275e+01 2.942259e+01 2.265707e+01 2.789828e+00 1.260952e+00 1.360481e+00 1.655449e+00 2.136688e+00 3.193530e+00 3.044826e+00 2.764324e+00 3.462715e+00 2.793652e+00 3.124204e+00 2.532519e+00 1.909476e+00 1.095355e-01
<GCONST> 9.755283e+01
<STATE> 4
<MEAN> 26
 -4.878447e+00 2.829789e+00 -3.439394e+00 -1.773417e+01 1.088447e-01 6.002657e+00 -3.419255e+00 -6.850206e+00 -1.022916e+00 1.537294e+00 2.391895e-01 1.777462e+00 1.758792e+01 7.452524e-01 -4.779955e-01 9.163523e-01 9.555664e-01 -1.301889e+00 -1.252203e+00 -6.394379e-02 4.197454e-01 -1.134237e+00 -8.218199e-02 3.169792e-01 -6.651518e-01 8.895995e-02
<VARIANCE> 26
 3.207312e+01 5.009762e+01 3.325111e+01 5.265050e+01 8.952537e+01 4.270661e+01 5.558308e+01 4.730728e+01 6.283786e+01 4.037624e+01 3.236179e+01 3.240384e+01 5.737592e+00 2.528663e+00 2.818682e+00 3.159237e+00 6.124459e+00 5.650741e+00 3.804533e+00 3.674242e+00 4.570630e+00 4.033708e+00 3.402948e+00 3.534799e+00 2.684332e+00 3.978138e-01
<GCONST> 1.100623e+02
<TRANSP> 5
 0.000000e+00 1.000000e+00 0.000000e+00 0.000000e+00 0.000000e+00
 0.000000e+00 5.915732e-01 4.084268e-01 0.000000e+00 0.000000e+00
 0.000000e+00 0.000000e+00 6.540104e-01 3.459896e-01 0.000000e+00
 0.000000e+00 0.000000e+00 0.000000e+00 5.638238e-01 4.361762e-01
 0.000000e+00 0.000000e+00 0.000000e+00 0.000000e+00 0.000000e+00
<ENDHMM>
~h "s"
<BEGINHMM>
<NUMSTATES> 5
<STATE> 2
<MEAN> 26
 -1.913862e+01 3.405724e+00 -9.282708e-01 -7.279520e+00 3.277622e+00 -2.132744e+00 -1.827354e+00 -1.847625e+00 -2.457868e+00 1.875090e+00 -1.325154e+00 8.573111e-01 1.611075e+01 -3.904292e+00 -4.955379e-01 -2.149191e+00 -5.418289e-01 2.028153e-01 5.843032e-01 4.721859e-01 4.125333e-01 7.328425e-01 5.878208e-01 4.064290e-01 1.118122e+00 -2.228735e-01
<VARIANCE> 26
 4.451828e+01 3.419901e+01 3.891431e+01 3.314672e+01 3.292314e+01 4.133974e+01 2.724075e+01 3.635527e+01 3.023293e+01 2.444238e+01 2.617885e+01 2.034468e+01 5.716108e+00 3.792435e+00 3.593730e+00 5.118220e+00 5.475895e+00 4.244777e+00 5.143450e+00 4.161726e+00 3.189551e+00 4.285022e+00 2.831327e+00 2.679398e+00 2.616212e+00 4.072932e-01
<GCONST> 1.061751e+02
<STATE> 3
<MEAN> 26
 -2.823174e+01 1.770851e+00 -8.793814e+00 -1.137837e+01 -3.568008e-01 -1.513597e+00 -3.983583e+00 -2.419789e+00 -3.436884e+00 2.652868e+00 3.745524e-01 3.620849e+00 1.669341e+01 -2.058345e-01 -1.393219e-02 5.442319e-02 -1.891943e-01 -2.289954e-01 2.899294e-02 -2.420740e-01 -2.082541e-01 -1.590218e-02 -6.952665e-02 -5.564236e-03 1.025698e-01 5.854550e-02
<VARIANCE> 26
 6.000257e+00 8.913263e+00 2.336356e+01 3.057319e+01 2.873752e+01 2.769205e+01 2.103075e+01 2.461026e+01 2.126286e+01 1.808576e+01 1.359380e+01 1.346638e+01 9.135654e-01 6.204184e-01 7.486804e-01 1.780444e+00 1.352903e+00 1.827120e+00 2.063335e+00 1.741650e+00 1.797022e+00 1.802857e+00 1.766565e+00 1.475842e+00 1.451188e+00 4.464976e-02
<GCONST> 8.372689e+01
<STATE> 4
<MEAN> 26
 -2.471881e+01 1.795580e+00 -2.167413e+00 -1.066082e+01 9.791315e-01 -1.074739e+00 -3.718178e+00 -3.830591e+00 -2.555315e+00 2.052831e+00 -1.842800e+00 2.348426e+00 1.673722e+01 4.126879e+00 4.542928e-02 3.007458e+00 5.017869e-01 -2.838697e-01 -6.690335e-01 -1.199533e+00 -4.098558e-01 -1.198124e+00 -6.252320e-01 -4.174700e-01 -1.555409e+00 2.228972e-01
<VARIANCE> 26
 2.978975e+01 2.917298e+01 4.952998e+01 3.314743e+01 4.677839e+01 4.518122e+01 2.524579e+01 2.899273e+01 2.382485e+01 2.067080e+01 1.791749e+01 2.168317e+01 1.842193e+00 5.715191e+00 3.216227e+00 4.524815e+00 5.560165e+00 3.337809e+00 5.540587e+00 5.750542e+00 3.111621e+00 3.165931e+00 3.970932e+00 2.806110e+00 3.286181e+00 5.539479e-01
<GCONST> 1.050810e+02
<TRANSP> 5
 0.000000e+00 1.000000e+00 0.000000e+00 0.000000e+00 0.000000e+00
 0.000000e+00 7.246190e-01 2.753810e-01 0.000000e+00 0.000000e+00
 0.000000e+00 0.000000e+00 8.856500e-01 1.143500e-01 0.000000e+00
 0.000000e+00 0.000000e+00 0.000000e+00 6.315389e-01 3.684611e-01
 0.000000e+00 0.000000e+00 0.000000e+00 0.000000e+00 0.000000e+00
<ENDHMM>
~h "t"
<BEGINHMM>
<NUMSTATES> 5
<STATE> 2
<MEAN> 26
 -4.984228e+00 8.200342e+00 6.117755e+00 2.130548e+00 3.759401e-01 -3.107666e+00 -4.726304e+00 -2.513004e+00 -6.385043e+00 -1.679786e+00 -2.308220e+00 -4.114944e+00 1.462531e+01 -2.039614e+00 1.769163e-01 -1.208970e+00 1.643849e+00 8.790449e-01 1.021473e+00 1.323356e+00 4.609960e-01 1.525115e+00 -7.345093e-01 -1.485221e-01 9.596862e-02 -1.708601e+00
<VARIANCE> 26
 4.625809e+01 3.423456e+01 3.512082e+01 3.448424e+01 3.987180e+01 4.043001e+01 3.407749e+01 2.741802e+01 4.036816e+01 3.375242e+01 2.509154e+01 2.406592e+01 7.528993e+00 4.465316e+00 8.586543e+00 4.203388e+00 8.966403e+00 3.882120e+00 4.583596e+00 3.654610e+00 3.640242e+00 3.656897e+00 2.942466e+00 2.856569e+00 2.760485e+00 5.345613e-01
<GCONST> 1.086732e+02
<STATE> 3
<MEAN> 26
 -1.334722e+01 2.466016e+00 4.338351e-01 1.024432e+00 1.879302e+00 1.229237e+00 -8.752192e-01 9.424926e-01 -6.083514e-01 7.353411e-01 6.150492e-01 -1.135875e+00 9.837741e+00 -9.337561e-01 -1.934597e+00 -7.600821e-01 -1.965022e+00 -3.418454e-01 3.417537e-01 1.436718e-01 -8.018099e-02 5.771782e-01 6.034220e-01 3.679037e-01 9.325328e-01 2.961420e-01
<VARIANCE> 26
 4.757181e+00 7.859002e+00 8.418619e+00 1.700813e+01 1.220091e+01 1.316516e+01 1.532718e+01 1.614815e+01 1.827160e+01 1.571566e+01 1.614952e+01 1.562774e+01 3.002310e+00 2.502618e+00 3.913838e+00 3.262775e+00 6.672753e+00 2.348979e+00 3.312357e+00 2.379318e+00 3.227249e+00 3.583184e+00 2.508825e+00 2.001248e+00 2.795024e+00 1.367267e+00
<GCONST> 9.293414e+01
<STATE> 4
<MEAN> 26
 -1.730217e+01 -4.210074e+00 -9.242128e-01 -1.259433e+01 1.191310e+00 -8.527827e-01 -4.151634e+00 -3.482577e+00 -1.360888e+00 2.404294e+00 9.782606e-02 3.454994e+00 1.614587e+01 3.861328e-01 6.284811e-02 4.000690e-01 -1.676792e+00 9.897554e-02 -6.479351e-01 -1.495844e+00 -5.470109e-01 -5.710613e-01 2.369993e-01 -1.708319e-01 -2.656098e-01 1.252458e+00
<VARIANCE> 26
 2.843950e+01 3.916243e+01 4.009864e+01 3.363910e+01 4.076926e+01 4.450631e+01 2.985783e+01 3.403845e+01 3.134468e+01 2.267110e+01 2.230927e+01 2.133942e+01 2.868320e+00 6.046842e+00 4.796955e+00 6.119287e+00 7.533133e+00 4.610602e+00 4.901842e+00 5.299644e+00 3.740084e+00 4.291766e+00 3.724221e+00 2.621214e+00 4.679728e+00 9.134139e-01
<GCONST> 1.087111e+02
<TRANSP> 5
 0.000000e+00 1.000000e+00 0.000000e+00 0.000000e+00 0.000000e+00
 0.000000e+00 6.169505e-01 3.830495e-01 0.000000e+00 0.000000e+00
 0.000000e+00 0.000000e+00 6.880578e-01 3.119422e-01 0.000000e+00
 0.000000e+00 0.000000e+00 0.000000e+00 7.342016e-01 2.657984e-01
 0.000000e+00 0.000000e+00 0.000000e+00 0.000000e+00 0.000000e+00
<ENDHMM>
~h "u"
<BEGINHMM>
<NUMSTATES> 5
<STATE> 2
<MEAN> 26
 5.401726e-01 4.476490e+00 1.724247e+00 -1.307998e+01 -5.676938e+00 2.060222e+00 -1.075742e+01 -6.770484e+00 -1.175883e+01 -8.311179e+00 4.105303e+00 -5.230131e+00 1.942708e+01 3.061077e+00 1.603788e+00 1.170194e-01 -2.867135e+00 -2.839750e+00 1.467650e+00 -1.279342e+00 -4.781709e-01 -2.068240e+00 -3.025172e+00 1.850630e+00 -1.066619e+00 8.057967e-01
<VARIANCE> 26
 2.264620e+01 3.271761e+01 9.532467e+00 6.186498e+01 6.777802e+01 5.026159e+01 4.602878e+01 7.901378e+01 3.871282e+01 5.311512e+01 6.420418e+01 4.926061e+01 1.125159e+00 4.098105e+00 2.494776e+00 2.135214e+00 4.605835e+00 6.707770e+00 4.155975e+00 4.380079e+00 6.733666e+00 6.204100e+00 6.493290e+00 4.202968e+00 4.570408e+00 4.789750e-01
<GCONST> 1.101484e+02
<STATE> 3
<MEAN> 26
 3.630281e+00 5.189419e+00 7.316082e-01 -1.670873e+01 -1.348308e+01 6.167155e+00 -1.120674e+01 -5.588661e+00 -1.324075e+01 -1.497441e+01 6.330608e+00 -6.709654e+00 2.052522e+01 1.141330e-01 1.423217e-01 -7.945264e-02 -4.419355e-01 -4.945387e-01 1.751784e-01 4.836325e-02 2.938446e-01 -2.068111e-01 2.332186e-01 -3.405991e-01 -3.006272e-01 -9.384030e-04
<VARIANCE> 26
 1.078329e+01 1.172801e+01 1.576005e+01 1.104264e+02 4.658326e+01 3.629077e+01 3.065596e+01 4.864326e+01 3.944644e+01 5.733009e+01 5.233490e+01 4.949809e+01 3.710947e-01 4.830096e-01 1.144546e+00 9.410467e-01 2.109233e+00 2.647241e+00 2.494496e+00 2.578074e+00 3.062980e+00 2.458316e+00 3.219060e+00 2.703337e+00 2.190071e+00 2.126439e-02
<GCONST> 9.346197e+01
<STATE> 4
<MEAN> 26
 2.479120e+00 5.344183e+00 2.072368e+00 -1.580387e+01 -8.869356e+00 4.327106e+00 -1.088903e+01 -5.895401e+00 -1.433801e+01 -8.440518e+00 4.205904e+00 -5.569800e+00 1.973980e+01 -1.064593e+00 -5.704172e-02 3.232129e-01 4.677550e-01 1.855328e+00 -6.229039e-01 9.043708e-01 -1.434146e+00 1.247348e+00 2.224457e+00 -1.661599e+00 1.337841e+00 -3.253923e-01
<VARIANCE> 26
 1.564682e+01 2.121189e+01 2.071926e+01 1.194603e+02 6.571578e+01 4.176155e+01 4.475667e+01 9.596052e+01 6.500925e+01 5.135268e+01 5.425607e+01 5.453734e+01 8.144417e-01 1.072109e+00 1.773865e+00 2.485412e+00 4.057749e+00 6.484857e+00 4.279046e+00 4.167024e+00 4.790399e+00 4.969922e+00 7.894071e+00 5.445341e+00 3.375326e+00 8.679632e-02
<GCONST> 1.069942e+02
<TRANSP> 5
 0.000000e+00 1.000000e+00 0.000000e+00 0.000000e+00 0.000000e+00
 0.000000e+00 5.755664e-01 4.244337e-01 0.000000e+00 0.000000e+00
 0.000000e+00 0.000000e+00 8.221674e-01 1.778326e-01 0.000000e+00
 0.000000e+00 0.000000e+00 0.000000e+00 6.421118e-01 3.578882e-01
 0.000000e+00 0.000000e+00 0.000000e+00 0.000000e+00 0.000000e+00
<ENDHMM>
~h "v"
<BEGINHMM>
<NUMSTATES> 5
<STATE> 2
<MEAN> 26
 -2.043884e+00 2.683979e+00 3.484852e+00 -5.585710e+00 4.155178e+00 1.050051e+00 -1.015185e+01 -7.300377e+00 -8.021894e+00 3.975915e+00 4.411911e+00 -6.808836e-01 1.786825e+01 -6.339784e-01 1.508260e+00 5.334825e-01 1.382175e+00 1.584530e+00 8.458936e-01 7.266367e-01 -1.297949e+00 1.051785e-01 -2.338218e-01 -3.766603e-01 4.398602e-01 -4.859201e-02
<VARIANCE> 26
 1.803564e+01 1.123801e+01 1.514135e+01 2.856471e+01 1.710659e+01 3.502712e+01 3.250161e+01 3.052549e+01 3.184021e+01 2.624614e+01 1.677893e+01 1.317692e+01 4.077450e+00 4.731622e+00 2.413632e+00 1.777913e+00 6.101760e+00 2.409308e+00 1.815637e+00 5.969428e+00 2.631394e+00 4.628007e+00 2.868097e+00 2.104389e+00 1.208372e+00 5.807028e-01
<GCONST> 9.801874e+01
<STATE> 3
<MEAN> 26
 -8.229579e+00 7.595204e+00 6.843980e+00 3.084821e-01 7.423674e+00 4.429720e+00 -5.834182e+00 -8.160239e+00 -7.360004e+00 1.593292e+00 -4.218499e-01 5.987401e-01 1.753392e+01 -9.448731e-01 -1.519649e-01 1.199800e-01 2.160201e-01 2.221163e-03 2.797960e-01 5.404561e-01 3.251691e-01 1.637948e-02 -2.353170e-01 -6.150671e-01 9.999412e-02 -9.053966e-02
<VARIANCE> 26
 8.148686e+00 7.169556e+00 1.955803e+01 1.701039e+01 1.662738e+01 2.162418e+01 2.226768e+01 1.970219e+01 1.737704e+01 1.213895e+01 1.529215e+01 8.940647e+00 2.636206e-01 8.829081e-01 1.428545e+00 1.413029e+00 1.579799e+00 1.526667e+00 1.445745e+00 1.578596e+00 1.886460e+00 1.057668e+00 1.489701e+00 1.689796e+00 9.679315e-01 3.075492e-02
<GCONST> 7.894777e+01
<STATE> 4
<MEAN> 26
 -7.686434e+00 2.873163e+00 3.834736e+00 -4.832013e+00 3.632300e+00 3.784146e+00 -6.091898e+00 -6.434165e+00 -7.092103e+00 5.549198e-01 4.055013e-01 2.029342e-01 1.815807e+01 1.480483e+00 -2.150450e+00 -3.043776e-01 -2.962029e+00 -2.485479e+00 -8.260965e-01 -2.378819e+00 1.013617e+00 3.142662e-01 -9.284165e-02 1.439576e+00 -1.073335e+00 5.486951e-01
<VARIANCE> 26
 7.960973e+00 1.286631e+01 2.286064e+01 2.379845e+01 1.652325e+01 2.068238e+01 2.551178e+01 1.696248e+01 1.741811e+01 1.676436e+01 1.886666e+01 1.180177e+01 4.856074e-01 1.857752e+00 2.308616e+00 2.633406e+00 2.676078e+00 2.256649e+00 3.091501e+00 3.671636e+00 2.523154e+00 1.491999e+00 3.483820e+00 2.556998e+00 2.075591e+00 8.298156e-02
<GCONST> 8.938277e+01
<TRANSP> 5
 0.000000e+00 1.000000e+00 0.000000e+00 0.000000e+00 0.000000e+00
 0.000000e+00 6.470268e-01 3.529731e-01 0.000000e+00 0.000000e+00
 0.000000e+00 0.000000e+00 7.593467e-01 2.406532e-01 0.000000e+00
 0.000000e+00 0.000000e+00 0.000000e+00 5.506267e-01 4.493733e-01
 0.000000e+00 0.000000e+00 0.000000e+00 0.000000e+00 0.000000e+00
<ENDHMM>
~h "w"
<BEGINHMM>
<NUMSTATES> 5
<STATE> 2
<MEAN> 26
 1.675574e-01 4.733587e+00 1.328029e+00 -1.557121e+01 -7.370072e+00 2.586193e+00 -5.711646e+00 -2.895290e+00 -8.985425e+00 -3.976421e+00 3.810570e+00 -2.116337e+00 1.830753e+01 3.032009e+00 5.042860e-01 -1.597045e-02 -2.449265e+00 -2.051772e+00 3.673770e-01 -1.400173e+00 1.646675e+00 -2.475291e+00 -1.563207e+00 6.165738e-01 -1.842400e+00 8.064410e-01
<VARIANCE> 26
 3.410132e+01 3.256156e+01 2.609752e+01 7.394649e+01 4.795573e+01 4.799245e+01 5.133895e+01 7.555776e+01 7.804811e+01 5.365025e+01 4.956747e+01 4.754142e+01 6.160692e+00 4.783553e+00 4.385242e+00 2.657416e+00 5.679765e+00 5.382994e+00 4.982944e+00 5.147266e+00 4.280976e+00 6.056528e+00 5.019732e+00 3.738918e+00 3.196615e+00 4.671426e-01
<GCONST> 1.135639e+02
<STATE> 3
<MEAN> 26
 5.665394e+00 3.448602e+00 1.013976e+00 -1.634353e+01 -1.194298e+01 5.062661e+00 -8.602564e+00 2.304616e-01 -1.224053e+01 -6.562909e+00 4.495404e+00 -6.030106e+00 2.010025e+01 4.246013e-02 -3.850280e-01 -1.784097e-02 -8.120229e-01 -4.604173e-01 2.681382e-01 -1.538961e-01 5.029101e-01 -2.987671e-01 3.718128e-01 2.335240e-01 3.042036e-02 1.030799e-01
<VARIANCE> 26
 1.572244e+01 2.401801e+01 1.778576e+01 7.694657e+01 4.001362e+01 5.157849e+01 3.277046e+01 3.926112e+01 3.585294e+01 3.359558e+01 3.943993e+01 2.450402e+01 5.214026e-01 1.068210e+00 1.331757e+00 1.636749e+00 3.264812e+00 2.495928e+00 2.657586e+00 2.368482e+00 2.817391e+00 2.459266e+00 2.300044e+00 2.385452e+00 1.875330e+00 5.759788e-02
<GCONST> 9.524374e+01
<STATE> 4
<MEAN> 26
 3.083761e+00 -4.753836e+00 -4.112056e+00 -2.747637e+01 -8.623384e+00 1.147892e+01 -8.495364e+00 2.462320e+00 -1.375582e+01 -7.154937e-01 6.572515e+00 -5.169305e+00 2.136897e+01 -4.467070e-01 -1.553445e+00 -9.600250e-01 -4.683107e-02 2.117333e+00 3.348707e-01 -3.750073e-01 -1.886679e-01 -6.971419e-02 8.127812e-01 2.358283e-01 -5.569967e-01 1.327580e-01
<VARIANCE> 26
 9.454854e+00 2.594186e+01 3.283797e+01 8.311884e+01 6.194906e+01 2.182792e+01 4.645018e+01 3.917855e+01 2.790537e+01 5.042432e+01 4.555856e+01 2.365688e+01 6.149098e-01 3.634757e-01 1.093438e+00 1.907773e+00 2.823963e+00 2.176781e+00 1.901572e+00 2.428260e+00 2.155772e+00 2.185124e+00 3.503796e+00 1.881029e+00 2.326216e+00 3.746380e-02
<GCONST> 9.372514e+01
<TRANSP> 5
 0.000000e+00 1.000000e+00 0.000000e+00 0.000000e+00 0.000000e+00
 0.000000e+00 5.424849e-01 4.575151e-01 0.000000e+00 0.000000e+00
 0.000000e+00 0.000000e+00 8.295642e-01 1.704358e-01 0.000000e+00
 0.000000e+00 0.000000e+00 0.000000e+00 7.434378e-01 2.565622e-01
 0.000000e+00 0.000000e+00 0.000000e+00 0.000000e+00 0.000000e+00
<ENDHMM>
~h "x"
<BEGINHMM>
<NUMSTATES> 5
<STATE> 2
<MEAN> 26
 -1.127071e+00 -4.121387e+00 4.096029e+00 -1.082200e+01 -4.883562e+00 2.043960e+00 -2.375252e+01 -9.239934e+00 -1.046377e+01 7.989026e-01 1.114106e+01 -8.284333e+00 2.017814e+01 1.913152e+00 -7.098982e-01 -2.854872e-01 -1.779395e+00 -1.674564e+00 2.107310e+00 -4.326240e+00 -6.907479e-02 -1.534956e+00 6.437455e-01 2.988363e+00 -2.323986e+00 8.724198e-01
<VARIANCE> 26
 4.479014e+00 8.345813e+00 1.104656e+01 3.231440e+01 1.550493e+01 3.416630e+01 4.283445e+01 3.246849e+01 6.068682e+01 5.103783e+01 2.178614e+01 2.177499e+01 1.323736e+00 2.348913e+00 1.345361e+00 1.072273e+00 2.297468e+00 1.819535e+00 2.425205e+00 5.349944e+00 3.795864e+00 5.664322e+00 3.647578e+00 2.208536e+00 2.203305e+00 8.656691e-01
<GCONST> 9.628838e+01
<STATE> 3
<MEAN> 26
 -1.386230e-01 -4.893785e+00 2.403723e+00 -1.294417e+01 -9.586738e+00 7.458829e+00 -2.878227e+01 -1.059256e+01 -9.588788e+00 1.714464e-01 1.591684e+01 -1.240278e+01 2.133596e+01 -5.515478e-02 7.740306e-02 1.240838e-02 -1.547463e-01 -1.138941e-01 4.498546e-02 6.267559e-02 -1.336472e-01 -2.430964e-01 3.140733e-02 -2.353421e-01 -5.258897e-02 -6.242897e-04
<VARIANCE> 26
 1.882106e+00 5.248286e+00 7.152536e+00 2.601965e+01 9.826638e+00 1.786293e+01 1.468270e+01 1.763429e+01 2.030107e+01 1.702951e+01 8.628479e+00 2.268108e+01 1.795230e-01 1.982411e-01 4.913162e-01 1.504398e+00 1.265018e+00 1.356320e+00 1.281793e+00 1.294010e+00 1.078680e+00 1.885158e+00 1.082113e+00 1.086715e+00 1.481140e+00 1.097716e-02
<GCONST> 7.130853e+01
<STATE> 4
<MEAN> 26
 2.885939e-01 -1.860673e+00 4.915812e+00 -1.218773e+01 -2.275219e+00 4.115145e+00 -2.090558e+01 -6.172859e+00 -1.159486e+01 1.952160e+00 8.237000e+00 -8.448253e+00 1.978960e+01 -3.029173e-01 1.506423e+00 2.703643e-01 9.109951e-01 2.139534e+00 -5.666060e-01 3.379036e+00 6.132153e-01 2.479651e-02 4.088266e-01 -2.435957e+00 1.296081e+00 -5.416441e-01
<VARIANCE> 26
 7.917728e+00 1.785419e+01 1.362818e+01 4.779156e+01 5.309834e+01 3.712811e+01 6.174413e+01 4.495149e+01 3.414374e+01 3.308744e+01 3.002031e+01 2.217990e+01 1.845058e+00 8.622792e-01 2.461326e+00 2.073022e+00 5.862517e+00 2.500474e+00 3.739648e+00 2.865122e+00 1.080252e+00 2.096399e+00 4.133648e+00 2.116065e+00 2.008312e+00 1.060444e-01
<GCONST> 9.685126e+01
<TRANSP> 5
 0.000000e+00 1.000000e+00 0.000000e+00 0.000000e+00 0.000000e+00
 0.000000e+00 6.401130e-01 3.598870e-01 0.000000e+00 0.000000e+00
 0.000000e+00 0.000000e+00 8.498772e-01 1.501229e-01 0.000000e+00
 0.000000e+00 0.000000e+00 0.000000e+00 7.293310e-01 2.706690e-01
 0.000000e+00 0.000000e+00 0.000000e+00 0.000000e+00 0.000000e+00
<ENDHMM>
~h "y"
<BEGINHMM>
<NUMSTATES> 5
<STATE> 2
<MEAN> 26
 -7.594068e+00 -6.797420e-01 1.416456e+01 4.890186e+00 -6.584364e+00 -6.638344e+00 -1.114794e+01 3.712588e-01 -1.296847e+01 -8.122864e+00 -4.719804e-01 2.095155e+00 1.816840e+01 1.679823e+00 -2.941415e-01 2.078768e+00 1.160092e+00 -6.124696e-01 -2.122513e+00 -3.001445e+00 1.361880e+00 -1.645500e+00 -3.507244e+00 1.113844e+00 6.232870e-01 7.778283e-01
<VARIANCE> 26
 2.645276e+01 2.303714e+01 3.927299e+01 2.557570e+01 2.871885e+01 4.878163e+01 9.683314e+01 4.927600e+01 5.851102e+01 6.711524e+01 2.711251e+01 2.612847e+01 5.421840e+00 4.584604e+00 2.711065e+00 4.680576e+00 3.073519e+00 2.737684e+00 5.227324e+00 7.569409e+00 2.857444e+00 6.073669e+00 5.003453e+00 2.073241e+00 2.506999e+00 5.523334e-01
<GCONST> 1.087439e+02
<STATE> 3
<MEAN> 26
 -3.108079e+00 -4.167987e+00 1.582694e+01 5.319333e+00 -1.056678e+01 -7.477180e+00 -2.064748e+01 2.867548e+00 -1.347968e+01 -1.996787e+01 4.766964e+00 2.378086e+00 2.018353e+01 1.840726e-01 -2.685795e-01 -1.047786e-01 -6.574667e-01 -6.648019e-01 3.656940e-01 -3.659210e-01 -5.610769e-02 1.641877e-01 -1.543915e-01 2.554541e-01 -4.911119e-01 9.729846e-02
<VARIANCE> 26
 7.118738e+00 1.615496e+01 1.780878e+01 2.356630e+01 2.943555e+01 1.915384e+01 4.025682e+01 4.219383e+01 4.217913e+01 3.205498e+01 2.223524e+01 2.153622e+01 4.151247e-01 8.094811e-01 1.034270e+00 2.554142e+00 2.361249e+00 2.564463e+00 2.781787e+00 4.917524e+00 2.782515e+00 2.114468e+00 4.486945e+00 1.791295e+00 1.601477e+00 3.912632e-02
<GCONST> 9.110627e+01
<STATE> 4
<MEAN> 26
 -2.429947e+00 -4.030896e+00 1.369941e+01 -3.776526e+00 -1.202929e+01 -6.140883e-01 -1.893493e+01 -3.219893e+00 -1.135297e+01 -8.236341e+00 4.072409e+00 -3.464297e+00 2.025768e+01 8.715054e-02 1.037917e+00 -1.329066e+00 -1.630798e+00 2.872625e-01 2.238014e+00 1.858914e+00 -2.245041e+00 5.151376e-01 3.228966e+00 -1.096626e+00 -7.493806e-01 -1.522553e-01
<VARIANCE> 26
 1.232753e+01 1.920982e+01 7.505113e+01 6.853704e+01 3.246530e+01 8.549297e+01 7.479304e+01 4.339109e+01 3.961316e+01 9.436460e+01 3.896787e+01 3.731300e+01 7.543600e-01 1.425077e+00 2.194599e+00 3.213532e+00 4.786625e+00 2.583776e+00 5.886459e+00 5.673100e+00 4.469558e+00 4.362731e+00 3.510255e+00 3.456999e+00 5.494176e+00 1.009983e-01
<GCONST> 1.062463e+02
<TRANSP> 5
 0.000000e+00 1.000000e+00 0.000000e+00 0.000000e+00 0.000000e+00
 0.000000e+00 6.151019e-01 3.848981e-01 0.000000e+00 0.000000e+00
 0.000000e+00 0.000000e+00 7.707809e-01 2.292191e-01 0.000000e+00
 0.000000e+00 0.000000e+00 0.000000e+00 6.871566e-01 3.128433e-01
 0.000000e+00 0.000000e+00 0.000000e+00 0.000000e+00 0.000000e+00
<ENDHMM>
~h "z"
<BEGINHMM>
<NUMSTATES> 5
<STATE> 2
<MEAN> 26
 -9.492315e+00 1.014835e+01 3.530912e+00 -3.892010e+00 9.928418e-01 -6.834260e+00 -1.018764e+01 -7.608644e+00 -7.804011e+00 1.636009e+00 -2.254919e+00 -3.037574e+00 1.905990e+01 -2.322446e+00 3.083086e+00 -9.727606e-01 1.854767e+00 1.839370e+00 -2.801273e-02 1.838369e+00 -3.059439e-01 1.216687e+00 1.900318e-01 -1.175866e+00 1.631428e+00 -4.544865e-01
<VARIANCE> 26
 1.114837e+01 1.823735e+01 3.204023e+01 4.604604e+01 4.265044e+01 3.412927e+01 2.592763e+01 2.351754e+01 2.421004e+01 3.860648e+01 2.397658e+01 2.367530e+01 5.828747e-01 8.644935e-01 2.509358e+00 2.427374e+00 4.017902e+00 2.816615e+00 3.808010e+00 3.010943e+00 2.437533e+00 2.542907e+00 2.406245e+00 2.471200e+00 1.539623e+00 2.597563e-02
<GCONST> 9.364927e+01
<STATE> 3
<MEAN> 26
 -1.647306e+01 1.450822e+01 2.796717e+00 3.302929e-01 3.837573e+00 -2.979426e+00 -5.153580e+00 -7.061459e+00 -5.594396e+00 -3.393553e-01 -3.329153e+00 1.407400e+00 1.783186e+01 -5.642610e-01 -3.056155e-01 1.276719e-02 -2.551931e-01 2.735875e-01 2.289965e-01 3.174721e-01 -3.640332e-01 2.689137e-01 2.373068e-01 -6.317244e-02 1.479084e-01 -5.668720e-02
<VARIANCE> 26
 8.447284e+00 8.910937e+00 2.914594e+01 3.354187e+01 3.384828e+01 2.939124e+01 2.261390e+01 2.126761e+01 1.848005e+01 3.745069e+01 1.759449e+01 1.916129e+01 5.551593e-01 1.382933e+00 1.040458e+00 1.518618e+00 1.572644e+00 1.859110e+00 3.585047e+00 2.127683e+00 1.613793e+00 1.123891e+00 2.070907e+00 9.017657e-01 1.621248e+00 4.641083e-02
<GCONST> 8.636033e+01
<STATE> 4
<MEAN> 26
 -1.150417e+01 8.414301e+00 1.987119e+00 -6.998948e+00 3.106182e+00 -7.052685e+00 -9.507977e+00 -9.136370e+00 -4.641065e+00 4.801929e+00 -2.857470e+00 -2.716255e+00 1.875389e+01 2.964791e+00 -3.733399e+00 5.541213e-01 -3.258182e+00 -1.452544e+00 -4.614929e-01 -2.404127e+00 9.538521e-01 -3.185408e-01 1.504359e+00 9.924554e-01 -1.820250e+00 4.903102e-01
<VARIANCE> 26
 2.041353e+01 2.484442e+01 3.036377e+01 4.348300e+01 2.148747e+01 3.013127e+01 2.429217e+01 2.445983e+01 2.115522e+01 3.143806e+01 2.180653e+01 2.272254e+01 9.575331e-01 1.498774e+00 2.516897e+00 1.754044e+00 4.427634e+00 1.997604e+00 5.036672e+00 4.070734e+00 3.983481e+00 2.084656e+00 3.339559e+00 2.495458e+00 3.359371e+00 9.835511e-02
<GCONST> 9.694119e+01
<TRANSP> 5
 0.000000e+00 1.000000e+00 0.000000e+00 0.000000e+00 0.000000e+00
 0.000000e+00 6.813134e-01 3.186866e-01 0.000000e+00 0.000000e+00
 0.000000e+00 0.000000e+00 7.342306e-01 2.657693e-01 0.000000e+00
 0.000000e+00 0.000000e+00 0.000000e+00 6.197088e-01 3.802912e-01
 0.000000e+00 0.000000e+00 0.000000e+00 0.000000e+00 0.000000e+00
<ENDHMM>
~h "__"
<BEGINHMM>
<NUMSTATES> 5
<STATE> 2
<MEAN> 26
 -9.685446e+00 1.189426e+00 -2.282509e-01 -4.271943e-02 2.114394e+00 3.653463e+00 7.357277e-01 3.338089e-01 -1.625708e+00 -1.154150e+00 -9.448715e-01 3.628338e-01 1.213271e+01 -3.109374e-01 6.801426e-02 -2.478418e-01 1.629549e-01 -2.759089e-01 -5.382470e-02 3.659622e-02 2.443691e-01 2.497781e-01 2.964675e-01 3.924811e-01 1.905528e-01 -1.917271e-01
<VARIANCE> 26
 1.718766e+01 1.632590e+01 2.656837e+01 3.135847e+01 2.381189e+01 2.172904e+01 2.821841e+01 2.132748e+01 2.294925e+01 2.479247e+01 2.313201e+01 1.493397e+01 3.750924e+00 1.098380e+00 1.207687e+00 1.596469e+00 2.329263e+00 2.460407e+00 2.623896e+00 2.449835e+00 2.311751e+00 2.374191e+00 2.184164e+00 2.015976e+00 1.353871e+00 3.468278e-01
<GCONST> 9.309238e+01
<STATE> 3
<MEAN> 26
 -1.267388e+01 3.395077e+00 8.097337e-01 2.232901e+00 2.336357e+00 3.180185e+00 1.609201e+00 3.527657e+00 1.273489e+00 2.696639e+00 3.312070e+00 1.992107e+00 1.184061e+01 -6.187151e-02 -3.488242e-02 -7.463533e-02 -5.720508e-02 -3.267753e-02 -4.961418e-02 3.463966e-02 7.072829e-02 6.173225e-02 9.290934e-02 1.070593e-01 1.361420e-02 -5.313099e-02
<VARIANCE> 26
 2.452532e+00 4.583829e+00 7.751388e+00 1.147575e+01 9.941409e+00 1.056155e+01 1.276359e+01 1.455459e+01 1.442725e+01 1.441752e+01 1.298207e+01 1.134731e+01 2.113261e+00 2.204364e-01 4.146629e-01 5.253651e-01 1.130030e+00 9.914939e-01 1.076863e+00 1.311313e+00 1.504891e+00 1.391563e+00 1.374208e+00 1.357587e+00 1.211023e+00 5.225732e-02
<GCONST> 7.167465e+01
<STATE> 4
<MEAN> 26
 -1.334857e+01 2.125950e+00 -8.777565e-01 2.801990e-01 -2.436436e-01 3.819646e-01 -6.654435e-01 8.560857e-01 -1.489036e+00 -1.736554e-01 9.405276e-01 -4.450814e-01 8.633945e+00 -9.344737e-02 -3.053815e-02 1.116412e-01 -5.492417e-02 6.583274e-02 5.312767e-02 -5.989147e-02 2.220215e-02 9.200498e-02 2.620462e-02 1.252733e-02 -1.276772e-02 -1.344724e-02
<VARIANCE> 26
 3.319037e+00 2.893869e+00 5.344704e+00 6.208553e+00 8.626120e+00 1.001765e+01 1.068122e+01 1.296386e+01 1.456788e+01 1.366696e+01 1.180309e+01 1.060448e+01 7.825267e-01 2.471389e-01 3.277719e-01 5.763892e-01 7.231236e-01 8.899575e-01 1.034682e+00 1.220310e+00 1.343338e+00 1.378508e+00 1.390582e+00 1.377528e+00 1.187129e+00 4.640534e-02
<GCONST> 6.791270e+01
<TRANSP> 5
 0.000000e+00 1.000000e+00 0.000000e+00 0.000000e+00 0.000000e+00
 0.000000e+00 8.975382e-01 1.024618e-01 0.000000e+00 0.000000e+00
 0.000000e+00 0.000000e+00 9.443197e-01 5.568032e-02 0.000000e+00
 0.000000e+00 0.000000e+00 0.000000e+00 9.610885e-01 3.891144e-02
 0.000000e+00 0.000000e+00 0.000000e+00 0.000000e+00 0.000000e+00
<ENDHMM>
~h "a~"
<BEGINHMM>
<NUMSTATES> 5
<STATE> 2
<MEAN> 26
 8.188611e-01 -6.220899e+00 -4.826290e+00 -2.350528e+01 -5.423902e+00 9.512667e+00 -9.621853e+00 1.076124e+00 -1.268541e+01 -6.721881e-01 4.781547e+00 -3.518444e+00 2.074170e+01 1.847587e+00 -6.229076e-01 -1.440298e+00 -2.126084e+00 -1.439073e+00 1.780360e+00 7.620065e-01 2.239099e+00 -1.456512e+00 -2.302828e+00 1.733693e-01 7.284981e-01 5.777829e-01
<VARIANCE> 26
 8.134288e+00 1.965613e+01 1.848584e+01 3.797182e+01 3.454639e+01 4.519349e+01 6.988419e+01 3.537677e+01 2.348680e+01 6.694511e+01 4.058288e+01 4.196680e+01 1.459170e+00 3.985977e+00 2.845790e+00 1.798607e+00 8.443921e+00 3.362849e+00 6.534697e+00 6.962440e+00 2.996534e+00 4.930402e+00 4.682756e+00 3.770882e+00 4.641122e+00 6.204789e-01
<GCONST> 1.065590e+02
<STATE> 3
<MEAN> 26
 2.454278e+00 -5.611860e+00 -7.165720e+00 -2.128878e+01 -1.136533e+01 8.639836e+00 -4.535724e+00 8.468341e+00 -1.399565e+01 -9.950173e+00 2.947990e+00 -4.038237e+00 2.118238e+01 6.171153e-02 3.515116e-01 7.829323e-02 4.521373e-01 -2.974826e-01 -6.219510e-01 3.879509e-01 1.570882e-01 -3.399880e-01 2.998503e-01 -6.758264e-01 -4.653900e-01 -5.721303e-02
<VARIANCE> 26
 6.263824e+00 1.019278e+01 1.371042e+01 2.184605e+01 1.844330e+01 2.980716e+01 2.536093e+01 1.563408e+01 1.665825e+01 2.228953e+01 2.031557e+01 1.749356e+01 3.040897e-01 3.470316e-01 9.287059e-01 1.054411e+00 1.523542e+00 1.549277e+00 1.534814e+00 1.991746e+00 1.990874e+00 1.272788e+00 2.851308e+00 1.339260e+00 1.178719e+00 2.224291e-02
<GCONST> 8.006067e+01
<STATE> 4
<MEAN> 26
 3.032924e+00 -2.510623e-02 -4.211905e+00 -1.234762e+01 -9.403769e+00 4.568868e+00 -2.333996e+00 1.880775e+00 -1.728161e+01 -2.507237e+00 -1.666980e+00 -4.080656e+00 1.989095e+01 -5.655217e-01 1.443735e+00 1.139347e+00 2.971514e+00 1.340552e+00 -2.917802e-01 3.984772e-01 -2.084126e+00 5.028147e-01 6.085099e-01 -1.126089e-01 4.670265e-01 -4.465711e-01
<VARIANCE> 26
 7.171774e+00 2.592246e+01 2.188386e+01 9.052457e+01 3.158152e+01 2.508435e+01 5.992730e+01 4.416231e+01 5.160538e+01 2.668121e+01 2.666925e+01 2.201102e+01 1.127596e+00 2.427340e+00 2.175807e+00 2.070560e+00 6.308751e+00 5.144670e+00 2.932666e+00 3.417921e+00 3.815112e+00 5.294696e+00 2.965624e+00 1.849568e+00 2.274455e+00 1.070865e-01
<GCONST> 1.003522e+02
<TRANSP> 5
 0.000000e+00 1.000000e+00 0.000000e+00 0.000000e+00 0.000000e+00
 0.000000e+00 6.709195e-01 3.290805e-01 0.000000e+00 0.000000e+00
 0.000000e+00 0.000000e+00 8.642666e-01 1.357334e-01 0.000000e+00
 0.000000e+00 0.000000e+00 0.000000e+00 7.579527e-01 2.420473e-01
 0.000000e+00 0.000000e+00 0.000000e+00 0.000000e+00 0.000000e+00
<ENDHMM>
~h "e^"
<BEGINHMM>
<NUMSTATES> 5
<STATE> 2
<MEAN> 26
 -5.397851e+00 -4.505718e+00 1.404670e+01 -1.299662e+01 -7.941997e+00 -8.160008e+00 -1.535838e+01 -1.961760e+00 -1.090468e+01 3.643250e-01 1.742950e+00 -1.300572e+00 1.989837e+01 1.343726e+00 -2.193867e+00 2.836957e+00 -2.229919e+00 -3.040406e+00 -1.083448e+00 -2.748303e+00 1.604370e+00 -2.754980e+00 5.193379e-01 1.042132e+00 -1.925981e-01 8.579955e-01
<VARIANCE> 26
 1.304672e+01 2.723242e+01 4.135236e+01 4.730872e+01 2.865680e+01 3.143785e+01 4.540133e+01 3.467808e+01 4.954250e+01 5.450587e+01 2.718672e+01 1.459616e+01 3.167651e+00 3.199889e+00 2.023783e+00 4.818357e+00 4.109002e+00 2.800979e+00 3.860583e+00 5.189593e+00 3.793565e+00 4.030920e+00 3.504559e+00 2.972851e+00 2.105194e+00 5.717853e-01
<GCONST> 1.045767e+02
<STATE> 3
<MEAN> 26
 -4.372994e+00 -6.949985e+00 1.836544e+01 -1.604136e+01 -1.386431e+01 -6.161755e+00 -1.888044e+01 1.175859e+00 -1.694489e+01 1.441889e+00 3.922694e+00 -2.218503e+00 2.099141e+01 8.899427e-02 2.784237e-01 1.950250e-01 1.359346e-01 -1.354775e-01 2.135163e-02 3.796560e-01 -1.654546e-01 -7.655208e-01 3.845908e-01 -2.067508e-01 -9.223050e-03 -1.569615e-02
<VARIANCE> 26
 4.471347e+00 1.461051e+01 2.005224e+01 1.625402e+01 1.784045e+01 2.117970e+01 1.968524e+01 1.986923e+01 2.703096e+01 2.977180e+01 1.888391e+01 1.271571e+01 3.099511e-01 4.018536e-01 1.296581e+00 1.283307e+00 2.144814e+00 1.925881e+00 1.807326e+00 1.873806e+00 1.735005e+00 1.811517e+00 1.928523e+00 1.304179e+00 8.978965e-01 3.142961e-02
<GCONST> 8.139037e+01
<STATE> 4
<MEAN> 26
 -2.923309e+00 -4.082969e-01 1.667547e+01 -1.098134e+01 -7.678952e+00 -6.399639e+00 -8.651711e+00 -1.694417e+00 -1.592309e+01 2.444378e+00 -4.055246e-01 -1.852385e+00 1.960101e+01 1.807409e-01 2.090034e+00 -1.649232e+00 2.843811e+00 2.472071e+00 4.870038e-01 2.689539e+00 -3.497543e-01 2.289926e+00 -7.606887e-01 -8.190853e-01 -3.572316e-01 -5.816247e-01
<VARIANCE> 26
 5.857898e+00 3.782334e+01 2.567898e+01 4.373677e+01 3.426223e+01 4.456266e+01 1.214396e+02 3.178506e+01 3.774347e+01 4.458744e+01 3.105570e+01 1.726785e+01 1.582774e+00 2.334315e+00 4.975528e+00 2.769832e+00 4.930304e+00 2.585257e+00 3.570310e+00 3.500317e+00 5.479034e+00 3.316941e+00 3.584850e+00 2.616516e+00 2.128727e+00 1.131184e-01
<GCONST> 1.022273e+02
<TRANSP> 5
 0.000000e+00 1.000000e+00 0.000000e+00 0.000000e+00 0.000000e+00
 0.000000e+00 5.686177e-01 4.313823e-01 0.000000e+00 0.000000e+00
 0.000000e+00 0.000000e+00 8.044429e-01 1.955571e-01 0.000000e+00
 0.000000e+00 0.000000e+00 0.000000e+00 6.748441e-01 3.251559e-01
 0.000000e+00 0.000000e+00 0.000000e+00 0.000000e+00 0.000000e+00
<ENDHMM>
~h "e~"
<BEGINHMM>
<NUMSTATES> 5
<STATE> 2
<MEAN> 26
 -1.123000e+00 -1.248795e+01 -2.408114e+00 -2.016433e+01 -1.738794e-01 5.994882e+00 -1.790801e+01 2.711737e+00 -6.721798e+00 3.769799e+00 2.356126e+00 -8.933634e+00 2.097516e+01 1.383207e+00 -2.550712e+00 -8.149230e-01 -2.143828e+00 1.059866e+00 1.772810e+00 -2.035322e+00 1.232427e+00 -1.235055e+00 6.946445e-01 1.430265e-01 -1.110565e+00 5.926384e-01
<VARIANCE> 26
 5.840161e+00 2.371704e+01 2.162707e+01 1.888512e+01 3.651114e+01 3.183601e+01 2.650649e+01 2.492938e+01 2.548896e+01 3.055822e+01 5.040692e+01 4.040083e+01 1.330023e+00 2.506798e+00 3.737387e+00 1.713092e+00 4.956984e+00 3.704040e+00 2.164880e+00 3.480744e+00 3.570353e+00 1.793135e+00 2.503921e+00 2.328263e+00 2.355676e+00 5.708411e-01
<GCONST> 9.846310e+01
<STATE> 3
<MEAN> 26
 3.235631e-02 -1.430600e+01 -5.385430e+00 -2.081389e+01 3.653296e+00 7.883325e+00 -1.978905e+01 3.077783e+00 -1.034013e+01 3.868909e-01 5.239163e+00 -8.658453e+00 2.160118e+01 1.841843e-01 3.463408e-01 -2.059064e-01 9.888481e-02 5.416923e-01 -8.859752e-01 1.504707e-01 -2.125979e-01 -5.663424e-01 -1.292801e-01 -1.948445e-01 2.776614e-02 -7.782859e-02
<VARIANCE> 26
 5.514810e+00 8.607079e+00 1.218492e+01 1.367690e+01 2.023067e+01 2.296302e+01 2.057582e+01 1.241651e+01 1.817788e+01 1.691649e+01 2.389038e+01 1.567023e+01 3.078697e-01 3.401661e-01 7.993020e-01 1.200395e+00 9.983308e-01 1.463648e+00 1.836267e+00 1.148437e+00 8.783131e-01 1.233957e+00 1.292638e+00 2.230055e+00 1.048727e+00 1.639343e-02
<GCONST> 7.600221e+01
<STATE> 4
<MEAN> 26
 1.088372e+00 -6.632757e+00 -4.520694e+00 -1.442862e+01 1.923354e+00 -1.248778e+00 -1.362877e+01 -7.085213e-01 -1.443897e+01 1.404570e+00 -9.817369e-01 -8.154138e+00 2.036144e+01 -3.383016e-01 2.750442e+00 7.344677e-01 3.154500e+00 -1.101254e+00 -7.522759e-01 2.627450e+00 -1.473804e+00 2.536731e-01 -3.848245e-01 -1.203798e+00 1.197351e+00 -4.266431e-01
<VARIANCE> 26
 6.996713e+00 3.517950e+01 3.540234e+01 8.410384e+01 7.098224e+01 4.550883e+01 4.765519e+01 5.111837e+01 4.803462e+01 3.755427e+01 3.445032e+01 2.656133e+01 5.006934e-01 2.952125e+00 3.359128e+00 2.386736e+00 7.120672e+00 4.975823e+00 2.845232e+00 1.886575e+00 2.845469e+00 4.884310e+00 3.330471e+00 3.096092e+00 2.097373e+00 7.375933e-02
<GCONST> 1.023038e+02
<TRANSP> 5
 0.000000e+00 1.000000e+00 0.000000e+00 0.000000e+00 0.000000e+00
 0.000000e+00 5.081900e-01 4.918100e-01 0.000000e+00 0.000000e+00
 0.000000e+00 0.000000e+00 8.620439e-01 1.379561e-01 0.000000e+00
 0.000000e+00 0.000000e+00 0.000000e+00 7.140291e-01 2.859708e-01
 0.000000e+00 0.000000e+00 0.000000e+00 0.000000e+00 0.000000e+00
<ENDHMM>
~h "o^"
<BEGINHMM>
<NUMSTATES> 5
<STATE> 2
<MEAN> 26
 1.763033e+00 1.110446e-01 1.865608e+00 -2.738966e+01 -9.684326e+00 6.069622e+00 -1.198192e+01 -4.998741e+00 -1.563620e+01 3.589886e-01 7.039464e+00 -4.149675e+00 2.037191e+01 1.627806e+00 5.913270e-01 6.936905e-01 -4.028286e+00 -2.967435e+00 2.311622e+00 -1.425099e+00 5.704834e-01 -2.569923e+00 -1.182875e+00 2.020960e+00 -1.088531e+00 9.812863e-01
<VARIANCE> 26
 7.986275e+00 3.817571e+01 1.314841e+01 9.163847e+01 3.360072e+01 2.061140e+01 5.292940e+01 5.413592e+01 5.726006e+01 5.386875e+01 8.692440e+01 2.147102e+01 2.806764e+00 3.874544e+00 1.711873e+00 1.620784e+00 1.510762e+01 2.848668e+00 2.317563e+00 4.218953e+00 2.802235e+00 7.533045e+00 3.188990e+00 3.939291e+00 5.408430e+00 1.422427e+00
<GCONST> 1.077355e+02
<STATE> 3
<MEAN> 26
 2.939926e+00 4.537141e-01 3.069887e+00 -3.000831e+01 -1.627946e+01 1.082245e+01 -1.310071e+01 -4.341589e+00 -1.582185e+01 -6.407128e+00 1.242007e+01 -7.456438e+00 2.164017e+01 8.179215e-02 1.497246e-02 -1.620998e-02 -6.570805e-02 6.332312e-03 1.149869e-01 -3.105217e-01 9.044079e-02 -5.899780e-01 -1.180559e-01 -1.615361e-02 -1.032059e-01 1.459769e-04
<VARIANCE> 26
 5.763241e+00 1.159572e+01 1.913179e+01 2.557191e+01 2.088649e+01 1.517302e+01 2.090724e+01 3.887108e+01 4.677929e+01 4.122626e+01 3.696935e+01 2.672592e+01 3.226258e-01 3.750473e-01 1.035794e+00 9.548186e-01 2.812252e+00 2.071400e+00 1.119137e+00 1.592963e+00 2.215159e+00 2.185741e+00 3.437398e+00 2.200651e+00 1.835016e+00 3.013477e-02
<GCONST> 8.602206e+01
<STATE> 4
<MEAN> 26
 2.056549e+00 8.727261e-01 1.647844e+00 -2.529798e+01 -7.617528e+00 5.983022e+00 -1.556151e+01 -4.446508e+00 -1.974943e+01 1.175864e-01 8.721852e+00 -6.499631e+00 2.038068e+01 -6.710012e-01 7.214934e-01 -1.349546e-01 3.133421e+00 2.535556e+00 -2.182348e+00 1.301783e+00 -6.552216e-01 1.760997e+00 1.197235e+00 -1.965176e+00 6.279091e-01 -6.355970e-01
<VARIANCE> 26
 1.100610e+01 3.330666e+01 1.824647e+01 1.013610e+02 5.184415e+01 4.127626e+01 7.367419e+01 6.444839e+01 5.680896e+01 5.000343e+01 5.998188e+01 5.285852e+01 1.919005e+00 1.048896e+00 3.478260e+00 3.096308e+00 7.654375e+00 3.319006e+00 2.852491e+00 7.823183e+00 3.866804e+00 6.254469e+00 7.770910e+00 6.473824e+00 6.543662e+00 2.374088e-01
<GCONST> 1.103201e+02
<TRANSP> 5
 0.000000e+00 1.000000e+00 0.000000e+00 0.000000e+00 0.000000e+00
 0.000000e+00 5.790237e-01 4.209763e-01 0.000000e+00 0.000000e+00
 0.000000e+00 0.000000e+00 8.697681e-01 1.302319e-01 0.000000e+00
 0.000000e+00 0.000000e+00 0.000000e+00 7.098688e-01 2.901311e-01
 0.000000e+00 0.000000e+00 0.000000e+00 0.000000e+00 0.000000e+00
<ENDHMM>
~h "n~"
<BEGINHMM>
<NUMSTATES> 5
<STATE> 2
<MEAN> 26
 4.588980e-01 2.982621e-01 8.137998e+00 -2.525185e+00 -9.039989e+00 -4.193557e+00 -1.156165e+01 2.291986e+00 -1.936578e+01 -1.536449e+01 9.446869e+00 -4.455199e+00 2.070689e+01 -2.496606e-01 -2.971330e-02 2.172711e-01 -8.894918e-02 1.143067e-01 -1.951559e-02 1.860926e-02 6.431715e-01 -1.501096e-01 -9.267666e-01 1.670598e+00 -5.187188e-01 1.114182e-02
<VARIANCE> 26
 4.911952e+00 5.026392e+00 1.967204e+01 3.872995e+01 2.069264e+01 3.049425e+01 1.287315e+01 2.125487e+01 1.510339e+01 1.877206e+01 4.294586e+01 1.223836e+01 1.390074e-01 1.773418e+00 9.577832e-01 3.990887e+00 6.914399e+00 2.637630e+00 3.941000e+00 4.093956e+00 2.329621e+00 1.093795e+00 1.684748e+00 2.739916e+00 1.327598e+00 1.218676e-03
<GCONST> 8.326112e+01
<STATE> 3
<MEAN> 26
 -4.533320e+00 -6.947995e-02 1.800269e+01 -1.108261e+01 -1.568295e+01 6.210279e+00 -1.627025e+01 -4.014616e-01 -1.626156e+01 -1.340274e+01 9.691459e+00 -5.647707e+00 2.076844e+01 -5.839004e-01 -5.401400e-01 1.442383e+00 -7.723223e-01 -2.362839e+00 1.617727e+00 -5.619854e-02 -9.825997e-01 1.574916e+00 1.276609e+00 -1.204498e+00 4.600762e-01 -7.645021e-03
<VARIANCE> 26
 7.109236e+00 1.410475e+01 1.550913e+01 3.502015e+01 4.872003e+01 3.164884e+01 2.029353e+01 4.398059e+01 2.518980e+01 2.897799e+01 2.837603e+01 9.243379e+00 9.154987e-02 6.262286e-01 1.221033e+00 2.951450e+00 4.489312e+00 2.822560e+00 1.023883e+01 1.774979e+00 4.892067e+00 9.215298e-01 1.678877e+00 1.661574e+00 7.288907e-01 5.039267e-03
<GCONST> 8.577480e+01
<STATE> 4
<MEAN> 26
 -3.223609e+00 -5.152279e+00 1.354044e+01 -7.952460e+00 -1.708506e+01 1.237625e+00 -1.822863e+01 2.366851e+00 -9.257370e+00 -8.703616e+00 6.153856e+00 -4.302939e+00 2.089559e+01 8.443334e-01 -3.051987e-01 -2.421045e+00 1.357743e-01 2.329648e+00 -1.262561e+00 -1.062358e+00 4.511613e-01 7.964604e-01 1.336788e+00 -2.781194e-01 -2.837540e-01 -7.091394e-03
<VARIANCE> 26
 9.376188e+00 1.558366e+01 3.274013e+01 1.427703e+01 3.002547e+01 4.142336e+01 2.000633e+01 2.103294e+01 3.244041e+01 2.426390e+01 1.079294e+01 6.178033e+00 9.724720e-02 2.181985e-01 2.308987e+00 2.177032e+00 3.052276e+00 2.363050e+00 6.738895e+00 4.630322e+00 3.949658e+00 3.331705e+00 2.077911e+00 1.353408e+00 2.085046e+00 1.776556e-02
<GCONST> 8.644646e+01
<TRANSP> 5
 0.000000e+00 1.000000e+00 0.000000e+00 0.000000e+00 0.000000e+00
 0.000000e+00 7.795400e-01 2.204600e-01 0.000000e+00 0.000000e+00
 0.000000e+00 0.000000e+00 7.475519e-01 2.524481e-01 0.000000e+00
 0.000000e+00 0.000000e+00 0.000000e+00 7.425999e-01 2.574001e-01
 0.000000e+00 0.000000e+00 0.000000e+00 0.000000e+00 0.000000e+00
<ENDHMM>
~h "o~"
<BEGINHMM>
<NUMSTATES> 5
<STATE> 2
<MEAN> 26
 6.445760e-01 5.487641e-01 2.674133e-01 -1.577883e+01 -1.210297e+01 6.724347e+00 -7.903433e+00 1.753142e+00 -1.172395e+01 -5.134311e+00 5.128533e+00 -2.351340e+00 1.979173e+01 2.072116e+00 -2.034986e-02 -5.594372e-02 -1.213475e+00 -3.572192e+00 5.758926e-01 -6.817154e-01 2.010104e+00 -1.154387e+00 -6.092786e-01 8.512532e-01 -9.689514e-01 6.147804e-01
<VARIANCE> 26
 1.442452e+01 2.133389e+01 1.723425e+01 3.377639e+01 4.790839e+01 3.200083e+01 4.416674e+01 4.409725e+01 4.265731e+01 2.972695e+01 3.740194e+01 1.642568e+01 2.395207e+00 5.163005e+00 2.000884e+00 2.640613e+00 4.976266e+00 4.082799e+00 3.715885e+00 6.215066e+00 4.554416e+00 6.006012e+00 3.230567e+00 3.991626e+00 1.358357e+00 2.440559e-01
<GCONST> 1.034482e+02
<STATE> 3
<MEAN> 26
 1.900619e+00 -2.088071e+00 -1.010934e+00 -1.239524e+01 -1.883344e+01 6.301763e+00 -9.473230e+00 2.903332e+00 -1.354199e+01 -3.680756e+00 2.933275e+00 -5.859518e+00 2.065897e+01 2.979582e-02 1.041383e-01 -1.044910e-01 6.749832e-01 -8.469126e-02 4.820270e-02 1.995667e-01 -3.297517e-01 -7.004018e-01 4.164717e-01 -8.400653e-01 -2.367974e-01 -4.551495e-02
<VARIANCE> 26
 3.817127e+00 1.336435e+01 1.329170e+01 2.383821e+01 1.666448e+01 1.893633e+01 1.967945e+01 2.091501e+01 3.133072e+01 2.224150e+01 2.206169e+01 1.556822e+01 1.679477e-01 2.898085e-01 7.189476e-01 1.160194e+00 2.499866e+00 1.852920e+00 2.268395e+00 1.652063e+00 1.717953e+00 2.106935e+00 1.636899e+00 1.612402e+00 9.471475e-01 1.364450e-02
<GCONST> 7.919360e+01
<STATE> 4
<MEAN> 26
 2.959128e+00 1.040535e+00 -5.383771e-01 -6.098332e+00 -1.087638e+01 5.369515e+00 -3.748014e+00 -1.139812e+00 -1.836116e+01 -4.166461e-01 -3.672658e+00 -3.594253e+00 1.936538e+01 -3.839969e-01 1.087960e+00 1.290083e-01 1.716990e+00 2.566684e+00 -1.202324e+00 1.924378e+00 -1.420278e+00 1.177378e+00 -1.181910e-02 -1.429250e-01 8.898293e-01 -5.327216e-01
<VARIANCE> 26
 5.059244e+00 2.894217e+01 1.271289e+01 8.478151e+01 4.945992e+01 4.069719e+01 4.412982e+01 3.356548e+01 3.137318e+01 2.964791e+01 3.656859e+01 2.739599e+01 8.260742e-01 1.839942e+00 2.355995e+00 1.194874e+00 5.906010e+00 2.649319e+00 3.319910e+00 2.686400e+00 3.130735e+00 4.520012e+00 2.637069e+00 3.513143e+00 2.358643e+00 1.260341e-01
<GCONST> 9.846181e+01
<TRANSP> 5
 0.000000e+00 1.000000e+00 0.000000e+00 0.000000e+00 0.000000e+00
 0.000000e+00 5.851510e-01 4.148490e-01 0.000000e+00 0.000000e+00
 0.000000e+00 0.000000e+00 8.763089e-01 1.236911e-01 0.000000e+00
 0.000000e+00 0.000000e+00 0.000000e+00 7.313688e-01 2.686312e-01
 0.000000e+00 0.000000e+00 0.000000e+00 0.000000e+00 0.000000e+00
<ENDHMM>
~h "s^"
<BEGINHMM>
<NUMSTATES> 5
<STATE> 2
<MEAN> 26
 -2.039682e+01 -6.386965e-01 9.096725e+00 -7.297882e+00 3.314403e+00 -3.400017e+00 5.910283e-01 -8.704769e+00 -2.633101e+00 -2.339392e+00 -3.726787e+00 -5.733795e-01 1.826238e+01 -4.937707e+00 -1.702261e+00 -4.857623e-01 -9.768209e-02 1.142200e+00 2.658516e-01 2.512571e+00 5.176959e-01 2.436971e+00 6.210033e-01 1.367622e+00 5.849859e-01 -3.527164e-01
<VARIANCE> 26
 4.856154e+01 2.519941e+01 2.217976e+01 2.156409e+01 4.415573e+01 4.494756e+01 4.435869e+01 4.103107e+01 3.140655e+01 4.711010e+01 2.545594e+01 1.997578e+01 6.615739e-01 2.539576e+00 3.515286e+00 4.436308e+00 4.954109e+00 4.138592e+00 5.778180e+00 3.778991e+00 3.050477e+00 3.290504e+00 3.306101e+00 3.030225e+00 2.051640e+00 1.315997e-01
<GCONST> 1.023668e+02
<STATE> 3
<MEAN> 26
 -3.054150e+01 -6.924219e+00 5.557610e+00 -1.264959e+01 1.516216e+00 -5.344399e+00 3.537810e+00 -7.176521e+00 1.941575e+00 1.482252e+00 -1.895840e-01 1.839633e+00 1.817604e+01 -7.527278e-02 -1.577401e-02 -7.028922e-02 -2.322225e-01 -6.366545e-02 -2.158447e-01 -7.381528e-03 -1.518398e-01 1.778845e-01 1.854531e-01 -1.229302e-02 4.721533e-03 -8.223401e-03
<VARIANCE> 26
 7.200888e+00 9.165967e+00 9.711096e+00 1.124130e+01 2.445322e+01 2.966013e+01 1.924487e+01 1.665331e+01 1.243940e+01 1.689991e+01 1.057983e+01 1.405724e+01 3.483672e-01 1.214250e+00 7.456461e-01 6.678851e-01 1.060243e+00 1.361632e+00 1.356521e+00 1.397553e+00 1.667634e+00 1.349622e+00 1.593109e+00 1.351186e+00 1.507138e+00 2.521860e-02
<GCONST> 7.713130e+01
<STATE> 4
<MEAN> 26
 -2.015745e+01 -3.433316e+00 4.847565e+00 -1.127596e+01 1.747674e+00 -6.199625e+00 -4.968434e-01 -9.637501e+00 1.234531e+00 7.587596e-01 -1.614681e+00 -1.825279e-01 1.713161e+01 5.118135e+00 6.024657e-01 -4.317026e-01 8.693697e-01 -9.547590e-01 6.874366e-01 -2.789568e+00 -3.780942e-01 -1.400293e+00 -3.967920e-01 -9.561597e-02 -6.564558e-01 1.147887e-02
<VARIANCE> 26
 6.915355e+01 1.832472e+01 2.222152e+01 2.418736e+01 4.341440e+01 3.107318e+01 3.859832e+01 2.364293e+01 2.054603e+01 4.377274e+01 2.136835e+01 2.038640e+01 3.763878e+00 6.443099e+00 2.895953e+00 2.771641e+00 2.087289e+00 5.876819e+00 7.135980e+00 5.842277e+00 4.091591e+00 4.061478e+00 3.782752e+00 3.779993e+00 2.658290e+00 5.064183e-01
<GCONST> 1.053945e+02
<TRANSP> 5
 0.000000e+00 1.000000e+00 0.000000e+00 0.000000e+00 0.000000e+00
 0.000000e+00 6.908974e-01 3.091025e-01 0.000000e+00 0.000000e+00
 0.000000e+00 0.000000e+00 8.933389e-01 1.066611e-01 0.000000e+00
 0.000000e+00 0.000000e+00 0.000000e+00 7.051575e-01 2.948425e-01
 0.000000e+00 0.000000e+00 0.000000e+00 0.000000e+00 0.000000e+00
<ENDHMM>
~h "x^"
<BEGINHMM>
<NUMSTATES> 5
<STATE> 2
<MEAN> 26
 -1.191599e+00 -9.332523e+00 5.457791e+00 -1.801237e+01 -4.700003e+00 -2.512353e+00 -2.363177e+01 -5.343536e-01 -7.958349e+00 1.062067e+01 4.814989e+00 -1.160391e+01 2.079317e+01 1.080919e+00 -2.039189e+00 -6.999160e-02 -3.511520e+00 -1.419517e+00 1.025681e+00 -2.617823e+00 1.341709e+00 4.544644e-01 2.805616e+00 1.163620e+00 -1.189402e+00 7.268830e-01
<VARIANCE> 26
 6.145067e+00 1.745813e+01 2.137692e+01 3.827230e+01 3.364229e+01 3.641610e+01 2.315210e+01 2.165924e+01 2.163925e+01 3.614170e+01 3.049298e+01 1.470369e+01 7.579775e-01 4.176898e+00 1.654385e+00 2.239096e+00 6.719781e+00 3.899336e+00 2.872954e+00 6.242724e+00 3.510719e+00 4.844647e+00 2.285515e+00 2.813157e+00 3.514143e+00 6.736091e-01
<GCONST> 9.943404e+01
<STATE> 3
<MEAN> 26
 7.052466e-02 -1.214130e+01 1.661779e+00 -2.117088e+01 -6.439236e+00 5.751892e-02 -2.475129e+01 5.175654e+00 -6.813769e+00 1.331341e+01 4.195850e+00 -1.171429e+01 2.170509e+01 1.099429e-01 1.241636e-01 -5.662888e-01 -4.779336e-01 2.756236e-01 4.040644e-01 2.443589e-01 3.470235e-02 -3.038517e-01 3.013329e-01 -3.749189e-01 -1.182794e-01 -9.322156e-03
<VARIANCE> 26
 2.599481e+00 9.323254e+00 1.792342e+01 1.668373e+01 1.829664e+01 1.938387e+01 1.222425e+01 2.148658e+01 8.097617e+00 1.631605e+01 1.775751e+01 1.519263e+01 2.464917e-01 2.719027e-01 6.683190e-01 1.045066e+00 1.779694e+00 1.309103e+00 1.867847e+00 1.260303e+00 1.508183e+00 1.130524e+00 1.222343e+00 1.139017e+00 1.209204e+00 1.743808e-02
<GCONST> 7.424217e+01
<STATE> 4
<MEAN> 26
 1.018156e+00 -7.923147e+00 -5.790071e-02 -2.461109e+01 -1.045414e+00 3.160600e+00 -1.674140e+01 -2.830178e+00 -1.062047e+01 1.329666e+01 1.990297e+00 -8.176063e+00 2.075915e+01 3.115181e-02 1.279987e+00 -2.119936e-01 6.421491e-01 1.182893e+00 7.397804e-01 2.980728e+00 -2.354471e+00 -2.330005e-01 -1.483099e+00 -3.055280e-01 1.823522e+00 -3.654121e-01
<VARIANCE> 26
 3.086315e+00 2.320757e+01 1.719790e+01 3.210973e+01 2.138518e+01 4.086818e+01 7.448413e+01 3.087377e+01 3.238136e+01 1.780788e+01 2.905310e+01 2.162958e+01 5.721014e-01 8.366953e-01 2.066637e+00 1.698140e+00 4.577042e+00 1.969389e+00 1.937173e+00 3.914542e+00 2.429186e+00 2.956201e+00 2.780022e+00 1.384295e+00 1.753303e+00 8.248210e-02
<GCONST> 9.181303e+01
<TRANSP> 5
 0.000000e+00 1.000000e+00 0.000000e+00 0.000000e+00 0.000000e+00
 0.000000e+00 5.219047e-01 4.780953e-01 0.000000e+00 0.000000e+00
 0.000000e+00 0.000000e+00 8.378819e-01 1.621181e-01 0.000000e+00
 0.000000e+00 0.000000e+00 0.000000e+00 7.329068e-01 2.670932e-01
 0.000000e+00 0.000000e+00 0.000000e+00 0.000000e+00 0.000000e+00
<ENDHMM>
~h "x~"
<BEGINHMM>
<NUMSTATES> 5
<STATE> 2
<MEAN> 26
 -1.199015e+00 -1.117275e+01 -2.774979e+00 -2.143698e+01 8.141126e+00 -4.518385e+00 -1.148687e+01 -3.029699e+00 -2.802877e+00 5.214460e+00 -2.796926e+00 -8.296114e+00 1.919424e+01 2.542921e+00 -3.082017e+00 2.684706e-01 -3.550843e+00 1.695520e+00 5.452943e-01 -2.372058e+00 9.598532e-01 -1.704145e+00 3.381064e-01 -8.148687e-02 -1.670111e+00 1.492440e+00
<VARIANCE> 26
 1.024254e+01 3.773980e+01 1.487742e+01 2.486246e+01 5.277610e+01 2.057382e+01 4.118579e+01 3.830919e+01 2.113890e+01 2.571940e+01 2.682598e+01 2.775974e+01 2.556940e+00 3.111541e+00 3.827198e+00 1.731061e+00 6.376979e+00 3.388878e+00 3.696887e+00 3.604707e+00 5.380599e+00 2.292931e+00 3.040238e+00 2.092283e+00 2.781496e+00 1.296013e+00
<GCONST> 1.021933e+02
<STATE> 3
<MEAN> 26
 3.228708e-01 -1.464930e+01 -2.196053e+00 -2.190612e+01 7.185023e+00 4.637674e+00 -1.786755e+01 2.316105e+00 -7.917145e+00 2.545275e+00 9.874417e-01 -8.623774e+00 2.118483e+01 -2.921632e-02 4.577645e-01 5.219045e-02 4.284910e-01 -5.950347e-01 6.020911e-01 -5.513201e-01 5.423102e-01 -4.279132e-01 4.469026e-02 1.510093e-01 1.080124e-01 6.024988e-02
<VARIANCE> 26
 4.033692e+00 1.117704e+01 6.644405e+00 1.370404e+01 1.977335e+01 2.686986e+01 1.823695e+01 1.384934e+01 1.122051e+01 1.442229e+01 3.348402e+01 1.135353e+01 3.316016e-01 2.940471e-01 1.269896e+00 7.415049e-01 7.610040e-01 1.571185e+00 2.264415e+00 1.609385e+00 1.129525e+00 9.866808e-01 9.397885e-01 1.369334e+00 7.266077e-01 4.998622e-02
<GCONST> 7.506808e+01
<STATE> 4
<MEAN> 26
 1.042136e+00 -5.967690e+00 -8.369179e-01 -1.316062e+01 -4.187070e-01 2.104034e+00 -1.593703e+01 3.465265e+00 -1.407100e+01 3.695115e+00 7.579198e-01 -9.320629e+00 2.054683e+01 2.930607e-01 2.758348e+00 5.621584e-01 3.943442e+00 -2.293068e+00 -2.700805e-01 2.753217e+00 -1.744036e+00 -1.099671e+00 -4.385447e-01 -3.011354e-01 7.357332e-01 -3.131126e-01
<VARIANCE> 26
 6.690074e+00 2.957059e+01 2.254344e+01 9.274341e+01 4.912726e+01 5.032733e+01 4.827335e+01 4.293515e+01 5.402475e+01 3.612233e+01 4.567133e+01 1.787110e+01 4.607963e-01 1.356187e+00 3.512619e+00 1.830326e+00 6.538562e+00 2.834459e+00 1.831152e+00 3.529848e+00 3.355832e+00 5.572191e+00 2.647589e+00 3.645409e+00 1.714536e+00 4.617951e-02
<GCONST> 9.928407e+01
<TRANSP> 5
 0.000000e+00 1.000000e+00 0.000000e+00 0.000000e+00 0.000000e+00
 0.000000e+00 6.672603e-01 3.327397e-01 0.000000e+00 0.000000e+00
 0.000000e+00 0.000000e+00 8.742062e-01 1.257938e-01 0.000000e+00
 0.000000e+00 0.000000e+00 0.000000e+00 6.714694e-01 3.285306e-01
 0.000000e+00 0.000000e+00 0.000000e+00 0.000000e+00 0.000000e+00
<ENDHMM>
~h "z^"
<BEGINHMM>
<NUMSTATES> 5
<STATE> 2
<MEAN> 26
 -1.037659e+01 3.082768e+00 1.189060e+01 -7.501365e+00 -1.130138e+00 -6.024778e+00 -4.288614e+00 -1.205746e+01 -1.876954e+00 -1.704073e+00 -3.491354e+00 6.285987e-01 1.906915e+01 -3.229696e+00 1.695114e+00 1.666246e+00 1.319651e+00 1.669716e+00 6.542359e-02 1.970338e+00 -1.052028e+00 1.222399e+00 -5.924700e-01 2.936449e-01 5.524914e-01 -3.555730e-01
<VARIANCE> 26
 2.923752e+01 1.771914e+01 2.372336e+01 3.105022e+01 3.828372e+01 3.921251e+01 2.765336e+01 2.955540e+01 2.186608e+01 2.831934e+01 2.662960e+01 1.863714e+01 5.366300e-01 1.701481e+00 2.537732e+00 2.197279e+00 2.952496e+00 2.027334e+00 4.067772e+00 2.364886e+00 4.503768e+00 3.212110e+00 2.410557e+00 2.029802e+00 1.735532e+00 4.687271e-02
<GCONST> 9.472406e+01
<STATE> 3
<MEAN> 26
 -2.064991e+01 5.256076e+00 1.715571e+01 -5.145921e+00 4.318037e+00 -2.001189e+00 1.878436e+00 -1.018827e+01 -5.020444e-01 -2.326217e+00 -3.398111e+00 9.282286e-01 1.816152e+01 -2.972276e-01 1.140004e-02 -1.265620e-01 -6.728870e-02 1.618055e-01 -6.252345e-02 -3.695150e-02 1.963153e-01 1.153609e-01 -8.517362e-02 4.544690e-02 2.152807e-02 7.361491e-03
<VARIANCE> 26
 1.476551e+01 8.961623e+00 1.368202e+01 2.190384e+01 2.799383e+01 3.114285e+01 2.807133e+01 1.683319e+01 1.624612e+01 1.791109e+01 1.629747e+01 1.513549e+01 3.488253e-01 2.766649e+00 1.016652e+00 1.631632e+00 9.391539e-01 1.607810e+00 2.714978e+00 2.560621e+00 1.587153e+00 1.104612e+00 9.996857e-01 1.507479e+00 1.337035e+00 3.261074e-02
<GCONST> 8.314338e+01
<STATE> 4
<MEAN> 26
 -1.183130e+01 2.357672e+00 1.044381e+01 -8.060217e+00 1.064151e+00 -7.840653e+00 -3.886168e+00 -1.181144e+01 -2.338561e-01 -1.833335e+00 -2.628783e+00 2.692190e-01 1.902740e+01 3.687525e+00 -2.164189e+00 -1.834825e+00 -6.256407e-01 -1.932638e+00 -2.711799e-01 -2.777281e+00 5.522126e-01 -6.863336e-01 2.863189e-01 8.806746e-01 -4.829959e-01 3.827263e-01
<VARIANCE> 26
 3.914599e+01 2.482454e+01 3.013453e+01 1.980910e+01 3.292228e+01 2.495750e+01 3.240526e+01 3.443144e+01 1.515854e+01 2.226254e+01 1.628664e+01 1.829956e+01 9.480246e-01 1.715999e+00 2.756572e+00 2.816967e+00 1.260819e+00 2.637866e+00 5.579601e+00 4.166491e+00 4.152979e+00 2.792220e+00 3.390449e+00 2.490800e+00 1.832320e+00 6.667284e-02
<GCONST> 9.566909e+01
<TRANSP> 5
 0.000000e+00 1.000000e+00 0.000000e+00 0.000000e+00 0.000000e+00
 0.000000e+00 7.161409e-01 2.838591e-01 0.000000e+00 0.000000e+00
 0.000000e+00 0.000000e+00 7.718635e-01 2.281365e-01 0.000000e+00
 0.000000e+00 0.000000e+00 0.000000e+00 6.379682e-01 3.620318e-01
 0.000000e+00 0.000000e+00 0.000000e+00 0.000000e+00 0.000000e+00
<ENDHMM>
