~o
<STREAMINFO> 1 26
<VECSIZE> 26<NULLD><MFCC_E_D><DIAGC>
~h "models/average.mmf"
<BEGINHMM>
<NUMSTATES> 5
<STATE> 2
<MEAN> 26
 -8.135983e+00 -3.327841e-01 2.083295e+00 -7.269625e+00 -1.592063e+00 8.489345e-01 -6.504414e+00 -1.052004e+00 -5.399560e+00 1.376900e-01 1.162562e+00 -2.009228e+00 1.575226e+01 -1.075166e-02 -7.618447e-03 -3.554312e-03 -1.450864e-02 2.453122e-03 6.749826e-03 7.161125e-03 1.293941e-02 2.025326e-02 1.104061e-02 1.954908e-02 4.670402e-03 -6.577630e-03
<VARIANCE> 26
 7.528608e+01 4.836471e+01 6.936527e+01 1.165170e+02 5.971814e+01 4.755226e+01 8.837133e+01 4.464412e+01 6.617475e+01 5.043612e+01 3.577261e+01 3.682624e+01 2.346386e+01 2.926073e+00 2.980258e+00 2.837205e+00 5.332779e+00 3.412719e+00 3.071158e+00 4.275788e+00 3.327679e+00 3.738449e+00 3.113799e+00 2.695941e+00 2.419822e+00 4.406946e-01
<GCONST> 1.130636e+02
<STATE> 3
<MEAN> 26
 -8.135983e+00 -3.327841e-01 2.083295e+00 -7.269625e+00 -1.592063e+00 8.489345e-01 -6.504414e+00 -1.052004e+00 -5.399560e+00 1.376900e-01 1.162562e+00 -2.009228e+00 1.575226e+01 -1.075166e-02 -7.618447e-03 -3.554312e-03 -1.450864e-02 2.453122e-03 6.749826e-03 7.161125e-03 1.293941e-02 2.025326e-02 1.104061e-02 1.954908e-02 4.670402e-03 -6.577630e-03
<VARIANCE> 26
 7.528608e+01 4.836471e+01 6.936527e+01 1.165170e+02 5.971814e+01 4.755226e+01 8.837133e+01 4.464412e+01 6.617475e+01 5.043612e+01 3.577261e+01 3.682624e+01 2.346386e+01 2.926073e+00 2.980258e+00 2.837205e+00 5.332779e+00 3.412719e+00 3.071158e+00 4.275788e+00 3.327679e+00 3.738449e+00 3.113799e+00 2.695941e+00 2.419822e+00 4.406946e-01
<GCONST> 1.130636e+02
<STATE> 4
<MEAN> 26
 -8.135983e+00 -3.327841e-01 2.083295e+00 -7.269625e+00 -1.592063e+00 8.489345e-01 -6.504414e+00 -1.052004e+00 -5.399560e+00 1.376900e-01 1.162562e+00 -2.009228e+00 1.575226e+01 -1.075166e-02 -7.618447e-03 -3.554312e-03 -1.450864e-02 2.453122e-03 6.749826e-03 7.161125e-03 1.293941e-02 2.025326e-02 1.104061e-02 1.954908e-02 4.670402e-03 -6.577630e-03
<VARIANCE> 26
 7.528608e+01 4.836471e+01 6.936527e+01 1.165170e+02 5.971814e+01 4.755226e+01 8.837133e+01 4.464412e+01 6.617475e+01 5.043612e+01 3.577261e+01 3.682624e+01 2.346386e+01 2.926073e+00 2.980258e+00 2.837205e+00 5.332779e+00 3.412719e+00 3.071158e+00 4.275788e+00 3.327679e+00 3.738449e+00 3.113799e+00 2.695941e+00 2.419822e+00 4.406946e-01
<GCONST> 1.130636e+02
<TRANSP> 5
 0.000000e+00 1.000000e+00 0.000000e+00 0.000000e+00 0.000000e+00
 0.000000e+00 6.000000e-01 4.000000e-01 0.000000e+00 0.000000e+00
 0.000000e+00 0.000000e+00 6.000000e-01 4.000000e-01 0.000000e+00
 0.000000e+00 0.000000e+00 0.000000e+00 6.000000e-01 4.000000e-01
 0.000000e+00 0.000000e+00 0.000000e+00 0.000000e+00 0.000000e+00
<ENDHMM>
