~o
<STREAMINFO> 1 26
<VECSIZE> 26<NULLD><MFCC_E_D><DIAGC>
~v "varFloor1"
<VARIANCE> 26
 7.528608e-01 4.836471e-01 6.936527e-01 1.165170e+00 5.971813e-01 4.755226e-01 8.837133e-01 4.464411e-01 6.617475e-01 5.043612e-01 3.577261e-01 3.682624e-01 2.346386e-01 2.926073e-02 2.980258e-02 2.837205e-02 5.332779e-02 3.412719e-02 3.071158e-02 4.275788e-02 3.327679e-02 3.738448e-02 3.113799e-02 2.695941e-02 2.419822e-02 4.406946e-03
~h "_"
<BEGINHMM>
<NUMSTATES> 5
<STATE> 2
<MEAN> 26
 -8.639874e+00 -5.296509e-01 -1.781075e+00 -1.125934e+01 -3.048487e+00 -6.182365e+00 -5.266704e+00 -5.426758e+00 -2.708065e+00 6.920043e+00 2.606549e+00 2.336619e-01 1.333231e+01 -1.330405e+00 8.091940e-01 -7.090147e-01 3.042674e+00 4.474401e-02 1.196250e+00 1.077886e+00 1.223078e+00 2.132051e+00 -5.215497e-01 6.850970e-01 -2.173640e-01 -1.439890e+00
<VARIANCE> 26
 2.282914e+01 3.178858e+01 6.150810e+01 8.323625e+01 6.150793e+01 9.221847e+01 6.535955e+01 5.969067e+01 1.232606e+02 9.961300e+01 6.497858e+01 4.797585e+01 9.163692e+00 2.579768e+00 3.830097e+00 6.141549e+00 5.901375e+00 6.244180e+00 5.792978e+00 5.796216e+00 6.435187e+00 9.922655e+00 8.032134e+00 6.421132e+00 4.958154e+00 3.364113e-01
<GCONST> 1.193384e+02
<STATE> 3
<MEAN> 26
 -1.359421e+01 1.787797e+00 -1.544571e+00 -4.463097e-01 4.369980e-01 5.236165e-01 -1.180865e+00 9.527026e-01 -4.096522e-01 1.174257e+00 1.328621e+00 -6.036935e-01 8.629056e+00 -2.161420e-01 -4.103690e-02 1.540433e-01 2.586515e-01 2.759324e-01 1.012369e-01 1.086451e-01 2.645430e-01 -9.925705e-02 -1.848061e-01 -1.962607e-01 3.437957e-02 -1.091183e-01
<VARIANCE> 26
 2.323799e+00 4.053210e+00 5.807702e+00 8.226624e+00 1.089836e+01 1.273855e+01 1.253268e+01 1.369569e+01 1.365536e+01 1.487640e+01 1.519417e+01 1.157532e+01 8.272090e-01 5.711615e-01 7.879686e-01 1.086514e+00 1.696770e+00 1.836878e+00 2.175346e+00 1.755279e+00 2.403001e+00 2.538158e+00 2.589689e+00 2.154730e+00 1.670933e+00 1.890906e-01
<GCONST> 7.840317e+01
<STATE> 4
<MEAN> 26
 -1.308746e+01 1.415457e+00 -6.873908e-01 -1.574096e+00 -1.827843e-02 -1.043249e+00 -1.716107e+00 5.775086e-01 -1.237576e+00 9.505575e-01 9.674659e-01 -6.544231e-01 9.373373e+00 2.108525e+00 -1.128646e+00 9.679868e-01 -3.237356e+00 -1.668613e-02 -1.417770e+00 -1.492149e+00 -9.482034e-01 -2.303010e+00 1.166686e-01 -8.664682e-01 -1.051446e-01 1.909575e+00
<VARIANCE> 26
 7.344387e+00 1.076055e+01 1.647581e+01 2.370910e+01 1.436723e+01 2.547446e+01 1.604169e+01 1.862561e+01 2.327340e+01 1.562519e+01 1.500868e+01 1.429773e+01 3.197323e+00 3.237272e+00 5.704816e+00 5.908846e+00 1.166490e+01 5.117179e+00 4.464816e+00 3.755090e+00 4.630195e+00 5.334853e+00 3.966666e+00 3.495208e+00 3.122257e+00 8.735300e-01
<GCONST> 1.005925e+02
<TRANSP> 5
 0.000000e+00 1.000000e+00 0.000000e+00 0.000000e+00 0.000000e+00
 0.000000e+00 7.884884e-01 2.115116e-01 0.000000e+00 0.000000e+00
 0.000000e+00 0.000000e+00 8.172147e-01 1.827853e-01 0.000000e+00
 0.000000e+00 0.000000e+00 0.000000e+00 4.252857e-01 5.747143e-01
 0.000000e+00 0.000000e+00 0.000000e+00 0.000000e+00 0.000000e+00
<ENDHMM>
~h "a"
<BEGINHMM>
<NUMSTATES> 5
<STATE> 2
<MEAN> 26
 -9.975618e-01 -1.023238e+01 -2.290740e+00 -2.196972e+01 2.821773e-01 3.322698e-01 -1.222423e+01 2.277909e-01 -4.146939e+00 6.490918e+00 -1.716449e+00 -8.869664e+00 2.021466e+01 1.734819e+00 -3.170830e+00 -1.053948e+00 -3.352472e+00 8.336476e-01 7.793079e-01 -9.317538e-01 1.500611e+00 -1.083339e-01 5.177807e-01 -1.024307e+00 -2.261764e+00 8.761593e-01
<VARIANCE> 26
 1.791148e+01 3.201385e+01 3.505770e+01 4.829547e+01 6.230869e+01 4.520743e+01 9.168954e+01 5.483441e+01 3.035823e+01 3.642788e+01 3.350262e+01 2.909455e+01 6.496439e+00 3.245735e+00 2.823186e+00 3.022173e+00 6.703049e+00 4.112391e+00 3.761269e+00 6.632762e+00 7.594597e+00 4.584235e+00 4.067634e+00 2.641229e+00 2.759822e+00 6.970606e-01
<GCONST> 1.102319e+02
<STATE> 3
<MEAN> 26
 6.378878e-01 -1.614332e+01 -5.351138e+00 -2.607176e+01 4.779675e+00 3.152523e+00 -1.149455e+01 1.673329e+00 -3.587351e+00 3.844559e+00 -4.516772e+00 -1.283923e+01 2.179452e+01 -6.231637e-02 -8.449715e-02 7.226479e-02 1.863778e-01 1.463577e-01 -4.746167e-01 3.501447e-01 -1.495841e-01 2.706697e-02 -1.381624e-01 -2.528833e-01 1.723172e-01 -1.510825e-02
<VARIANCE> 26
 6.847374e+00 1.699281e+01 2.263403e+01 2.106553e+01 3.953371e+01 4.597067e+01 4.035888e+01 5.247457e+01 2.522963e+01 2.611919e+01 2.943091e+01 2.074591e+01 4.842672e-01 5.459821e-01 1.613196e+00 2.081278e+00 1.613205e+00 2.897171e+00 2.650005e+00 2.913571e+00 2.657956e+00 1.543587e+00 2.087493e+00 2.230108e+00 1.902933e+00 4.362249e-02
<GCONST> 9.070464e+01
<STATE> 4
<MEAN> 26
 2.487142e-01 -9.658133e+00 -9.776143e-01 -1.992183e+01 1.214061e+00 -4.160650e+00 -1.043838e+01 -1.218348e+00 -4.802240e+00 5.357020e+00 -4.292287e+00 -7.592848e+00 2.040563e+01 -5.691739e-01 3.524377e+00 1.250294e+00 3.752706e+00 -1.483373e-01 -4.761373e-01 7.292467e-01 -1.971182e+00 -4.493296e-01 -7.462465e-01 4.044623e-01 1.545485e+00 -6.795065e-01
<VARIANCE> 26
 1.093900e+01 3.697098e+01 3.807957e+01 4.667431e+01 4.546089e+01 6.610607e+01 7.341352e+01 7.303910e+01 4.151306e+01 3.316551e+01 3.895301e+01 2.626579e+01 1.442807e+00 2.366742e+00 4.495923e+00 2.827063e+00 5.117904e+00 3.849272e+00 3.675071e+00 4.655332e+00 4.675013e+00 4.784017e+00 3.172297e+00 2.672105e+00 2.016591e+00 2.155145e-01
<GCONST> 1.060257e+02
<TRANSP> 5
 0.000000e+00 1.000000e+00 0.000000e+00 0.000000e+00 0.000000e+00
 0.000000e+00 5.803953e-01 4.196046e-01 0.000000e+00 0.000000e+00
 0.000000e+00 0.000000e+00 8.375140e-01 1.624860e-01 0.000000e+00
 0.000000e+00 0.000000e+00 0.000000e+00 6.459100e-01 3.540900e-01
 0.000000e+00 0.000000e+00 0.000000e+00 0.000000e+00 0.000000e+00
<ENDHMM>
~h "b"
<BEGINHMM>
<NUMSTATES> 5
<STATE> 2
<MEAN> 26
 4.964587e+00 2.789933e+00 4.828386e+00 -5.556932e-01 -2.210308e+00 6.009641e+00 -1.128212e+01 -5.808887e+00 -1.522315e+01 -5.384389e+00 4.732183e+00 -6.802087e+00 1.873952e+01 1.856878e+00 2.701067e+00 -7.228274e-02 1.324867e+00 2.071880e+00 7.910156e-02 3.254486e-01 -1.386260e+00 1.215368e+00 7.312781e-01 6.890628e-01 2.136689e-01 -1.828095e-01
<VARIANCE> 26
 2.320076e+01 2.017203e+01 3.123281e+01 3.778534e+01 5.660947e+01 5.721560e+01 3.785097e+01 3.338006e+01 9.161456e+01 6.362503e+01 3.459264e+01 3.043699e+01 2.877394e+00 2.966477e+00 2.455577e+00 3.327390e+00 9.661574e+00 4.442183e+00 5.086453e+00 4.808271e+00 3.191720e+00 9.063778e+00 5.159968e+00 4.052950e+00 3.051698e+00 2.859201e-01
<GCONST> 1.093311e+02
<STATE> 3
<MEAN> 26
 7.127328e+00 1.125039e+01 5.928076e+00 1.027899e+00 3.769001e+00 4.278594e+00 -8.719836e+00 -8.312024e+00 -8.441389e+00 -8.316012e-01 5.578262e+00 -5.260087e+00 1.773602e+01 -8.316700e-01 2.446369e-01 -7.520133e-02 -2.529375e-01 3.919632e-01 -2.224334e-01 7.916325e-01 -3.340862e-01 5.108895e-01 2.625490e-01 -5.924147e-01 5.461081e-01 -1.094794e-01
<VARIANCE> 26
 7.660974e+00 1.941995e+01 1.433078e+01 2.809428e+01 2.994358e+01 2.776362e+01 4.410180e+01 1.789134e+01 1.879039e+01 2.731381e+01 2.347227e+01 2.383765e+01 6.729541e-01 2.312268e+00 4.370210e+00 1.563896e+00 4.034791e+00 2.431653e+00 1.995490e+00 1.581825e+00 2.025457e+00 3.203770e+00 1.973817e+00 2.727689e+00 1.503073e+00 3.206283e-02
<GCONST> 9.106504e+01
<STATE> 4
<MEAN> 26
 -4.063399e-01 3.166628e+00 5.383807e+00 -7.156433e+00 3.688214e+00 1.878082e+00 -7.882265e+00 -9.477988e+00 -8.138412e+00 3.899131e-01 -4.438926e-01 -2.953021e+00 1.829757e+01 -1.131263e+00 -3.495248e+00 -8.248860e-01 -2.832863e+00 -8.668099e-01 -9.643033e-01 -1.564932e+00 2.362674e-01 6.568723e-01 9.959990e-01 -4.277112e-01 7.992521e-01 4.517095e-01
<VARIANCE> 26
 1.565363e+01 3.302797e+01 1.768247e+01 6.213195e+01 3.749609e+01 3.043879e+01 6.838834e+01 2.173873e+01 3.456461e+01 5.770670e+01 3.996290e+01 2.051172e+01 1.094405e+00 2.367944e+00 4.521102e+00 3.138212e+00 6.767062e+00 4.374891e+00 5.568573e+00 4.799932e+00 3.598570e+00 3.261097e+00 5.841234e+00 3.415444e+00 2.548832e+00 1.386036e-01
<GCONST> 1.043798e+02
<TRANSP> 5
 0.000000e+00 1.000000e+00 0.000000e+00 0.000000e+00 0.000000e+00
 0.000000e+00 5.658892e-01 4.341108e-01 0.000000e+00 0.000000e+00
 0.000000e+00 0.000000e+00 7.612640e-01 2.387359e-01 0.000000e+00
 0.000000e+00 0.000000e+00 0.000000e+00 4.711424e-01 5.288575e-01
 0.000000e+00 0.000000e+00 0.000000e+00 0.000000e+00 0.000000e+00
<ENDHMM>
~h "d"
<BEGINHMM>
<NUMSTATES> 5
<STATE> 2
<MEAN> 26
 3.629266e+00 8.206904e+00 9.428119e+00 2.153688e+00 -2.855475e+00 -2.741220e+00 -9.619576e+00 -1.032641e+00 -7.160310e+00 1.167137e+00 -1.667904e+00 -8.428291e+00 1.780473e+01 1.993846e+00 2.592620e+00 5.967324e-01 2.441252e+00 3.039665e-01 -1.433489e+00 6.963195e-01 6.592433e-01 2.716047e+00 2.273658e-01 -1.118942e+00 -1.139777e+00 -6.327549e-02
<VARIANCE> 26
 2.658552e+01 3.052272e+01 5.193181e+01 3.455690e+01 3.999112e+01 5.146725e+01 4.561366e+01 3.129617e+01 6.874758e+01 2.245731e+01 3.510204e+01 4.378130e+01 3.350762e+00 3.128751e+00 3.978565e+00 4.349752e+00 8.325463e+00 4.242664e+00 3.148452e+00 6.180768e+00 2.838671e+00 6.583816e+00 2.697197e+00 2.699623e+00 3.849997e+00 6.856375e-01
<GCONST> 1.091667e+02
<STATE> 3
<MEAN> 26
 5.496415e+00 1.449363e+01 1.170065e+01 5.775880e+00 -2.434769e+00 -6.702589e+00 -7.930262e+00 8.874014e-01 4.827260e-01 7.424232e-01 -4.424007e+00 -8.489642e+00 1.746868e+01 -1.672496e+00 -6.037414e-01 -9.617435e-02 -9.291934e-01 9.730154e-01 8.185207e-01 8.297867e-01 -7.591201e-01 3.131372e-01 -2.398204e-01 -1.228114e-01 1.242399e+00 -1.234792e-01
<VARIANCE> 26
 7.182826e+00 1.880062e+01 1.430438e+01 1.340585e+01 2.107327e+01 2.108770e+01 1.961363e+01 1.901583e+01 2.504930e+01 1.401284e+01 2.364976e+01 2.033231e+01 4.252885e-01 3.564738e+00 6.554249e+00 2.946482e+00 4.304613e+00 3.376706e+00 4.295986e+00 2.692908e+00 2.920787e+00 3.790747e+00 2.040619e+00 2.334936e+00 2.649877e+00 5.434453e-02
<GCONST> 9.253070e+01
<STATE> 4
<MEAN> 26
 -7.260702e+00 2.131399e+00 8.427105e+00 -6.353994e+00 3.309012e+00 -7.901728e-02 -5.757072e+00 -6.830837e+00 -3.825192e+00 -2.041312e-01 -3.082068e+00 -9.021093e-01 1.789470e+01 -2.775295e+00 -2.945775e+00 -1.413164e-02 -3.297769e+00 -4.241544e-01 3.237554e-01 -1.333063e+00 -1.226158e+00 -1.067207e+00 -3.236503e-01 1.126307e+00 1.609836e+00 4.888722e-01
<VARIANCE> 26
 2.027179e+01 4.740776e+01 4.264531e+01 5.229379e+01 3.316933e+01 6.847522e+01 4.825375e+01 3.413990e+01 2.652077e+01 2.841788e+01 2.400015e+01 2.539753e+01 1.393139e+00 4.800483e+00 5.315203e+00 5.052309e+00 5.275541e+00 5.718045e+00 4.892056e+00 7.195494e+00 3.875153e+00 4.476581e+00 5.575556e+00 2.920058e+00 3.701456e+00 2.077454e-01
<GCONST> 1.080745e+02
<TRANSP> 5
 0.000000e+00 1.000000e+00 0.000000e+00 0.000000e+00 0.000000e+00
 0.000000e+00 5.867681e-01 4.132319e-01 0.000000e+00 0.000000e+00
 0.000000e+00 0.000000e+00 7.202967e-01 2.797033e-01 0.000000e+00
 0.000000e+00 0.000000e+00 0.000000e+00 5.821174e-01 4.178827e-01
 0.000000e+00 0.000000e+00 0.000000e+00 0.000000e+00 0.000000e+00
<ENDHMM>
~h "e"
<BEGINHMM>
<NUMSTATES> 5
<STATE> 2
<MEAN> 26
 -3.091845e+00 -7.706187e+00 8.571009e+00 -1.502725e+01 -7.703566e+00 -7.457940e+00 -1.708294e+01 1.668679e+00 -7.900306e+00 2.629961e+00 1.469310e+00 -3.179747e+00 2.032868e+01 1.780482e+00 -2.817521e+00 1.492894e+00 -2.791568e+00 -2.477914e+00 -1.217710e+00 -2.503700e+00 2.651561e+00 -1.233875e+00 1.129537e+00 1.307362e-01 -7.766051e-01 7.823159e-01
<VARIANCE> 26
 1.061358e+01 3.112636e+01 4.644690e+01 3.746652e+01 3.258646e+01 3.461296e+01 6.048253e+01 3.923106e+01 3.290665e+01 3.457283e+01 3.380247e+01 1.996305e+01 3.031165e+00 3.810545e+00 2.717430e+00 4.288918e+00 3.583840e+00 4.444658e+00 3.463444e+00 6.310565e+00 4.691282e+00 4.339346e+00 3.035028e+00 3.406627e+00 2.208112e+00 3.441232e-01
<GCONST> 1.052277e+02
<STATE> 3
<MEAN> 26
 -2.161309e+00 -1.179874e+01 9.082351e+00 -2.030330e+01 -1.024974e+01 -8.631960e+00 -1.569074e+01 6.892663e+00 -8.016196e+00 5.121220e+00 8.468475e-01 -4.598121e+00 2.124804e+01 3.199714e-03 -1.076075e-01 5.495698e-02 -2.726402e-01 1.807788e-01 -2.117348e-01 5.322755e-01 -2.095307e-01 -1.861557e-01 -2.022097e-02 -2.200780e-01 -9.483202e-02 -2.262047e-02
<VARIANCE> 26
 7.317914e+00 2.120366e+01 4.306905e+01 1.931889e+01 2.849519e+01 2.848277e+01 3.741648e+01 2.804832e+01 3.703891e+01 2.064349e+01 2.469956e+01 1.451057e+01 3.401282e-01 4.626484e-01 9.730753e-01 1.924505e+00 1.563215e+00 1.871705e+00 1.825731e+00 2.173835e+00 2.414277e+00 2.042554e+00 1.494476e+00 1.600622e+00 1.134275e+00 2.072738e-02
<GCONST> 8.567699e+01
<STATE> 4
<MEAN> 26
 -2.099807e+00 -8.899467e+00 9.334655e+00 -1.742310e+01 -5.855357e+00 -8.225384e+00 -1.325734e+01 8.185109e-02 -1.035169e+01 3.167967e+00 -1.549724e+00 -4.350443e+00 2.029950e+01 -3.307855e-01 2.376821e+00 -5.589390e-01 2.387462e+00 2.115434e+00 1.268279e+00 1.379857e+00 -2.554473e+00 7.249146e-01 -8.292671e-01 -8.753631e-01 1.438741e-01 -5.330061e-01
<VARIANCE> 26
 8.878904e+00 3.455242e+01 6.759109e+01 4.290595e+01 3.756263e+01 4.227596e+01 6.226180e+01 4.398597e+01 7.161759e+01 3.559803e+01 3.544162e+01 2.279287e+01 9.217413e-01 1.672911e+00 3.431301e+00 3.661110e+00 4.402918e+00 2.305695e+00 3.275021e+00 4.041322e+00 4.684419e+00 4.853734e+00 3.176322e+00 2.413707e+00 1.717302e+00 1.087973e-01
<GCONST> 1.026545e+02
<TRANSP> 5
 0.000000e+00 1.000000e+00 0.000000e+00 0.000000e+00 0.000000e+00
 0.000000e+00 5.522337e-01 4.477663e-01 0.000000e+00 0.000000e+00
 0.000000e+00 0.000000e+00 8.515435e-01 1.484564e-01 0.000000e+00
 0.000000e+00 0.000000e+00 0.000000e+00 6.407242e-01 3.592758e-01
 0.000000e+00 0.000000e+00 0.000000e+00 0.000000e+00 0.000000e+00
<ENDHMM>
~h "f"
<BEGINHMM>
<NUMSTATES> 5
<STATE> 2
<MEAN> 26
 -1.579911e+01 -2.250560e+00 1.266700e+00 -5.120045e+00 2.995733e+00 5.139711e-01 -9.072904e-01 -1.536350e+00 -1.669739e+00 1.871034e+00 -2.658293e+00 -1.631094e-01 1.555656e+01 -3.385872e+00 -1.997737e+00 -2.059201e+00 -3.120788e-01 5.974764e-01 3.539670e-01 6.056342e-01 4.878595e-01 1.351316e+00 9.275475e-01 5.948355e-01 1.111613e+00 -8.172154e-01
<VARIANCE> 26
 3.641172e+01 1.952662e+01 3.042804e+01 2.121763e+01 2.296147e+01 2.297695e+01 2.076327e+01 2.196475e+01 3.031704e+01 2.801571e+01 2.051726e+01 1.329449e+01 4.823710e+00 3.743824e+00 1.566588e+00 3.317252e+00 5.907979e+00 5.130208e+00 4.344563e+00 4.410048e+00 3.311418e+00 3.718123e+00 2.968313e+00 2.732382e+00 1.848130e+00 3.219191e-01
<GCONST> 1.005561e+02
<STATE> 3
<MEAN> 26
 -2.243552e+01 -6.431615e+00 -4.917586e+00 -8.917545e+00 5.429232e-01 4.739693e-01 -3.716272e+00 -2.931465e+00 -1.602637e+00 5.526365e+00 6.028508e-02 3.472486e+00 1.404900e+01 -8.995082e-02 -6.378646e-02 -1.601669e-01 -8.995041e-02 -2.406511e-01 -1.190332e-02 -1.887958e-01 -1.431999e-01 -8.853810e-02 9.539258e-02 6.155563e-02 8.389372e-02 8.216288e-03
<VARIANCE> 26
 7.039212e+00 5.722636e+00 9.314878e+00 1.135172e+01 2.052725e+01 1.883214e+01 1.825677e+01 1.867831e+01 1.901245e+01 1.942643e+01 1.579096e+01 1.550718e+01 1.260113e+00 8.336751e-01 5.917065e-01 9.510558e-01 1.177780e+00 1.696488e+00 1.475317e+00 1.805820e+00 1.903407e+00 1.854340e+00 2.056933e+00 1.716970e+00 1.673245e+00 7.969280e-02
<GCONST> 8.099796e+01
<STATE> 4
<MEAN> 26
 -1.780033e+01 -4.625437e+00 -1.976323e+00 -8.670010e+00 3.179310e-01 5.041856e-03 -2.886708e+00 -3.648682e+00 -2.523701e+00 3.008755e+00 -2.170777e+00 1.383544e+00 1.539535e+01 4.016954e+00 1.561664e+00 1.686656e+00 -3.571046e-01 -8.915681e-02 2.489709e-01 -1.102211e+00 -4.507590e-01 -1.414584e+00 -1.702309e+00 -4.750187e-01 -1.316210e+00 9.365523e-01
<VARIANCE> 26
 2.984441e+01 1.447371e+01 2.152939e+01 1.610738e+01 3.053405e+01 2.639074e+01 1.846860e+01 2.433394e+01 2.350627e+01 2.122305e+01 1.962733e+01 2.475960e+01 2.174425e+00 4.417353e+00 1.846031e+00 3.447918e+00 4.582553e+00 3.680925e+00 4.175765e+00 5.741035e+00 4.266093e+00 4.563184e+00 2.810650e+00 4.381949e+00 2.272591e+00 3.530810e-01
<GCONST> 1.002751e+02
<TRANSP> 5
 0.000000e+00 1.000000e+00 0.000000e+00 0.000000e+00 0.000000e+00
 0.000000e+00 6.887132e-01 3.112868e-01 0.000000e+00 0.000000e+00
 0.000000e+00 0.000000e+00 8.946218e-01 1.053782e-01 0.000000e+00
 0.000000e+00 0.000000e+00 0.000000e+00 6.232479e-01 3.767521e-01
 0.000000e+00 0.000000e+00 0.000000e+00 0.000000e+00 0.000000e+00
<ENDHMM>
~h "g"
<BEGINHMM>
<NUMSTATES> 5
<STATE> 2
<MEAN> 26
 1.372807e+00 8.743553e+00 1.224588e+01 2.626483e+00 -5.858792e+00 -3.695866e+00 -6.554278e+00 -8.711711e-01 -1.212307e+01 -3.088553e-01 4.758796e+00 -8.595275e+00 1.780436e+01 2.106785e+00 1.276646e+00 4.473078e-01 1.873243e+00 -1.566110e+00 -1.183283e+00 1.245006e+00 1.514283e-01 -1.795915e-01 -9.410504e-02 1.103876e+00 -5.111061e-01 4.677271e-02
<VARIANCE> 26
 4.359053e+01 4.539547e+01 6.799787e+01 3.526627e+01 7.744527e+01 2.328836e+01 4.300256e+01 2.850459e+01 6.967300e+01 2.895093e+01 4.073795e+01 4.690072e+01 2.228813e+00 4.849972e+00 5.107108e+00 4.764495e+00 2.502455e+00 7.045851e+00 2.576113e+00 5.376804e+00 3.880650e+00 1.167126e+01 2.036347e+00 4.367695e+00 2.573171e+00 4.277530e-01
<GCONST> 1.100957e+02
<STATE> 3
<MEAN> 26
 5.189809e+00 9.163266e+00 1.077031e+01 3.054346e+00 -1.059679e+01 -3.343256e+00 -3.202334e+00 9.815286e-01 -1.441367e+01 -4.148742e+00 8.316610e+00 -9.951963e+00 1.827858e+01 -1.568036e+00 -9.418356e-01 -2.362023e-01 -1.779576e+00 2.457469e+00 1.587628e+00 -1.441199e-01 -8.700083e-01 3.592755e-01 3.336190e-01 -1.673631e+00 1.832150e+00 -1.517690e-01
<VARIANCE> 26
 7.048700e+00 2.052850e+01 5.637727e+01 3.501883e+01 4.435539e+01 2.649072e+01 2.959305e+01 2.152486e+01 8.072813e+01 3.903606e+01 4.892791e+01 2.944518e+01 9.171209e-01 3.973204e+00 4.694307e+00 5.393004e+00 4.251327e+00 6.070274e+00 1.902996e+00 3.627939e+00 4.966097e+00 3.334927e+00 4.466722e+00 5.531672e+00 3.416080e+00 9.531627e-02
<GCONST> 1.038011e+02
<STATE> 4
<MEAN> 26
 -4.509830e+00 1.477760e+00 9.225758e+00 -7.680612e+00 4.585347e-01 1.826284e+00 -9.127421e+00 -3.078274e+00 -1.395491e+01 9.674873e-01 1.637441e-01 -2.262931e+00 1.808785e+01 -1.803070e+00 -1.592224e+00 1.882576e-01 -2.444748e+00 -1.381393e-01 -4.035710e-01 -1.872665e+00 5.874706e-02 4.349829e-01 -4.167418e-01 1.834105e-01 1.654986e+00 3.326596e-01
<VARIANCE> 26
 3.085752e+01 3.033694e+01 8.082523e+01 5.323462e+01 6.051372e+01 4.722313e+01 6.263167e+01 2.963975e+01 4.109162e+01 3.721577e+01 5.190633e+01 1.411382e+01 1.476379e+00 4.018578e+00 6.181583e+00 6.676201e+00 3.763975e+00 8.818339e+00 4.765302e+00 4.801507e+00 5.197599e+00 5.792612e+00 6.353544e+00 4.629705e+00 3.868654e+00 1.778644e-01
<GCONST> 1.109525e+02
<TRANSP> 5
 0.000000e+00 1.000000e+00 0.000000e+00 0.000000e+00 0.000000e+00
 0.000000e+00 5.923413e-01 4.076587e-01 0.000000e+00 0.000000e+00
 0.000000e+00 0.000000e+00 5.999706e-01 4.000294e-01 0.000000e+00
 0.000000e+00 0.000000e+00 0.000000e+00 5.610266e-01 4.389734e-01
 0.000000e+00 0.000000e+00 0.000000e+00 0.000000e+00 0.000000e+00
<ENDHMM>
~h "h"
<BEGINHMM>
<NUMSTATES> 5
<STATE> 2
<MEAN> 26
 -1.990837e+01 -7.548670e+00 5.721905e+00 -3.134786e+00 -6.145093e+00 -1.926547e+00 -5.346814e-01 -1.268597e+00 -5.542355e+00 3.289712e+00 -7.208267e-01 1.961926e+00 1.663788e+01 6.469527e-01 -1.891671e-02 1.709190e+00 2.414528e+00 -2.364218e-01 -1.319190e+00 -1.331342e-01 3.578385e-01 -7.074894e-01 -1.247408e+00 -3.155681e-01 -5.192180e-01 4.058212e-01
<VARIANCE> 26
 3.524382e+01 2.196499e+01 3.058254e+01 3.073390e+01 2.915803e+01 4.256123e+01 2.849948e+01 2.954271e+01 2.454986e+01 3.278342e+01 1.304612e+01 1.739051e+01 9.514580e-01 4.477352e+00 2.199993e+00 2.038886e+00 2.192917e+00 2.097762e+00 3.229067e+00 4.804013e+00 2.932190e+00 2.584891e+00 5.449268e+00 1.775597e+00 1.584088e+00 2.491101e-01
<GCONST> 9.783985e+01
<STATE> 3
<MEAN> 26
 -7.268638e+00 -2.744438e+00 1.461303e+01 7.547155e+00 -5.689792e+00 -8.237082e+00 -1.125840e+01 -1.296192e+00 -1.066013e+01 -1.093036e+01 -2.056538e+00 2.567457e+00 1.916317e+01 3.010305e+00 -1.197955e-01 1.798366e+00 1.362450e+00 -4.525902e-01 -1.279545e+00 -4.045486e+00 5.696927e-01 -1.035598e+00 -5.032565e+00 1.116947e+00 7.673343e-01 6.745263e-01
<VARIANCE> 26
 2.076042e+01 1.123142e+01 1.760866e+01 1.090349e+01 2.006007e+01 1.786413e+01 4.684125e+01 1.711466e+01 2.844726e+01 3.733976e+01 1.766226e+01 2.081166e+01 4.367338e-01 3.254858e+00 2.433288e+00 2.400222e+00 2.918530e+00 3.295960e+00 3.623153e+00 4.011629e+00 2.508207e+00 3.616927e+00 5.175255e+00 2.683637e+00 2.525742e+00 1.708744e-01
<GCONST> 9.499013e+01
<STATE> 4
<MEAN> 26
 -3.482028e+00 -5.884793e+00 1.770903e+01 6.746820e+00 -6.468914e+00 -6.490771e+00 -1.827996e+01 1.091970e+00 -9.916544e+00 -1.914732e+01 4.949893e+00 2.567791e+00 1.991237e+01 -4.454444e-02 -3.245709e-01 8.158578e-01 -1.072867e+00 -9.558009e-01 8.828564e-01 -4.486465e-01 -2.985543e-01 1.877219e-02 1.482398e-01 8.378248e-01 -8.120298e-01 1.169947e-01
<VARIANCE> 26
 6.296124e+00 1.252977e+01 2.593943e+01 4.053076e+01 1.806119e+01 1.726207e+01 3.982227e+01 2.198948e+01 3.675391e+01 4.291852e+01 1.747728e+01 2.518073e+01 2.908090e-01 8.533828e-01 4.999136e-01 2.483265e+00 2.975556e+00 2.538005e+00 2.189084e+00 3.097132e+00 2.152846e+00 1.349134e+00 4.692226e+00 1.422841e+00 1.321119e+00 1.783024e-02
<GCONST> 8.705330e+01
<TRANSP> 5
 0.000000e+00 1.000000e+00 0.000000e+00 0.000000e+00 0.000000e+00
 0.000000e+00 7.441135e-01 2.558865e-01 0.000000e+00 0.000000e+00
 0.000000e+00 0.000000e+00 6.202716e-01 3.797284e-01 0.000000e+00
 0.000000e+00 0.000000e+00 0.000000e+00 7.919723e-01 2.080278e-01
 0.000000e+00 0.000000e+00 0.000000e+00 0.000000e+00 0.000000e+00
<ENDHMM>
~h "i"
<BEGINHMM>
<NUMSTATES> 5
<STATE> 2
<MEAN> 26
 -1.088680e+01 4.741177e+00 1.806932e+01 -8.221144e+00 -2.705770e+00 -3.102250e+00 -1.383596e+01 -7.128690e+00 -8.736843e+00 -1.013407e+01 -1.823468e+00 1.922217e+00 1.931795e+01 1.019072e+00 -1.870616e-01 3.208015e+00 -1.278566e+00 -1.635235e+00 5.971777e-01 -2.650096e+00 -9.308200e-02 -1.982587e+00 -2.255932e+00 7.764620e-01 -3.033061e-01 4.241455e-01
<VARIANCE> 26
 2.413661e+01 3.401984e+01 2.810365e+01 2.940792e+01 4.936255e+01 2.622627e+01 3.402546e+01 2.860280e+01 3.626685e+01 4.435706e+01 3.393895e+01 2.224835e+01 1.308913e+00 4.182830e+00 3.040094e+00 4.058156e+00 3.775898e+00 5.396263e+00 3.761387e+00 4.149428e+00 2.622678e+00 4.479615e+00 4.095245e+00 3.056945e+00 2.196079e+00 1.633271e-01
<GCONST> 1.032098e+02
<STATE> 3
<MEAN> 26
 -9.862073e+00 4.117576e+00 2.284333e+01 -1.233552e+01 -6.098959e+00 1.983422e+00 -2.008906e+01 -4.313731e+00 -1.349742e+01 -1.442939e+01 3.174052e+00 -1.617282e+00 1.998551e+01 -2.910201e-02 2.437435e-01 3.281506e-02 -4.994102e-01 -2.298756e-01 1.785072e-01 -1.201084e-01 2.289565e-01 -4.676672e-01 2.845060e-01 -3.352782e-03 -4.666330e-01 -1.635179e-02
<VARIANCE> 26
 7.689708e+00 1.877240e+01 1.550165e+01 2.529837e+01 3.457263e+01 2.361690e+01 2.763040e+01 2.645953e+01 4.234618e+01 2.872893e+01 3.223870e+01 2.131134e+01 3.934326e-01 8.644066e-01 1.965955e+00 1.762924e+00 2.114910e+00 2.408597e+00 2.197490e+00 2.477933e+00 2.128225e+00 2.473393e+00 2.425833e+00 1.881009e+00 1.371956e+00 2.381559e-02
<GCONST> 8.890940e+01
<STATE> 4
<MEAN> 26
 -7.683924e+00 4.635660e+00 1.739800e+01 -9.633267e+00 -5.704212e+00 -2.036789e+00 -1.350655e+01 -5.059394e+00 -1.298699e+01 -7.158026e+00 -4.675607e-01 -2.034278e+00 1.919357e+01 6.057610e-01 3.587190e-01 -2.230736e+00 1.828857e+00 9.731345e-01 -8.299975e-01 2.173995e+00 -3.215899e-01 1.334285e+00 1.699441e+00 -8.451271e-01 4.290967e-02 -3.981165e-01
<VARIANCE> 26
 2.619941e+01 5.250278e+01 3.833688e+01 6.022377e+01 5.766592e+01 3.427646e+01 5.185609e+01 4.408882e+01 7.137279e+01 4.506429e+01 4.890059e+01 3.423222e+01 1.633520e+00 4.317350e+00 3.877735e+00 3.707224e+00 4.566223e+00 4.352602e+00 3.988841e+00 3.869253e+00 3.816676e+00 4.645737e+00 3.815881e+00 3.404431e+00 3.256197e+00 1.630104e-01
<GCONST> 1.087298e+02
<TRANSP> 5
 0.000000e+00 1.000000e+00 0.000000e+00 0.000000e+00 0.000000e+00
 0.000000e+00 6.008271e-01 3.991729e-01 0.000000e+00 0.000000e+00
 0.000000e+00 0.000000e+00 8.086486e-01 1.913513e-01 0.000000e+00
 0.000000e+00 0.000000e+00 0.000000e+00 6.948832e-01 3.051168e-01
 0.000000e+00 0.000000e+00 0.000000e+00 0.000000e+00 0.000000e+00
<ENDHMM>
~h "j"
<BEGINHMM>
<NUMSTATES> 5
<STATE> 2
<MEAN> 26
 -1.116001e+01 6.244547e+00 2.159278e+01 -8.256307e+00 -2.060041e+00 -1.972490e+00 -1.428717e+01 -4.842839e+00 -1.038224e+01 -7.444926e+00 -2.079040e-01 1.391040e+00 1.912132e+01 9.284954e-01 -1.062045e-01 7.567219e-01 3.007103e-01 -7.196511e-01 -5.678509e-01 -1.055950e+00 4.871111e-01 -6.794747e-01 -1.312623e+00 4.046950e-01 3.085093e-02 2.167376e-01
<VARIANCE> 26
 1.542735e+01 2.399989e+01 2.393550e+01 4.396027e+01 4.535633e+01 2.532333e+01 3.663414e+01 3.067540e+01 4.303958e+01 3.592009e+01 2.290129e+01 1.877372e+01 6.955243e-01 6.642655e+00 3.959269e+00 3.712495e+00 3.449454e+00 4.353563e+00 4.019947e+00 5.645224e+00 3.431385e+00 3.314019e+00 4.566967e+00 1.937346e+00 1.423499e+00 1.725588e-01
<GCONST> 1.013923e+02
<STATE> 3
<MEAN> 26
 -6.742114e+00 -1.621660e+00 1.765530e+01 -7.172157e+00 -1.053370e+01 -4.993266e+00 -1.792617e+01 -2.124234e+00 -1.138260e+01 -1.036461e+01 1.889690e+00 7.675661e-01 2.024057e+01 2.716351e+00 -2.767084e+00 -1.413697e+00 -1.178757e+00 -1.863619e+00 -8.904392e-01 -2.956335e+00 2.913321e+00 6.428754e-02 3.927590e-01 1.571515e+00 -9.289956e-01 4.979485e-01
<VARIANCE> 26
 9.547117e+00 1.729544e+01 3.334757e+01 8.228471e+01 2.774295e+01 3.074603e+01 3.315620e+01 4.063899e+01 3.569836e+01 4.682490e+01 1.751532e+01 1.109728e+01 5.405170e-01 3.187052e+00 1.757532e+00 3.921902e+00 3.532896e+00 4.617356e+00 3.846060e+00 7.761686e+00 3.235330e+00 2.875785e+00 9.223529e+00 3.558995e+00 2.201406e+00 6.648638e-02
<GCONST> 9.991722e+01
<STATE> 4
<MEAN> 26
 -2.153160e+00 -7.899255e+00 9.361305e+00 -1.282683e+01 -1.044587e+01 -1.892190e+00 -2.181755e+01 4.423810e+00 -8.546360e+00 -1.646990e+00 3.180785e+00 -3.657730e+00 2.076826e+01 1.234769e+00 -8.746307e-01 -2.905308e+00 -1.728211e+00 9.034924e-01 2.254655e+00 2.753278e-01 7.071044e-02 3.177369e-01 2.214912e+00 2.819912e-01 -1.300054e+00 8.751005e-02
<VARIANCE> 26
 7.705642e+00 2.144893e+01 5.150618e+01 6.026501e+01 2.948621e+01 3.790339e+01 4.275668e+01 3.336038e+01 3.919668e+01 7.040073e+01 4.583409e+01 2.834354e+01 1.004840e+00 7.811861e-01 3.439118e+00 2.445813e+00 4.592658e+00 3.118942e+00 5.248897e+00 6.236318e+00 6.486670e+00 4.827169e+00 3.681093e+00 5.657473e+00 2.065781e+00 4.957977e-02
<GCONST> 1.025463e+02
<TRANSP> 5
 0.000000e+00 1.000000e+00 0.000000e+00 0.000000e+00 0.000000e+00
 0.000000e+00 7.091438e-01 2.908563e-01 0.000000e+00 0.000000e+00
 0.000000e+00 0.000000e+00 4.927831e-01 5.072169e-01 0.000000e+00
 0.000000e+00 0.000000e+00 0.000000e+00 5.855457e-01 4.144543e-01
 0.000000e+00 0.000000e+00 0.000000e+00 0.000000e+00 0.000000e+00
<ENDHMM>
~h "k"
<BEGINHMM>
<NUMSTATES> 5
<STATE> 2
<MEAN> 26
 -9.443441e+00 7.985030e-01 -4.019666e-02 -5.020530e-01 1.836095e+00 4.783797e-01 -1.883471e+00 -5.350073e-01 -5.213809e+00 -4.580461e-01 -2.620773e-01 -1.957743e+00 1.202748e+01 -1.392249e+00 -1.246372e+00 -1.359189e+00 -1.584442e+00 1.409887e-02 3.755739e-01 -4.767725e-02 -4.461810e-01 5.287620e-01 3.234201e-01 1.710336e-02 8.635398e-01 -2.815137e-01
<VARIANCE> 26
 3.358488e+01 3.817936e+01 3.703548e+01 3.519565e+01 3.024774e+01 2.828773e+01 3.431199e+01 2.651397e+01 4.739590e+01 3.855328e+01 3.053821e+01 2.419726e+01 8.169550e+00 5.970142e+00 5.169828e+00 6.174247e+00 1.607831e+01 5.123486e+00 3.491921e+00 7.784597e+00 5.185712e+00 7.278406e+00 4.182468e+00 4.117916e+00 3.459262e+00 2.742690e+00
<GCONST> 1.135862e+02
<STATE> 3
<MEAN> 26
 -9.687860e+00 -6.670719e+00 -8.170280e+00 -1.776972e+01 1.358890e-01 1.784906e+00 -8.062765e+00 -2.775229e+00 -8.875186e+00 3.369985e+00 1.867463e-01 -7.646826e-01 1.587815e+01 7.318619e-01 -1.485744e+00 -1.650915e+00 -5.031963e+00 -3.075133e-01 3.922988e-02 -2.006927e+00 -1.359047e+00 -1.954498e+00 1.094928e+00 2.982182e-02 -1.659012e-01 1.723487e+00
<VARIANCE> 26
 3.378846e+01 3.650180e+01 7.021653e+01 5.640326e+01 5.502859e+01 4.569539e+01 6.553111e+01 4.688114e+01 4.079174e+01 3.538602e+01 2.744709e+01 2.997196e+01 4.652845e+00 3.987488e+00 3.225563e+00 6.840826e+00 7.592718e+00 4.374459e+00 3.362530e+00 4.069921e+00 4.125533e+00 6.777824e+00 2.476848e+00 3.079819e+00 3.193334e+00 8.710939e-01
<GCONST> 1.115534e+02
<STATE> 4
<MEAN> 26
 -9.885880e+00 -3.944434e+00 -5.582909e+00 -1.662460e+01 5.981200e-01 5.268934e-01 -6.124327e+00 -5.435351e+00 -8.333929e+00 3.382460e+00 -8.546723e-02 -1.416764e-01 1.682732e+01 1.047872e+00 1.411428e+00 2.101437e+00 1.414508e+00 -6.138731e-01 -4.802714e-01 2.773858e-01 -3.534982e-01 -2.979620e-01 -8.740616e-01 5.683141e-01 -1.735143e-01 5.144947e-01
<VARIANCE> 26
 4.460569e+01 2.970061e+01 8.916521e+01 7.862535e+01 5.185014e+01 3.730318e+01 5.517799e+01 4.577713e+01 7.058696e+01 3.815203e+01 3.163951e+01 2.915598e+01 3.440383e+00 5.177206e+00 3.668373e+00 3.902147e+00 5.942656e+00 5.727747e+00 4.234580e+00 7.156381e+00 4.560625e+00 4.870711e+00 3.762666e+00 4.647925e+00 3.337636e+00 4.355507e-01
<GCONST> 1.127725e+02
<TRANSP> 5
 0.000000e+00 1.000000e+00 0.000000e+00 0.000000e+00 0.000000e+00
 0.000000e+00 6.768922e-01 3.231079e-01 0.000000e+00 0.000000e+00
 0.000000e+00 0.000000e+00 3.985462e-01 6.014537e-01 0.000000e+00
 0.000000e+00 0.000000e+00 0.000000e+00 6.203024e-01 3.796977e-01
 0.000000e+00 0.000000e+00 0.000000e+00 0.000000e+00 0.000000e+00
<ENDHMM>
~h "l"
<BEGINHMM>
<NUMSTATES> 5
<STATE> 2
<MEAN> 26
 -1.047927e+00 -3.154714e+00 3.684213e+00 -2.877837e+00 1.251325e+00 -2.454815e+00 -1.352907e+01 -7.288062e+00 -3.188913e+00 2.980213e+00 -3.182554e+00 -3.302444e+00 1.730497e+01 2.181229e+00 -2.756708e-01 1.429181e+00 -4.577459e-02 1.360253e+00 -1.286070e+00 -3.257658e+00 -1.495239e+00 -1.031476e+00 -2.637527e-01 -1.111809e+00 -1.210147e+00 8.241186e-01
<VARIANCE> 26
 5.035235e+01 3.003923e+01 7.992690e+01 3.763669e+01 3.764062e+01 5.278090e+01 9.682791e+01 9.594604e+01 4.295247e+01 4.930828e+01 3.741580e+01 2.871283e+01 1.025381e+01 5.718054e+00 4.978126e+00 4.096429e+00 4.045571e+00 6.727389e+00 4.124092e+00 8.165354e+00 5.737068e+00 4.525425e+00 4.598907e+00 4.166728e+00 3.752896e+00 7.719237e-01
<GCONST> 1.156643e+02
<STATE> 3
<MEAN> 26
 2.462115e+00 -1.836684e+00 1.036227e+01 -4.349388e+00 3.798292e+00 -4.398072e+00 -2.451179e+01 -7.783855e+00 -5.663576e+00 -1.578821e+00 -2.889652e+00 -6.722954e+00 1.961762e+01 -1.410847e-01 1.018698e-01 4.581035e-01 -1.957412e-01 5.818576e-02 9.025605e-02 -7.465961e-01 5.658761e-01 -6.958390e-02 -5.576664e-01 4.902855e-01 -5.928061e-01 1.044923e-01
<VARIANCE> 26
 1.885345e+01 2.827855e+01 9.231294e+01 5.255586e+01 5.330501e+01 4.858999e+01 5.600622e+01 7.314797e+01 3.598749e+01 4.833907e+01 3.275307e+01 4.035872e+01 3.808824e-01 8.300176e-01 2.301465e+00 2.589809e+00 2.335519e+00 2.513966e+00 3.058871e+00 4.669482e+00 4.255392e+00 3.447204e+00 3.206307e+00 2.136350e+00 2.575395e+00 3.351810e-02
<GCONST> 1.005993e+02
<STATE> 4
<MEAN> 26
 1.846771e+00 -5.201241e+00 6.553413e+00 -6.358768e+00 9.298766e-01 -2.921983e+00 -1.926528e+01 -5.145164e+00 -6.351314e+00 5.366551e-01 -1.027541e+00 -8.541179e+00 1.958323e+01 -5.724173e-01 -7.819872e-01 -1.338024e-01 -1.727390e+00 -1.758167e+00 2.503089e-01 1.776530e+00 1.406968e+00 -3.702380e-01 7.944587e-01 1.302215e+00 3.930607e-01 6.354376e-02
<VARIANCE> 26
 1.491667e+01 2.538459e+01 6.459334e+01 8.225217e+01 6.473093e+01 4.547219e+01 1.028821e+02 7.982504e+01 4.676345e+01 7.646754e+01 4.112204e+01 3.847391e+01 1.602148e+00 1.154296e+00 3.551602e+00 7.755271e+00 6.767679e+00 7.354637e+00 5.509619e+00 4.926986e+00 7.185946e+00 5.972550e+00 7.736625e+00 5.060119e+00 3.855048e+00 6.361013e-02
<GCONST> 1.120089e+02
<TRANSP> 5
 0.000000e+00 1.000000e+00 0.000000e+00 0.000000e+00 0.000000e+00
 0.000000e+00 5.707951e-01 4.292049e-01 0.000000e+00 0.000000e+00
 0.000000e+00 0.000000e+00 7.311959e-01 2.688041e-01 0.000000e+00
 0.000000e+00 0.000000e+00 0.000000e+00 6.195419e-01 3.804581e-01
 0.000000e+00 0.000000e+00 0.000000e+00 0.000000e+00 0.000000e+00
<ENDHMM>
~h "m"
<BEGINHMM>
<NUMSTATES> 5
<STATE> 2
<MEAN> 26
 2.067922e+00 -8.767180e-01 2.497545e+00 2.060560e+00 -5.879400e+00 1.268645e+00 -1.003720e+01 -4.618131e-01 -1.977276e+01 -5.014144e+00 8.491001e+00 -6.917450e+00 1.925973e+01 9.997023e-01 6.203831e-01 -1.329692e-01 4.201807e+00 -5.805177e-02 -2.737904e-01 1.881650e-01 -7.937339e-01 -3.853002e+00 -6.795707e-01 1.351529e+00 -1.233260e+00 2.777200e-01
<VARIANCE> 26
 1.697125e+01 2.660570e+01 3.398821e+01 6.421000e+01 3.064475e+01 4.291159e+01 6.861014e+01 3.511535e+01 7.576654e+01 6.118091e+01 4.319305e+01 2.706053e+01 4.915616e+00 2.494546e+00 2.337862e+00 4.824895e+00 9.516344e+00 2.648520e+00 4.517147e+00 6.601223e+00 5.344995e+00 5.500692e+00 3.067857e+00 4.426380e+00 2.340757e+00 3.887858e-01
<GCONST> 1.095066e+02
<STATE> 3
<MEAN> 26
 2.485603e+00 -1.237988e+00 3.227380e+00 7.376742e+00 -7.125611e+00 8.923032e-01 -1.207654e+01 -3.579466e+00 -2.582756e+01 -5.527157e+00 1.274154e+01 -9.639523e+00 2.040914e+01 -1.196361e-01 -2.416393e-01 7.097569e-02 3.999165e-02 6.846778e-02 1.087069e-01 1.365142e-02 -2.617960e-01 -2.776623e-01 9.766684e-02 1.657075e-02 6.749339e-02 3.735928e-02
<VARIANCE> 26
 5.908187e+00 2.077263e+01 1.355817e+01 1.416822e+01 1.963574e+01 4.277205e+01 5.041831e+01 4.225798e+01 3.744408e+01 7.140273e+01 3.960681e+01 3.402251e+01 1.419423e-01 2.352914e-01 1.052028e+00 1.048296e+00 3.282960e+00 1.126374e+00 1.864840e+00 2.293123e+00 1.835358e+00 2.672980e+00 2.327073e+00 2.741298e+00 1.840044e+00 8.624984e-03
<GCONST> 8.610700e+01
<STATE> 4
<MEAN> 26
 2.054246e+00 -4.098166e+00 2.361152e+00 -1.692273e+00 -6.987346e+00 3.490369e+00 -1.356464e+01 -1.923180e+00 -2.072005e+01 -4.975123e+00 9.005512e+00 -6.967298e+00 2.043141e+01 -3.931100e-01 -1.028777e+00 1.342387e-02 -5.528433e+00 -4.380242e-01 7.821099e-01 -4.254459e-01 1.650219e+00 3.845220e+00 3.054370e-01 -1.861320e+00 8.233474e-01 8.166221e-02
<VARIANCE> 26
 7.760697e+00 1.989105e+01 2.526878e+01 8.351580e+01 3.133403e+01 5.927682e+01 5.396384e+01 3.739732e+01 6.776814e+01 6.044563e+01 4.774889e+01 2.464456e+01 2.283601e-01 8.048410e-01 2.767071e+00 5.021562e+00 8.217754e+00 2.996093e+00 3.311800e+00 2.945201e+00 4.579512e+00 4.269205e+00 2.684720e+00 3.581057e+00 2.502482e+00 3.546543e-02
<GCONST> 1.002372e+02
<TRANSP> 5
 0.000000e+00 1.000000e+00 0.000000e+00 0.000000e+00 0.000000e+00
 0.000000e+00 5.808721e-01 4.191279e-01 0.000000e+00 0.000000e+00
 0.000000e+00 0.000000e+00 7.920096e-01 2.079904e-01 0.000000e+00
 0.000000e+00 0.000000e+00 0.000000e+00 5.944605e-01 4.055395e-01
 0.000000e+00 0.000000e+00 0.000000e+00 0.000000e+00 0.000000e+00
<ENDHMM>
~h "n"
<BEGINHMM>
<NUMSTATES> 5
<STATE> 2
<MEAN> 26
 6.670381e-01 2.528944e+00 6.744672e+00 3.076925e+00 -1.158299e+01 2.500687e+00 -1.002014e+01 -1.922598e+00 -1.914845e+01 -1.200617e+00 -1.770608e-03 -7.415566e+00 1.987996e+01 1.045404e+00 1.132278e+00 -1.069290e+00 3.572450e+00 -1.543549e+00 -2.294397e-02 2.137447e+00 -1.464820e+00 -1.978323e+00 7.426129e-01 -8.634448e-01 -1.820112e-01 2.330860e-01
<VARIANCE> 26
 9.714867e+00 2.438983e+01 2.001785e+01 4.110553e+01 4.200372e+01 4.637274e+01 4.321153e+01 4.512959e+01 5.758017e+01 4.885305e+01 4.093431e+01 2.055410e+01 2.148241e+00 1.684360e+00 2.182434e+00 5.597270e+00 4.917265e+00 4.333352e+00 3.231716e+00 6.764376e+00 3.744283e+00 5.744509e+00 3.824552e+00 3.136269e+00 2.859890e+00 3.246698e-01
<GCONST> 1.052038e+02
<STATE> 3
<MEAN> 26
 1.530919e+00 2.381038e+00 5.410292e+00 7.752395e+00 -1.445379e+01 2.343881e+00 -6.102427e+00 -5.161505e+00 -1.820103e+01 -2.049225e+00 -8.233737e-01 -6.239441e+00 2.044196e+01 -1.035326e-01 -8.696986e-02 1.381256e-02 1.898030e-02 6.031907e-02 -2.538859e-01 2.949000e-01 4.981942e-02 2.292180e-01 -3.693957e-01 2.779367e-01 1.169817e-01 2.837435e-02
<VARIANCE> 26
 5.679976e+00 1.315726e+01 8.136893e+00 1.603753e+01 1.445757e+01 1.953952e+01 2.644904e+01 2.542545e+01 3.659163e+01 6.215772e+01 4.400675e+01 2.168822e+01 1.847375e-01 2.598890e-01 1.075696e+00 7.771159e-01 1.205394e+00 1.268323e+00 1.708750e+00 1.458261e+00 1.443158e+00 1.925529e+00 2.374964e+00 2.167111e+00 1.759413e+00 6.745951e-03
<GCONST> 8.006386e+01
<STATE> 4
<MEAN> 26
 -3.993528e-01 8.276403e-03 7.480371e+00 6.970620e-01 -1.151517e+01 8.241088e-01 -1.107231e+01 -1.818240e+00 -1.501740e+01 -4.740821e+00 1.488342e+00 -6.848125e+00 2.053326e+01 -8.406070e-01 -1.232596e+00 7.603352e-01 -4.041358e+00 1.482649e+00 -3.211674e-01 -2.637155e+00 1.637181e+00 2.307182e+00 -1.141878e+00 1.443615e+00 -5.942800e-02 3.547187e-02
<VARIANCE> 26
 6.612243e+00 1.816796e+01 2.021202e+01 6.103722e+01 3.430905e+01 3.562609e+01 4.545741e+01 3.267180e+01 5.013938e+01 7.869574e+01 4.842289e+01 3.369985e+01 1.562466e-01 5.426590e-01 1.422475e+00 3.264634e+00 4.933571e+00 3.707741e+00 3.032514e+00 5.197888e+00 3.570183e+00 4.937257e+00 3.214291e+00 3.396035e+00 2.103597e+00 9.075209e-03
<GCONST> 9.581396e+01
<TRANSP> 5
 0.000000e+00 1.000000e+00 0.000000e+00 0.000000e+00 0.000000e+00
 0.000000e+00 5.827591e-01 4.172409e-01 0.000000e+00 0.000000e+00
 0.000000e+00 0.000000e+00 7.411706e-01 2.588294e-01 0.000000e+00
 0.000000e+00 0.000000e+00 0.000000e+00 6.657838e-01 3.342163e-01
 0.000000e+00 0.000000e+00 0.000000e+00 0.000000e+00 0.000000e+00
<ENDHMM>
~h "o"
<BEGINHMM>
<NUMSTATES> 5
<STATE> 2
<MEAN> 26
 2.224133e-01 -3.315965e-01 1.125190e+00 -2.131983e+01 -9.152186e+00 7.163274e+00 -1.506567e+01 -7.163656e+00 -1.272474e+01 1.158073e-01 8.677448e+00 -6.201017e+00 2.047618e+01 1.752691e+00 -7.785674e-01 -2.475752e-02 -3.003813e+00 -2.988430e+00 2.204068e+00 -2.661045e+00 2.906939e-01 -1.889568e+00 -9.589043e-02 2.579192e+00 -1.542337e+00 7.429931e-01
<VARIANCE> 26
 1.234625e+01 3.804333e+01 2.335712e+01 7.122200e+01 4.765191e+01 3.107282e+01 7.242553e+01 5.645440e+01 5.258408e+01 5.229032e+01 7.009534e+01 3.359851e+01 2.613883e+00 3.501730e+00 2.966444e+00 3.713733e+00 7.052555e+00 4.861077e+00 3.026830e+00 4.555263e+00 3.953986e+00 6.150353e+00 4.864451e+00 5.320089e+00 3.332870e+00 2.808952e-01
<GCONST> 1.098041e+02
<STATE> 3
<MEAN> 26
 1.483539e+00 -3.714229e+00 -1.776709e+00 -2.709813e+01 -1.173295e+01 1.157829e+01 -1.584563e+01 -5.659778e+00 -1.447411e+01 1.796061e+00 1.110681e+01 -8.101480e+00 2.171191e+01 2.569968e-02 -6.010440e-02 -2.382229e-01 -2.502311e-01 9.890637e-02 1.082740e-01 3.592285e-01 -3.140949e-02 -1.758855e-01 -8.758088e-02 -3.867694e-01 2.300457e-02 1.711601e-02
<VARIANCE> 26
 5.032778e+00 3.218532e+01 2.517512e+01 3.779514e+01 3.110902e+01 1.634735e+01 4.836696e+01 3.561514e+01 3.538773e+01 8.338929e+01 4.204035e+01 2.870202e+01 3.368582e-01 3.947559e-01 1.163669e+00 1.339018e+00 3.266719e+00 2.177043e+00 1.965307e+00 3.625044e+00 1.791671e+00 2.445013e+00 2.452337e+00 2.612340e+00 1.964541e+00 2.828836e-02
<GCONST> 9.129459e+01
<STATE> 4
<MEAN> 26
 1.183543e+00 -1.568372e+00 2.016969e-01 -2.020376e+01 -7.404689e+00 6.578518e+00 -1.601559e+01 -6.719626e+00 -1.327295e+01 -4.393195e-01 6.257210e+00 -8.075562e+00 2.069674e+01 -3.949833e-01 1.031968e+00 8.159494e-01 3.771801e+00 2.179843e+00 -1.991859e+00 1.882323e+00 -2.830253e-02 1.440892e+00 -4.408382e-01 -2.649368e+00 9.139546e-01 -5.185611e-01
<VARIANCE> 26
 9.501810e+00 4.558323e+01 3.430993e+01 1.026236e+02 3.944426e+01 3.601595e+01 1.309285e+02 6.067018e+01 3.499191e+01 5.970710e+01 6.533350e+01 5.681119e+01 1.376839e+00 2.226176e+00 3.581404e+00 3.017468e+00 6.324817e+00 4.678054e+00 3.545597e+00 6.181559e+00 3.587693e+00 6.006718e+00 4.773751e+00 5.040661e+00 2.616835e+00 1.533459e-01
<GCONST> 1.094380e+02
<TRANSP> 5
 0.000000e+00 1.000000e+00 0.000000e+00 0.000000e+00 0.000000e+00
 0.000000e+00 5.694817e-01 4.305184e-01 0.000000e+00 0.000000e+00
 0.000000e+00 0.000000e+00 8.321954e-01 1.678045e-01 0.000000e+00
 0.000000e+00 0.000000e+00 0.000000e+00 6.077496e-01 3.922504e-01
 0.000000e+00 0.000000e+00 0.000000e+00 0.000000e+00 0.000000e+00
<ENDHMM>
~h "p"
<BEGINHMM>
<NUMSTATES> 5
<STATE> 2
<MEAN> 26
 -4.812109e+00 7.690625e+00 4.003918e+00 3.175525e+00 1.842844e+00 4.827878e-01 -3.671775e+00 -3.561076e+00 -6.230539e+00 -2.102675e+00 -1.243054e+00 -5.319236e+00 1.369072e+01 -3.149360e+00 -1.733807e-02 -5.385321e-01 1.558339e+00 9.642134e-01 2.041901e-01 1.507065e+00 7.726945e-01 1.791557e+00 2.418582e-02 -4.209283e-01 2.563027e-01 -1.653984e+00
<VARIANCE> 26
 4.898191e+01 2.625900e+01 2.406555e+01 1.992144e+01 1.989909e+01 1.592973e+01 3.540941e+01 2.193500e+01 3.388658e+01 2.652164e+01 2.363997e+01 1.831343e+01 7.984942e+00 3.134337e+00 7.211360e+00 3.430919e+00 8.037265e+00 2.218572e+00 3.192267e+00 3.942955e+00 3.233866e+00 3.008386e+00 3.855675e+00 3.115877e+00 2.326680e+00 5.608367e-01
<GCONST> 1.032717e+02
<STATE> 3
<MEAN> 26
 -1.346931e+01 2.159849e+00 -1.131434e-01 1.576898e+00 1.976546e+00 1.496860e+00 -3.188621e-01 1.619282e+00 1.926832e-01 1.735745e+00 1.547377e+00 -7.850767e-01 9.683001e+00 2.729075e-02 -7.455890e-01 -3.629153e-01 -1.184072e+00 -2.592052e-01 -2.396477e-01 5.970538e-02 -9.969249e-02 3.836595e-01 4.162635e-01 3.000780e-01 7.189987e-01 3.150665e-01
<VARIANCE> 26
 2.027748e+00 3.909670e+00 5.805654e+00 8.241021e+00 1.057691e+01 1.080305e+01 1.392829e+01 1.294228e+01 1.335359e+01 1.374302e+01 1.328507e+01 1.657780e+01 2.742451e+00 1.501020e+00 1.041984e+00 1.380771e+00 2.749582e+00 1.623727e+00 1.369271e+00 1.823895e+00 2.944525e+00 2.235383e+00 2.086237e+00 1.726208e+00 2.182979e+00 1.099749e+00
<GCONST> 8.249470e+01
<STATE> 4
<MEAN> 26
 -1.019364e+01 -1.899304e+00 6.394552e-01 -7.058985e+00 2.665934e+00 -4.736380e-01 -1.399495e+00 -3.816489e+00 -5.808998e-01 2.917554e+00 2.599751e-01 1.845733e+00 1.537132e+01 2.174034e+00 -1.311526e+00 -1.304343e-01 -3.498669e+00 -4.649011e-01 5.875667e-01 -1.847556e+00 -1.111475e+00 -1.264263e+00 2.124885e-01 7.558945e-02 -8.233607e-01 2.017132e+00
<VARIANCE> 26
 1.769255e+01 1.411514e+01 1.808261e+01 2.200999e+01 1.936686e+01 2.031914e+01 2.202489e+01 2.314466e+01 2.679359e+01 1.657158e+01 1.671579e+01 2.163573e+01 5.149151e+00 4.581007e+00 3.397127e+00 3.428060e+00 6.734311e+00 4.455847e+00 5.483929e+00 5.595109e+00 3.266552e+00 5.450845e+00 3.530724e+00 3.242886e+00 4.406672e+00 1.086601e+00
<GCONST> 1.028117e+02
<TRANSP> 5
 0.000000e+00 1.000000e+00 0.000000e+00 0.000000e+00 0.000000e+00
 0.000000e+00 6.679325e-01 3.320675e-01 0.000000e+00 0.000000e+00
 0.000000e+00 0.000000e+00 7.824405e-01 2.175595e-01 0.000000e+00
 0.000000e+00 0.000000e+00 0.000000e+00 5.781624e-01 4.218377e-01
 0.000000e+00 0.000000e+00 0.000000e+00 0.000000e+00 0.000000e+00
<ENDHMM>
~h "q"
<BEGINHMM>
<NUMSTATES> 5
<STATE> 2
<MEAN> 26
 -1.295533e+00 -4.251997e+00 5.900879e+00 -1.532767e+01 -6.183370e+00 3.545891e+00 -1.941566e+01 -5.612618e+00 -9.431852e+00 3.311691e+00 4.881314e+00 -6.907207e+00 2.034335e+01 1.197819e+00 -1.417237e+00 -2.163222e-02 -6.319267e-01 -1.334011e+00 4.330362e-01 -3.227569e+00 6.038234e-01 -9.128550e-01 1.130686e+00 1.781955e+00 -1.784114e+00 3.731034e-01
<VARIANCE> 26
 1.665966e+01 2.032253e+01 4.294780e+01 6.409360e+01 5.150481e+01 6.336163e+01 8.007887e+01 5.008058e+01 2.875346e+01 5.309217e+01 3.123222e+01 3.433097e+01 1.611053e+00 3.112556e+00 2.024079e+00 2.270262e+00 4.059756e+00 5.202433e+00 3.918072e+00 6.374724e+00 3.330886e+00 3.435120e+00 3.241032e+00 4.040756e+00 3.560504e+00 1.439534e-01
<GCONST> 1.059721e+02
<STATE> 3
<MEAN> 26
 -9.707341e-01 -6.343983e+00 7.187885e+00 -1.306032e+01 -6.770061e+00 1.023782e+00 -2.577213e+01 -2.920643e+00 -9.368223e+00 3.675141e+00 6.973653e+00 -1.065274e+01 2.071844e+01 1.866395e-01 5.195815e-01 -1.595835e-01 4.308125e-01 6.905316e-01 -3.287616e-01 6.858366e-01 1.855638e-01 -2.697545e-01 1.523284e-01 -4.231041e-01 4.265542e-01 -1.399115e-01
<VARIANCE> 26
 1.116111e+01 1.298229e+01 3.445225e+01 2.595198e+01 3.334766e+01 2.572683e+01 5.125784e+01 4.316255e+01 3.576858e+01 5.931113e+01 3.233680e+01 1.981787e+01 1.228439e+00 5.804058e-01 1.543908e+00 1.879275e+00 3.755586e+00 2.374750e+00 2.940752e+00 3.623670e+00 3.149515e+00 2.213951e+00 4.296791e+00 2.463850e+00 1.899776e+00 5.632662e-02
<GCONST> 9.548365e+01
<STATE> 4
<MEAN> 26
 9.543570e-01 -5.708039e-01 8.544896e-01 -7.940500e+00 4.606520e+00 -9.117045e-02 -6.460907e+00 -2.826594e+00 -6.966079e+00 1.487489e+00 3.814028e-02 -2.603023e+00 1.829504e+01 -6.898104e-01 1.484400e+00 8.441561e-02 2.426903e+00 9.062390e-01 5.291762e-01 2.895599e+00 -1.375809e-01 1.495850e+00 -9.539957e-01 -6.625376e-01 8.954372e-01 -5.411461e-01
<VARIANCE> 26
 2.190917e+01 2.283661e+01 5.087427e+01 6.373253e+01 7.354803e+01 5.138061e+01 1.798207e+02 3.941187e+01 4.763265e+01 7.187581e+01 4.772429e+01 3.211760e+01 2.953173e+00 2.489862e+00 3.476883e+00 2.033550e+00 3.831457e+00 3.606044e+00 4.673302e+00 5.117653e+00 4.533779e+00 3.960692e+00 3.712265e+00 3.483758e+00 2.919258e+00 1.840098e-01
<GCONST> 1.092384e+02
<TRANSP> 5
 0.000000e+00 1.000000e+00 0.000000e+00 0.000000e+00 0.000000e+00
 0.000000e+00 4.837451e-01 5.162549e-01 0.000000e+00 0.000000e+00
 0.000000e+00 0.000000e+00 7.003217e-01 2.996784e-01 0.000000e+00
 0.000000e+00 0.000000e+00 0.000000e+00 6.404694e-01 3.595306e-01
 0.000000e+00 0.000000e+00 0.000000e+00 0.000000e+00 0.000000e+00
<ENDHMM>
~h "r"
<BEGINHMM>
<NUMSTATES> 5
<STATE> 2
<MEAN> 26
 -2.880260e+00 -9.448122e-02 -2.547085e+00 -2.111292e+01 1.399790e+00 7.660266e+00 -5.056597e+00 -8.812884e+00 -3.067221e+00 3.809870e+00 -1.686273e+00 -1.070904e+00 1.876973e+01 -9.000224e-01 1.797956e+00 -7.636909e-01 6.011897e-01 1.383544e+00 1.183206e+00 6.937349e-01 -5.301551e-01 1.437222e+00 -5.878856e-01 -1.479176e-01 1.284918e+00 -4.085605e-01
<VARIANCE> 26
 1.768618e+01 4.060305e+01 2.342218e+01 4.761813e+01 8.470627e+01 3.789727e+01 5.316246e+01 3.892224e+01 4.804771e+01 5.431391e+01 3.432036e+01 3.071633e+01 2.291036e+00 2.420959e+00 3.070638e+00 2.546712e+00 5.604635e+00 4.982940e+00 5.148705e+00 5.030720e+00 4.287399e+00 4.285532e+00 3.751295e+00 4.155244e+00 3.185901e+00 2.836026e-01
<GCONST> 1.078246e+02
<STATE> 3
<MEAN> 26
 -8.867792e+00 8.440812e-01 -5.419097e+00 -1.665972e+01 8.821836e+00 1.207998e+01 -4.635094e+00 -6.222266e+00 1.601913e+00 2.255840e+00 8.137738e-01 2.481265e+00 1.685957e+01 -2.987885e-01 -1.192397e-02 -1.437740e-01 5.020204e-01 -2.118120e-01 -3.959285e-01 2.067619e-01 4.171067e-01 -4.271571e-03 -1.658440e-01 3.033133e-01 1.480539e-01 -2.074927e-01
<VARIANCE> 26
 1.679753e+01 2.341562e+01 1.740462e+01 3.354971e+01 7.431353e+01 3.847105e+01 4.278650e+01 3.282538e+01 3.361819e+01 3.520607e+01 3.014662e+01 2.245859e+01 3.568196e+00 1.333321e+00 1.309116e+00 1.702395e+00 2.212122e+00 3.263847e+00 3.133367e+00 2.757834e+00 3.528197e+00 2.847803e+00 3.210116e+00 2.569638e+00 2.004685e+00 1.173197e-01
<GCONST> 9.839343e+01
<STATE> 4
<MEAN> 26
 -4.534874e+00 3.303573e+00 -2.883707e+00 -1.793472e+01 -3.546875e-01 5.541367e+00 -3.584842e+00 -6.781222e+00 -1.042048e+00 1.588917e+00 -8.200473e-02 1.754432e+00 1.777241e+01 8.195995e-01 -5.478320e-01 1.013276e+00 9.006817e-01 -1.345448e+00 -1.213441e+00 -1.294746e-01 4.139171e-01 -1.218257e+00 -8.320766e-02 3.100570e-01 -6.941531e-01 1.422705e-01
<VARIANCE> 26
 3.131024e+01 4.889883e+01 3.174253e+01 5.279631e+01 8.913987e+01 4.226093e+01 5.550914e+01 4.557583e+01 6.415186e+01 3.909087e+01 3.138553e+01 3.238670e+01 5.134910e+00 2.561057e+00 2.899934e+00 3.196053e+00 6.650929e+00 5.996694e+00 3.823049e+00 3.651470e+00 4.358515e+00 4.186113e+00 3.256930e+00 3.573658e+00 2.684812e+00 3.954366e-01
<GCONST> 1.099072e+02
<TRANSP> 5
 0.000000e+00 1.000000e+00 0.000000e+00 0.000000e+00 0.000000e+00
 0.000000e+00 6.059340e-01 3.940661e-01 0.000000e+00 0.000000e+00
 0.000000e+00 0.000000e+00 6.692173e-01 3.307827e-01 0.000000e+00
 0.000000e+00 0.000000e+00 0.000000e+00 5.324443e-01 4.675558e-01
 0.000000e+00 0.000000e+00 0.000000e+00 0.000000e+00 0.000000e+00
<ENDHMM>
~h "s"
<BEGINHMM>
<NUMSTATES> 5
<STATE> 2
<MEAN> 26
 -1.931944e+01 3.285276e+00 -1.013132e+00 -7.297723e+00 3.346625e+00 -1.974727e+00 -1.860025e+00 -1.750148e+00 -2.405488e+00 1.917172e+00 -1.269559e+00 9.458472e-01 1.603911e+01 -3.870483e+00 -5.621567e-01 -2.150175e+00 -6.134149e-01 1.609691e-01 5.588529e-01 4.446225e-01 4.384991e-01 7.037805e-01 6.137867e-01 4.111362e-01 1.126143e+00 -2.100855e-01
<VARIANCE> 26
 4.186874e+01 3.420933e+01 3.809167e+01 3.321157e+01 3.289892e+01 3.993503e+01 2.819557e+01 3.555186e+01 2.991883e+01 2.408408e+01 2.621676e+01 1.964945e+01 5.648993e+00 3.868582e+00 3.449552e+00 5.065370e+00 5.206621e+00 4.062994e+00 5.178577e+00 4.064553e+00 3.204556e+00 4.222082e+00 2.777628e+00 2.716296e+00 2.592187e+00 4.037830e-01
<GCONST> 1.058252e+02
<STATE> 3
<MEAN> 26
 -2.822812e+01 1.764780e+00 -8.691556e+00 -1.140163e+01 -3.132778e-01 -1.498523e+00 -3.970703e+00 -2.432317e+00 -3.404397e+00 2.652090e+00 3.497223e-01 3.624971e+00 1.669606e+01 -1.630245e-01 -5.562365e-03 1.097842e-01 -1.652832e-01 -2.143678e-01 2.886874e-02 -2.329122e-01 -2.143162e-01 -1.387416e-02 -7.646154e-02 -3.105595e-02 7.872336e-02 5.655491e-02
<VARIANCE> 26
 6.019731e+00 9.147107e+00 2.429670e+01 3.068674e+01 2.930212e+01 2.801939e+01 2.107901e+01 2.477052e+01 2.106268e+01 1.793596e+01 1.363569e+01 1.349910e+01 9.058759e-01 7.446898e-01 7.851396e-01 1.933963e+00 1.384122e+00 1.891913e+00 2.092464e+00 1.744488e+00 1.807434e+00 1.805033e+00 1.771162e+00 1.501607e+00 1.470024e+00 4.729381e-02
<GCONST> 8.430162e+01
<STATE> 4
<MEAN> 26
 -2.325990e+01 1.950117e+00 -1.487364e+00 -1.042900e+01 9.141436e-01 -1.553342e+00 -4.189472e+00 -4.130818e+00 -2.817209e+00 1.974524e+00 -1.977295e+00 1.797392e+00 1.688731e+01 4.579282e+00 -1.506841e-01 3.103172e+00 3.288545e-01 -4.869061e-01 -7.023861e-01 -1.570192e+00 -3.305302e-01 -1.389692e+00 -5.782934e-01 -2.228507e-01 -1.752113e+00 3.045397e-01
<VARIANCE> 26
 4.561913e+01 2.936219e+01 4.981754e+01 3.317889e+01 4.514527e+01 4.821076e+01 2.862448e+01 2.926192e+01 2.479169e+01 2.110603e+01 1.734730e+01 2.373322e+01 2.286208e+00 5.553513e+00 3.803197e+00 4.871109e+00 6.217934e+00 3.471363e+00 5.924993e+00 6.727900e+00 3.506284e+00 3.367631e+00 4.406934e+00 3.215245e+00 3.701395e+00 6.020256e-01
<GCONST> 1.072305e+02
<TRANSP> 5
 0.000000e+00 1.000000e+00 0.000000e+00 0.000000e+00 0.000000e+00
 0.000000e+00 7.185360e-01 2.814640e-01 0.000000e+00 0.000000e+00
 0.000000e+00 0.000000e+00 8.892319e-01 1.107682e-01 0.000000e+00
 0.000000e+00 0.000000e+00 0.000000e+00 6.221120e-01 3.778879e-01
 0.000000e+00 0.000000e+00 0.000000e+00 0.000000e+00 0.000000e+00
<ENDHMM>
~h "t"
<BEGINHMM>
<NUMSTATES> 5
<STATE> 2
<MEAN> 26
 -5.339239e+00 8.224816e+00 5.791943e+00 2.359978e+00 6.850512e-01 -2.858480e+00 -4.555984e+00 -2.469094e+00 -6.147577e+00 -1.871202e+00 -2.349091e+00 -4.179778e+00 1.436294e+01 -2.175602e+00 -4.916348e-02 -1.215304e+00 1.461530e+00 8.669819e-01 1.083933e+00 1.260971e+00 4.964160e-01 1.478354e+00 -7.037873e-01 -7.586849e-02 1.571001e-01 -1.718585e+00
<VARIANCE> 26
 4.530576e+01 3.332761e+01 3.251894e+01 3.224094e+01 3.688884e+01 3.771367e+01 3.313880e+01 2.624269e+01 3.812654e+01 3.234618e+01 2.444910e+01 2.246472e+01 7.473746e+00 4.230983e+00 8.206786e+00 4.235234e+00 8.799964e+00 3.855817e+00 4.566566e+00 3.538937e+00 3.607361e+00 3.667917e+00 2.928490e+00 2.871566e+00 2.634421e+00 5.426290e-01
<GCONST> 1.078701e+02
<STATE> 3
<MEAN> 26
 -1.341991e+01 2.369109e+00 3.719400e-01 1.053544e+00 1.915748e+00 1.400621e+00 -6.929843e-01 1.074624e+00 -4.015899e-01 8.743744e-01 8.157588e-01 -9.390810e-01 9.873610e+00 -8.591350e-01 -1.846741e+00 -7.200513e-01 -1.922370e+00 -3.494069e-01 3.160111e-01 1.216217e-01 -8.440175e-02 5.529345e-01 5.799638e-01 3.508129e-01 9.063284e-01 3.236327e-01
<VARIANCE> 26
 4.500795e+00 8.053700e+00 8.179814e+00 1.610995e+01 1.213590e+01 1.360798e+01 1.523532e+01 1.651370e+01 1.843969e+01 1.530545e+01 1.620358e+01 1.558774e+01 3.065319e+00 2.421058e+00 4.037882e+00 3.172746e+00 6.637586e+00 2.322953e+00 3.286904e+00 2.311273e+00 3.253463e+00 3.538353e+00 2.459155e+00 1.994159e+00 2.832577e+00 1.281950e+00
<GCONST> 9.270636e+01
<STATE> 4
<MEAN> 26
 -1.715814e+01 -4.113293e+00 -8.436841e-01 -1.251623e+01 1.050052e+00 -9.698030e-01 -4.246843e+00 -3.571677e+00 -1.449605e+00 2.407326e+00 2.067715e-02 3.371128e+00 1.619172e+01 4.281217e-01 2.207266e-02 4.392571e-01 -1.711455e+00 3.944317e-02 -7.011032e-01 -1.596035e+00 -5.308574e-01 -6.250928e-01 2.760721e-01 -1.668717e-01 -3.210244e-01 1.271512e+00
<VARIANCE> 26
 2.932427e+01 3.986008e+01 4.058979e+01 3.325751e+01 4.030610e+01 4.378355e+01 3.069394e+01 3.363145e+01 3.141038e+01 2.271856e+01 2.249929e+01 2.192653e+01 3.055371e+00 6.184252e+00 4.822406e+00 6.197017e+00 7.506064e+00 4.720867e+00 4.767547e+00 5.427691e+00 3.826928e+00 4.261057e+00 3.771846e+00 2.639975e+00 4.943331e+00 8.930933e-01
<GCONST> 1.089754e+02
<TRANSP> 5
 0.000000e+00 1.000000e+00 0.000000e+00 0.000000e+00 0.000000e+00
 0.000000e+00 6.075589e-01 3.924411e-01 0.000000e+00 0.000000e+00
 0.000000e+00 0.000000e+00 6.918431e-01 3.081569e-01 0.000000e+00
 0.000000e+00 0.000000e+00 0.000000e+00 7.339582e-01 2.660418e-01
 0.000000e+00 0.000000e+00 0.000000e+00 0.000000e+00 0.000000e+00
<ENDHMM>
~h "u"
<BEGINHMM>
<NUMSTATES> 5
<STATE> 2
<MEAN> 26
 4.018691e-01 4.387092e+00 1.605611e+00 -1.276169e+01 -5.600275e+00 2.005153e+00 -1.085304e+01 -6.885733e+00 -1.187915e+01 -8.373275e+00 4.287255e+00 -5.023475e+00 1.943159e+01 3.123764e+00 1.689703e+00 1.130874e-01 -2.967096e+00 -2.959612e+00 1.503991e+00 -1.355649e+00 -4.810282e-01 -2.176743e+00 -3.103874e+00 1.877550e+00 -1.117682e+00 8.291827e-01
<VARIANCE> 26
 2.030035e+01 3.292999e+01 9.353016e+00 5.927548e+01 6.326640e+01 4.892476e+01 4.680437e+01 7.951077e+01 3.780027e+01 5.234321e+01 6.598180e+01 4.831775e+01 1.134330e+00 3.993370e+00 2.357114e+00 2.009785e+00 4.335327e+00 6.569331e+00 4.201334e+00 4.381336e+00 6.939891e+00 5.949997e+00 5.950254e+00 4.404978e+00 4.619966e+00 4.977742e-01
<GCONST> 1.096723e+02
<STATE> 3
<MEAN> 26
 3.689684e+00 5.139602e+00 8.261520e-01 -1.703177e+01 -1.346089e+01 6.173765e+00 -1.131773e+01 -5.427046e+00 -1.320000e+01 -1.483224e+01 6.324994e+00 -6.792349e+00 2.051299e+01 1.035490e-01 1.321264e-01 -5.152492e-02 -4.621318e-01 -4.940273e-01 1.758046e-01 5.595277e-02 2.506406e-01 -1.827436e-01 2.403009e-01 -3.022511e-01 -2.898965e-01 4.186188e-04
<VARIANCE> 26
 1.084183e+01 1.309763e+01 1.520258e+01 1.069348e+02 4.719970e+01 3.682666e+01 3.037535e+01 4.830467e+01 3.893604e+01 5.646762e+01 5.157751e+01 5.063447e+01 4.135709e-01 5.536779e-01 1.242420e+00 9.929635e-01 2.202235e+00 2.686350e+00 2.469911e+00 2.577410e+00 3.138740e+00 2.518087e+00 3.324241e+00 2.701814e+00 2.215293e+00 2.371040e-02
<GCONST> 9.412996e+01
<STATE> 4
<MEAN> 26
 2.280870e+00 5.449224e+00 2.006739e+00 -1.584862e+01 -8.877280e+00 3.982514e+00 -1.054076e+01 -6.096887e+00 -1.451471e+01 -7.888860e+00 3.902808e+00 -5.203636e+00 1.959453e+01 -1.138909e+00 -7.423192e-02 1.695054e-01 6.873067e-01 1.917330e+00 -5.967049e-01 1.023942e+00 -1.532006e+00 1.375357e+00 2.165260e+00 -1.782940e+00 1.483130e+00 -3.903179e-01
<VARIANCE> 26
 1.567651e+01 2.264054e+01 2.189097e+01 1.195764e+02 6.345094e+01 4.845170e+01 4.438013e+01 9.778421e+01 6.892356e+01 5.077257e+01 5.567431e+01 5.110013e+01 1.206030e+00 1.167187e+00 1.576160e+00 3.026221e+00 4.652183e+00 6.936690e+00 4.411397e+00 4.525614e+00 4.911805e+00 4.933838e+00 8.212829e+00 5.427596e+00 3.545158e+00 1.460915e-01
<GCONST> 1.087461e+02
<TRANSP> 5
 0.000000e+00 1.000000e+00 0.000000e+00 0.000000e+00 0.000000e+00
 0.000000e+00 5.478212e-01 4.521788e-01 0.000000e+00 0.000000e+00
 0.000000e+00 0.000000e+00 8.332487e-01 1.667513e-01 0.000000e+00
 0.000000e+00 0.000000e+00 0.000000e+00 6.371434e-01 3.628566e-01
 0.000000e+00 0.000000e+00 0.000000e+00 0.000000e+00 0.000000e+00
<ENDHMM>
~h "v"
<BEGINHMM>
<NUMSTATES> 5
<STATE> 2
<MEAN> 26
 -1.991036e+00 2.804285e+00 3.550618e+00 -5.571813e+00 4.204834e+00 1.213427e+00 -1.016471e+01 -7.498843e+00 -8.145092e+00 3.853157e+00 4.371562e+00 -6.571524e-01 1.794309e+01 -6.952165e-01 1.511291e+00 5.316853e-01 1.383599e+00 1.578271e+00 8.860490e-01 7.660471e-01 -1.248978e+00 1.346632e-01 -2.071766e-01 -4.154053e-01 4.658353e-01 -6.151743e-02
<VARIANCE> 26
 1.652097e+01 1.129649e+01 1.466310e+01 2.879906e+01 1.754203e+01 3.512778e+01 3.098358e+01 2.876683e+01 3.195032e+01 2.659824e+01 1.724149e+01 1.296735e+01 3.550433e+00 4.559893e+00 2.271773e+00 1.744233e+00 5.749404e+00 2.383030e+00 1.786179e+00 5.744496e+00 2.592152e+00 4.474680e+00 2.810043e+00 2.049522e+00 1.187655e+00 5.598426e-01
<GCONST> 9.733131e+01
<STATE> 3
<MEAN> 26
 -8.365975e+00 7.553915e+00 6.710052e+00 3.312511e-01 7.297795e+00 4.456651e+00 -5.613863e+00 -8.087897e+00 -7.408494e+00 1.553373e+00 -5.400925e-01 6.636694e-01 1.751761e+01 -8.393213e-01 -2.757712e-01 8.264242e-02 6.627201e-02 -1.259964e-01 1.761649e-01 4.283468e-01 3.593616e-01 5.015649e-02 -2.487375e-01 -5.501071e-01 7.981439e-02 -6.299093e-02
<VARIANCE> 26
 7.654099e+00 7.166596e+00 1.969057e+01 1.654763e+01 1.686296e+01 2.110388e+01 2.195310e+01 1.940301e+01 1.699201e+01 1.189297e+01 1.508580e+01 8.752300e+00 2.520113e-01 9.898658e-01 1.531954e+00 1.449605e+00 1.750186e+00 1.623210e+00 1.465643e+00 1.734052e+00 1.877977e+00 1.136189e+00 1.490794e+00 1.693115e+00 9.674271e-01 3.755745e-02
<GCONST> 7.945155e+01
<STATE> 4
<MEAN> 26
 -7.122791e+00 2.033241e+00 3.655992e+00 -5.943446e+00 3.171511e+00 3.607370e+00 -7.190845e+00 -6.382209e+00 -6.758636e+00 4.487231e-01 1.185658e+00 -1.683088e-01 1.836334e+01 1.651796e+00 -2.293750e+00 -2.856492e-01 -3.175820e+00 -2.682197e+00 -7.359936e-01 -2.748753e+00 1.186498e+00 2.152812e-01 -1.626144e-02 1.607313e+00 -1.270620e+00 6.042645e-01
<VARIANCE> 26
 9.723053e+00 1.298634e+01 2.423086e+01 2.433075e+01 1.643110e+01 2.212083e+01 3.161737e+01 1.668738e+01 1.948496e+01 1.838811e+01 2.196896e+01 1.392577e+01 5.647365e-01 1.806617e+00 2.402776e+00 2.792042e+00 2.605980e+00 2.290131e+00 3.493302e+00 3.774855e+00 2.865472e+00 1.476542e+00 4.072915e+00 2.554152e+00 2.051193e+00 8.282976e-02
<GCONST> 9.107240e+01
<TRANSP> 5
 0.000000e+00 1.000000e+00 0.000000e+00 0.000000e+00 0.000000e+00
 0.000000e+00 6.547195e-01 3.452805e-01 0.000000e+00 0.000000e+00
 0.000000e+00 0.000000e+00 7.694775e-01 2.305224e-01 0.000000e+00
 0.000000e+00 0.000000e+00 0.000000e+00 5.401681e-01 4.598319e-01
 0.000000e+00 0.000000e+00 0.000000e+00 0.000000e+00 0.000000e+00
<ENDHMM>
~h "w"
<BEGINHMM>
<NUMSTATES> 5
<STATE> 2
<MEAN> 26
 4.417293e-01 4.479272e+00 1.267340e+00 -1.551619e+01 -7.410133e+00 2.828471e+00 -5.946845e+00 -2.438815e+00 -9.553696e+00 -4.332526e+00 4.008158e+00 -2.534030e+00 1.836009e+01 3.025765e+00 5.398746e-01 -2.114260e-02 -2.433129e+00 -2.049709e+00 3.917776e-01 -1.516569e+00 1.744163e+00 -2.506742e+00 -1.575003e+00 6.471267e-01 -1.843537e+00 8.013671e-01
<VARIANCE> 26
 3.358537e+01 3.149400e+01 2.468896e+01 7.390989e+01 4.644289e+01 4.823055e+01 5.192194e+01 7.508939e+01 7.259647e+01 5.322567e+01 5.189714e+01 4.707919e+01 6.349013e+00 4.915463e+00 4.366361e+00 2.620679e+00 5.614333e+00 5.443304e+00 5.032310e+00 5.023779e+00 4.284299e+00 6.065689e+00 5.033915e+00 3.837297e+00 3.206239e+00 4.854106e-01
<GCONST> 1.134898e+02
<STATE> 3
<MEAN> 26
 5.639879e+00 3.413172e+00 1.010634e+00 -1.644797e+01 -1.200409e+01 5.186657e+00 -8.630943e+00 3.046464e-01 -1.241714e+01 -6.588301e+00 4.575633e+00 -6.069506e+00 2.010807e+01 1.623504e-02 -3.939842e-01 -2.719438e-02 -7.915985e-01 -4.522822e-01 2.510568e-01 -1.438425e-01 4.925012e-01 -3.108830e-01 4.033517e-01 2.268003e-01 4.810195e-02 1.034042e-01
<VARIANCE> 26
 1.559425e+01 2.403901e+01 1.785027e+01 7.923357e+01 3.988963e+01 5.180014e+01 3.263149e+01 3.977612e+01 3.771586e+01 3.373479e+01 3.958406e+01 2.495786e+01 5.258426e-01 1.060826e+00 1.349850e+00 1.661166e+00 3.317529e+00 2.495309e+00 2.665681e+00 2.392052e+00 2.735858e+00 2.505154e+00 2.346653e+00 2.360020e+00 1.850806e+00 5.773363e-02
<GCONST> 9.540232e+01
<STATE> 4
<MEAN> 26
 2.990228e+00 -5.186189e+00 -4.319285e+00 -2.750186e+01 -8.083890e+00 1.149428e+01 -8.596471e+00 2.361331e+00 -1.368114e+01 -4.794740e-01 6.635370e+00 -5.357336e+00 2.140618e+01 -4.376574e-01 -1.552334e+00 -9.094630e-01 1.806648e-02 2.126466e+00 2.323212e-01 -3.876892e-01 -2.062006e-01 1.291355e-02 8.107356e-01 1.796646e-01 -6.271461e-01 1.263387e-01
<VARIANCE> 26
 9.256308e+00 2.721165e+01 3.229099e+01 8.476157e+01 6.408945e+01 2.220917e+01 4.775721e+01 3.882413e+01 2.706000e+01 5.046233e+01 4.577442e+01 2.413972e+01 6.288527e-01 3.688489e-01 1.077013e+00 1.991152e+00 2.824687e+00 2.201846e+00 2.055871e+00 2.374865e+00 2.130483e+00 2.117944e+00 3.411309e+00 1.943995e+00 2.369065e+00 3.624577e-02
<GCONST> 9.389990e+01
<TRANSP> 5
 0.000000e+00 1.000000e+00 0.000000e+00 0.000000e+00 0.000000e+00
 0.000000e+00 5.231294e-01 4.768706e-01 0.000000e+00 0.000000e+00
 0.000000e+00 0.000000e+00 8.334118e-01 1.665882e-01 0.000000e+00
 0.000000e+00 0.000000e+00 0.000000e+00 7.485652e-01 2.514349e-01
 0.000000e+00 0.000000e+00 0.000000e+00 0.000000e+00 0.000000e+00
<ENDHMM>
~h "x"
<BEGINHMM>
<NUMSTATES> 5
<STATE> 2
<MEAN> 26
 -9.083289e-01 -4.335714e+00 4.004128e+00 -1.125403e+01 -5.207106e+00 2.339556e+00 -2.406474e+01 -9.439455e+00 -1.058422e+01 7.543552e-01 1.162371e+01 -8.701937e+00 2.026333e+01 1.881830e+00 -6.536008e-01 -3.460412e-01 -1.771056e+00 -1.646814e+00 2.089188e+00 -4.183137e+00 -8.740921e-02 -1.469944e+00 7.296690e-01 2.913949e+00 -2.271835e+00 8.425968e-01
<VARIANCE> 26
 3.773330e+00 7.752157e+00 1.106411e+01 2.932349e+01 1.520633e+01 3.335053e+01 4.310586e+01 3.286319e+01 6.217901e+01 5.113850e+01 1.818464e+01 2.091193e+01 1.202065e+00 2.320952e+00 1.354947e+00 1.075247e+00 2.185597e+00 1.881655e+00 2.506586e+00 5.343604e+00 3.885948e+00 5.578364e+00 3.795254e+00 2.297116e+00 2.181459e+00 8.356124e-01
<GCONST> 9.568635e+01
<STATE> 3
<MEAN> 26
 -1.455811e-01 -4.876366e+00 2.375784e+00 -1.294442e+01 -9.587778e+00 7.455131e+00 -2.879056e+01 -1.058092e+01 -9.620884e+00 1.773505e-01 1.591991e+01 -1.239502e+01 2.133679e+01 -5.947064e-02 7.543270e-02 1.765625e-02 -1.506783e-01 -1.053128e-01 3.166943e-02 7.227372e-02 -1.420818e-01 -2.311065e-01 2.345957e-02 -2.406424e-01 -5.183455e-02 -1.562332e-03
<VARIANCE> 26
 1.893754e+00 5.204606e+00 7.004015e+00 2.621157e+01 9.861975e+00 1.808283e+01 1.474286e+01 1.768768e+01 2.038801e+01 1.718025e+01 8.666311e+00 2.271853e+01 1.800717e-01 1.979516e-01 4.932839e-01 1.505679e+00 1.267748e+00 1.339559e+00 1.268443e+00 1.272710e+00 1.067860e+00 1.861618e+00 1.064810e+00 1.093590e+00 1.482921e+00 1.092906e-02
<GCONST> 7.126821e+01
<STATE> 4
<MEAN> 26
 4.139726e-01 -1.925801e+00 4.961536e+00 -1.186747e+01 -1.847868e+00 3.877138e+00 -2.104656e+01 -6.050707e+00 -1.147434e+01 2.136004e+00 8.265064e+00 -8.472688e+00 1.974304e+01 -2.813172e-01 1.477732e+00 3.116289e-01 9.538251e-01 2.187679e+00 -5.791370e-01 3.373219e+00 6.327731e-01 -2.093696e-02 4.084589e-01 -2.351976e+00 1.265540e+00 -5.487850e-01
<VARIANCE> 26
 7.528186e+00 1.801480e+01 1.366970e+01 4.549920e+01 4.637755e+01 3.202775e+01 6.137134e+01 4.530003e+01 3.488328e+01 3.346400e+01 2.929266e+01 2.166984e+01 1.836467e+00 8.517897e-01 2.465967e+00 2.035799e+00 5.914290e+00 2.331604e+00 3.701783e+00 2.866850e+00 1.080756e+00 2.006879e+00 4.235725e+00 2.035413e+00 1.991449e+00 1.079486e-01
<GCONST> 9.631506e+01
<TRANSP> 5
 0.000000e+00 1.000000e+00 0.000000e+00 0.000000e+00 0.000000e+00
 0.000000e+00 6.271285e-01 3.728715e-01 0.000000e+00 0.000000e+00
 0.000000e+00 0.000000e+00 8.495955e-01 1.504045e-01 0.000000e+00
 0.000000e+00 0.000000e+00 0.000000e+00 7.237195e-01 2.762805e-01
 0.000000e+00 0.000000e+00 0.000000e+00 0.000000e+00 0.000000e+00
<ENDHMM>
~h "y"
<BEGINHMM>
<NUMSTATES> 5
<STATE> 2
<MEAN> 26
 -7.502773e+00 -6.673718e-01 1.426272e+01 4.934524e+00 -6.625576e+00 -6.701473e+00 -1.126165e+01 3.878743e-01 -1.299472e+01 -8.222613e+00 -4.233912e-01 2.155668e+00 1.818970e+01 1.661824e+00 -3.106075e-01 2.076222e+00 1.132318e+00 -6.293336e-01 -2.081073e+00 -2.984974e+00 1.366134e+00 -1.608590e+00 -3.500347e+00 1.138284e+00 6.046318e-01 7.774538e-01
<VARIANCE> 26
 2.608918e+01 2.311926e+01 3.840804e+01 2.522885e+01 2.859341e+01 4.899673e+01 9.721014e+01 4.935016e+01 5.736797e+01 6.599889e+01 2.704050e+01 2.633353e+01 5.439462e+00 4.562632e+00 2.689259e+00 4.635336e+00 2.998050e+00 2.721899e+00 5.260474e+00 7.524063e+00 2.852856e+00 6.154081e+00 5.064644e+00 2.061807e+00 2.519196e+00 5.492371e-01
<GCONST> 1.086395e+02
<STATE> 3
<MEAN> 26
 -3.093677e+00 -4.257056e+00 1.578665e+01 5.055465e+00 -1.061567e+01 -7.420737e+00 -2.076136e+01 2.773404e+00 -1.339117e+01 -1.983554e+01 4.795860e+00 2.212823e+00 2.020069e+01 1.902331e-01 -2.624327e-01 -1.393228e-01 -7.110366e-01 -6.423491e-01 4.037241e-01 -3.660719e-01 -8.561117e-02 1.619447e-01 -3.816952e-02 2.456412e-01 -5.351084e-01 9.534717e-02
<VARIANCE> 26
 7.009155e+00 1.585482e+01 1.854178e+01 2.547604e+01 2.944116e+01 1.925532e+01 4.104160e+01 4.139370e+01 4.165982e+01 3.265868e+01 2.221112e+01 2.210388e+01 4.018291e-01 8.079026e-01 1.030542e+00 2.624873e+00 2.537891e+00 2.537724e+00 2.823602e+00 4.881564e+00 2.825327e+00 2.124237e+00 4.794406e+00 1.823618e+00 1.732131e+00 3.700675e-02
<GCONST> 9.141232e+01
<STATE> 4
<MEAN> 26
 -2.551806e+00 -3.621044e+00 1.388195e+01 -3.349073e+00 -1.183754e+01 -1.051931e+00 -1.802434e+01 -3.362009e+00 -1.136169e+01 -7.841453e+00 3.421476e+00 -3.069244e+00 2.008573e+01 4.392139e-02 1.187635e+00 -1.409802e+00 -1.560987e+00 3.668720e-01 2.218053e+00 2.016965e+00 -2.287203e+00 6.739580e-01 3.142920e+00 -1.139843e+00 -6.948345e-01 -2.082574e-01
<VARIANCE> 26
 1.301358e+01 2.064406e+01 7.558665e+01 7.001073e+01 3.209127e+01 9.196658e+01 7.745999e+01 4.434892e+01 4.685976e+01 9.158353e+01 4.235796e+01 3.848144e+01 1.188160e+00 1.590407e+00 2.524768e+00 3.258467e+00 4.645969e+00 2.712818e+00 6.157085e+00 5.194444e+00 4.533213e+00 4.483698e+00 3.920787e+00 3.332992e+00 5.527574e+00 1.454575e-01
<GCONST> 1.079517e+02
<TRANSP> 5
 0.000000e+00 1.000000e+00 0.000000e+00 0.000000e+00 0.000000e+00
 0.000000e+00 6.143002e-01 3.856997e-01 0.000000e+00 0.000000e+00
 0.000000e+00 0.000000e+00 7.781278e-01 2.218722e-01 0.000000e+00
 0.000000e+00 0.000000e+00 0.000000e+00 6.812220e-01 3.187780e-01
 0.000000e+00 0.000000e+00 0.000000e+00 0.000000e+00 0.000000e+00
<ENDHMM>
~h "z"
<BEGINHMM>
<NUMSTATES> 5
<STATE> 2
<MEAN> 26
 -9.553735e+00 1.020681e+01 3.505209e+00 -3.900278e+00 1.074762e+00 -6.847751e+00 -1.019592e+01 -7.598562e+00 -7.815552e+00 1.612554e+00 -2.302492e+00 -3.044537e+00 1.904663e+01 -2.326867e+00 3.071700e+00 -9.542197e-01 1.854148e+00 1.816288e+00 -2.651179e-02 1.829915e+00 -3.032294e-01 1.211624e+00 1.905944e-01 -1.177415e+00 1.620198e+00 -4.506913e-01
<VARIANCE> 26
 1.104917e+01 1.839028e+01 3.172075e+01 4.573079e+01 4.215426e+01 3.389820e+01 2.585626e+01 2.347809e+01 2.394907e+01 3.858065e+01 2.404033e+01 2.390871e+01 5.750675e-01 8.586971e-01 2.475599e+00 2.441984e+00 3.887566e+00 2.733144e+00 3.808816e+00 2.993207e+00 2.466486e+00 2.522428e+00 2.344692e+00 2.492335e+00 1.547664e+00 2.725070e-02
<GCONST> 9.355275e+01
<STATE> 3
<MEAN> 26
 -1.651275e+01 1.451412e+01 2.763828e+00 2.404563e-01 3.926951e+00 -3.096277e+00 -5.179942e+00 -7.134522e+00 -5.551627e+00 -2.383321e-01 -3.340161e+00 1.378693e+00 1.781621e+01 -4.586183e-01 -3.616669e-01 1.111635e-02 -3.298915e-01 2.459397e-01 1.794883e-01 2.405993e-01 -3.828282e-01 2.636207e-01 2.941781e-01 -3.463343e-02 1.031813e-01 -4.443123e-02
<VARIANCE> 26
 8.271327e+00 8.755297e+00 2.876424e+01 3.322335e+01 3.340114e+01 2.992743e+01 2.229465e+01 2.126420e+01 1.822704e+01 3.663226e+01 1.768154e+01 1.888423e+01 5.737796e-01 1.650184e+00 1.081529e+00 1.516344e+00 1.691224e+00 1.831185e+00 3.616029e+00 2.273712e+00 1.625947e+00 1.131787e+00 2.177517e+00 9.280977e-01 1.658465e+00 4.859560e-02
<GCONST> 8.678545e+01
<STATE> 4
<MEAN> 26
 -1.085102e+01 7.659765e+00 2.095289e+00 -7.696630e+00 2.866866e+00 -6.968111e+00 -1.001090e+01 -8.913566e+00 -4.657700e+00 5.089562e+00 -2.555068e+00 -3.103846e+00 1.887644e+01 2.994334e+00 -3.856199e+00 5.837648e-01 -3.303040e+00 -1.524118e+00 -3.377630e-01 -2.414006e+00 1.146851e+00 -3.722394e-01 1.496814e+00 9.819542e-01 -1.854163e+00 5.041012e-01
<VARIANCE> 26
 2.107752e+01 2.723065e+01 3.027572e+01 4.750348e+01 2.127018e+01 3.074745e+01 2.606153e+01 2.568363e+01 2.263399e+01 3.183615e+01 2.309881e+01 2.346678e+01 9.213339e-01 1.432123e+00 2.312546e+00 1.775181e+00 4.637436e+00 2.064897e+00 5.201931e+00 4.064639e+00 4.198656e+00 2.113594e+00 3.425466e+00 2.692852e+00 3.388651e+00 1.001464e-01
<GCONST> 9.759774e+01
<TRANSP> 5
 0.000000e+00 1.000000e+00 0.000000e+00 0.000000e+00 0.000000e+00
 0.000000e+00 6.813722e-01 3.186277e-01 0.000000e+00 0.000000e+00
 0.000000e+00 0.000000e+00 7.411550e-01 2.588449e-01 0.000000e+00
 0.000000e+00 0.000000e+00 0.000000e+00 6.201077e-01 3.798923e-01
 0.000000e+00 0.000000e+00 0.000000e+00 0.000000e+00 0.000000e+00
<ENDHMM>
~h "__"
<BEGINHMM>
<NUMSTATES> 5
<STATE> 2
<MEAN> 26
 -9.968307e+00 1.238032e+00 -1.948041e-01 1.119961e-02 1.918392e+00 3.570909e+00 5.306050e-01 3.755637e-01 -1.626645e+00 -1.033630e+00 -8.730659e-01 4.101378e-01 1.203095e+01 -2.798587e-01 8.442958e-02 -2.276080e-01 1.240751e-01 -2.645069e-01 -8.815967e-02 2.540420e-02 2.235632e-01 2.259187e-01 3.124787e-01 4.002675e-01 1.933290e-01 -1.721831e-01
<VARIANCE> 26
 1.491888e+01 1.628966e+01 2.623774e+01 3.106024e+01 2.203643e+01 2.112038e+01 2.672107e+01 2.085632e+01 2.249729e+01 2.459380e+01 2.263961e+01 1.489458e+01 3.355798e+00 1.060340e+00 1.174542e+00 1.499629e+00 2.241251e+00 2.410041e+00 2.489232e+00 2.416778e+00 2.243828e+00 2.322706e+00 2.138202e+00 1.989060e+00 1.351758e+00 3.415843e-01
<GCONST> 9.222598e+01
<STATE> 3
<MEAN> 26
 -1.267300e+01 3.397580e+00 7.993893e-01 2.219359e+00 2.348769e+00 3.179398e+00 1.636519e+00 3.553403e+00 1.306529e+00 2.732423e+00 3.368429e+00 2.011365e+00 1.184962e+01 -6.269191e-02 -3.768285e-02 -7.381064e-02 -5.998418e-02 -3.510566e-02 -5.177042e-02 2.765235e-02 6.380299e-02 5.622759e-02 8.922270e-02 9.967128e-02 1.100220e-02 -5.550495e-02
<VARIANCE> 26
 2.448283e+00 4.481288e+00 7.676001e+00 1.147140e+01 9.928181e+00 1.046785e+01 1.272371e+01 1.439603e+01 1.432727e+01 1.421853e+01 1.271002e+01 1.127247e+01 2.103202e+00 2.199610e-01 4.017768e-01 5.248141e-01 1.131211e+00 9.866098e-01 1.065832e+00 1.298431e+00 1.482155e+00 1.380553e+00 1.365321e+00 1.343793e+00 1.203277e+00 5.078983e-02
<GCONST> 7.142879e+01
<STATE> 4
<MEAN> 26
 -1.335271e+01 2.129636e+00 -8.703669e-01 2.870679e-01 -2.367468e-01 3.874099e-01 -6.638465e-01 8.642617e-01 -1.483499e+00 -1.688441e-01 9.407535e-01 -4.443035e-01 8.637603e+00 -9.281304e-02 -3.184339e-02 1.102027e-01 -5.559643e-02 6.499951e-02 5.240845e-02 -5.976972e-02 2.211100e-02 9.191740e-02 2.603683e-02 1.186216e-02 -1.324217e-02 -1.336466e-02
<VARIANCE> 26
 3.297711e+00 2.887102e+00 5.331992e+00 6.218372e+00 8.616065e+00 1.001480e+01 1.067898e+01 1.299308e+01 1.455459e+01 1.367004e+01 1.181980e+01 1.061439e+01 7.859814e-01 2.479912e-01 3.274824e-01 5.756477e-01 7.234991e-01 8.905272e-01 1.038168e+00 1.223249e+00 1.348389e+00 1.380956e+00 1.390251e+00 1.379342e+00 1.189394e+00 4.715992e-02
<GCONST> 6.794263e+01
<TRANSP> 5
 0.000000e+00 1.000000e+00 0.000000e+00 0.000000e+00 0.000000e+00
 0.000000e+00 8.969411e-01 1.030589e-01 0.000000e+00 0.000000e+00
 0.000000e+00 0.000000e+00 9.431595e-01 5.684052e-02 0.000000e+00
 0.000000e+00 0.000000e+00 0.000000e+00 9.612295e-01 3.877053e-02
 0.000000e+00 0.000000e+00 0.000000e+00 0.000000e+00 0.000000e+00
<ENDHMM>
~h "a~"
<BEGINHMM>
<NUMSTATES> 5
<STATE> 2
<MEAN> 26
 9.135610e-01 -6.384978e+00 -4.910507e+00 -2.364718e+01 -5.571697e+00 9.687318e+00 -9.666925e+00 1.158934e+00 -1.269172e+01 -6.257471e-01 4.831184e+00 -3.534253e+00 2.076071e+01 1.793376e+00 -6.074168e-01 -1.437948e+00 -2.073220e+00 -1.423475e+00 1.753744e+00 8.374079e-01 2.261716e+00 -1.537415e+00 -2.326222e+00 1.086705e-01 7.975671e-01 5.746025e-01
<VARIANCE> 26
 7.493474e+00 1.909669e+01 1.800631e+01 3.770367e+01 3.385059e+01 4.450751e+01 7.095241e+01 3.458567e+01 2.399266e+01 6.781591e+01 4.034506e+01 4.328196e+01 1.474258e+00 3.558420e+00 2.789282e+00 1.799593e+00 8.178762e+00 3.249177e+00 6.398536e+00 6.841196e+00 2.933505e+00 4.698050e+00 4.594640e+00 3.577067e+00 4.624863e+00 6.347973e-01
<GCONST> 1.060812e+02
<STATE> 3
<MEAN> 26
 2.458217e+00 -5.597249e+00 -7.162421e+00 -2.130453e+01 -1.133164e+01 8.638038e+00 -4.526194e+00 8.430893e+00 -1.402673e+01 -9.879621e+00 2.908525e+00 -4.021141e+00 2.117888e+01 6.366426e-02 3.563842e-01 7.371902e-02 4.705990e-01 -2.980999e-01 -6.199560e-01 3.891183e-01 1.560790e-01 -3.452411e-01 2.946228e-01 -6.723712e-01 -4.600067e-01 -5.736516e-02
<VARIANCE> 26
 6.266382e+00 1.025224e+01 1.370916e+01 2.222532e+01 1.884315e+01 3.000465e+01 2.540037e+01 1.585206e+01 1.671061e+01 2.259383e+01 2.038842e+01 1.755210e+01 3.059782e-01 3.522639e-01 9.388817e-01 1.071629e+00 1.533093e+00 1.569470e+00 1.552488e+00 2.031815e+00 2.029972e+00 1.288046e+00 2.963715e+00 1.347587e+00 1.195647e+00 2.274406e-02
<GCONST> 8.036268e+01
<STATE> 4
<MEAN> 26
 3.012525e+00 1.760218e-01 -4.119062e+00 -1.226772e+01 -9.126392e+00 4.429722e+00 -2.099944e+00 1.865533e+00 -1.702524e+01 -2.643394e+00 -1.708639e+00 -3.955430e+00 1.982064e+01 -6.500705e-01 1.429512e+00 1.159394e+00 3.008733e+00 1.389879e+00 -2.791952e-01 4.329046e-01 -2.105183e+00 5.419279e-01 5.656298e-01 -1.023955e-01 4.855451e-01 -4.674323e-01
<VARIANCE> 26
 7.531723e+00 2.607154e+01 2.217116e+01 9.183182e+01 3.256833e+01 2.439832e+01 5.869074e+01 4.325924e+01 5.392115e+01 2.593714e+01 2.612350e+01 2.226137e+01 1.209869e+00 2.676179e+00 2.205605e+00 2.077630e+00 6.353831e+00 5.239550e+00 2.943978e+00 3.336965e+00 3.728270e+00 5.245318e+00 2.871648e+00 1.827777e+00 2.212734e+00 1.183100e-01
<GCONST> 1.005881e+02
<TRANSP> 5
 0.000000e+00 1.000000e+00 0.000000e+00 0.000000e+00 0.000000e+00
 0.000000e+00 6.530454e-01 3.469547e-01 0.000000e+00 0.000000e+00
 0.000000e+00 0.000000e+00 8.661904e-01 1.338096e-01 0.000000e+00
 0.000000e+00 0.000000e+00 0.000000e+00 7.561994e-01 2.438007e-01
 0.000000e+00 0.000000e+00 0.000000e+00 0.000000e+00 0.000000e+00
<ENDHMM>
~h "e^"
<BEGINHMM>
<NUMSTATES> 5
<STATE> 2
<MEAN> 26
 -5.088912e+00 -4.904424e+00 1.443482e+01 -1.327376e+01 -8.191855e+00 -8.057682e+00 -1.581647e+01 -1.770081e+00 -1.115270e+01 3.325226e-01 1.890654e+00 -1.422585e+00 2.002796e+01 1.251961e+00 -2.196743e+00 2.735540e+00 -2.248482e+00 -3.062377e+00 -1.044530e+00 -2.672433e+00 1.633656e+00 -2.720192e+00 5.874124e-01 1.035634e+00 -1.516856e-01 8.364494e-01
<VARIANCE> 26
 1.090829e+01 2.483937e+01 3.780360e+01 4.574144e+01 2.836774e+01 3.119025e+01 4.244605e+01 3.470929e+01 4.844296e+01 5.496378e+01 2.685808e+01 1.474951e+01 2.608429e+00 2.657154e+00 1.973091e+00 4.700603e+00 3.908804e+00 2.589401e+00 3.767137e+00 5.163977e+00 3.748587e+00 3.964747e+00 3.427559e+00 2.911223e+00 1.987431e+00 5.596484e-01
<GCONST> 1.033432e+02
<STATE> 3
<MEAN> 26
 -4.349341e+00 -6.904993e+00 1.838148e+01 -1.602027e+01 -1.380245e+01 -6.202991e+00 -1.881476e+01 1.127304e+00 -1.705616e+01 1.519275e+00 3.847421e+00 -2.190723e+00 2.097979e+01 9.802222e-02 3.253090e-01 1.574856e-01 1.800683e-01 -6.656834e-02 3.908522e-03 4.497376e-01 -1.977385e-01 -7.229748e-01 3.788704e-01 -2.461085e-01 -4.225313e-03 -2.575805e-02
<VARIANCE> 26
 4.418725e+00 1.461892e+01 2.026779e+01 1.618075e+01 1.773058e+01 2.140672e+01 2.014685e+01 1.991045e+01 2.701758e+01 2.955526e+01 1.888914e+01 1.293997e+01 3.201947e-01 4.173284e-01 1.367206e+00 1.315190e+00 2.219584e+00 2.047076e+00 1.856115e+00 2.034840e+00 1.786568e+00 1.850046e+00 1.961019e+00 1.377734e+00 9.090669e-01 3.446266e-02
<GCONST> 8.200364e+01
<STATE> 4
<MEAN> 26
 -2.843148e+00 9.684208e-02 1.604397e+01 -1.024675e+01 -6.953463e+00 -6.238971e+00 -7.758666e+00 -1.489516e+00 -1.501033e+01 2.490315e+00 -5.620435e-01 -1.993946e+00 1.937210e+01 9.431794e-02 2.053925e+00 -1.818893e+00 2.926816e+00 2.459539e+00 6.298298e-01 2.584079e+00 -2.486842e-01 2.483273e+00 -8.514717e-01 -7.853398e-01 -3.790076e-01 -6.536359e-01
<VARIANCE> 26
 7.170268e+00 3.795230e+01 3.034893e+01 5.073004e+01 3.999089e+01 4.861276e+01 1.245155e+02 3.506248e+01 4.731918e+01 4.695405e+01 3.230683e+01 1.818891e+01 2.005154e+00 2.512359e+00 5.364893e+00 3.109171e+00 4.735256e+00 2.826528e+00 3.673705e+00 3.947994e+00 5.868584e+00 3.296670e+00 3.505000e+00 2.634425e+00 2.259067e+00 1.682082e-01
<GCONST> 1.046841e+02
<TRANSP> 5
 0.000000e+00 1.000000e+00 0.000000e+00 0.000000e+00 0.000000e+00
 0.000000e+00 5.491525e-01 4.508475e-01 0.000000e+00 0.000000e+00
 0.000000e+00 0.000000e+00 8.101515e-01 1.898485e-01 0.000000e+00
 0.000000e+00 0.000000e+00 0.000000e+00 6.804833e-01 3.195167e-01
 0.000000e+00 0.000000e+00 0.000000e+00 0.000000e+00 0.000000e+00
<ENDHMM>
~h "e~"
<BEGINHMM>
<NUMSTATES> 5
<STATE> 2
<MEAN> 26
 -1.068973e+00 -1.281852e+01 -2.586555e+00 -2.043108e+01 -1.070275e-01 6.218688e+00 -1.809492e+01 2.916313e+00 -7.084201e+00 4.112234e+00 2.307589e+00 -9.284585e+00 2.107817e+01 1.293591e+00 -2.431599e+00 -7.383128e-01 -2.020727e+00 1.145284e+00 1.736880e+00 -1.895433e+00 1.155423e+00 -1.242625e+00 6.638387e-01 8.809166e-02 -1.066737e+00 5.493019e-01
<VARIANCE> 26
 5.821977e+00 2.066230e+01 2.080144e+01 1.699156e+01 3.640825e+01 3.200616e+01 2.653576e+01 2.342871e+01 2.257773e+01 2.921211e+01 4.808468e+01 3.886257e+01 1.021442e+00 2.495479e+00 3.679345e+00 1.645137e+00 4.621171e+00 3.103230e+00 2.295291e+00 3.482696e+00 3.359517e+00 1.811528e+00 2.548306e+00 2.306797e+00 2.367175e+00 5.098162e-01
<GCONST> 9.720349e+01
<STATE> 3
<MEAN> 26
 5.909867e-02 -1.429893e+01 -5.400597e+00 -2.082884e+01 3.766919e+00 7.790052e+00 -1.976464e+01 3.071065e+00 -1.038138e+01 3.884061e-01 5.197756e+00 -8.657029e+00 2.159249e+01 1.893741e-01 3.668368e-01 -2.015062e-01 1.132707e-01 5.232850e-01 -9.038943e-01 1.642410e-01 -2.158790e-01 -5.737858e-01 -1.412585e-01 -1.830576e-01 3.150135e-02 -8.119044e-02
<VARIANCE> 26
 5.519641e+00 8.736135e+00 1.233977e+01 1.380079e+01 1.990049e+01 2.303159e+01 2.079664e+01 1.255938e+01 1.825966e+01 1.665098e+01 2.357686e+01 1.569711e+01 3.104120e-01 3.393999e-01 7.842062e-01 1.203939e+00 9.902370e-01 1.462226e+00 1.829740e+00 1.137831e+00 8.835884e-01 1.229267e+00 1.281701e+00 2.214812e+00 1.050218e+00 1.592149e-02
<GCONST> 7.595238e+01
<STATE> 4
<MEAN> 26
 1.089385e+00 -6.731268e+00 -4.599670e+00 -1.461026e+01 2.084323e+00 -1.295953e+00 -1.360567e+01 -7.390401e-01 -1.443271e+01 1.377117e+00 -9.194972e-01 -8.146590e+00 2.035691e+01 -3.530527e-01 2.751215e+00 7.427989e-01 3.161124e+00 -1.114216e+00 -7.358188e-01 2.612207e+00 -1.477931e+00 2.520359e-01 -3.597784e-01 -1.229027e+00 1.205401e+00 -4.285031e-01
<VARIANCE> 26
 7.045969e+00 3.352026e+01 3.538125e+01 8.019953e+01 6.909590e+01 4.563102e+01 4.788327e+01 5.143091e+01 4.805049e+01 3.776754e+01 3.400862e+01 2.674557e+01 5.087261e-01 2.905496e+00 3.410218e+00 2.365370e+00 7.197761e+00 5.009944e+00 2.774866e+00 1.817625e+00 2.838257e+00 4.894622e+00 3.305035e+00 3.059658e+00 2.104492e+00 7.455313e-02
<GCONST> 1.021566e+02
<TRANSP> 5
 0.000000e+00 1.000000e+00 0.000000e+00 0.000000e+00 0.000000e+00
 0.000000e+00 4.957844e-01 5.042156e-01 0.000000e+00 0.000000e+00
 0.000000e+00 0.000000e+00 8.604404e-01 1.395597e-01 0.000000e+00
 0.000000e+00 0.000000e+00 0.000000e+00 7.100009e-01 2.899991e-01
 0.000000e+00 0.000000e+00 0.000000e+00 0.000000e+00 0.000000e+00
<ENDHMM>
~h "o^"
<BEGINHMM>
<NUMSTATES> 5
<STATE> 2
<MEAN> 26
 1.717945e+00 2.993625e-02 1.743489e+00 -2.732623e+01 -9.438677e+00 5.782582e+00 -1.188126e+01 -5.241114e+00 -1.558465e+01 5.552881e-01 6.970560e+00 -3.763923e+00 2.030750e+01 1.795993e+00 6.307242e-01 7.410602e-01 -4.369564e+00 -3.022382e+00 2.275633e+00 -1.488272e+00 5.885395e-01 -2.748686e+00 -1.099741e+00 1.991503e+00 -1.122920e+00 1.050878e+00
<VARIANCE> 26
 8.302936e+00 3.782911e+01 1.312154e+01 8.839544e+01 3.137375e+01 2.139154e+01 5.527461e+01 5.234650e+01 5.655253e+01 5.362551e+01 9.090398e+01 1.883692e+01 2.971848e+00 3.929694e+00 1.717246e+00 1.718199e+00 1.509495e+01 2.884757e+00 2.347482e+00 4.437076e+00 3.015465e+00 7.705145e+00 3.206677e+00 4.126013e+00 5.480916e+00 1.527713e+00
<GCONST> 1.080427e+02
<STATE> 3
<MEAN> 26
 2.900485e+00 4.634600e-01 3.056664e+00 -3.004546e+01 -1.618266e+01 1.081728e+01 -1.320275e+01 -4.320613e+00 -1.597563e+01 -6.249369e+00 1.233898e+01 -7.494882e+00 2.162816e+01 7.150491e-02 4.471996e-05 -9.712006e-03 -4.288403e-02 1.476165e-04 1.497779e-01 -3.402984e-01 6.888831e-02 -5.751292e-01 -1.294629e-01 3.939724e-02 -1.311095e-01 7.302493e-03
<VARIANCE> 26
 5.817182e+00 1.214542e+01 1.892041e+01 2.649764e+01 2.115905e+01 1.516569e+01 2.162628e+01 3.961868e+01 4.719886e+01 4.198150e+01 3.808034e+01 2.667005e+01 3.331922e-01 3.777581e-01 1.078104e+00 9.448943e-01 2.903656e+00 2.211037e+00 1.289671e+00 1.677129e+00 2.234881e+00 2.199408e+00 3.644852e+00 2.299873e+00 1.910555e+00 3.348941e-02
<GCONST> 8.684532e+01
<STATE> 4
<MEAN> 26
 2.076959e+00 1.113194e+00 1.521922e+00 -2.509822e+01 -7.196754e+00 5.528068e+00 -1.474196e+01 -4.205529e+00 -1.942484e+01 2.514693e-01 8.177378e+00 -6.335552e+00 2.024867e+01 -7.060537e-01 7.865818e-01 -2.166864e-01 3.262690e+00 2.399905e+00 -2.187444e+00 1.472984e+00 -6.300489e-01 1.902480e+00 1.039794e+00 -2.004178e+00 6.710056e-01 -6.880174e-01
<VARIANCE> 26
 1.122486e+01 3.431684e+01 1.979881e+01 1.070109e+02 5.274282e+01 4.231120e+01 9.077058e+01 6.794494e+01 5.780308e+01 5.151126e+01 6.096682e+01 5.819045e+01 2.138330e+00 1.176156e+00 3.469078e+00 3.384923e+00 7.781444e+00 3.672386e+00 2.911321e+00 7.483871e+00 3.844901e+00 6.353659e+00 7.786349e+00 6.779072e+00 6.581807e+00 2.610760e-01
<GCONST> 1.115303e+02
<TRANSP> 5
 0.000000e+00 1.000000e+00 0.000000e+00 0.000000e+00 0.000000e+00
 0.000000e+00 5.319276e-01 4.680724e-01 0.000000e+00 0.000000e+00
 0.000000e+00 0.000000e+00 8.747269e-01 1.252731e-01 0.000000e+00
 0.000000e+00 0.000000e+00 0.000000e+00 7.118335e-01 2.881666e-01
 0.000000e+00 0.000000e+00 0.000000e+00 0.000000e+00 0.000000e+00
<ENDHMM>
~h "n~"
<BEGINHMM>
<NUMSTATES> 5
<STATE> 2
<MEAN> 26
 4.793099e-01 2.671249e-01 8.124046e+00 -2.475374e+00 -9.022862e+00 -4.229042e+00 -1.142694e+01 2.275858e+00 -1.930170e+01 -1.537710e+01 9.499770e+00 -4.418740e+00 2.071036e+01 -2.638351e-01 -3.332452e-02 2.511983e-01 -1.054943e-01 1.328523e-01 -4.959443e-03 -2.987877e-03 6.263384e-01 -1.640574e-01 -9.230380e-01 1.709965e+00 -5.426269e-01 1.167340e-02
<VARIANCE> 26
 4.894228e+00 4.968858e+00 1.985831e+01 3.705869e+01 2.045828e+01 3.053159e+01 1.186438e+01 2.055563e+01 1.523005e+01 1.903506e+01 4.334332e+01 1.220613e+01 1.350684e-01 1.761778e+00 9.606053e-01 3.932364e+00 6.925632e+00 2.560488e+00 3.930249e+00 4.067379e+00 2.340757e+00 1.099481e+00 1.749481e+00 2.677221e+00 1.335186e+00 1.247341e-03
<GCONST> 8.308391e+01
<STATE> 3
<MEAN> 26
 -4.509457e+00 -4.517491e-02 1.796927e+01 -1.105898e+01 -1.561734e+01 6.197380e+00 -1.627461e+01 -3.291712e-01 -1.628114e+01 -1.343275e+01 9.694533e+00 -5.628405e+00 2.076493e+01 -5.879261e-01 -5.285313e-01 1.433486e+00 -7.660633e-01 -2.371001e+00 1.616956e+00 -5.497912e-02 -9.816139e-01 1.554760e+00 1.278222e+00 -1.197719e+00 4.454463e-01 -7.391693e-03
<VARIANCE> 26
 7.266566e+00 1.417326e+01 1.565704e+01 3.500695e+01 4.937297e+01 3.155941e+01 2.035448e+01 4.495150e+01 2.542667e+01 2.885558e+01 2.822595e+01 9.164759e+00 9.030972e-02 6.189488e-01 1.222931e+00 2.944778e+00 4.472834e+00 2.732486e+00 1.012421e+01 1.753902e+00 4.819578e+00 9.758512e-01 1.658991e+00 1.663240e+00 7.198488e-01 4.994981e-03
<GCONST> 8.576200e+01
<STATE> 4
<MEAN> 26
 -3.138171e+00 -4.978794e+00 1.333979e+01 -7.897685e+00 -1.679132e+01 1.328012e+00 -1.830697e+01 2.166096e+00 -9.300938e+00 -8.568537e+00 6.184707e+00 -4.470599e+00 2.088264e+01 8.602979e-01 -2.345292e-01 -2.388906e+00 1.342765e-01 2.344275e+00 -1.211132e+00 -1.039864e+00 4.585258e-01 7.041739e-01 1.354869e+00 -2.384138e-01 -3.478444e-01 -1.344949e-02
<VARIANCE> 26
 9.819757e+00 1.624180e+01 3.420565e+01 1.408469e+01 3.210772e+01 4.070271e+01 2.161743e+01 2.133917e+01 3.261020e+01 2.446033e+01 1.076870e+01 6.991505e+00 1.091415e-01 2.354734e-01 2.417891e+00 2.234667e+00 3.079617e+00 2.277029e+00 6.909446e+00 4.541079e+00 3.869198e+00 3.628593e+00 2.108576e+00 1.484342e+00 2.271546e+00 2.218212e-02
<GCONST> 8.756104e+01
<TRANSP> 5
 0.000000e+00 1.000000e+00 0.000000e+00 0.000000e+00 0.000000e+00
 0.000000e+00 7.756170e-01 2.243830e-01 0.000000e+00 0.000000e+00
 0.000000e+00 0.000000e+00 7.496446e-01 2.503554e-01 0.000000e+00
 0.000000e+00 0.000000e+00 0.000000e+00 7.525554e-01 2.474447e-01
 0.000000e+00 0.000000e+00 0.000000e+00 0.000000e+00 0.000000e+00
<ENDHMM>
~h "o~"
<BEGINHMM>
<NUMSTATES> 5
<STATE> 2
<MEAN> 26
 9.770913e-01 3.554564e-01 3.146230e-01 -1.596494e+01 -1.268804e+01 6.850022e+00 -8.210572e+00 2.148657e+00 -1.180706e+01 -5.243919e+00 5.432076e+00 -2.514258e+00 1.986430e+01 1.852310e+00 -4.262860e-02 -7.648419e-02 -1.196732e+00 -3.483344e+00 5.448016e-01 -6.574986e-01 1.957623e+00 -1.028892e+00 -5.351479e-01 8.217105e-01 -9.621763e-01 5.848871e-01
<VARIANCE> 26
 1.213130e+01 2.167610e+01 1.644906e+01 3.468494e+01 4.396584e+01 3.280021e+01 4.415133e+01 4.122276e+01 4.288015e+01 3.053775e+01 3.697820e+01 1.614956e+01 2.393010e+00 4.199636e+00 1.912433e+00 2.565937e+00 5.106114e+00 4.044305e+00 3.713406e+00 6.296336e+00 4.686656e+00 5.766348e+00 3.047904e+00 3.890311e+00 1.351773e+00 2.357482e-01
<GCONST> 1.027575e+02
<STATE> 3
<MEAN> 26
 1.902688e+00 -2.101816e+00 -1.016723e+00 -1.234002e+01 -1.877362e+01 6.324746e+00 -9.483815e+00 2.880305e+00 -1.365748e+01 -3.640802e+00 2.891425e+00 -5.854079e+00 2.065273e+01 3.150342e-02 1.151895e-01 -1.020571e-01 6.837272e-01 -6.825278e-02 4.702360e-02 2.204710e-01 -3.493586e-01 -7.125598e-01 4.201388e-01 -8.451065e-01 -2.277258e-01 -4.824797e-02
<VARIANCE> 26
 3.817173e+00 1.329750e+01 1.322189e+01 2.367680e+01 1.680388e+01 1.918897e+01 1.986012e+01 2.104334e+01 3.173520e+01 2.220774e+01 2.240621e+01 1.558822e+01 1.702262e-01 2.915733e-01 7.283486e-01 1.158530e+00 2.612322e+00 1.861178e+00 2.290479e+00 1.688562e+00 1.748895e+00 2.097104e+00 1.646396e+00 1.635237e+00 9.624811e-01 1.380650e-02
<GCONST> 7.941346e+01
<STATE> 4
<MEAN> 26
 2.939562e+00 1.152570e+00 -5.267131e-01 -5.931199e+00 -1.050683e+01 5.208136e+00 -3.399097e+00 -1.284085e+00 -1.811488e+01 -4.049430e-01 -3.780592e+00 -3.421861e+00 1.931211e+01 -4.415412e-01 1.076592e+00 1.216218e-01 1.698834e+00 2.588045e+00 -1.184122e+00 1.927677e+00 -1.407811e+00 1.273697e+00 -4.362355e-02 -9.585860e-02 9.044661e-01 -5.500538e-01
<VARIANCE> 26
 5.008148e+00 2.924747e+01 1.288127e+01 8.766182e+01 5.269637e+01 4.127039e+01 4.278201e+01 3.310773e+01 3.262212e+01 3.026544e+01 3.655690e+01 2.782906e+01 8.686416e-01 1.929633e+00 2.400371e+00 1.219231e+00 5.822938e+00 2.618520e+00 3.401182e+00 2.780410e+00 3.096414e+00 4.443551e+00 2.651634e+00 3.476414e+00 2.387533e+00 1.315366e-01
<GCONST> 9.880759e+01
<TRANSP> 5
 0.000000e+00 1.000000e+00 0.000000e+00 0.000000e+00 0.000000e+00
 0.000000e+00 5.714906e-01 4.285094e-01 0.000000e+00 0.000000e+00
 0.000000e+00 0.000000e+00 8.776448e-01 1.223552e-01 0.000000e+00
 0.000000e+00 0.000000e+00 0.000000e+00 7.291747e-01 2.708252e-01
 0.000000e+00 0.000000e+00 0.000000e+00 0.000000e+00 0.000000e+00
<ENDHMM>
~h "s^"
<BEGINHMM>
<NUMSTATES> 5
<STATE> 2
<MEAN> 26
 -2.029141e+01 -9.054817e-01 8.758647e+00 -7.592115e+00 3.115144e+00 -4.026031e+00 6.517203e-01 -8.884186e+00 -2.411664e+00 -2.102470e+00 -3.508134e+00 -5.578827e-01 1.815627e+01 -4.851057e+00 -1.587363e+00 -3.944571e-01 -7.044191e-02 1.197817e+00 2.228461e-01 2.510358e+00 4.632776e-01 2.327412e+00 5.597525e-01 1.225341e+00 5.749674e-01 -3.149221e-01
<VARIANCE> 26
 4.838906e+01 2.625908e+01 2.313319e+01 2.258509e+01 4.464816e+01 5.183395e+01 4.519011e+01 4.146304e+01 3.393725e+01 4.802769e+01 2.560872e+01 1.991772e+01 1.125023e+00 2.754702e+00 3.733793e+00 4.297680e+00 4.730952e+00 4.056250e+00 5.616705e+00 4.212365e+00 3.035226e+00 3.632347e+00 3.302280e+00 3.350145e+00 2.003206e+00 1.714958e-01
<GCONST> 1.038641e+02
<STATE> 3
<MEAN> 26
 -3.050764e+01 -6.879884e+00 5.551207e+00 -1.268070e+01 1.511232e+00 -5.308898e+00 3.502901e+00 -7.185032e+00 1.932300e+00 1.464220e+00 -1.955488e-01 1.849797e+00 1.817153e+01 -3.692653e-03 2.831008e-02 -5.730045e-02 -2.087427e-01 -3.814660e-02 -2.120549e-01 -4.903223e-02 -1.690930e-01 1.542296e-01 1.710838e-01 -2.289209e-02 -6.713140e-03 -9.517184e-03
<VARIANCE> 26
 7.255730e+00 9.272153e+00 9.854568e+00 1.157740e+01 2.433620e+01 2.953426e+01 1.925496e+01 1.641582e+01 1.240529e+01 1.705936e+01 1.061597e+01 1.410819e+01 3.514036e-01 1.499238e+00 8.467216e-01 6.912523e-01 1.096679e+00 1.374207e+00 1.347405e+00 1.469603e+00 1.657025e+00 1.377402e+00 1.627185e+00 1.356733e+00 1.509336e+00 2.596373e-02
<GCONST> 7.772268e+01
<STATE> 4
<MEAN> 26
 -1.888995e+01 -3.433671e+00 4.671696e+00 -1.093813e+01 1.552358e+00 -6.437667e+00 -1.023434e+00 -9.789128e+00 1.195561e+00 8.482656e-01 -1.755770e+00 -4.091274e-01 1.702643e+01 5.195998e+00 4.292490e-01 -5.693004e-01 8.611987e-01 -1.137478e+00 8.391974e-01 -2.962653e+00 -2.616822e-01 -1.438806e+00 -2.673638e-01 3.492919e-02 -6.667433e-01 1.853950e-02
<VARIANCE> 26
 7.264333e+01 1.801837e+01 2.156125e+01 2.385822e+01 4.546536e+01 3.113704e+01 4.205447e+01 2.507329e+01 2.101665e+01 4.559738e+01 2.185402e+01 2.013764e+01 4.364096e+00 6.833271e+00 2.890227e+00 2.748790e+00 2.197793e+00 6.056292e+00 7.476390e+00 6.763332e+00 4.383403e+00 4.166178e+00 4.127176e+00 4.269491e+00 2.805226e+00 5.758047e-01
<GCONST> 1.066060e+02
<TRANSP> 5
 0.000000e+00 1.000000e+00 0.000000e+00 0.000000e+00 0.000000e+00
 0.000000e+00 7.028334e-01 2.971665e-01 0.000000e+00 0.000000e+00
 0.000000e+00 0.000000e+00 8.961465e-01 1.038535e-01 0.000000e+00
 0.000000e+00 0.000000e+00 0.000000e+00 6.937049e-01 3.062951e-01
 0.000000e+00 0.000000e+00 0.000000e+00 0.000000e+00 0.000000e+00
<ENDHMM>
~h "x^"
<BEGINHMM>
<NUMSTATES> 5
<STATE> 2
<MEAN> 26
 -1.194677e+00 -9.323274e+00 5.361062e+00 -1.788526e+01 -4.843401e+00 -2.492156e+00 -2.354572e+01 -5.384345e-01 -7.655960e+00 1.021687e+01 4.875872e+00 -1.140604e+01 2.078912e+01 1.101002e+00 -2.013019e+00 -9.374993e-02 -3.480207e+00 -1.367633e+00 1.034765e+00 -2.657694e+00 1.308122e+00 3.946927e-01 2.810915e+00 1.199000e+00 -1.226032e+00 7.335327e-01
<VARIANCE> 26
 6.053254e+00 1.790352e+01 2.066521e+01 3.924527e+01 3.415324e+01 3.632435e+01 2.568422e+01 2.132240e+01 2.148581e+01 4.276250e+01 3.032912e+01 1.576472e+01 7.982486e-01 4.143695e+00 1.690189e+00 2.205328e+00 6.676925e+00 3.808998e+00 2.935185e+00 6.250669e+00 3.445633e+00 4.667244e+00 2.238152e+00 2.914591e+00 3.420816e+00 6.817055e-01
<GCONST> 9.974783e+01
<STATE> 3
<MEAN> 26
 6.979804e-02 -1.208625e+01 1.586967e+00 -2.125812e+01 -6.343119e+00 1.704504e-01 -2.467946e+01 5.101369e+00 -6.900034e+00 1.337920e+01 4.112396e+00 -1.177817e+01 2.169534e+01 1.089653e-01 1.294459e-01 -5.729501e-01 -4.876684e-01 2.849024e-01 4.144183e-01 2.828624e-01 -2.399301e-02 -3.417779e-01 2.980683e-01 -3.889182e-01 -7.683421e-02 -1.164844e-02
<VARIANCE> 26
 2.568774e+00 9.563569e+00 1.823330e+01 1.716528e+01 1.848500e+01 2.004699e+01 1.258061e+01 2.164247e+01 8.217617e+00 1.609316e+01 1.801949e+01 1.496888e+01 2.459338e-01 2.708543e-01 6.793539e-01 1.075112e+00 1.824690e+00 1.284119e+00 1.867084e+00 1.350386e+00 1.631840e+00 1.273477e+00 1.210220e+00 1.185421e+00 1.250211e+00 1.763889e-02
<GCONST> 7.476751e+01
<STATE> 4
<MEAN> 26
 1.109173e+00 -7.756608e+00 6.170977e-02 -2.437453e+01 -7.619249e-01 3.065898e+00 -1.636598e+01 -3.140581e+00 -1.065825e+01 1.307515e+01 2.005602e+00 -7.968287e+00 2.068587e+01 4.165630e-02 1.385932e+00 -1.635791e-01 7.944425e-01 1.241647e+00 7.459583e-01 3.056079e+00 -2.374513e+00 -1.212645e-01 -1.604453e+00 -2.631875e-01 1.785827e+00 -3.886247e-01
<VARIANCE> 26
 3.214627e+00 2.306551e+01 1.843348e+01 3.499463e+01 2.177954e+01 4.222713e+01 7.804987e+01 2.945410e+01 3.369886e+01 1.835262e+01 2.919138e+01 2.073539e+01 6.399781e-01 9.205484e-01 2.253597e+00 1.637564e+00 4.713669e+00 2.178478e+00 1.993744e+00 3.819471e+00 2.507023e+00 2.806658e+00 2.696062e+00 1.301687e+00 1.942195e+00 8.670113e-02
<GCONST> 9.251833e+01
<TRANSP> 5
 0.000000e+00 1.000000e+00 0.000000e+00 0.000000e+00 0.000000e+00
 0.000000e+00 5.277649e-01 4.722351e-01 0.000000e+00 0.000000e+00
 0.000000e+00 0.000000e+00 8.423043e-01 1.576957e-01 0.000000e+00
 0.000000e+00 0.000000e+00 0.000000e+00 7.279228e-01 2.720773e-01
 0.000000e+00 0.000000e+00 0.000000e+00 0.000000e+00 0.000000e+00
<ENDHMM>
~h "x~"
<BEGINHMM>
<NUMSTATES> 5
<STATE> 2
<MEAN> 26
 -1.231835e+00 -1.149767e+01 -2.955818e+00 -2.145515e+01 7.956418e+00 -4.385402e+00 -1.149661e+01 -2.862954e+00 -2.958658e+00 5.527202e+00 -2.617669e+00 -8.436102e+00 1.912503e+01 2.688192e+00 -3.268509e+00 2.557011e-01 -3.827993e+00 1.904041e+00 4.698482e-01 -2.296492e+00 8.614051e-01 -1.765297e+00 3.098195e-01 -9.272099e-02 -1.694400e+00 1.566953e+00
<VARIANCE> 26
 9.519851e+00 3.427327e+01 1.450525e+01 2.341357e+01 5.323662e+01 2.105241e+01 4.349308e+01 3.940819e+01 2.193769e+01 2.611612e+01 2.753961e+01 2.967365e+01 2.721585e+00 2.774230e+00 3.696606e+00 1.765259e+00 5.808485e+00 3.077383e+00 3.851824e+00 3.629004e+00 5.620404e+00 2.337703e+00 2.962129e+00 2.118527e+00 2.388495e+00 1.341106e+00
<GCONST> 1.019199e+02
<STATE> 3
<MEAN> 26
 3.457212e-01 -1.458178e+01 -2.144571e+00 -2.197108e+01 7.314309e+00 4.406382e+00 -1.775007e+01 2.212717e+00 -7.794098e+00 2.528458e+00 8.580233e-01 -8.574652e+00 2.115829e+01 -2.598575e-02 4.384589e-01 5.786503e-02 4.314975e-01 -5.951715e-01 6.250687e-01 -5.942193e-01 5.788928e-01 -4.505127e-01 4.073056e-02 1.556092e-01 1.020698e-01 6.967504e-02
<VARIANCE> 26
 4.089919e+00 1.141122e+01 6.896258e+00 1.374578e+01 2.035939e+01 2.869038e+01 1.847786e+01 1.443034e+01 1.182189e+01 1.438359e+01 3.368330e+01 1.135204e+01 3.549877e-01 3.004554e-01 1.277659e+00 7.463381e-01 7.676097e-01 1.568909e+00 2.273819e+00 1.757979e+00 1.189928e+00 1.027938e+00 9.516652e-01 1.366733e+00 7.261438e-01 5.481479e-02
<GCONST> 7.574448e+01
<STATE> 4
<MEAN> 26
 1.057586e+00 -5.841617e+00 -8.567693e-01 -1.309814e+01 -3.271209e-01 2.027685e+00 -1.565838e+01 3.362757e+00 -1.419429e+01 3.641991e+00 8.823038e-01 -9.260135e+00 2.049274e+01 2.652743e-01 2.692268e+00 4.900090e-01 3.952517e+00 -2.280005e+00 -2.552102e-01 2.861377e+00 -1.808596e+00 -1.056047e+00 -4.729082e-01 -3.284580e-01 7.670251e-01 -3.398004e-01
<VARIANCE> 26
 6.550865e+00 3.192069e+01 2.323193e+01 9.483444e+01 4.952016e+01 4.934650e+01 5.040683e+01 4.391881e+01 5.478241e+01 3.579354e+01 4.459383e+01 1.783797e+01 5.353983e-01 1.410781e+00 3.761802e+00 2.006642e+00 6.519582e+00 2.794142e+00 1.793186e+00 3.889472e+00 3.337519e+00 5.494463e+00 2.658775e+00 3.647401e+00 1.709115e+00 6.667164e-02
<GCONST> 1.001833e+02
<TRANSP> 5
 0.000000e+00 1.000000e+00 0.000000e+00 0.000000e+00 0.000000e+00
 0.000000e+00 6.344989e-01 3.655011e-01 0.000000e+00 0.000000e+00
 0.000000e+00 0.000000e+00 8.776073e-01 1.223926e-01 0.000000e+00
 0.000000e+00 0.000000e+00 0.000000e+00 6.742436e-01 3.257564e-01
 0.000000e+00 0.000000e+00 0.000000e+00 0.000000e+00 0.000000e+00
<ENDHMM>
~h "z^"
<BEGINHMM>
<NUMSTATES> 5
<STATE> 2
<MEAN> 26
 -1.004597e+01 2.954548e+00 1.161753e+01 -7.723657e+00 -1.335103e+00 -6.032844e+00 -4.482768e+00 -1.210548e+01 -2.064003e+00 -1.693666e+00 -3.531949e+00 4.720640e-01 1.912362e+01 -3.241584e+00 1.759568e+00 1.677337e+00 1.365517e+00 1.690894e+00 -7.229637e-03 1.983759e+00 -1.154948e+00 1.308912e+00 -6.245024e-01 3.108588e-01 5.904710e-01 -3.582461e-01
<VARIANCE> 26
 2.939389e+01 1.811174e+01 2.407529e+01 3.149630e+01 3.718174e+01 3.953503e+01 2.904275e+01 3.078733e+01 2.266926e+01 2.816199e+01 2.697018e+01 1.887165e+01 5.159834e-01 1.786440e+00 2.517586e+00 2.281431e+00 3.013947e+00 2.060151e+00 4.180000e+00 2.444944e+00 4.565738e+00 3.263183e+00 2.498913e+00 2.071795e+00 1.745436e+00 4.972668e-02
<GCONST> 9.519181e+01
<STATE> 3
<MEAN> 26
 -2.025850e+01 5.299524e+00 1.701164e+01 -5.256179e+00 4.178381e+00 -2.375748e+00 1.543883e+00 -1.021369e+01 -4.142907e-01 -2.372274e+00 -3.235483e+00 1.130676e+00 1.818274e+01 -1.569426e-01 -2.277973e-02 -1.849961e-01 -7.905246e-02 1.249059e-01 -1.455762e-01 -1.015994e-01 1.747678e-01 8.155166e-02 -1.074247e-01 7.266767e-02 6.339929e-03 1.613479e-02
<VARIANCE> 26
 1.568700e+01 8.764069e+00 1.333911e+01 2.171802e+01 2.785013e+01 3.161172e+01 2.805721e+01 1.657434e+01 1.610328e+01 1.836849e+01 1.646270e+01 1.483043e+01 3.528253e-01 3.634155e+00 1.074767e+00 1.879359e+00 9.969023e-01 1.757034e+00 2.936494e+00 2.776021e+00 1.622330e+00 1.133400e+00 1.090876e+00 1.510986e+00 1.307028e+00 3.892983e-02
<GCONST> 8.422802e+01
<STATE> 4
<MEAN> 26
 -1.051089e+01 1.598446e+00 9.560039e+00 -8.083923e+00 5.798091e-01 -7.965359e+00 -4.678892e+00 -1.184668e+01 -5.363374e-01 -1.711386e+00 -2.496277e+00 1.816505e-02 1.917706e+01 3.638504e+00 -2.361549e+00 -1.773170e+00 -6.288460e-01 -2.122872e+00 1.669730e-01 -3.000521e+00 7.831941e-01 -7.950656e-01 3.346845e-01 9.884098e-01 -6.350929e-01 3.947690e-01
<VARIANCE> 26
 4.029321e+01 2.644586e+01 3.038375e+01 2.008285e+01 3.422809e+01 2.493323e+01 3.709289e+01 3.742356e+01 1.618884e+01 2.291207e+01 1.628604e+01 1.853656e+01 1.036834e+00 1.859025e+00 2.526100e+00 2.870102e+00 1.291071e+00 2.933594e+00 6.197892e+00 4.965673e+00 4.500199e+00 3.015483e+00 3.536827e+00 2.938337e+00 2.172648e+00 7.169074e-02
<GCONST> 9.726608e+01
<TRANSP> 5
 0.000000e+00 1.000000e+00 0.000000e+00 0.000000e+00 0.000000e+00
 0.000000e+00 7.047531e-01 2.952469e-01 0.000000e+00 0.000000e+00
 0.000000e+00 0.000000e+00 7.957475e-01 2.042524e-01 0.000000e+00
 0.000000e+00 0.000000e+00 0.000000e+00 6.211259e-01 3.788741e-01
 0.000000e+00 0.000000e+00 0.000000e+00 0.000000e+00 0.000000e+00
<ENDHMM>
