~o
<STREAMINFO> 1 26
<VECSIZE> 26<NULLD><MFCC_E_D><DIAGC>
~v "varFloor1"
<VARIANCE> 26
 7.528608e-01 4.836471e-01 6.936527e-01 1.165170e+00 5.971813e-01 4.755226e-01 8.837133e-01 4.464411e-01 6.617475e-01 5.043612e-01 3.577261e-01 3.682624e-01 2.346386e-01 2.926073e-02 2.980258e-02 2.837205e-02 5.332779e-02 3.412719e-02 3.071158e-02 4.275788e-02 3.327679e-02 3.738448e-02 3.113799e-02 2.695941e-02 2.419822e-02 4.406946e-03
~h "_"
<BEGINHMM>
<NUMSTATES> 5
<STATE> 2
<MEAN> 26
 -8.050228e+00 -7.699174e-01 -1.655552e+00 -1.131179e+01 -2.552115e+00 -5.673881e+00 -5.142944e+00 -5.588111e+00 -2.881324e+00 5.979321e+00 1.944852e+00 9.403995e-02 1.370020e+01 -1.242214e+00 7.486811e-01 -5.484202e-01 2.845714e+00 1.481298e-01 1.089754e+00 1.003543e+00 1.056410e+00 1.851326e+00 -4.052313e-01 6.288334e-01 -1.401885e-01 -1.329441e+00
<VARIANCE> 26
 2.785229e+01 3.166261e+01 6.255270e+01 8.813364e+01 6.123105e+01 8.709911e+01 6.678104e+01 5.919831e+01 1.108215e+02 9.438071e+01 6.398356e+01 4.445024e+01 1.033503e+01 2.835781e+00 3.569462e+00 5.651508e+00 6.187845e+00 6.069543e+00 5.738484e+00 5.644201e+00 6.802917e+00 9.298802e+00 8.246135e+00 6.023539e+00 4.796674e+00 4.328397e-01
<GCONST> 1.195231e+02
<STATE> 3
<MEAN> 26
 -1.357804e+01 1.861562e+00 -1.531331e+00 -4.477757e-01 3.911906e-01 5.131572e-01 -1.101573e+00 9.270583e-01 -4.973948e-01 1.092000e+00 1.375911e+00 -6.254310e-01 8.643394e+00 -2.287535e-01 -3.099633e-02 1.604918e-01 2.969180e-01 2.773673e-01 1.003394e-01 1.076274e-01 2.918836e-01 -8.527897e-02 -2.003940e-01 -2.171398e-01 2.921284e-02 -1.103273e-01
<VARIANCE> 26
 2.466911e+00 3.842087e+00 5.978058e+00 7.957125e+00 1.063665e+01 1.223016e+01 1.213791e+01 1.379345e+01 1.382110e+01 1.398095e+01 1.522576e+01 1.180236e+01 9.014440e-01 6.047232e-01 7.781957e-01 1.107386e+00 1.627872e+00 1.867517e+00 2.217807e+00 1.759743e+00 2.409229e+00 2.596351e+00 2.468653e+00 2.163536e+00 1.696455e+00 1.944238e-01
<GCONST> 7.845759e+01
<STATE> 4
<MEAN> 26
 -1.235421e+01 1.122002e+00 -6.428974e-01 -2.229547e+00 4.294226e-01 -1.156801e+00 -2.211486e+00 -7.555856e-02 -1.888618e+00 9.646365e-01 2.575217e-01 -7.736611e-01 1.010342e+01 2.086472e+00 -1.304489e+00 9.224022e-01 -3.315525e+00 1.183639e-01 -1.348412e+00 -1.506131e+00 -7.726989e-01 -2.291539e+00 1.941990e-01 -8.848929e-01 -1.814514e-01 1.913854e+00
<VARIANCE> 26
 1.745544e+01 1.513431e+01 2.046412e+01 3.507816e+01 1.585942e+01 2.664468e+01 2.489503e+01 2.225821e+01 3.078549e+01 1.732959e+01 2.155705e+01 1.546727e+01 7.289015e+00 4.624154e+00 5.263635e+00 5.999591e+00 1.240396e+01 5.101025e+00 4.707510e+00 4.530550e+00 4.989513e+00 6.153361e+00 3.468461e+00 3.568013e+00 2.771392e+00 1.145550e+00
<GCONST> 1.056632e+02
<TRANSP> 5
 0.000000e+00 1.000000e+00 0.000000e+00 0.000000e+00 0.000000e+00
 0.000000e+00 8.081811e-01 1.918189e-01 0.000000e+00 0.000000e+00
 0.000000e+00 0.000000e+00 8.124206e-01 1.875794e-01 0.000000e+00
 0.000000e+00 0.000000e+00 0.000000e+00 4.592697e-01 5.407303e-01
 0.000000e+00 0.000000e+00 0.000000e+00 0.000000e+00 0.000000e+00
<ENDHMM>
~h "a"
<BEGINHMM>
<NUMSTATES> 5
<STATE> 2
<MEAN> 26
 -1.218066e+00 -1.005744e+01 -2.181943e+00 -2.170506e+01 2.102643e-02 3.870995e-01 -1.210109e+01 4.152603e-01 -3.916702e+00 6.599802e+00 -1.640523e+00 -8.611794e+00 2.001350e+01 1.622140e+00 -3.099647e+00 -1.113631e+00 -3.156836e+00 9.118495e-01 8.039547e-01 -7.432564e-01 1.485775e+00 -1.500719e-01 4.758607e-01 -1.029200e+00 -2.144164e+00 8.303064e-01
<VARIANCE> 26
 2.194459e+01 3.244511e+01 3.442744e+01 5.380061e+01 6.216972e+01 5.017420e+01 8.777273e+01 5.308403e+01 3.379205e+01 3.680907e+01 3.440181e+01 3.113523e+01 8.799264e+00 3.065457e+00 2.822612e+00 3.039984e+00 6.624649e+00 4.183188e+00 3.853840e+00 6.543556e+00 7.559884e+00 4.058040e+00 4.055817e+00 2.461203e+00 2.634948e+00 7.090271e-01
<GCONST> 1.108146e+02
<STATE> 3
<MEAN> 26
 6.653501e-01 -1.602112e+01 -5.377741e+00 -2.609167e+01 4.716080e+00 3.148766e+00 -1.137987e+01 1.580484e+00 -3.748522e+00 3.897389e+00 -4.306270e+00 -1.274548e+01 2.178506e+01 -5.414756e-02 -4.052565e-02 8.010224e-02 2.280422e-01 1.348770e-01 -4.933619e-01 3.366753e-01 -1.719957e-01 1.314477e-03 -1.320367e-01 -2.165684e-01 2.095769e-01 -2.299642e-02
<VARIANCE> 26
 7.040968e+00 1.747492e+01 2.305511e+01 2.150158e+01 3.949360e+01 4.691775e+01 4.141307e+01 5.270902e+01 2.636062e+01 2.623299e+01 3.156918e+01 2.078890e+01 4.905951e-01 5.396743e-01 1.684834e+00 2.086279e+00 1.636372e+00 2.885490e+00 2.663571e+00 2.908361e+00 2.681808e+00 1.584959e+00 2.094107e+00 2.255383e+00 1.998812e+00 4.510340e-02
<GCONST> 9.116254e+01
<STATE> 4
<MEAN> 26
 -2.118744e-01 -7.222605e+00 -3.657084e-01 -1.706427e+01 1.571728e+00 -3.789560e+00 -1.006288e+01 -2.121861e+00 -4.938908e+00 4.503918e+00 -3.958229e+00 -6.844982e+00 1.995764e+01 -8.826762e-01 3.532220e+00 1.164325e+00 3.912120e+00 -3.776417e-04 -2.292283e-01 7.420490e-01 -1.762919e+00 -3.981542e-01 -8.913116e-01 4.346990e-01 1.384783e+00 -7.540264e-01
<VARIANCE> 26
 1.692552e+01 5.995318e+01 4.273938e+01 7.541506e+01 4.814531e+01 6.774142e+01 8.169958e+01 6.714059e+01 4.572458e+01 3.687745e+01 4.137286e+01 2.839455e+01 2.536207e+00 3.342770e+00 4.425428e+00 2.936962e+00 5.357599e+00 4.181626e+00 3.897694e+00 4.628572e+00 5.211836e+00 5.256701e+00 3.108708e+00 2.840676e+00 2.308542e+00 3.066578e-01
<GCONST> 1.098315e+02
<TRANSP> 5
 0.000000e+00 1.000000e+00 0.000000e+00 0.000000e+00 0.000000e+00
 0.000000e+00 5.825834e-01 4.174166e-01 0.000000e+00 0.000000e+00
 0.000000e+00 0.000000e+00 8.441563e-01 1.558437e-01 0.000000e+00
 0.000000e+00 0.000000e+00 0.000000e+00 7.127392e-01 2.872609e-01
 0.000000e+00 0.000000e+00 0.000000e+00 0.000000e+00 0.000000e+00
<ENDHMM>
~h "b"
<BEGINHMM>
<NUMSTATES> 5
<STATE> 2
<MEAN> 26
 5.134011e+00 2.965136e+00 4.153124e+00 1.120749e-02 -2.685960e+00 6.340874e+00 -1.043989e+01 -5.469758e+00 -1.572175e+01 -5.172077e+00 4.417273e+00 -7.006105e+00 1.868171e+01 1.661289e+00 2.622245e+00 -2.796236e-03 1.163430e+00 2.059777e+00 -4.219577e-02 3.548216e-01 -1.422678e+00 1.250345e+00 6.427116e-01 6.543789e-01 2.927495e-01 -1.762738e-01
<VARIANCE> 26
 2.262081e+01 2.213270e+01 2.909660e+01 3.767356e+01 5.715982e+01 5.629464e+01 4.891008e+01 3.450282e+01 1.021624e+02 6.043579e+01 3.460521e+01 2.754170e+01 3.533537e+00 2.666783e+00 2.490096e+00 2.967093e+00 9.388535e+00 4.983655e+00 5.362189e+00 4.567441e+00 3.363595e+00 9.487007e+00 4.865378e+00 4.031504e+00 3.138427e+00 2.915256e-01
<GCONST> 1.097330e+02
<STATE> 3
<MEAN> 26
 6.994891e+00 1.130198e+01 5.999646e+00 9.074221e-01 3.773612e+00 4.254145e+00 -8.613730e+00 -8.299929e+00 -8.402643e+00 -8.613827e-01 5.507464e+00 -5.206439e+00 1.772129e+01 -8.697923e-01 1.503670e-01 -7.970959e-02 -3.012292e-01 3.329697e-01 -2.102581e-01 7.990109e-01 -3.127975e-01 4.983611e-01 2.572722e-01 -6.211743e-01 5.313337e-01 -1.024847e-01
<VARIANCE> 26
 8.463529e+00 2.003019e+01 1.448132e+01 2.841029e+01 2.992434e+01 2.937849e+01 4.456029e+01 1.736619e+01 1.946734e+01 2.730207e+01 2.460325e+01 2.413164e+01 6.733516e-01 2.273962e+00 4.296548e+00 1.545867e+00 3.860897e+00 1.988044e+00 1.831151e+00 1.510792e+00 1.967813e+00 3.004869e+00 1.971498e+00 2.734283e+00 1.432570e+00 3.296134e-02
<GCONST> 9.081376e+01
<STATE> 4
<MEAN> 26
 1.559278e-01 6.130998e-01 4.244697e+00 -8.642681e+00 2.379610e+00 1.556181e+00 -1.024283e+01 -8.960280e+00 -7.991689e+00 1.671757e+00 5.283545e-01 -3.152721e+00 1.869338e+01 -6.835637e-01 -3.184736e+00 -8.328649e-01 -2.625530e+00 -1.265792e+00 -8.496335e-01 -1.875704e+00 6.269921e-01 2.797996e-01 8.307502e-01 -1.386775e-01 2.999375e-01 4.932150e-01
<VARIANCE> 26
 1.687203e+01 3.758568e+01 2.227802e+01 7.148488e+01 4.052699e+01 4.352946e+01 8.344807e+01 3.067680e+01 3.499294e+01 7.446523e+01 4.689577e+01 2.071424e+01 1.253914e+00 2.891601e+00 4.563169e+00 3.400639e+00 7.453547e+00 4.886932e+00 5.640512e+00 6.921050e+00 5.020212e+00 3.508965e+00 5.348805e+00 3.784384e+00 3.069175e+00 1.748666e-01
<GCONST> 1.082216e+02
<TRANSP> 5
 0.000000e+00 1.000000e+00 0.000000e+00 0.000000e+00 0.000000e+00
 0.000000e+00 5.754284e-01 4.245716e-01 0.000000e+00 0.000000e+00
 0.000000e+00 0.000000e+00 7.609196e-01 2.390804e-01 0.000000e+00
 0.000000e+00 0.000000e+00 0.000000e+00 6.490098e-01 3.509902e-01
 0.000000e+00 0.000000e+00 0.000000e+00 0.000000e+00 0.000000e+00
<ENDHMM>
~h "d"
<BEGINHMM>
<NUMSTATES> 5
<STATE> 2
<MEAN> 26
 2.947994e+00 6.879685e+00 8.015743e+00 2.109879e+00 -4.886879e+00 -1.166034e+00 -9.661089e+00 -1.239645e+00 -9.857523e+00 1.204597e+00 -9.045875e-01 -8.063277e+00 1.800802e+01 1.916951e+00 2.442999e+00 6.330286e-01 2.468392e+00 4.171151e-01 -1.409774e+00 8.918898e-01 2.814083e-01 2.372050e+00 1.559479e-01 -9.674984e-01 -8.709843e-01 -6.531399e-02
<VARIANCE> 26
 2.960249e+01 3.192209e+01 5.494041e+01 3.281833e+01 5.349253e+01 6.123301e+01 4.993226e+01 3.257458e+01 9.807891e+01 2.412040e+01 3.746016e+01 4.144666e+01 4.848449e+00 2.925311e+00 3.723570e+00 4.156735e+00 7.776213e+00 4.457702e+00 3.118533e+00 5.739812e+00 3.835746e+00 7.336807e+00 2.887208e+00 3.161204e+00 3.787665e+00 6.973838e-01
<GCONST> 1.110799e+02
<STATE> 3
<MEAN> 26
 5.500661e+00 1.447003e+01 1.162134e+01 5.724475e+00 -2.369477e+00 -6.635615e+00 -8.029693e+00 8.359636e-01 4.717577e-01 8.023357e-01 -4.418031e+00 -8.513919e+00 1.747424e+01 -1.658212e+00 -5.876772e-01 -8.018153e-02 -9.043270e-01 9.560792e-01 7.889124e-01 8.202515e-01 -7.306958e-01 3.331588e-01 -2.460350e-01 -1.349684e-01 1.224522e+00 -1.208601e-01
<VARIANCE> 26
 7.592559e+00 1.885437e+01 1.386709e+01 1.329337e+01 2.081214e+01 2.036202e+01 2.030423e+01 1.919230e+01 2.488658e+01 1.376368e+01 2.255152e+01 2.115881e+01 4.352679e-01 3.651523e+00 6.730007e+00 2.953329e+00 4.394488e+00 3.407004e+00 4.352643e+00 2.728873e+00 2.973875e+00 3.869179e+00 2.098919e+00 2.386784e+00 2.671227e+00 5.625482e-02
<GCONST> 9.277692e+01
<STATE> 4
<MEAN> 26
 -7.065896e+00 1.034450e+00 9.287887e+00 -7.389426e+00 1.598898e+00 -3.549848e-01 -7.818308e+00 -6.725749e+00 -4.726349e+00 -1.324677e-01 -1.969109e+00 -1.478956e+00 1.830473e+01 -1.803863e+00 -2.453798e+00 1.536385e-01 -2.875597e+00 -1.167727e+00 9.432616e-02 -1.939866e+00 -5.845660e-01 -1.109847e+00 -1.855609e-01 1.310336e+00 8.524031e-01 5.485734e-01
<VARIANCE> 26
 2.096038e+01 3.984399e+01 4.352130e+01 6.051600e+01 4.070807e+01 6.534770e+01 6.787357e+01 3.155653e+01 2.839698e+01 3.434175e+01 3.012689e+01 3.043522e+01 2.066114e+00 7.335423e+00 6.058215e+00 5.710856e+00 6.496377e+00 6.912552e+00 5.732308e+00 8.122045e+00 5.498322e+00 4.394765e+00 6.185640e+00 3.390743e+00 5.364819e+00 2.221479e-01
<GCONST> 1.119589e+02
<TRANSP> 5
 0.000000e+00 1.000000e+00 0.000000e+00 0.000000e+00 0.000000e+00
 0.000000e+00 6.546997e-01 3.453003e-01 0.000000e+00 0.000000e+00
 0.000000e+00 0.000000e+00 7.265827e-01 2.734173e-01 0.000000e+00
 0.000000e+00 0.000000e+00 0.000000e+00 6.945144e-01 3.054856e-01
 0.000000e+00 0.000000e+00 0.000000e+00 0.000000e+00 0.000000e+00
<ENDHMM>
~h "e"
<BEGINHMM>
<NUMSTATES> 5
<STATE> 2
<MEAN> 26
 -3.293063e+00 -7.334620e+00 8.370963e+00 -1.436138e+01 -7.282118e+00 -7.036370e+00 -1.662639e+01 1.365271e+00 -7.773748e+00 2.541243e+00 1.753683e+00 -3.093375e+00 2.018871e+01 1.779805e+00 -2.718516e+00 1.412982e+00 -2.747421e+00 -2.288388e+00 -1.200374e+00 -2.503061e+00 2.610843e+00 -1.163866e+00 1.109718e+00 1.677431e-01 -7.813911e-01 7.964790e-01
<VARIANCE> 26
 1.189876e+01 3.103877e+01 4.812469e+01 3.977837e+01 3.395652e+01 3.633571e+01 6.316837e+01 3.962405e+01 3.317312e+01 3.868153e+01 3.211600e+01 2.003689e+01 3.351420e+00 3.756806e+00 2.823775e+00 4.174028e+00 3.546786e+00 3.803293e+00 3.544158e+00 6.614867e+00 4.690346e+00 3.946660e+00 3.166288e+00 3.351929e+00 2.089710e+00 3.771172e-01
<GCONST> 1.056195e+02
<STATE> 3
<MEAN> 26
 -2.146295e+00 -1.180968e+01 9.032866e+00 -2.030730e+01 -1.017481e+01 -8.553061e+00 -1.565510e+01 6.777664e+00 -8.027179e+00 5.083551e+00 7.729458e-01 -4.592569e+00 2.124374e+01 1.177371e-02 -1.182844e-01 4.778210e-02 -2.600536e-01 1.893787e-01 -1.970953e-01 5.296090e-01 -2.293482e-01 -1.735362e-01 -3.468464e-02 -2.215170e-01 -8.133901e-02 -2.382525e-02
<VARIANCE> 26
 7.401906e+00 2.113725e+01 4.363078e+01 1.929436e+01 2.863171e+01 2.900923e+01 3.793452e+01 2.831616e+01 3.732855e+01 2.077601e+01 2.530405e+01 1.464229e+01 3.334299e-01 4.573302e-01 1.041201e+00 1.933519e+00 1.626146e+00 1.893211e+00 1.875480e+00 2.175819e+00 2.488149e+00 2.099796e+00 1.499095e+00 1.618504e+00 1.137551e+00 2.254704e-02
<GCONST> 8.606928e+01
<STATE> 4
<MEAN> 26
 -2.268004e+00 -6.970532e+00 9.465960e+00 -1.539301e+01 -4.581393e+00 -7.214246e+00 -1.260418e+01 -1.284456e+00 -9.769407e+00 2.307038e+00 -1.974759e+00 -4.351542e+00 1.997523e+01 -5.555955e-01 2.436571e+00 -6.762005e-01 2.514212e+00 2.052166e+00 1.438981e+00 1.332791e+00 -2.262540e+00 9.024802e-01 -8.201414e-01 -7.512542e-01 1.479080e-01 -5.999805e-01
<VARIANCE> 26
 1.222491e+01 4.848004e+01 7.457562e+01 6.383279e+01 4.234004e+01 4.641282e+01 7.069751e+01 5.013043e+01 6.994900e+01 4.004916e+01 3.482995e+01 2.368110e+01 1.382970e+00 2.470654e+00 3.691194e+00 3.885043e+00 4.533352e+00 2.515011e+00 3.691918e+00 4.387431e+00 4.999774e+00 5.265072e+00 3.015843e+00 2.735839e+00 2.011529e+00 2.031066e-01
<GCONST> 1.066430e+02
<TRANSP> 5
 0.000000e+00 1.000000e+00 0.000000e+00 0.000000e+00 0.000000e+00
 0.000000e+00 5.679911e-01 4.320089e-01 0.000000e+00 0.000000e+00
 0.000000e+00 0.000000e+00 8.547103e-01 1.452897e-01 0.000000e+00
 0.000000e+00 0.000000e+00 0.000000e+00 7.157517e-01 2.842483e-01
 0.000000e+00 0.000000e+00 0.000000e+00 0.000000e+00 0.000000e+00
<ENDHMM>
~h "f"
<BEGINHMM>
<NUMSTATES> 5
<STATE> 2
<MEAN> 26
 -1.420784e+01 -1.165491e+00 1.969104e+00 -5.088395e+00 2.247606e+00 1.022935e-01 -1.027753e+00 -1.834211e+00 -2.387589e+00 1.437745e+00 -2.779170e+00 -4.068933e-01 1.582584e+01 -3.318237e+00 -1.576025e+00 -1.833286e+00 1.960695e-01 9.288303e-01 3.973101e-01 8.869193e-01 3.995737e-01 1.582017e+00 7.733873e-01 3.514351e-01 1.008668e+00 -8.279414e-01
<VARIANCE> 26
 4.690906e+01 2.108907e+01 3.778623e+01 2.421369e+01 2.652511e+01 2.492223e+01 2.117097e+01 2.570902e+01 3.431136e+01 3.028509e+01 2.184256e+01 1.513130e+01 6.537401e+00 4.062602e+00 2.714775e+00 4.021834e+00 7.853781e+00 5.569860e+00 4.206090e+00 5.055069e+00 3.557107e+00 3.910238e+00 3.241479e+00 2.938001e+00 2.106466e+00 3.095344e-01
<GCONST> 1.040044e+02
<STATE> 3
<MEAN> 26
 -2.243982e+01 -6.428434e+00 -4.934478e+00 -8.911106e+00 5.033156e-01 4.878319e-01 -3.725616e+00 -2.934923e+00 -1.609405e+00 5.524710e+00 4.148958e-02 3.488902e+00 1.405369e+01 -7.766972e-02 -7.585573e-02 -1.536016e-01 -9.648231e-02 -2.533045e-01 -9.753675e-03 -1.833925e-01 -1.402075e-01 -9.002378e-02 9.285783e-02 5.650647e-02 6.749704e-02 1.267885e-02
<VARIANCE> 26
 7.242990e+00 5.704356e+00 9.201786e+00 1.139296e+01 2.076777e+01 1.886842e+01 1.799771e+01 1.863711e+01 1.889697e+01 1.955399e+01 1.575700e+01 1.535802e+01 1.263653e+00 8.959099e-01 6.115406e-01 1.004008e+00 1.198032e+00 1.685465e+00 1.492077e+00 1.812695e+00 1.897347e+00 1.870004e+00 2.101334e+00 1.739576e+00 1.694024e+00 8.246768e-02
<GCONST> 8.127425e+01
<STATE> 4
<MEAN> 26
 -1.409044e+01 -3.395759e+00 -1.430740e+00 -9.323688e+00 3.603553e-01 6.851869e-01 -4.099123e+00 -4.317542e+00 -3.380227e+00 1.739390e+00 -2.036760e+00 4.835702e-01 1.615308e+01 4.229142e+00 1.235462e+00 1.450554e+00 -5.991825e-01 -5.234541e-01 4.123698e-01 -1.674254e+00 -2.742887e-01 -1.578955e+00 -1.507361e+00 9.161875e-03 -1.227518e+00 9.731607e-01
<VARIANCE> 26
 6.504388e+01 2.007989e+01 2.837384e+01 2.740816e+01 3.327972e+01 3.976121e+01 3.195969e+01 2.911327e+01 3.516251e+01 2.549264e+01 2.620824e+01 2.409352e+01 3.993450e+00 4.705341e+00 2.807780e+00 3.949440e+00 6.099141e+00 5.076701e+00 4.840720e+00 7.855608e+00 5.378915e+00 5.218274e+00 3.860788e+00 5.429429e+00 2.597532e+00 3.964190e-01
<GCONST> 1.077029e+02
<TRANSP> 5
 0.000000e+00 1.000000e+00 0.000000e+00 0.000000e+00 0.000000e+00
 0.000000e+00 7.316889e-01 2.683111e-01 0.000000e+00 0.000000e+00
 0.000000e+00 0.000000e+00 8.961856e-01 1.038144e-01 0.000000e+00
 0.000000e+00 0.000000e+00 0.000000e+00 7.182703e-01 2.817297e-01
 0.000000e+00 0.000000e+00 0.000000e+00 0.000000e+00 0.000000e+00
<ENDHMM>
~h "g"
<BEGINHMM>
<NUMSTATES> 5
<STATE> 2
<MEAN> 26
 1.715877e-01 8.922018e+00 1.135911e+01 2.868732e+00 -5.145915e+00 -3.345654e+00 -5.884767e+00 -7.770956e-01 -1.162032e+01 -2.402951e-01 4.143368e+00 -8.356698e+00 1.738976e+01 2.295737e+00 1.307792e+00 6.145111e-01 1.848784e+00 -1.502268e+00 -1.097062e+00 9.892410e-01 1.041642e-01 -3.771111e-01 -4.315950e-02 1.096146e+00 -5.880759e-01 1.590951e-01
<VARIANCE> 26
 6.300365e+01 3.922271e+01 6.494752e+01 3.497807e+01 7.698315e+01 2.160685e+01 4.190575e+01 2.499574e+01 7.546062e+01 2.724735e+01 4.033176e+01 4.200040e+01 4.761215e+00 4.246247e+00 5.550169e+00 4.912318e+00 2.435182e+00 7.733987e+00 3.312102e+00 5.589040e+00 4.225918e+00 1.098439e+01 1.941717e+00 3.880671e+00 2.560528e+00 5.399949e-01
<GCONST> 1.111071e+02
<STATE> 3
<MEAN> 26
 5.272767e+00 9.209954e+00 1.101605e+01 3.088665e+00 -1.050790e+01 -3.251464e+00 -3.190293e+00 8.647429e-01 -1.405822e+01 -4.042925e+00 8.272543e+00 -9.824565e+00 1.825456e+01 -1.654557e+00 -9.339355e-01 -2.372206e-01 -1.856218e+00 2.480273e+00 1.521755e+00 -1.429686e-01 -8.687574e-01 4.210618e-01 3.487862e-01 -1.753644e+00 1.855300e+00 -1.460804e-01
<VARIANCE> 26
 6.596812e+00 2.081197e+01 5.493968e+01 3.502975e+01 4.567754e+01 2.657543e+01 2.840978e+01 2.270172e+01 7.696189e+01 3.951700e+01 5.003066e+01 3.022163e+01 9.390797e-01 3.497085e+00 4.801723e+00 5.508892e+00 4.174264e+00 5.299697e+00 2.036088e+00 3.669546e+00 4.767901e+00 3.138408e+00 4.455775e+00 5.265418e+00 3.341341e+00 9.203780e-02
<GCONST> 1.034352e+02
<STATE> 4
<MEAN> 26
 -4.629076e+00 9.019456e-01 1.031101e+01 -8.773917e+00 -1.001049e+00 5.862464e-01 -1.035803e+01 -2.942588e+00 -1.413922e+01 2.679310e-01 1.432377e+00 -2.184911e+00 1.843345e+01 -1.440819e+00 -1.571994e+00 8.070694e-02 -2.176155e+00 -4.950693e-01 -7.984150e-01 -1.969892e+00 3.569653e-01 4.326564e-01 -4.796819e-01 3.723395e-01 1.242123e+00 3.611726e-01
<VARIANCE> 26
 2.635751e+01 2.685567e+01 8.816613e+01 5.344228e+01 6.434480e+01 5.898389e+01 6.111216e+01 3.551674e+01 4.028374e+01 4.990820e+01 5.307820e+01 1.324735e+01 1.654915e+00 4.142298e+00 6.387829e+00 6.117335e+00 3.755979e+00 8.179976e+00 4.945272e+00 5.282361e+00 6.252295e+00 6.766801e+00 5.833702e+00 4.828513e+00 3.913245e+00 1.945959e-01
<GCONST> 1.119799e+02
<TRANSP> 5
 0.000000e+00 1.000000e+00 0.000000e+00 0.000000e+00 0.000000e+00
 0.000000e+00 6.247517e-01 3.752483e-01 0.000000e+00 0.000000e+00
 0.000000e+00 0.000000e+00 6.029705e-01 3.970295e-01 0.000000e+00
 0.000000e+00 0.000000e+00 0.000000e+00 6.684818e-01 3.315183e-01
 0.000000e+00 0.000000e+00 0.000000e+00 0.000000e+00 0.000000e+00
<ENDHMM>
~h "h"
<BEGINHMM>
<NUMSTATES> 5
<STATE> 2
<MEAN> 26
 -1.936673e+01 -7.540983e+00 5.455920e+00 -3.016802e+00 -6.275337e+00 -2.325546e+00 -1.066882e+00 -1.409108e+00 -5.460503e+00 2.936645e+00 -8.593829e-01 2.345019e+00 1.635696e+01 5.080038e-01 -4.702866e-02 1.510566e+00 2.233779e+00 -2.274077e-01 -1.272974e+00 -1.504061e-01 4.659706e-01 -7.694795e-01 -1.236963e+00 -3.024831e-01 -5.946665e-01 3.913617e-01
<VARIANCE> 26
 3.450507e+01 2.025787e+01 3.851316e+01 3.918351e+01 2.686330e+01 4.567537e+01 3.602990e+01 2.918744e+01 2.368090e+01 3.856179e+01 1.276272e+01 1.838720e+01 3.280772e+00 4.163227e+00 2.016957e+00 2.835118e+00 2.033602e+00 2.160612e+00 3.158215e+00 4.628651e+00 2.800938e+00 2.254146e+00 5.817821e+00 1.693222e+00 1.499314e+00 1.967011e-01
<GCONST> 9.942898e+01
<STATE> 3
<MEAN> 26
 -7.091691e+00 -2.832497e+00 1.453883e+01 7.605312e+00 -6.019265e+00 -8.394038e+00 -1.109107e+01 -9.016355e-01 -1.091863e+01 -1.119462e+01 -1.987773e+00 2.417438e+00 1.912464e+01 3.091676e+00 -2.791977e-02 1.801081e+00 1.218402e+00 -3.685827e-01 -1.216632e+00 -4.130509e+00 5.564156e-01 -1.102229e+00 -4.987824e+00 1.198142e+00 7.867526e-01 7.185977e-01
<VARIANCE> 26
 2.086209e+01 1.073487e+01 1.840787e+01 1.067678e+01 1.654124e+01 1.810081e+01 4.208188e+01 1.686286e+01 2.784321e+01 3.415158e+01 1.606436e+01 2.211327e+01 6.095198e-01 3.337997e+00 2.464618e+00 2.292799e+00 2.640358e+00 3.153390e+00 3.586789e+00 4.497468e+00 2.623213e+00 4.074810e+00 5.386796e+00 2.243217e+00 2.564199e+00 2.477342e-01
<GCONST> 9.522340e+01
<STATE> 4
<MEAN> 26
 -3.571073e+00 -5.434470e+00 1.717253e+01 7.584820e+00 -6.655213e+00 -6.846202e+00 -1.798827e+01 1.476720e+00 -1.038245e+01 -1.953535e+01 5.039678e+00 2.588580e+00 1.989188e+01 8.671739e-02 -4.158655e-01 8.155387e-01 -8.370332e-01 -8.895478e-01 7.266394e-01 -4.191878e-01 -3.107385e-01 -5.233734e-02 -2.247211e-02 1.027683e+00 -8.365890e-01 1.080667e-01
<VARIANCE> 26
 5.881274e+00 1.198136e+01 1.973054e+01 3.335413e+01 1.881958e+01 1.515978e+01 3.745525e+01 2.151863e+01 3.831656e+01 4.170003e+01 1.806184e+01 2.616635e+01 3.011574e-01 8.600456e-01 4.976035e-01 2.582189e+00 2.513555e+00 2.591733e+00 2.296453e+00 3.429414e+00 2.422967e+00 1.529256e+00 4.355602e+00 1.247638e+00 1.307734e+00 1.684712e-02
<GCONST> 8.643433e+01
<TRANSP> 5
 0.000000e+00 1.000000e+00 0.000000e+00 0.000000e+00 0.000000e+00
 0.000000e+00 7.536227e-01 2.463773e-01 0.000000e+00 0.000000e+00
 0.000000e+00 0.000000e+00 6.034649e-01 3.965351e-01 0.000000e+00
 0.000000e+00 0.000000e+00 0.000000e+00 7.706693e-01 2.293307e-01
 0.000000e+00 0.000000e+00 0.000000e+00 0.000000e+00 0.000000e+00
<ENDHMM>
~h "i"
<BEGINHMM>
<NUMSTATES> 5
<STATE> 2
<MEAN> 26
 -1.003495e+01 4.359589e+00 1.705009e+01 -6.879212e+00 -3.460272e+00 -2.944995e+00 -1.313080e+01 -6.525767e+00 -9.125647e+00 -1.040798e+01 -6.488485e-01 1.856785e+00 1.934492e+01 5.176288e-01 -2.368610e-01 3.142377e+00 -1.460992e+00 -1.440926e+00 7.424189e-01 -2.335096e+00 -7.443234e-02 -1.740518e+00 -1.988664e+00 7.779855e-01 -2.281501e-01 3.881722e-01
<VARIANCE> 26
 3.134283e+01 3.487313e+01 4.269177e+01 4.717359e+01 5.133249e+01 2.505163e+01 4.045806e+01 2.925944e+01 4.263147e+01 5.440857e+01 4.232203e+01 2.119186e+01 1.703524e+00 4.775733e+00 2.824423e+00 3.601366e+00 4.078210e+00 4.229850e+00 4.220910e+00 4.550470e+00 2.630143e+00 4.402864e+00 4.383565e+00 3.018265e+00 2.380149e+00 1.852733e-01
<GCONST> 1.056052e+02
<STATE> 3
<MEAN> 26
 -9.831616e+00 3.989355e+00 2.271283e+01 -1.224245e+01 -6.252607e+00 1.980719e+00 -1.995766e+01 -4.357069e+00 -1.353392e+01 -1.451747e+01 3.123811e+00 -1.624671e+00 1.999426e+01 -1.794408e-02 2.123908e-01 1.390967e-02 -5.019373e-01 -2.303407e-01 1.730208e-01 -7.894021e-02 2.181539e-01 -4.402859e-01 3.063752e-01 -1.131777e-02 -5.042067e-01 -1.518439e-02
<VARIANCE> 26
 8.089979e+00 2.009131e+01 1.528801e+01 2.723207e+01 3.566676e+01 2.387403e+01 2.893569e+01 2.659428e+01 4.171169e+01 2.805607e+01 3.247636e+01 2.151182e+01 3.906090e-01 8.795359e-01 2.010358e+00 1.837584e+00 2.253147e+00 2.441802e+00 2.242567e+00 2.512262e+00 2.198775e+00 2.508473e+00 2.466816e+00 1.900298e+00 1.337384e+00 2.405100e-02
<GCONST> 8.940195e+01
<STATE> 4
<MEAN> 26
 -7.717566e+00 4.832306e+00 1.563712e+01 -8.522579e+00 -5.287279e+00 -2.348120e+00 -1.205142e+01 -5.107118e+00 -1.218751e+01 -6.211846e+00 -5.514169e-01 -2.055206e+00 1.876264e+01 5.673129e-01 3.321075e-01 -2.589297e+00 1.894906e+00 8.893147e-01 -7.417727e-01 2.072543e+00 -2.691959e-01 1.514627e+00 1.656337e+00 -6.072983e-01 -4.295984e-02 -4.990510e-01
<VARIANCE> 26
 3.449095e+01 5.078244e+01 5.466309e+01 6.255172e+01 5.556688e+01 3.772766e+01 5.987371e+01 4.162432e+01 7.033913e+01 5.168006e+01 5.040197e+01 3.780398e+01 3.843770e+00 4.533084e+00 4.280813e+00 3.601182e+00 4.856151e+00 5.269163e+00 4.291409e+00 3.761359e+00 4.007247e+00 4.878653e+00 3.504339e+00 3.716989e+00 3.405288e+00 2.458115e-01
<GCONST> 1.115888e+02
<TRANSP> 5
 0.000000e+00 1.000000e+00 0.000000e+00 0.000000e+00 0.000000e+00
 0.000000e+00 6.415535e-01 3.584465e-01 0.000000e+00 0.000000e+00
 0.000000e+00 0.000000e+00 8.131105e-01 1.868895e-01 0.000000e+00
 0.000000e+00 0.000000e+00 0.000000e+00 7.469388e-01 2.530613e-01
 0.000000e+00 0.000000e+00 0.000000e+00 0.000000e+00 0.000000e+00
<ENDHMM>
~h "j"
<BEGINHMM>
<NUMSTATES> 5
<STATE> 2
<MEAN> 26
 -1.136915e+01 6.005980e+00 2.144430e+01 -8.422386e+00 -2.103278e+00 -1.524403e+00 -1.400377e+01 -4.444875e+00 -1.023223e+01 -6.621505e+00 1.330575e-01 8.316896e-01 1.905165e+01 7.730774e-01 1.248747e-01 9.151742e-01 4.047173e-01 -5.954105e-01 -5.759348e-01 -9.247257e-01 1.876559e-01 -6.699884e-01 -1.268597e+00 2.118652e-01 1.202274e-01 1.934019e-01
<VARIANCE> 26
 2.169373e+01 2.796290e+01 3.130578e+01 4.350145e+01 5.273505e+01 2.523160e+01 4.600052e+01 3.330110e+01 4.682064e+01 3.869972e+01 2.270182e+01 1.949721e+01 9.451920e-01 6.792749e+00 3.774795e+00 4.314753e+00 3.906009e+00 4.171056e+00 4.239050e+00 4.854893e+00 3.119321e+00 3.700153e+00 4.648377e+00 1.817355e+00 1.455225e+00 1.656891e-01
<GCONST> 1.031541e+02
<STATE> 3
<MEAN> 26
 -6.855789e+00 -1.545580e+00 1.777835e+01 -7.293858e+00 -1.052550e+01 -4.799709e+00 -1.788568e+01 -2.380583e+00 -1.138014e+01 -1.003896e+01 1.801772e+00 7.071254e-01 2.021854e+01 2.776263e+00 -2.617709e+00 -1.336241e+00 -1.169560e+00 -1.800287e+00 -9.760678e-01 -3.004221e+00 2.791227e+00 1.590560e-02 3.658496e-01 1.539368e+00 -8.628291e-01 5.015577e-01
<VARIANCE> 26
 9.220597e+00 1.939226e+01 3.232396e+01 8.050220e+01 2.649712e+01 2.976833e+01 3.617137e+01 3.718080e+01 3.113723e+01 4.638575e+01 1.913422e+01 1.096473e+01 5.942559e-01 3.460964e+00 1.903210e+00 3.929065e+00 3.741737e+00 4.590659e+00 4.016304e+00 8.014576e+00 3.527471e+00 2.847331e+00 9.584062e+00 3.388364e+00 2.191419e+00 7.447933e-02
<GCONST> 1.003543e+02
<STATE> 4
<MEAN> 26
 -1.761030e+00 -7.903974e+00 7.936816e+00 -1.322069e+01 -9.308850e+00 -1.250755e+00 -2.039806e+01 3.927715e+00 -7.499712e+00 -1.027702e+00 2.579828e+00 -3.729236e+00 2.061941e+01 1.066326e+00 -6.492900e-01 -2.730419e+00 -1.326472e+00 1.024183e+00 2.201447e+00 6.505167e-01 -4.416602e-02 2.625273e-01 1.729855e+00 1.640567e-01 -1.186043e+00 4.018465e-02
<VARIANCE> 26
 8.472686e+00 2.855297e+01 5.012868e+01 6.524193e+01 4.110355e+01 4.163697e+01 6.292801e+01 4.104636e+01 4.010954e+01 6.597118e+01 5.105083e+01 2.855185e+01 1.979398e+00 7.626085e-01 3.194432e+00 1.866598e+00 5.439775e+00 2.775688e+00 5.139421e+00 5.677485e+00 5.384741e+00 4.686037e+00 4.447080e+00 5.145103e+00 2.134869e+00 5.467936e-02
<GCONST> 1.043292e+02
<TRANSP> 5
 0.000000e+00 1.000000e+00 0.000000e+00 0.000000e+00 0.000000e+00
 0.000000e+00 7.500466e-01 2.499534e-01 0.000000e+00 0.000000e+00
 0.000000e+00 0.000000e+00 5.716553e-01 4.283447e-01 0.000000e+00
 0.000000e+00 0.000000e+00 0.000000e+00 6.621377e-01 3.378623e-01
 0.000000e+00 0.000000e+00 0.000000e+00 0.000000e+00 0.000000e+00
<ENDHMM>
~h "k"
<BEGINHMM>
<NUMSTATES> 5
<STATE> 2
<MEAN> 26
 -9.488318e+00 1.163475e+00 5.392512e-02 1.963110e-01 1.545074e+00 6.494040e-01 -2.149704e+00 -1.028293e-01 -4.938597e+00 -4.166430e-01 -5.386841e-02 -2.132418e+00 1.173640e+01 -1.068407e+00 -1.080330e+00 -1.299139e+00 -1.378998e+00 1.588906e-01 3.505341e-01 4.790079e-02 -6.798337e-01 4.872327e-01 2.332727e-01 -1.042204e-01 8.290406e-01 -2.302863e-01
<VARIANCE> 26
 4.124463e+01 3.340590e+01 2.950438e+01 2.352277e+01 3.094576e+01 2.564374e+01 3.499125e+01 2.338762e+01 5.341882e+01 3.247457e+01 2.291450e+01 2.192705e+01 1.061796e+01 5.610702e+00 4.707422e+00 5.277115e+00 1.458363e+01 5.413240e+00 3.381134e+00 7.131404e+00 4.916820e+00 6.829518e+00 4.058427e+00 3.505475e+00 3.358735e+00 2.446458e+00
<GCONST> 1.117440e+02
<STATE> 3
<MEAN> 26
 -9.604204e+00 -6.631783e+00 -7.607382e+00 -1.783205e+01 4.228956e-01 1.563889e+00 -7.854114e+00 -2.825835e+00 -8.669797e+00 3.993083e+00 2.483274e-01 -7.253689e-01 1.588059e+01 7.857533e-01 -1.494933e+00 -1.429016e+00 -5.004805e+00 -2.828616e-01 -8.249287e-03 -2.047396e+00 -1.440943e+00 -1.974961e+00 1.180711e+00 4.418183e-02 -1.083720e-01 1.757746e+00
<VARIANCE> 26
 3.493704e+01 3.474148e+01 7.361949e+01 5.712436e+01 5.618301e+01 4.488613e+01 6.364392e+01 4.485661e+01 4.281329e+01 4.196055e+01 2.999235e+01 2.878971e+01 4.838348e+00 4.245505e+00 3.185622e+00 6.927610e+00 7.283778e+00 4.200265e+00 3.485073e+00 3.957831e+00 4.150953e+00 6.558777e+00 2.972059e+00 3.032751e+00 2.974336e+00 8.947631e-01
<GCONST> 1.119178e+02
<STATE> 4
<MEAN> 26
 -8.337308e+00 -2.732757e+00 -3.215629e+00 -1.532018e+01 -4.683174e-01 -2.080742e-01 -6.609878e+00 -5.321715e+00 -8.670042e+00 2.312952e+00 4.405624e-01 -4.387155e-01 1.719951e+01 1.243088e+00 1.280497e+00 1.968394e+00 1.148093e+00 -1.144659e+00 -1.803678e-01 -2.216154e-01 5.544553e-02 -3.133011e-01 -1.101985e+00 8.422586e-01 -3.876126e-01 5.370782e-01
<VARIANCE> 26
 5.188400e+01 3.066664e+01 8.869975e+01 8.735591e+01 5.057491e+01 4.331843e+01 5.059798e+01 5.267330e+01 7.164069e+01 4.269122e+01 4.094839e+01 3.103345e+01 4.795936e+00 5.281650e+00 3.709409e+00 4.293392e+00 5.378399e+00 7.087854e+00 4.352785e+00 7.736789e+00 5.049618e+00 4.880794e+00 3.930844e+00 5.044734e+00 3.505177e+00 4.512967e-01
<GCONST> 1.146733e+02
<TRANSP> 5
 0.000000e+00 1.000000e+00 0.000000e+00 0.000000e+00 0.000000e+00
 0.000000e+00 7.416108e-01 2.583892e-01 0.000000e+00 0.000000e+00
 0.000000e+00 0.000000e+00 4.652085e-01 5.347915e-01 0.000000e+00
 0.000000e+00 0.000000e+00 0.000000e+00 7.220843e-01 2.779157e-01
 0.000000e+00 0.000000e+00 0.000000e+00 0.000000e+00 0.000000e+00
<ENDHMM>
~h "l"
<BEGINHMM>
<NUMSTATES> 5
<STATE> 2
<MEAN> 26
 -1.062466e+00 -3.374201e+00 3.180146e+00 -2.786894e+00 5.552189e-01 -1.868408e+00 -1.348396e+01 -7.010528e+00 -3.461489e+00 3.013523e+00 -2.430978e+00 -3.353184e+00 1.725675e+01 1.886168e+00 -1.391062e-01 1.234645e+00 1.421830e-01 1.510362e+00 -1.306123e+00 -2.786567e+00 -1.616839e+00 -8.538525e-01 -1.702429e-01 -1.287591e+00 -1.115340e+00 7.247732e-01
<VARIANCE> 26
 5.360155e+01 3.191943e+01 7.906627e+01 3.508558e+01 4.377933e+01 5.601953e+01 1.007569e+02 9.299833e+01 4.398010e+01 4.954227e+01 3.960567e+01 3.223127e+01 1.171035e+01 5.411747e+00 5.221056e+00 4.235906e+00 4.308242e+00 6.992144e+00 3.858058e+00 9.513882e+00 5.981208e+00 4.726616e+00 4.706869e+00 4.711066e+00 3.742946e+00 8.084947e-01
<GCONST> 1.167479e+02
<STATE> 3
<MEAN> 26
 2.101848e+00 -1.731952e+00 1.058385e+01 -4.356630e+00 3.603294e+00 -4.205461e+00 -2.403676e+01 -7.742749e+00 -5.447897e+00 -2.012540e+00 -2.892480e+00 -6.536277e+00 1.959776e+01 -1.676549e-01 1.444436e-01 4.533031e-01 -1.995206e-01 7.000305e-02 1.010699e-01 -6.763914e-01 5.398127e-01 -4.750344e-02 -5.323448e-01 4.729370e-01 -5.370608e-01 9.512404e-02
<VARIANCE> 26
 2.193547e+01 2.830824e+01 9.000704e+01 5.258992e+01 5.223911e+01 4.757023e+01 5.823599e+01 7.074976e+01 3.791449e+01 5.160780e+01 3.218972e+01 4.035648e+01 3.838217e-01 8.362308e-01 2.308168e+00 2.628968e+00 2.341950e+00 2.626598e+00 3.117593e+00 4.840601e+00 4.511367e+00 3.600447e+00 3.214796e+00 2.229627e+00 2.582705e+00 3.388234e-02
<GCONST> 1.010872e+02
<STATE> 4
<MEAN> 26
 9.831097e-01 -5.802639e+00 7.136939e+00 -7.636612e+00 -5.872810e-01 -2.462412e+00 -1.852269e+01 -4.049479e+00 -6.518598e+00 5.166951e-01 -4.985559e-02 -7.877667e+00 1.969476e+01 -5.824336e-01 -8.189970e-01 -2.958172e-01 -1.907425e+00 -1.636762e+00 2.823809e-01 1.610221e+00 1.600978e+00 -4.237426e-01 8.567805e-01 1.278452e+00 4.003497e-01 8.443657e-02
<VARIANCE> 26
 1.599122e+01 3.042176e+01 7.040874e+01 8.650329e+01 7.339168e+01 4.688937e+01 1.064069e+02 7.916439e+01 4.949700e+01 7.978284e+01 4.767815e+01 4.011828e+01 2.095513e+00 1.214900e+00 3.822620e+00 7.105070e+00 7.016195e+00 6.865135e+00 5.837390e+00 5.234948e+00 6.571568e+00 6.133575e+00 7.710890e+00 4.721041e+00 3.787718e+00 9.221971e-02
<GCONST> 1.134763e+02
<TRANSP> 5
 0.000000e+00 1.000000e+00 0.000000e+00 0.000000e+00 0.000000e+00
 0.000000e+00 6.085100e-01 3.914900e-01 0.000000e+00 0.000000e+00
 0.000000e+00 0.000000e+00 7.489350e-01 2.510650e-01 0.000000e+00
 0.000000e+00 0.000000e+00 0.000000e+00 7.170810e-01 2.829190e-01
 0.000000e+00 0.000000e+00 0.000000e+00 0.000000e+00 0.000000e+00
<ENDHMM>
~h "m"
<BEGINHMM>
<NUMSTATES> 5
<STATE> 2
<MEAN> 26
 1.694498e+00 -1.342348e+00 2.929153e+00 1.425861e+00 -6.294080e+00 1.132531e+00 -1.012973e+01 -1.720454e-01 -1.943911e+01 -5.136954e+00 8.244229e+00 -6.639121e+00 1.926280e+01 1.038117e+00 5.916781e-01 -2.294352e-01 4.211500e+00 4.292944e-02 -3.151962e-01 1.741521e-01 -7.860359e-01 -3.611065e+00 -6.522121e-01 1.298601e+00 -1.340748e+00 2.616986e-01
<VARIANCE> 26
 1.906031e+01 2.684207e+01 4.156701e+01 7.374626e+01 3.620314e+01 4.536000e+01 7.230267e+01 3.706116e+01 7.538354e+01 6.499454e+01 4.481741e+01 2.833275e+01 5.578316e+00 2.482282e+00 2.251011e+00 5.309828e+00 9.011846e+00 2.852355e+00 4.622493e+00 6.199103e+00 5.217647e+00 5.679057e+00 3.052610e+00 4.563426e+00 2.323130e+00 3.803208e-01
<GCONST> 1.106011e+02
<STATE> 3
<MEAN> 26
 2.496986e+00 -1.137146e+00 3.171947e+00 7.290400e+00 -7.133433e+00 9.992106e-01 -1.214667e+01 -3.606382e+00 -2.571819e+01 -5.680551e+00 1.250488e+01 -9.492647e+00 2.041029e+01 -1.089535e-01 -2.353633e-01 6.973293e-02 -5.809980e-02 5.652139e-02 1.350936e-01 -8.816954e-03 -2.346934e-01 -1.413819e-01 9.476446e-02 -3.450237e-02 9.927609e-02 3.595612e-02
<VARIANCE> 26
 5.867315e+00 2.094818e+01 1.415768e+01 1.463242e+01 1.961953e+01 4.473174e+01 5.055457e+01 4.180564e+01 3.858150e+01 7.252238e+01 4.155091e+01 3.531260e+01 2.346386e-01 2.330954e-01 1.076623e+00 1.052220e+00 3.159350e+00 1.191928e+00 1.795517e+00 2.166578e+00 1.847758e+00 2.789655e+00 2.286412e+00 2.744976e+00 1.790680e+00 9.145458e-03
<GCONST> 8.685873e+01
<STATE> 4
<MEAN> 26
 1.729652e+00 -5.522595e+00 2.197925e+00 -6.834187e+00 -6.855069e+00 3.833895e+00 -1.404631e+01 -5.679886e-02 -1.726752e+01 -4.319704e+00 7.579405e+00 -6.605378e+00 2.056172e+01 -4.383689e-01 -1.011501e+00 -4.219612e-02 -5.134321e+00 -2.510568e-01 5.640002e-01 -1.032934e-01 1.540415e+00 3.374317e+00 3.810047e-01 -1.710177e+00 5.535386e-01 9.210044e-02
<VARIANCE> 26
 8.854169e+00 2.874207e+01 4.214031e+01 1.350564e+02 4.823282e+01 6.159397e+01 4.973294e+01 4.424863e+01 8.374404e+01 6.772297e+01 5.586340e+01 2.367879e+01 4.422756e-01 8.147482e-01 2.733421e+00 4.389534e+00 8.077404e+00 3.774729e+00 3.125906e+00 3.606546e+00 3.976278e+00 4.981334e+00 2.963211e+00 3.845632e+00 2.739000e+00 5.639498e-02
<GCONST> 1.043500e+02
<TRANSP> 5
 0.000000e+00 1.000000e+00 0.000000e+00 0.000000e+00 0.000000e+00
 0.000000e+00 6.062024e-01 3.937976e-01 0.000000e+00 0.000000e+00
 0.000000e+00 0.000000e+00 7.997040e-01 2.002960e-01 0.000000e+00
 0.000000e+00 0.000000e+00 0.000000e+00 7.105217e-01 2.894783e-01
 0.000000e+00 0.000000e+00 0.000000e+00 0.000000e+00 0.000000e+00
<ENDHMM>
~h "n"
<BEGINHMM>
<NUMSTATES> 5
<STATE> 2
<MEAN> 26
 2.839201e-01 2.228875e+00 6.480925e+00 2.585213e+00 -1.079474e+01 2.043963e+00 -1.002698e+01 -1.869850e+00 -1.868362e+01 -6.983286e-01 6.582783e-03 -7.447993e+00 1.958384e+01 1.143593e+00 1.231592e+00 -8.314421e-01 3.555783e+00 -1.589584e+00 -1.190255e-01 1.989590e+00 -1.369434e+00 -2.201793e+00 7.239096e-01 -9.704019e-01 -1.696068e-01 2.985893e-01
<VARIANCE> 26
 1.339635e+01 2.604492e+01 2.257845e+01 4.679914e+01 5.395052e+01 4.972707e+01 5.141565e+01 4.532383e+01 6.037687e+01 4.770975e+01 4.145640e+01 2.360557e+01 4.475073e+00 2.079732e+00 2.292092e+00 6.269904e+00 5.450146e+00 4.769202e+00 3.482920e+00 6.213485e+00 3.911228e+00 6.582396e+00 3.856373e+00 3.460460e+00 2.745265e+00 4.666551e-01
<GCONST> 1.084182e+02
<STATE> 3
<MEAN> 26
 1.467931e+00 2.361462e+00 5.594983e+00 7.598650e+00 -1.456758e+01 2.407837e+00 -6.112811e+00 -5.250822e+00 -1.817007e+01 -2.107319e+00 -6.719550e-01 -6.200475e+00 2.044511e+01 -1.126307e-01 -8.747938e-02 3.980162e-03 3.702939e-02 3.734202e-02 -2.775593e-01 2.774961e-01 7.691751e-02 2.290717e-01 -4.157372e-01 2.781864e-01 1.367274e-01 2.982096e-02
<VARIANCE> 26
 5.981038e+00 1.321109e+01 9.120244e+00 1.673280e+01 1.477642e+01 1.950515e+01 2.640677e+01 2.524224e+01 3.724911e+01 6.049606e+01 4.403403e+01 2.242648e+01 2.346386e-01 2.629915e-01 1.086362e+00 8.162019e-01 1.279528e+00 1.311980e+00 1.703260e+00 1.543665e+00 1.573823e+00 1.979226e+00 2.499196e+00 2.150175e+00 1.721124e+00 6.924511e-03
<GCONST> 8.093074e+01
<STATE> 4
<MEAN> 26
 -5.609902e-01 -1.381671e+00 6.922743e+00 -2.536807e+00 -9.987271e+00 7.153561e-01 -1.324816e+01 -5.115559e-01 -1.367416e+01 -3.872634e+00 1.744624e+00 -7.465889e+00 2.052795e+01 -6.258981e-01 -1.316411e+00 3.060749e-01 -3.852285e+00 1.359748e+00 -1.592049e-01 -2.378868e+00 1.525706e+00 2.209740e+00 -9.061355e-01 1.370971e+00 7.192888e-02 4.178164e-02
<VARIANCE> 26
 6.725741e+00 2.320805e+01 2.886652e+01 9.458801e+01 4.814563e+01 3.470786e+01 5.775978e+01 3.769356e+01 5.307337e+01 7.875111e+01 5.086605e+01 3.402081e+01 2.346386e-01 6.965786e-01 1.445974e+00 3.401866e+00 5.789623e+00 4.012110e+00 3.288775e+00 5.460021e+00 3.640256e+00 5.069813e+00 3.784854e+00 3.379974e+00 2.271614e+00 1.774615e-02
<GCONST> 9.971689e+01
<TRANSP> 5
 0.000000e+00 1.000000e+00 0.000000e+00 0.000000e+00 0.000000e+00
 0.000000e+00 5.987661e-01 4.012339e-01 0.000000e+00 0.000000e+00
 0.000000e+00 0.000000e+00 7.537347e-01 2.462653e-01 0.000000e+00
 0.000000e+00 0.000000e+00 0.000000e+00 7.287785e-01 2.712215e-01
 0.000000e+00 0.000000e+00 0.000000e+00 0.000000e+00 0.000000e+00
<ENDHMM>
~h "o"
<BEGINHMM>
<NUMSTATES> 5
<STATE> 2
<MEAN> 26
 3.868074e-01 -4.118660e-01 1.103590e+00 -2.121330e+01 -9.386630e+00 7.283259e+00 -1.533971e+01 -6.857191e+00 -1.289380e+01 1.374874e-01 9.033958e+00 -6.428155e+00 2.046912e+01 1.672442e+00 -6.366094e-01 -1.033389e-01 -2.959446e+00 -2.889606e+00 2.296228e+00 -2.490680e+00 3.886885e-01 -1.915297e+00 -1.749156e-01 2.589512e+00 -1.435696e+00 7.233343e-01
<VARIANCE> 26
 1.332153e+01 3.757529e+01 2.317610e+01 7.256713e+01 4.687622e+01 3.093424e+01 7.356903e+01 5.700829e+01 5.100309e+01 5.492281e+01 6.650564e+01 3.508657e+01 3.057174e+00 3.150962e+00 2.930968e+00 3.633728e+00 6.848670e+00 4.874244e+00 2.847549e+00 4.740690e+00 3.667047e+00 5.581793e+00 4.728398e+00 5.321375e+00 3.310484e+00 2.884074e-01
<GCONST> 1.096813e+02
<STATE> 3
<MEAN> 26
 1.464170e+00 -3.618968e+00 -1.819950e+00 -2.721817e+01 -1.172163e+01 1.165340e+01 -1.581054e+01 -5.779753e+00 -1.460446e+01 1.835318e+00 1.095657e+01 -8.029534e+00 2.171185e+01 1.324235e-02 -8.991284e-02 -2.221878e-01 -1.801977e-01 1.465049e-01 7.116170e-02 2.987396e-01 -5.511649e-02 -1.830723e-01 -7.863981e-02 -3.562512e-01 4.844303e-02 1.385566e-02
<VARIANCE> 26
 4.886325e+00 3.205438e+01 2.478433e+01 3.806818e+01 3.095759e+01 1.615548e+01 4.923600e+01 3.406622e+01 3.470597e+01 8.065714e+01 4.263338e+01 2.781284e+01 3.235931e-01 3.917979e-01 1.217879e+00 1.344314e+00 3.222833e+00 2.201526e+00 1.952285e+00 3.842861e+00 1.861282e+00 2.481594e+00 2.524042e+00 2.726075e+00 1.961518e+00 2.819718e-02
<GCONST> 9.130975e+01
<STATE> 4
<MEAN> 26
 1.149726e+00 -1.017175e+00 3.729534e-01 -1.853719e+01 -6.888307e+00 6.142556e+00 -1.478893e+01 -6.078580e+00 -1.309411e+01 -1.042184e+00 5.531212e+00 -7.399282e+00 2.047161e+01 -5.474237e-01 9.611164e-01 8.309845e-01 3.841743e+00 2.027288e+00 -1.832044e+00 1.995850e+00 -1.963010e-02 1.172043e+00 -5.685723e-01 -2.316233e+00 9.351497e-01 -5.322998e-01
<VARIANCE> 26
 1.247193e+01 4.817165e+01 3.461985e+01 1.235511e+02 4.231995e+01 3.998274e+01 1.394830e+02 6.296911e+01 3.776339e+01 5.755599e+01 6.980142e+01 5.389561e+01 2.088654e+00 2.849538e+00 3.447772e+00 2.980407e+00 7.266597e+00 4.776079e+00 3.744428e+00 5.942797e+00 3.577523e+00 6.917195e+00 4.674085e+00 5.190672e+00 2.701463e+00 1.687623e-01
<GCONST> 1.113502e+02
<TRANSP> 5
 0.000000e+00 1.000000e+00 0.000000e+00 0.000000e+00 0.000000e+00
 0.000000e+00 5.560653e-01 4.439347e-01 0.000000e+00 0.000000e+00
 0.000000e+00 0.000000e+00 8.348814e-01 1.651186e-01 0.000000e+00
 0.000000e+00 0.000000e+00 0.000000e+00 6.701945e-01 3.298055e-01
 0.000000e+00 0.000000e+00 0.000000e+00 0.000000e+00 0.000000e+00
<ENDHMM>
~h "p"
<BEGINHMM>
<NUMSTATES> 5
<STATE> 2
<MEAN> 26
 -3.859138e+00 7.512061e+00 3.978770e+00 2.814105e+00 1.600772e+00 5.874395e-01 -4.049811e+00 -3.833628e+00 -6.760601e+00 -2.087254e+00 -1.119443e+00 -5.508682e+00 1.414385e+01 -2.979631e+00 3.233416e-01 -4.687347e-01 1.951127e+00 1.025503e+00 6.285766e-02 1.537010e+00 6.970320e-01 1.748258e+00 -7.628259e-02 -4.756751e-01 2.567051e-01 -1.662107e+00
<VARIANCE> 26
 5.234448e+01 2.674994e+01 2.474094e+01 2.339421e+01 2.321325e+01 1.776208e+01 3.794499e+01 2.901428e+01 4.157439e+01 2.871280e+01 2.691813e+01 1.976393e+01 8.870622e+00 3.243305e+00 8.127340e+00 3.754068e+00 8.869616e+00 2.514969e+00 2.971095e+00 3.924371e+00 3.159726e+00 3.099383e+00 3.847916e+00 3.065136e+00 2.356790e+00 4.631312e-01
<GCONST> 1.049526e+02
<STATE> 3
<MEAN> 26
 -1.351268e+01 2.208543e+00 -8.888318e-02 1.562779e+00 2.080731e+00 1.566223e+00 -2.631097e-01 1.647784e+00 2.213617e-01 1.858532e+00 1.617358e+00 -6.257665e-01 9.777850e+00 1.942295e-02 -7.101719e-01 -3.434009e-01 -1.117888e+00 -2.493579e-01 -2.224002e-01 4.808879e-02 -1.430439e-01 3.274423e-01 4.171335e-01 2.685131e-01 6.748591e-01 2.934381e-01
<VARIANCE> 26
 1.970007e+00 3.670558e+00 5.626602e+00 7.775133e+00 1.010073e+01 1.078900e+01 1.249916e+01 1.213434e+01 1.325425e+01 1.425507e+01 1.304210e+01 1.629426e+01 2.759381e+00 1.385586e+00 1.021340e+00 1.269823e+00 2.375211e+00 1.529882e+00 1.352373e+00 1.726017e+00 2.793851e+00 2.159039e+00 2.009873e+00 1.660259e+00 2.071504e+00 1.032117e+00
<GCONST> 8.135598e+01
<STATE> 4
<MEAN> 26
 -7.894845e+00 -2.704232e+00 3.010730e-01 -9.104117e+00 1.469044e+00 3.866952e-01 -3.702617e+00 -4.041626e+00 -2.674379e+00 2.959928e+00 9.706827e-01 -1.554733e-01 1.642499e+01 2.452970e+00 -1.520285e+00 -2.958344e-01 -3.575326e+00 -8.403252e-01 8.169112e-01 -2.508470e+00 -5.694960e-01 -1.625515e+00 9.412340e-02 3.420319e-01 -1.263373e+00 1.892509e+00
<VARIANCE> 26
 3.891852e+01 1.924243e+01 2.378981e+01 5.371399e+01 2.536771e+01 2.425743e+01 4.599547e+01 2.851217e+01 3.458297e+01 2.258040e+01 2.044550e+01 3.311017e+01 8.258527e+00 4.280095e+00 4.505722e+00 4.318793e+00 7.654380e+00 5.209255e+00 5.807320e+00 6.565319e+00 4.540940e+00 5.246037e+00 4.591746e+00 4.316012e+00 4.584154e+00 1.023320e+00
<GCONST> 1.098985e+02
<TRANSP> 5
 0.000000e+00 1.000000e+00 0.000000e+00 0.000000e+00 0.000000e+00
 0.000000e+00 6.980577e-01 3.019423e-01 0.000000e+00 0.000000e+00
 0.000000e+00 0.000000e+00 8.005415e-01 1.994585e-01 0.000000e+00
 0.000000e+00 0.000000e+00 0.000000e+00 6.919261e-01 3.080739e-01
 0.000000e+00 0.000000e+00 0.000000e+00 0.000000e+00 0.000000e+00
<ENDHMM>
~h "q"
<BEGINHMM>
<NUMSTATES> 5
<STATE> 2
<MEAN> 26
 -1.308173e+00 -3.540022e+00 5.374527e+00 -1.546235e+01 -6.504408e+00 3.878710e+00 -1.798765e+01 -6.239535e+00 -9.175850e+00 3.081043e+00 4.300954e+00 -6.058472e+00 2.033822e+01 1.132727e+00 -1.431764e+00 2.001909e-01 -7.188893e-01 -1.486810e+00 4.847845e-01 -2.945798e+00 4.650967e-01 -1.016286e+00 1.086161e+00 1.877688e+00 -1.649102e+00 3.949459e-01
<VARIANCE> 26
 1.979124e+01 3.157056e+01 4.009486e+01 7.293984e+01 4.691183e+01 6.386871e+01 9.165190e+01 5.024125e+01 2.828970e+01 4.957990e+01 3.356099e+01 4.398906e+01 1.174789e+00 3.373893e+00 1.956087e+00 2.467317e+00 4.118491e+00 5.840601e+00 3.910878e+00 7.368216e+00 3.540592e+00 3.957015e+00 3.466487e+00 3.992133e+00 3.730357e+00 1.467211e-01
<GCONST> 1.073435e+02
<STATE> 3
<MEAN> 26
 -1.008771e+00 -6.099046e+00 7.369214e+00 -1.263542e+01 -6.650156e+00 1.171239e+00 -2.553802e+01 -2.786026e+00 -9.276035e+00 3.189258e+00 6.837731e+00 -1.049694e+01 2.071043e+01 1.998933e-01 6.666282e-01 -1.972983e-01 6.977040e-01 6.103518e-01 -2.898283e-01 9.200000e-01 1.590471e-01 -3.749601e-01 3.897076e-02 -3.962552e-01 4.316551e-01 -1.504424e-01
<VARIANCE> 26
 1.295261e+01 1.397895e+01 3.527303e+01 2.839472e+01 3.437410e+01 2.551739e+01 5.480646e+01 4.187335e+01 3.463920e+01 6.176785e+01 3.420191e+01 1.966893e+01 9.349202e-01 6.293877e-01 1.763616e+00 1.855903e+00 5.032638e+00 2.526485e+00 3.005660e+00 4.351885e+00 3.132478e+00 3.117620e+00 4.519489e+00 2.483401e+00 1.910119e+00 5.949871e-02
<GCONST> 9.687939e+01
<STATE> 4
<MEAN> 26
 -1.819966e+00 2.361397e-01 5.763934e-01 -6.600561e+00 4.399417e+00 -8.632472e-02 -4.771470e+00 -2.153631e+00 -5.729439e+00 1.071618e+00 2.958124e-01 -2.169758e+00 1.711451e+01 -7.489171e-01 1.247771e+00 -1.266973e-01 2.090338e+00 4.250440e-01 3.650503e-01 2.530653e+00 7.141698e-02 1.309180e+00 -7.031618e-01 -5.061905e-01 6.893139e-01 -6.089111e-01
<VARIANCE> 26
 5.134412e+01 2.686152e+01 5.095466e+01 7.697141e+01 6.747517e+01 5.579396e+01 1.400081e+02 4.223863e+01 5.431806e+01 7.240371e+01 4.449746e+01 3.001646e+01 7.712673e+00 3.715161e+00 3.818886e+00 2.196580e+00 4.242251e+00 4.065432e+00 4.480301e+00 6.317481e+00 4.215223e+00 4.676246e+00 3.592701e+00 3.445519e+00 2.858176e+00 2.601908e-01
<GCONST> 1.125550e+02
<TRANSP> 5
 0.000000e+00 1.000000e+00 0.000000e+00 0.000000e+00 0.000000e+00
 0.000000e+00 5.341293e-01 4.658707e-01 0.000000e+00 0.000000e+00
 0.000000e+00 0.000000e+00 7.304934e-01 2.695066e-01 0.000000e+00
 0.000000e+00 0.000000e+00 0.000000e+00 7.450849e-01 2.549151e-01
 0.000000e+00 0.000000e+00 0.000000e+00 0.000000e+00 0.000000e+00
<ENDHMM>
~h "r"
<BEGINHMM>
<NUMSTATES> 5
<STATE> 2
<MEAN> 26
 -2.876142e+00 -8.687342e-01 -2.421315e+00 -2.112155e+01 8.973019e-01 7.253578e+00 -5.295139e+00 -8.506229e+00 -3.412131e+00 3.856638e+00 -1.167698e+00 -1.217764e+00 1.890314e+01 -7.666779e-01 1.907717e+00 -7.676751e-01 5.527091e-01 1.379407e+00 1.162208e+00 8.767201e-01 -6.363337e-01 1.440969e+00 -6.189988e-01 -2.712547e-01 1.280712e+00 -3.825127e-01
<VARIANCE> 26
 2.217971e+01 4.524199e+01 2.533461e+01 5.209918e+01 8.676460e+01 3.936140e+01 5.634363e+01 4.152542e+01 5.286588e+01 5.239852e+01 3.796893e+01 3.175611e+01 2.688040e+00 2.429046e+00 3.168297e+00 2.478626e+00 6.018728e+00 5.013524e+00 5.087347e+00 5.185058e+00 4.385512e+00 4.268791e+00 3.775739e+00 3.998883e+00 3.316725e+00 3.357576e-01
<GCONST> 1.091652e+02
<STATE> 3
<MEAN> 26
 -9.008104e+00 3.055946e-01 -5.719370e+00 -1.475085e+01 7.049376e+00 1.052117e+01 -3.170786e+00 -5.345421e+00 5.201958e-01 9.281300e-01 7.115687e-01 2.023792e+00 1.599698e+01 -2.326265e-01 4.548641e-02 -3.051446e-02 5.891637e-01 -3.230419e-01 -5.600967e-01 2.160079e-01 4.431469e-01 -4.688043e-02 -1.123034e-01 1.203735e-01 6.081228e-02 -2.076986e-01
<VARIANCE> 26
 1.589961e+01 2.200189e+01 1.635263e+01 4.689096e+01 8.273241e+01 4.564240e+01 4.587412e+01 3.419674e+01 3.591291e+01 4.043224e+01 2.862888e+01 2.308895e+01 7.094978e+00 1.594816e+00 1.229415e+00 1.690138e+00 2.387125e+00 3.276696e+00 3.471246e+00 2.724747e+00 3.205071e+00 2.716587e+00 3.097572e+00 2.654716e+00 1.951728e+00 1.094423e-01
<GCONST> 9.984216e+01
<STATE> 4
<MEAN> 26
 -4.077823e+00 3.225931e+00 -1.141668e+00 -1.666910e+01 -8.827336e-01 4.199078e+00 -4.323685e+00 -6.327177e+00 -1.991204e+00 1.086830e+00 -7.833431e-02 6.699165e-01 1.791078e+01 8.598610e-01 -6.263814e-01 1.154571e+00 8.496755e-01 -1.608849e+00 -9.644496e-01 -5.894949e-01 3.396978e-01 -1.322784e+00 -3.912352e-02 3.062978e-01 -9.883217e-01 1.800647e-01
<VARIANCE> 26
 3.892391e+01 5.357586e+01 4.592522e+01 8.244789e+01 9.445099e+01 4.107556e+01 6.191132e+01 4.967125e+01 6.183932e+01 3.634640e+01 3.025242e+01 3.481649e+01 5.722017e+00 3.512347e+00 3.782773e+00 3.988078e+00 9.709983e+00 7.595973e+00 4.040679e+00 4.188433e+00 4.321687e+00 5.383289e+00 3.510252e+00 3.320118e+00 3.062545e+00 5.847057e-01
<GCONST> 1.136678e+02
<TRANSP> 5
 0.000000e+00 1.000000e+00 0.000000e+00 0.000000e+00 0.000000e+00
 0.000000e+00 6.770771e-01 3.229229e-01 0.000000e+00 0.000000e+00
 0.000000e+00 0.000000e+00 7.431697e-01 2.568303e-01 0.000000e+00
 0.000000e+00 0.000000e+00 0.000000e+00 6.330505e-01 3.669495e-01
 0.000000e+00 0.000000e+00 0.000000e+00 0.000000e+00 0.000000e+00
<ENDHMM>
~h "s"
<BEGINHMM>
<NUMSTATES> 5
<STATE> 2
<MEAN> 26
 -1.809841e+01 3.396456e+00 -8.939723e-01 -7.044884e+00 2.899314e+00 -2.140755e+00 -1.852266e+00 -1.638395e+00 -2.555615e+00 1.708110e+00 -1.125086e+00 6.756527e-01 1.595547e+01 -3.681002e+00 -4.017354e-01 -1.923851e+00 -5.285085e-01 2.285265e-01 4.347644e-01 4.875661e-01 3.091191e-01 7.853286e-01 5.837659e-01 3.123157e-01 1.087249e+00 -2.157302e-01
<VARIANCE> 26
 5.159896e+01 3.384011e+01 3.828308e+01 3.618391e+01 3.185380e+01 4.099766e+01 2.881619e+01 3.662129e+01 3.392001e+01 2.597276e+01 2.648911e+01 2.183287e+01 7.014294e+00 4.673420e+00 3.951310e+00 5.468795e+00 5.854435e+00 4.481403e+00 5.207248e+00 4.330999e+00 3.229355e+00 4.267021e+00 2.775459e+00 2.771750e+00 2.672900e+00 4.213764e-01
<GCONST> 1.074894e+02
<STATE> 3
<MEAN> 26
 -2.822244e+01 1.738369e+00 -8.657245e+00 -1.140361e+01 -3.373648e-01 -1.464375e+00 -3.972346e+00 -2.453331e+00 -3.369312e+00 2.651027e+00 3.436342e-01 3.636818e+00 1.669683e+01 -1.427953e-01 1.710286e-03 1.355539e-01 -1.541201e-01 -2.066200e-01 1.984566e-02 -2.209705e-01 -2.164598e-01 -2.290562e-02 -7.513937e-02 -4.654100e-02 6.836230e-02 5.642717e-02
<VARIANCE> 26
 6.020929e+00 9.160188e+00 2.454498e+01 3.053770e+01 2.937245e+01 2.816213e+01 2.123195e+01 2.471522e+01 2.104644e+01 1.778689e+01 1.365215e+01 1.354894e+01 9.059533e-01 8.243786e-01 8.059527e-01 2.050064e+00 1.391466e+00 1.917637e+00 2.098223e+00 1.764392e+00 1.821635e+00 1.804344e+00 1.773093e+00 1.527303e+00 1.482979e+00 4.914575e-02
<GCONST> 8.460857e+01
<STATE> 4
<MEAN> 26
 -1.881068e+01 1.596736e+00 7.952739e-01 -1.059037e+01 1.657535e-01 -1.950761e+00 -6.194067e+00 -4.201767e+00 -4.483448e+00 1.508600e+00 -1.538397e+00 2.888803e-01 1.713678e+01 4.681192e+00 -6.769907e-01 2.830052e+00 1.773678e-02 -1.031155e+00 -5.171994e-01 -2.035253e+00 4.135722e-02 -1.597718e+00 -5.723155e-01 1.795401e-01 -1.682235e+00 3.637224e-01
<VARIANCE> 26
 8.814678e+01 3.412112e+01 5.876497e+01 4.068087e+01 4.586799e+01 5.417845e+01 4.759141e+01 3.364583e+01 3.014780e+01 3.096774e+01 2.216329e+01 3.235382e+01 5.951782e+00 5.082832e+00 5.485267e+00 5.833500e+00 7.851647e+00 4.046764e+00 6.568123e+00 7.051820e+00 4.267559e+00 3.898844e+00 5.649939e+00 3.753584e+00 4.019511e+00 6.598236e-01
<GCONST> 1.131947e+02
<TRANSP> 5
 0.000000e+00 1.000000e+00 0.000000e+00 0.000000e+00 0.000000e+00
 0.000000e+00 7.448875e-01 2.551125e-01 0.000000e+00 0.000000e+00
 0.000000e+00 0.000000e+00 8.910706e-01 1.089294e-01 0.000000e+00
 0.000000e+00 0.000000e+00 0.000000e+00 7.230232e-01 2.769768e-01
 0.000000e+00 0.000000e+00 0.000000e+00 0.000000e+00 0.000000e+00
<ENDHMM>
~h "t"
<BEGINHMM>
<NUMSTATES> 5
<STATE> 2
<MEAN> 26
 -4.603888e+00 8.073277e+00 5.738760e+00 2.293734e+00 9.166827e-02 -2.559968e+00 -4.582720e+00 -2.710893e+00 -6.582410e+00 -1.727402e+00 -2.214275e+00 -4.332483e+00 1.464166e+01 -2.093555e+00 1.638359e-01 -1.167317e+00 1.710283e+00 9.969662e-01 8.819393e-01 1.353451e+00 3.835522e-01 1.547984e+00 -6.735785e-01 -1.234840e-01 2.155585e-01 -1.685783e+00
<VARIANCE> 26
 4.289860e+01 3.418690e+01 3.599047e+01 3.194003e+01 3.712721e+01 3.693117e+01 3.485159e+01 2.911967e+01 4.440159e+01 3.186006e+01 2.434496e+01 2.168806e+01 8.665132e+00 4.151171e+00 8.825660e+00 4.165201e+00 8.895695e+00 3.878889e+00 4.840688e+00 3.638431e+00 3.829766e+00 3.557214e+00 3.061355e+00 3.015830e+00 2.729731e+00 5.046605e-01
<GCONST> 1.085439e+02
<STATE> 3
<MEAN> 26
 -1.356825e+01 2.390825e+00 3.772931e-01 1.171458e+00 1.976342e+00 1.617346e+00 -1.782810e-01 1.744051e+00 3.740200e-02 1.507203e+00 1.423821e+00 -4.584404e-01 1.012407e+01 -7.061565e-01 -1.465093e+00 -5.576435e-01 -1.583789e+00 -2.676074e-01 2.210268e-01 1.019253e-01 -9.282789e-02 4.297359e-01 4.673801e-01 2.720216e-01 7.539865e-01 2.839272e-01
<VARIANCE> 26
 4.428864e+00 7.332737e+00 7.633419e+00 1.471177e+01 1.108929e+01 1.336908e+01 1.552491e+01 1.812143e+01 1.817770e+01 1.612203e+01 1.692721e+01 1.556426e+01 2.742542e+00 1.908474e+00 3.778588e+00 2.768908e+00 5.916763e+00 1.960309e+00 2.822609e+00 2.198231e+00 3.027416e+00 3.244958e+00 2.273258e+00 1.964101e+00 2.623997e+00 1.028464e+00
<GCONST> 9.093225e+01
<STATE> 4
<MEAN> 26
 -1.568263e+01 -3.531303e+00 2.379259e-01 -1.220580e+01 6.802422e-01 -1.736514e+00 -5.648766e+00 -3.859867e+00 -2.300099e+00 2.421477e+00 -3.455144e-01 2.183772e+00 1.666052e+01 9.258974e-01 -1.049187e-01 7.543768e-01 -1.604489e+00 -2.076277e-01 -5.926388e-01 -1.941885e+00 -2.213883e-01 -8.576937e-01 2.165808e-01 -5.396361e-02 -6.642024e-01 1.222076e+00
<VARIANCE> 26
 4.349489e+01 4.060552e+01 4.797335e+01 3.907091e+01 4.095847e+01 4.577740e+01 4.235081e+01 3.366689e+01 3.652559e+01 2.715582e+01 2.434412e+01 3.051330e+01 4.159068e+00 7.076184e+00 5.196835e+00 6.919458e+00 7.614023e+00 5.209661e+00 5.080410e+00 5.947302e+00 5.058835e+00 4.936478e+00 4.980472e+00 3.085510e+00 5.507137e+00 8.121893e-01
<GCONST> 1.126076e+02
<TRANSP> 5
 0.000000e+00 1.000000e+00 0.000000e+00 0.000000e+00 0.000000e+00
 0.000000e+00 6.349364e-01 3.650636e-01 0.000000e+00 0.000000e+00
 0.000000e+00 0.000000e+00 7.527847e-01 2.472153e-01 0.000000e+00
 0.000000e+00 0.000000e+00 0.000000e+00 7.806572e-01 2.193428e-01
 0.000000e+00 0.000000e+00 0.000000e+00 0.000000e+00 0.000000e+00
<ENDHMM>
~h "u"
<BEGINHMM>
<NUMSTATES> 5
<STATE> 2
<MEAN> 26
 -5.721761e-01 3.960932e+00 1.031761e+00 -1.210465e+01 -5.060701e+00 2.411451e+00 -1.027983e+01 -5.655132e+00 -1.075382e+01 -7.384451e+00 3.993040e+00 -4.860101e+00 1.860649e+01 3.236522e+00 1.855856e+00 1.713649e-01 -3.222001e+00 -2.960491e+00 1.084605e+00 -1.673430e+00 -3.462414e-01 -2.181340e+00 -2.953589e+00 1.671621e+00 -1.339894e+00 9.679033e-01
<VARIANCE> 26
 2.946889e+01 3.101102e+01 1.522792e+01 5.547781e+01 6.169793e+01 4.560445e+01 5.533176e+01 7.894266e+01 3.525246e+01 5.498542e+01 5.662963e+01 4.719647e+01 8.086400e+00 4.023860e+00 2.479985e+00 2.040464e+00 4.136308e+00 7.048304e+00 5.537043e+00 4.147647e+00 6.735145e+00 4.840622e+00 5.882026e+00 5.163805e+00 5.161947e+00 6.488228e-01
<GCONST> 1.128435e+02
<STATE> 3
<MEAN> 26
 3.624444e+00 4.961385e+00 9.942680e-01 -1.758505e+01 -1.368580e+01 6.244961e+00 -1.131636e+01 -5.342553e+00 -1.321376e+01 -1.460019e+01 6.696307e+00 -6.884547e+00 2.052266e+01 8.685252e-02 1.584642e-01 -7.219227e-02 -4.490952e-01 -4.806015e-01 1.454658e-01 1.450026e-01 2.308746e-01 -2.787295e-01 1.717844e-01 -2.168218e-01 -2.317627e-01 3.263566e-04
<VARIANCE> 26
 1.077036e+01 1.480354e+01 1.435686e+01 1.005492e+02 4.600661e+01 3.713453e+01 2.903548e+01 4.880760e+01 3.996432e+01 5.683102e+01 5.508281e+01 4.891510e+01 4.513538e-01 5.591928e-01 1.254264e+00 1.086073e+00 2.420089e+00 2.773549e+00 2.378671e+00 2.751094e+00 3.292131e+00 3.041800e+00 3.457349e+00 2.791350e+00 2.269862e+00 2.396102e-02
<GCONST> 9.483229e+01
<STATE> 4
<MEAN> 26
 1.586609e+00 5.302847e+00 1.944977e+00 -1.496869e+01 -8.409067e+00 3.670504e+00 -1.007755e+01 -7.883061e+00 -1.383350e+01 -6.981296e+00 3.004577e+00 -4.519496e+00 1.932965e+01 -1.309361e+00 -2.050557e-01 1.254804e-01 1.023753e+00 1.790244e+00 -6.318423e-01 8.906050e-01 -1.356772e+00 1.578150e+00 2.151879e+00 -1.731865e+00 1.444436e+00 -4.514380e-01
<VARIANCE> 26
 1.973025e+01 2.357321e+01 2.805617e+01 1.271782e+02 7.010310e+01 5.375036e+01 5.222479e+01 1.122780e+02 7.931973e+01 5.032898e+01 5.632056e+01 4.799133e+01 2.395014e+00 1.723387e+00 1.899617e+00 3.220333e+00 5.237524e+00 6.561121e+00 4.459548e+00 6.228354e+00 5.586593e+00 5.634771e+00 7.382434e+00 5.714012e+00 4.405193e+00 2.436040e-01
<GCONST> 1.125638e+02
<TRANSP> 5
 0.000000e+00 1.000000e+00 0.000000e+00 0.000000e+00 0.000000e+00
 0.000000e+00 5.681949e-01 4.318050e-01 0.000000e+00 0.000000e+00
 0.000000e+00 0.000000e+00 8.424696e-01 1.575304e-01 0.000000e+00
 0.000000e+00 0.000000e+00 0.000000e+00 6.904857e-01 3.095143e-01
 0.000000e+00 0.000000e+00 0.000000e+00 0.000000e+00 0.000000e+00
<ENDHMM>
~h "v"
<BEGINHMM>
<NUMSTATES> 5
<STATE> 2
<MEAN> 26
 -1.707238e+00 2.735132e+00 3.361807e+00 -6.187034e+00 3.178703e+00 8.967420e-01 -1.006093e+01 -7.042068e+00 -8.438085e+00 3.305074e+00 3.919805e+00 -7.819464e-01 1.809722e+01 -7.632087e-01 1.443826e+00 4.539261e-01 1.339105e+00 1.658003e+00 8.020355e-01 9.372526e-01 -1.304663e+00 2.118561e-01 -1.829845e-01 -4.387319e-01 6.006377e-01 -9.306931e-02
<VARIANCE> 26
 1.727647e+01 1.176770e+01 1.545827e+01 3.042062e+01 2.344319e+01 3.542064e+01 3.383670e+01 2.926484e+01 3.256292e+01 2.864101e+01 1.879839e+01 1.299824e+01 3.983161e+00 4.148443e+00 2.299726e+00 1.756729e+00 5.745760e+00 2.301325e+00 2.046084e+00 5.574059e+00 2.586852e+00 4.360100e+00 2.986976e+00 2.148019e+00 1.426285e+00 5.111262e-01
<GCONST> 9.839191e+01
<STATE> 3
<MEAN> 26
 -8.340189e+00 7.517369e+00 6.706881e+00 2.550930e-01 7.120712e+00 4.457760e+00 -5.571446e+00 -8.052094e+00 -7.438069e+00 1.530341e+00 -5.637757e-01 6.536199e-01 1.753636e+01 -8.412836e-01 -2.930884e-01 1.182094e-01 1.862553e-02 -1.569155e-01 1.632022e-01 3.829930e-01 3.488467e-01 6.199513e-02 -2.715746e-01 -5.479425e-01 8.508299e-02 -5.476775e-02
<VARIANCE> 26
 7.727380e+00 7.074325e+00 1.992049e+01 1.652292e+01 1.762831e+01 2.134355e+01 2.213529e+01 1.923459e+01 1.754936e+01 1.193009e+01 1.509265e+01 8.605198e+00 2.627606e-01 1.028132e+00 1.583077e+00 1.533806e+00 1.801980e+00 1.712320e+00 1.469988e+00 1.772215e+00 1.905784e+00 1.162290e+00 1.522886e+00 1.720816e+00 1.016183e+00 4.096603e-02
<GCONST> 8.001964e+01
<STATE> 4
<MEAN> 26
 -5.737860e+00 7.258571e-01 3.560666e+00 -8.127171e+00 1.307966e+00 3.463617e+00 -9.076454e+00 -5.597934e+00 -6.876158e+00 4.216343e-01 2.231974e+00 -1.091076e+00 1.876411e+01 1.692778e+00 -2.310136e+00 -1.398481e-01 -3.208624e+00 -2.753598e+00 -5.855830e-01 -2.974568e+00 1.443924e+00 -7.558005e-02 9.222120e-02 1.502942e+00 -1.412413e+00 6.288177e-01
<VARIANCE> 26
 1.568806e+01 2.191527e+01 2.780397e+01 3.771776e+01 2.743521e+01 3.052110e+01 4.578706e+01 2.047470e+01 1.990534e+01 2.560471e+01 2.776275e+01 1.936322e+01 9.574420e-01 1.521897e+00 2.618719e+00 2.994220e+00 2.491161e+00 2.865788e+00 4.003527e+00 3.459707e+00 3.435154e+00 1.719310e+00 5.042418e+00 2.672324e+00 1.886958e+00 8.396418e-02
<GCONST> 9.623869e+01
<TRANSP> 5
 0.000000e+00 1.000000e+00 0.000000e+00 0.000000e+00 0.000000e+00
 0.000000e+00 7.008603e-01 2.991397e-01 0.000000e+00 0.000000e+00
 0.000000e+00 0.000000e+00 7.782050e-01 2.217950e-01 0.000000e+00
 0.000000e+00 0.000000e+00 0.000000e+00 6.499525e-01 3.500475e-01
 0.000000e+00 0.000000e+00 0.000000e+00 0.000000e+00 0.000000e+00
<ENDHMM>
~h "w"
<BEGINHMM>
<NUMSTATES> 5
<STATE> 2
<MEAN> 26
 7.717102e-01 4.051657e+00 1.204656e+00 -1.479352e+01 -7.553277e+00 3.397527e+00 -6.029394e+00 -1.368713e+00 -1.021301e+01 -5.553783e+00 4.986720e+00 -3.186216e+00 1.849726e+01 2.881536e+00 7.112486e-01 1.559541e-01 -2.503958e+00 -2.177812e+00 3.985779e-01 -1.578273e+00 1.867918e+00 -2.361235e+00 -1.589811e+00 8.172097e-01 -1.831122e+00 7.416803e-01
<VARIANCE> 26
 3.459459e+01 3.197184e+01 1.967705e+01 7.537816e+01 4.780215e+01 5.205304e+01 5.249495e+01 7.129942e+01 6.756654e+01 4.254348e+01 5.381580e+01 4.243866e+01 6.967880e+00 5.293548e+00 3.967734e+00 2.323893e+00 5.479447e+00 4.278214e+00 4.364468e+00 5.201460e+00 4.192137e+00 5.911904e+00 5.084907e+00 3.477406e+00 3.422880e+00 4.783501e-01
<GCONST> 1.125216e+02
<STATE> 3
<MEAN> 26
 5.510215e+00 3.174031e+00 9.496776e-01 -1.640495e+01 -1.186723e+01 5.310270e+00 -8.774909e+00 5.177280e-01 -1.319145e+01 -6.811059e+00 5.216559e+00 -6.319409e+00 2.012501e+01 -3.970367e-03 -3.913856e-01 -2.423826e-02 -6.303613e-01 -3.786112e-01 1.198615e-01 -1.447570e-01 4.118656e-01 -2.812589e-01 5.289784e-01 1.073468e-01 7.262695e-02 9.251365e-02
<VARIANCE> 26
 1.543633e+01 2.412302e+01 1.904107e+01 8.264298e+01 3.850375e+01 4.933088e+01 3.386481e+01 4.174995e+01 4.272641e+01 3.339066e+01 4.156412e+01 2.716935e+01 5.729397e-01 1.014511e+00 1.400666e+00 2.029197e+00 3.701622e+00 2.861512e+00 2.736587e+00 2.333414e+00 2.757444e+00 2.543278e+00 2.359507e+00 2.487020e+00 2.070479e+00 6.195285e-02
<GCONST> 9.654151e+01
<STATE> 4
<MEAN> 26
 2.353122e+00 -6.258613e+00 -4.124365e+00 -2.598463e+01 -7.434874e+00 1.124746e+01 -1.029569e+01 2.661761e+00 -1.348717e+01 -1.045388e+00 7.017501e+00 -5.558145e+00 2.147450e+01 -4.461336e-01 -1.459927e+00 -7.568212e-01 1.461978e-01 1.991167e+00 4.296186e-02 -4.641068e-01 -3.090304e-01 1.834135e-01 8.657371e-01 -8.393643e-02 -6.870335e-01 1.159915e-01
<VARIANCE> 26
 9.499133e+00 2.949704e+01 3.100751e+01 9.086626e+01 6.297618e+01 2.745711e+01 5.657426e+01 3.626017e+01 2.809733e+01 4.866810e+01 4.693657e+01 2.366216e+01 6.353230e-01 4.568146e-01 1.205610e+00 2.155730e+00 3.213567e+00 2.158167e+00 2.363390e+00 2.768789e+00 2.607783e+00 2.319792e+00 3.289881e+00 2.743700e+00 2.369785e+00 3.544576e-02
<GCONST> 9.573530e+01
<TRANSP> 5
 0.000000e+00 1.000000e+00 0.000000e+00 0.000000e+00 0.000000e+00
 0.000000e+00 4.692683e-01 5.307317e-01 0.000000e+00 0.000000e+00
 0.000000e+00 0.000000e+00 8.434437e-01 1.565563e-01 0.000000e+00
 0.000000e+00 0.000000e+00 0.000000e+00 7.794048e-01 2.205952e-01
 0.000000e+00 0.000000e+00 0.000000e+00 0.000000e+00 0.000000e+00
<ENDHMM>
~h "x"
<BEGINHMM>
<NUMSTATES> 5
<STATE> 2
<MEAN> 26
 -8.105273e-01 -4.504424e+00 3.952635e+00 -1.121267e+01 -5.332638e+00 2.409230e+00 -2.435215e+01 -9.487068e+00 -1.048747e+01 6.484190e-01 1.180356e+01 -8.881348e+00 2.032205e+01 1.818500e+00 -5.970457e-01 -3.950060e-01 -1.726653e+00 -1.677510e+00 2.140120e+00 -4.098263e+00 -4.625047e-02 -1.440125e+00 7.038349e-01 2.825182e+00 -2.148998e+00 8.080842e-01
<VARIANCE> 26
 3.554685e+00 7.017021e+00 1.098692e+01 2.703226e+01 1.509928e+01 3.436640e+01 4.411187e+01 3.150967e+01 6.253839e+01 5.104204e+01 1.859148e+01 2.158264e+01 1.057338e+00 2.346089e+00 1.351564e+00 1.033879e+00 2.075887e+00 1.716662e+00 2.240315e+00 5.373443e+00 4.001052e+00 5.279634e+00 3.838922e+00 2.644681e+00 2.225184e+00 7.966328e-01
<GCONST> 9.518949e+01
<STATE> 3
<MEAN> 26
 -1.085350e-01 -4.942482e+00 2.282641e+00 -1.246390e+01 -9.633096e+00 7.325350e+00 -2.898842e+01 -1.036255e+01 -9.410214e+00 2.445745e-02 1.586384e+01 -1.243238e+01 2.132038e+01 -3.413356e-02 7.919575e-02 -8.263785e-03 -1.617498e-01 -2.729281e-02 2.292743e-02 1.530630e-01 -2.198519e-01 -1.950919e-01 1.012338e-02 -2.320087e-01 -3.693087e-02 -9.188348e-04
<VARIANCE> 26
 1.939940e+00 5.391657e+00 7.105738e+00 2.410944e+01 9.707845e+00 1.687888e+01 1.226280e+01 1.800200e+01 2.057379e+01 1.741278e+01 8.801369e+00 2.252682e+01 2.346386e-01 1.809114e-01 4.769963e-01 1.523848e+00 1.228812e+00 1.206084e+00 1.190736e+00 1.012019e+00 1.038547e+00 1.852931e+00 1.104148e+00 1.124749e+00 1.486707e+00 1.146162e-02
<GCONST> 7.084322e+01
<STATE> 4
<MEAN> 26
 4.280691e-01 -1.954638e+00 4.920922e+00 -1.138533e+01 -8.821908e-01 3.698531e+00 -2.030278e+01 -6.242655e+00 -1.144243e+01 2.571602e+00 7.917134e+00 -8.305685e+00 1.960244e+01 -3.527425e-01 1.486390e+00 2.215104e-01 1.047814e+00 2.067998e+00 -5.808901e-01 3.312054e+00 4.770407e-01 2.438234e-02 3.536409e-01 -2.061362e+00 1.250497e+00 -5.733254e-01
<VARIANCE> 26
 7.676624e+00 1.751279e+01 1.469004e+01 5.032321e+01 3.639979e+01 3.103510e+01 7.649280e+01 4.999920e+01 4.016320e+01 4.372633e+01 3.142557e+01 2.125691e+01 2.054364e+00 1.175636e+00 2.541750e+00 2.274245e+00 5.795588e+00 2.643018e+00 3.460426e+00 3.260296e+00 1.507906e+00 2.003536e+00 4.245821e+00 2.679142e+00 1.825278e+00 1.182232e-01
<GCONST> 9.833777e+01
<TRANSP> 5
 0.000000e+00 1.000000e+00 0.000000e+00 0.000000e+00 0.000000e+00
 0.000000e+00 6.243981e-01 3.756019e-01 0.000000e+00 0.000000e+00
 0.000000e+00 0.000000e+00 8.397395e-01 1.602605e-01 0.000000e+00
 0.000000e+00 0.000000e+00 0.000000e+00 7.434421e-01 2.565579e-01
 0.000000e+00 0.000000e+00 0.000000e+00 0.000000e+00 0.000000e+00
<ENDHMM>
~h "y"
<BEGINHMM>
<NUMSTATES> 5
<STATE> 2
<MEAN> 26
 -7.407483e+00 -7.605803e-01 1.393903e+01 4.808458e+00 -6.359099e+00 -6.928797e+00 -1.123523e+01 5.764838e-01 -1.282890e+01 -8.562407e+00 -1.186631e-01 2.208231e+00 1.799985e+01 1.572157e+00 -3.397304e-01 2.054596e+00 1.018046e+00 -6.902006e-01 -2.078776e+00 -3.087191e+00 1.373606e+00 -1.553127e+00 -3.412004e+00 1.056094e+00 7.015922e-01 8.093434e-01
<VARIANCE> 26
 2.229676e+01 2.378398e+01 4.531943e+01 2.522441e+01 2.982977e+01 4.696978e+01 9.332274e+01 4.851351e+01 6.039593e+01 7.100729e+01 2.642545e+01 2.758380e+01 7.033209e+00 4.316370e+00 2.638776e+00 4.253512e+00 2.911132e+00 2.359729e+00 5.352984e+00 7.483168e+00 2.820477e+00 6.269085e+00 5.079734e+00 2.778620e+00 2.691131e+00 5.569337e-01
<GCONST> 1.090909e+02
<STATE> 3
<MEAN> 26
 -3.051642e+00 -4.420946e+00 1.583275e+01 4.963286e+00 -1.037805e+01 -7.552784e+00 -2.104582e+01 2.906327e+00 -1.313349e+01 -1.988250e+01 4.701074e+00 2.131780e+00 2.020207e+01 2.382830e-01 -2.201315e-01 -2.328064e-01 -7.595984e-01 -6.002739e-01 4.761297e-01 -4.157314e-01 -2.531048e-02 2.134250e-01 9.617773e-02 2.189886e-01 -5.866931e-01 9.208839e-02
<VARIANCE> 26
 7.179413e+00 1.545221e+01 2.041695e+01 2.668653e+01 2.938434e+01 1.957226e+01 3.984309e+01 3.961272e+01 4.034368e+01 3.414880e+01 2.196408e+01 2.303920e+01 3.826025e-01 7.496792e-01 1.013096e+00 2.534689e+00 2.510442e+00 2.576014e+00 2.808442e+00 4.912895e+00 2.740977e+00 2.221122e+00 4.740393e+00 1.687770e+00 1.724964e+00 3.610493e-02
<GCONST> 9.126288e+01
<STATE> 4
<MEAN> 26
 -2.685249e+00 -2.314935e+00 1.299848e+01 -3.100721e+00 -1.112023e+01 -7.606722e-01 -1.627768e+01 -3.841948e+00 -1.104982e+01 -6.977177e+00 2.553810e+00 -2.827047e+00 1.970061e+01 -7.833256e-02 1.279263e+00 -1.681016e+00 -1.169237e+00 6.536768e-01 2.095402e+00 1.993327e+00 -2.029483e+00 7.684792e-01 2.799597e+00 -9.456202e-01 -6.638978e-01 -3.098240e-01
<VARIANCE> 26
 1.748356e+01 2.825289e+01 7.284523e+01 7.656829e+01 3.453054e+01 1.021602e+02 8.237147e+01 4.845968e+01 4.970977e+01 8.880247e+01 4.715388e+01 3.879577e+01 3.139936e+00 2.006320e+00 3.166864e+00 3.606523e+00 5.277230e+00 3.456587e+00 6.368131e+00 4.997219e+00 4.489734e+00 5.404795e+00 4.299181e+00 3.604210e+00 5.786077e+00 2.494187e-01
<GCONST> 1.119148e+02
<TRANSP> 5
 0.000000e+00 1.000000e+00 0.000000e+00 0.000000e+00 0.000000e+00
 0.000000e+00 6.123360e-01 3.876640e-01 0.000000e+00 0.000000e+00
 0.000000e+00 0.000000e+00 7.804485e-01 2.195515e-01 0.000000e+00
 0.000000e+00 0.000000e+00 0.000000e+00 7.399701e-01 2.600299e-01
 0.000000e+00 0.000000e+00 0.000000e+00 0.000000e+00 0.000000e+00
<ENDHMM>
~h "z"
<BEGINHMM>
<NUMSTATES> 5
<STATE> 2
<MEAN> 26
 -9.420648e+00 9.781871e+00 3.645064e+00 -4.296222e+00 1.475145e+00 -6.448109e+00 -1.053767e+01 -7.767939e+00 -7.805325e+00 1.943575e+00 -1.754041e+00 -3.514797e+00 1.902705e+01 -2.318799e+00 2.865708e+00 -9.442798e-01 1.581573e+00 1.962869e+00 -8.954335e-02 1.757751e+00 -3.234234e-01 1.318070e+00 1.897648e-01 -1.322423e+00 1.628901e+00 -4.314805e-01
<VARIANCE> 26
 1.175025e+01 2.687643e+01 2.859696e+01 5.417265e+01 3.927795e+01 3.530934e+01 3.108586e+01 2.747597e+01 2.689958e+01 3.970856e+01 2.399076e+01 2.778144e+01 6.027894e-01 7.617787e-01 1.986992e+00 2.746527e+00 3.186948e+00 2.840494e+00 3.906926e+00 3.348984e+00 2.623137e+00 2.639603e+00 2.043312e+00 3.050719e+00 1.553500e+00 3.324768e-02
<GCONST> 9.484080e+01
<STATE> 3
<MEAN> 26
 -1.666852e+01 1.441120e+01 3.018210e+00 1.320219e-01 3.970975e+00 -3.086119e+00 -5.355814e+00 -7.278775e+00 -5.483625e+00 -1.053841e-01 -3.557730e+00 1.367083e+00 1.782759e+01 -3.644977e-01 -4.590907e-01 1.366956e-01 -3.957890e-01 1.232247e-01 9.768002e-02 1.785345e-01 -4.867642e-01 2.232961e-01 2.614479e-01 -9.561824e-03 1.122755e-01 -2.297682e-02
<VARIANCE> 26
 8.269809e+00 9.577429e+00 3.202724e+01 3.209857e+01 3.313755e+01 3.063100e+01 2.369429e+01 2.163261e+01 1.870508e+01 3.470100e+01 1.850573e+01 1.803209e+01 6.153520e-01 1.863567e+00 1.111215e+00 1.459508e+00 1.781710e+00 1.947366e+00 3.727793e+00 2.274298e+00 1.682209e+00 1.222564e+00 2.433600e+00 9.993078e-01 1.669034e+00 5.388824e-02
<GCONST> 8.774332e+01
<STATE> 4
<MEAN> 26
 -8.683493e+00 4.983336e+00 2.844735e+00 -9.565617e+00 1.863623e+00 -6.405821e+00 -1.124800e+01 -7.311029e+00 -5.719139e+00 5.667805e+00 -1.775761e+00 -4.036058e+00 1.910104e+01 2.780851e+00 -3.725085e+00 5.181832e-01 -2.934100e+00 -1.510503e+00 1.423530e-01 -2.093251e+00 1.372945e+00 -4.789398e-01 1.103043e+00 1.051615e+00 -1.660346e+00 4.487430e-01
<VARIANCE> 26
 2.978904e+01 4.098935e+01 3.575315e+01 5.868942e+01 2.972035e+01 3.753532e+01 4.093878e+01 3.461939e+01 2.619351e+01 3.937834e+01 2.468986e+01 3.138171e+01 1.353347e+00 1.463980e+00 2.861351e+00 1.996536e+00 6.312292e+00 2.517248e+00 5.650618e+00 4.666388e+00 4.408315e+00 2.711227e+00 5.002027e+00 3.256734e+00 3.300402e+00 1.482756e-01
<GCONST> 1.034272e+02
<TRANSP> 5
 0.000000e+00 1.000000e+00 0.000000e+00 0.000000e+00 0.000000e+00
 0.000000e+00 6.710317e-01 3.289683e-01 0.000000e+00 0.000000e+00
 0.000000e+00 0.000000e+00 7.454658e-01 2.545342e-01 0.000000e+00
 0.000000e+00 0.000000e+00 0.000000e+00 7.168292e-01 2.831708e-01
 0.000000e+00 0.000000e+00 0.000000e+00 0.000000e+00 0.000000e+00
<ENDHMM>
~h "__"
<BEGINHMM>
<NUMSTATES> 5
<STATE> 2
<MEAN> 26
 -1.016805e+01 1.692573e+00 3.232498e-01 7.750936e-01 1.917195e+00 3.649505e+00 4.063367e-01 5.316830e-01 -1.447825e+00 -7.090890e-01 -8.363391e-01 5.097702e-01 1.197452e+01 -3.146309e-01 6.928271e-02 -2.441240e-01 -1.016301e-02 -2.190148e-01 -1.016737e-01 -5.211777e-03 2.190740e-01 1.695675e-01 3.484031e-01 4.534948e-01 2.062041e-01 -1.382724e-01
<VARIANCE> 26
 1.247522e+01 1.485482e+01 2.383030e+01 2.566232e+01 1.923805e+01 1.975057e+01 2.659109e+01 2.063936e+01 2.167306e+01 2.415645e+01 2.235108e+01 1.479380e+01 3.112723e+00 1.048075e+00 1.135774e+00 1.457178e+00 2.074430e+00 2.281691e+00 2.356785e+00 2.438277e+00 2.237245e+00 2.320181e+00 2.100275e+00 1.970954e+00 1.328475e+00 3.590073e-01
<GCONST> 9.104897e+01
<STATE> 3
<MEAN> 26
 -1.262089e+01 3.458734e+00 8.536343e-01 2.271702e+00 2.408812e+00 3.233522e+00 1.667388e+00 3.540445e+00 1.343754e+00 2.751680e+00 3.409317e+00 2.077829e+00 1.193528e+01 -6.450798e-02 -4.097614e-02 -7.894114e-02 -6.893766e-02 -3.801639e-02 -5.468056e-02 2.011174e-02 6.054015e-02 4.466240e-02 8.922896e-02 1.014543e-01 8.249717e-03 -6.045008e-02
<VARIANCE> 26
 2.452798e+00 4.469035e+00 7.740068e+00 1.160709e+01 9.900144e+00 1.048666e+01 1.281149e+01 1.438755e+01 1.431982e+01 1.413507e+01 1.264354e+01 1.110243e+01 2.043107e+00 2.219602e-01 3.990980e-01 5.286283e-01 1.130526e+00 9.742804e-01 1.059749e+00 1.286845e+00 1.473147e+00 1.372707e+00 1.363501e+00 1.344055e+00 1.174391e+00 4.875806e-02
<GCONST> 7.130106e+01
<STATE> 4
<MEAN> 26
 -1.335620e+01 2.135779e+00 -8.575273e-01 3.018958e-01 -2.134353e-01 4.257046e-01 -6.247496e-01 9.247991e-01 -1.448575e+00 -1.170441e-01 9.873765e-01 -4.190995e-01 8.669144e+00 -7.276168e-02 -3.373333e-02 1.160710e-01 -6.441817e-02 6.809263e-02 4.163172e-02 -6.753312e-02 1.672130e-02 8.223560e-02 2.557632e-02 4.398169e-03 -1.732927e-02 -5.094519e-03
<VARIANCE> 26
 3.248124e+00 2.899657e+00 5.356999e+00 6.276443e+00 8.628879e+00 1.003704e+01 1.073684e+01 1.316602e+01 1.455326e+01 1.379866e+01 1.196455e+01 1.070844e+01 8.237449e-01 3.100218e-01 3.478817e-01 5.988835e-01 7.989743e-01 9.058424e-01 1.060135e+00 1.261946e+00 1.373115e+00 1.435574e+00 1.402878e+00 1.395456e+00 1.212876e+00 5.852994e-02
<GCONST> 6.885009e+01
<TRANSP> 5
 0.000000e+00 1.000000e+00 0.000000e+00 0.000000e+00 0.000000e+00
 0.000000e+00 8.856479e-01 1.143521e-01 0.000000e+00 0.000000e+00
 0.000000e+00 0.000000e+00 9.391578e-01 6.084218e-02 0.000000e+00
 0.000000e+00 0.000000e+00 0.000000e+00 9.621926e-01 3.780739e-02
 0.000000e+00 0.000000e+00 0.000000e+00 0.000000e+00 0.000000e+00
<ENDHMM>
~h "a~"
<BEGINHMM>
<NUMSTATES> 5
<STATE> 2
<MEAN> 26
 1.699522e-01 -5.588787e+00 -4.857688e+00 -2.258923e+01 -5.277632e+00 9.125108e+00 -8.616740e+00 5.740031e-01 -1.165003e+01 -4.938977e-01 4.526863e+00 -3.139626e+00 2.033505e+01 1.976068e+00 -7.362143e-01 -1.356933e+00 -2.132413e+00 -1.485473e+00 1.733112e+00 7.964411e-01 2.154305e+00 -1.777666e+00 -2.201747e+00 1.646737e-01 6.595971e-01 6.636233e-01
<VARIANCE> 26
 1.375949e+01 2.523567e+01 1.754633e+01 5.222793e+01 3.439198e+01 4.444176e+01 7.672604e+01 3.762737e+01 3.285220e+01 6.646610e+01 3.870602e+01 4.663547e+01 4.751497e+00 3.777485e+00 2.745063e+00 1.949718e+00 8.652779e+00 3.469557e+00 6.799592e+00 6.845985e+00 3.348572e+00 4.267889e+00 4.487155e+00 3.616833e+00 4.607178e+00 7.511597e-01
<GCONST> 1.094377e+02
<STATE> 3
<MEAN> 26
 2.462101e+00 -5.585791e+00 -7.185441e+00 -2.129384e+01 -1.125054e+01 8.604754e+00 -4.545854e+00 8.317422e+00 -1.405519e+01 -9.741326e+00 2.819784e+00 -4.005958e+00 2.117034e+01 6.797899e-02 3.666413e-01 7.596688e-02 5.055267e-01 -3.052739e-01 -6.300192e-01 3.912304e-01 1.500295e-01 -3.389515e-01 2.831798e-01 -6.682488e-01 -4.429900e-01 -5.980809e-02
<VARIANCE> 26
 6.275195e+00 1.042547e+01 1.368942e+01 2.282784e+01 1.945886e+01 3.038538e+01 2.583390e+01 1.655136e+01 1.689964e+01 2.314351e+01 2.034428e+01 1.781492e+01 3.112296e-01 3.558234e-01 9.499703e-01 1.083685e+00 1.485735e+00 1.561918e+00 1.563009e+00 2.088068e+00 2.078020e+00 1.292242e+00 3.123541e+00 1.347570e+00 1.254172e+00 2.296230e-02
<GCONST> 8.074335e+01
<STATE> 4
<MEAN> 26
 2.608707e+00 2.957717e-01 -3.774989e+00 -1.196857e+01 -8.116293e+00 4.699617e+00 -1.813338e+00 1.535785e+00 -1.649284e+01 -2.725705e+00 -1.810936e+00 -3.770598e+00 1.970826e+01 -9.030285e-01 1.350484e+00 1.155589e+00 2.984711e+00 1.444815e+00 -1.510628e-01 3.506705e-01 -2.046184e+00 5.519968e-01 6.075577e-01 -7.264591e-02 4.611544e-01 -4.825160e-01
<VARIANCE> 26
 8.957791e+00 2.813994e+01 2.421380e+01 9.621950e+01 4.003016e+01 2.698225e+01 6.087207e+01 4.490843e+01 6.454919e+01 2.547477e+01 2.497407e+01 2.191168e+01 1.550905e+00 3.310178e+00 2.321818e+00 2.123158e+00 6.649302e+00 5.396959e+00 2.997209e+00 3.589352e+00 4.004208e+00 5.378015e+00 2.777474e+00 1.963842e+00 2.266459e+00 1.337460e-01
<GCONST> 1.024359e+02
<TRANSP> 5
 0.000000e+00 1.000000e+00 0.000000e+00 0.000000e+00 0.000000e+00
 0.000000e+00 6.759817e-01 3.240183e-01 0.000000e+00 0.000000e+00
 0.000000e+00 0.000000e+00 8.680665e-01 1.319335e-01 0.000000e+00
 0.000000e+00 0.000000e+00 0.000000e+00 7.625944e-01 2.374056e-01
 0.000000e+00 0.000000e+00 0.000000e+00 0.000000e+00 0.000000e+00
<ENDHMM>
~h "e^"
<BEGINHMM>
<NUMSTATES> 5
<STATE> 2
<MEAN> 26
 -5.325881e+00 -4.529843e+00 1.337714e+01 -1.326940e+01 -7.465518e+00 -7.482368e+00 -1.515782e+01 -2.039381e+00 -1.002736e+01 1.224387e+00 1.622948e+00 -1.470054e+00 1.961230e+01 1.243643e+00 -2.177567e+00 2.743507e+00 -2.283432e+00 -2.943523e+00 -1.215506e+00 -2.543250e+00 1.538076e+00 -2.736574e+00 6.251551e-01 8.912761e-01 -1.353814e-01 8.865408e-01
<VARIANCE> 26
 1.375953e+01 2.494415e+01 4.715907e+01 4.564053e+01 3.314719e+01 3.680428e+01 4.863056e+01 3.715871e+01 6.060474e+01 6.133324e+01 2.689575e+01 1.495912e+01 6.005847e+00 2.395036e+00 1.975296e+00 4.923976e+00 4.793629e+00 2.927137e+00 4.179193e+00 5.278996e+00 4.189598e+00 4.051183e+00 3.467365e+00 3.103760e+00 2.133239e+00 7.123000e-01
<GCONST> 1.064237e+02
<STATE> 3
<MEAN> 26
 -4.327341e+00 -6.885626e+00 1.835135e+01 -1.596704e+01 -1.377326e+01 -6.288421e+00 -1.875447e+01 1.103628e+00 -1.709893e+01 1.545230e+00 3.827429e+00 -2.196394e+00 2.097607e+01 1.062878e-01 3.162229e-01 1.536081e-01 1.932589e-01 -5.993791e-02 2.009471e-03 4.481007e-01 -1.747980e-01 -7.234048e-01 3.825069e-01 -2.452506e-01 -9.637513e-03 -2.780780e-02
<VARIANCE> 26
 4.470265e+00 1.480031e+01 2.019256e+01 1.617930e+01 1.773576e+01 2.161668e+01 2.011646e+01 1.981057e+01 2.698787e+01 2.972803e+01 1.891862e+01 1.301777e+01 3.247363e-01 4.257667e-01 1.427917e+00 1.367511e+00 2.280862e+00 2.148481e+00 1.872337e+00 2.093585e+00 1.834507e+00 1.875145e+00 2.012653e+00 1.422891e+00 9.287879e-01 3.607630e-02
<GCONST> 8.243429e+01
<STATE> 4
<MEAN> 26
 -2.775730e+00 9.252223e-01 1.461033e+01 -8.848565e+00 -5.832306e+00 -6.092046e+00 -7.316151e+00 -1.159866e+00 -1.346991e+01 2.048508e+00 -6.906001e-01 -2.288752e+00 1.909195e+01 -1.026582e-01 2.114950e+00 -2.001032e+00 2.827672e+00 2.281913e+00 7.310232e-01 2.275927e+00 -3.479308e-01 2.590927e+00 -7.451286e-01 -6.917270e-01 -2.845792e-01 -7.324625e-01
<VARIANCE> 26
 1.287308e+01 4.115794e+01 3.948805e+01 6.620853e+01 4.425617e+01 5.671982e+01 1.170285e+02 3.961217e+01 5.482713e+01 5.051190e+01 3.168239e+01 2.078753e+01 2.737085e+00 3.021434e+00 5.671462e+00 3.359948e+00 4.879158e+00 3.246495e+00 3.751870e+00 4.774211e+00 5.548391e+00 3.859201e+00 3.467177e+00 2.966512e+00 2.557472e+00 2.454932e-01
<GCONST> 1.082496e+02
<TRANSP> 5
 0.000000e+00 1.000000e+00 0.000000e+00 0.000000e+00 0.000000e+00
 0.000000e+00 5.723892e-01 4.276108e-01 0.000000e+00 0.000000e+00
 0.000000e+00 0.000000e+00 8.150474e-01 1.849526e-01 0.000000e+00
 0.000000e+00 0.000000e+00 0.000000e+00 7.409507e-01 2.590493e-01
 0.000000e+00 0.000000e+00 0.000000e+00 0.000000e+00 0.000000e+00
<ENDHMM>
~h "e~"
<BEGINHMM>
<NUMSTATES> 5
<STATE> 2
<MEAN> 26
 -1.193022e+00 -1.260288e+01 -3.118195e+00 -2.031077e+01 4.814369e-01 5.803639e+00 -1.828855e+01 2.527846e+00 -6.891927e+00 4.436540e+00 2.175398e+00 -9.468741e+00 2.099194e+01 1.376550e+00 -2.460046e+00 -6.676986e-01 -2.197901e+00 1.027733e+00 1.550555e+00 -1.759916e+00 1.252598e+00 -1.366938e+00 7.036719e-01 -1.212848e-01 -1.001857e+00 5.980039e-01
<VARIANCE> 26
 6.274855e+00 2.091479e+01 1.539036e+01 1.653338e+01 3.799011e+01 3.111758e+01 2.900996e+01 2.395045e+01 2.042533e+01 2.485029e+01 4.481628e+01 3.851794e+01 1.698260e+00 2.547827e+00 4.029379e+00 1.715554e+00 5.115728e+00 2.974036e+00 2.979198e+00 3.751037e+00 3.098341e+00 1.452474e+00 2.382573e+00 2.671054e+00 2.519788e+00 6.385123e-01
<GCONST> 9.786745e+01
<STATE> 3
<MEAN> 26
 1.163096e-01 -1.436827e+01 -5.355348e+00 -2.097564e+01 3.949346e+00 7.514348e+00 -1.987032e+01 3.074212e+00 -1.022779e+01 7.249636e-01 4.687121e+00 -8.721909e+00 2.155863e+01 2.151508e-01 4.411220e-01 -2.147447e-01 1.244152e-01 4.648035e-01 -9.164472e-01 2.645365e-01 -2.147396e-01 -6.681273e-01 -2.243494e-01 -1.562128e-01 8.596886e-02 -9.046486e-02
<VARIANCE> 26
 5.666479e+00 8.835094e+00 1.241837e+01 1.415858e+01 1.949351e+01 2.350827e+01 2.051505e+01 1.286668e+01 1.823086e+01 1.595149e+01 2.087218e+01 1.586811e+01 3.183836e-01 3.314899e-01 7.716876e-01 1.212253e+00 1.030003e+00 1.558641e+00 1.929467e+00 1.117148e+00 8.937222e-01 1.107731e+00 1.202730e+00 2.057411e+00 1.058085e+00 1.634062e-02
<GCONST> 7.581064e+01
<STATE> 4
<MEAN> 26
 1.391979e+00 -6.311692e+00 -4.247200e+00 -1.359487e+01 1.602666e+00 -8.762760e-01 -1.282177e+01 -7.624245e-01 -1.455616e+01 1.334010e+00 -9.811539e-01 -7.790921e+00 2.028530e+01 -3.074030e-01 2.725762e+00 6.881188e-01 3.257797e+00 -1.079068e+00 -8.370296e-01 2.708166e+00 -1.639398e+00 3.219233e-01 -5.427343e-01 -1.262915e+00 1.135501e+00 -4.186178e-01
<VARIANCE> 26
 6.711194e+00 3.396010e+01 3.324788e+01 8.714233e+01 6.603303e+01 4.225439e+01 5.682122e+01 4.806285e+01 4.660458e+01 3.729269e+01 3.448577e+01 2.775150e+01 6.271444e-01 2.584237e+00 3.459814e+00 2.536790e+00 6.613585e+00 5.011773e+00 3.090271e+00 2.177732e+00 3.232407e+00 5.052310e+00 3.179973e+00 3.107159e+00 2.014274e+00 8.076306e-02
<GCONST> 1.026860e+02
<TRANSP> 5
 0.000000e+00 1.000000e+00 0.000000e+00 0.000000e+00 0.000000e+00
 0.000000e+00 4.950228e-01 5.049772e-01 0.000000e+00 0.000000e+00
 0.000000e+00 0.000000e+00 8.482343e-01 1.517657e-01 0.000000e+00
 0.000000e+00 0.000000e+00 0.000000e+00 7.204888e-01 2.795112e-01
 0.000000e+00 0.000000e+00 0.000000e+00 0.000000e+00 0.000000e+00
<ENDHMM>
~h "o^"
<BEGINHMM>
<NUMSTATES> 5
<STATE> 2
<MEAN> 26
 9.663972e-01 4.568163e-01 1.601620e+00 -2.571570e+01 -8.663820e+00 4.783242e+00 -1.130123e+01 -4.952565e+00 -1.468564e+01 7.776107e-01 6.232767e+00 -3.052065e+00 1.958557e+01 2.133987e+00 5.870226e-01 7.545590e-01 -5.009442e+00 -3.108490e+00 2.257212e+00 -1.398438e+00 3.120762e-01 -2.904872e+00 -9.260982e-01 1.947960e+00 -1.221344e+00 1.247509e+00
<VARIANCE> 26
 1.735337e+01 3.585984e+01 1.296682e+01 1.159340e+02 3.404522e+01 2.534492e+01 6.292791e+01 4.812284e+01 6.223140e+01 5.305168e+01 9.252966e+01 2.201357e+01 8.860086e+00 4.240741e+00 1.596157e+00 1.930898e+00 1.607303e+01 2.921405e+00 2.277294e+00 4.847178e+00 3.796639e+00 7.300939e+00 3.652538e+00 4.998663e+00 4.764013e+00 1.729694e+00
<GCONST> 1.113692e+02
<STATE> 3
<MEAN> 26
 2.784672e+00 3.171383e-01 3.103626e+00 -3.006335e+01 -1.606105e+01 1.072979e+01 -1.322111e+01 -4.312241e+00 -1.612558e+01 -6.029478e+00 1.248350e+01 -7.553862e+00 2.162220e+01 8.797052e-02 3.314093e-02 2.598414e-02 -1.217065e-01 -1.066752e-01 1.961616e-01 -3.197088e-01 5.544148e-02 -5.252153e-01 -1.701398e-01 3.068804e-02 -1.440991e-01 1.051817e-02
<VARIANCE> 26
 5.868705e+00 1.278653e+01 1.947209e+01 2.896437e+01 2.274271e+01 1.439706e+01 2.182782e+01 4.178550e+01 4.863979e+01 4.350815e+01 3.849784e+01 2.732098e+01 3.529112e-01 3.741581e-01 1.087039e+00 8.670431e-01 2.897995e+00 2.279488e+00 1.410625e+00 1.817153e+00 2.308553e+00 2.237600e+00 3.733380e+00 2.323807e+00 1.801983e+00 3.366322e-02
<GCONST> 8.740607e+01
<STATE> 4
<MEAN> 26
 1.826663e+00 1.794490e+00 1.589898e+00 -2.296489e+01 -6.070466e+00 4.928855e+00 -1.337584e+01 -4.576021e+00 -1.808137e+01 1.978367e-01 6.839725e+00 -5.892437e+00 1.978223e+01 -9.639264e-01 9.154598e-01 -1.723418e-01 3.614410e+00 2.174162e+00 -2.021040e+00 1.588102e+00 -3.586009e-01 2.140045e+00 6.961612e-01 -1.921987e+00 6.877407e-01 -8.201233e-01
<VARIANCE> 26
 1.348022e+01 3.664241e+01 2.464541e+01 1.328096e+02 6.646928e+01 4.398663e+01 9.368369e+01 6.747624e+01 6.204782e+01 5.991879e+01 7.226811e+01 5.905394e+01 3.564481e+00 2.009576e+00 3.625437e+00 3.276239e+00 8.025330e+00 3.989898e+00 3.059081e+00 6.790516e+00 3.955209e+00 6.773743e+00 7.562113e+00 6.297273e+00 5.984000e+00 4.034732e-01
<GCONST> 1.143692e+02
<TRANSP> 5
 0.000000e+00 1.000000e+00 0.000000e+00 0.000000e+00 0.000000e+00
 0.000000e+00 5.335604e-01 4.664396e-01 0.000000e+00 0.000000e+00
 0.000000e+00 0.000000e+00 8.712871e-01 1.287129e-01 0.000000e+00
 0.000000e+00 0.000000e+00 0.000000e+00 7.553138e-01 2.446862e-01
 0.000000e+00 0.000000e+00 0.000000e+00 0.000000e+00 0.000000e+00
<ENDHMM>
~h "n~"
<BEGINHMM>
<NUMSTATES> 5
<STATE> 2
<MEAN> 26
 5.597731e-01 2.287771e-01 7.679071e+00 -2.831789e+00 -8.706610e+00 -4.254808e+00 -1.107196e+01 2.277099e+00 -1.962720e+01 -1.512938e+01 9.600122e+00 -4.560486e+00 2.076066e+01 -2.843174e-01 1.607690e-02 4.037648e-01 -6.401528e-02 3.298646e-01 -7.448255e-02 -1.468164e-01 4.868942e-01 -1.544795e-01 -1.024291e+00 1.729119e+00 -4.591029e-01 1.108200e-02
<VARIANCE> 26
 4.591606e+00 5.074949e+00 2.041789e+01 2.926616e+01 1.959794e+01 2.831738e+01 1.011899e+01 1.912794e+01 1.415676e+01 2.424851e+01 5.109583e+01 1.223216e+01 2.346386e-01 1.745548e+00 1.209522e+00 3.883442e+00 6.863457e+00 1.663392e+00 3.892434e+00 3.220917e+00 2.223036e+00 9.559418e-01 1.949678e+00 2.517886e+00 1.617449e+00 4.406946e-03
<GCONST> 8.420621e+01
<STATE> 3
<MEAN> 26
 -4.491367e+00 -5.873965e-02 1.796073e+01 -1.106198e+01 -1.561265e+01 6.198872e+00 -1.627903e+01 -3.043829e-01 -1.629757e+01 -1.341584e+01 9.706988e+00 -5.635221e+00 2.076693e+01 -5.803345e-01 -5.382133e-01 1.420985e+00 -7.632771e-01 -2.347433e+00 1.588384e+00 -7.399876e-02 -9.554572e-01 1.564820e+00 1.271198e+00 -1.207070e+00 4.564782e-01 -7.151008e-03
<VARIANCE> 26
 7.274076e+00 1.429761e+01 1.572451e+01 3.463583e+01 4.971947e+01 3.141659e+01 2.023762e+01 4.519615e+01 2.555057e+01 2.884361e+01 2.812522e+01 9.150871e+00 2.346386e-01 6.337465e-01 1.242989e+00 2.976918e+00 4.453722e+00 2.824633e+00 1.027050e+01 1.781899e+00 4.937280e+00 9.174688e-01 1.673282e+00 1.642655e+00 7.251966e-01 5.013387e-03
<GCONST> 8.680118e+01
<STATE> 4
<MEAN> 26
 -2.803515e+00 -4.699183e+00 1.242136e+01 -8.173639e+00 -1.560562e+01 9.929115e-01 -1.838634e+01 2.074088e+00 -9.397627e+00 -7.984748e+00 6.320615e+00 -4.516539e+00 2.085366e+01 8.867651e-01 7.103084e-02 -2.376017e+00 1.565783e-01 2.319042e+00 -9.542021e-01 -7.480347e-01 3.429651e-01 5.073513e-01 1.335996e+00 -1.264039e-01 -3.808647e-01 -5.032749e-02
<VARIANCE> 26
 1.168749e+01 1.800571e+01 3.931725e+01 1.834419e+01 3.679410e+01 4.222486e+01 2.414338e+01 2.048026e+01 3.903451e+01 2.550586e+01 1.110626e+01 9.640579e+00 2.346386e-01 2.518256e-01 3.068549e+00 2.182881e+00 3.381440e+00 2.461149e+00 7.797377e+00 5.080877e+00 3.513086e+00 4.278271e+00 2.214696e+00 1.987619e+00 2.550899e+00 5.562033e-02
<GCONST> 9.195432e+01
<TRANSP> 5
 0.000000e+00 1.000000e+00 0.000000e+00 0.000000e+00 0.000000e+00
 0.000000e+00 7.569198e-01 2.430802e-01 0.000000e+00 0.000000e+00
 0.000000e+00 0.000000e+00 7.507826e-01 2.492174e-01 0.000000e+00
 0.000000e+00 0.000000e+00 0.000000e+00 7.850091e-01 2.149909e-01
 0.000000e+00 0.000000e+00 0.000000e+00 0.000000e+00 0.000000e+00
<ENDHMM>
~h "o~"
<BEGINHMM>
<NUMSTATES> 5
<STATE> 2
<MEAN> 26
 1.066681e+00 4.408745e-02 3.090123e-01 -1.581003e+01 -1.284010e+01 6.909546e+00 -8.951478e+00 2.639714e+00 -1.173781e+01 -5.089710e+00 5.778081e+00 -2.857987e+00 1.985453e+01 1.748376e+00 -5.578179e-04 -1.387284e-01 -1.245694e+00 -3.350280e+00 6.440722e-01 -5.827565e-01 1.861420e+00 -1.022585e+00 -4.997151e-01 8.195892e-01 -9.994947e-01 5.685288e-01
<VARIANCE> 26
 1.243405e+01 2.270495e+01 1.554801e+01 4.092164e+01 4.470033e+01 3.359229e+01 4.848853e+01 3.826282e+01 4.425280e+01 3.369918e+01 3.717864e+01 1.491378e+01 2.961841e+00 3.696542e+00 1.835965e+00 2.859451e+00 4.705269e+00 4.437655e+00 4.224898e+00 6.086833e+00 4.965761e+00 5.830925e+00 3.173989e+00 3.618542e+00 1.369718e+00 2.330954e-01
<GCONST> 1.033513e+02
<STATE> 3
<MEAN> 26
 1.909370e+00 -2.164014e+00 -1.013978e+00 -1.227164e+01 -1.857268e+01 6.372686e+00 -9.511282e+00 2.846953e+00 -1.380078e+01 -3.640002e+00 2.910311e+00 -5.804969e+00 2.064661e+01 4.114305e-02 1.385190e-01 -1.159750e-01 6.774499e-01 -7.727071e-02 4.590112e-02 2.721452e-01 -3.685214e-01 -7.225664e-01 4.248037e-01 -8.412117e-01 -2.225181e-01 -4.839353e-02
<VARIANCE> 26
 3.822159e+00 1.327613e+01 1.308477e+01 2.384672e+01 1.811202e+01 1.963489e+01 2.036881e+01 2.105331e+01 3.218658e+01 2.231942e+01 2.331518e+01 1.570278e+01 2.346386e-01 2.947882e-01 7.532225e-01 1.153054e+00 2.706011e+00 1.900785e+00 2.348664e+00 1.853071e+00 1.794948e+00 2.097780e+00 1.685478e+00 1.645399e+00 9.726287e-01 1.393408e-02
<GCONST> 8.021054e+01
<STATE> 4
<MEAN> 26
 2.613945e+00 1.090531e+00 -5.847307e-01 -5.922242e+00 -9.957903e+00 5.010972e+00 -2.964541e+00 -1.262262e+00 -1.771001e+01 -7.398517e-01 -4.120209e+00 -3.161655e+00 1.926368e+01 -6.114764e-01 9.822295e-01 1.209167e-01 1.547400e+00 2.645903e+00 -9.748079e-01 1.877766e+00 -1.377771e+00 1.248215e+00 -4.611162e-02 4.593304e-02 9.772061e-01 -5.721961e-01
<VARIANCE> 26
 5.694880e+00 2.919288e+01 1.250237e+01 9.540042e+01 5.824946e+01 4.491985e+01 4.321015e+01 3.230986e+01 4.309494e+01 3.538268e+01 3.405106e+01 2.946811e+01 1.006880e+00 2.072169e+00 2.709443e+00 1.319245e+00 5.835986e+00 2.695127e+00 3.368123e+00 3.267188e+00 3.179287e+00 4.315511e+00 2.667284e+00 3.863812e+00 2.480696e+00 1.406200e-01
<GCONST> 1.003956e+02
<TRANSP> 5
 0.000000e+00 1.000000e+00 0.000000e+00 0.000000e+00 0.000000e+00
 0.000000e+00 5.549681e-01 4.450319e-01 0.000000e+00 0.000000e+00
 0.000000e+00 0.000000e+00 8.813370e-01 1.186630e-01 0.000000e+00
 0.000000e+00 0.000000e+00 0.000000e+00 7.247793e-01 2.752207e-01
 0.000000e+00 0.000000e+00 0.000000e+00 0.000000e+00 0.000000e+00
<ENDHMM>
~h "s^"
<BEGINHMM>
<NUMSTATES> 5
<STATE> 2
<MEAN> 26
 -1.899132e+01 -9.604372e-01 8.058294e+00 -8.183855e+00 2.254194e+00 -4.447916e+00 2.084286e-01 -8.615411e+00 -2.454119e+00 -2.013247e+00 -3.803771e+00 -5.030766e-01 1.798838e+01 -4.658473e+00 -1.275392e+00 -7.923643e-02 1.350370e-01 1.295211e+00 2.271926e-01 2.518367e+00 1.568018e-01 2.193411e+00 3.128880e-01 1.087538e+00 5.292225e-01 -2.930025e-01
<VARIANCE> 26
 6.079488e+01 2.827368e+01 2.952360e+01 2.556728e+01 4.596434e+01 5.489516e+01 4.710340e+01 4.369587e+01 4.141806e+01 4.773391e+01 3.174210e+01 1.962359e+01 2.646163e+00 2.929683e+00 4.773588e+00 5.197737e+00 5.375947e+00 3.937741e+00 6.087176e+00 3.913966e+00 3.450786e+00 3.783899e+00 3.919432e+00 3.362460e+00 2.018240e+00 2.112335e-01
<GCONST> 1.071254e+02
<STATE> 3
<MEAN> 26
 -3.047891e+01 -6.869744e+00 5.532101e+00 -1.268531e+01 1.508840e+00 -5.298773e+00 3.495088e+00 -7.194598e+00 1.927463e+00 1.463769e+00 -2.000252e-01 1.851292e+00 1.816767e+01 1.851469e-02 3.638071e-02 -5.765164e-02 -2.036926e-01 -3.148301e-02 -2.126358e-01 -6.471695e-02 -1.716147e-01 1.485540e-01 1.691364e-01 -2.419718e-02 -1.067020e-02 -1.016641e-02
<VARIANCE> 26
 7.342322e+00 9.299441e+00 9.912906e+00 1.163043e+01 2.438234e+01 2.944789e+01 1.924778e+01 1.634786e+01 1.240695e+01 1.717062e+01 1.062780e+01 1.415761e+01 3.547807e-01 1.636087e+00 8.808616e-01 6.998478e-01 1.108343e+00 1.377086e+00 1.345394e+00 1.498424e+00 1.659238e+00 1.385649e+00 1.648236e+00 1.371639e+00 1.520514e+00 2.625274e-02
<GCONST> 7.798258e+01
<STATE> 4
<MEAN> 26
 -1.592566e+01 -3.752365e+00 3.924384e+00 -1.016833e+01 1.037810e+00 -5.162617e+00 -1.980002e+00 -9.447701e+00 1.822610e-01 6.055420e-02 -2.225147e+00 -7.583569e-01 1.713448e+01 4.813747e+00 2.356795e-01 -7.301219e-01 6.057286e-01 -1.437096e+00 9.957533e-01 -3.066760e+00 -1.016272e-01 -1.388534e+00 -1.432057e-01 4.462963e-01 -5.231627e-01 7.341488e-02
<VARIANCE> 26
 9.567871e+01 1.927400e+01 3.225313e+01 2.777775e+01 4.474010e+01 3.975673e+01 5.101854e+01 3.356506e+01 2.932035e+01 3.918550e+01 2.554177e+01 2.206227e+01 5.718687e+00 8.009128e+00 3.450742e+00 3.009136e+00 2.409017e+00 6.825496e+00 7.377621e+00 7.057435e+00 4.732348e+00 4.990030e+00 5.955309e+00 5.092299e+00 2.983167e+00 5.216619e-01
<GCONST> 1.103456e+02
<TRANSP> 5
 0.000000e+00 1.000000e+00 0.000000e+00 0.000000e+00 0.000000e+00
 0.000000e+00 7.415441e-01 2.584559e-01 0.000000e+00 0.000000e+00
 0.000000e+00 0.000000e+00 8.974097e-01 1.025903e-01 0.000000e+00
 0.000000e+00 0.000000e+00 0.000000e+00 7.553246e-01 2.446754e-01
 0.000000e+00 0.000000e+00 0.000000e+00 0.000000e+00 0.000000e+00
<ENDHMM>
~h "x^"
<BEGINHMM>
<NUMSTATES> 5
<STATE> 2
<MEAN> 26
 -1.504841e+00 -8.865603e+00 4.531691e+00 -1.734535e+01 -4.983970e+00 -1.918655e+00 -2.233681e+01 2.738059e-01 -6.144448e+00 9.372936e+00 4.897565e+00 -1.004621e+01 2.033525e+01 1.474231e+00 -1.906550e+00 -1.209796e-01 -3.036169e+00 -1.224863e+00 7.955221e-01 -2.739853e+00 9.303404e-01 -2.103497e-01 2.678877e+00 9.809640e-01 -1.297286e+00 9.078162e-01
<VARIANCE> 26
 9.176672e+00 2.453999e+01 2.093713e+01 5.662129e+01 3.040599e+01 3.612267e+01 5.562971e+01 1.646278e+01 2.437864e+01 6.937928e+01 3.082244e+01 2.113427e+01 6.197470e+00 3.000521e+00 1.869985e+00 1.661228e+00 5.922798e+00 2.554735e+00 3.121632e+00 6.998981e+00 2.541536e+00 3.781664e+00 1.825405e+00 2.970713e+00 3.357097e+00 1.153881e+00
<GCONST> 1.031785e+02
<STATE> 3
<MEAN> 26
 1.438053e-01 -1.193728e+01 1.525779e+00 -2.109508e+01 -6.390272e+00 2.496886e-01 -2.474238e+01 5.121717e+00 -6.993674e+00 1.331038e+01 4.180616e+00 -1.171938e+01 2.167397e+01 1.005214e-01 1.576181e-01 -5.610099e-01 -4.778820e-01 2.995812e-01 4.372090e-01 3.140482e-01 -8.061790e-02 -4.050154e-01 2.685085e-01 -3.722905e-01 -3.110198e-02 -1.642809e-02
<VARIANCE> 26
 2.567391e+00 1.015239e+01 1.810478e+01 1.705049e+01 1.814336e+01 2.132454e+01 1.264734e+01 2.223228e+01 8.455911e+00 1.575280e+01 1.673390e+01 1.492770e+01 2.463875e-01 2.770046e-01 6.665697e-01 1.083761e+00 1.806479e+00 1.260855e+00 1.707416e+00 1.388274e+00 1.655586e+00 1.294410e+00 1.195011e+00 1.225821e+00 1.314742e+00 1.745917e-02
<GCONST> 7.483366e+01
<STATE> 4
<MEAN> 26
 1.360561e+00 -7.215760e+00 6.970503e-01 -2.319525e+01 -1.183494e-01 2.523371e+00 -1.662302e+01 -3.326115e+00 -1.082983e+01 1.233779e+01 1.958964e+00 -8.265334e+00 2.052193e+01 2.007052e-03 1.494229e+00 -1.217141e-02 1.073625e+00 1.194999e+00 8.610281e-01 2.960990e+00 -2.129836e+00 -8.733536e-02 -1.678820e+00 -1.774788e-01 1.402191e+00 -4.040830e-01
<VARIANCE> 26
 4.050179e+00 2.419195e+01 2.235286e+01 4.685093e+01 2.416191e+01 4.190450e+01 8.414899e+01 2.641453e+01 3.411761e+01 2.466285e+01 3.039165e+01 1.858933e+01 9.653385e-01 1.399302e+00 2.818086e+00 1.458749e+00 6.032549e+00 2.654833e+00 2.486407e+00 3.875224e+00 3.445595e+00 3.388361e+00 2.360571e+00 1.175730e+00 1.942782e+00 1.134035e-01
<GCONST> 9.574093e+01
<TRANSP> 5
 0.000000e+00 1.000000e+00 0.000000e+00 0.000000e+00 0.000000e+00
 0.000000e+00 4.788766e-01 5.211234e-01 0.000000e+00 0.000000e+00
 0.000000e+00 0.000000e+00 8.404775e-01 1.595225e-01 0.000000e+00
 0.000000e+00 0.000000e+00 0.000000e+00 7.342089e-01 2.657911e-01
 0.000000e+00 0.000000e+00 0.000000e+00 0.000000e+00 0.000000e+00
<ENDHMM>
~h "x~"
<BEGINHMM>
<NUMSTATES> 5
<STATE> 2
<MEAN> 26
 -2.565559e+00 -1.048903e+01 -2.728044e+00 -1.930474e+01 7.313285e+00 -3.735659e+00 -1.008010e+01 -2.199915e+00 -2.295011e+00 5.271754e+00 -2.311784e+00 -7.473370e+00 1.796983e+01 2.725390e+00 -3.584724e+00 1.619880e-01 -4.211833e+00 2.060986e+00 2.052754e-01 -2.229557e+00 3.764311e-01 -1.624631e+00 2.601570e-01 -2.054307e-01 -1.499007e+00 1.754129e+00
<VARIANCE> 26
 2.404151e+01 4.156097e+01 1.434854e+01 6.435343e+01 5.427160e+01 2.420871e+01 5.620109e+01 3.714114e+01 2.378722e+01 2.490899e+01 2.789791e+01 3.598650e+01 1.299278e+01 2.327523e+00 3.885857e+00 1.600596e+00 6.393956e+00 3.068809e+00 4.148378e+00 3.121486e+00 5.911990e+00 2.620623e+00 2.888417e+00 2.251735e+00 2.162683e+00 1.424074e+00
<GCONST> 1.061525e+02
<STATE> 3
<MEAN> 26
 3.530364e-01 -1.457127e+01 -2.120585e+00 -2.203139e+01 7.385653e+00 4.302084e+00 -1.767911e+01 2.164464e+00 -7.753404e+00 2.571782e+00 7.381386e-01 -8.524840e+00 2.114828e+01 -2.543025e-02 4.396580e-01 6.899546e-02 4.409576e-01 -5.884987e-01 6.263058e-01 -6.103989e-01 5.985542e-01 -4.781541e-01 5.783233e-02 1.517253e-01 9.078247e-02 7.265456e-02
<VARIANCE> 26
 4.081323e+00 1.160708e+01 6.886139e+00 1.331910e+01 2.045115e+01 2.967988e+01 1.848886e+01 1.495724e+01 1.193580e+01 1.454727e+01 3.352245e+01 1.104646e+01 3.600967e-01 3.020767e-01 1.273771e+00 7.500489e-01 7.582102e-01 1.583043e+00 2.287680e+00 1.855565e+00 1.216183e+00 1.049961e+00 9.465616e-01 1.376670e+00 7.379912e-01 5.762921e-02
<GCONST> 7.597954e+01
<STATE> 4
<MEAN> 26
 9.227707e-01 -5.806603e+00 -9.774861e-01 -1.281326e+01 -1.159492e-01 2.313467e+00 -1.446706e+01 2.040056e+00 -1.327812e+01 4.108221e+00 6.285544e-02 -8.259659e+00 2.029932e+01 4.997602e-02 2.505058e+00 4.569531e-01 3.650362e+00 -2.075378e+00 -1.548219e-01 2.794731e+00 -1.934923e+00 -7.121385e-01 -4.781140e-01 -3.035479e-01 9.070895e-01 -3.679552e-01
<VARIANCE> 26
 6.414489e+00 2.959883e+01 2.650453e+01 1.029109e+02 5.000298e+01 4.469680e+01 5.354136e+01 4.982817e+01 5.559337e+01 3.316341e+01 4.192193e+01 2.169271e+01 1.001118e+00 1.543125e+00 3.521528e+00 2.071971e+00 6.287880e+00 3.371234e+00 2.837032e+00 3.611526e+00 3.357490e+00 5.775415e+00 2.515277e+00 3.300241e+00 1.703439e+00 1.247469e-01
<GCONST> 1.022111e+02
<TRANSP> 5
 0.000000e+00 1.000000e+00 0.000000e+00 0.000000e+00 0.000000e+00
 0.000000e+00 6.605535e-01 3.394465e-01 0.000000e+00 0.000000e+00
 0.000000e+00 0.000000e+00 8.784786e-01 1.215214e-01 0.000000e+00
 0.000000e+00 0.000000e+00 0.000000e+00 7.318891e-01 2.681109e-01
 0.000000e+00 0.000000e+00 0.000000e+00 0.000000e+00 0.000000e+00
<ENDHMM>
~h "z^"
<BEGINHMM>
<NUMSTATES> 5
<STATE> 2
<MEAN> 26
 -9.223532e+00 2.394323e+00 1.121601e+01 -8.040432e+00 -1.530065e+00 -6.156777e+00 -5.301748e+00 -1.156698e+01 -2.558484e+00 -1.621152e+00 -3.820428e+00 4.678850e-01 1.923099e+01 -3.157200e+00 1.895155e+00 1.758069e+00 1.527863e+00 1.695149e+00 -2.029512e-01 2.050881e+00 -1.397169e+00 1.445771e+00 -7.407886e-01 2.418588e-01 6.812867e-01 -3.463228e-01
<VARIANCE> 26
 3.420531e+01 2.366179e+01 2.889604e+01 2.977981e+01 3.699371e+01 3.710803e+01 3.582526e+01 3.587104e+01 2.771361e+01 2.770864e+01 2.565831e+01 1.876753e+01 6.326560e-01 1.996519e+00 2.790019e+00 2.283469e+00 3.195091e+00 2.444095e+00 4.726164e+00 2.562307e+00 5.334941e+00 3.390795e+00 2.857716e+00 2.043941e+00 1.750798e+00 8.840274e-02
<GCONST> 9.787152e+01
<STATE> 3
<MEAN> 26
 -1.997783e+01 5.400984e+00 1.690654e+01 -5.202649e+00 4.044091e+00 -2.655939e+00 1.291967e+00 -1.012395e+01 -4.787916e-01 -2.457413e+00 -3.108935e+00 1.205244e+00 1.820957e+01 -6.134487e-02 -5.794078e-02 -2.200094e-01 -7.681681e-02 9.650493e-02 -1.746513e-01 -1.550457e-01 1.712573e-01 4.308266e-02 -1.497553e-01 7.744649e-02 3.323425e-03 2.332371e-02
<VARIANCE> 26
 1.676126e+01 8.724285e+00 1.342352e+01 2.239674e+01 2.777080e+01 3.182772e+01 2.820727e+01 1.654815e+01 1.623052e+01 1.899454e+01 1.722872e+01 1.460837e+01 3.574595e-01 3.967080e+00 1.091863e+00 1.928526e+00 1.044245e+00 1.828930e+00 2.969763e+00 2.950680e+00 1.628739e+00 1.134872e+00 1.201944e+00 1.503016e+00 1.286744e+00 4.263231e-02
<GCONST> 8.487949e+01
<STATE> 4
<MEAN> 26
 -7.981189e+00 -1.570489e-01 8.530629e+00 -7.692825e+00 -9.102417e-01 -6.168893e+00 -6.095113e+00 -1.090565e+01 -1.394871e+00 -1.736378e+00 -2.135281e+00 -6.676822e-01 1.929892e+01 3.048219e+00 -2.189227e+00 -1.313227e+00 -5.854703e-01 -2.078684e+00 8.290561e-01 -2.953404e+00 1.159979e+00 -8.415979e-01 2.399415e-01 1.084012e+00 -7.495441e-01 3.318109e-01
<VARIANCE> 26
 4.426357e+01 2.977011e+01 3.474586e+01 2.668045e+01 3.980961e+01 3.965328e+01 5.950795e+01 4.968556e+01 2.763258e+01 2.785570e+01 2.705499e+01 2.102938e+01 1.547718e+00 3.018920e+00 3.137001e+00 3.578160e+00 1.720018e+00 4.468404e+00 6.708933e+00 5.967087e+00 4.527483e+00 3.994985e+00 3.986077e+00 3.804840e+00 2.551488e+00 1.079080e-01
<GCONST> 1.041597e+02
<TRANSP> 5
 0.000000e+00 1.000000e+00 0.000000e+00 0.000000e+00 0.000000e+00
 0.000000e+00 7.135146e-01 2.864854e-01 0.000000e+00 0.000000e+00
 0.000000e+00 0.000000e+00 8.089098e-01 1.910902e-01 0.000000e+00
 0.000000e+00 0.000000e+00 0.000000e+00 7.119327e-01 2.880673e-01
 0.000000e+00 0.000000e+00 0.000000e+00 0.000000e+00 0.000000e+00
<ENDHMM>
