~o
<STREAMINFO> 1 26
<VECSIZE> 26<NULLD><MFCC_E_D><DIAGC>
~h "_"
<BEGINHMM>
<NUMSTATES> 5
<STATE> 2
<MEAN> 26
 -8.050228e+00 -7.699174e-01 -1.655552e+00 -1.131179e+01 -2.552115e+00 -5.673881e+00 -5.142944e+00 -5.588111e+00 -2.881324e+00 5.979321e+00 1.944852e+00 9.403995e-02 1.370020e+01 -1.242214e+00 7.486811e-01 -5.484202e-01 2.845714e+00 1.481298e-01 1.089754e+00 1.003543e+00 1.056410e+00 1.851326e+00 -4.052313e-01 6.288334e-01 -1.401885e-01 -1.329441e+00
<VARIANCE> 26
 2.785229e+01 3.166261e+01 6.255270e+01 8.813364e+01 6.123105e+01 8.709911e+01 6.678104e+01 5.919831e+01 1.108215e+02 9.438071e+01 6.398356e+01 4.445024e+01 1.033503e+01 2.835781e+00 3.569462e+00 5.651508e+00 6.187845e+00 6.069543e+00 5.738484e+00 5.644201e+00 6.802917e+00 9.298802e+00 8.246135e+00 6.023539e+00 4.796674e+00 4.328397e-01
<GCONST> 1.195231e+02
<STATE> 3
<MEAN> 26
 -1.357804e+01 1.861562e+00 -1.531331e+00 -4.477757e-01 3.911906e-01 5.131572e-01 -1.101573e+00 9.270583e-01 -4.973948e-01 1.092000e+00 1.375911e+00 -6.254310e-01 8.643394e+00 -2.287535e-01 -3.099633e-02 1.604918e-01 2.969180e-01 2.773673e-01 1.003394e-01 1.076274e-01 2.918836e-01 -8.527897e-02 -2.003940e-01 -2.171398e-01 2.921284e-02 -1.103273e-01
<VARIANCE> 26
 2.466911e+00 3.842087e+00 5.978058e+00 7.957125e+00 1.063665e+01 1.223016e+01 1.213791e+01 1.379345e+01 1.382110e+01 1.398095e+01 1.522576e+01 1.180236e+01 9.014440e-01 6.047232e-01 7.781957e-01 1.107386e+00 1.627872e+00 1.867517e+00 2.217807e+00 1.759743e+00 2.409229e+00 2.596351e+00 2.468653e+00 2.163536e+00 1.696455e+00 1.944238e-01
<GCONST> 7.845758e+01
<STATE> 4
<MEAN> 26
 -1.235421e+01 1.122002e+00 -6.428974e-01 -2.229547e+00 4.294226e-01 -1.156801e+00 -2.211486e+00 -7.555856e-02 -1.888618e+00 9.646365e-01 2.575217e-01 -7.736611e-01 1.010342e+01 2.086472e+00 -1.304489e+00 9.224022e-01 -3.315525e+00 1.183639e-01 -1.348412e+00 -1.506131e+00 -7.726989e-01 -2.291539e+00 1.941990e-01 -8.848929e-01 -1.814514e-01 1.913854e+00
<VARIANCE> 26
 1.745544e+01 1.513431e+01 2.046412e+01 3.507816e+01 1.585942e+01 2.664468e+01 2.489503e+01 2.225821e+01 3.078549e+01 1.732959e+01 2.155705e+01 1.546727e+01 7.289015e+00 4.624154e+00 5.263635e+00 5.999591e+00 1.240396e+01 5.101025e+00 4.707510e+00 4.530550e+00 4.989513e+00 6.153361e+00 3.468461e+00 3.568013e+00 2.771392e+00 1.145550e+00
<GCONST> 1.056632e+02
<TRANSP> 5
 0.000000e+00 1.000000e+00 0.000000e+00 0.000000e+00 0.000000e+00
 0.000000e+00 8.081810e-01 1.918189e-01 0.000000e+00 0.000000e+00
 0.000000e+00 0.000000e+00 8.124206e-01 1.875794e-01 0.000000e+00
 0.000000e+00 0.000000e+00 0.000000e+00 4.592697e-01 5.407303e-01
 0.000000e+00 0.000000e+00 0.000000e+00 0.000000e+00 0.000000e+00
<ENDHMM>
