~o
<STREAMINFO> 1 26
<VECSIZE> 26<NULLD><MFCC_E_D><DIAGC>
~h "a"
<BEGINHMM>
<NUMSTATES> 5
<STATE> 2
<MEAN> 26
 -1.218066e+00 -1.005744e+01 -2.181943e+00 -2.170506e+01 2.102643e-02 3.870995e-01 -1.210109e+01 4.152603e-01 -3.916702e+00 6.599802e+00 -1.640523e+00 -8.611794e+00 2.001350e+01 1.622140e+00 -3.099647e+00 -1.113631e+00 -3.156836e+00 9.118495e-01 8.039547e-01 -7.432564e-01 1.485775e+00 -1.500719e-01 4.758607e-01 -1.029200e+00 -2.144164e+00 8.303064e-01
<VARIANCE> 26
 2.194459e+01 3.244511e+01 3.442744e+01 5.380061e+01 6.216972e+01 5.017420e+01 8.777273e+01 5.308403e+01 3.379205e+01 3.680907e+01 3.440181e+01 3.113523e+01 8.799264e+00 3.065457e+00 2.822612e+00 3.039984e+00 6.624649e+00 4.183188e+00 3.853840e+00 6.543556e+00 7.559884e+00 4.058040e+00 4.055817e+00 2.461203e+00 2.634948e+00 7.090271e-01
<GCONST> 1.108146e+02
<STATE> 3
<MEAN> 26
 6.653501e-01 -1.602112e+01 -5.377741e+00 -2.609167e+01 4.716080e+00 3.148766e+00 -1.137987e+01 1.580484e+00 -3.748522e+00 3.897389e+00 -4.306270e+00 -1.274548e+01 2.178506e+01 -5.414756e-02 -4.052565e-02 8.010224e-02 2.280422e-01 1.348770e-01 -4.933619e-01 3.366753e-01 -1.719957e-01 1.314477e-03 -1.320367e-01 -2.165684e-01 2.095769e-01 -2.299642e-02
<VARIANCE> 26
 7.040968e+00 1.747492e+01 2.305511e+01 2.150158e+01 3.949360e+01 4.691775e+01 4.141307e+01 5.270902e+01 2.636062e+01 2.623299e+01 3.156918e+01 2.078890e+01 4.905951e-01 5.396743e-01 1.684834e+00 2.086279e+00 1.636372e+00 2.885490e+00 2.663571e+00 2.908361e+00 2.681808e+00 1.584959e+00 2.094107e+00 2.255383e+00 1.998812e+00 4.510340e-02
<GCONST> 9.116254e+01
<STATE> 4
<MEAN> 26
 -2.118744e-01 -7.222605e+00 -3.657084e-01 -1.706427e+01 1.571728e+00 -3.789560e+00 -1.006288e+01 -2.121861e+00 -4.938908e+00 4.503918e+00 -3.958229e+00 -6.844982e+00 1.995764e+01 -8.826762e-01 3.532220e+00 1.164325e+00 3.912120e+00 -3.776417e-04 -2.292283e-01 7.420490e-01 -1.762919e+00 -3.981542e-01 -8.913116e-01 4.346990e-01 1.384783e+00 -7.540264e-01
<VARIANCE> 26
 1.692552e+01 5.995318e+01 4.273938e+01 7.541506e+01 4.814531e+01 6.774142e+01 8.169958e+01 6.714059e+01 4.572458e+01 3.687745e+01 4.137286e+01 2.839455e+01 2.536207e+00 3.342770e+00 4.425428e+00 2.936962e+00 5.357599e+00 4.181626e+00 3.897694e+00 4.628572e+00 5.211836e+00 5.256701e+00 3.108708e+00 2.840676e+00 2.308542e+00 3.066578e-01
<GCONST> 1.098315e+02
<TRANSP> 5
 0.000000e+00 1.000000e+00 0.000000e+00 0.000000e+00 0.000000e+00
 0.000000e+00 5.825834e-01 4.174166e-01 0.000000e+00 0.000000e+00
 0.000000e+00 0.000000e+00 8.441563e-01 1.558437e-01 0.000000e+00
 0.000000e+00 0.000000e+00 0.000000e+00 7.127392e-01 2.872609e-01
 0.000000e+00 0.000000e+00 0.000000e+00 0.000000e+00 0.000000e+00
<ENDHMM>
