~o
<STREAMINFO> 1 26
<VECSIZE> 26<NULLD><MFCC_E_D><DIAGC>
~h "a~"
<BEGINHMM>
<NUMSTATES> 5
<STATE> 2
<MEAN> 26
 1.699522e-01 -5.588787e+00 -4.857688e+00 -2.258923e+01 -5.277632e+00 9.125108e+00 -8.616740e+00 5.740031e-01 -1.165003e+01 -4.938977e-01 4.526863e+00 -3.139626e+00 2.033505e+01 1.976068e+00 -7.362143e-01 -1.356933e+00 -2.132413e+00 -1.485473e+00 1.733112e+00 7.964411e-01 2.154305e+00 -1.777666e+00 -2.201747e+00 1.646737e-01 6.595971e-01 6.636233e-01
<VARIANCE> 26
 1.375949e+01 2.523567e+01 1.754633e+01 5.222793e+01 3.439198e+01 4.444176e+01 7.672604e+01 3.762737e+01 3.285220e+01 6.646610e+01 3.870602e+01 4.663547e+01 4.751497e+00 3.777485e+00 2.745063e+00 1.949718e+00 8.652779e+00 3.469557e+00 6.799592e+00 6.845985e+00 3.348572e+00 4.267889e+00 4.487155e+00 3.616833e+00 4.607178e+00 7.511597e-01
<GCONST> 1.094377e+02
<STATE> 3
<MEAN> 26
 2.462101e+00 -5.585791e+00 -7.185441e+00 -2.129384e+01 -1.125054e+01 8.604754e+00 -4.545854e+00 8.317422e+00 -1.405519e+01 -9.741326e+00 2.819784e+00 -4.005958e+00 2.117034e+01 6.797899e-02 3.666413e-01 7.596688e-02 5.055267e-01 -3.052739e-01 -6.300192e-01 3.912304e-01 1.500295e-01 -3.389515e-01 2.831798e-01 -6.682488e-01 -4.429900e-01 -5.980809e-02
<VARIANCE> 26
 6.275195e+00 1.042547e+01 1.368942e+01 2.282784e+01 1.945886e+01 3.038538e+01 2.583390e+01 1.655136e+01 1.689964e+01 2.314351e+01 2.034428e+01 1.781492e+01 3.112296e-01 3.558234e-01 9.499703e-01 1.083685e+00 1.485735e+00 1.561918e+00 1.563009e+00 2.088068e+00 2.078020e+00 1.292242e+00 3.123541e+00 1.347570e+00 1.254172e+00 2.296230e-02
<GCONST> 8.074335e+01
<STATE> 4
<MEAN> 26
 2.608707e+00 2.957717e-01 -3.774989e+00 -1.196857e+01 -8.116293e+00 4.699617e+00 -1.813338e+00 1.535785e+00 -1.649284e+01 -2.725705e+00 -1.810936e+00 -3.770598e+00 1.970826e+01 -9.030285e-01 1.350484e+00 1.155589e+00 2.984711e+00 1.444815e+00 -1.510628e-01 3.506705e-01 -2.046184e+00 5.519968e-01 6.075577e-01 -7.264591e-02 4.611544e-01 -4.825160e-01
<VARIANCE> 26
 8.957791e+00 2.813994e+01 2.421380e+01 9.621950e+01 4.003016e+01 2.698225e+01 6.087207e+01 4.490843e+01 6.454919e+01 2.547477e+01 2.497407e+01 2.191168e+01 1.550905e+00 3.310178e+00 2.321818e+00 2.123158e+00 6.649302e+00 5.396959e+00 2.997209e+00 3.589352e+00 4.004208e+00 5.378015e+00 2.777474e+00 1.963842e+00 2.266459e+00 1.337460e-01
<GCONST> 1.024359e+02
<TRANSP> 5
 0.000000e+00 1.000000e+00 0.000000e+00 0.000000e+00 0.000000e+00
 0.000000e+00 6.759817e-01 3.240183e-01 0.000000e+00 0.000000e+00
 0.000000e+00 0.000000e+00 8.680665e-01 1.319335e-01 0.000000e+00
 0.000000e+00 0.000000e+00 0.000000e+00 7.625944e-01 2.374056e-01
 0.000000e+00 0.000000e+00 0.000000e+00 0.000000e+00 0.000000e+00
<ENDHMM>
