~o
<STREAMINFO> 1 26
<VECSIZE> 26<NULLD><MFCC_E_D><DIAGC>
~h "b"
<BEGINHMM>
<NUMSTATES> 5
<STATE> 2
<MEAN> 26
 5.134011e+00 2.965136e+00 4.153124e+00 1.120749e-02 -2.685960e+00 6.340874e+00 -1.043989e+01 -5.469758e+00 -1.572175e+01 -5.172077e+00 4.417273e+00 -7.006105e+00 1.868171e+01 1.661289e+00 2.622245e+00 -2.796236e-03 1.163430e+00 2.059777e+00 -4.219577e-02 3.548216e-01 -1.422678e+00 1.250345e+00 6.427116e-01 6.543789e-01 2.927495e-01 -1.762738e-01
<VARIANCE> 26
 2.262081e+01 2.213270e+01 2.909660e+01 3.767356e+01 5.715982e+01 5.629464e+01 4.891008e+01 3.450282e+01 1.021624e+02 6.043579e+01 3.460521e+01 2.754170e+01 3.533537e+00 2.666783e+00 2.490096e+00 2.967093e+00 9.388535e+00 4.983655e+00 5.362189e+00 4.567441e+00 3.363595e+00 9.487007e+00 4.865378e+00 4.031504e+00 3.138427e+00 2.915256e-01
<GCONST> 1.097330e+02
<STATE> 3
<MEAN> 26
 6.994891e+00 1.130198e+01 5.999646e+00 9.074221e-01 3.773612e+00 4.254145e+00 -8.613730e+00 -8.299929e+00 -8.402643e+00 -8.613827e-01 5.507464e+00 -5.206439e+00 1.772129e+01 -8.697923e-01 1.503670e-01 -7.970959e-02 -3.012292e-01 3.329697e-01 -2.102581e-01 7.990109e-01 -3.127975e-01 4.983611e-01 2.572722e-01 -6.211743e-01 5.313337e-01 -1.024847e-01
<VARIANCE> 26
 8.463529e+00 2.003019e+01 1.448132e+01 2.841029e+01 2.992434e+01 2.937849e+01 4.456029e+01 1.736619e+01 1.946734e+01 2.730207e+01 2.460325e+01 2.413164e+01 6.733516e-01 2.273962e+00 4.296548e+00 1.545867e+00 3.860897e+00 1.988044e+00 1.831151e+00 1.510792e+00 1.967813e+00 3.004869e+00 1.971498e+00 2.734283e+00 1.432570e+00 3.296134e-02
<GCONST> 9.081376e+01
<STATE> 4
<MEAN> 26
 1.559278e-01 6.130998e-01 4.244697e+00 -8.642681e+00 2.379610e+00 1.556181e+00 -1.024283e+01 -8.960280e+00 -7.991689e+00 1.671757e+00 5.283545e-01 -3.152721e+00 1.869338e+01 -6.835637e-01 -3.184736e+00 -8.328649e-01 -2.625530e+00 -1.265792e+00 -8.496335e-01 -1.875704e+00 6.269921e-01 2.797996e-01 8.307502e-01 -1.386775e-01 2.999375e-01 4.932150e-01
<VARIANCE> 26
 1.687203e+01 3.758568e+01 2.227802e+01 7.148488e+01 4.052699e+01 4.352946e+01 8.344807e+01 3.067680e+01 3.499294e+01 7.446523e+01 4.689577e+01 2.071424e+01 1.253914e+00 2.891601e+00 4.563169e+00 3.400639e+00 7.453547e+00 4.886932e+00 5.640512e+00 6.921050e+00 5.020212e+00 3.508965e+00 5.348805e+00 3.784384e+00 3.069175e+00 1.748666e-01
<GCONST> 1.082216e+02
<TRANSP> 5
 0.000000e+00 1.000000e+00 0.000000e+00 0.000000e+00 0.000000e+00
 0.000000e+00 5.754284e-01 4.245717e-01 0.000000e+00 0.000000e+00
 0.000000e+00 0.000000e+00 7.609196e-01 2.390804e-01 0.000000e+00
 0.000000e+00 0.000000e+00 0.000000e+00 6.490098e-01 3.509902e-01
 0.000000e+00 0.000000e+00 0.000000e+00 0.000000e+00 0.000000e+00
<ENDHMM>
