~o
<STREAMINFO> 1 26
<VECSIZE> 26<NULLD><MFCC_E_D><DIAGC>
~h "d"
<BEGINHMM>
<NUMSTATES> 5
<STATE> 2
<MEAN> 26
 2.947994e+00 6.879685e+00 8.015743e+00 2.109879e+00 -4.886879e+00 -1.166034e+00 -9.661089e+00 -1.239645e+00 -9.857523e+00 1.204597e+00 -9.045875e-01 -8.063277e+00 1.800802e+01 1.916951e+00 2.442999e+00 6.330286e-01 2.468392e+00 4.171151e-01 -1.409774e+00 8.918898e-01 2.814083e-01 2.372050e+00 1.559479e-01 -9.674984e-01 -8.709843e-01 -6.531399e-02
<VARIANCE> 26
 2.960249e+01 3.192209e+01 5.494041e+01 3.281833e+01 5.349253e+01 6.123301e+01 4.993226e+01 3.257458e+01 9.807891e+01 2.412040e+01 3.746016e+01 4.144666e+01 4.848449e+00 2.925311e+00 3.723570e+00 4.156735e+00 7.776213e+00 4.457702e+00 3.118533e+00 5.739812e+00 3.835746e+00 7.336807e+00 2.887208e+00 3.161204e+00 3.787665e+00 6.973838e-01
<GCONST> 1.110799e+02
<STATE> 3
<MEAN> 26
 5.500661e+00 1.447003e+01 1.162134e+01 5.724475e+00 -2.369477e+00 -6.635615e+00 -8.029693e+00 8.359636e-01 4.717577e-01 8.023357e-01 -4.418031e+00 -8.513919e+00 1.747424e+01 -1.658212e+00 -5.876772e-01 -8.018153e-02 -9.043270e-01 9.560792e-01 7.889124e-01 8.202515e-01 -7.306958e-01 3.331588e-01 -2.460350e-01 -1.349684e-01 1.224522e+00 -1.208601e-01
<VARIANCE> 26
 7.592559e+00 1.885437e+01 1.386709e+01 1.329337e+01 2.081214e+01 2.036202e+01 2.030423e+01 1.919230e+01 2.488658e+01 1.376368e+01 2.255152e+01 2.115881e+01 4.352679e-01 3.651523e+00 6.730007e+00 2.953329e+00 4.394488e+00 3.407004e+00 4.352643e+00 2.728873e+00 2.973875e+00 3.869179e+00 2.098919e+00 2.386784e+00 2.671227e+00 5.625482e-02
<GCONST> 9.277693e+01
<STATE> 4
<MEAN> 26
 -7.065896e+00 1.034450e+00 9.287887e+00 -7.389426e+00 1.598898e+00 -3.549848e-01 -7.818308e+00 -6.725749e+00 -4.726349e+00 -1.324677e-01 -1.969109e+00 -1.478956e+00 1.830473e+01 -1.803863e+00 -2.453798e+00 1.536385e-01 -2.875597e+00 -1.167727e+00 9.432616e-02 -1.939866e+00 -5.845660e-01 -1.109847e+00 -1.855609e-01 1.310336e+00 8.524031e-01 5.485734e-01
<VARIANCE> 26
 2.096038e+01 3.984399e+01 4.352130e+01 6.051600e+01 4.070807e+01 6.534770e+01 6.787357e+01 3.155653e+01 2.839698e+01 3.434175e+01 3.012689e+01 3.043522e+01 2.066114e+00 7.335423e+00 6.058215e+00 5.710856e+00 6.496377e+00 6.912552e+00 5.732308e+00 8.122045e+00 5.498322e+00 4.394765e+00 6.185640e+00 3.390743e+00 5.364819e+00 2.221479e-01
<GCONST> 1.119589e+02
<TRANSP> 5
 0.000000e+00 1.000000e+00 0.000000e+00 0.000000e+00 0.000000e+00
 0.000000e+00 6.546997e-01 3.453003e-01 0.000000e+00 0.000000e+00
 0.000000e+00 0.000000e+00 7.265827e-01 2.734173e-01 0.000000e+00
 0.000000e+00 0.000000e+00 0.000000e+00 6.945144e-01 3.054856e-01
 0.000000e+00 0.000000e+00 0.000000e+00 0.000000e+00 0.000000e+00
<ENDHMM>
