~o
<STREAMINFO> 1 26
<VECSIZE> 26<NULLD><MFCC_E_D><DIAGC>
~h "e^"
<BEGINHMM>
<NUMSTATES> 5
<STATE> 2
<MEAN> 26
 -5.325881e+00 -4.529843e+00 1.337714e+01 -1.326940e+01 -7.465518e+00 -7.482368e+00 -1.515782e+01 -2.039381e+00 -1.002736e+01 1.224387e+00 1.622948e+00 -1.470054e+00 1.961230e+01 1.243643e+00 -2.177567e+00 2.743507e+00 -2.283432e+00 -2.943523e+00 -1.215506e+00 -2.543250e+00 1.538076e+00 -2.736574e+00 6.251551e-01 8.912761e-01 -1.353814e-01 8.865408e-01
<VARIANCE> 26
 1.375953e+01 2.494415e+01 4.715907e+01 4.564053e+01 3.314719e+01 3.680428e+01 4.863056e+01 3.715871e+01 6.060474e+01 6.133324e+01 2.689575e+01 1.495912e+01 6.005847e+00 2.395036e+00 1.975296e+00 4.923976e+00 4.793629e+00 2.927137e+00 4.179193e+00 5.278996e+00 4.189598e+00 4.051183e+00 3.467365e+00 3.103760e+00 2.133239e+00 7.123000e-01
<GCONST> 1.064237e+02
<STATE> 3
<MEAN> 26
 -4.327341e+00 -6.885626e+00 1.835135e+01 -1.596704e+01 -1.377326e+01 -6.288421e+00 -1.875447e+01 1.103628e+00 -1.709893e+01 1.545230e+00 3.827429e+00 -2.196394e+00 2.097607e+01 1.062878e-01 3.162229e-01 1.536081e-01 1.932589e-01 -5.993791e-02 2.009471e-03 4.481007e-01 -1.747980e-01 -7.234048e-01 3.825069e-01 -2.452506e-01 -9.637513e-03 -2.780780e-02
<VARIANCE> 26
 4.470265e+00 1.480031e+01 2.019256e+01 1.617930e+01 1.773576e+01 2.161668e+01 2.011646e+01 1.981057e+01 2.698787e+01 2.972803e+01 1.891862e+01 1.301777e+01 3.247363e-01 4.257667e-01 1.427917e+00 1.367511e+00 2.280862e+00 2.148481e+00 1.872337e+00 2.093585e+00 1.834507e+00 1.875145e+00 2.012653e+00 1.422891e+00 9.287879e-01 3.607630e-02
<GCONST> 8.243429e+01
<STATE> 4
<MEAN> 26
 -2.775730e+00 9.252223e-01 1.461033e+01 -8.848565e+00 -5.832306e+00 -6.092046e+00 -7.316151e+00 -1.159866e+00 -1.346991e+01 2.048508e+00 -6.906001e-01 -2.288752e+00 1.909195e+01 -1.026582e-01 2.114950e+00 -2.001032e+00 2.827672e+00 2.281913e+00 7.310232e-01 2.275927e+00 -3.479308e-01 2.590927e+00 -7.451286e-01 -6.917270e-01 -2.845792e-01 -7.324625e-01
<VARIANCE> 26
 1.287308e+01 4.115794e+01 3.948805e+01 6.620853e+01 4.425617e+01 5.671982e+01 1.170285e+02 3.961217e+01 5.482713e+01 5.051190e+01 3.168239e+01 2.078753e+01 2.737085e+00 3.021434e+00 5.671462e+00 3.359948e+00 4.879158e+00 3.246495e+00 3.751870e+00 4.774211e+00 5.548391e+00 3.859201e+00 3.467177e+00 2.966512e+00 2.557472e+00 2.454932e-01
<GCONST> 1.082496e+02
<TRANSP> 5
 0.000000e+00 1.000000e+00 0.000000e+00 0.000000e+00 0.000000e+00
 0.000000e+00 5.723891e-01 4.276108e-01 0.000000e+00 0.000000e+00
 0.000000e+00 0.000000e+00 8.150474e-01 1.849526e-01 0.000000e+00
 0.000000e+00 0.000000e+00 0.000000e+00 7.409507e-01 2.590493e-01
 0.000000e+00 0.000000e+00 0.000000e+00 0.000000e+00 0.000000e+00
<ENDHMM>
