~o
<STREAMINFO> 1 26
<VECSIZE> 26<NULLD><MFCC_E_D><DIAGC>
~h "e~"
<BEGINHMM>
<NUMSTATES> 5
<STATE> 2
<MEAN> 26
 -1.193022e+00 -1.260288e+01 -3.118195e+00 -2.031077e+01 4.814369e-01 5.803639e+00 -1.828855e+01 2.527846e+00 -6.891927e+00 4.436540e+00 2.175398e+00 -9.468741e+00 2.099194e+01 1.376550e+00 -2.460046e+00 -6.676986e-01 -2.197901e+00 1.027733e+00 1.550555e+00 -1.759916e+00 1.252598e+00 -1.366938e+00 7.036719e-01 -1.212848e-01 -1.001857e+00 5.980039e-01
<VARIANCE> 26
 6.274855e+00 2.091479e+01 1.539036e+01 1.653338e+01 3.799011e+01 3.111758e+01 2.900996e+01 2.395045e+01 2.042533e+01 2.485029e+01 4.481628e+01 3.851794e+01 1.698260e+00 2.547827e+00 4.029379e+00 1.715554e+00 5.115728e+00 2.974036e+00 2.979198e+00 3.751037e+00 3.098341e+00 1.452474e+00 2.382573e+00 2.671054e+00 2.519788e+00 6.385123e-01
<GCONST> 9.786745e+01
<STATE> 3
<MEAN> 26
 1.163096e-01 -1.436827e+01 -5.355348e+00 -2.097564e+01 3.949346e+00 7.514348e+00 -1.987032e+01 3.074212e+00 -1.022779e+01 7.249636e-01 4.687121e+00 -8.721909e+00 2.155863e+01 2.151508e-01 4.411220e-01 -2.147447e-01 1.244152e-01 4.648035e-01 -9.164472e-01 2.645365e-01 -2.147396e-01 -6.681273e-01 -2.243494e-01 -1.562128e-01 8.596886e-02 -9.046486e-02
<VARIANCE> 26
 5.666479e+00 8.835094e+00 1.241837e+01 1.415858e+01 1.949351e+01 2.350827e+01 2.051505e+01 1.286668e+01 1.823086e+01 1.595149e+01 2.087218e+01 1.586811e+01 3.183836e-01 3.314899e-01 7.716876e-01 1.212253e+00 1.030003e+00 1.558641e+00 1.929467e+00 1.117148e+00 8.937222e-01 1.107731e+00 1.202730e+00 2.057411e+00 1.058085e+00 1.634062e-02
<GCONST> 7.581064e+01
<STATE> 4
<MEAN> 26
 1.391979e+00 -6.311692e+00 -4.247200e+00 -1.359487e+01 1.602666e+00 -8.762760e-01 -1.282177e+01 -7.624245e-01 -1.455616e+01 1.334010e+00 -9.811539e-01 -7.790921e+00 2.028530e+01 -3.074030e-01 2.725762e+00 6.881188e-01 3.257797e+00 -1.079068e+00 -8.370296e-01 2.708166e+00 -1.639398e+00 3.219233e-01 -5.427343e-01 -1.262915e+00 1.135501e+00 -4.186178e-01
<VARIANCE> 26
 6.711194e+00 3.396010e+01 3.324788e+01 8.714233e+01 6.603303e+01 4.225439e+01 5.682122e+01 4.806285e+01 4.660458e+01 3.729269e+01 3.448577e+01 2.775150e+01 6.271444e-01 2.584237e+00 3.459814e+00 2.536790e+00 6.613585e+00 5.011773e+00 3.090271e+00 2.177732e+00 3.232407e+00 5.052310e+00 3.179973e+00 3.107159e+00 2.014274e+00 8.076306e-02
<GCONST> 1.026860e+02
<TRANSP> 5
 0.000000e+00 1.000000e+00 0.000000e+00 0.000000e+00 0.000000e+00
 0.000000e+00 4.950229e-01 5.049772e-01 0.000000e+00 0.000000e+00
 0.000000e+00 0.000000e+00 8.482343e-01 1.517657e-01 0.000000e+00
 0.000000e+00 0.000000e+00 0.000000e+00 7.204888e-01 2.795112e-01
 0.000000e+00 0.000000e+00 0.000000e+00 0.000000e+00 0.000000e+00
<ENDHMM>
