~o
<STREAMINFO> 1 26
<VECSIZE> 26<NULLD><MFCC_E_D><DIAGC>
~h "f"
<BEGINHMM>
<NUMSTATES> 5
<STATE> 2
<MEAN> 26
 -1.420784e+01 -1.165491e+00 1.969104e+00 -5.088395e+00 2.247606e+00 1.022935e-01 -1.027753e+00 -1.834211e+00 -2.387589e+00 1.437745e+00 -2.779170e+00 -4.068933e-01 1.582584e+01 -3.318237e+00 -1.576025e+00 -1.833286e+00 1.960695e-01 9.288303e-01 3.973101e-01 8.869193e-01 3.995737e-01 1.582017e+00 7.733873e-01 3.514351e-01 1.008668e+00 -8.279414e-01
<VARIANCE> 26
 4.690906e+01 2.108907e+01 3.778623e+01 2.421369e+01 2.652511e+01 2.492223e+01 2.117097e+01 2.570902e+01 3.431136e+01 3.028509e+01 2.184256e+01 1.513130e+01 6.537401e+00 4.062602e+00 2.714775e+00 4.021834e+00 7.853781e+00 5.569860e+00 4.206090e+00 5.055069e+00 3.557107e+00 3.910238e+00 3.241479e+00 2.938001e+00 2.106466e+00 3.095344e-01
<GCONST> 1.040044e+02
<STATE> 3
<MEAN> 26
 -2.243982e+01 -6.428434e+00 -4.934478e+00 -8.911106e+00 5.033156e-01 4.878319e-01 -3.725616e+00 -2.934923e+00 -1.609405e+00 5.524710e+00 4.148958e-02 3.488902e+00 1.405369e+01 -7.766972e-02 -7.585573e-02 -1.536016e-01 -9.648231e-02 -2.533045e-01 -9.753675e-03 -1.833925e-01 -1.402075e-01 -9.002378e-02 9.285783e-02 5.650647e-02 6.749704e-02 1.267885e-02
<VARIANCE> 26
 7.242990e+00 5.704356e+00 9.201786e+00 1.139296e+01 2.076777e+01 1.886842e+01 1.799771e+01 1.863711e+01 1.889697e+01 1.955399e+01 1.575700e+01 1.535802e+01 1.263653e+00 8.959099e-01 6.115406e-01 1.004008e+00 1.198032e+00 1.685465e+00 1.492077e+00 1.812695e+00 1.897347e+00 1.870004e+00 2.101334e+00 1.739576e+00 1.694024e+00 8.246768e-02
<GCONST> 8.127425e+01
<STATE> 4
<MEAN> 26
 -1.409044e+01 -3.395759e+00 -1.430740e+00 -9.323688e+00 3.603553e-01 6.851869e-01 -4.099123e+00 -4.317542e+00 -3.380227e+00 1.739390e+00 -2.036760e+00 4.835702e-01 1.615308e+01 4.229142e+00 1.235462e+00 1.450554e+00 -5.991825e-01 -5.234541e-01 4.123698e-01 -1.674254e+00 -2.742887e-01 -1.578955e+00 -1.507361e+00 9.161875e-03 -1.227518e+00 9.731607e-01
<VARIANCE> 26
 6.504388e+01 2.007989e+01 2.837384e+01 2.740816e+01 3.327972e+01 3.976121e+01 3.195969e+01 2.911327e+01 3.516251e+01 2.549264e+01 2.620824e+01 2.409352e+01 3.993450e+00 4.705341e+00 2.807780e+00 3.949440e+00 6.099141e+00 5.076701e+00 4.840720e+00 7.855608e+00 5.378915e+00 5.218274e+00 3.860788e+00 5.429429e+00 2.597532e+00 3.964190e-01
<GCONST> 1.077029e+02
<TRANSP> 5
 0.000000e+00 1.000000e+00 0.000000e+00 0.000000e+00 0.000000e+00
 0.000000e+00 7.316890e-01 2.683111e-01 0.000000e+00 0.000000e+00
 0.000000e+00 0.000000e+00 8.961856e-01 1.038144e-01 0.000000e+00
 0.000000e+00 0.000000e+00 0.000000e+00 7.182703e-01 2.817297e-01
 0.000000e+00 0.000000e+00 0.000000e+00 0.000000e+00 0.000000e+00
<ENDHMM>
