~o
<STREAMINFO> 1 26
<VECSIZE> 26<NULLD><MFCC_E_D><DIAGC>
~h "g"
<BEGINHMM>
<NUMSTATES> 5
<STATE> 2
<MEAN> 26
 1.715877e-01 8.922018e+00 1.135911e+01 2.868732e+00 -5.145915e+00 -3.345654e+00 -5.884767e+00 -7.770956e-01 -1.162032e+01 -2.402951e-01 4.143368e+00 -8.356698e+00 1.738976e+01 2.295737e+00 1.307792e+00 6.145111e-01 1.848784e+00 -1.502268e+00 -1.097062e+00 9.892410e-01 1.041642e-01 -3.771111e-01 -4.315950e-02 1.096146e+00 -5.880759e-01 1.590951e-01
<VARIANCE> 26
 6.300365e+01 3.922271e+01 6.494752e+01 3.497807e+01 7.698315e+01 2.160685e+01 4.190575e+01 2.499574e+01 7.546062e+01 2.724735e+01 4.033176e+01 4.200040e+01 4.761215e+00 4.246247e+00 5.550169e+00 4.912318e+00 2.435182e+00 7.733987e+00 3.312102e+00 5.589040e+00 4.225918e+00 1.098439e+01 1.941717e+00 3.880671e+00 2.560528e+00 5.399949e-01
<GCONST> 1.111071e+02
<STATE> 3
<MEAN> 26
 5.272767e+00 9.209954e+00 1.101605e+01 3.088665e+00 -1.050790e+01 -3.251464e+00 -3.190293e+00 8.647429e-01 -1.405822e+01 -4.042925e+00 8.272543e+00 -9.824565e+00 1.825456e+01 -1.654557e+00 -9.339355e-01 -2.372206e-01 -1.856218e+00 2.480273e+00 1.521755e+00 -1.429686e-01 -8.687574e-01 4.210618e-01 3.487862e-01 -1.753644e+00 1.855300e+00 -1.460804e-01
<VARIANCE> 26
 6.596812e+00 2.081197e+01 5.493968e+01 3.502975e+01 4.567754e+01 2.657543e+01 2.840978e+01 2.270172e+01 7.696189e+01 3.951700e+01 5.003066e+01 3.022163e+01 9.390797e-01 3.497085e+00 4.801723e+00 5.508892e+00 4.174264e+00 5.299697e+00 2.036088e+00 3.669546e+00 4.767901e+00 3.138408e+00 4.455775e+00 5.265418e+00 3.341341e+00 9.203780e-02
<GCONST> 1.034352e+02
<STATE> 4
<MEAN> 26
 -4.629076e+00 9.019456e-01 1.031101e+01 -8.773917e+00 -1.001049e+00 5.862464e-01 -1.035803e+01 -2.942588e+00 -1.413922e+01 2.679310e-01 1.432377e+00 -2.184911e+00 1.843345e+01 -1.440819e+00 -1.571994e+00 8.070694e-02 -2.176155e+00 -4.950693e-01 -7.984150e-01 -1.969892e+00 3.569653e-01 4.326564e-01 -4.796819e-01 3.723395e-01 1.242123e+00 3.611726e-01
<VARIANCE> 26
 2.635751e+01 2.685567e+01 8.816613e+01 5.344228e+01 6.434480e+01 5.898389e+01 6.111216e+01 3.551674e+01 4.028374e+01 4.990820e+01 5.307820e+01 1.324735e+01 1.654915e+00 4.142298e+00 6.387829e+00 6.117335e+00 3.755979e+00 8.179976e+00 4.945272e+00 5.282361e+00 6.252295e+00 6.766801e+00 5.833702e+00 4.828513e+00 3.913245e+00 1.945959e-01
<GCONST> 1.119799e+02
<TRANSP> 5
 0.000000e+00 1.000000e+00 0.000000e+00 0.000000e+00 0.000000e+00
 0.000000e+00 6.247517e-01 3.752483e-01 0.000000e+00 0.000000e+00
 0.000000e+00 0.000000e+00 6.029705e-01 3.970295e-01 0.000000e+00
 0.000000e+00 0.000000e+00 0.000000e+00 6.684818e-01 3.315183e-01
 0.000000e+00 0.000000e+00 0.000000e+00 0.000000e+00 0.000000e+00
<ENDHMM>
