~o
<STREAMINFO> 1 26
<VECSIZE> 26<NULLD><MFCC_E_D><DIAGC>
~h "i"
<BEGINHMM>
<NUMSTATES> 5
<STATE> 2
<MEAN> 26
 -1.003495e+01 4.359589e+00 1.705009e+01 -6.879212e+00 -3.460272e+00 -2.944995e+00 -1.313080e+01 -6.525767e+00 -9.125647e+00 -1.040798e+01 -6.488485e-01 1.856785e+00 1.934492e+01 5.176288e-01 -2.368610e-01 3.142377e+00 -1.460992e+00 -1.440926e+00 7.424189e-01 -2.335096e+00 -7.443234e-02 -1.740518e+00 -1.988664e+00 7.779855e-01 -2.281501e-01 3.881722e-01
<VARIANCE> 26
 3.134283e+01 3.487313e+01 4.269177e+01 4.717359e+01 5.133249e+01 2.505163e+01 4.045806e+01 2.925944e+01 4.263147e+01 5.440857e+01 4.232203e+01 2.119186e+01 1.703524e+00 4.775733e+00 2.824423e+00 3.601366e+00 4.078210e+00 4.229850e+00 4.220910e+00 4.550470e+00 2.630143e+00 4.402864e+00 4.383565e+00 3.018265e+00 2.380149e+00 1.852733e-01
<GCONST> 1.056052e+02
<STATE> 3
<MEAN> 26
 -9.831616e+00 3.989355e+00 2.271283e+01 -1.224245e+01 -6.252607e+00 1.980719e+00 -1.995766e+01 -4.357069e+00 -1.353392e+01 -1.451747e+01 3.123811e+00 -1.624671e+00 1.999426e+01 -1.794408e-02 2.123908e-01 1.390967e-02 -5.019373e-01 -2.303407e-01 1.730208e-01 -7.894021e-02 2.181539e-01 -4.402859e-01 3.063752e-01 -1.131777e-02 -5.042067e-01 -1.518439e-02
<VARIANCE> 26
 8.089979e+00 2.009131e+01 1.528801e+01 2.723207e+01 3.566676e+01 2.387403e+01 2.893569e+01 2.659428e+01 4.171169e+01 2.805607e+01 3.247636e+01 2.151182e+01 3.906090e-01 8.795359e-01 2.010358e+00 1.837584e+00 2.253147e+00 2.441802e+00 2.242567e+00 2.512262e+00 2.198775e+00 2.508473e+00 2.466816e+00 1.900298e+00 1.337384e+00 2.405100e-02
<GCONST> 8.940195e+01
<STATE> 4
<MEAN> 26
 -7.717566e+00 4.832306e+00 1.563712e+01 -8.522579e+00 -5.287279e+00 -2.348120e+00 -1.205142e+01 -5.107118e+00 -1.218751e+01 -6.211846e+00 -5.514169e-01 -2.055206e+00 1.876264e+01 5.673129e-01 3.321075e-01 -2.589297e+00 1.894906e+00 8.893147e-01 -7.417727e-01 2.072543e+00 -2.691959e-01 1.514627e+00 1.656337e+00 -6.072983e-01 -4.295984e-02 -4.990510e-01
<VARIANCE> 26
 3.449095e+01 5.078244e+01 5.466309e+01 6.255172e+01 5.556688e+01 3.772766e+01 5.987371e+01 4.162432e+01 7.033913e+01 5.168006e+01 5.040197e+01 3.780398e+01 3.843770e+00 4.533084e+00 4.280813e+00 3.601182e+00 4.856151e+00 5.269163e+00 4.291409e+00 3.761359e+00 4.007247e+00 4.878653e+00 3.504339e+00 3.716989e+00 3.405288e+00 2.458115e-01
<GCONST> 1.115888e+02
<TRANSP> 5
 0.000000e+00 1.000000e+00 0.000000e+00 0.000000e+00 0.000000e+00
 0.000000e+00 6.415535e-01 3.584465e-01 0.000000e+00 0.000000e+00
 0.000000e+00 0.000000e+00 8.131105e-01 1.868895e-01 0.000000e+00
 0.000000e+00 0.000000e+00 0.000000e+00 7.469388e-01 2.530613e-01
 0.000000e+00 0.000000e+00 0.000000e+00 0.000000e+00 0.000000e+00
<ENDHMM>
