~o
<STREAMINFO> 1 26
<VECSIZE> 26<NULLD><MFCC_E_D><DIAGC>
~h "j"
<BEGINHMM>
<NUMSTATES> 5
<STATE> 2
<MEAN> 26
 -1.136915e+01 6.005980e+00 2.144430e+01 -8.422386e+00 -2.103278e+00 -1.524403e+00 -1.400377e+01 -4.444875e+00 -1.023223e+01 -6.621505e+00 1.330575e-01 8.316896e-01 1.905165e+01 7.730774e-01 1.248747e-01 9.151742e-01 4.047173e-01 -5.954105e-01 -5.759348e-01 -9.247257e-01 1.876559e-01 -6.699884e-01 -1.268597e+00 2.118652e-01 1.202274e-01 1.934019e-01
<VARIANCE> 26
 2.169373e+01 2.796290e+01 3.130578e+01 4.350145e+01 5.273505e+01 2.523160e+01 4.600052e+01 3.330110e+01 4.682064e+01 3.869972e+01 2.270182e+01 1.949721e+01 9.451920e-01 6.792749e+00 3.774795e+00 4.314753e+00 3.906009e+00 4.171056e+00 4.239050e+00 4.854893e+00 3.119321e+00 3.700153e+00 4.648377e+00 1.817355e+00 1.455225e+00 1.656891e-01
<GCONST> 1.031541e+02
<STATE> 3
<MEAN> 26
 -6.855789e+00 -1.545580e+00 1.777835e+01 -7.293858e+00 -1.052550e+01 -4.799709e+00 -1.788568e+01 -2.380583e+00 -1.138014e+01 -1.003896e+01 1.801772e+00 7.071254e-01 2.021854e+01 2.776263e+00 -2.617709e+00 -1.336241e+00 -1.169560e+00 -1.800287e+00 -9.760678e-01 -3.004221e+00 2.791227e+00 1.590560e-02 3.658496e-01 1.539368e+00 -8.628291e-01 5.015577e-01
<VARIANCE> 26
 9.220597e+00 1.939226e+01 3.232396e+01 8.050220e+01 2.649712e+01 2.976833e+01 3.617137e+01 3.718080e+01 3.113723e+01 4.638575e+01 1.913422e+01 1.096473e+01 5.942559e-01 3.460964e+00 1.903210e+00 3.929065e+00 3.741737e+00 4.590659e+00 4.016304e+00 8.014576e+00 3.527471e+00 2.847331e+00 9.584062e+00 3.388364e+00 2.191419e+00 7.447933e-02
<GCONST> 1.003543e+02
<STATE> 4
<MEAN> 26
 -1.761030e+00 -7.903974e+00 7.936816e+00 -1.322069e+01 -9.308850e+00 -1.250755e+00 -2.039806e+01 3.927715e+00 -7.499712e+00 -1.027702e+00 2.579828e+00 -3.729236e+00 2.061941e+01 1.066326e+00 -6.492900e-01 -2.730419e+00 -1.326472e+00 1.024183e+00 2.201447e+00 6.505167e-01 -4.416602e-02 2.625273e-01 1.729855e+00 1.640567e-01 -1.186043e+00 4.018465e-02
<VARIANCE> 26
 8.472686e+00 2.855297e+01 5.012868e+01 6.524193e+01 4.110355e+01 4.163697e+01 6.292801e+01 4.104636e+01 4.010954e+01 6.597118e+01 5.105083e+01 2.855185e+01 1.979398e+00 7.626085e-01 3.194432e+00 1.866598e+00 5.439775e+00 2.775688e+00 5.139421e+00 5.677485e+00 5.384741e+00 4.686037e+00 4.447080e+00 5.145103e+00 2.134869e+00 5.467936e-02
<GCONST> 1.043292e+02
<TRANSP> 5
 0.000000e+00 1.000000e+00 0.000000e+00 0.000000e+00 0.000000e+00
 0.000000e+00 7.500466e-01 2.499534e-01 0.000000e+00 0.000000e+00
 0.000000e+00 0.000000e+00 5.716553e-01 4.283447e-01 0.000000e+00
 0.000000e+00 0.000000e+00 0.000000e+00 6.621377e-01 3.378623e-01
 0.000000e+00 0.000000e+00 0.000000e+00 0.000000e+00 0.000000e+00
<ENDHMM>
