~o
<STREAMINFO> 1 26
<VECSIZE> 26<NULLD><MFCC_E_D><DIAGC>
~h "k"
<BEGINHMM>
<NUMSTATES> 5
<STATE> 2
<MEAN> 26
 -9.488318e+00 1.163475e+00 5.392512e-02 1.963110e-01 1.545074e+00 6.494040e-01 -2.149704e+00 -1.028293e-01 -4.938597e+00 -4.166430e-01 -5.386841e-02 -2.132418e+00 1.173640e+01 -1.068407e+00 -1.080330e+00 -1.299139e+00 -1.378998e+00 1.588906e-01 3.505341e-01 4.790079e-02 -6.798337e-01 4.872327e-01 2.332727e-01 -1.042204e-01 8.290406e-01 -2.302863e-01
<VARIANCE> 26
 4.124463e+01 3.340590e+01 2.950438e+01 2.352277e+01 3.094576e+01 2.564374e+01 3.499125e+01 2.338762e+01 5.341882e+01 3.247457e+01 2.291450e+01 2.192705e+01 1.061796e+01 5.610702e+00 4.707422e+00 5.277115e+00 1.458363e+01 5.413240e+00 3.381134e+00 7.131404e+00 4.916820e+00 6.829518e+00 4.058427e+00 3.505475e+00 3.358735e+00 2.446458e+00
<GCONST> 1.117440e+02
<STATE> 3
<MEAN> 26
 -9.604204e+00 -6.631783e+00 -7.607382e+00 -1.783205e+01 4.228956e-01 1.563889e+00 -7.854114e+00 -2.825835e+00 -8.669797e+00 3.993083e+00 2.483274e-01 -7.253689e-01 1.588059e+01 7.857533e-01 -1.494933e+00 -1.429016e+00 -5.004805e+00 -2.828616e-01 -8.249287e-03 -2.047396e+00 -1.440943e+00 -1.974961e+00 1.180711e+00 4.418183e-02 -1.083720e-01 1.757746e+00
<VARIANCE> 26
 3.493704e+01 3.474148e+01 7.361949e+01 5.712436e+01 5.618301e+01 4.488613e+01 6.364392e+01 4.485661e+01 4.281329e+01 4.196055e+01 2.999235e+01 2.878971e+01 4.838348e+00 4.245505e+00 3.185622e+00 6.927610e+00 7.283778e+00 4.200265e+00 3.485073e+00 3.957831e+00 4.150953e+00 6.558777e+00 2.972059e+00 3.032751e+00 2.974336e+00 8.947631e-01
<GCONST> 1.119178e+02
<STATE> 4
<MEAN> 26
 -8.337308e+00 -2.732757e+00 -3.215629e+00 -1.532018e+01 -4.683174e-01 -2.080742e-01 -6.609878e+00 -5.321715e+00 -8.670042e+00 2.312952e+00 4.405624e-01 -4.387155e-01 1.719951e+01 1.243088e+00 1.280497e+00 1.968394e+00 1.148093e+00 -1.144659e+00 -1.803678e-01 -2.216154e-01 5.544553e-02 -3.133011e-01 -1.101985e+00 8.422586e-01 -3.876126e-01 5.370782e-01
<VARIANCE> 26
 5.188400e+01 3.066664e+01 8.869975e+01 8.735591e+01 5.057491e+01 4.331843e+01 5.059798e+01 5.267330e+01 7.164069e+01 4.269122e+01 4.094839e+01 3.103345e+01 4.795936e+00 5.281650e+00 3.709409e+00 4.293392e+00 5.378399e+00 7.087854e+00 4.352785e+00 7.736789e+00 5.049618e+00 4.880794e+00 3.930844e+00 5.044734e+00 3.505177e+00 4.512967e-01
<GCONST> 1.146733e+02
<TRANSP> 5
 0.000000e+00 1.000000e+00 0.000000e+00 0.000000e+00 0.000000e+00
 0.000000e+00 7.416108e-01 2.583892e-01 0.000000e+00 0.000000e+00
 0.000000e+00 0.000000e+00 4.652086e-01 5.347915e-01 0.000000e+00
 0.000000e+00 0.000000e+00 0.000000e+00 7.220843e-01 2.779157e-01
 0.000000e+00 0.000000e+00 0.000000e+00 0.000000e+00 0.000000e+00
<ENDHMM>
