~o
<STREAMINFO> 1 26
<VECSIZE> 26<NULLD><MFCC_E_D><DIAGC>
~h "l"
<BEGINHMM>
<NUMSTATES> 5
<STATE> 2
<MEAN> 26
 -1.062466e+00 -3.374201e+00 3.180146e+00 -2.786894e+00 5.552189e-01 -1.868408e+00 -1.348396e+01 -7.010528e+00 -3.461489e+00 3.013523e+00 -2.430978e+00 -3.353184e+00 1.725675e+01 1.886168e+00 -1.391062e-01 1.234645e+00 1.421830e-01 1.510362e+00 -1.306123e+00 -2.786567e+00 -1.616839e+00 -8.538525e-01 -1.702429e-01 -1.287591e+00 -1.115340e+00 7.247732e-01
<VARIANCE> 26
 5.360155e+01 3.191943e+01 7.906627e+01 3.508558e+01 4.377933e+01 5.601953e+01 1.007569e+02 9.299833e+01 4.398010e+01 4.954227e+01 3.960567e+01 3.223127e+01 1.171035e+01 5.411747e+00 5.221056e+00 4.235906e+00 4.308242e+00 6.992144e+00 3.858058e+00 9.513882e+00 5.981208e+00 4.726616e+00 4.706869e+00 4.711066e+00 3.742946e+00 8.084947e-01
<GCONST> 1.167479e+02
<STATE> 3
<MEAN> 26
 2.101848e+00 -1.731952e+00 1.058385e+01 -4.356630e+00 3.603294e+00 -4.205461e+00 -2.403676e+01 -7.742749e+00 -5.447897e+00 -2.012540e+00 -2.892480e+00 -6.536277e+00 1.959776e+01 -1.676549e-01 1.444436e-01 4.533031e-01 -1.995206e-01 7.000305e-02 1.010699e-01 -6.763914e-01 5.398127e-01 -4.750344e-02 -5.323448e-01 4.729370e-01 -5.370608e-01 9.512404e-02
<VARIANCE> 26
 2.193547e+01 2.830824e+01 9.000704e+01 5.258992e+01 5.223911e+01 4.757023e+01 5.823599e+01 7.074976e+01 3.791449e+01 5.160780e+01 3.218972e+01 4.035648e+01 3.838217e-01 8.362308e-01 2.308168e+00 2.628968e+00 2.341950e+00 2.626598e+00 3.117593e+00 4.840601e+00 4.511367e+00 3.600447e+00 3.214796e+00 2.229627e+00 2.582705e+00 3.388234e-02
<GCONST> 1.010872e+02
<STATE> 4
<MEAN> 26
 9.831097e-01 -5.802639e+00 7.136939e+00 -7.636612e+00 -5.872810e-01 -2.462412e+00 -1.852269e+01 -4.049479e+00 -6.518598e+00 5.166951e-01 -4.985559e-02 -7.877667e+00 1.969476e+01 -5.824336e-01 -8.189970e-01 -2.958172e-01 -1.907425e+00 -1.636762e+00 2.823809e-01 1.610221e+00 1.600978e+00 -4.237426e-01 8.567805e-01 1.278452e+00 4.003497e-01 8.443657e-02
<VARIANCE> 26
 1.599122e+01 3.042176e+01 7.040874e+01 8.650329e+01 7.339168e+01 4.688937e+01 1.064069e+02 7.916439e+01 4.949700e+01 7.978284e+01 4.767815e+01 4.011828e+01 2.095513e+00 1.214900e+00 3.822620e+00 7.105070e+00 7.016195e+00 6.865135e+00 5.837390e+00 5.234948e+00 6.571568e+00 6.133575e+00 7.710890e+00 4.721041e+00 3.787718e+00 9.221971e-02
<GCONST> 1.134763e+02
<TRANSP> 5
 0.000000e+00 1.000000e+00 0.000000e+00 0.000000e+00 0.000000e+00
 0.000000e+00 6.085101e-01 3.914900e-01 0.000000e+00 0.000000e+00
 0.000000e+00 0.000000e+00 7.489350e-01 2.510650e-01 0.000000e+00
 0.000000e+00 0.000000e+00 0.000000e+00 7.170810e-01 2.829190e-01
 0.000000e+00 0.000000e+00 0.000000e+00 0.000000e+00 0.000000e+00
<ENDHMM>
