~o
<STREAMINFO> 1 26
<VECSIZE> 26<NULLD><MFCC_E_D><DIAGC>
~h "m"
<BEGINHMM>
<NUMSTATES> 5
<STATE> 2
<MEAN> 26
 1.694498e+00 -1.342348e+00 2.929153e+00 1.425861e+00 -6.294080e+00 1.132531e+00 -1.012973e+01 -1.720454e-01 -1.943911e+01 -5.136954e+00 8.244229e+00 -6.639121e+00 1.926280e+01 1.038117e+00 5.916781e-01 -2.294352e-01 4.211500e+00 4.292944e-02 -3.151962e-01 1.741521e-01 -7.860359e-01 -3.611065e+00 -6.522121e-01 1.298601e+00 -1.340748e+00 2.616986e-01
<VARIANCE> 26
 1.906031e+01 2.684207e+01 4.156701e+01 7.374626e+01 3.620314e+01 4.536000e+01 7.230267e+01 3.706116e+01 7.538354e+01 6.499454e+01 4.481741e+01 2.833275e+01 5.578316e+00 2.482282e+00 2.251011e+00 5.309828e+00 9.011846e+00 2.852355e+00 4.622493e+00 6.199103e+00 5.217647e+00 5.679057e+00 3.052610e+00 4.563426e+00 2.323130e+00 3.803208e-01
<GCONST> 1.106011e+02
<STATE> 3
<MEAN> 26
 2.496986e+00 -1.137146e+00 3.171947e+00 7.290400e+00 -7.133433e+00 9.992106e-01 -1.214667e+01 -3.606382e+00 -2.571819e+01 -5.680551e+00 1.250488e+01 -9.492647e+00 2.041029e+01 -1.089535e-01 -2.353633e-01 6.973293e-02 -5.809980e-02 5.652139e-02 1.350936e-01 -8.816954e-03 -2.346934e-01 -1.413819e-01 9.476446e-02 -3.450237e-02 9.927609e-02 3.595612e-02
<VARIANCE> 26
 5.867315e+00 2.094818e+01 1.415768e+01 1.463242e+01 1.961953e+01 4.473174e+01 5.055457e+01 4.180564e+01 3.858150e+01 7.252238e+01 4.155091e+01 3.531260e+01 2.346386e-01 2.330954e-01 1.076623e+00 1.052220e+00 3.159350e+00 1.191928e+00 1.795517e+00 2.166578e+00 1.847758e+00 2.789655e+00 2.286412e+00 2.744976e+00 1.790680e+00 9.145458e-03
<GCONST> 8.685872e+01
<STATE> 4
<MEAN> 26
 1.729652e+00 -5.522595e+00 2.197925e+00 -6.834187e+00 -6.855069e+00 3.833895e+00 -1.404631e+01 -5.679886e-02 -1.726752e+01 -4.319704e+00 7.579405e+00 -6.605378e+00 2.056172e+01 -4.383689e-01 -1.011501e+00 -4.219612e-02 -5.134321e+00 -2.510568e-01 5.640002e-01 -1.032934e-01 1.540415e+00 3.374317e+00 3.810047e-01 -1.710177e+00 5.535386e-01 9.210044e-02
<VARIANCE> 26
 8.854169e+00 2.874207e+01 4.214031e+01 1.350564e+02 4.823282e+01 6.159397e+01 4.973294e+01 4.424863e+01 8.374404e+01 6.772297e+01 5.586340e+01 2.367879e+01 4.422756e-01 8.147482e-01 2.733421e+00 4.389534e+00 8.077404e+00 3.774729e+00 3.125906e+00 3.606546e+00 3.976278e+00 4.981334e+00 2.963211e+00 3.845632e+00 2.739000e+00 5.639498e-02
<GCONST> 1.043500e+02
<TRANSP> 5
 0.000000e+00 1.000000e+00 0.000000e+00 0.000000e+00 0.000000e+00
 0.000000e+00 6.062024e-01 3.937976e-01 0.000000e+00 0.000000e+00
 0.000000e+00 0.000000e+00 7.997041e-01 2.002960e-01 0.000000e+00
 0.000000e+00 0.000000e+00 0.000000e+00 7.105217e-01 2.894783e-01
 0.000000e+00 0.000000e+00 0.000000e+00 0.000000e+00 0.000000e+00
<ENDHMM>
