~o
<STREAMINFO> 1 26
<VECSIZE> 26<NULLD><MFCC_E_D><DIAGC>
~h "n"
<BEGINHMM>
<NUMSTATES> 5
<STATE> 2
<MEAN> 26
 2.839201e-01 2.228875e+00 6.480925e+00 2.585213e+00 -1.079474e+01 2.043963e+00 -1.002698e+01 -1.869850e+00 -1.868362e+01 -6.983286e-01 6.582783e-03 -7.447993e+00 1.958384e+01 1.143593e+00 1.231592e+00 -8.314421e-01 3.555783e+00 -1.589584e+00 -1.190255e-01 1.989590e+00 -1.369434e+00 -2.201793e+00 7.239096e-01 -9.704019e-01 -1.696068e-01 2.985893e-01
<VARIANCE> 26
 1.339635e+01 2.604492e+01 2.257845e+01 4.679914e+01 5.395052e+01 4.972707e+01 5.141565e+01 4.532383e+01 6.037687e+01 4.770975e+01 4.145640e+01 2.360557e+01 4.475073e+00 2.079732e+00 2.292092e+00 6.269904e+00 5.450146e+00 4.769202e+00 3.482920e+00 6.213485e+00 3.911228e+00 6.582396e+00 3.856373e+00 3.460460e+00 2.745265e+00 4.666551e-01
<GCONST> 1.084182e+02
<STATE> 3
<MEAN> 26
 1.467931e+00 2.361462e+00 5.594983e+00 7.598650e+00 -1.456758e+01 2.407837e+00 -6.112811e+00 -5.250822e+00 -1.817007e+01 -2.107319e+00 -6.719550e-01 -6.200475e+00 2.044511e+01 -1.126307e-01 -8.747938e-02 3.980162e-03 3.702939e-02 3.734202e-02 -2.775593e-01 2.774961e-01 7.691751e-02 2.290717e-01 -4.157372e-01 2.781864e-01 1.367274e-01 2.982096e-02
<VARIANCE> 26
 5.981038e+00 1.321109e+01 9.120244e+00 1.673280e+01 1.477642e+01 1.950515e+01 2.640677e+01 2.524224e+01 3.724911e+01 6.049606e+01 4.403403e+01 2.242648e+01 2.346386e-01 2.629915e-01 1.086362e+00 8.162019e-01 1.279528e+00 1.311980e+00 1.703260e+00 1.543665e+00 1.573823e+00 1.979226e+00 2.499196e+00 2.150175e+00 1.721124e+00 6.924511e-03
<GCONST> 8.093074e+01
<STATE> 4
<MEAN> 26
 -5.609902e-01 -1.381671e+00 6.922743e+00 -2.536807e+00 -9.987271e+00 7.153561e-01 -1.324816e+01 -5.115559e-01 -1.367416e+01 -3.872634e+00 1.744624e+00 -7.465889e+00 2.052795e+01 -6.258981e-01 -1.316411e+00 3.060749e-01 -3.852285e+00 1.359748e+00 -1.592049e-01 -2.378868e+00 1.525706e+00 2.209740e+00 -9.061355e-01 1.370971e+00 7.192888e-02 4.178164e-02
<VARIANCE> 26
 6.725741e+00 2.320805e+01 2.886652e+01 9.458801e+01 4.814563e+01 3.470786e+01 5.775978e+01 3.769356e+01 5.307337e+01 7.875111e+01 5.086605e+01 3.402081e+01 2.346386e-01 6.965786e-01 1.445974e+00 3.401866e+00 5.789623e+00 4.012110e+00 3.288775e+00 5.460021e+00 3.640256e+00 5.069813e+00 3.784854e+00 3.379974e+00 2.271614e+00 1.774615e-02
<GCONST> 9.971689e+01
<TRANSP> 5
 0.000000e+00 1.000000e+00 0.000000e+00 0.000000e+00 0.000000e+00
 0.000000e+00 5.987660e-01 4.012339e-01 0.000000e+00 0.000000e+00
 0.000000e+00 0.000000e+00 7.537346e-01 2.462653e-01 0.000000e+00
 0.000000e+00 0.000000e+00 0.000000e+00 7.287785e-01 2.712215e-01
 0.000000e+00 0.000000e+00 0.000000e+00 0.000000e+00 0.000000e+00
<ENDHMM>
