~o
<STREAMINFO> 1 26
<VECSIZE> 26<NULLD><MFCC_E_D><DIAGC>
~h "n~"
<BEGINHMM>
<NUMSTATES> 5
<STATE> 2
<MEAN> 26
 5.597731e-01 2.287771e-01 7.679071e+00 -2.831789e+00 -8.706610e+00 -4.254808e+00 -1.107196e+01 2.277099e+00 -1.962720e+01 -1.512938e+01 9.600122e+00 -4.560486e+00 2.076066e+01 -2.843174e-01 1.607690e-02 4.037648e-01 -6.401528e-02 3.298646e-01 -7.448255e-02 -1.468164e-01 4.868942e-01 -1.544795e-01 -1.024291e+00 1.729119e+00 -4.591029e-01 1.108200e-02
<VARIANCE> 26
 4.591606e+00 5.074949e+00 2.041789e+01 2.926616e+01 1.959794e+01 2.831738e+01 1.011899e+01 1.912794e+01 1.415676e+01 2.424851e+01 5.109583e+01 1.223216e+01 2.346386e-01 1.745548e+00 1.209522e+00 3.883442e+00 6.863457e+00 1.663392e+00 3.892434e+00 3.220917e+00 2.223036e+00 9.559418e-01 1.949678e+00 2.517886e+00 1.617449e+00 4.406946e-03
<GCONST> 8.420621e+01
<STATE> 3
<MEAN> 26
 -4.491367e+00 -5.873965e-02 1.796073e+01 -1.106198e+01 -1.561265e+01 6.198872e+00 -1.627903e+01 -3.043829e-01 -1.629757e+01 -1.341584e+01 9.706988e+00 -5.635221e+00 2.076693e+01 -5.803345e-01 -5.382133e-01 1.420985e+00 -7.632771e-01 -2.347433e+00 1.588384e+00 -7.399876e-02 -9.554572e-01 1.564820e+00 1.271198e+00 -1.207070e+00 4.564782e-01 -7.151008e-03
<VARIANCE> 26
 7.274076e+00 1.429761e+01 1.572451e+01 3.463583e+01 4.971947e+01 3.141659e+01 2.023762e+01 4.519615e+01 2.555057e+01 2.884361e+01 2.812522e+01 9.150871e+00 2.346386e-01 6.337465e-01 1.242989e+00 2.976918e+00 4.453722e+00 2.824633e+00 1.027050e+01 1.781899e+00 4.937280e+00 9.174688e-01 1.673282e+00 1.642655e+00 7.251966e-01 5.013387e-03
<GCONST> 8.680118e+01
<STATE> 4
<MEAN> 26
 -2.803515e+00 -4.699183e+00 1.242136e+01 -8.173639e+00 -1.560562e+01 9.929115e-01 -1.838634e+01 2.074088e+00 -9.397627e+00 -7.984748e+00 6.320615e+00 -4.516539e+00 2.085366e+01 8.867651e-01 7.103084e-02 -2.376017e+00 1.565783e-01 2.319042e+00 -9.542021e-01 -7.480347e-01 3.429651e-01 5.073513e-01 1.335996e+00 -1.264039e-01 -3.808647e-01 -5.032749e-02
<VARIANCE> 26
 1.168749e+01 1.800571e+01 3.931725e+01 1.834419e+01 3.679410e+01 4.222486e+01 2.414338e+01 2.048026e+01 3.903451e+01 2.550586e+01 1.110626e+01 9.640579e+00 2.346386e-01 2.518256e-01 3.068549e+00 2.182881e+00 3.381440e+00 2.461149e+00 7.797377e+00 5.080877e+00 3.513086e+00 4.278271e+00 2.214696e+00 1.987619e+00 2.550899e+00 5.562033e-02
<GCONST> 9.195432e+01
<TRANSP> 5
 0.000000e+00 1.000000e+00 0.000000e+00 0.000000e+00 0.000000e+00
 0.000000e+00 7.569198e-01 2.430802e-01 0.000000e+00 0.000000e+00
 0.000000e+00 0.000000e+00 7.507826e-01 2.492174e-01 0.000000e+00
 0.000000e+00 0.000000e+00 0.000000e+00 7.850091e-01 2.149909e-01
 0.000000e+00 0.000000e+00 0.000000e+00 0.000000e+00 0.000000e+00
<ENDHMM>
