~o
<STREAMINFO> 1 26
<VECSIZE> 26<NULLD><MFCC_E_D><DIAGC>
~h "o"
<BEGINHMM>
<NUMSTATES> 5
<STATE> 2
<MEAN> 26
 3.868074e-01 -4.118660e-01 1.103590e+00 -2.121330e+01 -9.386630e+00 7.283259e+00 -1.533971e+01 -6.857191e+00 -1.289380e+01 1.374874e-01 9.033958e+00 -6.428155e+00 2.046912e+01 1.672442e+00 -6.366094e-01 -1.033389e-01 -2.959446e+00 -2.889606e+00 2.296228e+00 -2.490680e+00 3.886885e-01 -1.915297e+00 -1.749156e-01 2.589512e+00 -1.435696e+00 7.233343e-01
<VARIANCE> 26
 1.332153e+01 3.757529e+01 2.317610e+01 7.256713e+01 4.687622e+01 3.093424e+01 7.356903e+01 5.700829e+01 5.100309e+01 5.492281e+01 6.650564e+01 3.508657e+01 3.057174e+00 3.150962e+00 2.930968e+00 3.633728e+00 6.848670e+00 4.874244e+00 2.847549e+00 4.740690e+00 3.667047e+00 5.581793e+00 4.728398e+00 5.321375e+00 3.310484e+00 2.884074e-01
<GCONST> 1.096813e+02
<STATE> 3
<MEAN> 26
 1.464170e+00 -3.618968e+00 -1.819950e+00 -2.721817e+01 -1.172163e+01 1.165340e+01 -1.581054e+01 -5.779753e+00 -1.460446e+01 1.835318e+00 1.095657e+01 -8.029534e+00 2.171185e+01 1.324235e-02 -8.991284e-02 -2.221878e-01 -1.801977e-01 1.465049e-01 7.116170e-02 2.987396e-01 -5.511649e-02 -1.830723e-01 -7.863981e-02 -3.562512e-01 4.844303e-02 1.385566e-02
<VARIANCE> 26
 4.886325e+00 3.205438e+01 2.478433e+01 3.806818e+01 3.095759e+01 1.615548e+01 4.923600e+01 3.406622e+01 3.470597e+01 8.065714e+01 4.263338e+01 2.781284e+01 3.235931e-01 3.917979e-01 1.217879e+00 1.344314e+00 3.222833e+00 2.201526e+00 1.952285e+00 3.842861e+00 1.861282e+00 2.481594e+00 2.524042e+00 2.726075e+00 1.961518e+00 2.819718e-02
<GCONST> 9.130975e+01
<STATE> 4
<MEAN> 26
 1.149726e+00 -1.017175e+00 3.729534e-01 -1.853719e+01 -6.888307e+00 6.142556e+00 -1.478893e+01 -6.078580e+00 -1.309411e+01 -1.042184e+00 5.531212e+00 -7.399282e+00 2.047161e+01 -5.474237e-01 9.611164e-01 8.309845e-01 3.841743e+00 2.027288e+00 -1.832044e+00 1.995850e+00 -1.963010e-02 1.172043e+00 -5.685723e-01 -2.316233e+00 9.351497e-01 -5.322998e-01
<VARIANCE> 26
 1.247193e+01 4.817165e+01 3.461985e+01 1.235511e+02 4.231995e+01 3.998274e+01 1.394830e+02 6.296911e+01 3.776339e+01 5.755599e+01 6.980142e+01 5.389561e+01 2.088654e+00 2.849538e+00 3.447772e+00 2.980407e+00 7.266597e+00 4.776079e+00 3.744428e+00 5.942797e+00 3.577523e+00 6.917195e+00 4.674085e+00 5.190672e+00 2.701463e+00 1.687623e-01
<GCONST> 1.113502e+02
<TRANSP> 5
 0.000000e+00 1.000000e+00 0.000000e+00 0.000000e+00 0.000000e+00
 0.000000e+00 5.560653e-01 4.439347e-01 0.000000e+00 0.000000e+00
 0.000000e+00 0.000000e+00 8.348814e-01 1.651186e-01 0.000000e+00
 0.000000e+00 0.000000e+00 0.000000e+00 6.701945e-01 3.298055e-01
 0.000000e+00 0.000000e+00 0.000000e+00 0.000000e+00 0.000000e+00
<ENDHMM>
