~o
<STREAMINFO> 1 26
<VECSIZE> 26<NULLD><MFCC_E_D><DIAGC>
~h "o^"
<BEGINHMM>
<NUMSTATES> 5
<STATE> 2
<MEAN> 26
 9.663972e-01 4.568163e-01 1.601620e+00 -2.571570e+01 -8.663820e+00 4.783242e+00 -1.130123e+01 -4.952565e+00 -1.468564e+01 7.776107e-01 6.232767e+00 -3.052065e+00 1.958557e+01 2.133987e+00 5.870226e-01 7.545590e-01 -5.009442e+00 -3.108490e+00 2.257212e+00 -1.398438e+00 3.120762e-01 -2.904872e+00 -9.260982e-01 1.947960e+00 -1.221344e+00 1.247509e+00
<VARIANCE> 26
 1.735337e+01 3.585984e+01 1.296682e+01 1.159340e+02 3.404522e+01 2.534492e+01 6.292791e+01 4.812284e+01 6.223140e+01 5.305168e+01 9.252966e+01 2.201357e+01 8.860086e+00 4.240741e+00 1.596157e+00 1.930898e+00 1.607303e+01 2.921405e+00 2.277294e+00 4.847178e+00 3.796639e+00 7.300939e+00 3.652538e+00 4.998663e+00 4.764013e+00 1.729694e+00
<GCONST> 1.113692e+02
<STATE> 3
<MEAN> 26
 2.784672e+00 3.171383e-01 3.103626e+00 -3.006335e+01 -1.606105e+01 1.072979e+01 -1.322111e+01 -4.312241e+00 -1.612558e+01 -6.029478e+00 1.248350e+01 -7.553862e+00 2.162220e+01 8.797052e-02 3.314093e-02 2.598414e-02 -1.217065e-01 -1.066752e-01 1.961616e-01 -3.197088e-01 5.544148e-02 -5.252153e-01 -1.701398e-01 3.068804e-02 -1.440991e-01 1.051817e-02
<VARIANCE> 26
 5.868705e+00 1.278653e+01 1.947209e+01 2.896437e+01 2.274271e+01 1.439706e+01 2.182782e+01 4.178550e+01 4.863979e+01 4.350815e+01 3.849784e+01 2.732098e+01 3.529112e-01 3.741581e-01 1.087039e+00 8.670431e-01 2.897995e+00 2.279488e+00 1.410625e+00 1.817153e+00 2.308553e+00 2.237600e+00 3.733380e+00 2.323807e+00 1.801983e+00 3.366322e-02
<GCONST> 8.740607e+01
<STATE> 4
<MEAN> 26
 1.826663e+00 1.794490e+00 1.589898e+00 -2.296489e+01 -6.070466e+00 4.928855e+00 -1.337584e+01 -4.576021e+00 -1.808137e+01 1.978367e-01 6.839725e+00 -5.892437e+00 1.978223e+01 -9.639264e-01 9.154598e-01 -1.723418e-01 3.614410e+00 2.174162e+00 -2.021040e+00 1.588102e+00 -3.586009e-01 2.140045e+00 6.961612e-01 -1.921987e+00 6.877407e-01 -8.201233e-01
<VARIANCE> 26
 1.348022e+01 3.664241e+01 2.464541e+01 1.328096e+02 6.646928e+01 4.398663e+01 9.368369e+01 6.747624e+01 6.204782e+01 5.991879e+01 7.226811e+01 5.905394e+01 3.564481e+00 2.009576e+00 3.625437e+00 3.276239e+00 8.025330e+00 3.989898e+00 3.059081e+00 6.790516e+00 3.955209e+00 6.773743e+00 7.562113e+00 6.297273e+00 5.984000e+00 4.034732e-01
<GCONST> 1.143692e+02
<TRANSP> 5
 0.000000e+00 1.000000e+00 0.000000e+00 0.000000e+00 0.000000e+00
 0.000000e+00 5.335604e-01 4.664396e-01 0.000000e+00 0.000000e+00
 0.000000e+00 0.000000e+00 8.712871e-01 1.287129e-01 0.000000e+00
 0.000000e+00 0.000000e+00 0.000000e+00 7.553138e-01 2.446862e-01
 0.000000e+00 0.000000e+00 0.000000e+00 0.000000e+00 0.000000e+00
<ENDHMM>
