~o
<STREAMINFO> 1 26
<VECSIZE> 26<NULLD><MFCC_E_D><DIAGC>
~h "o~"
<BEGINHMM>
<NUMSTATES> 5
<STATE> 2
<MEAN> 26
 1.066681e+00 4.408745e-02 3.090123e-01 -1.581003e+01 -1.284010e+01 6.909546e+00 -8.951478e+00 2.639714e+00 -1.173781e+01 -5.089710e+00 5.778081e+00 -2.857987e+00 1.985453e+01 1.748376e+00 -5.578179e-04 -1.387284e-01 -1.245694e+00 -3.350280e+00 6.440722e-01 -5.827565e-01 1.861420e+00 -1.022585e+00 -4.997151e-01 8.195892e-01 -9.994947e-01 5.685288e-01
<VARIANCE> 26
 1.243405e+01 2.270495e+01 1.554801e+01 4.092164e+01 4.470033e+01 3.359229e+01 4.848853e+01 3.826282e+01 4.425280e+01 3.369918e+01 3.717864e+01 1.491378e+01 2.961841e+00 3.696542e+00 1.835965e+00 2.859451e+00 4.705269e+00 4.437655e+00 4.224898e+00 6.086833e+00 4.965761e+00 5.830925e+00 3.173989e+00 3.618542e+00 1.369718e+00 2.330954e-01
<GCONST> 1.033513e+02
<STATE> 3
<MEAN> 26
 1.909370e+00 -2.164014e+00 -1.013978e+00 -1.227164e+01 -1.857268e+01 6.372686e+00 -9.511282e+00 2.846953e+00 -1.380078e+01 -3.640002e+00 2.910311e+00 -5.804969e+00 2.064661e+01 4.114305e-02 1.385190e-01 -1.159750e-01 6.774499e-01 -7.727071e-02 4.590112e-02 2.721452e-01 -3.685214e-01 -7.225664e-01 4.248037e-01 -8.412117e-01 -2.225181e-01 -4.839353e-02
<VARIANCE> 26
 3.822159e+00 1.327613e+01 1.308477e+01 2.384672e+01 1.811202e+01 1.963489e+01 2.036881e+01 2.105331e+01 3.218658e+01 2.231942e+01 2.331518e+01 1.570278e+01 2.346386e-01 2.947882e-01 7.532225e-01 1.153054e+00 2.706011e+00 1.900785e+00 2.348664e+00 1.853071e+00 1.794948e+00 2.097780e+00 1.685478e+00 1.645399e+00 9.726287e-01 1.393408e-02
<GCONST> 8.021056e+01
<STATE> 4
<MEAN> 26
 2.613945e+00 1.090531e+00 -5.847307e-01 -5.922242e+00 -9.957903e+00 5.010972e+00 -2.964541e+00 -1.262262e+00 -1.771001e+01 -7.398517e-01 -4.120209e+00 -3.161655e+00 1.926368e+01 -6.114764e-01 9.822295e-01 1.209167e-01 1.547400e+00 2.645903e+00 -9.748079e-01 1.877766e+00 -1.377771e+00 1.248215e+00 -4.611162e-02 4.593304e-02 9.772061e-01 -5.721961e-01
<VARIANCE> 26
 5.694880e+00 2.919288e+01 1.250237e+01 9.540042e+01 5.824946e+01 4.491985e+01 4.321015e+01 3.230986e+01 4.309494e+01 3.538268e+01 3.405106e+01 2.946811e+01 1.006880e+00 2.072169e+00 2.709443e+00 1.319245e+00 5.835986e+00 2.695127e+00 3.368123e+00 3.267188e+00 3.179287e+00 4.315511e+00 2.667284e+00 3.863812e+00 2.480696e+00 1.406200e-01
<GCONST> 1.003956e+02
<TRANSP> 5
 0.000000e+00 1.000000e+00 0.000000e+00 0.000000e+00 0.000000e+00
 0.000000e+00 5.549681e-01 4.450319e-01 0.000000e+00 0.000000e+00
 0.000000e+00 0.000000e+00 8.813369e-01 1.186630e-01 0.000000e+00
 0.000000e+00 0.000000e+00 0.000000e+00 7.247793e-01 2.752207e-01
 0.000000e+00 0.000000e+00 0.000000e+00 0.000000e+00 0.000000e+00
<ENDHMM>
