~o
<STREAMINFO> 1 26
<VECSIZE> 26<NULLD><MFCC_E_D><DIAGC>
~h "p"
<BEGINHMM>
<NUMSTATES> 5
<STATE> 2
<MEAN> 26
 -3.859138e+00 7.512061e+00 3.978770e+00 2.814105e+00 1.600772e+00 5.874395e-01 -4.049811e+00 -3.833628e+00 -6.760601e+00 -2.087254e+00 -1.119443e+00 -5.508682e+00 1.414385e+01 -2.979631e+00 3.233416e-01 -4.687347e-01 1.951127e+00 1.025503e+00 6.285766e-02 1.537010e+00 6.970320e-01 1.748258e+00 -7.628259e-02 -4.756751e-01 2.567051e-01 -1.662107e+00
<VARIANCE> 26
 5.234448e+01 2.674994e+01 2.474094e+01 2.339421e+01 2.321325e+01 1.776208e+01 3.794499e+01 2.901428e+01 4.157439e+01 2.871280e+01 2.691813e+01 1.976393e+01 8.870622e+00 3.243305e+00 8.127340e+00 3.754068e+00 8.869616e+00 2.514969e+00 2.971095e+00 3.924371e+00 3.159726e+00 3.099383e+00 3.847916e+00 3.065136e+00 2.356790e+00 4.631312e-01
<GCONST> 1.049526e+02
<STATE> 3
<MEAN> 26
 -1.351268e+01 2.208543e+00 -8.888318e-02 1.562779e+00 2.080731e+00 1.566223e+00 -2.631097e-01 1.647784e+00 2.213617e-01 1.858532e+00 1.617358e+00 -6.257665e-01 9.777850e+00 1.942295e-02 -7.101719e-01 -3.434009e-01 -1.117888e+00 -2.493579e-01 -2.224002e-01 4.808879e-02 -1.430439e-01 3.274423e-01 4.171335e-01 2.685131e-01 6.748591e-01 2.934381e-01
<VARIANCE> 26
 1.970007e+00 3.670558e+00 5.626602e+00 7.775133e+00 1.010073e+01 1.078900e+01 1.249916e+01 1.213434e+01 1.325425e+01 1.425507e+01 1.304210e+01 1.629426e+01 2.759381e+00 1.385586e+00 1.021340e+00 1.269823e+00 2.375211e+00 1.529882e+00 1.352373e+00 1.726017e+00 2.793851e+00 2.159039e+00 2.009873e+00 1.660259e+00 2.071504e+00 1.032117e+00
<GCONST> 8.135597e+01
<STATE> 4
<MEAN> 26
 -7.894845e+00 -2.704232e+00 3.010730e-01 -9.104117e+00 1.469044e+00 3.866952e-01 -3.702617e+00 -4.041626e+00 -2.674379e+00 2.959928e+00 9.706827e-01 -1.554733e-01 1.642499e+01 2.452970e+00 -1.520285e+00 -2.958344e-01 -3.575326e+00 -8.403252e-01 8.169112e-01 -2.508470e+00 -5.694960e-01 -1.625515e+00 9.412340e-02 3.420319e-01 -1.263373e+00 1.892509e+00
<VARIANCE> 26
 3.891852e+01 1.924243e+01 2.378981e+01 5.371399e+01 2.536771e+01 2.425743e+01 4.599547e+01 2.851217e+01 3.458297e+01 2.258040e+01 2.044550e+01 3.311017e+01 8.258527e+00 4.280095e+00 4.505722e+00 4.318793e+00 7.654380e+00 5.209255e+00 5.807320e+00 6.565319e+00 4.540940e+00 5.246037e+00 4.591746e+00 4.316012e+00 4.584154e+00 1.023320e+00
<GCONST> 1.098985e+02
<TRANSP> 5
 0.000000e+00 1.000000e+00 0.000000e+00 0.000000e+00 0.000000e+00
 0.000000e+00 6.980577e-01 3.019423e-01 0.000000e+00 0.000000e+00
 0.000000e+00 0.000000e+00 8.005415e-01 1.994585e-01 0.000000e+00
 0.000000e+00 0.000000e+00 0.000000e+00 6.919261e-01 3.080739e-01
 0.000000e+00 0.000000e+00 0.000000e+00 0.000000e+00 0.000000e+00
<ENDHMM>
