~o
<STREAMINFO> 1 26
<VECSIZE> 26<NULLD><MFCC_E_D><DIAGC>
~h "q"
<BEGINHMM>
<NUMSTATES> 5
<STATE> 2
<MEAN> 26
 -1.308173e+00 -3.540022e+00 5.374527e+00 -1.546235e+01 -6.504408e+00 3.878710e+00 -1.798765e+01 -6.239535e+00 -9.175850e+00 3.081043e+00 4.300954e+00 -6.058472e+00 2.033822e+01 1.132727e+00 -1.431764e+00 2.001909e-01 -7.188893e-01 -1.486810e+00 4.847845e-01 -2.945798e+00 4.650967e-01 -1.016286e+00 1.086161e+00 1.877688e+00 -1.649102e+00 3.949459e-01
<VARIANCE> 26
 1.979124e+01 3.157056e+01 4.009486e+01 7.293984e+01 4.691183e+01 6.386871e+01 9.165190e+01 5.024125e+01 2.828970e+01 4.957990e+01 3.356099e+01 4.398906e+01 1.174789e+00 3.373893e+00 1.956087e+00 2.467317e+00 4.118491e+00 5.840601e+00 3.910878e+00 7.368216e+00 3.540592e+00 3.957015e+00 3.466487e+00 3.992133e+00 3.730357e+00 1.467211e-01
<GCONST> 1.073435e+02
<STATE> 3
<MEAN> 26
 -1.008771e+00 -6.099046e+00 7.369214e+00 -1.263542e+01 -6.650156e+00 1.171239e+00 -2.553802e+01 -2.786026e+00 -9.276035e+00 3.189258e+00 6.837731e+00 -1.049694e+01 2.071043e+01 1.998933e-01 6.666282e-01 -1.972983e-01 6.977040e-01 6.103518e-01 -2.898283e-01 9.200000e-01 1.590471e-01 -3.749601e-01 3.897076e-02 -3.962552e-01 4.316551e-01 -1.504424e-01
<VARIANCE> 26
 1.295261e+01 1.397895e+01 3.527303e+01 2.839472e+01 3.437410e+01 2.551739e+01 5.480646e+01 4.187335e+01 3.463920e+01 6.176785e+01 3.420191e+01 1.966893e+01 9.349202e-01 6.293877e-01 1.763616e+00 1.855903e+00 5.032638e+00 2.526485e+00 3.005660e+00 4.351885e+00 3.132478e+00 3.117620e+00 4.519489e+00 2.483401e+00 1.910119e+00 5.949871e-02
<GCONST> 9.687939e+01
<STATE> 4
<MEAN> 26
 -1.819966e+00 2.361397e-01 5.763934e-01 -6.600561e+00 4.399417e+00 -8.632472e-02 -4.771470e+00 -2.153631e+00 -5.729439e+00 1.071618e+00 2.958124e-01 -2.169758e+00 1.711451e+01 -7.489171e-01 1.247771e+00 -1.266973e-01 2.090338e+00 4.250440e-01 3.650503e-01 2.530653e+00 7.141698e-02 1.309180e+00 -7.031618e-01 -5.061905e-01 6.893139e-01 -6.089111e-01
<VARIANCE> 26
 5.134412e+01 2.686152e+01 5.095466e+01 7.697141e+01 6.747517e+01 5.579396e+01 1.400081e+02 4.223863e+01 5.431806e+01 7.240371e+01 4.449746e+01 3.001646e+01 7.712673e+00 3.715161e+00 3.818886e+00 2.196580e+00 4.242251e+00 4.065432e+00 4.480301e+00 6.317481e+00 4.215223e+00 4.676246e+00 3.592701e+00 3.445519e+00 2.858176e+00 2.601908e-01
<GCONST> 1.125550e+02
<TRANSP> 5
 0.000000e+00 1.000000e+00 0.000000e+00 0.000000e+00 0.000000e+00
 0.000000e+00 5.341293e-01 4.658708e-01 0.000000e+00 0.000000e+00
 0.000000e+00 0.000000e+00 7.304934e-01 2.695066e-01 0.000000e+00
 0.000000e+00 0.000000e+00 0.000000e+00 7.450849e-01 2.549151e-01
 0.000000e+00 0.000000e+00 0.000000e+00 0.000000e+00 0.000000e+00
<ENDHMM>
