~o
<STREAMINFO> 1 26
<VECSIZE> 26<NULLD><MFCC_E_D><DIAGC>
~h "r"
<BEGINHMM>
<NUMSTATES> 5
<STATE> 2
<MEAN> 26
 -2.876142e+00 -8.687342e-01 -2.421315e+00 -2.112155e+01 8.973019e-01 7.253578e+00 -5.295139e+00 -8.506229e+00 -3.412131e+00 3.856638e+00 -1.167698e+00 -1.217764e+00 1.890314e+01 -7.666779e-01 1.907717e+00 -7.676751e-01 5.527091e-01 1.379407e+00 1.162208e+00 8.767201e-01 -6.363337e-01 1.440969e+00 -6.189988e-01 -2.712547e-01 1.280712e+00 -3.825127e-01
<VARIANCE> 26
 2.217971e+01 4.524199e+01 2.533461e+01 5.209918e+01 8.676460e+01 3.936140e+01 5.634363e+01 4.152542e+01 5.286588e+01 5.239852e+01 3.796893e+01 3.175611e+01 2.688040e+00 2.429046e+00 3.168297e+00 2.478626e+00 6.018728e+00 5.013524e+00 5.087347e+00 5.185058e+00 4.385512e+00 4.268791e+00 3.775739e+00 3.998883e+00 3.316725e+00 3.357576e-01
<GCONST> 1.091652e+02
<STATE> 3
<MEAN> 26
 -9.008104e+00 3.055946e-01 -5.719370e+00 -1.475085e+01 7.049376e+00 1.052117e+01 -3.170786e+00 -5.345421e+00 5.201958e-01 9.281300e-01 7.115687e-01 2.023792e+00 1.599698e+01 -2.326265e-01 4.548641e-02 -3.051446e-02 5.891637e-01 -3.230419e-01 -5.600967e-01 2.160079e-01 4.431469e-01 -4.688043e-02 -1.123034e-01 1.203735e-01 6.081228e-02 -2.076986e-01
<VARIANCE> 26
 1.589961e+01 2.200189e+01 1.635263e+01 4.689096e+01 8.273241e+01 4.564240e+01 4.587412e+01 3.419674e+01 3.591291e+01 4.043224e+01 2.862888e+01 2.308895e+01 7.094978e+00 1.594816e+00 1.229415e+00 1.690138e+00 2.387125e+00 3.276696e+00 3.471246e+00 2.724747e+00 3.205071e+00 2.716587e+00 3.097572e+00 2.654716e+00 1.951728e+00 1.094423e-01
<GCONST> 9.984214e+01
<STATE> 4
<MEAN> 26
 -4.077823e+00 3.225931e+00 -1.141668e+00 -1.666910e+01 -8.827336e-01 4.199078e+00 -4.323685e+00 -6.327177e+00 -1.991204e+00 1.086830e+00 -7.833431e-02 6.699165e-01 1.791078e+01 8.598610e-01 -6.263814e-01 1.154571e+00 8.496755e-01 -1.608849e+00 -9.644496e-01 -5.894949e-01 3.396978e-01 -1.322784e+00 -3.912352e-02 3.062978e-01 -9.883217e-01 1.800647e-01
<VARIANCE> 26
 3.892391e+01 5.357586e+01 4.592522e+01 8.244789e+01 9.445099e+01 4.107556e+01 6.191132e+01 4.967125e+01 6.183932e+01 3.634640e+01 3.025242e+01 3.481649e+01 5.722017e+00 3.512347e+00 3.782773e+00 3.988078e+00 9.709983e+00 7.595973e+00 4.040679e+00 4.188433e+00 4.321687e+00 5.383289e+00 3.510252e+00 3.320118e+00 3.062545e+00 5.847057e-01
<GCONST> 1.136678e+02
<TRANSP> 5
 0.000000e+00 1.000000e+00 0.000000e+00 0.000000e+00 0.000000e+00
 0.000000e+00 6.770771e-01 3.229229e-01 0.000000e+00 0.000000e+00
 0.000000e+00 0.000000e+00 7.431697e-01 2.568303e-01 0.000000e+00
 0.000000e+00 0.000000e+00 0.000000e+00 6.330505e-01 3.669495e-01
 0.000000e+00 0.000000e+00 0.000000e+00 0.000000e+00 0.000000e+00
<ENDHMM>
