~o
<STREAMINFO> 1 26
<VECSIZE> 26<NULLD><MFCC_E_D><DIAGC>
~h "s"
<BEGINHMM>
<NUMSTATES> 5
<STATE> 2
<MEAN> 26
 -1.809841e+01 3.396456e+00 -8.939723e-01 -7.044884e+00 2.899314e+00 -2.140755e+00 -1.852266e+00 -1.638395e+00 -2.555615e+00 1.708110e+00 -1.125086e+00 6.756527e-01 1.595547e+01 -3.681002e+00 -4.017354e-01 -1.923851e+00 -5.285085e-01 2.285265e-01 4.347644e-01 4.875661e-01 3.091191e-01 7.853286e-01 5.837659e-01 3.123157e-01 1.087249e+00 -2.157302e-01
<VARIANCE> 26
 5.159896e+01 3.384011e+01 3.828308e+01 3.618391e+01 3.185380e+01 4.099766e+01 2.881619e+01 3.662129e+01 3.392001e+01 2.597276e+01 2.648911e+01 2.183287e+01 7.014294e+00 4.673420e+00 3.951310e+00 5.468795e+00 5.854435e+00 4.481403e+00 5.207248e+00 4.330999e+00 3.229355e+00 4.267021e+00 2.775459e+00 2.771750e+00 2.672900e+00 4.213764e-01
<GCONST> 1.074894e+02
<STATE> 3
<MEAN> 26
 -2.822244e+01 1.738369e+00 -8.657245e+00 -1.140361e+01 -3.373648e-01 -1.464375e+00 -3.972346e+00 -2.453331e+00 -3.369312e+00 2.651027e+00 3.436342e-01 3.636818e+00 1.669683e+01 -1.427953e-01 1.710286e-03 1.355539e-01 -1.541201e-01 -2.066200e-01 1.984566e-02 -2.209705e-01 -2.164598e-01 -2.290562e-02 -7.513937e-02 -4.654100e-02 6.836230e-02 5.642717e-02
<VARIANCE> 26
 6.020929e+00 9.160188e+00 2.454498e+01 3.053770e+01 2.937245e+01 2.816213e+01 2.123195e+01 2.471522e+01 2.104644e+01 1.778689e+01 1.365215e+01 1.354894e+01 9.059533e-01 8.243786e-01 8.059527e-01 2.050064e+00 1.391466e+00 1.917637e+00 2.098223e+00 1.764392e+00 1.821635e+00 1.804344e+00 1.773093e+00 1.527303e+00 1.482979e+00 4.914575e-02
<GCONST> 8.460857e+01
<STATE> 4
<MEAN> 26
 -1.881068e+01 1.596736e+00 7.952739e-01 -1.059037e+01 1.657535e-01 -1.950761e+00 -6.194067e+00 -4.201767e+00 -4.483448e+00 1.508600e+00 -1.538397e+00 2.888803e-01 1.713678e+01 4.681192e+00 -6.769907e-01 2.830052e+00 1.773678e-02 -1.031155e+00 -5.171994e-01 -2.035253e+00 4.135722e-02 -1.597718e+00 -5.723155e-01 1.795401e-01 -1.682235e+00 3.637224e-01
<VARIANCE> 26
 8.814678e+01 3.412112e+01 5.876497e+01 4.068087e+01 4.586799e+01 5.417845e+01 4.759141e+01 3.364583e+01 3.014780e+01 3.096774e+01 2.216329e+01 3.235382e+01 5.951782e+00 5.082832e+00 5.485267e+00 5.833500e+00 7.851647e+00 4.046764e+00 6.568123e+00 7.051820e+00 4.267559e+00 3.898844e+00 5.649939e+00 3.753584e+00 4.019511e+00 6.598236e-01
<GCONST> 1.131947e+02
<TRANSP> 5
 0.000000e+00 1.000000e+00 0.000000e+00 0.000000e+00 0.000000e+00
 0.000000e+00 7.448875e-01 2.551125e-01 0.000000e+00 0.000000e+00
 0.000000e+00 0.000000e+00 8.910706e-01 1.089294e-01 0.000000e+00
 0.000000e+00 0.000000e+00 0.000000e+00 7.230232e-01 2.769768e-01
 0.000000e+00 0.000000e+00 0.000000e+00 0.000000e+00 0.000000e+00
<ENDHMM>
