~o
<STREAMINFO> 1 26
<VECSIZE> 26<NULLD><MFCC_E_D><DIAGC>
~h "s^"
<BEGINHMM>
<NUMSTATES> 5
<STATE> 2
<MEAN> 26
 -1.899132e+01 -9.604372e-01 8.058294e+00 -8.183855e+00 2.254194e+00 -4.447916e+00 2.084286e-01 -8.615411e+00 -2.454119e+00 -2.013247e+00 -3.803771e+00 -5.030766e-01 1.798838e+01 -4.658473e+00 -1.275392e+00 -7.923643e-02 1.350370e-01 1.295211e+00 2.271926e-01 2.518367e+00 1.568018e-01 2.193411e+00 3.128880e-01 1.087538e+00 5.292225e-01 -2.930025e-01
<VARIANCE> 26
 6.079488e+01 2.827368e+01 2.952360e+01 2.556728e+01 4.596434e+01 5.489516e+01 4.710340e+01 4.369587e+01 4.141806e+01 4.773391e+01 3.174210e+01 1.962359e+01 2.646163e+00 2.929683e+00 4.773588e+00 5.197737e+00 5.375947e+00 3.937741e+00 6.087176e+00 3.913966e+00 3.450786e+00 3.783899e+00 3.919432e+00 3.362460e+00 2.018240e+00 2.112335e-01
<GCONST> 1.071254e+02
<STATE> 3
<MEAN> 26
 -3.047891e+01 -6.869744e+00 5.532101e+00 -1.268531e+01 1.508840e+00 -5.298773e+00 3.495088e+00 -7.194598e+00 1.927463e+00 1.463769e+00 -2.000252e-01 1.851292e+00 1.816767e+01 1.851469e-02 3.638071e-02 -5.765164e-02 -2.036926e-01 -3.148301e-02 -2.126358e-01 -6.471695e-02 -1.716147e-01 1.485540e-01 1.691364e-01 -2.419718e-02 -1.067020e-02 -1.016641e-02
<VARIANCE> 26
 7.342322e+00 9.299441e+00 9.912906e+00 1.163043e+01 2.438234e+01 2.944789e+01 1.924778e+01 1.634786e+01 1.240695e+01 1.717062e+01 1.062780e+01 1.415761e+01 3.547807e-01 1.636087e+00 8.808616e-01 6.998478e-01 1.108343e+00 1.377086e+00 1.345394e+00 1.498424e+00 1.659238e+00 1.385649e+00 1.648236e+00 1.371639e+00 1.520514e+00 2.625274e-02
<GCONST> 7.798258e+01
<STATE> 4
<MEAN> 26
 -1.592566e+01 -3.752365e+00 3.924384e+00 -1.016833e+01 1.037810e+00 -5.162617e+00 -1.980002e+00 -9.447701e+00 1.822610e-01 6.055420e-02 -2.225147e+00 -7.583569e-01 1.713448e+01 4.813747e+00 2.356795e-01 -7.301219e-01 6.057286e-01 -1.437096e+00 9.957533e-01 -3.066760e+00 -1.016272e-01 -1.388534e+00 -1.432057e-01 4.462963e-01 -5.231627e-01 7.341488e-02
<VARIANCE> 26
 9.567871e+01 1.927400e+01 3.225313e+01 2.777775e+01 4.474010e+01 3.975673e+01 5.101854e+01 3.356506e+01 2.932035e+01 3.918550e+01 2.554177e+01 2.206227e+01 5.718687e+00 8.009128e+00 3.450742e+00 3.009136e+00 2.409017e+00 6.825496e+00 7.377621e+00 7.057435e+00 4.732348e+00 4.990030e+00 5.955309e+00 5.092299e+00 2.983167e+00 5.216619e-01
<GCONST> 1.103456e+02
<TRANSP> 5
 0.000000e+00 1.000000e+00 0.000000e+00 0.000000e+00 0.000000e+00
 0.000000e+00 7.415441e-01 2.584559e-01 0.000000e+00 0.000000e+00
 0.000000e+00 0.000000e+00 8.974097e-01 1.025903e-01 0.000000e+00
 0.000000e+00 0.000000e+00 0.000000e+00 7.553245e-01 2.446754e-01
 0.000000e+00 0.000000e+00 0.000000e+00 0.000000e+00 0.000000e+00
<ENDHMM>
