~o
<STREAMINFO> 1 26
<VECSIZE> 26<NULLD><MFCC_E_D><DIAGC>
~h "t"
<BEGINHMM>
<NUMSTATES> 5
<STATE> 2
<MEAN> 26
 -4.603888e+00 8.073277e+00 5.738760e+00 2.293734e+00 9.166827e-02 -2.559968e+00 -4.582720e+00 -2.710893e+00 -6.582410e+00 -1.727402e+00 -2.214275e+00 -4.332483e+00 1.464166e+01 -2.093555e+00 1.638359e-01 -1.167317e+00 1.710283e+00 9.969662e-01 8.819393e-01 1.353451e+00 3.835522e-01 1.547984e+00 -6.735785e-01 -1.234840e-01 2.155585e-01 -1.685783e+00
<VARIANCE> 26
 4.289860e+01 3.418690e+01 3.599047e+01 3.194003e+01 3.712721e+01 3.693117e+01 3.485159e+01 2.911967e+01 4.440159e+01 3.186006e+01 2.434496e+01 2.168806e+01 8.665132e+00 4.151171e+00 8.825660e+00 4.165201e+00 8.895695e+00 3.878889e+00 4.840688e+00 3.638431e+00 3.829766e+00 3.557214e+00 3.061355e+00 3.015830e+00 2.729731e+00 5.046605e-01
<GCONST> 1.085439e+02
<STATE> 3
<MEAN> 26
 -1.356825e+01 2.390825e+00 3.772931e-01 1.171458e+00 1.976342e+00 1.617346e+00 -1.782810e-01 1.744051e+00 3.740200e-02 1.507203e+00 1.423821e+00 -4.584404e-01 1.012407e+01 -7.061565e-01 -1.465093e+00 -5.576435e-01 -1.583789e+00 -2.676074e-01 2.210268e-01 1.019253e-01 -9.282789e-02 4.297359e-01 4.673801e-01 2.720216e-01 7.539865e-01 2.839272e-01
<VARIANCE> 26
 4.428864e+00 7.332737e+00 7.633419e+00 1.471177e+01 1.108929e+01 1.336908e+01 1.552491e+01 1.812143e+01 1.817770e+01 1.612203e+01 1.692721e+01 1.556426e+01 2.742542e+00 1.908474e+00 3.778588e+00 2.768908e+00 5.916763e+00 1.960309e+00 2.822609e+00 2.198231e+00 3.027416e+00 3.244958e+00 2.273258e+00 1.964101e+00 2.623997e+00 1.028464e+00
<GCONST> 9.093226e+01
<STATE> 4
<MEAN> 26
 -1.568263e+01 -3.531303e+00 2.379259e-01 -1.220580e+01 6.802422e-01 -1.736514e+00 -5.648766e+00 -3.859867e+00 -2.300099e+00 2.421477e+00 -3.455144e-01 2.183772e+00 1.666052e+01 9.258974e-01 -1.049187e-01 7.543768e-01 -1.604489e+00 -2.076277e-01 -5.926388e-01 -1.941885e+00 -2.213883e-01 -8.576937e-01 2.165808e-01 -5.396361e-02 -6.642024e-01 1.222076e+00
<VARIANCE> 26
 4.349489e+01 4.060552e+01 4.797335e+01 3.907091e+01 4.095847e+01 4.577740e+01 4.235081e+01 3.366689e+01 3.652559e+01 2.715582e+01 2.434412e+01 3.051330e+01 4.159068e+00 7.076184e+00 5.196835e+00 6.919458e+00 7.614023e+00 5.209661e+00 5.080410e+00 5.947302e+00 5.058835e+00 4.936478e+00 4.980472e+00 3.085510e+00 5.507137e+00 8.121893e-01
<GCONST> 1.126076e+02
<TRANSP> 5
 0.000000e+00 1.000000e+00 0.000000e+00 0.000000e+00 0.000000e+00
 0.000000e+00 6.349364e-01 3.650636e-01 0.000000e+00 0.000000e+00
 0.000000e+00 0.000000e+00 7.527848e-01 2.472153e-01 0.000000e+00
 0.000000e+00 0.000000e+00 0.000000e+00 7.806572e-01 2.193428e-01
 0.000000e+00 0.000000e+00 0.000000e+00 0.000000e+00 0.000000e+00
<ENDHMM>
