~o
<STREAMINFO> 1 26
<VECSIZE> 26<NULLD><MFCC_E_D><DIAGC>
~h "v"
<BEGINHMM>
<NUMSTATES> 5
<STATE> 2
<MEAN> 26
 -1.707238e+00 2.735132e+00 3.361807e+00 -6.187034e+00 3.178703e+00 8.967420e-01 -1.006093e+01 -7.042068e+00 -8.438085e+00 3.305074e+00 3.919805e+00 -7.819464e-01 1.809722e+01 -7.632087e-01 1.443826e+00 4.539261e-01 1.339105e+00 1.658003e+00 8.020355e-01 9.372526e-01 -1.304663e+00 2.118561e-01 -1.829845e-01 -4.387319e-01 6.006377e-01 -9.306931e-02
<VARIANCE> 26
 1.727647e+01 1.176770e+01 1.545827e+01 3.042062e+01 2.344319e+01 3.542064e+01 3.383670e+01 2.926484e+01 3.256292e+01 2.864101e+01 1.879839e+01 1.299824e+01 3.983161e+00 4.148443e+00 2.299726e+00 1.756729e+00 5.745760e+00 2.301325e+00 2.046084e+00 5.574059e+00 2.586852e+00 4.360100e+00 2.986976e+00 2.148019e+00 1.426285e+00 5.111262e-01
<GCONST> 9.839190e+01
<STATE> 3
<MEAN> 26
 -8.340189e+00 7.517369e+00 6.706881e+00 2.550930e-01 7.120712e+00 4.457760e+00 -5.571446e+00 -8.052094e+00 -7.438069e+00 1.530341e+00 -5.637757e-01 6.536199e-01 1.753636e+01 -8.412836e-01 -2.930884e-01 1.182094e-01 1.862553e-02 -1.569155e-01 1.632022e-01 3.829930e-01 3.488467e-01 6.199513e-02 -2.715746e-01 -5.479425e-01 8.508299e-02 -5.476775e-02
<VARIANCE> 26
 7.727380e+00 7.074325e+00 1.992049e+01 1.652292e+01 1.762831e+01 2.134355e+01 2.213529e+01 1.923459e+01 1.754936e+01 1.193009e+01 1.509265e+01 8.605198e+00 2.627606e-01 1.028132e+00 1.583077e+00 1.533806e+00 1.801980e+00 1.712320e+00 1.469988e+00 1.772215e+00 1.905784e+00 1.162290e+00 1.522886e+00 1.720816e+00 1.016183e+00 4.096603e-02
<GCONST> 8.001964e+01
<STATE> 4
<MEAN> 26
 -5.737860e+00 7.258571e-01 3.560666e+00 -8.127171e+00 1.307966e+00 3.463617e+00 -9.076454e+00 -5.597934e+00 -6.876158e+00 4.216343e-01 2.231974e+00 -1.091076e+00 1.876411e+01 1.692778e+00 -2.310136e+00 -1.398481e-01 -3.208624e+00 -2.753598e+00 -5.855830e-01 -2.974568e+00 1.443924e+00 -7.558005e-02 9.222120e-02 1.502942e+00 -1.412413e+00 6.288177e-01
<VARIANCE> 26
 1.568806e+01 2.191527e+01 2.780397e+01 3.771776e+01 2.743521e+01 3.052110e+01 4.578706e+01 2.047470e+01 1.990534e+01 2.560471e+01 2.776275e+01 1.936322e+01 9.574420e-01 1.521897e+00 2.618719e+00 2.994220e+00 2.491161e+00 2.865788e+00 4.003527e+00 3.459707e+00 3.435154e+00 1.719310e+00 5.042418e+00 2.672324e+00 1.886958e+00 8.396418e-02
<GCONST> 9.623869e+01
<TRANSP> 5
 0.000000e+00 1.000000e+00 0.000000e+00 0.000000e+00 0.000000e+00
 0.000000e+00 7.008603e-01 2.991397e-01 0.000000e+00 0.000000e+00
 0.000000e+00 0.000000e+00 7.782049e-01 2.217950e-01 0.000000e+00
 0.000000e+00 0.000000e+00 0.000000e+00 6.499525e-01 3.500475e-01
 0.000000e+00 0.000000e+00 0.000000e+00 0.000000e+00 0.000000e+00
<ENDHMM>
