~o
<STREAMINFO> 1 26
<VECSIZE> 26<NULLD><MFCC_E_D><DIAGC>
~h "x^"
<BEGINHMM>
<NUMSTATES> 5
<STATE> 2
<MEAN> 26
 -1.504841e+00 -8.865603e+00 4.531691e+00 -1.734535e+01 -4.983970e+00 -1.918655e+00 -2.233681e+01 2.738059e-01 -6.144448e+00 9.372936e+00 4.897565e+00 -1.004621e+01 2.033525e+01 1.474231e+00 -1.906550e+00 -1.209796e-01 -3.036169e+00 -1.224863e+00 7.955221e-01 -2.739853e+00 9.303404e-01 -2.103497e-01 2.678877e+00 9.809640e-01 -1.297286e+00 9.078162e-01
<VARIANCE> 26
 9.176672e+00 2.453999e+01 2.093713e+01 5.662129e+01 3.040599e+01 3.612267e+01 5.562971e+01 1.646278e+01 2.437864e+01 6.937928e+01 3.082244e+01 2.113427e+01 6.197470e+00 3.000521e+00 1.869985e+00 1.661228e+00 5.922798e+00 2.554735e+00 3.121632e+00 6.998981e+00 2.541536e+00 3.781664e+00 1.825405e+00 2.970713e+00 3.357097e+00 1.153881e+00
<GCONST> 1.031785e+02
<STATE> 3
<MEAN> 26
 1.438053e-01 -1.193728e+01 1.525779e+00 -2.109508e+01 -6.390272e+00 2.496886e-01 -2.474238e+01 5.121717e+00 -6.993674e+00 1.331038e+01 4.180616e+00 -1.171938e+01 2.167397e+01 1.005214e-01 1.576181e-01 -5.610099e-01 -4.778820e-01 2.995812e-01 4.372090e-01 3.140482e-01 -8.061790e-02 -4.050154e-01 2.685085e-01 -3.722905e-01 -3.110198e-02 -1.642809e-02
<VARIANCE> 26
 2.567391e+00 1.015239e+01 1.810478e+01 1.705049e+01 1.814336e+01 2.132454e+01 1.264734e+01 2.223228e+01 8.455911e+00 1.575280e+01 1.673390e+01 1.492770e+01 2.463875e-01 2.770046e-01 6.665697e-01 1.083761e+00 1.806479e+00 1.260855e+00 1.707416e+00 1.388274e+00 1.655586e+00 1.294410e+00 1.195011e+00 1.225821e+00 1.314742e+00 1.745917e-02
<GCONST> 7.483366e+01
<STATE> 4
<MEAN> 26
 1.360561e+00 -7.215760e+00 6.970503e-01 -2.319525e+01 -1.183494e-01 2.523371e+00 -1.662302e+01 -3.326115e+00 -1.082983e+01 1.233779e+01 1.958964e+00 -8.265334e+00 2.052193e+01 2.007052e-03 1.494229e+00 -1.217141e-02 1.073625e+00 1.194999e+00 8.610281e-01 2.960990e+00 -2.129836e+00 -8.733536e-02 -1.678820e+00 -1.774788e-01 1.402191e+00 -4.040830e-01
<VARIANCE> 26
 4.050179e+00 2.419195e+01 2.235286e+01 4.685093e+01 2.416191e+01 4.190450e+01 8.414899e+01 2.641453e+01 3.411761e+01 2.466285e+01 3.039165e+01 1.858933e+01 9.653385e-01 1.399302e+00 2.818086e+00 1.458749e+00 6.032549e+00 2.654833e+00 2.486407e+00 3.875224e+00 3.445595e+00 3.388361e+00 2.360571e+00 1.175730e+00 1.942782e+00 1.134035e-01
<GCONST> 9.574092e+01
<TRANSP> 5
 0.000000e+00 1.000000e+00 0.000000e+00 0.000000e+00 0.000000e+00
 0.000000e+00 4.788766e-01 5.211234e-01 0.000000e+00 0.000000e+00
 0.000000e+00 0.000000e+00 8.404775e-01 1.595225e-01 0.000000e+00
 0.000000e+00 0.000000e+00 0.000000e+00 7.342089e-01 2.657911e-01
 0.000000e+00 0.000000e+00 0.000000e+00 0.000000e+00 0.000000e+00
<ENDHMM>
