~o
<STREAMINFO> 1 26
<VECSIZE> 26<NULLD><MFCC_E_D><DIAGC>
~h "y"
<BEGINHMM>
<NUMSTATES> 5
<STATE> 2
<MEAN> 26
 -7.407483e+00 -7.605803e-01 1.393903e+01 4.808458e+00 -6.359099e+00 -6.928797e+00 -1.123523e+01 5.764838e-01 -1.282890e+01 -8.562407e+00 -1.186631e-01 2.208231e+00 1.799985e+01 1.572157e+00 -3.397304e-01 2.054596e+00 1.018046e+00 -6.902006e-01 -2.078776e+00 -3.087191e+00 1.373606e+00 -1.553127e+00 -3.412004e+00 1.056094e+00 7.015922e-01 8.093434e-01
<VARIANCE> 26
 2.229676e+01 2.378398e+01 4.531943e+01 2.522441e+01 2.982977e+01 4.696978e+01 9.332274e+01 4.851351e+01 6.039593e+01 7.100729e+01 2.642545e+01 2.758380e+01 7.033209e+00 4.316370e+00 2.638776e+00 4.253512e+00 2.911132e+00 2.359729e+00 5.352984e+00 7.483168e+00 2.820477e+00 6.269085e+00 5.079734e+00 2.778620e+00 2.691131e+00 5.569337e-01
<GCONST> 1.090909e+02
<STATE> 3
<MEAN> 26
 -3.051642e+00 -4.420946e+00 1.583275e+01 4.963286e+00 -1.037805e+01 -7.552784e+00 -2.104582e+01 2.906327e+00 -1.313349e+01 -1.988250e+01 4.701074e+00 2.131780e+00 2.020207e+01 2.382830e-01 -2.201315e-01 -2.328064e-01 -7.595984e-01 -6.002739e-01 4.761297e-01 -4.157314e-01 -2.531048e-02 2.134250e-01 9.617773e-02 2.189886e-01 -5.866931e-01 9.208839e-02
<VARIANCE> 26
 7.179413e+00 1.545221e+01 2.041695e+01 2.668653e+01 2.938434e+01 1.957226e+01 3.984309e+01 3.961272e+01 4.034368e+01 3.414880e+01 2.196408e+01 2.303920e+01 3.826025e-01 7.496792e-01 1.013096e+00 2.534689e+00 2.510442e+00 2.576014e+00 2.808442e+00 4.912895e+00 2.740977e+00 2.221122e+00 4.740393e+00 1.687770e+00 1.724964e+00 3.610493e-02
<GCONST> 9.126289e+01
<STATE> 4
<MEAN> 26
 -2.685249e+00 -2.314935e+00 1.299848e+01 -3.100721e+00 -1.112023e+01 -7.606722e-01 -1.627768e+01 -3.841948e+00 -1.104982e+01 -6.977177e+00 2.553810e+00 -2.827047e+00 1.970061e+01 -7.833256e-02 1.279263e+00 -1.681016e+00 -1.169237e+00 6.536768e-01 2.095402e+00 1.993327e+00 -2.029483e+00 7.684792e-01 2.799597e+00 -9.456202e-01 -6.638978e-01 -3.098240e-01
<VARIANCE> 26
 1.748356e+01 2.825289e+01 7.284523e+01 7.656829e+01 3.453054e+01 1.021602e+02 8.237147e+01 4.845968e+01 4.970977e+01 8.880247e+01 4.715388e+01 3.879577e+01 3.139936e+00 2.006320e+00 3.166864e+00 3.606523e+00 5.277230e+00 3.456587e+00 6.368131e+00 4.997219e+00 4.489734e+00 5.404795e+00 4.299181e+00 3.604210e+00 5.786077e+00 2.494187e-01
<GCONST> 1.119148e+02
<TRANSP> 5
 0.000000e+00 1.000000e+00 0.000000e+00 0.000000e+00 0.000000e+00
 0.000000e+00 6.123359e-01 3.876640e-01 0.000000e+00 0.000000e+00
 0.000000e+00 0.000000e+00 7.804485e-01 2.195515e-01 0.000000e+00
 0.000000e+00 0.000000e+00 0.000000e+00 7.399700e-01 2.600299e-01
 0.000000e+00 0.000000e+00 0.000000e+00 0.000000e+00 0.000000e+00
<ENDHMM>
