~o
<STREAMINFO> 1 26
<VECSIZE> 26<NULLD><MFCC_E_D><DIAGC>
~h "z"
<BEGINHMM>
<NUMSTATES> 5
<STATE> 2
<MEAN> 26
 -9.420648e+00 9.781871e+00 3.645064e+00 -4.296222e+00 1.475145e+00 -6.448109e+00 -1.053767e+01 -7.767939e+00 -7.805325e+00 1.943575e+00 -1.754041e+00 -3.514797e+00 1.902705e+01 -2.318799e+00 2.865708e+00 -9.442798e-01 1.581573e+00 1.962869e+00 -8.954335e-02 1.757751e+00 -3.234234e-01 1.318070e+00 1.897648e-01 -1.322423e+00 1.628901e+00 -4.314805e-01
<VARIANCE> 26
 1.175025e+01 2.687643e+01 2.859696e+01 5.417265e+01 3.927795e+01 3.530934e+01 3.108586e+01 2.747597e+01 2.689958e+01 3.970856e+01 2.399076e+01 2.778144e+01 6.027894e-01 7.617787e-01 1.986992e+00 2.746527e+00 3.186948e+00 2.840494e+00 3.906926e+00 3.348984e+00 2.623137e+00 2.639603e+00 2.043312e+00 3.050719e+00 1.553500e+00 3.324768e-02
<GCONST> 9.484080e+01
<STATE> 3
<MEAN> 26
 -1.666852e+01 1.441120e+01 3.018210e+00 1.320219e-01 3.970975e+00 -3.086119e+00 -5.355814e+00 -7.278775e+00 -5.483625e+00 -1.053841e-01 -3.557730e+00 1.367083e+00 1.782759e+01 -3.644977e-01 -4.590907e-01 1.366956e-01 -3.957890e-01 1.232247e-01 9.768002e-02 1.785345e-01 -4.867642e-01 2.232961e-01 2.614479e-01 -9.561824e-03 1.122755e-01 -2.297682e-02
<VARIANCE> 26
 8.269809e+00 9.577429e+00 3.202724e+01 3.209857e+01 3.313755e+01 3.063100e+01 2.369429e+01 2.163261e+01 1.870508e+01 3.470100e+01 1.850573e+01 1.803209e+01 6.153520e-01 1.863567e+00 1.111215e+00 1.459508e+00 1.781710e+00 1.947366e+00 3.727793e+00 2.274298e+00 1.682209e+00 1.222564e+00 2.433600e+00 9.993078e-01 1.669034e+00 5.388824e-02
<GCONST> 8.774332e+01
<STATE> 4
<MEAN> 26
 -8.683493e+00 4.983336e+00 2.844735e+00 -9.565617e+00 1.863623e+00 -6.405821e+00 -1.124800e+01 -7.311029e+00 -5.719139e+00 5.667805e+00 -1.775761e+00 -4.036058e+00 1.910104e+01 2.780851e+00 -3.725085e+00 5.181832e-01 -2.934100e+00 -1.510503e+00 1.423530e-01 -2.093251e+00 1.372945e+00 -4.789398e-01 1.103043e+00 1.051615e+00 -1.660346e+00 4.487430e-01
<VARIANCE> 26
 2.978904e+01 4.098935e+01 3.575315e+01 5.868942e+01 2.972035e+01 3.753532e+01 4.093878e+01 3.461939e+01 2.619351e+01 3.937834e+01 2.468986e+01 3.138171e+01 1.353347e+00 1.463980e+00 2.861351e+00 1.996536e+00 6.312292e+00 2.517248e+00 5.650618e+00 4.666388e+00 4.408315e+00 2.711227e+00 5.002027e+00 3.256734e+00 3.300402e+00 1.482756e-01
<GCONST> 1.034272e+02
<TRANSP> 5
 0.000000e+00 1.000000e+00 0.000000e+00 0.000000e+00 0.000000e+00
 0.000000e+00 6.710318e-01 3.289683e-01 0.000000e+00 0.000000e+00
 0.000000e+00 0.000000e+00 7.454658e-01 2.545342e-01 0.000000e+00
 0.000000e+00 0.000000e+00 0.000000e+00 7.168292e-01 2.831708e-01
 0.000000e+00 0.000000e+00 0.000000e+00 0.000000e+00 0.000000e+00
<ENDHMM>
