~o
<STREAMINFO> 1 26
<VECSIZE> 26<NULLD><MFCC_E_D><DIAGC>
~h "z^"
<BEGINHMM>
<NUMSTATES> 5
<STATE> 2
<MEAN> 26
 -9.223532e+00 2.394323e+00 1.121601e+01 -8.040432e+00 -1.530065e+00 -6.156777e+00 -5.301748e+00 -1.156698e+01 -2.558484e+00 -1.621152e+00 -3.820428e+00 4.678850e-01 1.923099e+01 -3.157200e+00 1.895155e+00 1.758069e+00 1.527863e+00 1.695149e+00 -2.029512e-01 2.050881e+00 -1.397169e+00 1.445771e+00 -7.407886e-01 2.418588e-01 6.812867e-01 -3.463228e-01
<VARIANCE> 26
 3.420531e+01 2.366179e+01 2.889604e+01 2.977981e+01 3.699371e+01 3.710803e+01 3.582526e+01 3.587104e+01 2.771361e+01 2.770864e+01 2.565831e+01 1.876753e+01 6.326560e-01 1.996519e+00 2.790019e+00 2.283469e+00 3.195091e+00 2.444095e+00 4.726164e+00 2.562307e+00 5.334941e+00 3.390795e+00 2.857716e+00 2.043941e+00 1.750798e+00 8.840274e-02
<GCONST> 9.787152e+01
<STATE> 3
<MEAN> 26
 -1.997783e+01 5.400984e+00 1.690654e+01 -5.202649e+00 4.044091e+00 -2.655939e+00 1.291967e+00 -1.012395e+01 -4.787916e-01 -2.457413e+00 -3.108935e+00 1.205244e+00 1.820957e+01 -6.134487e-02 -5.794078e-02 -2.200094e-01 -7.681681e-02 9.650493e-02 -1.746513e-01 -1.550457e-01 1.712573e-01 4.308266e-02 -1.497553e-01 7.744649e-02 3.323425e-03 2.332371e-02
<VARIANCE> 26
 1.676126e+01 8.724285e+00 1.342352e+01 2.239674e+01 2.777080e+01 3.182772e+01 2.820727e+01 1.654815e+01 1.623052e+01 1.899454e+01 1.722872e+01 1.460837e+01 3.574595e-01 3.967080e+00 1.091863e+00 1.928526e+00 1.044245e+00 1.828930e+00 2.969763e+00 2.950680e+00 1.628739e+00 1.134872e+00 1.201944e+00 1.503016e+00 1.286744e+00 4.263231e-02
<GCONST> 8.487949e+01
<STATE> 4
<MEAN> 26
 -7.981189e+00 -1.570489e-01 8.530629e+00 -7.692825e+00 -9.102417e-01 -6.168893e+00 -6.095113e+00 -1.090565e+01 -1.394871e+00 -1.736378e+00 -2.135281e+00 -6.676822e-01 1.929892e+01 3.048219e+00 -2.189227e+00 -1.313227e+00 -5.854703e-01 -2.078684e+00 8.290561e-01 -2.953404e+00 1.159979e+00 -8.415979e-01 2.399415e-01 1.084012e+00 -7.495441e-01 3.318109e-01
<VARIANCE> 26
 4.426357e+01 2.977011e+01 3.474586e+01 2.668045e+01 3.980961e+01 3.965328e+01 5.950795e+01 4.968556e+01 2.763258e+01 2.785570e+01 2.705499e+01 2.102938e+01 1.547718e+00 3.018920e+00 3.137001e+00 3.578160e+00 1.720018e+00 4.468404e+00 6.708933e+00 5.967087e+00 4.527483e+00 3.994985e+00 3.986077e+00 3.804840e+00 2.551488e+00 1.079080e-01
<GCONST> 1.041597e+02
<TRANSP> 5
 0.000000e+00 1.000000e+00 0.000000e+00 0.000000e+00 0.000000e+00
 0.000000e+00 7.135146e-01 2.864854e-01 0.000000e+00 0.000000e+00
 0.000000e+00 0.000000e+00 8.089098e-01 1.910902e-01 0.000000e+00
 0.000000e+00 0.000000e+00 0.000000e+00 7.119328e-01 2.880673e-01
 0.000000e+00 0.000000e+00 0.000000e+00 0.000000e+00 0.000000e+00
<ENDHMM>
