~o
<STREAMINFO> 1 26
<VECSIZE> 26<NULLD><MFCC_E_D><DIAGC>
~h "_"
<BEGINHMM>
<NUMSTATES> 5
<STATE> 2
<MEAN> 26
 -8.042623e+00 -7.739319e-01 -1.645232e+00 -1.132103e+01 -2.559754e+00 -5.689576e+00 -5.146507e+00 -5.598948e+00 -2.890481e+00 5.999148e+00 1.942365e+00 1.071087e-01 1.370679e+01 -1.239347e+00 7.522139e-01 -5.520492e-01 2.839563e+00 1.453854e-01 1.092755e+00 1.005592e+00 1.051397e+00 1.852698e+00 -4.117729e-01 6.279275e-01 -1.337240e-01 -1.330243e+00
<VARIANCE> 26
 2.786299e+01 3.171036e+01 6.263593e+01 8.828090e+01 6.142234e+01 8.707874e+01 6.685205e+01 5.912193e+01 1.109650e+02 9.442139e+01 6.405619e+01 4.446355e+01 1.032831e+01 2.839165e+00 3.568457e+00 5.651976e+00 6.212467e+00 6.104408e+00 5.729501e+00 5.645713e+00 6.825621e+00 9.336829e+00 8.226198e+00 6.015847e+00 4.783208e+00 4.324587e-01
<GCONST> 1.195425e+02
<STATE> 3
<MEAN> 26
 -1.357722e+01 1.858219e+00 -1.543863e+00 -4.551720e-01 3.853863e-01 5.228568e-01 -1.108949e+00 9.261708e-01 -4.918693e-01 1.086757e+00 1.384750e+00 -6.395080e-01 8.644121e+00 -2.351886e-01 -3.340692e-02 1.608594e-01 3.062175e-01 2.762808e-01 1.015755e-01 1.053616e-01 2.984340e-01 -8.263235e-02 -1.934897e-01 -2.151890e-01 2.345022e-02 -1.138613e-01
<VARIANCE> 26
 2.445216e+00 3.834470e+00 5.991213e+00 7.922781e+00 1.053060e+01 1.225809e+01 1.209323e+01 1.386505e+01 1.385556e+01 1.395083e+01 1.527234e+01 1.185068e+01 8.960772e-01 6.059595e-01 7.691065e-01 1.105209e+00 1.654368e+00 1.831230e+00 2.216466e+00 1.760521e+00 2.402794e+00 2.568852e+00 2.499099e+00 2.182796e+00 1.718564e+00 1.926292e-01
<GCONST> 7.843607e+01
<STATE> 4
<MEAN> 26
 -1.235842e+01 1.134344e+00 -6.407893e-01 -2.223696e+00 4.538720e-01 -1.160997e+00 -2.193504e+00 -6.774247e-02 -1.883007e+00 9.471900e-01 2.471566e-01 -7.659110e-01 1.009902e+01 2.081152e+00 -1.297781e+00 9.246038e-01 -3.295937e+00 1.293223e-01 -1.348877e+00 -1.493525e+00 -7.688383e-01 -2.283504e+00 1.898915e-01 -8.808776e-01 -1.827925e-01 1.910937e+00
<VARIANCE> 26
 1.743903e+01 1.508375e+01 2.038093e+01 3.498458e+01 1.574529e+01 2.649819e+01 2.503997e+01 2.224332e+01 3.055588e+01 1.721320e+01 2.139243e+01 1.537406e+01 7.268200e+00 4.621814e+00 5.280297e+00 5.983609e+00 1.242377e+01 5.112429e+00 4.717108e+00 4.549949e+00 4.978779e+00 6.153508e+00 3.453563e+00 3.555992e+00 2.759926e+00 1.141719e+00
<GCONST> 1.056066e+02
<TRANSP> 5
 0.000000e+00 1.000000e+00 0.000000e+00 0.000000e+00 0.000000e+00
 0.000000e+00 8.078669e-01 1.921331e-01 0.000000e+00 0.000000e+00
 0.000000e+00 0.000000e+00 8.124077e-01 1.875923e-01 0.000000e+00
 0.000000e+00 0.000000e+00 0.000000e+00 4.618644e-01 5.381356e-01
 0.000000e+00 0.000000e+00 0.000000e+00 0.000000e+00 0.000000e+00
<ENDHMM>
