~o
<STREAMINFO> 1 26
<VECSIZE> 26<NULLD><MFCC_E_D><DIAGC>
~h "__"
<BEGINHMM>
<NUMSTATES> 5
<STATE> 2
<MEAN> 26
 -1.015450e+01 1.675261e+00 2.924742e-01 7.540106e-01 1.903450e+00 3.652793e+00 4.080727e-01 5.268778e-01 -1.447918e+00 -7.126754e-01 -8.525708e-01 5.078581e-01 1.197025e+01 -3.141320e-01 6.801774e-02 -2.444755e-01 -1.264920e-02 -2.231040e-01 -1.050117e-01 -8.330855e-03 2.145039e-01 1.644127e-01 3.451329e-01 4.502786e-01 2.050399e-01 -1.403810e-01
<VARIANCE> 26
 1.248892e+01 1.484036e+01 2.386442e+01 2.573009e+01 1.933698e+01 1.985608e+01 2.668638e+01 2.071798e+01 2.165896e+01 2.429126e+01 2.231849e+01 1.481256e+01 3.114765e+00 1.051962e+00 1.138193e+00 1.460952e+00 2.088383e+00 2.290748e+00 2.361560e+00 2.440351e+00 2.232300e+00 2.328632e+00 2.106385e+00 1.972363e+00 1.331937e+00 3.595277e-01
<GCONST> 9.110742e+01
<STATE> 3
<MEAN> 26
 -1.262434e+01 3.465198e+00 8.705882e-01 2.281483e+00 2.417643e+00 3.235142e+00 1.662599e+00 3.542967e+00 1.346394e+00 2.754424e+00 3.414811e+00 2.076939e+00 1.194049e+01 -6.480991e-02 -3.969038e-02 -7.835249e-02 -6.806583e-02 -3.748349e-02 -5.367669e-02 2.028621e-02 6.058282e-02 4.574248e-02 9.374118e-02 1.047930e-01 9.129399e-03 -5.965987e-02
<VARIANCE> 26
 2.443088e+00 4.474896e+00 7.734195e+00 1.157605e+01 9.866594e+00 1.043622e+01 1.278179e+01 1.432056e+01 1.431013e+01 1.406992e+01 1.261495e+01 1.108510e+01 2.037943e+00 2.219290e-01 4.005454e-01 5.295897e-01 1.126663e+00 9.726074e-01 1.059389e+00 1.291996e+00 1.479872e+00 1.375629e+00 1.363494e+00 1.342362e+00 1.172319e+00 4.891782e-02
<GCONST> 7.127883e+01
<STATE> 4
<MEAN> 26
 -1.335535e+01 2.136268e+00 -8.575303e-01 3.022355e-01 -2.134335e-01 4.257085e-01 -6.224203e-01 9.229747e-01 -1.451681e+00 -1.197620e-01 9.859800e-01 -4.182277e-01 8.669248e+00 -7.301284e-02 -3.399739e-02 1.155227e-01 -6.407790e-02 6.884463e-02 4.199758e-02 -6.659348e-02 1.840192e-02 8.338033e-02 2.417484e-02 3.829961e-03 -1.725712e-02 -5.011044e-03
<VARIANCE> 26
 3.246002e+00 2.896727e+00 5.356097e+00 6.272761e+00 8.619978e+00 1.003894e+01 1.075126e+01 1.317640e+01 1.455853e+01 1.379081e+01 1.196856e+01 1.071878e+01 8.227436e-01 3.097748e-01 3.471453e-01 5.982220e-01 7.981195e-01 9.047620e-01 1.060043e+00 1.259468e+00 1.372110e+00 1.432327e+00 1.402104e+00 1.397465e+00 1.213365e+00 5.848476e-02
<GCONST> 6.883801e+01
<TRANSP> 5
 0.000000e+00 1.000000e+00 0.000000e+00 0.000000e+00 0.000000e+00
 0.000000e+00 8.852603e-01 1.147396e-01 0.000000e+00 0.000000e+00
 0.000000e+00 0.000000e+00 9.392097e-01 6.079028e-02 0.000000e+00
 0.000000e+00 0.000000e+00 0.000000e+00 9.622148e-01 3.778521e-02
 0.000000e+00 0.000000e+00 0.000000e+00 0.000000e+00 0.000000e+00
<ENDHMM>
