~o
<STREAMINFO> 1 26
<VECSIZE> 26<NULLD><MFCC_E_D><DIAGC>
~h "a"
<BEGINHMM>
<NUMSTATES> 5
<STATE> 2
<MEAN> 26
 -1.175706e+00 -1.007653e+01 -2.267472e+00 -2.176411e+01 1.364205e-01 3.673900e-01 -1.193501e+01 3.081948e-01 -3.925754e+00 6.530721e+00 -1.631576e+00 -8.624863e+00 2.002754e+01 1.607524e+00 -3.074201e+00 -1.109918e+00 -3.112306e+00 9.031850e-01 8.100266e-01 -7.549130e-01 1.491246e+00 -1.417122e-01 4.672039e-01 -1.024780e+00 -2.120508e+00 8.250705e-01
<VARIANCE> 26
 2.176531e+01 3.217158e+01 3.459840e+01 5.324509e+01 6.272660e+01 4.993237e+01 8.819273e+01 5.374998e+01 3.377261e+01 3.721670e+01 3.424538e+01 3.114430e+01 8.666445e+00 3.034063e+00 2.842409e+00 3.060625e+00 6.651953e+00 4.129823e+00 3.825933e+00 6.465177e+00 7.470936e+00 4.038770e+00 4.032414e+00 2.441067e+00 2.631188e+00 6.990531e-01
<GCONST> 1.107340e+02
<STATE> 3
<MEAN> 26
 6.591473e-01 -1.605200e+01 -5.362009e+00 -2.610669e+01 4.699578e+00 3.180572e+00 -1.143518e+01 1.622394e+00 -3.742145e+00 3.906322e+00 -4.328883e+00 -1.277372e+01 2.178984e+01 -5.892720e-02 -2.532829e-02 8.532293e-02 2.343690e-01 1.300884e-01 -5.055522e-01 3.508383e-01 -1.914901e-01 -1.434775e-03 -1.272854e-01 -2.064984e-01 2.223389e-01 -2.701488e-02
<VARIANCE> 26
 7.064828e+00 1.736260e+01 2.299650e+01 2.151618e+01 3.932214e+01 4.662035e+01 4.117783e+01 5.233965e+01 2.642694e+01 2.596612e+01 3.151671e+01 2.053685e+01 4.866631e-01 5.328507e-01 1.669817e+00 2.067535e+00 1.633430e+00 2.898380e+00 2.652236e+00 2.896033e+00 2.664286e+00 1.576957e+00 2.095236e+00 2.270393e+00 2.006909e+00 4.296606e-02
<GCONST> 9.101904e+01
<STATE> 4
<MEAN> 26
 -2.119979e-01 -7.177763e+00 -3.467004e-01 -1.700019e+01 1.561295e+00 -3.837852e+00 -1.006190e+01 -2.129424e+00 -4.948627e+00 4.506444e+00 -3.953331e+00 -6.802462e+00 1.995075e+01 -8.883761e-01 3.542523e+00 1.172381e+00 3.929919e+00 4.384866e-03 -2.253816e-01 7.394045e-01 -1.759436e+00 -3.992531e-01 -9.054347e-01 4.263518e-01 1.379470e+00 -7.572016e-01
<VARIANCE> 26
 1.695078e+01 5.974506e+01 4.289216e+01 7.507520e+01 4.831204e+01 6.794537e+01 8.163284e+01 6.723969e+01 4.561080e+01 3.718089e+01 4.147428e+01 2.831707e+01 2.535938e+00 3.356004e+00 4.429225e+00 2.927563e+00 5.315294e+00 4.189926e+00 3.896847e+00 4.642113e+00 5.238604e+00 5.275975e+00 3.088904e+00 2.837675e+00 2.320293e+00 3.065196e-01
<GCONST> 1.098453e+02
<TRANSP> 5
 0.000000e+00 1.000000e+00 0.000000e+00 0.000000e+00 0.000000e+00
 0.000000e+00 5.897959e-01 4.102041e-01 0.000000e+00 0.000000e+00
 0.000000e+00 0.000000e+00 8.435798e-01 1.564202e-01 0.000000e+00
 0.000000e+00 0.000000e+00 0.000000e+00 7.112069e-01 2.887931e-01
 0.000000e+00 0.000000e+00 0.000000e+00 0.000000e+00 0.000000e+00
<ENDHMM>
