~o
<STREAMINFO> 1 26
<VECSIZE> 26<NULLD><MFCC_E_D><DIAGC>
~h "a~"
<BEGINHMM>
<NUMSTATES> 5
<STATE> 2
<MEAN> 26
 1.737157e-01 -5.592828e+00 -4.910565e+00 -2.254020e+01 -5.316895e+00 9.184942e+00 -8.670156e+00 5.346483e-01 -1.168192e+01 -4.776448e-01 4.528873e+00 -3.142053e+00 2.033851e+01 1.976324e+00 -7.201082e-01 -1.363683e+00 -2.131902e+00 -1.479136e+00 1.709430e+00 8.186209e-01 2.168730e+00 -1.777164e+00 -2.226994e+00 1.551425e-01 6.827010e-01 6.591739e-01
<VARIANCE> 26
 1.372064e+01 2.532311e+01 1.771074e+01 5.211796e+01 3.439351e+01 4.412776e+01 7.616129e+01 3.721799e+01 3.281889e+01 6.598521e+01 3.891014e+01 4.645238e+01 4.737047e+00 3.752783e+00 2.769690e+00 1.934932e+00 8.632984e+00 3.478211e+00 6.878795e+00 6.843542e+00 3.345448e+00 4.236288e+00 4.479913e+00 3.634259e+00 4.581671e+00 7.518564e-01
<GCONST> 1.094065e+02
<STATE> 3
<MEAN> 26
 2.456733e+00 -5.579852e+00 -7.159102e+00 -2.132776e+01 -1.123734e+01 8.583147e+00 -4.525764e+00 8.344808e+00 -1.405909e+01 -9.739704e+00 2.805919e+00 -4.018875e+00 2.117052e+01 6.279334e-02 3.624428e-01 8.641569e-02 5.115962e-01 -3.065155e-01 -6.178806e-01 3.734736e-01 1.374796e-01 -3.451994e-01 3.053983e-01 -6.657842e-01 -4.524424e-01 -5.930983e-02
<VARIANCE> 26
 6.325255e+00 1.045536e+01 1.360606e+01 2.292841e+01 1.967991e+01 3.044027e+01 2.572039e+01 1.638286e+01 1.699125e+01 2.316213e+01 2.028730e+01 1.780409e+01 3.117726e-01 3.565662e-01 9.494339e-01 1.088546e+00 1.455456e+00 1.543013e+00 1.563704e+00 2.091971e+00 2.053309e+00 1.312019e+00 3.078125e+00 1.355060e+00 1.231862e+00 2.339257e-02
<GCONST> 8.072572e+01
<STATE> 4
<MEAN> 26
 2.622907e+00 3.291687e-01 -3.766073e+00 -1.187442e+01 -8.105367e+00 4.665812e+00 -1.780116e+00 1.488676e+00 -1.648569e+01 -2.716554e+00 -1.824290e+00 -3.746058e+00 1.969740e+01 -9.057509e-01 1.356044e+00 1.153045e+00 2.997803e+00 1.457815e+00 -1.586000e-01 3.651100e-01 -2.054862e+00 5.731000e-01 5.948858e-01 -6.813974e-02 4.645543e-01 -4.850407e-01
<VARIANCE> 26
 8.888458e+00 2.795287e+01 2.449184e+01 9.548352e+01 3.998063e+01 2.684439e+01 6.110392e+01 4.472383e+01 6.487151e+01 2.545871e+01 2.492199e+01 2.200661e+01 1.542788e+00 3.329221e+00 2.327907e+00 2.123761e+00 6.696763e+00 5.429553e+00 3.009048e+00 3.567972e+00 4.002859e+00 5.348979e+00 2.757039e+00 1.942391e+00 2.281847e+00 1.337014e-01
<GCONST> 1.024219e+02
<TRANSP> 5
 0.000000e+00 1.000000e+00 0.000000e+00 0.000000e+00 0.000000e+00
 0.000000e+00 6.771653e-01 3.228346e-01 0.000000e+00 0.000000e+00
 0.000000e+00 0.000000e+00 8.683788e-01 1.316212e-01 0.000000e+00
 0.000000e+00 0.000000e+00 0.000000e+00 7.609329e-01 2.390671e-01
 0.000000e+00 0.000000e+00 0.000000e+00 0.000000e+00 0.000000e+00
<ENDHMM>
