~o
<STREAMINFO> 1 26
<VECSIZE> 26<NULLD><MFCC_E_D><DIAGC>
~h "b"
<BEGINHMM>
<NUMSTATES> 5
<STATE> 2
<MEAN> 26
 5.236355e+00 2.947865e+00 4.156103e+00 -3.223329e-02 -2.723654e+00 6.460956e+00 -1.036313e+01 -5.468443e+00 -1.566280e+01 -5.266413e+00 4.333714e+00 -6.964700e+00 1.869744e+01 1.654546e+00 2.632628e+00 8.619935e-04 1.196340e+00 1.992745e+00 -2.596139e-02 3.937278e-01 -1.364800e+00 1.190683e+00 5.991365e-01 6.839688e-01 3.194718e-01 -1.780328e-01
<VARIANCE> 26
 2.291474e+01 2.184541e+01 2.875944e+01 3.821888e+01 5.697235e+01 5.645099e+01 4.888258e+01 3.432049e+01 1.013095e+02 5.920371e+01 3.540973e+01 2.756258e+01 3.487600e+00 2.647130e+00 2.421693e+00 2.943190e+00 9.296982e+00 5.154802e+00 5.240244e+00 4.501975e+00 3.419928e+00 9.334467e+00 4.871272e+00 4.007802e+00 3.119572e+00 2.878085e-01
<GCONST> 1.096309e+02
<STATE> 3
<MEAN> 26
 6.864745e+00 1.134684e+01 6.055798e+00 8.894019e-01 3.774643e+00 4.116111e+00 -8.565374e+00 -8.270110e+00 -8.340356e+00 -7.628791e-01 5.389937e+00 -5.200895e+00 1.771486e+01 -9.175717e-01 6.057417e-02 -8.168635e-02 -3.384523e-01 3.714120e-01 -2.508375e-01 7.603420e-01 -3.302638e-01 5.397352e-01 2.658171e-01 -6.618367e-01 5.248682e-01 -9.485250e-02
<VARIANCE> 26
 8.783601e+00 1.923406e+01 1.456231e+01 2.762504e+01 2.909082e+01 2.861886e+01 4.531130e+01 1.714130e+01 1.908175e+01 2.662525e+01 2.520851e+01 2.413303e+01 6.548349e-01 2.281971e+00 4.416111e+00 1.552303e+00 3.780788e+00 2.000293e+00 1.876661e+00 1.553329e+00 1.976044e+00 3.050491e+00 1.963150e+00 2.682489e+00 1.428046e+00 3.489687e-02
<GCONST> 9.081087e+01
<STATE> 4
<MEAN> 26
 1.027597e-01 3.666259e-01 4.130353e+00 -8.825282e+00 2.446874e+00 1.566383e+00 -1.040551e+01 -9.057036e+00 -8.042395e+00 1.720657e+00 6.574321e-01 -3.120661e+00 1.870484e+01 -6.289380e-01 -3.175233e+00 -8.542090e-01 -2.676676e+00 -1.329615e+00 -8.209730e-01 -1.917404e+00 6.418775e-01 2.535962e-01 8.662899e-01 -1.037850e-01 2.832697e-01 5.000327e-01
<VARIANCE> 26
 1.698255e+01 3.620192e+01 2.212225e+01 7.213090e+01 4.126944e+01 4.435417e+01 8.303716e+01 3.111478e+01 3.594966e+01 7.643757e+01 4.750915e+01 2.063366e+01 1.270823e+00 2.838586e+00 4.704718e+00 3.427325e+00 7.482927e+00 4.784732e+00 5.777598e+00 7.015840e+00 5.114381e+00 3.564317e+00 5.406729e+00 3.781703e+00 3.120053e+00 1.770236e-01
<GCONST> 1.084277e+02
<TRANSP> 5
 0.000000e+00 1.000000e+00 0.000000e+00 0.000000e+00 0.000000e+00
 0.000000e+00 5.810811e-01 4.189189e-01 0.000000e+00 0.000000e+00
 0.000000e+00 0.000000e+00 7.633588e-01 2.366412e-01 0.000000e+00
 0.000000e+00 0.000000e+00 0.000000e+00 6.395349e-01 3.604651e-01
 0.000000e+00 0.000000e+00 0.000000e+00 0.000000e+00 0.000000e+00
<ENDHMM>
