~o
<STREAMINFO> 1 26
<VECSIZE> 26<NULLD><MFCC_E_D><DIAGC>
~h "d"
<BEGINHMM>
<NUMSTATES> 5
<STATE> 2
<MEAN> 26
 3.016943e+00 6.996144e+00 8.057780e+00 2.166512e+00 -4.829434e+00 -1.291475e+00 -9.671638e+00 -1.189137e+00 -9.696616e+00 1.240052e+00 -8.970045e-01 -8.121639e+00 1.801026e+01 1.902819e+00 2.435318e+00 6.205141e-01 2.440553e+00 4.136043e-01 -1.393257e+00 8.715615e-01 2.853787e-01 2.412269e+00 1.784093e-01 -9.848290e-01 -8.728363e-01 -6.944085e-02
<VARIANCE> 26
 2.936049e+01 3.241404e+01 5.415451e+01 3.259617e+01 5.266085e+01 6.113939e+01 4.952277e+01 3.266570e+01 9.859328e+01 2.407658e+01 3.738738e+01 4.119985e+01 4.768044e+00 2.909826e+00 3.778542e+00 4.138101e+00 7.726404e+00 4.441077e+00 3.140445e+00 5.741226e+00 3.815943e+00 7.271447e+00 2.874668e+00 3.151376e+00 3.768459e+00 6.870098e-01
<GCONST> 1.109823e+02
<STATE> 3
<MEAN> 26
 5.457672e+00 1.444576e+01 1.167163e+01 5.685957e+00 -2.359153e+00 -6.591240e+00 -7.990767e+00 7.819133e-01 5.023777e-01 7.835505e-01 -4.474769e+00 -8.428120e+00 1.746615e+01 -1.733301e+00 -6.507951e-01 -7.862938e-02 -9.602230e-01 9.892427e-01 8.212661e-01 8.460374e-01 -7.696512e-01 2.533865e-01 -2.897469e-01 -9.499385e-02 1.280697e+00 -1.168334e-01
<VARIANCE> 26
 7.681847e+00 1.912579e+01 1.408529e+01 1.345550e+01 2.143198e+01 2.049655e+01 2.013845e+01 1.913082e+01 2.427401e+01 1.355581e+01 2.213238e+01 2.141503e+01 4.311776e-01 3.646420e+00 6.668982e+00 2.960550e+00 4.438101e+00 3.462615e+00 4.348735e+00 2.699493e+00 3.019220e+00 3.701303e+00 2.119918e+00 2.402281e+00 2.642172e+00 5.547805e-02
<GCONST> 9.276753e+01
<STATE> 4
<MEAN> 26
 -7.164804e+00 9.492861e-01 9.231519e+00 -7.469427e+00 1.618959e+00 -3.206827e-01 -7.822074e+00 -6.752576e+00 -4.782161e+00 -1.601694e-01 -1.947957e+00 -1.457984e+00 1.831104e+01 -1.769913e+00 -2.447342e+00 1.533783e-01 -2.865850e+00 -1.214122e+00 7.381764e-02 -1.979693e+00 -5.604551e-01 -1.106913e+00 -1.633068e-01 1.310405e+00 8.234237e-01 5.536953e-01
<VARIANCE> 26
 2.015663e+01 3.923248e+01 4.342418e+01 6.047732e+01 4.056221e+01 6.572486e+01 6.833051e+01 3.172688e+01 2.824436e+01 3.457249e+01 3.017566e+01 3.036043e+01 2.073871e+00 7.279427e+00 6.060694e+00 5.735157e+00 6.504650e+00 6.720140e+00 5.709492e+00 8.014684e+00 5.442303e+00 4.388128e+00 6.176662e+00 3.360016e+00 5.315805e+00 2.211305e-01
<GCONST> 1.118365e+02
<TRANSP> 5
 0.000000e+00 1.000000e+00 0.000000e+00 0.000000e+00 0.000000e+00
 0.000000e+00 6.612378e-01 3.387622e-01 0.000000e+00 0.000000e+00
 0.000000e+00 0.000000e+00 7.248677e-01 2.751323e-01 0.000000e+00
 0.000000e+00 0.000000e+00 0.000000e+00 6.913947e-01 3.086053e-01
 0.000000e+00 0.000000e+00 0.000000e+00 0.000000e+00 0.000000e+00
<ENDHMM>
