~o
<STREAMINFO> 1 26
<VECSIZE> 26<NULLD><MFCC_E_D><DIAGC>
~h "e^"
<BEGINHMM>
<NUMSTATES> 5
<STATE> 2
<MEAN> 26
 -5.338390e+00 -4.516139e+00 1.339287e+01 -1.323687e+01 -7.468467e+00 -7.470778e+00 -1.513385e+01 -2.078759e+00 -1.001457e+01 1.192003e+00 1.669069e+00 -1.474810e+00 1.960682e+01 1.255307e+00 -2.186066e+00 2.750884e+00 -2.294225e+00 -2.946537e+00 -1.212114e+00 -2.558438e+00 1.551717e+00 -2.739312e+00 6.219615e-01 8.969980e-01 -1.411282e-01 8.887609e-01
<VARIANCE> 26
 1.376224e+01 2.508648e+01 4.721895e+01 4.584469e+01 3.337868e+01 3.685929e+01 4.862351e+01 3.706322e+01 6.058570e+01 6.161673e+01 2.722575e+01 1.486601e+01 6.018327e+00 2.366086e+00 1.959853e+00 4.929282e+00 4.779602e+00 2.912701e+00 4.193031e+00 5.226558e+00 4.193100e+00 4.057765e+00 3.445377e+00 3.112102e+00 2.126003e+00 7.129931e-01
<GCONST> 1.064162e+02
<STATE> 3
<MEAN> 26
 -4.330176e+00 -6.875941e+00 1.837551e+01 -1.598073e+01 -1.376987e+01 -6.293381e+00 -1.872872e+01 1.079053e+00 -1.712565e+01 1.571444e+00 3.803590e+00 -2.173537e+00 2.097198e+01 1.035902e-01 3.191238e-01 1.534083e-01 1.910861e-01 -5.981496e-02 -1.006134e-02 4.657899e-01 -1.766062e-01 -7.253309e-01 3.903474e-01 -2.490050e-01 -1.663362e-03 -2.839394e-02
<VARIANCE> 26
 4.421412e+00 1.465535e+01 2.020260e+01 1.593898e+01 1.763578e+01 2.187544e+01 2.023794e+01 1.976880e+01 2.696540e+01 2.978758e+01 1.896776e+01 1.315070e+01 3.280293e-01 4.349545e-01 1.424271e+00 1.361408e+00 2.289006e+00 2.158967e+00 1.879356e+00 2.118773e+00 1.806072e+00 1.847884e+00 2.021897e+00 1.441215e+00 9.333863e-01 3.636681e-02
<GCONST> 8.247168e+01
<STATE> 4
<MEAN> 26
 -2.759986e+00 9.387088e-01 1.454204e+01 -8.815508e+00 -5.791526e+00 -6.093646e+00 -7.314840e+00 -1.116412e+00 -1.341165e+01 2.032481e+00 -7.071014e-01 -2.317107e+00 1.909092e+01 -1.045044e-01 2.118196e+00 -2.008624e+00 2.842807e+00 2.287127e+00 7.464870e-01 2.261473e+00 -3.509524e-01 2.604433e+00 -7.582420e-01 -6.894193e-01 -2.936904e-01 -7.339609e-01
<VARIANCE> 26
 1.293907e+01 4.140197e+01 3.924958e+01 6.631558e+01 4.409303e+01 5.651016e+01 1.177056e+02 3.992418e+01 5.466085e+01 5.040359e+01 3.154134e+01 2.068926e+01 2.750273e+00 3.025932e+00 5.691432e+00 3.355831e+00 4.818465e+00 3.249424e+00 3.732586e+00 4.815129e+00 5.582177e+00 3.860873e+00 3.452317e+00 2.942465e+00 2.558436e+00 2.458557e-01
<GCONST> 1.082443e+02
<TRANSP> 5
 0.000000e+00 1.000000e+00 0.000000e+00 0.000000e+00 0.000000e+00
 0.000000e+00 5.709970e-01 4.290030e-01 0.000000e+00 0.000000e+00
 0.000000e+00 0.000000e+00 8.158236e-01 1.841764e-01 0.000000e+00
 0.000000e+00 0.000000e+00 0.000000e+00 7.399268e-01 2.600733e-01
 0.000000e+00 0.000000e+00 0.000000e+00 0.000000e+00 0.000000e+00
<ENDHMM>
