~o
<STREAMINFO> 1 26
<VECSIZE> 26<NULLD><MFCC_E_D><DIAGC>
~h "e~"
<BEGINHMM>
<NUMSTATES> 5
<STATE> 2
<MEAN> 26
 -1.223687e+00 -1.270261e+01 -3.023652e+00 -2.037158e+01 4.195926e-01 5.911044e+00 -1.832613e+01 2.594223e+00 -6.897831e+00 4.531198e+00 2.123614e+00 -9.416690e+00 2.101538e+01 1.350307e+00 -2.439801e+00 -6.857260e-01 -2.183594e+00 1.062856e+00 1.509332e+00 -1.691114e+00 1.205826e+00 -1.338607e+00 6.735581e-01 -1.351252e-01 -9.877524e-01 5.897447e-01
<VARIANCE> 26
 6.208347e+00 2.105180e+01 1.550405e+01 1.635983e+01 3.728074e+01 3.096577e+01 2.840544e+01 2.354176e+01 2.015091e+01 2.463468e+01 4.433627e+01 3.781205e+01 1.686279e+00 2.515663e+00 3.947850e+00 1.689714e+00 4.997047e+00 2.935468e+00 3.046045e+00 3.869614e+00 3.124718e+00 1.443772e+00 2.372407e+00 2.699039e+00 2.463201e+00 6.256480e-01
<GCONST> 9.767357e+01
<STATE> 3
<MEAN> 26
 1.480951e-01 -1.433294e+01 -5.403081e+00 -2.094719e+01 3.988197e+00 7.479043e+00 -1.985164e+01 3.057922e+00 -1.027476e+01 6.557332e-01 4.737217e+00 -8.715839e+00 2.154983e+01 2.159115e-01 4.578027e-01 -2.027778e-01 1.507361e-01 4.444189e-01 -9.269215e-01 2.669623e-01 -2.158463e-01 -6.763124e-01 -2.150414e-01 -1.615128e-01 9.440678e-02 -9.411683e-02
<VARIANCE> 26
 5.630597e+00 8.857623e+00 1.221231e+01 1.417098e+01 1.936325e+01 2.383482e+01 2.071675e+01 1.310672e+01 1.838542e+01 1.577177e+01 2.073078e+01 1.606962e+01 3.203623e-01 3.323992e-01 7.356748e-01 1.206972e+00 1.070001e+00 1.555679e+00 1.918116e+00 1.119140e+00 9.028948e-01 1.110029e+00 1.210298e+00 2.046664e+00 1.067222e+00 1.572208e-02
<GCONST> 7.580145e+01
<STATE> 4
<MEAN> 26
 1.385924e+00 -6.234729e+00 -4.228456e+00 -1.352135e+01 1.581857e+00 -9.630533e-01 -1.276070e+01 -8.150001e-01 -1.457070e+01 1.365464e+00 -1.087458e+00 -7.809082e+00 2.027874e+01 -3.170437e-01 2.754611e+00 6.947945e-01 3.275609e+00 -1.090162e+00 -8.270270e-01 2.725666e+00 -1.650340e+00 3.441687e-01 -5.600666e-01 -1.260685e+00 1.141125e+00 -4.211210e-01
<VARIANCE> 26
 6.787355e+00 3.380725e+01 3.346313e+01 8.787454e+01 6.662105e+01 4.154310e+01 5.701672e+01 4.800617e+01 4.682465e+01 3.727575e+01 3.385796e+01 2.770914e+01 6.311133e-01 2.610434e+00 3.453735e+00 2.558960e+00 6.610720e+00 5.036600e+00 3.103728e+00 2.179881e+00 3.245566e+00 5.086388e+00 3.191821e+00 3.138992e+00 2.026618e+00 8.123828e-02
<GCONST> 1.027560e+02
<TRANSP> 5
 0.000000e+00 1.000000e+00 0.000000e+00 0.000000e+00 0.000000e+00
 0.000000e+00 5.072464e-01 4.927536e-01 0.000000e+00 0.000000e+00
 0.000000e+00 0.000000e+00 8.482143e-01 1.517857e-01 0.000000e+00
 0.000000e+00 0.000000e+00 0.000000e+00 7.166666e-01 2.833334e-01
 0.000000e+00 0.000000e+00 0.000000e+00 0.000000e+00 0.000000e+00
<ENDHMM>
