~o
<STREAMINFO> 1 26
<VECSIZE> 26<NULLD><MFCC_E_D><DIAGC>
~h "f"
<BEGINHMM>
<NUMSTATES> 5
<STATE> 2
<MEAN> 26
 -1.417690e+01 -1.186063e+00 1.959445e+00 -5.095250e+00 2.225200e+00 9.226424e-02 -9.858767e-01 -1.787519e+00 -2.343027e+00 1.487758e+00 -2.742125e+00 -3.840964e-01 1.582660e+01 -3.319926e+00 -1.582867e+00 -1.843142e+00 1.845945e-01 9.246488e-01 3.983032e-01 8.860591e-01 3.899939e-01 1.563128e+00 7.642576e-01 3.384615e-01 9.986699e-01 -8.262083e-01
<VARIANCE> 26
 4.669716e+01 2.132593e+01 3.791933e+01 2.410175e+01 2.663577e+01 2.498271e+01 2.121957e+01 2.556223e+01 3.418489e+01 3.022171e+01 2.185288e+01 1.522397e+01 6.540939e+00 4.058978e+00 2.709203e+00 4.036162e+00 7.893904e+00 5.605634e+00 4.200197e+00 5.037311e+00 3.569869e+00 3.984207e+00 3.270646e+00 2.953629e+00 2.091053e+00 3.129230e-01
<GCONST> 1.040618e+02
<STATE> 3
<MEAN> 26
 -2.244506e+01 -6.413810e+00 -4.936035e+00 -8.909292e+00 5.365088e-01 4.767623e-01 -3.740988e+00 -2.955247e+00 -1.647881e+00 5.482077e+00 2.730990e-02 3.470909e+00 1.405053e+01 -8.684785e-02 -7.821613e-02 -1.530816e-01 -9.089502e-02 -2.547176e-01 -1.013222e-02 -1.873129e-01 -1.285167e-01 -7.342512e-02 1.046580e-01 6.306031e-02 7.118057e-02 9.870490e-03
<VARIANCE> 26
 7.108076e+00 5.691839e+00 9.159152e+00 1.149051e+01 2.040184e+01 1.889693e+01 1.794378e+01 1.870735e+01 1.898101e+01 1.949521e+01 1.575770e+01 1.552655e+01 1.259456e+00 8.670357e-01 6.000091e-01 9.789712e-01 1.189148e+00 1.668594e+00 1.493574e+00 1.823384e+00 1.898227e+00 1.840407e+00 2.076752e+00 1.741197e+00 1.701292e+00 8.102253e-02
<GCONST> 8.112328e+01
<STATE> 4
<MEAN> 26
 -1.418454e+01 -3.441220e+00 -1.448574e+00 -9.317944e+00 2.958520e-01 7.234449e-01 -4.098331e+00 -4.299268e+00 -3.307493e+00 1.836009e+00 -2.018353e+00 5.354879e-01 1.614171e+01 4.216860e+00 1.237187e+00 1.445074e+00 -5.976874e-01 -5.129550e-01 4.085069e-01 -1.649490e+00 -2.944972e-01 -1.590467e+00 -1.515090e+00 5.511092e-03 -1.215369e+00 9.702730e-01
<VARIANCE> 26
 6.549930e+01 2.014933e+01 2.832414e+01 2.717454e+01 3.408654e+01 3.940754e+01 3.168853e+01 2.890526e+01 3.521112e+01 2.667186e+01 2.635318e+01 2.387683e+01 3.980861e+00 4.677839e+00 2.782872e+00 3.934515e+00 6.042546e+00 5.068882e+00 4.813192e+00 7.845647e+00 5.336060e+00 5.200328e+00 3.844965e+00 5.382797e+00 2.621494e+00 3.940970e-01
<GCONST> 1.076850e+02
<TRANSP> 5
 0.000000e+00 1.000000e+00 0.000000e+00 0.000000e+00 0.000000e+00
 0.000000e+00 7.317073e-01 2.682927e-01 0.000000e+00 0.000000e+00
 0.000000e+00 0.000000e+00 8.958333e-01 1.041667e-01 0.000000e+00
 0.000000e+00 0.000000e+00 0.000000e+00 7.208122e-01 2.791878e-01
 0.000000e+00 0.000000e+00 0.000000e+00 0.000000e+00 0.000000e+00
<ENDHMM>
