~o
<STREAMINFO> 1 26
<VECSIZE> 26<NULLD><MFCC_E_D><DIAGC>
~h "g"
<BEGINHMM>
<NUMSTATES> 5
<STATE> 2
<MEAN> 26
 2.269430e-01 8.986883e+00 1.138296e+01 2.868744e+00 -5.224012e+00 -3.400947e+00 -5.852222e+00 -7.455041e-01 -1.162413e+01 -2.627987e-01 4.204851e+00 -8.356486e+00 1.739253e+01 2.281685e+00 1.291925e+00 6.009207e-01 1.834578e+00 -1.478151e+00 -1.101922e+00 9.894809e-01 9.940614e-02 -3.654644e-01 -3.442784e-02 1.076219e+00 -5.977705e-01 1.582114e-01
<VARIANCE> 26
 6.243986e+01 3.927475e+01 6.483407e+01 3.463824e+01 7.651991e+01 2.160585e+01 4.181778e+01 2.517804e+01 7.515471e+01 2.706764e+01 4.051130e+01 4.167485e+01 4.712076e+00 4.219096e+00 5.506778e+00 4.916117e+00 2.431468e+00 7.787013e+00 3.265656e+00 5.533206e+00 4.204795e+00 1.086481e+01 1.918591e+00 3.899192e+00 2.534223e+00 5.331008e-01
<GCONST> 1.109840e+02
<STATE> 3
<MEAN> 26
 5.282848e+00 9.174581e+00 1.097483e+01 3.132163e+00 -1.040757e+01 -3.172826e+00 -3.212862e+00 8.047088e-01 -1.405494e+01 -4.037488e+00 8.247190e+00 -9.839346e+00 1.825430e+01 -1.701339e+00 -9.767230e-01 -2.330604e-01 -1.909332e+00 2.483047e+00 1.548713e+00 -1.598108e-01 -8.686085e-01 4.228180e-01 3.457466e-01 -1.772586e+00 1.893502e+00 -1.451110e-01
<VARIANCE> 26
 6.617077e+00 2.050617e+01 5.456861e+01 3.544791e+01 4.718182e+01 2.652052e+01 2.831989e+01 2.275428e+01 7.690720e+01 3.986500e+01 5.009658e+01 3.017650e+01 9.424239e-01 3.403475e+00 4.938803e+00 5.517249e+00 4.126812e+00 5.320646e+00 1.992146e+00 3.675311e+00 4.780190e+00 3.152524e+00 4.483902e+00 5.237972e+00 3.227775e+00 9.545422e-02
<GCONST> 1.034543e+02
<STATE> 4
<MEAN> 26
 -4.681771e+00 8.308446e-01 1.031609e+01 -8.872544e+00 -1.025061e+00 5.925536e-01 -1.037631e+01 -2.922732e+00 -1.416744e+01 2.628189e-01 1.408928e+00 -2.148170e+00 1.844228e+01 -1.434277e+00 -1.551794e+00 8.125001e-02 -2.164218e+00 -4.887379e-01 -7.985617e-01 -1.979331e+00 3.564385e-01 4.301324e-01 -4.849506e-01 3.843257e-01 1.244278e+00 3.603554e-01
<VARIANCE> 26
 2.598739e+01 2.610101e+01 8.863406e+01 5.191811e+01 6.459797e+01 5.928056e+01 6.137765e+01 3.564035e+01 4.036385e+01 5.011102e+01 5.318026e+01 1.307802e+01 1.647992e+00 4.152144e+00 6.343657e+00 6.129748e+00 3.756545e+00 8.174726e+00 4.949675e+00 5.282232e+00 6.282316e+00 6.799860e+00 5.867341e+00 4.828525e+00 3.934578e+00 1.948898e-01
<GCONST> 1.119414e+02
<TRANSP> 5
 0.000000e+00 1.000000e+00 0.000000e+00 0.000000e+00 0.000000e+00
 0.000000e+00 6.296296e-01 3.703704e-01 0.000000e+00 0.000000e+00
 0.000000e+00 0.000000e+00 6.000000e-01 4.000000e-01 0.000000e+00
 0.000000e+00 0.000000e+00 0.000000e+00 6.666667e-01 3.333333e-01
 0.000000e+00 0.000000e+00 0.000000e+00 0.000000e+00 0.000000e+00
<ENDHMM>
