~o
<STREAMINFO> 1 26
<VECSIZE> 26<NULLD><MFCC_E_D><DIAGC>
~h "h"
<BEGINHMM>
<NUMSTATES> 5
<STATE> 2
<MEAN> 26
 -1.936707e+01 -7.540075e+00 5.457036e+00 -3.017555e+00 -6.276285e+00 -2.324650e+00 -1.066396e+00 -1.409235e+00 -5.460592e+00 2.936154e+00 -8.585858e-01 2.345771e+00 1.635695e+01 5.078155e-01 -4.727565e-02 1.510493e+00 2.234084e+00 -2.274604e-01 -1.273271e+00 -1.500395e-01 4.660386e-01 -7.695612e-01 -1.236822e+00 -3.022761e-01 -5.947490e-01 3.913284e-01
<VARIANCE> 26
 3.450014e+01 2.027156e+01 3.853138e+01 3.917197e+01 2.686545e+01 4.567478e+01 3.602501e+01 2.918362e+01 2.368041e+01 3.856964e+01 1.275662e+01 1.838547e+01 3.280714e+00 4.162354e+00 2.016971e+00 2.834965e+00 2.033463e+00 2.160382e+00 3.158406e+00 4.627072e+00 2.800428e+00 2.254300e+00 5.816360e+00 1.693230e+00 1.499327e+00 1.966777e-01
<GCONST> 9.942789e+01
<STATE> 3
<MEAN> 26
 -7.057901e+00 -2.840720e+00 1.444456e+01 7.514960e+00 -5.923476e+00 -8.488381e+00 -1.111385e+01 -9.279181e-01 -1.079335e+01 -1.096507e+01 -2.199914e+00 2.433564e+00 1.911917e+01 3.118137e+00 5.236730e-03 1.884378e+00 1.243324e+00 -4.188946e-01 -1.208834e+00 -4.142358e+00 5.199655e-01 -1.126419e+00 -4.995110e+00 1.165915e+00 8.068027e-01 7.289451e-01
<VARIANCE> 26
 2.123249e+01 1.093975e+01 1.838083e+01 1.045815e+01 1.628992e+01 1.806727e+01 4.290670e+01 1.717452e+01 2.761409e+01 3.242841e+01 1.445824e+01 2.244673e+01 6.197692e-01 3.366069e+00 2.461532e+00 1.981213e+00 2.666661e+00 3.103540e+00 3.655599e+00 4.551308e+00 2.588434e+00 4.127396e+00 5.517068e+00 2.238812e+00 2.612876e+00 2.474173e-01
<GCONST> 9.504944e+01
<STATE> 4
<MEAN> 26
 -3.630550e+00 -5.400455e+00 1.719370e+01 7.636364e+00 -6.700593e+00 -6.812200e+00 -1.789584e+01 1.463966e+00 -1.045876e+01 -1.956661e+01 5.076112e+00 2.576855e+00 1.988604e+01 1.069859e-01 -4.296988e-01 7.804074e-01 -8.273953e-01 -8.552695e-01 6.999771e-01 -4.560139e-01 -2.803167e-01 -5.090997e-02 -7.620583e-02 1.047518e+00 -8.288789e-01 1.093972e-01
<VARIANCE> 26
 6.114648e+00 1.194461e+01 1.953435e+01 3.320352e+01 1.886175e+01 1.506373e+01 3.775656e+01 2.128773e+01 3.838865e+01 4.122196e+01 1.782985e+01 2.593773e+01 3.010475e-01 8.891115e-01 5.088828e-01 2.667775e+00 2.489954e+00 2.656370e+00 2.331713e+00 3.522284e+00 2.487601e+00 1.513182e+00 4.539277e+00 1.267684e+00 1.288978e+00 1.694078e-02
<GCONST> 8.662656e+01
<TRANSP> 5
 0.000000e+00 1.000000e+00 0.000000e+00 0.000000e+00 0.000000e+00
 0.000000e+00 7.536232e-01 2.463768e-01 0.000000e+00 0.000000e+00
 0.000000e+00 0.000000e+00 5.952381e-01 4.047619e-01 0.000000e+00
 0.000000e+00 0.000000e+00 0.000000e+00 7.733333e-01 2.266667e-01
 0.000000e+00 0.000000e+00 0.000000e+00 0.000000e+00 0.000000e+00
<ENDHMM>
