~o
<STREAMINFO> 1 26
<VECSIZE> 26<NULLD><MFCC_E_D><DIAGC>
~h "i"
<BEGINHMM>
<NUMSTATES> 5
<STATE> 2
<MEAN> 26
 -9.988210e+00 4.335101e+00 1.714824e+01 -6.931463e+00 -3.567486e+00 -2.832738e+00 -1.317262e+01 -6.561112e+00 -9.135543e+00 -1.044150e+01 -5.603623e-01 1.838645e+00 1.936115e+01 4.992936e-01 -2.339825e-01 3.121070e+00 -1.483353e+00 -1.449010e+00 7.748256e-01 -2.339166e+00 -7.176197e-02 -1.709402e+00 -1.966504e+00 7.829499e-01 -2.389811e-01 3.842445e-01
<VARIANCE> 26
 3.102339e+01 3.483544e+01 4.318279e+01 4.723973e+01 5.261172e+01 2.586873e+01 4.014628e+01 2.905064e+01 4.274630e+01 5.430675e+01 4.241887e+01 2.107497e+01 1.694982e+00 4.756528e+00 2.839487e+00 3.593425e+00 4.152822e+00 4.210223e+00 4.228571e+00 4.472106e+00 2.638166e+00 4.491111e+00 4.401779e+00 3.052091e+00 2.381862e+00 1.835172e-01
<GCONST> 1.056674e+02
<STATE> 3
<MEAN> 26
 -9.809638e+00 4.094344e+00 2.256291e+01 -1.212289e+01 -6.288282e+00 1.939099e+00 -1.975096e+01 -4.261729e+00 -1.356762e+01 -1.455072e+01 3.269630e+00 -1.648378e+00 1.999041e+01 4.017209e-03 2.100347e-01 -2.504401e-02 -4.502630e-01 -2.072176e-01 1.307358e-01 -2.836124e-02 2.301895e-01 -4.394231e-01 3.175434e-01 -1.511462e-02 -4.894609e-01 -1.858147e-02
<VARIANCE> 26
 8.190941e+00 2.007250e+01 1.681038e+01 2.871178e+01 3.519345e+01 2.349897e+01 3.221348e+01 2.646628e+01 4.058694e+01 2.770899e+01 3.415734e+01 2.121101e+01 3.923041e-01 8.751829e-01 1.983706e+00 1.833572e+00 2.197109e+00 2.374120e+00 2.196937e+00 2.496527e+00 2.162556e+00 2.449635e+00 2.423292e+00 1.834117e+00 1.339737e+00 2.384634e-02
<GCONST> 8.943445e+01
<STATE> 4
<MEAN> 26
 -7.721299e+00 4.721620e+00 1.564690e+01 -8.613871e+00 -5.165117e+00 -2.433325e+00 -1.217377e+01 -5.209712e+00 -1.214908e+01 -5.958006e+00 -8.787590e-01 -2.063156e+00 1.872954e+01 5.597625e-01 3.421510e-01 -2.629931e+00 1.917524e+00 9.089088e-01 -7.387578e-01 2.092211e+00 -2.981859e-01 1.561103e+00 1.690152e+00 -6.319729e-01 -4.618488e-02 -5.098553e-01
<VARIANCE> 26
 3.519151e+01 5.170532e+01 5.485437e+01 6.226234e+01 5.576661e+01 3.831377e+01 5.967360e+01 4.201387e+01 7.239895e+01 5.022853e+01 4.649377e+01 3.871623e+01 3.898383e+00 4.636429e+00 4.358158e+00 3.593184e+00 4.935424e+00 5.393873e+00 4.377630e+00 3.816468e+00 4.075157e+00 4.901010e+00 3.526403e+00 3.788863e+00 3.457874e+00 2.479369e-01
<GCONST> 1.117913e+02
<TRANSP> 5
 0.000000e+00 1.000000e+00 0.000000e+00 0.000000e+00 0.000000e+00
 0.000000e+00 6.475000e-01 3.525000e-01 0.000000e+00 0.000000e+00
 0.000000e+00 0.000000e+00 8.152031e-01 1.847969e-01 0.000000e+00
 0.000000e+00 0.000000e+00 0.000000e+00 7.398524e-01 2.601476e-01
 0.000000e+00 0.000000e+00 0.000000e+00 0.000000e+00 0.000000e+00
<ENDHMM>
