~o
<STREAMINFO> 1 26
<VECSIZE> 26<NULLD><MFCC_E_D><DIAGC>
~h "k"
<BEGINHMM>
<NUMSTATES> 5
<STATE> 2
<MEAN> 26
 -9.500917e+00 1.068237e+00 1.264247e-02 2.197862e-01 1.556129e+00 5.927489e-01 -2.185249e+00 -3.029467e-02 -4.941933e+00 -4.393283e-01 -1.093277e-01 -2.140123e+00 1.176707e+01 -1.093465e+00 -1.094250e+00 -1.346363e+00 -1.408602e+00 1.429552e-01 3.535287e-01 2.029205e-02 -6.668917e-01 5.026842e-01 2.528023e-01 -8.221182e-02 8.235558e-01 -2.281380e-01
<VARIANCE> 26
 4.118280e+01 3.506853e+01 2.984091e+01 2.283426e+01 3.088470e+01 2.574475e+01 3.496387e+01 2.301186e+01 5.343265e+01 3.202888e+01 2.271609e+01 2.157125e+01 1.058599e+01 5.560242e+00 4.702804e+00 5.355088e+00 1.471606e+01 5.444489e+00 3.357776e+00 7.086892e+00 4.898161e+00 6.936237e+00 4.014355e+00 3.433175e+00 3.348114e+00 2.441259e+00
<GCONST> 1.116969e+02
<STATE> 3
<MEAN> 26
 -9.076501e+00 -6.346243e+00 -8.788090e+00 -1.897685e+01 -1.235721e-01 1.226313e+00 -7.977363e+00 -2.737971e+00 -8.627076e+00 3.981410e+00 4.579327e-01 -8.499124e-01 1.609453e+01 5.130213e-01 -1.149401e+00 -9.611301e-01 -3.580988e+00 -8.014332e-02 6.520905e-02 -1.215745e+00 -1.442719e+00 -1.372588e+00 1.045799e+00 1.150104e-01 2.675950e-01 1.407720e+00
<VARIANCE> 26
 3.331295e+01 3.862535e+01 6.932012e+01 5.999546e+01 5.186256e+01 4.398056e+01 6.894559e+01 4.295121e+01 4.351968e+01 3.779920e+01 2.883335e+01 3.046751e+01 4.286284e+00 4.092689e+00 3.732946e+00 6.291750e+00 1.427195e+01 3.887912e+00 3.559401e+00 6.858254e+00 4.007985e+00 7.448246e+00 3.110649e+00 3.091999e+00 3.284874e+00 1.223039e+00
<GCONST> 1.134700e+02
<STATE> 4
<MEAN> 26
 -8.517955e+00 -2.273645e+00 -1.639571e+00 -1.424254e+01 -2.224008e-01 -1.574765e-01 -6.323265e+00 -5.901031e+00 -8.730421e+00 2.120345e+00 3.855612e-01 -2.772113e-01 1.724624e+01 1.569170e+00 1.477002e+00 2.216269e+00 1.062984e+00 -1.418790e+00 -2.700674e-01 -5.403931e-01 2.727610e-01 -5.427734e-01 -1.380984e+00 8.899189e-01 -7.167411e-01 6.205598e-01
<VARIANCE> 26
 5.631026e+01 2.491289e+01 8.029060e+01 8.073419e+01 5.346832e+01 4.424112e+01 4.446875e+01 5.320887e+01 7.550497e+01 4.593087e+01 4.382513e+01 3.047169e+01 5.481971e+00 5.039109e+00 3.396083e+00 4.212658e+00 5.288336e+00 7.289977e+00 4.423397e+00 7.362254e+00 4.947339e+00 4.535080e+00 3.530005e+00 5.434844e+00 2.984918e+00 4.449660e-01
<GCONST> 1.141573e+02
<TRANSP> 5
 0.000000e+00 1.000000e+00 0.000000e+00 0.000000e+00 0.000000e+00
 0.000000e+00 7.433962e-01 2.566038e-01 0.000000e+00 0.000000e+00
 0.000000e+00 0.000000e+00 5.723270e-01 4.276730e-01 0.000000e+00
 0.000000e+00 0.000000e+00 0.000000e+00 6.777251e-01 3.222749e-01
 0.000000e+00 0.000000e+00 0.000000e+00 0.000000e+00 0.000000e+00
<ENDHMM>
