~o
<STREAMINFO> 1 26
<VECSIZE> 26<NULLD><MFCC_E_D><DIAGC>
~h "l"
<BEGINHMM>
<NUMSTATES> 5
<STATE> 2
<MEAN> 26
 -1.064962e+00 -3.348439e+00 3.138784e+00 -2.752988e+00 5.644270e-01 -1.856764e+00 -1.348051e+01 -7.003911e+00 -3.437351e+00 3.000707e+00 -2.472420e+00 -3.349417e+00 1.724692e+01 1.891259e+00 -1.409377e-01 1.238421e+00 1.419893e-01 1.516420e+00 -1.303789e+00 -2.781306e+00 -1.633874e+00 -8.519903e-01 -1.693454e-01 -1.290318e+00 -1.120450e+00 7.272753e-01
<VARIANCE> 26
 5.347824e+01 3.178599e+01 7.909047e+01 3.471661e+01 4.370758e+01 5.584454e+01 1.010655e+02 9.212543e+01 4.419243e+01 4.876521e+01 3.929943e+01 3.197145e+01 1.170405e+01 5.439844e+00 5.245853e+00 4.280094e+00 4.301428e+00 7.025552e+00 3.854471e+00 9.544929e+00 5.998908e+00 4.719270e+00 4.691635e+00 4.693739e+00 3.788326e+00 8.102007e-01
<GCONST> 1.167271e+02
<STATE> 3
<MEAN> 26
 2.042051e+00 -1.746091e+00 1.076609e+01 -4.477782e+00 3.532051e+00 -4.184804e+00 -2.400929e+01 -7.630781e+00 -5.508872e+00 -2.060877e+00 -2.881117e+00 -6.463006e+00 1.959711e+01 -1.699888e-01 1.515613e-01 4.316739e-01 -2.103087e-01 8.392575e-02 1.015105e-01 -6.551328e-01 5.494677e-01 -6.969161e-02 -5.150529e-01 4.861781e-01 -5.400308e-01 9.360733e-02
<VARIANCE> 26
 2.221642e+01 2.822898e+01 8.868982e+01 5.249341e+01 5.232990e+01 4.803666e+01 5.920436e+01 7.096944e+01 3.746030e+01 5.215019e+01 3.240260e+01 3.932928e+01 3.842633e-01 8.120377e-01 2.278363e+00 2.571129e+00 2.359160e+00 2.513674e+00 3.098163e+00 4.990769e+00 4.455626e+00 3.628769e+00 3.165796e+00 2.206483e+00 2.547077e+00 3.310596e-02
<GCONST> 1.009476e+02
<STATE> 4
<MEAN> 26
 1.032639e+00 -5.861637e+00 6.895497e+00 -7.560483e+00 -5.727904e-01 -2.467069e+00 -1.846240e+01 -4.134190e+00 -6.475334e+00 6.257132e-01 5.247390e-03 -7.975667e+00 1.969888e+01 -5.843814e-01 -8.390397e-01 -2.815908e-01 -1.916283e+00 -1.676358e+00 2.794606e-01 1.606927e+00 1.611360e+00 -4.060850e-01 8.549798e-01 1.271784e+00 4.184474e-01 8.559515e-02
<VARIANCE> 26
 1.587843e+01 3.044467e+01 6.970005e+01 8.783055e+01 7.400068e+01 4.651495e+01 1.056936e+02 8.048095e+01 5.007067e+01 7.975037e+01 4.768866e+01 4.122420e+01 2.124002e+00 1.231724e+00 3.837420e+00 7.226330e+00 7.074127e+00 6.928633e+00 5.910093e+00 5.162242e+00 6.601762e+00 6.159423e+00 7.869980e+00 4.816895e+00 3.787548e+00 9.289317e-02
<GCONST> 1.136441e+02
<TRANSP> 5
 0.000000e+00 1.000000e+00 0.000000e+00 0.000000e+00 0.000000e+00
 0.000000e+00 6.073446e-01 3.926554e-01 0.000000e+00 0.000000e+00
 0.000000e+00 0.000000e+00 7.522281e-01 2.477718e-01 0.000000e+00
 0.000000e+00 0.000000e+00 0.000000e+00 7.134020e-01 2.865979e-01
 0.000000e+00 0.000000e+00 0.000000e+00 0.000000e+00 0.000000e+00
<ENDHMM>
