~o
<STREAMINFO> 1 26
<VECSIZE> 26<NULLD><MFCC_E_D><DIAGC>
~h "m"
<BEGINHMM>
<NUMSTATES> 5
<STATE> 2
<MEAN> 26
 1.767803e+00 -1.341826e+00 2.919961e+00 1.680492e+00 -6.238044e+00 1.220257e+00 -1.019324e+01 -3.289582e-01 -1.970502e+01 -5.036459e+00 8.376805e+00 -6.722065e+00 1.928902e+01 9.984258e-01 5.832657e-01 -1.971602e-01 4.145967e+00 2.556674e-02 -3.169430e-01 1.627029e-01 -8.134522e-01 -3.558998e+00 -6.395683e-01 1.306409e+00 -1.330915e+00 2.587107e-01
<VARIANCE> 26
 1.892118e+01 2.684805e+01 4.015711e+01 7.368247e+01 3.522397e+01 4.516215e+01 7.164098e+01 3.833124e+01 7.575614e+01 6.513223e+01 4.560022e+01 2.861626e+01 5.399782e+00 2.452486e+00 2.234765e+00 5.156900e+00 9.072746e+00 2.766639e+00 4.569136e+00 6.120165e+00 5.132797e+00 5.703667e+00 3.057728e+00 4.523446e+00 2.304651e+00 3.683114e-01
<GCONST> 1.103972e+02
<STATE> 3
<MEAN> 26
 2.472521e+00 -1.164949e+00 3.189208e+00 7.240696e+00 -7.234266e+00 1.009087e+00 -1.215029e+01 -3.582516e+00 -2.571977e+01 -5.759008e+00 1.247811e+01 -9.473594e+00 2.042210e+01 -1.139358e-01 -2.481596e-01 5.861004e-02 -1.118263e-01 5.454420e-02 1.499540e-01 -4.113311e-03 -2.000579e-01 -8.337406e-02 8.899579e-02 -6.209723e-02 1.168892e-01 3.362150e-02
<VARIANCE> 26
 5.692195e+00 2.099238e+01 1.430240e+01 1.450495e+01 1.978841e+01 4.509085e+01 5.043050e+01 4.165134e+01 3.869229e+01 7.197787e+01 4.217585e+01 3.549470e+01 2.346386e-01 2.306947e-01 1.060899e+00 1.081754e+00 2.948814e+00 1.187948e+00 1.742918e+00 2.144166e+00 1.806244e+00 2.721344e+00 2.243694e+00 2.630151e+00 1.751121e+00 7.851952e-03
<GCONST> 8.646398e+01
<STATE> 4
<MEAN> 26
 1.722914e+00 -5.522766e+00 2.176718e+00 -6.941491e+00 -6.773367e+00 3.777879e+00 -1.406841e+01 -2.963896e-02 -1.714828e+01 -4.285028e+00 7.583950e+00 -6.618798e+00 2.055820e+01 -4.361404e-01 -1.017789e+00 -4.382959e-02 -5.178703e+00 -2.376341e-01 5.609901e-01 -1.073548e-01 1.545482e+00 3.384260e+00 4.034880e-01 -1.731155e+00 5.656136e-01 9.203196e-02
<VARIANCE> 26
 8.938882e+00 2.878640e+01 4.250364e+01 1.352063e+02 4.841621e+01 6.175998e+01 4.983782e+01 4.406776e+01 8.286497e+01 6.837863e+01 5.506136e+01 2.356700e+01 4.504824e-01 8.188897e-01 2.740695e+00 4.391415e+00 7.950294e+00 3.835354e+00 3.174837e+00 3.603212e+00 4.009945e+00 4.995872e+00 2.992711e+00 3.894141e+00 2.759503e+00 5.725365e-02
<GCONST> 1.044527e+02
<TRANSP> 5
 0.000000e+00 1.000000e+00 0.000000e+00 0.000000e+00 0.000000e+00
 0.000000e+00 6.205128e-01 3.794872e-01 0.000000e+00 0.000000e+00
 0.000000e+00 0.000000e+00 7.972603e-01 2.027397e-01 0.000000e+00
 0.000000e+00 0.000000e+00 0.000000e+00 7.075099e-01 2.924901e-01
 0.000000e+00 0.000000e+00 0.000000e+00 0.000000e+00 0.000000e+00
<ENDHMM>
