~o
<STREAMINFO> 1 26
<VECSIZE> 26<NULLD><MFCC_E_D><DIAGC>
~h "n"
<BEGINHMM>
<NUMSTATES> 5
<STATE> 2
<MEAN> 26
 2.625466e-01 2.256402e+00 6.504510e+00 2.511041e+00 -1.072435e+01 2.075241e+00 -1.009492e+01 -1.826044e+00 -1.866440e+01 -7.029335e-01 9.030789e-03 -7.431830e+00 1.957107e+01 1.157619e+00 1.232851e+00 -8.247774e-01 3.577519e+00 -1.603580e+00 -1.207640e-01 1.999087e+00 -1.374851e+00 -2.233305e+00 7.180497e-01 -9.622965e-01 -1.697331e-01 3.037859e-01
<VARIANCE> 26
 1.347965e+01 2.626503e+01 2.275214e+01 4.720310e+01 5.427497e+01 5.040518e+01 5.136459e+01 4.565411e+01 6.060913e+01 4.801978e+01 4.138115e+01 2.381251e+01 4.530902e+00 2.091042e+00 2.318580e+00 6.310791e+00 5.488424e+00 4.782506e+00 3.510341e+00 6.251894e+00 3.961611e+00 6.624893e+00 3.892257e+00 3.511145e+00 2.780258e+00 4.725536e-01
<GCONST> 1.086200e+02
<STATE> 3
<MEAN> 26
 1.463456e+00 2.347136e+00 5.640814e+00 7.609437e+00 -1.465865e+01 2.415304e+00 -6.068854e+00 -5.258308e+00 -1.821010e+01 -2.107737e+00 -6.325153e-01 -6.279115e+00 2.045093e+01 -1.268401e-01 -9.924395e-02 2.529090e-02 -7.001884e-03 5.077662e-02 -2.806682e-01 2.238991e-01 8.247943e-02 2.924191e-01 -4.605195e-01 2.795573e-01 1.501967e-01 2.858545e-02
<VARIANCE> 26
 6.116473e+00 1.286400e+01 9.226130e+00 1.667203e+01 1.490648e+01 1.921856e+01 2.616284e+01 2.481358e+01 3.743541e+01 5.990003e+01 4.347476e+01 2.247244e+01 2.346386e-01 2.798928e-01 1.138064e+00 9.068755e-01 1.478839e+00 1.348377e+00 1.718225e+00 1.705069e+00 1.596066e+00 2.089421e+00 2.585994e+00 2.160666e+00 1.692662e+00 6.615480e-03
<GCONST> 8.142567e+01
<STATE> 4
<MEAN> 26
 -6.263061e-01 -1.518637e+00 6.909164e+00 -2.915022e+00 -9.722931e+00 6.205654e-01 -1.355094e+01 -3.267742e-01 -1.348506e+01 -3.916581e+00 1.789777e+00 -7.442450e+00 2.052338e+01 -6.232587e-01 -1.332717e+00 2.778112e-01 -3.915237e+00 1.382815e+00 -1.483620e-01 -2.397813e+00 1.558693e+00 2.200312e+00 -8.539470e-01 1.389076e+00 5.036343e-02 4.303450e-02
<VARIANCE> 26
 6.472839e+00 2.342597e+01 2.954860e+01 9.310281e+01 4.742000e+01 3.524309e+01 5.667669e+01 3.757422e+01 5.250909e+01 7.974116e+01 5.178652e+01 3.440380e+01 2.355122e-01 7.087812e-01 1.422498e+00 3.452286e+00 5.806775e+00 4.091995e+00 3.326642e+00 5.589747e+00 3.668733e+00 5.201214e+00 3.795863e+00 3.424505e+00 2.309799e+00 1.828162e-02
<GCONST> 9.987718e+01
<TRANSP> 5
 0.000000e+00 1.000000e+00 0.000000e+00 0.000000e+00 0.000000e+00
 0.000000e+00 5.923913e-01 4.076087e-01 0.000000e+00 0.000000e+00
 0.000000e+00 0.000000e+00 7.634069e-01 2.365931e-01 0.000000e+00
 0.000000e+00 0.000000e+00 0.000000e+00 7.191011e-01 2.808989e-01
 0.000000e+00 0.000000e+00 0.000000e+00 0.000000e+00 0.000000e+00
<ENDHMM>
