~o
<STREAMINFO> 1 26
<VECSIZE> 26<NULLD><MFCC_E_D><DIAGC>
~h "n~"
<BEGINHMM>
<NUMSTATES> 5
<STATE> 2
<MEAN> 26
 5.706283e-01 3.566554e-01 7.764624e+00 -2.973710e+00 -8.532763e+00 -4.064919e+00 -1.130034e+01 2.589751e+00 -1.975473e+01 -1.519566e+01 9.674346e+00 -4.553486e+00 2.075394e+01 -3.074827e-01 4.396871e-02 4.164282e-01 -8.552659e-02 2.679611e-01 -2.840857e-02 -1.800870e-01 4.665888e-01 -1.446193e-01 -9.879417e-01 1.654741e+00 -4.503794e-01 1.084817e-02
<VARIANCE> 26
 4.477899e+00 5.560172e+00 2.017111e+01 2.927453e+01 2.024014e+01 2.895797e+01 1.183400e+01 2.233528e+01 1.440213e+01 2.378898e+01 4.998746e+01 1.192018e+01 2.346386e-01 1.721125e+00 1.207642e+00 3.789294e+00 6.704286e+00 1.766157e+00 3.872410e+00 3.180257e+00 2.181427e+00 9.345611e-01 1.949782e+00 2.663261e+00 1.578758e+00 4.406946e-03
<GCONST> 8.454594e+01
<STATE> 3
<MEAN> 26
 -4.653226e+00 -1.766540e-01 1.815178e+01 -1.114806e+01 -1.596745e+01 6.270921e+00 -1.620178e+01 -7.031140e-01 -1.608876e+01 -1.330247e+01 9.626939e+00 -5.675381e+00 2.077464e+01 -5.706376e-01 -5.751395e-01 1.451369e+00 -7.669386e-01 -2.363212e+00 1.608676e+00 -2.929988e-02 -9.923779e-01 1.602408e+00 1.289914e+00 -1.204972e+00 4.743235e-01 -7.833911e-03
<VARIANCE> 26
 6.653515e+00 1.378188e+01 1.481793e+01 3.552421e+01 4.577606e+01 3.201475e+01 2.038593e+01 4.024905e+01 2.427973e+01 2.923889e+01 2.883782e+01 9.393781e+00 2.346386e-01 6.314033e-01 1.191517e+00 3.003339e+00 4.581546e+00 2.894598e+00 1.047646e+01 1.773098e+00 4.989563e+00 8.941091e-01 1.699276e+00 1.690214e+00 7.368728e-01 5.144489e-03
<GCONST> 8.658360e+01
<STATE> 4
<MEAN> 26
 -2.801297e+00 -4.708071e+00 1.244164e+01 -8.174050e+00 -1.562754e+01 1.020902e+00 -1.835811e+01 2.055803e+00 -9.401557e+00 -7.997213e+00 6.333821e+00 -4.518044e+00 2.085318e+01 8.879520e-01 6.169967e-02 -2.376716e+00 1.598174e-01 2.310735e+00 -9.658477e-01 -7.512966e-01 3.543445e-01 5.104932e-01 1.340606e+00 -1.325855e-01 -3.796327e-01 -4.982860e-02
<VARIANCE> 26
 1.162508e+01 1.795039e+01 3.933328e+01 1.826629e+01 3.682863e+01 4.240191e+01 2.426437e+01 2.061938e+01 3.891229e+01 2.546004e+01 1.109335e+01 9.604810e+00 2.346386e-01 2.505884e-01 3.081064e+00 2.173347e+00 3.373172e+00 2.473909e+00 7.791624e+00 5.067720e+00 3.542804e+00 4.268914e+00 2.211271e+00 1.994495e+00 2.543930e+00 5.549645e-02
<GCONST> 9.194644e+01
<TRANSP> 5
 0.000000e+00 1.000000e+00 0.000000e+00 0.000000e+00 0.000000e+00
 0.000000e+00 7.631579e-01 2.368421e-01 0.000000e+00 0.000000e+00
 0.000000e+00 0.000000e+00 7.428572e-01 2.571429e-01 0.000000e+00
 0.000000e+00 0.000000e+00 0.000000e+00 7.857143e-01 2.142857e-01
 0.000000e+00 0.000000e+00 0.000000e+00 0.000000e+00 0.000000e+00
<ENDHMM>
