~o
<STREAMINFO> 1 26
<VECSIZE> 26<NULLD><MFCC_E_D><DIAGC>
~h "o"
<BEGINHMM>
<NUMSTATES> 5
<STATE> 2
<MEAN> 26
 4.530733e-01 -3.709049e-01 1.074463e+00 -2.129483e+01 -9.557605e+00 7.320111e+00 -1.531371e+01 -6.668069e+00 -1.287064e+01 1.364414e-01 8.983683e+00 -6.450048e+00 2.048414e+01 1.650683e+00 -6.619442e-01 -1.263019e-01 -2.927730e+00 -2.851658e+00 2.276375e+00 -2.462209e+00 4.094104e-01 -1.863749e+00 -1.665055e-01 2.545080e+00 -1.429269e+00 7.148808e-01
<VARIANCE> 26
 1.337466e+01 3.859045e+01 2.323129e+01 7.200871e+01 4.819395e+01 3.110126e+01 7.223591e+01 5.742049e+01 5.100033e+01 5.490734e+01 6.640751e+01 3.546679e+01 3.007460e+00 3.097127e+00 2.876900e+00 3.621175e+00 6.806335e+00 4.855347e+00 2.839567e+00 4.699664e+00 3.611264e+00 5.608805e+00 4.702649e+00 5.333374e+00 3.261164e+00 2.855165e-01
<GCONST> 1.096215e+02
<STATE> 3
<MEAN> 26
 1.451334e+00 -3.639179e+00 -1.840794e+00 -2.720991e+01 -1.169475e+01 1.168722e+01 -1.586795e+01 -5.866996e+00 -1.463110e+01 1.810220e+00 1.101013e+01 -8.042768e+00 2.171321e+01 1.319691e-02 -7.791398e-02 -2.157864e-01 -1.374573e-01 1.732432e-01 4.365091e-02 3.047194e-01 -6.140810e-02 -1.846948e-01 -7.101401e-02 -3.698893e-01 6.289252e-02 9.264286e-03
<VARIANCE> 26
 4.855495e+00 3.145524e+01 2.474309e+01 3.826559e+01 3.074552e+01 1.587727e+01 4.956047e+01 3.400203e+01 3.482646e+01 8.071746e+01 4.245578e+01 2.748090e+01 3.209845e-01 3.907989e-01 1.213770e+00 1.325838e+00 3.307523e+00 2.226068e+00 1.959884e+00 3.852278e+00 1.869681e+00 2.485122e+00 2.531987e+00 2.730813e+00 1.955657e+00 2.692722e-02
<GCONST> 9.123375e+01
<STATE> 4
<MEAN> 26
 1.138327e+00 -1.018353e+00 4.250503e-01 -1.844035e+01 -6.764007e+00 6.023288e+00 -1.468214e+01 -6.033507e+00 -1.306119e+01 -1.012313e+00 5.396354e+00 -7.372988e+00 2.045701e+01 -5.710164e-01 9.856454e-01 8.529778e-01 3.854913e+00 2.033426e+00 -1.836272e+00 2.043692e+00 -3.031921e-02 1.191897e+00 -5.978733e-01 -2.343813e+00 9.441350e-01 -5.393878e-01
<VARIANCE> 26
 1.255980e+01 4.853735e+01 3.470329e+01 1.243211e+02 4.135800e+01 3.971776e+01 1.408336e+02 6.317197e+01 3.710490e+01 5.775554e+01 6.914022e+01 5.460419e+01 2.107686e+00 2.872487e+00 3.448342e+00 2.993254e+00 7.318724e+00 4.789610e+00 3.778878e+00 5.846716e+00 3.584773e+00 6.975533e+00 4.653058e+00 5.174556e+00 2.713299e+00 1.691583e-01
<GCONST> 1.113799e+02
<TRANSP> 5
 0.000000e+00 1.000000e+00 0.000000e+00 0.000000e+00 0.000000e+00
 0.000000e+00 5.665025e-01 4.334975e-01 0.000000e+00 0.000000e+00
 0.000000e+00 0.000000e+00 8.348968e-01 1.651032e-01 0.000000e+00
 0.000000e+00 0.000000e+00 0.000000e+00 6.641222e-01 3.358779e-01
 0.000000e+00 0.000000e+00 0.000000e+00 0.000000e+00 0.000000e+00
<ENDHMM>
