~o
<STREAMINFO> 1 26
<VECSIZE> 26<NULLD><MFCC_E_D><DIAGC>
~h "o~"
<BEGINHMM>
<NUMSTATES> 5
<STATE> 2
<MEAN> 26
 1.085766e+00 3.893721e-02 2.420259e-01 -1.576773e+01 -1.272704e+01 6.939838e+00 -8.936902e+00 2.539178e+00 -1.171573e+01 -5.115728e+00 5.837345e+00 -2.824512e+00 1.984037e+01 1.776630e+00 1.177797e-02 -1.363952e-01 -1.285865e+00 -3.372726e+00 6.511273e-01 -5.566550e-01 1.883421e+00 -1.030995e+00 -5.417778e-01 8.292896e-01 -9.982961e-01 5.743190e-01
<VARIANCE> 26
 1.272794e+01 2.271348e+01 1.583331e+01 4.114047e+01 4.437189e+01 3.311042e+01 4.845686e+01 3.800807e+01 4.383577e+01 3.393497e+01 3.697492e+01 1.466644e+01 2.994938e+00 3.704332e+00 1.882052e+00 2.875607e+00 4.628288e+00 4.449604e+00 4.225195e+00 6.273508e+00 4.988507e+00 5.892873e+00 3.177203e+00 3.604143e+00 1.365816e+00 2.345020e-01
<GCONST> 1.034202e+02
<STATE> 3
<MEAN> 26
 1.912620e+00 -2.158329e+00 -9.931104e-01 -1.230663e+01 -1.857246e+01 6.341163e+00 -9.501393e+00 2.912875e+00 -1.377382e+01 -3.631889e+00 2.910766e+00 -5.804278e+00 2.064699e+01 4.341953e-02 1.346953e-01 -1.179312e-01 6.730832e-01 -8.497296e-02 4.582838e-02 2.628139e-01 -3.601646e-01 -7.199730e-01 4.308969e-01 -8.465145e-01 -2.249739e-01 -4.730291e-02
<VARIANCE> 26
 3.800470e+00 1.334693e+01 1.300145e+01 2.368422e+01 1.813977e+01 1.970108e+01 2.055908e+01 2.095048e+01 3.201154e+01 2.223017e+01 2.327248e+01 1.581227e+01 2.346386e-01 2.935289e-01 7.470641e-01 1.156629e+00 2.719090e+00 1.921371e+00 2.357972e+00 1.831753e+00 1.809204e+00 2.086276e+00 1.668413e+00 1.634424e+00 9.784359e-01 1.419589e-02
<GCONST> 8.021059e+01
<STATE> 4
<MEAN> 26
 2.586306e+00 1.101005e+00 -5.797572e-01 -5.903120e+00 -9.974017e+00 5.071609e+00 -2.993097e+00 -1.355297e+00 -1.776473e+01 -7.580729e-01 -4.127062e+00 -3.155708e+00 1.926411e+01 -6.170809e-01 9.819891e-01 1.237514e-01 1.562956e+00 2.644638e+00 -9.727554e-01 1.874723e+00 -1.388514e+00 1.243717e+00 -4.357279e-02 6.831196e-02 9.742148e-01 -5.720610e-01
<VARIANCE> 26
 5.714518e+00 2.909975e+01 1.266407e+01 9.583287e+01 5.840921e+01 4.532838e+01 4.340542e+01 3.204914e+01 4.341928e+01 3.563079e+01 3.416514e+01 2.928240e+01 1.007119e+00 2.064800e+00 2.707989e+00 1.316387e+00 5.784463e+00 2.683690e+00 3.366476e+00 3.286740e+00 3.129084e+00 4.354552e+00 2.681441e+00 3.883422e+00 2.486666e+00 1.406591e-01
<GCONST> 1.004254e+02
<TRANSP> 5
 0.000000e+00 1.000000e+00 0.000000e+00 0.000000e+00 0.000000e+00
 0.000000e+00 5.478261e-01 4.521739e-01 0.000000e+00 0.000000e+00
 0.000000e+00 0.000000e+00 8.818182e-01 1.181818e-01 0.000000e+00
 0.000000e+00 0.000000e+00 0.000000e+00 7.248677e-01 2.751323e-01
 0.000000e+00 0.000000e+00 0.000000e+00 0.000000e+00 0.000000e+00
<ENDHMM>
