~o
<STREAMINFO> 1 26
<VECSIZE> 26<NULLD><MFCC_E_D><DIAGC>
~h "p"
<BEGINHMM>
<NUMSTATES> 5
<STATE> 2
<MEAN> 26
 -3.796501e+00 7.548525e+00 4.006726e+00 2.822516e+00 1.617728e+00 5.799696e-01 -4.092944e+00 -3.854845e+00 -6.764865e+00 -2.049582e+00 -1.148754e+00 -5.532487e+00 1.417962e+01 -2.984212e+00 3.483578e-01 -4.490062e-01 1.993824e+00 1.036328e+00 6.211369e-02 1.547080e+00 6.880607e-01 1.738884e+00 -9.038967e-02 -4.925922e-01 2.378629e-01 -1.666186e+00
<VARIANCE> 26
 5.224997e+01 2.673571e+01 2.476579e+01 2.336152e+01 2.353658e+01 1.788935e+01 3.772982e+01 2.916338e+01 4.195738e+01 2.893617e+01 2.687566e+01 1.980227e+01 8.758500e+00 3.264259e+00 8.132627e+00 3.752708e+00 8.778376e+00 2.523260e+00 2.982249e+00 3.929736e+00 3.164458e+00 3.106321e+00 3.842875e+00 3.060282e+00 2.367394e+00 4.589621e-01
<GCONST> 1.049760e+02
<STATE> 3
<MEAN> 26
 -1.350613e+01 2.202355e+00 -9.949624e-02 1.542927e+00 2.043200e+00 1.580759e+00 -1.895214e-01 1.638457e+00 1.529883e-01 1.822645e+00 1.640751e+00 -6.230283e-01 9.785085e+00 4.095748e-02 -7.259083e-01 -3.496648e-01 -1.163441e+00 -2.525035e-01 -2.363440e-01 2.194530e-02 -1.376810e-01 3.243795e-01 4.130011e-01 2.660799e-01 6.848015e-01 3.040136e-01
<VARIANCE> 26
 1.961497e+00 3.727913e+00 5.643487e+00 8.136824e+00 9.937708e+00 1.067010e+01 1.367475e+01 1.213243e+01 1.351016e+01 1.433013e+01 1.308013e+01 1.626743e+01 2.748789e+00 1.487959e+00 1.026986e+00 1.326708e+00 2.418351e+00 1.519675e+00 1.376631e+00 1.792947e+00 2.782038e+00 2.253805e+00 2.013352e+00 1.662383e+00 2.115510e+00 1.065649e+00
<GCONST> 8.178226e+01
<STATE> 4
<MEAN> 26
 -7.777377e+00 -2.787380e+00 3.305519e-01 -9.285748e+00 1.495470e+00 3.392607e-01 -3.876633e+00 -4.164536e+00 -2.676060e+00 2.968342e+00 9.278638e-01 -1.659464e-01 1.654638e+01 2.447551e+00 -1.528705e+00 -3.062295e-01 -3.570652e+00 -8.478859e-01 8.633460e-01 -2.516229e+00 -5.705215e-01 -1.638613e+00 1.047513e-01 3.587662e-01 -1.302377e+00 1.895913e+00
<VARIANCE> 26
 3.900512e+01 1.916211e+01 2.414006e+01 5.259902e+01 2.576620e+01 2.455195e+01 4.399767e+01 2.807536e+01 3.493081e+01 2.295353e+01 2.053713e+01 3.345092e+01 7.647591e+00 4.358462e+00 4.573779e+00 4.316577e+00 7.785583e+00 5.282100e+00 5.783928e+00 6.646125e+00 4.617263e+00 5.226425e+00 4.654792e+00 4.358335e+00 4.463289e+00 1.024429e+00
<GCONST> 1.099046e+02
<TRANSP> 5
 0.000000e+00 1.000000e+00 0.000000e+00 0.000000e+00 0.000000e+00
 0.000000e+00 6.956522e-01 3.043478e-01 0.000000e+00 0.000000e+00
 0.000000e+00 0.000000e+00 8.040712e-01 1.959288e-01 0.000000e+00
 0.000000e+00 0.000000e+00 0.000000e+00 6.857143e-01 3.142858e-01
 0.000000e+00 0.000000e+00 0.000000e+00 0.000000e+00 0.000000e+00
<ENDHMM>
