~o
<STREAMINFO> 1 26
<VECSIZE> 26<NULLD><MFCC_E_D><DIAGC>
~h "q"
<BEGINHMM>
<NUMSTATES> 5
<STATE> 2
<MEAN> 26
 -1.279454e+00 -3.478459e+00 5.300503e+00 -1.547492e+01 -6.497437e+00 3.892872e+00 -1.786593e+01 -6.229179e+00 -9.157949e+00 3.060562e+00 4.302393e+00 -6.001807e+00 2.033070e+01 1.151393e+00 -1.448968e+00 2.030632e-01 -7.065085e-01 -1.481578e+00 4.978499e-01 -2.972639e+00 4.529246e-01 -1.024772e+00 1.094809e+00 1.888722e+00 -1.671293e+00 3.961926e-01
<VARIANCE> 26
 2.001248e+01 3.152609e+01 4.009078e+01 7.328874e+01 4.728359e+01 6.442921e+01 9.081409e+01 5.040675e+01 2.825988e+01 4.941682e+01 3.393649e+01 4.386051e+01 1.182155e+00 3.375645e+00 1.945233e+00 2.492448e+00 4.147892e+00 5.923161e+00 3.885636e+00 7.383334e+00 3.537559e+00 3.965943e+00 3.416407e+00 4.009166e+00 3.725177e+00 1.481212e-01
<GCONST> 1.073997e+02
<STATE> 3
<MEAN> 26
 -1.049338e+00 -6.129581e+00 7.419448e+00 -1.266197e+01 -6.679673e+00 1.173945e+00 -2.559386e+01 -2.823016e+00 -9.280874e+00 3.199216e+00 6.850558e+00 -1.052589e+01 2.072043e+01 1.898369e-01 6.622626e-01 -2.007932e-01 6.756376e-01 5.938378e-01 -2.917322e-01 9.001659e-01 1.693800e-01 -3.760435e-01 4.202375e-02 -3.907213e-01 4.314326e-01 -1.466822e-01
<VARIANCE> 26
 1.285352e+01 1.384066e+01 3.520129e+01 2.797810e+01 3.384369e+01 2.545156e+01 5.458852e+01 4.182763e+01 3.474649e+01 6.166304e+01 3.395209e+01 1.965202e+01 9.195101e-01 6.201512e-01 1.750111e+00 1.839821e+00 5.030334e+00 2.536805e+00 3.020012e+00 4.292682e+00 3.146379e+00 3.090952e+00 4.542240e+00 2.473641e+00 1.895158e+00 5.927625e-02
<GCONST> 9.674715e+01
<STATE> 4
<MEAN> 26
 -1.795862e+00 2.223042e-01 5.829889e-01 -6.605429e+00 4.384387e+00 -7.773571e-02 -4.819781e+00 -2.144738e+00 -5.746848e+00 1.080371e+00 2.932214e-01 -2.179778e+00 1.712014e+01 -7.411563e-01 1.248032e+00 -1.231086e-01 2.091994e+00 4.274324e-01 3.615096e-01 2.537691e+00 7.016368e-02 1.305316e+00 -7.025179e-01 -5.050002e-01 6.896171e-01 -6.086058e-01
<VARIANCE> 26
 5.126007e+01 2.695355e+01 5.077266e+01 7.716505e+01 6.761069e+01 5.565868e+01 1.402944e+02 4.232253e+01 5.420360e+01 7.250616e+01 4.433896e+01 2.993801e+01 7.691552e+00 3.723155e+00 3.813597e+00 2.199243e+00 4.243943e+00 4.058492e+00 4.475025e+00 6.307791e+00 4.206054e+00 4.694371e+00 3.590995e+00 3.450257e+00 2.853526e+00 2.597159e-01
<GCONST> 1.125468e+02
<TRANSP> 5
 0.000000e+00 1.000000e+00 0.000000e+00 0.000000e+00 0.000000e+00
 0.000000e+00 5.295858e-01 4.704142e-01 0.000000e+00 0.000000e+00
 0.000000e+00 0.000000e+00 7.309645e-01 2.690355e-01 0.000000e+00
 0.000000e+00 0.000000e+00 0.000000e+00 7.460064e-01 2.539936e-01
 0.000000e+00 0.000000e+00 0.000000e+00 0.000000e+00 0.000000e+00
<ENDHMM>
