~o
<STREAMINFO> 1 26
<VECSIZE> 26<NULLD><MFCC_E_D><DIAGC>
~h "r"
<BEGINHMM>
<NUMSTATES> 5
<STATE> 2
<MEAN> 26
 -2.779438e+00 -9.602979e-01 -2.338637e+00 -2.114098e+01 8.720261e-01 7.194944e+00 -5.396888e+00 -8.512810e+00 -3.499805e+00 3.875027e+00 -1.186353e+00 -1.303321e+00 1.894394e+01 -7.912756e-01 1.949168e+00 -7.484508e-01 5.595817e-01 1.423280e+00 1.203346e+00 8.714370e-01 -6.340269e-01 1.463634e+00 -6.439376e-01 -2.864301e-01 1.303842e+00 -3.838682e-01
<VARIANCE> 26
 2.187602e+01 4.565992e+01 2.528932e+01 5.242705e+01 8.665350e+01 3.950488e+01 5.649195e+01 4.009340e+01 5.200090e+01 5.272859e+01 3.825357e+01 3.177801e+01 2.645016e+00 2.418379e+00 3.126040e+00 2.516824e+00 5.996256e+00 4.949774e+00 5.115429e+00 5.257348e+00 4.378310e+00 4.282474e+00 3.764355e+00 3.989696e+00 3.332311e+00 3.358999e-01
<GCONST> 1.091184e+02
<STATE> 3
<MEAN> 26
 -9.004664e+00 4.345484e-01 -5.680809e+00 -1.497296e+01 7.168951e+00 1.068558e+01 -3.297325e+00 -5.343810e+00 6.448593e-01 9.529656e-01 6.112645e-01 2.049989e+00 1.608030e+01 -2.039954e-01 5.750231e-02 -3.797730e-02 5.657659e-01 -3.517071e-01 -5.412534e-01 2.348428e-01 4.017606e-01 -4.727691e-02 -1.051876e-01 1.196769e-01 6.378596e-02 -1.955065e-01
<VARIANCE> 26
 1.548015e+01 2.193699e+01 1.542905e+01 4.565477e+01 8.062619e+01 4.279845e+01 4.547368e+01 3.365117e+01 3.664497e+01 3.968085e+01 2.864148e+01 2.290851e+01 6.829916e+00 1.586381e+00 1.248636e+00 1.698794e+00 2.360394e+00 3.270552e+00 3.292285e+00 2.622853e+00 3.016374e+00 2.700347e+00 3.013237e+00 2.620014e+00 1.939160e+00 1.079745e-01
<GCONST> 9.935229e+01
<STATE> 4
<MEAN> 26
 -4.106401e+00 3.068783e+00 -1.271907e+00 -1.646694e+01 -1.061479e+00 4.042590e+00 -4.069903e+00 -6.388269e+00 -2.134563e+00 1.104069e+00 4.813480e-02 6.639018e-01 1.779336e+01 8.158876e-01 -6.308402e-01 1.107242e+00 8.704412e-01 -1.553049e+00 -9.858961e-01 -5.812560e-01 3.697742e-01 -1.289506e+00 -3.602824e-02 3.110248e-01 -9.706416e-01 1.538913e-01
<VARIANCE> 26
 3.922834e+01 5.385635e+01 4.759334e+01 8.481123e+01 9.426604e+01 4.205995e+01 6.245007e+01 5.203460e+01 6.056212e+01 3.751356e+01 3.031098e+01 3.470107e+01 6.378001e+00 3.580914e+00 3.717566e+00 4.052296e+00 9.741523e+00 7.676000e+00 4.194714e+00 4.316155e+00 4.648271e+00 5.431965e+00 3.630973e+00 3.391996e+00 3.077201e+00 6.025754e-01
<GCONST> 1.142105e+02
<TRANSP> 5
 0.000000e+00 1.000000e+00 0.000000e+00 0.000000e+00 0.000000e+00
 0.000000e+00 6.695157e-01 3.304844e-01 0.000000e+00 0.000000e+00
 0.000000e+00 0.000000e+00 7.450550e-01 2.549451e-01 0.000000e+00
 0.000000e+00 0.000000e+00 0.000000e+00 6.386293e-01 3.613707e-01
 0.000000e+00 0.000000e+00 0.000000e+00 0.000000e+00 0.000000e+00
<ENDHMM>
