~o
<STREAMINFO> 1 26
<VECSIZE> 26<NULLD><MFCC_E_D><DIAGC>
~h "s"
<BEGINHMM>
<NUMSTATES> 5
<STATE> 2
<MEAN> 26
 -1.802110e+01 3.422112e+00 -8.192372e-01 -7.034490e+00 2.927777e+00 -2.180969e+00 -1.840678e+00 -1.624240e+00 -2.573575e+00 1.688245e+00 -1.162749e+00 6.289378e-01 1.595926e+01 -3.704635e+00 -4.086806e-01 -1.924282e+00 -5.275921e-01 2.451376e-01 4.483761e-01 5.051216e-01 3.198317e-01 7.968177e-01 5.914620e-01 3.129709e-01 1.089826e+00 -2.191299e-01
<VARIANCE> 26
 5.138747e+01 3.395818e+01 3.799287e+01 3.615747e+01 3.187588e+01 4.114648e+01 2.885820e+01 3.696613e+01 3.406430e+01 2.614701e+01 2.648018e+01 2.173991e+01 7.059711e+00 4.661299e+00 3.978481e+00 5.527675e+00 5.891220e+00 4.477681e+00 5.214923e+00 4.327432e+00 3.231403e+00 4.289051e+00 2.780657e+00 2.790954e+00 2.691230e+00 4.230964e-01
<GCONST> 1.075549e+02
<STATE> 3
<MEAN> 26
 -2.821213e+01 1.747256e+00 -8.676483e+00 -1.138605e+01 -3.349542e-01 -1.464335e+00 -3.973405e+00 -2.455563e+00 -3.367380e+00 2.644399e+00 3.593396e-01 3.632389e+00 1.669088e+01 -1.564924e-01 -2.262775e-04 1.205414e-01 -1.630677e-01 -2.113459e-01 1.822128e-02 -2.313086e-01 -2.172462e-01 -2.388300e-02 -7.366350e-02 -4.215647e-02 7.351609e-02 5.716264e-02
<VARIANCE> 26
 6.025948e+00 9.148932e+00 2.430267e+01 3.062359e+01 2.933634e+01 2.790827e+01 2.127783e+01 2.462626e+01 2.104912e+01 1.775884e+01 1.365273e+01 1.354324e+01 9.187002e-01 7.976765e-01 7.961184e-01 2.043932e+00 1.385219e+00 1.919372e+00 2.097700e+00 1.746542e+00 1.822074e+00 1.809110e+00 1.771405e+00 1.515773e+00 1.483368e+00 4.876844e-02
<GCONST> 8.452618e+01
<STATE> 4
<MEAN> 26
 -1.890135e+01 1.565731e+00 7.566819e-01 -1.060765e+01 1.586328e-01 -1.910527e+00 -6.160589e+00 -4.186162e+00 -4.450189e+00 1.547324e+00 -1.535555e+00 3.502215e-01 1.713581e+01 4.658296e+00 -6.625571e-01 2.821351e+00 3.375826e-02 -1.024601e+00 -5.181918e-01 -2.003379e+00 3.500754e-02 -1.584169e+00 -5.726325e-01 1.694324e-01 -1.670779e+00 3.597385e-01
<VARIANCE> 26
 8.833092e+01 3.397517e+01 5.878376e+01 4.058028e+01 4.572386e+01 5.453013e+01 4.735849e+01 3.355146e+01 3.013587e+01 3.085844e+01 2.210601e+01 3.247360e+01 5.898648e+00 5.116752e+00 5.480784e+00 5.807028e+00 7.810203e+00 4.043829e+00 6.537628e+00 7.139553e+00 4.249407e+00 3.875581e+00 5.613708e+00 3.759065e+00 4.003942e+00 6.574357e-01
<GCONST> 1.131544e+02
<TRANSP> 5
 0.000000e+00 1.000000e+00 0.000000e+00 0.000000e+00 0.000000e+00
 0.000000e+00 7.423729e-01 2.576271e-01 0.000000e+00 0.000000e+00
 0.000000e+00 0.000000e+00 8.911175e-01 1.088825e-01 0.000000e+00
 0.000000e+00 0.000000e+00 0.000000e+00 7.256318e-01 2.743682e-01
 0.000000e+00 0.000000e+00 0.000000e+00 0.000000e+00 0.000000e+00
<ENDHMM>
