~o
<STREAMINFO> 1 26
<VECSIZE> 26<NULLD><MFCC_E_D><DIAGC>
~h "s^"
<BEGINHMM>
<NUMSTATES> 5
<STATE> 2
<MEAN> 26
 -1.912959e+01 -1.026698e+00 8.026102e+00 -8.247554e+00 2.272807e+00 -4.395343e+00 2.611970e-01 -8.623406e+00 -2.421324e+00 -2.004197e+00 -3.756361e+00 -4.636442e-01 1.799288e+01 -4.636974e+00 -1.284281e+00 -1.021402e-01 1.148742e-01 1.279940e+00 2.192194e-01 2.494494e+00 1.710728e-01 2.176860e+00 3.278078e-01 1.096034e+00 5.332701e-01 -2.882245e-01
<VARIANCE> 26
 6.129681e+01 2.824275e+01 2.923132e+01 2.561552e+01 4.573681e+01 5.426453e+01 4.681898e+01 4.353442e+01 4.114337e+01 4.753408e+01 3.171284e+01 1.987374e+01 2.613514e+00 2.952450e+00 4.713846e+00 5.170166e+00 5.356839e+00 3.935422e+00 6.030159e+00 3.909128e+00 3.428478e+00 3.773594e+00 3.900334e+00 3.336133e+00 2.017990e+00 2.100195e-01
<GCONST> 1.070338e+02
<STATE> 3
<MEAN> 26
 -3.052771e+01 -6.917400e+00 5.567304e+00 -1.268248e+01 1.493556e+00 -5.331904e+00 3.529734e+00 -7.155286e+00 1.957667e+00 1.506167e+00 -1.964304e-01 1.816990e+00 1.817462e+01 -5.482052e-02 -3.061240e-03 -6.245416e-02 -2.212428e-01 -6.052617e-02 -2.093873e-01 -2.134057e-02 -1.610936e-01 1.668412e-01 1.800307e-01 -2.086531e-02 6.223914e-03 -9.813806e-03
<VARIANCE> 26
 7.315691e+00 9.208488e+00 9.734478e+00 1.142645e+01 2.440899e+01 2.964685e+01 1.912668e+01 1.655445e+01 1.227870e+01 1.682086e+01 1.059277e+01 1.396439e+01 3.485373e-01 1.250722e+00 7.680412e-01 6.815845e-01 1.074628e+00 1.348688e+00 1.352198e+00 1.415366e+00 1.662643e+00 1.335034e+00 1.582065e+00 1.348109e+00 1.507661e+00 2.558049e-02
<GCONST> 7.721791e+01
<STATE> 4
<MEAN> 26
 -1.667162e+01 -3.843113e+00 3.935018e+00 -1.031880e+01 1.071337e+00 -5.156927e+00 -1.749142e+00 -9.379526e+00 2.433655e-01 8.535620e-02 -2.113641e+00 -5.400989e-01 1.717629e+01 4.742868e+00 3.355563e-01 -6.604173e-01 6.118103e-01 -1.297475e+00 9.214428e-01 -3.002892e+00 -1.457704e-01 -1.352834e+00 -1.645915e-01 3.900321e-01 -5.415934e-01 6.726874e-02
<VARIANCE> 26
 9.980646e+01 1.893292e+01 3.132771e+01 2.770341e+01 4.343452e+01 3.887712e+01 5.030822e+01 3.188773e+01 2.854957e+01 3.832924e+01 2.486387e+01 2.253192e+01 5.452003e+00 7.700394e+00 3.454512e+00 2.945498e+00 2.332682e+00 6.818610e+00 7.104330e+00 6.781976e+00 4.540636e+00 4.853171e+00 5.818360e+00 4.933706e+00 2.879182e+00 4.956196e-01
<GCONST> 1.097375e+02
<TRANSP> 5
 0.000000e+00 1.000000e+00 0.000000e+00 0.000000e+00 0.000000e+00
 0.000000e+00 7.452830e-01 2.547170e-01 0.000000e+00 0.000000e+00
 0.000000e+00 0.000000e+00 8.941177e-01 1.058824e-01 0.000000e+00
 0.000000e+00 0.000000e+00 0.000000e+00 7.692308e-01 2.307692e-01
 0.000000e+00 0.000000e+00 0.000000e+00 0.000000e+00 0.000000e+00
<ENDHMM>
