~o
<STREAMINFO> 1 26
<VECSIZE> 26<NULLD><MFCC_E_D><DIAGC>
~h "t"
<BEGINHMM>
<NUMSTATES> 5
<STATE> 2
<MEAN> 26
 -4.662165e+00 8.047268e+00 5.704047e+00 2.302766e+00 1.127339e-01 -2.537228e+00 -4.564870e+00 -2.686921e+00 -6.546046e+00 -1.733186e+00 -2.228844e+00 -4.342753e+00 1.460342e+01 -2.105203e+00 1.317759e-01 -1.165367e+00 1.677361e+00 9.927659e-01 8.918291e-01 1.343563e+00 3.861353e-01 1.542802e+00 -6.636726e-01 -1.173557e-01 2.177665e-01 -1.681858e+00
<VARIANCE> 26
 4.279913e+01 3.387534e+01 3.577999e+01 3.169402e+01 3.691468e+01 3.678646e+01 3.463544e+01 2.893794e+01 4.433609e+01 3.173366e+01 2.432366e+01 2.174447e+01 8.718190e+00 4.129960e+00 8.862811e+00 4.139312e+00 8.913643e+00 3.842752e+00 4.819095e+00 3.644756e+00 3.810681e+00 3.559074e+00 3.068730e+00 2.996784e+00 2.710960e+00 5.030385e-01
<GCONST> 1.084633e+02
<STATE> 3
<MEAN> 26
 -1.359911e+01 2.358331e+00 3.666128e-01 1.146702e+00 1.966975e+00 1.634872e+00 -1.554702e-01 1.755946e+00 5.497647e-02 1.528772e+00 1.464658e+00 -4.220153e-01 1.011709e+01 -6.890403e-01 -1.456352e+00 -5.500775e-01 -1.593286e+00 -2.747063e-01 2.056134e-01 9.694640e-02 -1.006943e-01 4.290449e-01 4.713270e-01 2.690041e-01 7.548501e-01 2.965936e-01
<VARIANCE> 26
 4.289674e+00 7.315334e+00 7.501132e+00 1.490115e+01 1.114322e+01 1.327101e+01 1.551683e+01 1.817937e+01 1.806405e+01 1.596895e+01 1.667828e+01 1.526620e+01 2.737745e+00 1.872980e+00 3.762100e+00 2.786201e+00 5.957769e+00 1.965635e+00 2.814315e+00 2.205307e+00 3.038219e+00 3.241019e+00 2.273287e+00 1.972973e+00 2.637762e+00 1.011526e+00
<GCONST> 9.083016e+01
<STATE> 4
<MEAN> 26
 -1.568488e+01 -3.532851e+00 2.308432e-01 -1.221157e+01 6.874743e-01 -1.740171e+00 -5.654797e+00 -3.859780e+00 -2.293933e+00 2.429557e+00 -3.491272e-01 2.187788e+00 1.666533e+01 9.293214e-01 -1.030590e-01 7.521757e-01 -1.599130e+00 -2.075822e-01 -5.905472e-01 -1.942404e+00 -2.194851e-01 -8.631203e-01 2.147792e-01 -5.261378e-02 -6.640534e-01 1.223283e+00
<VARIANCE> 26
 4.351723e+01 4.063019e+01 4.808587e+01 3.897398e+01 4.093388e+01 4.580231e+01 4.230832e+01 3.369141e+01 3.652219e+01 2.715929e+01 2.436478e+01 3.054680e+01 4.140402e+00 7.068437e+00 5.196253e+00 6.921053e+00 7.603519e+00 5.212255e+00 5.082001e+00 5.937530e+00 5.054842e+00 4.924505e+00 4.977087e+00 3.085940e+00 5.510755e+00 8.123601e-01
<GCONST> 1.125996e+02
<TRANSP> 5
 0.000000e+00 1.000000e+00 0.000000e+00 0.000000e+00 0.000000e+00
 0.000000e+00 6.391304e-01 3.608696e-01 0.000000e+00 0.000000e+00
 0.000000e+00 0.000000e+00 7.511244e-01 2.488756e-01 0.000000e+00
 0.000000e+00 0.000000e+00 0.000000e+00 7.804233e-01 2.195767e-01
 0.000000e+00 0.000000e+00 0.000000e+00 0.000000e+00 0.000000e+00
<ENDHMM>
