~o
<STREAMINFO> 1 26
<VECSIZE> 26<NULLD><MFCC_E_D><DIAGC>
~h "u"
<BEGINHMM>
<NUMSTATES> 5
<STATE> 2
<MEAN> 26
 -5.165033e-01 3.898704e+00 1.112762e+00 -1.231708e+01 -5.061637e+00 2.554985e+00 -1.024236e+01 -5.631173e+00 -1.077182e+01 -7.469719e+00 4.046301e+00 -4.816501e+00 1.862621e+01 3.201386e+00 1.827323e+00 1.562739e-01 -3.221927e+00 -2.930842e+00 1.071146e+00 -1.663042e+00 -3.115411e-01 -2.138937e+00 -2.908523e+00 1.672062e+00 -1.352617e+00 9.532029e-01
<VARIANCE> 26
 2.906803e+01 3.052219e+01 1.537844e+01 5.754761e+01 6.117712e+01 4.572982e+01 5.408734e+01 7.804694e+01 3.429745e+01 5.559842e+01 5.561679e+01 4.619983e+01 7.925959e+00 4.003785e+00 2.486125e+00 2.057064e+00 4.119718e+00 6.992172e+00 5.450659e+00 4.092139e+00 6.649958e+00 4.770281e+00 5.890770e+00 5.074845e+00 5.097046e+00 6.441298e-01
<GCONST> 1.126459e+02
<STATE> 3
<MEAN> 26
 3.599459e+00 4.970677e+00 1.001013e+00 -1.739506e+01 -1.368121e+01 6.215974e+00 -1.139227e+01 -5.321253e+00 -1.333202e+01 -1.477930e+01 6.804250e+00 -6.930892e+00 2.052691e+01 6.865203e-02 1.425621e-01 -6.623323e-02 -4.358464e-01 -4.537386e-01 1.441138e-01 1.439196e-01 1.903494e-01 -2.807869e-01 2.034743e-01 -2.332765e-01 -2.248938e-01 -8.591960e-04
<VARIANCE> 26
 1.096457e+01 1.458263e+01 1.446434e+01 1.012462e+02 4.574517e+01 3.724621e+01 2.934543e+01 4.795775e+01 4.280168e+01 5.610427e+01 5.595626e+01 4.912035e+01 4.473239e-01 5.379571e-01 1.268651e+00 1.092180e+00 2.365509e+00 2.786792e+00 2.351608e+00 2.759874e+00 3.387172e+00 3.078472e+00 3.533634e+00 2.888304e+00 2.232416e+00 2.260557e-02
<GCONST> 9.488007e+01
<STATE> 4
<MEAN> 26
 1.634429e+00 5.352199e+00 1.884560e+00 -1.524132e+01 -8.482692e+00 3.646946e+00 -9.953093e+00 -7.975207e+00 -1.363436e+01 -6.568466e+00 2.740439e+00 -4.458410e+00 1.932065e+01 -1.319430e+00 -1.855062e-01 1.237025e-01 1.064682e+00 1.788891e+00 -6.460437e-01 9.259708e-01 -1.315609e+00 1.609298e+00 2.135828e+00 -1.752779e+00 1.483081e+00 -4.607360e-01
<VARIANCE> 26
 1.977118e+01 2.409111e+01 2.803144e+01 1.279670e+02 7.106851e+01 5.407296e+01 5.204862e+01 1.146953e+02 7.518398e+01 4.563230e+01 5.357415e+01 4.792323e+01 2.419622e+00 1.740121e+00 1.894765e+00 3.216858e+00 5.154126e+00 6.648891e+00 4.546712e+00 6.207645e+00 5.623488e+00 5.615145e+00 7.406859e+00 5.499855e+00 4.380343e+00 2.427529e-01
<GCONST> 1.124161e+02
<TRANSP> 5
 0.000000e+00 1.000000e+00 0.000000e+00 0.000000e+00 0.000000e+00
 0.000000e+00 5.777778e-01 4.222222e-01 0.000000e+00 0.000000e+00
 0.000000e+00 0.000000e+00 8.423237e-01 1.576764e-01 0.000000e+00
 0.000000e+00 0.000000e+00 0.000000e+00 6.859504e-01 3.140496e-01
 0.000000e+00 0.000000e+00 0.000000e+00 0.000000e+00 0.000000e+00
<ENDHMM>
