~o
<STREAMINFO> 1 26
<VECSIZE> 26<NULLD><MFCC_E_D><DIAGC>
~h "v"
<BEGINHMM>
<NUMSTATES> 5
<STATE> 2
<MEAN> 26
 -1.752279e+00 2.781715e+00 3.387559e+00 -6.113079e+00 3.270422e+00 9.273180e-01 -1.005283e+01 -7.071709e+00 -8.392932e+00 3.294668e+00 3.925717e+00 -7.813613e-01 1.809682e+01 -7.811962e-01 1.444598e+00 4.569691e-01 1.341037e+00 1.666763e+00 8.152005e-01 9.442044e-01 -1.304391e+00 2.187571e-01 -1.789738e-01 -4.543817e-01 6.061009e-01 -9.589141e-02
<VARIANCE> 26
 1.722495e+01 1.173596e+01 1.536628e+01 3.062333e+01 2.389337e+01 3.526677e+01 3.327963e+01 2.890332e+01 3.279454e+01 2.852293e+01 1.862457e+01 1.291996e+01 3.923429e+00 4.109856e+00 2.268154e+00 1.753627e+00 5.653853e+00 2.282594e+00 2.037879e+00 5.500568e+00 2.560481e+00 4.315695e+00 3.009520e+00 2.161539e+00 1.416327e+00 5.036929e-01
<GCONST> 9.825018e+01
<STATE> 3
<MEAN> 26
 -8.383502e+00 7.532895e+00 6.696082e+00 2.509082e-01 7.064767e+00 4.492450e+00 -5.502745e+00 -8.014906e+00 -7.487118e+00 1.516718e+00 -6.342275e-01 6.747255e-01 1.753281e+01 -8.211377e-01 -3.167071e-01 1.122295e-01 -6.997500e-03 -1.884966e-01 1.391296e-01 3.622767e-01 3.693789e-01 5.967560e-02 -2.781504e-01 -5.349934e-01 7.720511e-02 -5.065761e-02
<VARIANCE> 26
 7.586543e+00 7.089544e+00 2.015328e+01 1.665959e+01 1.775356e+01 2.124940e+01 2.225103e+01 1.959008e+01 1.740119e+01 1.179941e+01 1.492465e+01 8.572842e+00 2.636286e-01 1.028638e+00 1.554860e+00 1.525662e+00 1.804363e+00 1.648209e+00 1.456787e+00 1.781006e+00 1.887104e+00 1.157298e+00 1.486534e+00 1.705371e+00 1.012184e+00 4.114679e-02
<GCONST> 7.990768e+01
<STATE> 4
<MEAN> 26
 -5.717823e+00 6.786568e-01 3.583378e+00 -8.158040e+00 1.312053e+00 3.430378e+00 -9.139935e+00 -5.619789e+00 -6.829384e+00 4.133090e-01 2.275676e+00 -1.112773e+00 1.876988e+01 1.701962e+00 -2.322829e+00 -1.424352e-01 -3.221752e+00 -2.769527e+00 -5.814279e-01 -2.988245e+00 1.451077e+00 -8.412252e-02 9.914811e-02 1.516144e+00 -1.428507e+00 6.320650e-01
<VARIANCE> 26
 1.569970e+01 2.180612e+01 2.791558e+01 3.759578e+01 2.755812e+01 3.062970e+01 4.560442e+01 2.037489e+01 1.963198e+01 2.573037e+01 2.764332e+01 1.942692e+01 9.568184e-01 1.521748e+00 2.618194e+00 3.013322e+00 2.491008e+00 2.859605e+00 4.026340e+00 3.462219e+00 3.439766e+00 1.720040e+00 5.069553e+00 2.664158e+00 1.862971e+00 8.324734e-02
<GCONST> 9.621668e+01
<TRANSP> 5
 0.000000e+00 1.000000e+00 0.000000e+00 0.000000e+00 0.000000e+00
 0.000000e+00 7.055215e-01 2.944785e-01 0.000000e+00 0.000000e+00
 0.000000e+00 0.000000e+00 7.767442e-01 2.232558e-01 0.000000e+00
 0.000000e+00 0.000000e+00 0.000000e+00 6.470588e-01 3.529412e-01
 0.000000e+00 0.000000e+00 0.000000e+00 0.000000e+00 0.000000e+00
<ENDHMM>
