~o
<STREAMINFO> 1 26
<VECSIZE> 26<NULLD><MFCC_E_D><DIAGC>
~h "w"
<BEGINHMM>
<NUMSTATES> 5
<STATE> 2
<MEAN> 26
 1.711188e+00 4.152814e+00 9.298213e-01 -1.515573e+01 -8.038501e+00 3.728382e+00 -6.888956e+00 -1.547194e+00 -1.053405e+01 -6.348662e+00 5.653864e+00 -3.229191e+00 1.875296e+01 2.534860e+00 7.212986e-01 1.195445e-01 -2.096114e+00 -1.737848e+00 3.124444e-01 -1.204186e+00 1.902706e+00 -2.004947e+00 -1.279354e+00 5.822837e-01 -1.703616e+00 5.941387e-01
<VARIANCE> 26
 3.276656e+01 2.756544e+01 1.823242e+01 6.463708e+01 4.638805e+01 5.286302e+01 5.483532e+01 6.320545e+01 6.556464e+01 5.022282e+01 5.232446e+01 4.136995e+01 5.794391e+00 4.732427e+00 3.645828e+00 2.037655e+00 5.864445e+00 4.790090e+00 4.459171e+00 5.711327e+00 4.208190e+00 6.164001e+00 4.991708e+00 3.628667e+00 3.029333e+00 4.869151e-01
<GCONST> 1.118284e+02
<STATE> 3
<MEAN> 26
 5.179001e+00 2.568006e+00 1.113382e+00 -1.653386e+01 -1.253801e+01 5.714435e+00 -8.834335e+00 1.248342e+00 -1.331390e+01 -6.345191e+00 5.049157e+00 -6.564069e+00 2.023075e+01 -1.391854e-01 -5.294874e-01 -9.629712e-02 -6.730253e-01 -2.745972e-01 1.439913e-01 -1.449988e-01 3.472317e-01 -2.805673e-01 4.955402e-01 1.516891e-01 1.576533e-01 9.875674e-02
<VARIANCE> 26
 1.668531e+01 2.662930e+01 1.904679e+01 8.510417e+01 3.891495e+01 4.691239e+01 3.014628e+01 4.455126e+01 3.880735e+01 2.996232e+01 3.867477e+01 2.416869e+01 6.019618e-01 8.633464e-01 1.162709e+00 2.071797e+00 3.457386e+00 2.884979e+00 2.294689e+00 1.992044e+00 2.277416e+00 2.309033e+00 2.375960e+00 2.285058e+00 1.909975e+00 5.228529e-02
<GCONST> 9.497544e+01
<STATE> 4
<MEAN> 26
 2.533717e+00 -6.603755e+00 -4.858377e+00 -2.691566e+01 -6.102644e+00 1.136615e+01 -1.021988e+01 2.110745e+00 -1.351278e+01 -7.759170e-01 7.130958e+00 -5.448647e+00 2.152220e+01 -4.424302e-01 -1.514380e+00 -7.322003e-01 2.995863e-01 2.076300e+00 1.183148e-02 -5.436000e-01 -4.962035e-01 2.875614e-01 1.040141e+00 -1.265802e-01 -7.489218e-01 1.149485e-01
<VARIANCE> 26
 9.566395e+00 3.105049e+01 2.828411e+01 8.776690e+01 5.299538e+01 3.058774e+01 6.333245e+01 3.319281e+01 3.051659e+01 5.127416e+01 5.130549e+01 2.541036e+01 6.816249e-01 4.915661e-01 1.247743e+00 2.330462e+00 3.262487e+00 2.217743e+00 2.762464e+00 2.946922e+00 2.580987e+00 2.268938e+00 3.112242e+00 2.963342e+00 2.505077e+00 3.799073e-02
<GCONST> 9.655251e+01
<TRANSP> 5
 0.000000e+00 1.000000e+00 0.000000e+00 0.000000e+00 0.000000e+00
 0.000000e+00 5.816327e-01 4.183674e-01 0.000000e+00 0.000000e+00
 0.000000e+00 0.000000e+00 8.429119e-01 1.570881e-01 0.000000e+00
 0.000000e+00 0.000000e+00 0.000000e+00 7.530121e-01 2.469880e-01
 0.000000e+00 0.000000e+00 0.000000e+00 0.000000e+00 0.000000e+00
<ENDHMM>
