~o
<STREAMINFO> 1 26
<VECSIZE> 26<NULLD><MFCC_E_D><DIAGC>
~h "x"
<BEGINHMM>
<NUMSTATES> 5
<STATE> 2
<MEAN> 26
 -7.973242e-01 -4.558516e+00 4.013946e+00 -1.125567e+01 -5.399921e+00 2.434988e+00 -2.439071e+01 -9.542390e+00 -1.038915e+01 6.129992e-01 1.182563e+01 -8.986063e+00 2.033829e+01 1.801908e+00 -5.852949e-01 -4.001828e-01 -1.718458e+00 -1.686584e+00 2.143230e+00 -4.075511e+00 -1.944282e-02 -1.462068e+00 7.232361e-01 2.793566e+00 -2.129608e+00 7.987378e-01
<VARIANCE> 26
 3.516370e+00 7.123382e+00 1.108089e+01 2.674923e+01 1.520940e+01 3.390932e+01 4.359762e+01 3.124524e+01 6.235213e+01 5.039867e+01 1.836361e+01 2.204683e+01 1.061102e+00 2.332860e+00 1.342307e+00 1.021089e+00 2.050930e+00 1.696941e+00 2.209441e+00 5.332469e+00 3.992388e+00 5.234060e+00 3.811679e+00 2.678991e+00 2.221648e+00 7.917111e-01
<GCONST> 9.507922e+01
<STATE> 3
<MEAN> 26
 -1.115856e-01 -4.919525e+00 2.241251e+00 -1.244979e+01 -9.632579e+00 7.342116e+00 -2.900382e+01 -1.034188e+01 -9.446605e+00 3.741799e-02 1.587758e+01 -1.241318e+01 2.131981e+01 -3.855573e-02 7.792672e-02 -3.207735e-03 -1.558502e-01 -1.474054e-02 8.858273e-03 1.671870e-01 -2.327208e-01 -1.786093e-01 -2.827206e-03 -2.362016e-01 -3.257456e-02 -1.606033e-03
<VARIANCE> 26
 1.949987e+00 5.354966e+00 6.920699e+00 2.427671e+01 9.756616e+00 1.694678e+01 1.229772e+01 1.807804e+01 2.049999e+01 1.751397e+01 8.823845e+00 2.253528e+01 2.346386e-01 1.794022e-01 4.796848e-01 1.531865e+00 1.231807e+00 1.178482e+00 1.163405e+00 9.747042e-01 1.020002e+00 1.821610e+00 1.084193e+00 1.127626e+00 1.489750e+00 1.137355e-02
<GCONST> 7.070788e+01
<STATE> 4
<MEAN> 26
 4.302638e-01 -1.959589e+00 4.926625e+00 -1.139073e+01 -8.828793e-01 3.703606e+00 -2.030114e+01 -6.248101e+00 -1.144119e+01 2.568090e+00 7.923687e+00 -8.300271e+00 1.960269e+01 -3.518928e-01 1.485978e+00 2.206527e-01 1.047158e+00 2.069021e+00 -5.807304e-01 3.313014e+00 4.768738e-01 2.523686e-02 3.539114e-01 -2.061216e+00 1.249775e+00 -5.732327e-01
<VARIANCE> 26
 7.673729e+00 1.752749e+01 1.466915e+01 5.027859e+01 3.636649e+01 3.103737e+01 7.641777e+01 5.000454e+01 4.012367e+01 4.371157e+01 3.147255e+01 2.126326e+01 2.053032e+00 1.175484e+00 2.540761e+00 2.270698e+00 5.792096e+00 2.640715e+00 3.461191e+00 3.251932e+00 1.507024e+00 1.997844e+00 4.244184e+00 2.676878e+00 1.829883e+00 1.181587e-01
<GCONST> 9.832544e+01
<TRANSP> 5
 0.000000e+00 1.000000e+00 0.000000e+00 0.000000e+00 0.000000e+00
 0.000000e+00 6.296296e-01 3.703704e-01 0.000000e+00 0.000000e+00
 0.000000e+00 0.000000e+00 8.387097e-01 1.612903e-01 0.000000e+00
 0.000000e+00 0.000000e+00 0.000000e+00 7.435898e-01 2.564103e-01
 0.000000e+00 0.000000e+00 0.000000e+00 0.000000e+00 0.000000e+00
<ENDHMM>
