~o
<STREAMINFO> 1 26
<VECSIZE> 26<NULLD><MFCC_E_D><DIAGC>
~h "x^"
<BEGINHMM>
<NUMSTATES> 5
<STATE> 2
<MEAN> 26
 -1.490539e+00 -8.946456e+00 4.535808e+00 -1.730646e+01 -5.173892e+00 -1.926158e+00 -2.246674e+01 3.413323e-01 -6.107841e+00 9.276994e+00 4.963551e+00 -9.913552e+00 2.036790e+01 1.458549e+00 -1.892431e+00 -1.349009e-01 -3.003083e+00 -1.221369e+00 8.172146e-01 -2.705451e+00 9.410843e-01 -2.171505e-01 2.685677e+00 9.651089e-01 -1.276321e+00 8.973438e-01
<VARIANCE> 26
 9.032817e+00 2.454537e+01 2.056051e+01 5.582728e+01 3.179080e+01 3.547942e+01 5.569708e+01 1.654784e+01 2.416712e+01 6.907529e+01 3.059291e+01 2.200841e+01 6.164698e+00 2.969999e+00 1.857851e+00 1.648543e+00 5.883155e+00 2.513117e+00 3.077985e+00 6.975687e+00 2.506518e+00 3.699224e+00 1.791685e+00 2.940033e+00 3.322419e+00 1.142286e+00
<GCONST> 1.030279e+02
<STATE> 3
<MEAN> 26
 1.610728e-01 -1.176990e+01 1.475793e+00 -2.115098e+01 -6.265238e+00 3.389362e-01 -2.467108e+01 4.971737e+00 -7.130650e+00 1.341856e+01 4.154525e+00 -1.178226e+01 2.165411e+01 1.010324e-01 1.801300e-01 -5.554379e-01 -4.531465e-01 3.121119e-01 4.528269e-01 3.455623e-01 -1.376151e-01 -4.405416e-01 2.364757e-01 -3.530359e-01 2.959140e-02 -2.065190e-02
<VARIANCE> 26
 2.531290e+00 1.074545e+01 1.819269e+01 1.661390e+01 1.788404e+01 2.192788e+01 1.302594e+01 2.392422e+01 8.920827e+00 1.518636e+01 1.725040e+01 1.419789e+01 2.482572e-01 2.785858e-01 6.658379e-01 1.107163e+00 1.869899e+00 1.248898e+00 1.802687e+00 1.445393e+00 1.703112e+00 1.394931e+00 1.171905e+00 1.237258e+00 1.430579e+00 1.800580e-02
<GCONST> 7.532990e+01
<STATE> 4
<MEAN> 26
 1.408537e+00 -7.219920e+00 7.097072e-01 -2.327345e+01 1.215796e-01 2.520411e+00 -1.621660e+01 -3.553603e+00 -1.083796e+01 1.217015e+01 1.831045e+00 -8.032005e+00 2.048289e+01 -8.222681e-03 1.543593e+00 1.432267e-02 1.125712e+00 1.237219e+00 8.429495e-01 3.069912e+00 -2.163602e+00 -1.756789e-03 -1.761927e+00 -2.039434e-01 1.377227e+00 -4.219375e-01
<VARIANCE> 26
 4.196561e+00 2.533427e+01 2.259360e+01 4.915575e+01 2.363847e+01 4.251220e+01 8.477724e+01 2.407892e+01 3.552699e+01 2.504865e+01 2.992385e+01 1.836234e+01 9.897618e-01 1.461972e+00 2.910419e+00 1.433673e+00 6.169537e+00 2.727268e+00 2.386857e+00 3.745863e+00 3.562600e+00 3.297638e+00 2.310781e+00 1.172178e+00 1.973089e+00 1.124561e-01
<GCONST> 9.586414e+01
<TRANSP> 5
 0.000000e+00 1.000000e+00 0.000000e+00 0.000000e+00 0.000000e+00
 0.000000e+00 4.871795e-01 5.128205e-01 0.000000e+00 0.000000e+00
 0.000000e+00 0.000000e+00 8.449612e-01 1.550387e-01 0.000000e+00
 0.000000e+00 0.000000e+00 0.000000e+00 7.183099e-01 2.816901e-01
 0.000000e+00 0.000000e+00 0.000000e+00 0.000000e+00 0.000000e+00
<ENDHMM>
