~o
<STREAMINFO> 1 26
<VECSIZE> 26<NULLD><MFCC_E_D><DIAGC>
~h "x~"
<BEGINHMM>
<NUMSTATES> 5
<STATE> 2
<MEAN> 26
 -2.563397e+00 -1.044802e+01 -2.728364e+00 -1.930862e+01 7.235831e+00 -3.771796e+00 -1.010643e+01 -2.104077e+00 -2.312042e+00 5.348738e+00 -2.386632e+00 -7.498731e+00 1.798051e+01 2.720546e+00 -3.582109e+00 1.369734e-01 -4.212129e+00 2.075951e+00 2.172707e-01 -2.195882e+00 3.749371e-01 -1.629791e+00 2.575754e-01 -2.096883e-01 -1.506755e+00 1.746932e+00
<VARIANCE> 26
 2.395731e+01 4.131868e+01 1.430155e+01 6.420274e+01 5.428736e+01 2.427155e+01 5.622472e+01 3.762447e+01 2.377663e+01 2.524208e+01 2.838429e+01 3.600823e+01 1.300514e+01 2.335915e+00 3.877275e+00 1.655436e+00 6.345332e+00 3.034003e+00 4.183558e+00 3.170214e+00 5.887368e+00 2.614537e+00 2.876159e+00 2.243105e+00 2.151917e+00 1.436883e+00
<GCONST> 1.062148e+02
<STATE> 3
<MEAN> 26
 3.507096e-01 -1.461593e+01 -2.099728e+00 -2.202246e+01 7.423375e+00 4.273465e+00 -1.769495e+01 2.146039e+00 -7.750038e+00 2.518570e+00 7.752969e-01 -8.535576e+00 2.114776e+01 -2.904242e-02 4.344949e-01 8.505294e-02 4.445590e-01 -5.929574e-01 6.154069e-01 -6.327236e-01 6.157280e-01 -4.861316e-01 5.206187e-02 1.491520e-01 8.999510e-02 7.562564e-02
<VARIANCE> 26
 4.098604e+00 1.141858e+01 6.881739e+00 1.331273e+01 2.050110e+01 2.961650e+01 1.850374e+01 1.507152e+01 1.195653e+01 1.419287e+01 3.330615e+01 1.099505e+01 3.627931e-01 2.978681e-01 1.256352e+00 7.318456e-01 7.563822e-01 1.551121e+00 2.285576e+00 1.846310e+00 1.176513e+00 1.052619e+00 9.440306e-01 1.377980e+00 7.233509e-01 5.793756e-02
<GCONST> 7.582027e+01
<STATE> 4
<MEAN> 26
 9.262487e-01 -5.823228e+00 -1.031318e+00 -1.291298e+01 -7.310393e-02 2.434705e+00 -1.445234e+01 2.013462e+00 -1.323422e+01 4.146049e+00 5.144387e-02 -8.220387e+00 2.030472e+01 5.630709e-02 2.503474e+00 4.381563e-01 3.623291e+00 -2.069251e+00 -1.331118e-01 2.790596e+00 -1.949140e+00 -6.867646e-01 -4.592922e-01 -2.901145e-01 9.106293e-01 -3.678799e-01
<VARIANCE> 26
 6.377571e+00 2.933348e+01 2.647801e+01 1.032985e+02 4.971671e+01 4.453204e+01 5.315836e+01 4.947327e+01 5.548153e+01 3.300974e+01 4.154862e+01 2.167083e+01 9.974511e-01 1.538590e+00 3.501437e+00 2.071380e+00 6.319280e+00 3.375196e+00 2.841643e+00 3.584666e+00 3.308685e+00 5.730450e+00 2.531741e+00 3.293918e+00 1.697920e+00 1.236402e-01
<GCONST> 1.021164e+02
<TRANSP> 5
 0.000000e+00 1.000000e+00 0.000000e+00 0.000000e+00 0.000000e+00
 0.000000e+00 6.612903e-01 3.387097e-01 0.000000e+00 0.000000e+00
 0.000000e+00 0.000000e+00 8.779070e-01 1.220930e-01 0.000000e+00
 0.000000e+00 0.000000e+00 0.000000e+00 7.341772e-01 2.658228e-01
 0.000000e+00 0.000000e+00 0.000000e+00 0.000000e+00 0.000000e+00
<ENDHMM>
