~o
<STREAMINFO> 1 26
<VECSIZE> 26<NULLD><MFCC_E_D><DIAGC>
~h "y"
<BEGINHMM>
<NUMSTATES> 5
<STATE> 2
<MEAN> 26
 -7.440844e+00 -7.302932e-01 1.391017e+01 4.786392e+00 -6.334956e+00 -6.896072e+00 -1.117034e+01 5.718563e-01 -1.278651e+01 -8.513876e+00 -1.665856e-01 2.179453e+00 1.799031e+01 1.578986e+00 -3.420127e-01 2.070280e+00 1.020878e+00 -6.932617e-01 -2.101902e+00 -3.088136e+00 1.382850e+00 -1.573717e+00 -3.418205e+00 1.040022e+00 7.106870e-01 8.131856e-01
<VARIANCE> 26
 2.221105e+01 2.390162e+01 4.536563e+01 2.519555e+01 2.995511e+01 4.695498e+01 9.293114e+01 4.859134e+01 6.068861e+01 7.116859e+01 2.636249e+01 2.760666e+01 7.071700e+00 4.341488e+00 2.643353e+00 4.250503e+00 2.931746e+00 2.384004e+00 5.308089e+00 7.489770e+00 2.835276e+00 6.235427e+00 5.065989e+00 2.767261e+00 2.702702e+00 5.590163e-01
<GCONST> 1.091218e+02
<STATE> 3
<MEAN> 26
 -3.035049e+00 -4.430430e+00 1.579143e+01 4.968094e+00 -1.037942e+01 -7.589530e+00 -2.109321e+01 2.919554e+00 -1.313335e+01 -1.982128e+01 4.712834e+00 2.112787e+00 2.020100e+01 2.430429e-01 -2.285417e-01 -2.402898e-01 -7.612893e-01 -6.060959e-01 4.932882e-01 -4.358629e-01 -2.106448e-02 2.316610e-01 7.783274e-02 2.374176e-01 -6.102317e-01 9.611867e-02
<VARIANCE> 26
 7.121368e+00 1.526082e+01 2.052357e+01 2.683909e+01 2.920668e+01 1.947501e+01 4.007511e+01 3.918561e+01 4.010329e+01 3.424148e+01 2.189670e+01 2.330417e+01 3.905741e-01 7.497102e-01 1.003504e+00 2.580702e+00 2.533412e+00 2.606253e+00 2.804404e+00 4.913466e+00 2.671317e+00 2.255290e+00 4.737688e+00 1.720861e+00 1.730064e+00 3.458144e-02
<GCONST> 9.125904e+01
<STATE> 4
<MEAN> 26
 -2.704432e+00 -2.302044e+00 1.305317e+01 -3.104474e+00 -1.111529e+01 -7.253522e-01 -1.620739e+01 -3.876506e+00 -1.107358e+01 -7.005731e+00 2.544002e+00 -2.792184e+00 1.969629e+01 -8.224285e-02 1.292438e+00 -1.673046e+00 -1.160664e+00 6.640615e-01 2.079762e+00 2.007950e+00 -2.036572e+00 7.522829e-01 2.811761e+00 -9.543625e-01 -6.354406e-01 -3.141317e-01
<VARIANCE> 26
 1.761793e+01 2.833615e+01 7.315388e+01 7.650336e+01 3.462928e+01 1.021082e+02 8.168590e+01 4.858925e+01 5.000436e+01 8.975027e+01 4.710955e+01 3.889410e+01 3.135399e+00 2.004083e+00 3.150015e+00 3.568757e+00 5.258819e+00 3.380366e+00 6.429138e+00 4.975847e+00 4.536175e+00 5.396738e+00 4.290804e+00 3.583247e+00 5.778951e+00 2.484932e-01
<GCONST> 1.119006e+02
<TRANSP> 5
 0.000000e+00 1.000000e+00 0.000000e+00 0.000000e+00 0.000000e+00
 0.000000e+00 6.093750e-01 3.906250e-01 0.000000e+00 0.000000e+00
 0.000000e+00 0.000000e+00 7.816594e-01 2.183406e-01 0.000000e+00
 0.000000e+00 0.000000e+00 0.000000e+00 7.395833e-01 2.604167e-01
 0.000000e+00 0.000000e+00 0.000000e+00 0.000000e+00 0.000000e+00
<ENDHMM>
