~o
<STREAMINFO> 1 26
<VECSIZE> 26<NULLD><MFCC_E_D><DIAGC>
~h "z"
<BEGINHMM>
<NUMSTATES> 5
<STATE> 2
<MEAN> 26
 -9.431542e+00 9.820116e+00 3.631045e+00 -4.232984e+00 1.396658e+00 -6.433247e+00 -1.051779e+01 -7.704625e+00 -7.807124e+00 1.900547e+00 -1.772495e+00 -3.470483e+00 1.902529e+01 -2.321522e+00 2.870267e+00 -9.325534e-01 1.564810e+00 1.960963e+00 -7.718360e-02 1.752806e+00 -3.185645e-01 1.322008e+00 1.950269e-01 -1.300191e+00 1.616379e+00 -4.313204e-01
<VARIANCE> 26
 1.163155e+01 2.688648e+01 2.845697e+01 5.432707e+01 3.875218e+01 3.526477e+01 3.108919e+01 2.737892e+01 2.685374e+01 3.926747e+01 2.401679e+01 2.772071e+01 5.999314e-01 7.540784e-01 1.955086e+00 2.746372e+00 3.239637e+00 2.824633e+00 3.919595e+00 3.315580e+00 2.630745e+00 2.615880e+00 2.031622e+00 3.084510e+00 1.552945e+00 3.298082e-02
<GCONST> 9.476041e+01
<STATE> 3
<MEAN> 26
 -1.671398e+01 1.440240e+01 3.012595e+00 9.769359e-02 4.044504e+00 -3.051071e+00 -5.353929e+00 -7.348028e+00 -5.447184e+00 -8.239694e-02 -3.538315e+00 1.354650e+00 1.782174e+01 -3.380705e-01 -4.761990e-01 1.258687e-01 -4.083681e-01 1.193084e-01 7.497778e-02 1.644174e-01 -5.062401e-01 2.249760e-01 2.639701e-01 -2.738710e-02 1.253400e-01 -1.931412e-02
<VARIANCE> 26
 8.210181e+00 9.673609e+00 3.225278e+01 3.192329e+01 3.328558e+01 3.041128e+01 2.385435e+01 2.183478e+01 1.873751e+01 3.500490e+01 1.850175e+01 1.814255e+01 6.192496e-01 1.907457e+00 1.029056e+00 1.457805e+00 1.785391e+00 1.919707e+00 3.760957e+00 2.312811e+00 1.682878e+00 1.252518e+00 2.457338e+00 9.911774e-01 1.651578e+00 5.437956e-02
<GCONST> 8.776695e+01
<STATE> 4
<MEAN> 26
 -8.639017e+00 4.955792e+00 2.859002e+00 -9.588465e+00 1.857458e+00 -6.449295e+00 -1.125682e+01 -7.286240e+00 -5.745570e+00 5.686626e+00 -1.785910e+00 -4.050314e+00 1.910634e+01 2.775219e+00 -3.739679e+00 5.274807e-01 -2.925102e+00 -1.520349e+00 1.581107e-01 -2.089670e+00 1.395519e+00 -4.927929e-01 1.098805e+00 1.063114e+00 -1.678473e+00 4.484008e-01
<VARIANCE> 26
 2.933737e+01 4.082888e+01 3.567298e+01 5.894143e+01 2.956683e+01 3.758029e+01 4.080512e+01 3.453189e+01 2.612174e+01 3.942722e+01 2.474518e+01 3.147733e+01 1.341098e+00 1.462438e+00 2.830282e+00 2.001292e+00 6.370387e+00 2.521593e+00 5.609328e+00 4.686260e+00 4.329242e+00 2.662771e+00 5.006394e+00 3.251227e+00 3.291428e+00 1.485730e-01
<GCONST> 1.033555e+02
<TRANSP> 5
 0.000000e+00 1.000000e+00 0.000000e+00 0.000000e+00 0.000000e+00
 0.000000e+00 6.732026e-01 3.267974e-01 0.000000e+00 0.000000e+00
 0.000000e+00 0.000000e+00 7.448980e-01 2.551020e-01 0.000000e+00
 0.000000e+00 0.000000e+00 0.000000e+00 7.159091e-01 2.840909e-01
 0.000000e+00 0.000000e+00 0.000000e+00 0.000000e+00 0.000000e+00
<ENDHMM>
