~o
<STREAMINFO> 1 26
<VECSIZE> 26<NULLD><MFCC_E_D><DIAGC>
~h "z^"
<BEGINHMM>
<NUMSTATES> 5
<STATE> 2
<MEAN> 26
 -9.670927e+00 2.624726e+00 1.160483e+01 -7.701722e+00 -1.144344e+00 -6.296210e+00 -4.946789e+00 -1.149712e+01 -2.386237e+00 -1.630246e+00 -3.547261e+00 6.112968e-01 1.915186e+01 -3.096380e+00 1.754844e+00 1.703318e+00 1.460786e+00 1.670353e+00 -1.355602e-01 2.025859e+00 -1.218176e+00 1.326941e+00 -6.902092e-01 1.969047e-01 6.259304e-01 -3.367536e-01
<VARIANCE> 26
 3.414274e+01 2.295214e+01 2.886743e+01 2.933176e+01 3.937701e+01 3.628997e+01 3.532925e+01 3.454682e+01 2.706690e+01 2.886708e+01 2.649401e+01 1.891737e+01 6.579371e-01 1.949286e+00 2.838053e+00 2.172566e+00 3.057178e+00 2.318352e+00 4.619722e+00 2.432780e+00 5.310991e+00 3.316527e+00 2.755652e+00 2.029506e+00 1.727388e+00 8.266559e-02
<GCONST> 9.752927e+01
<STATE> 3
<MEAN> 26
 -2.041621e+01 5.429653e+00 1.700914e+01 -5.302102e+00 4.148099e+00 -2.254224e+00 1.469949e+00 -1.012930e+01 -4.727345e-01 -2.487511e+00 -3.270303e+00 1.183365e+00 1.820561e+01 1.096347e-01 -8.550756e-02 -3.021381e-01 -1.253291e-01 -7.318085e-03 -2.386443e-01 -3.073100e-01 1.399240e-01 4.315354e-02 -1.647659e-01 9.985263e-02 1.141677e-02 4.225973e-02
<VARIANCE> 26
 1.422479e+01 8.539404e+00 1.343143e+01 2.320714e+01 2.606164e+01 2.953401e+01 2.849391e+01 1.622132e+01 1.612295e+01 1.728831e+01 1.633548e+01 1.433807e+01 3.721878e-01 3.729426e+00 1.090285e+00 1.848975e+00 9.895149e-01 1.777878e+00 2.871876e+00 2.880159e+00 1.643265e+00 1.153136e+00 1.251496e+00 1.488218e+00 1.283497e+00 3.983217e-02
<GCONST> 8.418935e+01
<STATE> 4
<MEAN> 26
 -7.890029e+00 -1.711376e-01 8.492695e+00 -7.654722e+00 -9.503112e-01 -6.249081e+00 -6.111722e+00 -1.083598e+01 -1.392656e+00 -1.763863e+00 -2.137035e+00 -7.274591e-01 1.929464e+01 3.048889e+00 -2.190991e+00 -1.332414e+00 -6.007375e-01 -2.065668e+00 8.502071e-01 -2.932400e+00 1.162098e+00 -8.495350e-01 2.639624e-01 1.088241e+00 -7.678303e-01 3.312889e-01
<VARIANCE> 26
 4.325274e+01 2.990643e+01 3.437101e+01 2.671625e+01 3.991373e+01 4.023666e+01 5.959723e+01 4.991846e+01 2.774579e+01 2.814531e+01 2.685994e+01 2.079214e+01 1.556538e+00 3.049872e+00 3.137829e+00 3.586923e+00 1.703964e+00 4.514787e+00 6.754780e+00 6.002925e+00 4.519124e+00 3.985476e+00 3.883170e+00 3.798692e+00 2.547509e+00 1.082820e-01
<GCONST> 1.041532e+02
<TRANSP> 5
 0.000000e+00 1.000000e+00 0.000000e+00 0.000000e+00 0.000000e+00
 0.000000e+00 7.388535e-01 2.611465e-01 0.000000e+00 0.000000e+00
 0.000000e+00 0.000000e+00 7.960199e-01 2.039801e-01 0.000000e+00
 0.000000e+00 0.000000e+00 0.000000e+00 7.112676e-01 2.887324e-01
 0.000000e+00 0.000000e+00 0.000000e+00 0.000000e+00 0.000000e+00
<ENDHMM>
