~o
<STREAMINFO> 1 26
<VECSIZE> 26<NULLD><MFCC_E_D><DIAGC>
~v "varFloor1"
<VARIANCE> 26
 7.528608e-01 4.836471e-01 6.936527e-01 1.165170e+00 5.971813e-01 4.755226e-01 8.837133e-01 4.464411e-01 6.617475e-01 5.043612e-01 3.577261e-01 3.682624e-01 2.346386e-01 2.926073e-02 2.980258e-02 2.837205e-02 5.332779e-02 3.412719e-02 3.071158e-02 4.275788e-02 3.327679e-02 3.738448e-02 3.113799e-02 2.695941e-02 2.419822e-02 4.406946e-03
~h "_"
<BEGINHMM>
<NUMSTATES> 5
<STATE> 2
<MEAN> 26
 -8.495943e+00 -5.469531e-01 -1.526165e+00 -1.166520e+01 -2.974396e+00 -6.342807e+00 -5.549899e+00 -5.559578e+00 -3.287915e+00 6.779011e+00 2.368453e+00 1.876646e-01 1.352706e+01 -1.310332e+00 7.552435e-01 -7.531294e-01 2.968710e+00 2.161465e-02 1.093505e+00 1.093120e+00 1.128608e+00 2.143271e+00 -4.151498e-01 6.752619e-01 -1.550104e-01 -1.420195e+00
<VARIANCE> 26
 2.488424e+01 3.252786e+01 6.536735e+01 8.531597e+01 6.152340e+01 9.186908e+01 6.814450e+01 5.870098e+01 1.285900e+02 1.001156e+02 6.662035e+01 4.804880e+01 9.583379e+00 2.664544e+00 3.875464e+00 6.152624e+00 6.308655e+00 6.198715e+00 5.931684e+00 5.858269e+00 6.646634e+00 9.751702e+00 8.250515e+00 6.461784e+00 5.194928e+00 3.527157e-01
<GCONST> 1.199549e+02
<STATE> 3
<MEAN> 26
 -1.358328e+01 1.777849e+00 -1.553324e+00 -4.666263e-01 4.498072e-01 5.231794e-01 -1.177693e+00 9.273782e-01 -4.316730e-01 1.207279e+00 1.341160e+00 -6.130034e-01 8.637873e+00 -2.273254e-01 -2.756026e-02 1.568246e-01 2.772656e-01 2.724120e-01 1.149207e-01 1.341186e-01 2.828757e-01 -9.388237e-02 -1.907753e-01 -1.969647e-01 4.445093e-02 -1.192901e-01
<VARIANCE> 26
 2.380660e+00 4.110951e+00 5.904459e+00 8.323297e+00 1.106392e+01 1.299480e+01 1.261152e+01 1.383267e+01 1.377675e+01 1.508526e+01 1.531684e+01 1.161479e+01 8.566006e-01 5.674596e-01 7.805583e-01 1.090549e+00 1.668588e+00 1.833898e+00 2.173262e+00 1.765509e+00 2.403354e+00 2.531405e+00 2.606432e+00 2.172128e+00 1.632269e+00 1.833403e-01
<GCONST> 7.852193e+01
<STATE> 4
<MEAN> 26
 -1.323047e+01 1.674038e+00 -8.928411e-01 -1.027618e+00 4.851684e-03 -7.810683e-01 -1.465712e+00 9.318672e-01 -9.167378e-01 9.024054e-01 1.034538e+00 -6.847056e-01 9.139461e+00 2.096059e+00 -1.108497e+00 8.699228e-01 -3.233855e+00 -6.567378e-02 -1.320387e+00 -1.439401e+00 -9.450448e-01 -2.259139e+00 1.108528e-01 -8.847148e-01 -8.948823e-02 1.881853e+00
<VARIANCE> 26
 5.867322e+00 8.121771e+00 9.085580e+00 1.682443e+01 1.327598e+01 1.962448e+01 1.213286e+01 1.593859e+01 2.190212e+01 1.520297e+01 1.304813e+01 1.322424e+01 2.237612e+00 3.369194e+00 5.458425e+00 5.338806e+00 1.171117e+01 5.027617e+00 4.521720e+00 3.660832e+00 5.042621e+00 5.303392e+00 4.017724e+00 3.576955e+00 3.097960e+00 8.597950e-01
<GCONST> 9.766995e+01
<TRANSP> 5
 0.000000e+00 1.000000e+00 0.000000e+00 0.000000e+00 0.000000e+00
 0.000000e+00 7.979009e-01 2.020991e-01 0.000000e+00 0.000000e+00
 0.000000e+00 0.000000e+00 8.168997e-01 1.831004e-01 0.000000e+00
 0.000000e+00 0.000000e+00 0.000000e+00 4.238408e-01 5.761592e-01
 0.000000e+00 0.000000e+00 0.000000e+00 0.000000e+00 0.000000e+00
<ENDHMM>
~h "a"
<BEGINHMM>
<NUMSTATES> 5
<STATE> 2
<MEAN> 26
 -1.382108e+00 -9.452225e+00 -2.045483e+00 -2.127185e+01 -1.794321e-01 -7.636379e-02 -1.207118e+01 -6.058205e-02 -4.041478e+00 6.340918e+00 -1.493586e+00 -8.290100e+00 2.005905e+01 1.886306e+00 -3.283092e+00 -1.026335e+00 -3.492614e+00 6.898010e-01 7.578635e-01 -1.126268e+00 1.624706e+00 -9.123409e-02 6.320778e-01 -9.863151e-01 -2.390631e+00 9.118489e-01
<VARIANCE> 26
 2.007755e+01 3.625691e+01 3.810129e+01 5.133461e+01 6.293999e+01 5.098039e+01 8.960444e+01 5.405289e+01 3.162668e+01 3.774587e+01 3.455222e+01 2.974531e+01 7.027796e+00 3.605979e+00 2.927519e+00 3.315449e+00 7.270127e+00 4.590501e+00 3.932974e+00 7.046363e+00 7.863547e+00 5.354288e+00 4.187876e+00 2.762161e+00 2.811613e+00 7.912306e-01
<GCONST> 1.118555e+02
<STATE> 3
<MEAN> 26
 6.866856e-01 -1.610953e+01 -5.411973e+00 -2.614388e+01 4.844023e+00 3.331366e+00 -1.149253e+01 1.615467e+00 -3.589830e+00 3.826205e+00 -4.394508e+00 -1.288474e+01 2.179820e+01 -5.845823e-02 -1.941328e-01 5.441533e-03 1.181137e-01 2.217980e-01 -4.116504e-01 3.468230e-01 -8.009247e-02 5.212727e-02 -1.588805e-01 -2.940301e-01 7.867561e-02 3.838537e-03
<VARIANCE> 26
 6.687798e+00 1.722701e+01 2.233730e+01 2.129460e+01 3.958703e+01 4.489882e+01 4.132643e+01 5.264729e+01 2.556249e+01 2.675230e+01 2.971936e+01 2.065807e+01 4.942893e-01 5.515475e-01 1.517854e+00 2.054267e+00 1.639920e+00 2.878459e+00 2.703486e+00 2.857275e+00 2.633794e+00 1.517362e+00 2.089423e+00 2.217174e+00 1.849809e+00 4.300663e-02
<GCONST> 9.063303e+01
<STATE> 4
<MEAN> 26
 2.437780e-01 -1.052379e+01 -1.191158e+00 -2.081798e+01 1.134279e+00 -4.035606e+00 -1.065371e+01 -7.348539e-01 -4.746751e+00 5.564403e+00 -4.397026e+00 -7.939949e+00 2.060066e+01 -4.474166e-01 3.401214e+00 1.269989e+00 3.479491e+00 -2.493648e-01 -6.309408e-01 6.502965e-01 -1.979462e+00 -4.883198e-01 -6.203180e-01 3.996798e-01 1.575114e+00 -6.260722e-01
<VARIANCE> 26
 1.010711e+01 3.372791e+01 3.704559e+01 3.897717e+01 4.434321e+01 6.511761e+01 7.040276e+01 7.292954e+01 3.806316e+01 2.998832e+01 3.749958e+01 2.612495e+01 1.082806e+00 2.004065e+00 4.438914e+00 2.790875e+00 5.195480e+00 3.745311e+00 3.473084e+00 4.526210e+00 4.268632e+00 4.501289e+00 3.090563e+00 2.644514e+00 1.898242e+00 1.812973e-01
<GCONST> 1.043352e+02
<TRANSP> 5
 0.000000e+00 1.000000e+00 0.000000e+00 0.000000e+00 0.000000e+00
 0.000000e+00 5.912774e-01 4.087225e-01 0.000000e+00 0.000000e+00
 0.000000e+00 0.000000e+00 8.357008e-01 1.642992e-01 0.000000e+00
 0.000000e+00 0.000000e+00 0.000000e+00 6.549838e-01 3.450162e-01
 0.000000e+00 0.000000e+00 0.000000e+00 0.000000e+00 0.000000e+00
<ENDHMM>
~h "b"
<BEGINHMM>
<NUMSTATES> 5
<STATE> 2
<MEAN> 26
 4.833806e+00 2.467991e+00 5.031348e+00 -6.871555e-01 -2.021682e+00 5.833774e+00 -1.164064e+01 -5.687446e+00 -1.512464e+01 -5.135709e+00 4.795312e+00 -6.891912e+00 1.873148e+01 1.907438e+00 2.801526e+00 -9.546288e-02 1.401022e+00 2.182185e+00 8.151834e-02 4.171257e-01 -1.462714e+00 1.243170e+00 7.048731e-01 6.457178e-01 1.528886e-01 -1.968991e-01
<VARIANCE> 26
 2.299380e+01 2.113731e+01 3.210728e+01 3.753452e+01 5.537888e+01 5.580765e+01 4.046651e+01 3.380370e+01 8.960358e+01 6.585819e+01 3.411718e+01 3.102699e+01 2.860396e+00 2.944754e+00 2.606899e+00 3.487806e+00 9.792103e+00 4.431467e+00 5.083362e+00 4.933459e+00 3.298469e+00 8.882341e+00 5.357277e+00 4.005713e+00 2.944690e+00 2.959891e-01
<GCONST> 1.096071e+02
<STATE> 3
<MEAN> 26
 7.310361e+00 1.107590e+01 5.836933e+00 8.456364e-01 3.628425e+00 4.411927e+00 -8.795823e+00 -8.332713e+00 -8.456799e+00 -9.534347e-01 5.696549e+00 -5.301859e+00 1.778262e+01 -7.547879e-01 4.676522e-01 -7.861583e-02 -1.432031e-01 4.611233e-01 -1.897042e-01 8.074781e-01 -3.819546e-01 4.695589e-01 2.825126e-01 -5.810965e-01 5.322102e-01 -1.290285e-01
<VARIANCE> 26
 7.009423e+00 1.931755e+01 1.406223e+01 2.909864e+01 3.069695e+01 2.883721e+01 4.417501e+01 1.798868e+01 1.884817e+01 2.846956e+01 2.324789e+01 2.444901e+01 6.475167e-01 2.277538e+00 3.679844e+00 1.576614e+00 3.977130e+00 2.322628e+00 2.019240e+00 1.647366e+00 1.948165e+00 3.334557e+00 2.016874e+00 2.741803e+00 1.564827e+00 2.676851e-02
<GCONST> 9.077947e+01
<STATE> 4
<MEAN> 26
 -3.175780e-01 4.718153e+00 6.038583e+00 -5.244312e+00 4.484682e+00 1.603715e+00 -7.700459e+00 -9.316668e+00 -8.169844e+00 2.126680e-01 -4.628448e-01 -3.028703e+00 1.809327e+01 -1.343673e+00 -3.538228e+00 -6.425871e-01 -2.623868e+00 -7.772527e-01 -1.106576e+00 -1.307851e+00 2.715744e-01 8.277487e-01 7.840537e-01 -5.978222e-01 7.946823e-01 4.200548e-01
<VARIANCE> 26
 1.777606e+01 3.921930e+01 1.688062e+01 5.910704e+01 2.839157e+01 2.600753e+01 6.318095e+01 2.101476e+01 3.357226e+01 4.808122e+01 3.729930e+01 1.960202e+01 1.126842e+00 2.319730e+00 4.221817e+00 3.320235e+00 6.199198e+00 4.003219e+00 4.810033e+00 4.468029e+00 3.179824e+00 2.799039e+00 5.481351e+00 3.148885e+00 2.314469e+00 1.243932e-01
<GCONST> 1.026840e+02
<TRANSP> 5
 0.000000e+00 1.000000e+00 0.000000e+00 0.000000e+00 0.000000e+00
 0.000000e+00 5.657517e-01 4.342483e-01 0.000000e+00 0.000000e+00
 0.000000e+00 0.000000e+00 7.535728e-01 2.464272e-01 0.000000e+00
 0.000000e+00 0.000000e+00 0.000000e+00 4.793030e-01 5.206971e-01
 0.000000e+00 0.000000e+00 0.000000e+00 0.000000e+00 0.000000e+00
<ENDHMM>
~h "d"
<BEGINHMM>
<NUMSTATES> 5
<STATE> 2
<MEAN> 26
 3.606106e+00 8.125155e+00 9.823564e+00 1.833655e+00 -2.405185e+00 -3.133139e+00 -9.625898e+00 -9.287609e-01 -6.664112e+00 1.173601e+00 -1.548431e+00 -8.380478e+00 1.773725e+01 2.008472e+00 2.627991e+00 6.272867e-01 2.479525e+00 2.900993e-01 -1.420914e+00 6.363535e-01 6.513057e-01 2.706552e+00 2.349319e-01 -1.172781e+00 -1.192091e+00 -5.799263e-02
<VARIANCE> 26
 2.733146e+01 3.287420e+01 5.039620e+01 3.697143e+01 3.579852e+01 5.102069e+01 4.542365e+01 3.123662e+01 6.165054e+01 2.275880e+01 3.394424e+01 4.474604e+01 3.215558e+00 3.120566e+00 4.133100e+00 4.603666e+00 8.577105e+00 4.241599e+00 3.122271e+00 6.085008e+00 2.778068e+00 6.651506e+00 2.686788e+00 2.691250e+00 3.724505e+00 7.150213e-01
<GCONST> 1.091203e+02
<STATE> 3
<MEAN> 26
 5.531001e+00 1.452768e+01 1.171098e+01 5.811890e+00 -2.501622e+00 -6.773331e+00 -7.925189e+00 9.627861e-01 5.430431e-01 7.204174e-01 -4.468103e+00 -8.530986e+00 1.747195e+01 -1.664700e+00 -5.858390e-01 -9.665008e-02 -9.329312e-01 9.840915e-01 8.291364e-01 8.335037e-01 -7.646647e-01 2.996812e-01 -2.361562e-01 -1.140547e-01 1.242980e+00 -1.259255e-01
<VARIANCE> 26
 6.954248e+00 1.858327e+01 1.433258e+01 1.329297e+01 2.093801e+01 2.074616e+01 1.957075e+01 1.860524e+01 2.494567e+01 1.388008e+01 2.373953e+01 2.014825e+01 4.133084e-01 3.452502e+00 6.365566e+00 2.958117e+00 4.234883e+00 3.367616e+00 4.284630e+00 2.687263e+00 2.913158e+00 3.723247e+00 1.988714e+00 2.305196e+00 2.588739e+00 5.288685e-02
<GCONST> 9.219519e+01
<STATE> 4
<MEAN> 26
 -7.165008e+00 2.523280e+00 8.544861e+00 -5.742242e+00 3.544214e+00 2.439992e-01 -5.227928e+00 -6.651905e+00 -3.693038e+00 -2.105772e-01 -3.265754e+00 -9.937831e-01 1.776911e+01 -3.061592e+00 -3.086457e+00 3.824442e-03 -3.349931e+00 -2.118629e-01 3.999224e-01 -1.066184e+00 -1.292655e+00 -1.074942e+00 -4.347062e-01 1.035859e+00 1.820675e+00 4.589675e-01
<VARIANCE> 26
 2.291507e+01 5.206705e+01 4.291355e+01 4.951701e+01 3.244112e+01 6.507465e+01 4.282592e+01 3.432106e+01 2.499648e+01 2.805303e+01 2.306159e+01 2.602753e+01 1.244786e+00 4.062859e+00 5.113788e+00 4.913630e+00 4.957400e+00 5.295912e+00 4.683430e+00 6.556596e+00 3.499842e+00 4.507842e+00 5.129669e+00 2.774439e+00 3.042508e+00 1.875950e-01
<GCONST> 1.068190e+02
<TRANSP> 5
 0.000000e+00 1.000000e+00 0.000000e+00 0.000000e+00 0.000000e+00
 0.000000e+00 5.917830e-01 4.082169e-01 0.000000e+00 0.000000e+00
 0.000000e+00 0.000000e+00 7.137507e-01 2.862493e-01 0.000000e+00
 0.000000e+00 0.000000e+00 0.000000e+00 5.615804e-01 4.384196e-01
 0.000000e+00 0.000000e+00 0.000000e+00 0.000000e+00 0.000000e+00
<ENDHMM>
~h "e"
<BEGINHMM>
<NUMSTATES> 5
<STATE> 2
<MEAN> 26
 -3.411075e+00 -6.823024e+00 8.249317e+00 -1.450646e+01 -7.036110e+00 -7.371510e+00 -1.640277e+01 8.880974e-01 -7.716039e+00 2.483407e+00 1.248905e+00 -3.108713e+00 2.020272e+01 2.015685e+00 -2.862696e+00 1.620580e+00 -2.812238e+00 -2.562402e+00 -1.343821e+00 -2.788650e+00 2.682984e+00 -1.248415e+00 1.045020e+00 2.040869e-01 -8.828672e-01 8.267125e-01
<VARIANCE> 26
 1.213825e+01 3.576484e+01 4.768749e+01 3.913745e+01 3.501755e+01 3.527795e+01 6.262443e+01 4.221253e+01 3.412693e+01 3.279130e+01 3.323969e+01 1.966114e+01 2.982019e+00 4.330715e+00 2.633803e+00 4.327461e+00 3.710682e+00 4.594280e+00 3.640078e+00 6.123535e+00 4.547203e+00 4.539049e+00 3.174290e+00 3.553041e+00 2.390047e+00 3.470348e-01
<GCONST> 1.060865e+02
<STATE> 3
<MEAN> 26
 -2.148861e+00 -1.174595e+01 9.140375e+00 -2.016301e+01 -1.042826e+01 -8.547853e+00 -1.586068e+01 7.002904e+00 -7.994413e+00 5.109587e+00 9.852134e-01 -4.484813e+00 2.125298e+01 -7.448085e-03 -1.600197e-01 9.901471e-02 -3.322746e-01 7.790144e-02 -2.569431e-01 5.226383e-01 -9.354658e-02 -1.882162e-01 2.338221e-02 -1.864868e-01 -8.530165e-02 -1.010825e-02
<VARIANCE> 26
 7.214164e+00 2.094310e+01 4.180658e+01 1.942547e+01 2.750480e+01 2.824501e+01 3.709355e+01 2.738238e+01 3.607679e+01 2.083166e+01 2.436671e+01 1.371596e+01 3.384773e-01 4.650422e-01 9.769157e-01 1.802279e+00 1.577469e+00 1.796644e+00 1.693412e+00 2.157787e+00 2.301470e+00 1.937949e+00 1.519378e+00 1.525198e+00 1.117021e+00 2.066711e-02
<GCONST> 8.513622e+01
<STATE> 4
<MEAN> 26
 -2.097430e+00 -9.676343e+00 9.267342e+00 -1.836244e+01 -6.184056e+00 -8.352974e+00 -1.357684e+01 6.709134e-01 -1.023554e+01 3.374478e+00 -1.523103e+00 -4.689244e+00 2.046217e+01 -1.938275e-01 2.146584e+00 -5.566893e-01 2.114811e+00 2.040699e+00 1.165799e+00 1.284341e+00 -2.566431e+00 5.470559e-01 -7.413864e-01 -9.102516e-01 8.379584e-02 -4.759480e-01
<VARIANCE> 26
 8.753957e+00 3.225806e+01 6.799530e+01 3.676805e+01 3.722485e+01 4.084389e+01 5.923939e+01 4.356702e+01 6.955739e+01 3.312026e+01 3.499706e+01 2.393193e+01 8.113256e-01 1.379314e+00 3.432487e+00 3.633612e+00 4.492499e+00 2.176006e+00 3.287546e+00 3.890473e+00 4.431788e+00 4.841809e+00 3.025733e+00 2.502888e+00 1.662677e+00 9.637248e-02
<GCONST> 1.016317e+02
<TRANSP> 5
 0.000000e+00 1.000000e+00 0.000000e+00 0.000000e+00 0.000000e+00
 0.000000e+00 5.698743e-01 4.301257e-01 0.000000e+00 0.000000e+00
 0.000000e+00 0.000000e+00 8.471691e-01 1.528309e-01 0.000000e+00
 0.000000e+00 0.000000e+00 0.000000e+00 6.598108e-01 3.401892e-01
 0.000000e+00 0.000000e+00 0.000000e+00 0.000000e+00 0.000000e+00
<ENDHMM>
~h "f"
<BEGINHMM>
<NUMSTATES> 5
<STATE> 2
<MEAN> 26
 -1.571729e+01 -2.283511e+00 1.296044e+00 -5.229774e+00 2.824367e+00 2.783993e-01 -1.132692e+00 -1.722267e+00 -1.858393e+00 1.818807e+00 -2.695255e+00 -2.417916e-01 1.558164e+01 -3.359099e+00 -1.908896e+00 -2.037175e+00 -2.158559e-01 6.223058e-01 4.130488e-01 6.168876e-01 5.066425e-01 1.358956e+00 8.937759e-01 5.797071e-01 1.119364e+00 -8.101272e-01
<VARIANCE> 26
 3.772272e+01 1.978553e+01 3.144584e+01 2.071856e+01 2.308289e+01 2.454517e+01 2.244416e+01 2.264721e+01 3.081737e+01 2.806310e+01 2.050739e+01 1.359238e+01 4.872031e+00 3.673143e+00 1.676979e+00 3.253219e+00 6.044325e+00 5.118059e+00 4.347039e+00 4.481010e+00 3.344100e+00 3.822392e+00 3.022243e+00 2.724651e+00 1.894228e+00 3.245714e-01
<GCONST> 1.009952e+02
<STATE> 3
<MEAN> 26
 -2.247786e+01 -6.405025e+00 -4.979492e+00 -8.939198e+00 5.284508e-01 5.129241e-01 -3.743764e+00 -2.987414e+00 -1.597074e+00 5.576721e+00 1.101864e-01 3.538962e+00 1.403326e+01 -1.143799e-01 -6.728681e-02 -1.923409e-01 -9.565183e-02 -2.736279e-01 -2.610685e-02 -2.092852e-01 -1.478119e-01 -9.273008e-02 1.294653e-01 9.161670e-02 1.163230e-01 3.031720e-03
<VARIANCE> 26
 6.506109e+00 5.715668e+00 8.946356e+00 1.123020e+01 2.017980e+01 1.883005e+01 1.848868e+01 1.885539e+01 1.914320e+01 1.932042e+01 1.582313e+01 1.513030e+01 1.259264e+00 7.477754e-01 5.746588e-01 8.688872e-01 1.117540e+00 1.631532e+00 1.449702e+00 1.798829e+00 1.895490e+00 1.830389e+00 2.006688e+00 1.656705e+00 1.604284e+00 7.396618e-02
<GCONST> 8.031435e+01
<STATE> 4
<MEAN> 26
 -1.951833e+01 -5.671249e+00 -2.432216e+00 -8.542651e+00 2.683578e-01 -2.304472e-01 -2.725693e+00 -3.087461e+00 -1.849340e+00 3.721747e+00 -1.733752e+00 1.997769e+00 1.496365e+01 3.448459e+00 1.503649e+00 1.690272e+00 -2.752480e-02 2.306663e-01 2.137237e-01 -6.920515e-01 -4.805560e-01 -1.112200e+00 -1.614576e+00 -7.276660e-01 -1.229938e+00 8.105156e-01
<VARIANCE> 26
 1.737586e+01 1.007261e+01 1.977661e+01 1.503304e+01 3.329460e+01 2.424545e+01 1.744746e+01 2.347914e+01 1.855813e+01 1.998153e+01 1.939560e+01 2.461996e+01 1.401623e+00 4.402380e+00 1.420261e+00 3.197505e+00 3.755409e+00 3.090440e+00 3.687853e+00 4.723729e+00 3.441575e+00 4.198384e+00 2.261086e+00 3.643928e+00 1.968864e+00 3.552994e-01
<GCONST> 9.650204e+01
<TRANSP> 5
 0.000000e+00 1.000000e+00 0.000000e+00 0.000000e+00 0.000000e+00
 0.000000e+00 7.073187e-01 2.926813e-01 0.000000e+00 0.000000e+00
 0.000000e+00 0.000000e+00 8.899588e-01 1.100412e-01 0.000000e+00
 0.000000e+00 0.000000e+00 0.000000e+00 6.167306e-01 3.832694e-01
 0.000000e+00 0.000000e+00 0.000000e+00 0.000000e+00 0.000000e+00
<ENDHMM>
~h "g"
<BEGINHMM>
<NUMSTATES> 5
<STATE> 2
<MEAN> 26
 1.305168e+00 8.335388e+00 1.173066e+01 2.150450e+00 -5.773199e+00 -3.843800e+00 -6.573110e+00 -4.443194e-01 -1.276295e+01 -5.914512e-01 4.946058e+00 -8.795935e+00 1.788363e+01 2.061524e+00 1.333087e+00 4.267528e-01 1.995358e+00 -1.613128e+00 -1.206912e+00 1.358325e+00 1.158830e-01 -1.744357e-01 1.858652e-02 1.082888e+00 -4.844403e-01 3.102162e-02
<VARIANCE> 26
 4.196206e+01 4.713410e+01 7.204977e+01 3.960671e+01 7.656940e+01 2.618568e+01 4.235868e+01 3.510662e+01 7.198952e+01 3.018784e+01 4.083878e+01 4.733755e+01 2.296789e+00 4.825029e+00 5.025078e+00 4.666793e+00 2.504258e+00 7.052253e+00 2.452823e+00 5.175686e+00 3.776016e+00 1.199934e+01 2.133307e+00 4.232076e+00 2.567019e+00 4.217115e-01
<GCONST> 1.105558e+02
<STATE> 3
<MEAN> 26
 5.251415e+00 8.964088e+00 1.080599e+01 2.988161e+00 -1.098052e+01 -3.369367e+00 -3.130409e+00 1.130672e+00 -1.457318e+01 -4.120150e+00 8.514199e+00 -1.011383e+01 1.834710e+01 -1.488554e+00 -7.863716e-01 -1.436974e-01 -1.714877e+00 2.441750e+00 1.564496e+00 -9.340488e-02 -8.341066e-01 3.953011e-01 2.949374e-01 -1.622930e+00 1.836320e+00 -1.571537e-01
<VARIANCE> 26
 6.887801e+00 1.964426e+01 5.825409e+01 3.454779e+01 4.142692e+01 2.635175e+01 2.967082e+01 2.033506e+01 8.395358e+01 3.928417e+01 4.673627e+01 2.987920e+01 7.907612e-01 3.846269e+00 3.822783e+00 5.098730e+00 4.214023e+00 5.776057e+00 1.714768e+00 3.390165e+00 5.098403e+00 3.335246e+00 4.575755e+00 5.698190e+00 3.449365e+00 9.099057e-02
<GCONST> 1.030105e+02
<STATE> 4
<MEAN> 26
 -3.964589e+00 2.194201e+00 8.708605e+00 -7.027660e+00 1.391427e+00 2.130092e+00 -8.585826e+00 -3.278148e+00 -1.379905e+01 9.756043e-01 -6.736442e-04 -2.510631e+00 1.795217e+01 -2.226996e+00 -1.814559e+00 4.958074e-02 -2.659313e+00 3.182886e-01 -6.903739e-02 -1.779204e+00 -2.845477e-01 4.101547e-01 -2.611663e-01 -2.074983e-01 1.999519e+00 2.740565e-01
<VARIANCE> 26
 3.203191e+01 3.519907e+01 6.820819e+01 6.024331e+01 4.784365e+01 4.860620e+01 5.919754e+01 3.150325e+01 4.227077e+01 3.838983e+01 5.435749e+01 1.417888e+01 1.322126e+00 3.296122e+00 7.323524e+00 7.302626e+00 3.293001e+00 8.937411e+00 4.698690e+00 4.427539e+00 4.098908e+00 5.660518e+00 6.503007e+00 4.029308e+00 2.966403e+00 1.791116e-01
<GCONST> 1.101016e+02
<TRANSP> 5
 0.000000e+00 1.000000e+00 0.000000e+00 0.000000e+00 0.000000e+00
 0.000000e+00 6.175110e-01 3.824889e-01 0.000000e+00 0.000000e+00
 0.000000e+00 0.000000e+00 5.920128e-01 4.079873e-01 0.000000e+00
 0.000000e+00 0.000000e+00 0.000000e+00 5.273519e-01 4.726481e-01
 0.000000e+00 0.000000e+00 0.000000e+00 0.000000e+00 0.000000e+00
<ENDHMM>
~h "h"
<BEGINHMM>
<NUMSTATES> 5
<STATE> 2
<MEAN> 26
 -1.991307e+01 -7.451665e+00 5.834741e+00 -2.921093e+00 -6.031836e+00 -1.951619e+00 -3.660055e-01 -1.389179e+00 -5.434979e+00 3.271739e+00 -7.525617e-01 1.979660e+00 1.664570e+01 6.835685e-01 -2.048694e-02 1.716062e+00 2.433385e+00 -2.280890e-01 -1.338726e+00 -1.532556e-01 3.633167e-01 -6.895416e-01 -1.353666e+00 -3.465948e-01 -5.153028e-01 3.944636e-01
<VARIANCE> 26
 3.528561e+01 2.352032e+01 2.942892e+01 2.941197e+01 2.967493e+01 4.211750e+01 2.638878e+01 2.996335e+01 2.327714e+01 3.185958e+01 1.296838e+01 1.762372e+01 8.621187e-01 4.460209e+00 2.226803e+00 1.994162e+00 2.179423e+00 1.989739e+00 3.269167e+00 4.615834e+00 2.911872e+00 2.530745e+00 5.416598e+00 1.637680e+00 1.572551e+00 2.433613e-01
<GCONST> 9.735204e+01
<STATE> 3
<MEAN> 26
 -7.335639e+00 -2.606851e+00 1.452839e+01 7.595913e+00 -5.433266e+00 -8.175347e+00 -1.109675e+01 -1.316474e+00 -1.067718e+01 -1.088586e+01 -2.195907e+00 2.694390e+00 1.914272e+01 2.991995e+00 -1.651637e-01 1.776472e+00 1.337935e+00 -4.516973e-01 -1.267062e+00 -4.008886e+00 5.726478e-01 -1.045389e+00 -5.004440e+00 1.102246e+00 7.869850e-01 6.636989e-01
<VARIANCE> 26
 2.049795e+01 1.100781e+01 1.784693e+01 1.023673e+01 2.042801e+01 1.801459e+01 4.525304e+01 1.685508e+01 2.820932e+01 3.772248e+01 1.428594e+01 2.082292e+01 4.194058e-01 3.217260e+00 2.550111e+00 2.405559e+00 2.971064e+00 3.231442e+00 3.575393e+00 4.154748e+00 2.538676e+00 3.607017e+00 5.097350e+00 2.654144e+00 2.426095e+00 1.746313e-01
<GCONST> 9.465610e+01
<STATE> 4
<MEAN> 26
 -3.581087e+00 -5.941652e+00 1.817192e+01 6.335932e+00 -7.014117e+00 -6.038253e+00 -1.808756e+01 8.827379e-01 -9.886546e+00 -1.877502e+01 4.960657e+00 2.277243e+00 1.993577e+01 -7.863742e-02 -2.704940e-01 8.130130e-01 -1.218188e+00 -9.639313e-01 9.691570e-01 -4.993251e-01 -3.445855e-01 1.207608e-01 2.188065e-01 6.927515e-01 -8.067012e-01 1.219564e-01
<VARIANCE> 26
 6.579630e+00 1.230328e+01 3.079942e+01 4.313667e+01 2.175753e+01 2.000575e+01 4.063657e+01 2.311508e+01 3.656200e+01 4.299623e+01 1.639684e+01 2.492531e+01 3.005659e-01 8.678265e-01 5.835921e-01 2.439279e+00 3.353582e+00 2.528544e+00 2.585895e+00 3.226705e+00 2.378299e+00 1.630913e+00 4.738212e+00 1.892998e+00 1.278386e+00 2.070116e-02
<GCONST> 8.885064e+01
<TRANSP> 5
 0.000000e+00 1.000000e+00 0.000000e+00 0.000000e+00 0.000000e+00
 0.000000e+00 7.399666e-01 2.600334e-01 0.000000e+00 0.000000e+00
 0.000000e+00 0.000000e+00 6.276233e-01 3.723767e-01 0.000000e+00
 0.000000e+00 0.000000e+00 0.000000e+00 8.042361e-01 1.957639e-01
 0.000000e+00 0.000000e+00 0.000000e+00 0.000000e+00 0.000000e+00
<ENDHMM>
~h "i"
<BEGINHMM>
<NUMSTATES> 5
<STATE> 2
<MEAN> 26
 -1.106098e+01 4.793223e+00 1.794047e+01 -8.358712e+00 -2.440147e+00 -3.055454e+00 -1.377349e+01 -7.188081e+00 -8.589779e+00 -9.874477e+00 -1.997951e+00 1.894011e+00 1.927055e+01 1.080299e+00 -1.555168e-01 3.250839e+00 -1.249437e+00 -1.617231e+00 5.168589e-01 -2.708375e+00 -8.556490e-02 -2.032406e+00 -2.330136e+00 7.606891e-01 -2.923806e-01 4.434642e-01
<VARIANCE> 26
 2.422566e+01 3.351233e+01 2.903788e+01 2.773573e+01 4.760993e+01 2.623537e+01 3.391681e+01 2.885604e+01 3.813162e+01 4.509483e+01 3.280233e+01 2.255154e+01 1.344970e+00 4.143697e+00 3.122541e+00 4.150142e+00 3.707483e+00 5.529655e+00 3.645893e+00 4.069775e+00 2.489412e+00 4.432902e+00 3.942239e+00 3.011949e+00 2.194497e+00 1.820344e-01
<GCONST> 1.032032e+02
<STATE> 3
<MEAN> 26
 -9.862586e+00 4.060010e+00 2.284024e+01 -1.224923e+01 -6.056064e+00 2.039272e+00 -2.017436e+01 -4.365950e+00 -1.340966e+01 -1.462126e+01 3.247160e+00 -1.531462e+00 1.999610e+01 -5.023399e-02 2.561778e-01 1.135723e-01 -5.685847e-01 -2.606172e-01 2.394704e-01 -2.328910e-01 2.824286e-01 -5.408696e-01 2.377855e-01 4.706133e-02 -4.910815e-01 -1.046791e-02
<VARIANCE> 26
 7.653357e+00 1.761480e+01 1.586641e+01 2.409068e+01 3.386876e+01 2.374148e+01 2.714793e+01 2.537414e+01 4.194692e+01 2.757376e+01 3.183026e+01 2.155474e+01 3.781359e-01 8.245654e-01 1.947289e+00 1.739589e+00 1.962662e+00 2.415827e+00 2.107511e+00 2.332998e+00 2.024014e+00 2.411042e+00 2.313741e+00 1.841186e+00 1.352228e+00 2.250040e-02
<GCONST> 8.818938e+01
<STATE> 4
<MEAN> 26
 -7.874246e+00 4.544681e+00 1.804612e+01 -1.022744e+01 -5.978874e+00 -1.697878e+00 -1.418692e+01 -4.873420e+00 -1.315343e+01 -7.681015e+00 -1.326902e-01 -2.019289e+00 1.932275e+01 6.504629e-01 3.158445e-01 -2.098765e+00 1.711972e+00 8.947751e-01 -8.711905e-01 2.140409e+00 -3.583427e-01 1.208798e+00 1.684404e+00 -8.756348e-01 5.831268e-02 -3.372217e-01
<VARIANCE> 26
 2.253741e+01 5.024755e+01 3.572208e+01 5.811340e+01 5.577079e+01 3.231671e+01 5.002671e+01 4.358286e+01 6.971877e+01 4.422328e+01 4.830103e+01 3.219985e+01 1.404791e+00 3.965804e+00 3.681377e+00 3.650368e+00 4.335574e+00 4.279911e+00 3.862804e+00 3.827129e+00 3.831263e+00 4.522390e+00 3.873101e+00 3.311214e+00 3.069947e+00 1.308767e-01
<GCONST> 1.074441e+02
<TRANSP> 5
 0.000000e+00 1.000000e+00 0.000000e+00 0.000000e+00 0.000000e+00
 0.000000e+00 5.970469e-01 4.029531e-01 0.000000e+00 0.000000e+00
 0.000000e+00 0.000000e+00 7.991364e-01 2.008636e-01 0.000000e+00
 0.000000e+00 0.000000e+00 0.000000e+00 7.069796e-01 2.930204e-01
 0.000000e+00 0.000000e+00 0.000000e+00 0.000000e+00 0.000000e+00
<ENDHMM>
~h "j"
<BEGINHMM>
<NUMSTATES> 5
<STATE> 2
<MEAN> 26
 -1.105395e+01 6.182342e+00 2.159897e+01 -8.317240e+00 -2.191122e+00 -1.919210e+00 -1.429650e+01 -4.846728e+00 -1.044614e+01 -7.473637e+00 -1.842490e-01 1.358880e+00 1.913170e+01 9.545121e-01 -1.253184e-01 7.317485e-01 3.007456e-01 -7.292424e-01 -5.644006e-01 -1.055873e+00 4.934972e-01 -6.927333e-01 -1.301448e+00 4.180749e-01 4.838545e-02 2.189982e-01
<VARIANCE> 26
 1.540091e+01 2.360427e+01 2.411923e+01 4.431901e+01 4.525763e+01 2.604625e+01 3.619109e+01 2.975668e+01 4.382237e+01 3.607414e+01 2.313850e+01 1.868562e+01 6.845683e-01 6.507340e+00 4.079504e+00 3.701076e+00 3.462728e+00 4.498645e+00 4.064770e+00 5.760858e+00 3.480917e+00 3.363527e+00 4.650651e+00 1.945783e+00 1.430337e+00 1.748560e-01
<GCONST> 1.015291e+02
<STATE> 3
<MEAN> 26
 -6.684914e+00 -1.673880e+00 1.749732e+01 -6.959672e+00 -1.053280e+01 -5.088291e+00 -1.796173e+01 -2.120849e+00 -1.131577e+01 -1.044763e+01 1.879985e+00 7.962020e-01 2.023880e+01 2.775234e+00 -2.780327e+00 -1.417994e+00 -1.145376e+00 -1.834699e+00 -9.103488e-01 -3.058761e+00 2.935748e+00 8.166827e-02 3.265934e-01 1.614478e+00 -9.680989e-01 5.040050e-01
<VARIANCE> 26
 9.650196e+00 1.637319e+01 3.345380e+01 8.389609e+01 2.678799e+01 3.125189e+01 3.429018e+01 4.109386e+01 3.551685e+01 4.640155e+01 1.763531e+01 1.096042e+01 5.262734e-01 3.213316e+00 1.718138e+00 3.931536e+00 3.746696e+00 4.709908e+00 3.867560e+00 7.742316e+00 3.202281e+00 2.762375e+00 9.484956e+00 3.543942e+00 2.147745e+00 6.644290e-02
<GCONST> 9.989290e+01
<STATE> 4
<MEAN> 26
 -2.247034e+00 -7.947014e+00 9.420505e+00 -1.270222e+01 -1.082702e+01 -1.839252e+00 -2.215148e+01 4.486660e+00 -8.804864e+00 -1.974535e+00 3.599373e+00 -3.678621e+00 2.082156e+01 1.229704e+00 -9.824929e-01 -2.919987e+00 -1.790920e+00 7.968366e-01 2.239325e+00 2.207015e-01 1.846599e-01 2.567807e-01 2.259543e+00 3.093519e-01 -1.291204e+00 1.052355e-01
<VARIANCE> 26
 7.295384e+00 2.078581e+01 5.179921e+01 5.974137e+01 2.445128e+01 3.852849e+01 3.720633e+01 3.307225e+01 3.921466e+01 7.032051e+01 4.305153e+01 2.807232e+01 8.552145e-01 8.080868e-01 3.201715e+00 2.425772e+00 4.511594e+00 3.389523e+00 5.545551e+00 6.277541e+00 6.560156e+00 4.867378e+00 3.622079e+00 5.722832e+00 2.069606e+00 4.397892e-02
<GCONST> 1.018823e+02
<TRANSP> 5
 0.000000e+00 1.000000e+00 0.000000e+00 0.000000e+00 0.000000e+00
 0.000000e+00 7.151377e-01 2.848623e-01 0.000000e+00 0.000000e+00
 0.000000e+00 0.000000e+00 4.668728e-01 5.331272e-01 0.000000e+00
 0.000000e+00 0.000000e+00 0.000000e+00 5.817786e-01 4.182214e-01
 0.000000e+00 0.000000e+00 0.000000e+00 0.000000e+00 0.000000e+00
<ENDHMM>
~h "k"
<BEGINHMM>
<NUMSTATES> 5
<STATE> 2
<MEAN> 26
 -8.286610e+00 7.050536e-01 -1.655978e-02 -1.191138e+00 1.824202e+00 3.713493e-01 -2.685158e+00 -9.636401e-01 -6.246119e+00 7.643229e-02 -1.890470e-01 -2.343611e+00 1.266897e+01 -1.496063e+00 -1.039795e+00 -1.294773e+00 -9.545364e-01 2.660305e-01 4.839801e-01 3.485180e-01 -4.741723e-01 7.603620e-01 1.321586e-01 -1.092195e-01 9.332411e-01 -4.858768e-01
<VARIANCE> 26
 4.106834e+01 4.001497e+01 4.150003e+01 4.465580e+01 3.361182e+01 3.246519e+01 4.519685e+01 3.277235e+01 5.304871e+01 4.437862e+01 3.716291e+01 2.681317e+01 9.752809e+00 5.588604e+00 5.298523e+00 5.886917e+00 1.675731e+01 5.740652e+00 3.528266e+00 8.737444e+00 5.274230e+00 7.331209e+00 4.936023e+00 4.399930e+00 3.431650e+00 2.673595e+00
<GCONST> 1.160607e+02
<STATE> 3
<MEAN> 26
 -9.997349e+00 -6.423018e+00 -7.884920e+00 -1.671480e+01 3.713304e-01 1.941835e+00 -7.821739e+00 -2.492020e+00 -8.308071e+00 3.098665e+00 3.243880e-01 -6.537393e-01 1.561017e+01 6.628230e-01 -1.493278e+00 -1.854502e+00 -5.035953e+00 -3.135109e-01 5.157752e-02 -2.038916e+00 -1.366732e+00 -1.870076e+00 1.022094e+00 -1.005012e-02 -2.260957e-01 1.684422e+00
<VARIANCE> 26
 3.055288e+01 3.753656e+01 7.350146e+01 7.239140e+01 5.465017e+01 4.351126e+01 6.491949e+01 5.077931e+01 4.306181e+01 3.545099e+01 2.571135e+01 2.906981e+01 5.629999e+00 3.616558e+00 3.436188e+00 6.794740e+00 7.685212e+00 4.283567e+00 3.334743e+00 4.005892e+00 4.090844e+00 6.203171e+00 2.044092e+00 3.052067e+00 3.159894e+00 7.747902e-01
<GCONST> 1.114413e+02
<STATE> 4
<MEAN> 26
 -1.020345e+01 -4.183016e+00 -5.966270e+00 -1.690207e+01 7.961246e-01 4.407834e-01 -6.097097e+00 -5.119804e+00 -8.135580e+00 3.523847e+00 -3.716591e-02 -1.237603e-01 1.673019e+01 9.173342e-01 1.396869e+00 2.050066e+00 1.410135e+00 -4.376111e-01 -4.516577e-01 3.757136e-01 -4.427524e-01 -2.143408e-01 -8.366413e-01 5.068555e-01 -8.465689e-02 4.710701e-01
<VARIANCE> 26
 4.610181e+01 2.907647e+01 8.375681e+01 7.634088e+01 5.226134e+01 3.706112e+01 5.868565e+01 4.421007e+01 6.915384e+01 3.746388e+01 3.060374e+01 2.909181e+01 3.275214e+00 4.992710e+00 3.556181e+00 3.940409e+00 6.105809e+00 5.324689e+00 4.181437e+00 6.909743e+00 4.200509e+00 4.638387e+00 3.776170e+00 4.458730e+00 3.280501e+00 4.373114e-01
<GCONST> 1.122635e+02
<TRANSP> 5
 0.000000e+00 1.000000e+00 0.000000e+00 0.000000e+00 0.000000e+00
 0.000000e+00 7.000013e-01 2.999987e-01 0.000000e+00 0.000000e+00
 0.000000e+00 0.000000e+00 4.038750e-01 5.961249e-01 0.000000e+00
 0.000000e+00 0.000000e+00 0.000000e+00 6.128857e-01 3.871144e-01
 0.000000e+00 0.000000e+00 0.000000e+00 0.000000e+00 0.000000e+00
<ENDHMM>
~h "l"
<BEGINHMM>
<NUMSTATES> 5
<STATE> 2
<MEAN> 26
 -1.129549e+00 -3.150767e+00 3.779759e+00 -2.845121e+00 1.275245e+00 -2.579522e+00 -1.345219e+01 -7.193597e+00 -3.085728e+00 2.905691e+00 -3.312038e+00 -3.199911e+00 1.727158e+01 2.207780e+00 -2.610911e-01 1.437184e+00 -1.205622e-02 1.332979e+00 -1.259262e+00 -3.228672e+00 -1.544588e+00 -1.072566e+00 -3.192801e-01 -1.107437e+00 -1.197931e+00 8.281084e-01
<VARIANCE> 26
 5.045381e+01 3.000667e+01 7.771162e+01 3.764782e+01 3.659236e+01 5.093597e+01 9.622859e+01 9.406929e+01 4.182912e+01 4.805622e+01 3.579626e+01 2.845911e+01 1.014229e+01 5.821289e+00 5.137406e+00 4.199484e+00 4.119386e+00 6.732798e+00 4.106130e+00 8.236174e+00 5.937135e+00 4.412329e+00 4.540610e+00 4.186381e+00 3.675466e+00 7.731524e-01
<GCONST> 1.155104e+02
<STATE> 3
<MEAN> 26
 2.490207e+00 -1.782294e+00 1.029306e+01 -4.337648e+00 3.793222e+00 -4.366356e+00 -2.443840e+01 -7.816581e+00 -5.702323e+00 -1.521649e+00 -2.870923e+00 -6.680440e+00 1.961036e+01 -1.443561e-01 1.211564e-01 4.737962e-01 -1.656625e-01 1.105842e-01 8.724096e-02 -7.755885e-01 5.402870e-01 -4.623037e-02 -5.779250e-01 4.684131e-01 -6.114128e-01 1.029539e-01
<VARIANCE> 26
 1.871096e+01 2.813712e+01 9.327690e+01 5.200544e+01 5.407432e+01 4.873927e+01 5.674938e+01 7.305716e+01 3.568995e+01 4.862415e+01 3.339359e+01 4.020081e+01 3.884042e-01 8.186459e-01 2.324884e+00 2.500609e+00 2.320472e+00 2.541176e+00 3.036671e+00 4.697043e+00 4.266535e+00 3.422368e+00 3.170805e+00 2.104089e+00 2.621025e+00 3.480748e-02
<GCONST> 1.006370e+02
<STATE> 4
<MEAN> 26
 1.750279e+00 -5.559069e+00 7.176025e+00 -6.237245e+00 4.207232e-01 -2.858862e+00 -2.057382e+01 -5.369731e+00 -6.610047e+00 2.287113e-01 -8.500536e-01 -8.893094e+00 1.974923e+01 -5.596149e-01 -8.519141e-01 -1.012346e-01 -1.907327e+00 -1.871271e+00 1.018100e-01 1.736346e+00 1.400599e+00 -4.783053e-01 9.105019e-01 1.357140e+00 3.712334e-01 8.328433e-02
<VARIANCE> 26
 1.564645e+01 2.317741e+01 6.566004e+01 8.455254e+01 6.100090e+01 4.732619e+01 8.221732e+01 8.461590e+01 4.598336e+01 7.903923e+01 4.095528e+01 3.624753e+01 1.190466e+00 1.177506e+00 3.454115e+00 8.089669e+00 5.655361e+00 7.178600e+00 5.389652e+00 5.076838e+00 7.351945e+00 6.015568e+00 7.317030e+00 5.149189e+00 3.972392e+00 5.660648e-02
<GCONST> 1.112235e+02
<TRANSP> 5
 0.000000e+00 1.000000e+00 0.000000e+00 0.000000e+00 0.000000e+00
 0.000000e+00 5.708110e-01 4.291891e-01 0.000000e+00 0.000000e+00
 0.000000e+00 0.000000e+00 7.277722e-01 2.722277e-01 0.000000e+00
 0.000000e+00 0.000000e+00 0.000000e+00 6.116577e-01 3.883422e-01
 0.000000e+00 0.000000e+00 0.000000e+00 0.000000e+00 0.000000e+00
<ENDHMM>
~h "m"
<BEGINHMM>
<NUMSTATES> 5
<STATE> 2
<MEAN> 26
 2.101678e+00 -9.254560e-01 2.610450e+00 1.823865e+00 -5.642822e+00 1.120262e+00 -1.005389e+01 -2.886551e-01 -1.976258e+01 -4.712262e+00 8.347322e+00 -6.961188e+00 1.924489e+01 9.697998e-01 6.450606e-01 -1.303327e-01 4.129325e+00 -7.872285e-02 -2.536546e-01 1.688078e-01 -7.647088e-01 -3.718599e+00 -7.340766e-01 1.302184e+00 -1.181150e+00 2.752048e-01
<VARIANCE> 26
 1.673638e+01 2.622843e+01 3.560332e+01 6.444636e+01 3.010804e+01 4.421564e+01 7.060936e+01 3.500667e+01 7.547704e+01 5.993214e+01 4.220668e+01 2.676920e+01 4.816834e+00 2.481766e+00 2.331400e+00 4.603200e+00 9.592439e+00 2.580401e+00 4.383590e+00 6.577333e+00 5.346605e+00 6.243103e+00 3.089907e+00 4.392739e+00 2.340377e+00 3.820743e-01
<GCONST> 1.094899e+02
<STATE> 3
<MEAN> 26
 2.455316e+00 -1.199890e+00 3.209640e+00 7.455325e+00 -7.098989e+00 7.983319e-01 -1.216179e+01 -3.588131e+00 -2.580269e+01 -5.483555e+00 1.292093e+01 -9.726954e+00 2.041394e+01 -1.204195e-01 -2.343598e-01 5.078140e-02 1.719635e-01 9.971035e-02 8.185744e-02 1.167047e-02 -3.138067e-01 -3.999133e-01 1.109040e-01 9.351214e-02 2.848126e-02 3.776671e-02
<VARIANCE> 26
 6.052066e+00 2.064308e+01 1.292704e+01 1.382663e+01 1.952426e+01 4.212728e+01 5.006787e+01 4.228665e+01 3.783809e+01 7.067748e+01 3.914663e+01 3.368575e+01 1.307631e-01 2.266319e-01 1.042518e+00 1.033747e+00 3.111899e+00 1.050054e+00 1.860518e+00 2.310078e+00 1.818303e+00 2.563179e+00 2.307379e+00 2.639075e+00 1.834479e+00 8.632990e-03
<GCONST> 8.564305e+01
<STATE> 4
<MEAN> 26
 2.082221e+00 -3.763196e+00 2.450101e+00 -4.015247e-01 -7.318487e+00 3.578228e+00 -1.303423e+01 -2.330022e+00 -2.158169e+01 -5.316304e+00 9.205667e+00 -7.289944e+00 2.043938e+01 -3.646179e-01 -9.335287e-01 9.381528e-02 -5.263817e+00 -5.081721e-01 7.853852e-01 -4.343709e-01 1.586910e+00 3.650350e+00 2.919798e-01 -1.789070e+00 8.597173e-01 7.328928e-02
<VARIANCE> 26
 7.389917e+00 1.909641e+01 2.270976e+01 7.414176e+01 2.967864e+01 5.744751e+01 5.567746e+01 3.680547e+01 6.326581e+01 6.056490e+01 4.756288e+01 2.499936e+01 1.632308e-01 7.827650e-01 2.614752e+00 4.848279e+00 8.247587e+00 2.862223e+00 3.199863e+00 2.821258e+00 4.471102e+00 4.240968e+00 2.681020e+00 3.557480e+00 2.293902e+00 2.762946e-02
<GCONST> 9.884483e+01
<TRANSP> 5
 0.000000e+00 1.000000e+00 0.000000e+00 0.000000e+00 0.000000e+00
 0.000000e+00 5.910351e-01 4.089649e-01 0.000000e+00 0.000000e+00
 0.000000e+00 0.000000e+00 7.821743e-01 2.178256e-01 0.000000e+00
 0.000000e+00 0.000000e+00 0.000000e+00 6.067264e-01 3.932736e-01
 0.000000e+00 0.000000e+00 0.000000e+00 0.000000e+00 0.000000e+00
<ENDHMM>
~h "n"
<BEGINHMM>
<NUMSTATES> 5
<STATE> 2
<MEAN> 26
 6.432750e-01 2.427473e+00 6.759214e+00 2.963521e+00 -1.157537e+01 2.540810e+00 -1.002956e+01 -1.932935e+00 -1.895089e+01 -1.289180e+00 -3.187083e-02 -7.367262e+00 1.987750e+01 1.038358e+00 1.155149e+00 -1.082235e+00 3.553648e+00 -1.495814e+00 -5.809776e-02 2.120483e+00 -1.397293e+00 -1.994771e+00 7.088381e-01 -8.374778e-01 -1.952493e-01 2.336461e-01
<VARIANCE> 26
 9.628609e+00 2.407111e+01 2.021388e+01 4.213881e+01 4.213927e+01 4.650664e+01 4.534013e+01 4.508403e+01 5.795282e+01 5.064399e+01 4.162285e+01 2.079619e+01 2.172587e+00 1.705745e+00 2.170663e+00 5.505112e+00 4.799646e+00 4.341707e+00 3.219015e+00 6.756597e+00 3.664399e+00 5.717427e+00 3.864697e+00 3.148032e+00 2.874494e+00 3.338358e-01
<GCONST> 1.053357e+02
<STATE> 3
<MEAN> 26
 1.592295e+00 2.411112e+00 5.352012e+00 7.861141e+00 -1.447214e+01 2.399968e+00 -5.992816e+00 -5.111099e+00 -1.841727e+01 -1.746666e+00 -9.842907e-01 -6.373663e+00 2.042692e+01 -8.270356e-02 -8.437681e-02 -2.844409e-02 3.612117e-02 7.698488e-02 -2.464531e-01 3.002764e-01 2.209949e-02 2.418930e-01 -3.222897e-01 2.225410e-01 1.279020e-01 2.955030e-02
<VARIANCE> 26
 5.729580e+00 1.317802e+01 7.847622e+00 1.582666e+01 1.428243e+01 1.974672e+01 2.675813e+01 2.542444e+01 3.523089e+01 5.971164e+01 4.327216e+01 2.023136e+01 1.869501e-01 2.461346e-01 1.049521e+00 6.756541e-01 1.057756e+00 1.171606e+00 1.619815e+00 1.330036e+00 1.316570e+00 1.852574e+00 2.208360e+00 1.958715e+00 1.716014e+00 6.971421e-03
<GCONST> 7.901140e+01
<STATE> 4
<MEAN> 26
 -3.042915e-01 3.715322e-01 7.493587e+00 1.660443e+00 -1.210636e+01 9.554244e-01 -1.041530e+01 -2.456256e+00 -1.512986e+01 -5.308166e+00 1.719943e+00 -6.454967e+00 2.056063e+01 -8.553581e-01 -1.154604e+00 8.766070e-01 -3.793509e+00 1.315661e+00 -2.636020e-01 -2.475613e+00 1.524090e+00 2.130641e+00 -1.207674e+00 1.459296e+00 -1.003969e-01 3.240785e-02
<VARIANCE> 26
 6.482375e+00 1.696276e+01 1.947989e+01 5.061085e+01 2.911150e+01 3.436777e+01 3.998340e+01 3.128018e+01 4.913330e+01 8.111813e+01 4.987758e+01 3.558404e+01 1.444367e-01 5.319221e-01 1.435570e+00 3.101019e+00 5.098164e+00 3.678435e+00 3.206153e+00 5.417202e+00 3.900948e+00 5.290189e+00 3.271468e+00 3.400148e+00 2.125874e+00 7.696718e-03
<GCONST> 9.522658e+01
<TRANSP> 5
 0.000000e+00 1.000000e+00 0.000000e+00 0.000000e+00 0.000000e+00
 0.000000e+00 6.014237e-01 3.985763e-01 0.000000e+00 0.000000e+00
 0.000000e+00 0.000000e+00 7.238994e-01 2.761007e-01 0.000000e+00
 0.000000e+00 0.000000e+00 0.000000e+00 6.719994e-01 3.280006e-01
 0.000000e+00 0.000000e+00 0.000000e+00 0.000000e+00 0.000000e+00
<ENDHMM>
~h "o"
<BEGINHMM>
<NUMSTATES> 5
<STATE> 2
<MEAN> 26
 -3.001112e-01 -4.987616e-02 1.072674e+00 -2.055839e+01 -8.269434e+00 6.551085e+00 -1.437891e+01 -7.449957e+00 -1.234051e+01 -1.016540e-02 7.894483e+00 -5.852904e+00 2.033655e+01 1.997663e+00 -7.307134e-01 8.281586e-02 -3.079907e+00 -3.066044e+00 2.173445e+00 -2.861431e+00 1.660341e-01 -1.963591e+00 -1.137358e-01 2.645463e+00 -1.708129e+00 7.939488e-01
<VARIANCE> 26
 1.445194e+01 3.669933e+01 2.351550e+01 7.463436e+01 5.109008e+01 3.345539e+01 7.520432e+01 5.282875e+01 5.253048e+01 4.919029e+01 7.320808e+01 3.313577e+01 2.628593e+00 4.232718e+00 3.209826e+00 4.081120e+00 6.750303e+00 4.773405e+00 3.012479e+00 4.642666e+00 4.244195e+00 6.136543e+00 4.964202e+00 5.273420e+00 3.756987e+00 2.912941e-01
<GCONST> 1.106182e+02
<STATE> 3
<MEAN> 26
 1.525538e+00 -3.695377e+00 -1.711869e+00 -2.709424e+01 -1.183146e+01 1.156391e+01 -1.580589e+01 -5.545804e+00 -1.440827e+01 1.700881e+00 1.109226e+01 -8.039409e+00 2.171182e+01 3.719123e-02 -6.156490e-02 -2.519684e-01 -3.362167e-01 2.484526e-02 1.731446e-01 3.621698e-01 -3.881832e-03 -2.065684e-01 -9.751058e-02 -3.647244e-01 3.563590e-03 2.615396e-02
<VARIANCE> 26
 5.133784e+00 3.239365e+01 2.522693e+01 3.726380e+01 3.130244e+01 1.653996e+01 4.774020e+01 3.531291e+01 3.526478e+01 8.505613e+01 4.215525e+01 2.947680e+01 3.378422e-01 3.943575e-01 1.161782e+00 1.340939e+00 3.127260e+00 2.082422e+00 1.931013e+00 3.580644e+00 1.767589e+00 2.465249e+00 2.437383e+00 2.613162e+00 1.959251e+00 2.818491e-02
<GCONST> 9.121712e+01
<STATE> 4
<MEAN> 26
 1.145749e+00 -1.762040e+00 7.551133e-02 -2.063365e+01 -7.775488e+00 6.786244e+00 -1.632255e+01 -6.937459e+00 -1.347066e+01 -3.396158e-01 6.598374e+00 -8.166728e+00 2.079076e+01 -3.525059e-01 9.500111e-01 7.807538e-01 3.676086e+00 2.184956e+00 -2.008150e+00 1.743345e+00 -2.555437e-02 1.390519e+00 -3.855198e-01 -2.555123e+00 8.578258e-01 -4.851661e-01
<VARIANCE> 26
 9.295602e+00 4.374110e+01 3.407373e+01 9.959075e+01 3.868747e+01 3.578172e+01 1.250451e+02 5.885197e+01 3.564935e+01 5.834866e+01 6.590388e+01 5.565283e+01 1.184663e+00 2.136271e+00 3.514862e+00 2.958818e+00 6.170731e+00 4.625216e+00 3.457043e+00 6.479805e+00 3.513254e+00 5.924724e+00 4.740031e+00 5.206048e+00 2.676046e+00 1.284968e-01
<GCONST> 1.088112e+02
<TRANSP> 5
 0.000000e+00 1.000000e+00 0.000000e+00 0.000000e+00 0.000000e+00
 0.000000e+00 5.899422e-01 4.100578e-01 0.000000e+00 0.000000e+00
 0.000000e+00 0.000000e+00 8.322736e-01 1.677264e-01 0.000000e+00
 0.000000e+00 0.000000e+00 0.000000e+00 6.184936e-01 3.815065e-01
 0.000000e+00 0.000000e+00 0.000000e+00 0.000000e+00 0.000000e+00
<ENDHMM>
~h "p"
<BEGINHMM>
<NUMSTATES> 5
<STATE> 2
<MEAN> 26
 -4.284554e+00 7.551400e+00 4.122253e+00 2.899374e+00 1.779511e+00 3.527355e-01 -4.027689e+00 -3.729104e+00 -6.558076e+00 -2.195147e+00 -1.295233e+00 -5.393945e+00 1.395140e+01 -3.029787e+00 2.082833e-01 -5.280628e-01 1.785563e+00 9.812308e-01 1.561363e-01 1.538027e+00 6.893781e-01 1.789338e+00 -5.654807e-02 -4.526140e-01 2.094153e-01 -1.654549e+00
<VARIANCE> 26
 5.043661e+01 2.676819e+01 2.428627e+01 2.210702e+01 2.113687e+01 1.891789e+01 3.666338e+01 2.396329e+01 3.669505e+01 2.823771e+01 2.488401e+01 1.899679e+01 8.422947e+00 3.334482e+00 7.853237e+00 3.609805e+00 8.874313e+00 2.408487e+00 3.335988e+00 3.976532e+00 3.267811e+00 3.139469e+00 3.906119e+00 3.044859e+00 2.360266e+00 5.457236e-01
<GCONST> 1.045342e+02
<STATE> 3
<MEAN> 26
 -1.345809e+01 2.171416e+00 -1.059638e-01 1.595613e+00 1.995437e+00 1.508479e+00 -3.171274e-01 1.611495e+00 1.823860e-01 1.724733e+00 1.531144e+00 -8.090217e-01 9.685963e+00 1.131907e-02 -7.520244e-01 -3.722784e-01 -1.174427e+00 -2.590690e-01 -2.356365e-01 6.221557e-02 -8.494984e-02 3.951396e-01 4.239450e-01 3.087808e-01 7.231959e-01 3.023635e-01
<VARIANCE> 26
 2.047522e+00 3.914475e+00 5.840040e+00 8.316996e+00 1.065665e+01 1.080977e+01 1.418466e+01 1.298358e+01 1.345449e+01 1.381486e+01 1.338487e+01 1.682113e+01 2.745739e+00 1.539471e+00 1.051273e+00 1.379385e+00 2.781282e+00 1.616370e+00 1.370817e+00 1.827355e+00 2.949995e+00 2.241593e+00 2.088795e+00 1.735447e+00 2.187487e+00 1.107193e+00
<GCONST> 8.264939e+01
<STATE> 4
<MEAN> 26
 -1.061831e+01 -1.980713e+00 7.871805e-01 -6.942298e+00 2.779457e+00 -7.379851e-01 -1.137397e+00 -3.678209e+00 -3.722979e-01 3.030986e+00 2.368922e-01 2.127597e+00 1.519514e+01 2.025973e+00 -1.246997e+00 -5.112921e-02 -3.361156e+00 -3.949437e-01 5.339058e-01 -1.720533e+00 -1.172097e+00 -1.199642e+00 1.765112e-01 8.753232e-03 -6.836487e-01 1.981570e+00
<VARIANCE> 26
 1.661989e+01 1.475373e+01 1.723454e+01 2.029154e+01 1.897752e+01 2.304220e+01 2.151870e+01 2.274871e+01 2.711155e+01 1.685742e+01 1.678225e+01 1.959005e+01 4.625152e+00 4.688120e+00 2.925381e+00 3.352605e+00 6.431502e+00 4.299082e+00 5.391757e+00 5.410612e+00 3.094257e+00 5.259763e+00 3.375403e+00 3.235899e+00 4.108574e+00 1.083522e+00
<GCONST> 1.020644e+02
<TRANSP> 5
 0.000000e+00 1.000000e+00 0.000000e+00 0.000000e+00 0.000000e+00
 0.000000e+00 6.839861e-01 3.160139e-01 0.000000e+00 0.000000e+00
 0.000000e+00 0.000000e+00 7.839413e-01 2.160587e-01 0.000000e+00
 0.000000e+00 0.000000e+00 0.000000e+00 5.650806e-01 4.349194e-01
 0.000000e+00 0.000000e+00 0.000000e+00 0.000000e+00 0.000000e+00
<ENDHMM>
~h "q"
<BEGINHMM>
<NUMSTATES> 5
<STATE> 2
<MEAN> 26
 -1.638872e+00 -3.740654e+00 6.026666e+00 -1.475239e+01 -5.519749e+00 2.902665e+00 -1.868216e+01 -5.952646e+00 -9.218075e+00 3.056706e+00 4.442759e+00 -6.487053e+00 2.022958e+01 1.452424e+00 -1.482649e+00 8.034313e-02 -6.742447e-01 -1.452919e+00 3.920313e-01 -3.539653e+00 5.944967e-01 -9.893699e-01 1.132611e+00 1.856380e+00 -1.959116e+00 4.253522e-01
<VARIANCE> 26
 1.705595e+01 2.131129e+01 4.148526e+01 6.581652e+01 5.312568e+01 6.695160e+01 7.488885e+01 4.828644e+01 2.969746e+01 5.112677e+01 3.138382e+01 3.413540e+01 1.723388e+00 4.160277e+00 2.083653e+00 2.530547e+00 4.350198e+00 5.431552e+00 4.361769e+00 6.748497e+00 3.747968e+00 3.765960e+00 3.274472e+00 4.022521e+00 3.625605e+00 1.624970e-01
<GCONST> 1.071378e+02
<STATE> 3
<MEAN> 26
 -1.043279e+00 -6.394205e+00 7.237162e+00 -1.314053e+01 -6.955359e+00 1.071543e+00 -2.593521e+01 -2.960834e+00 -9.121319e+00 3.582530e+00 7.146399e+00 -1.078758e+01 2.074199e+01 1.803278e-01 3.766829e-01 -1.502423e-01 2.459376e-01 5.683218e-01 -2.735759e-01 4.045868e-01 2.907666e-01 -3.425554e-01 2.341114e-01 -2.816027e-01 3.447635e-01 -1.077881e-01
<VARIANCE> 26
 1.072546e+01 1.273433e+01 3.290780e+01 2.488474e+01 3.129308e+01 2.397154e+01 4.935838e+01 4.484689e+01 3.478496e+01 5.608393e+01 3.181596e+01 2.011045e+01 1.301823e+00 5.492272e-01 1.364040e+00 1.865479e+00 3.635111e+00 2.319848e+00 2.830779e+00 3.199634e+00 2.995318e+00 1.920184e+00 4.183655e+00 2.346384e+00 1.788760e+00 4.994845e-02
<GCONST> 9.432206e+01
<STATE> 4
<MEAN> 26
 1.179492e+00 -1.332772e+00 1.295960e+00 -9.487962e+00 3.491147e+00 -8.469276e-01 -9.060799e+00 -2.860544e+00 -8.158188e+00 2.392571e+00 4.933437e-01 -3.287526e+00 1.868221e+01 -5.108700e-01 1.662104e+00 2.838931e-02 2.464425e+00 1.114481e+00 2.851630e-01 3.084508e+00 -4.433317e-01 1.529115e+00 -1.052141e+00 -8.716333e-01 1.043058e+00 -5.090922e-01
<VARIANCE> 26
 2.008250e+01 2.470801e+01 5.507278e+01 5.292552e+01 7.477678e+01 4.548060e+01 1.801578e+02 3.782648e+01 4.433308e+01 7.299885e+01 4.580096e+01 3.388882e+01 2.448828e+00 2.383595e+00 3.267527e+00 2.043780e+00 3.759979e+00 3.440771e+00 4.666681e+00 4.601028e+00 4.132375e+00 3.842346e+00 3.392952e+00 3.326924e+00 2.783219e+00 1.558845e-01
<GCONST> 1.080011e+02
<TRANSP> 5
 0.000000e+00 1.000000e+00 0.000000e+00 0.000000e+00 0.000000e+00
 0.000000e+00 5.105972e-01 4.894028e-01 0.000000e+00 0.000000e+00
 0.000000e+00 0.000000e+00 6.871854e-01 3.128146e-01 0.000000e+00
 0.000000e+00 0.000000e+00 0.000000e+00 6.330655e-01 3.669345e-01
 0.000000e+00 0.000000e+00 0.000000e+00 0.000000e+00 0.000000e+00
<ENDHMM>
~h "r"
<BEGINHMM>
<NUMSTATES> 5
<STATE> 2
<MEAN> 26
 -2.612335e+00 -8.479891e-02 -2.287265e+00 -2.125460e+01 1.025440e+00 7.362086e+00 -5.154413e+00 -8.593684e+00 -3.293261e+00 3.774502e+00 -1.778057e+00 -1.177195e+00 1.886099e+01 -8.660774e-01 1.841798e+00 -7.782398e-01 5.317683e-01 1.450398e+00 1.214796e+00 7.178463e-01 -6.435886e-01 1.486179e+00 -6.081189e-01 -2.066711e-01 1.303976e+00 -3.975864e-01
<VARIANCE> 26
 1.681656e+01 4.060955e+01 2.352120e+01 4.780200e+01 8.219579e+01 3.894201e+01 5.307064e+01 3.771759e+01 4.725320e+01 5.602645e+01 3.513113e+01 3.057477e+01 2.107533e+00 2.501750e+00 3.106915e+00 2.605999e+00 6.051304e+00 5.036606e+00 5.257059e+00 5.153253e+00 4.213137e+00 4.429630e+00 3.803842e+00 4.099185e+00 3.256364e+00 2.846768e-01
<GCONST> 1.079374e+02
<STATE> 3
<MEAN> 26
 -8.641510e+00 1.132526e+00 -5.117041e+00 -1.703438e+01 9.013024e+00 1.220156e+01 -4.974678e+00 -6.461032e+00 1.829444e+00 2.575339e+00 4.429853e-01 2.432318e+00 1.709507e+01 -4.326877e-01 2.532497e-02 -1.823381e-01 4.696799e-01 -1.588636e-02 -2.059992e-01 1.535466e-01 4.133630e-01 1.201515e-01 -1.398554e-01 3.822737e-01 2.608671e-01 -2.102035e-01
<VARIANCE> 26
 1.676866e+01 2.261150e+01 1.572550e+01 3.238427e+01 7.553546e+01 3.857234e+01 4.229026e+01 3.301910e+01 3.289128e+01 3.267148e+01 2.927274e+01 2.262029e+01 2.669945e+00 1.261274e+00 1.371168e+00 1.647545e+00 2.143121e+00 3.181257e+00 3.057305e+00 2.771992e+00 3.467734e+00 2.794634e+00 3.108905e+00 2.527491e+00 1.890294e+00 1.075508e-01
<GCONST> 9.747515e+01
<STATE> 4
<MEAN> 26
 -5.013173e+00 2.678439e+00 -3.546009e+00 -1.762982e+01 3.221321e-01 6.083914e+00 -3.420236e+00 -6.807233e+00 -9.859628e-01 1.526362e+00 3.046402e-01 1.791525e+00 1.752351e+01 7.325480e-01 -4.617506e-01 8.948752e-01 9.859754e-01 -1.299332e+00 -1.281595e+00 -3.877961e-02 4.295319e-01 -1.112373e+00 -1.021180e-01 2.967940e-01 -6.635159e-01 7.419965e-02
<VARIANCE> 26
 3.253444e+01 5.038409e+01 3.344851e+01 5.229542e+01 8.956980e+01 4.316291e+01 5.562296e+01 4.732695e+01 6.240310e+01 4.042316e+01 3.251145e+01 3.240494e+01 5.895056e+00 2.513769e+00 2.762081e+00 3.164463e+00 6.023355e+00 5.597405e+00 3.744972e+00 3.655485e+00 4.532538e+00 3.975999e+00 3.405231e+00 3.505974e+00 2.664497e+00 3.985291e-01
<GCONST> 1.100121e+02
<TRANSP> 5
 0.000000e+00 1.000000e+00 0.000000e+00 0.000000e+00 0.000000e+00
 0.000000e+00 5.921920e-01 4.078081e-01 0.000000e+00 0.000000e+00
 0.000000e+00 0.000000e+00 6.528377e-01 3.471623e-01 0.000000e+00
 0.000000e+00 0.000000e+00 0.000000e+00 5.668725e-01 4.331274e-01
 0.000000e+00 0.000000e+00 0.000000e+00 0.000000e+00 0.000000e+00
<ENDHMM>
~h "s"
<BEGINHMM>
<NUMSTATES> 5
<STATE> 2
<MEAN> 26
 -1.906747e+01 3.446918e+00 -8.973908e-01 -7.292152e+00 3.222020e+00 -2.216427e+00 -1.802438e+00 -1.867260e+00 -2.484157e+00 1.818106e+00 -1.364244e+00 8.516839e-01 1.614848e+01 -3.906856e+00 -4.703372e-01 -2.160093e+00 -5.216010e-01 2.121919e-01 5.829762e-01 4.780785e-01 3.875979e-01 7.466214e-01 5.880500e-01 4.226327e-01 1.113196e+00 -2.286128e-01
<VARIANCE> 26
 4.573997e+01 3.418810e+01 3.931783e+01 3.348386e+01 3.320074e+01 4.241843e+01 2.670092e+01 3.636408e+01 3.042991e+01 2.414409e+01 2.574373e+01 2.040709e+01 5.738015e+00 3.810625e+00 3.724517e+00 5.067581e+00 5.592003e+00 4.306669e+00 5.167489e+00 4.193939e+00 3.174008e+00 4.313342e+00 2.822006e+00 2.578842e+00 2.610753e+00 4.076641e-01
<GCONST> 1.062584e+02
<STATE> 3
<MEAN> 26
 -2.823067e+01 1.775485e+00 -8.844126e+00 -1.134319e+01 -3.737710e-01 -1.533185e+00 -3.973008e+00 -2.405804e+00 -3.440872e+00 2.649764e+00 3.799977e-01 3.619135e+00 1.669199e+01 -2.126752e-01 -9.259004e-03 3.585755e-02 -1.950825e-01 -2.259149e-01 2.001949e-02 -2.427559e-01 -2.076927e-01 -2.219567e-02 -7.164190e-02 -2.101765e-03 1.066072e-01 6.013970e-02
<VARIANCE> 26
 5.997378e+00 8.883759e+00 2.284501e+01 3.040709e+01 2.859136e+01 2.746315e+01 2.099529e+01 2.458095e+01 2.133794e+01 1.812101e+01 1.360703e+01 1.349443e+01 9.166851e-01 6.021370e-01 7.287330e-01 1.730606e+00 1.343745e+00 1.778110e+00 2.026032e+00 1.742022e+00 1.791131e+00 1.800275e+00 1.763332e+00 1.467081e+00 1.442646e+00 4.383664e-02
<GCONST> 8.351676e+01
<STATE> 4
<MEAN> 26
 -2.498911e+01 1.770686e+00 -2.305437e+00 -1.081508e+01 9.496873e-01 -9.634783e-01 -3.686033e+00 -3.801187e+00 -2.533445e+00 2.072095e+00 -1.762725e+00 2.486961e+00 1.672139e+01 3.987527e+00 5.012114e-02 2.974950e+00 5.260993e-01 -2.722065e-01 -6.165116e-01 -1.120077e+00 -4.161860e-01 -1.124876e+00 -6.046084e-01 -4.425482e-01 -1.511140e+00 2.037394e-01
<VARIANCE> 26
 2.762754e+01 2.857487e+01 4.938227e+01 3.347350e+01 4.675701e+01 4.494463e+01 2.485891e+01 2.879602e+01 2.359572e+01 2.064444e+01 1.778624e+01 2.089525e+01 1.759908e+00 5.927817e+00 3.148797e+00 4.458601e+00 5.402889e+00 3.446072e+00 5.573769e+00 5.508618e+00 3.053726e+00 3.149941e+00 3.813466e+00 2.723760e+00 3.239103e+00 5.396036e-01
<GCONST> 1.046948e+02
<TRANSP> 5
 0.000000e+00 1.000000e+00 0.000000e+00 0.000000e+00 0.000000e+00
 0.000000e+00 7.266138e-01 2.733862e-01 0.000000e+00 0.000000e+00
 0.000000e+00 0.000000e+00 8.843911e-01 1.156089e-01 0.000000e+00
 0.000000e+00 0.000000e+00 0.000000e+00 6.376367e-01 3.623634e-01
 0.000000e+00 0.000000e+00 0.000000e+00 0.000000e+00 0.000000e+00
<ENDHMM>
~h "t"
<BEGINHMM>
<NUMSTATES> 5
<STATE> 2
<MEAN> 26
 -4.874249e+00 8.197176e+00 6.175378e+00 2.092147e+00 3.118894e-01 -3.183781e+00 -4.802400e+00 -2.533738e+00 -6.474097e+00 -1.627800e+00 -2.306044e+00 -4.107902e+00 1.469416e+01 -2.021515e+00 2.217450e-01 -1.206725e+00 1.695835e+00 8.869926e-01 1.016607e+00 1.330804e+00 4.551171e-01 1.534098e+00 -7.442702e-01 -1.591010e-01 8.787709e-02 -1.712474e+00
<VARIANCE> 26
 4.593584e+01 3.457147e+01 3.562677e+01 3.478752e+01 3.977961e+01 4.103658e+01 3.413177e+01 2.784276e+01 4.085709e+01 3.427096e+01 2.519798e+01 2.421311e+01 7.505983e+00 4.474854e+00 8.680596e+00 4.200802e+00 9.022220e+00 3.869945e+00 4.592269e+00 3.671469e+00 3.654043e+00 3.659250e+00 2.949614e+00 2.859133e+00 2.793826e+00 5.267083e-01
<GCONST> 1.087901e+02
<STATE> 3
<MEAN> 26
 -1.335604e+01 2.491295e+00 4.436449e-01 1.024473e+00 1.882873e+00 1.208331e+00 -8.699989e-01 9.227100e-01 -6.193681e-01 7.204435e-01 5.945503e-01 -1.155467e+00 9.843538e+00 -9.478883e-01 -1.936004e+00 -7.655236e-01 -1.957645e+00 -3.341740e-01 3.437956e-01 1.519940e-01 -7.375314e-02 5.821654e-01 6.023646e-01 3.721990e-01 9.339004e-01 2.848589e-01
<VARIANCE> 26
 5.094668e+00 7.922542e+00 8.414793e+00 1.722455e+01 1.233350e+01 1.311229e+01 1.547433e+01 1.617771e+01 1.839058e+01 1.584746e+01 1.624021e+01 1.573789e+01 2.983409e+00 2.494075e+00 3.901198e+00 3.253806e+00 6.648910e+00 2.334886e+00 3.326669e+00 2.385422e+00 3.225516e+00 3.576453e+00 2.502771e+00 1.999334e+00 2.768568e+00 1.376286e+00
<GCONST> 9.304139e+01
<STATE> 4
<MEAN> 26
 -1.734027e+01 -4.236620e+00 -9.319859e-01 -1.263673e+01 1.225314e+00 -8.057964e-01 -4.133834e+00 -3.457266e+00 -1.341170e+00 2.415027e+00 1.222393e-01 3.479004e+00 1.613141e+01 3.781090e-01 6.844535e-02 3.917104e-01 -1.676762e+00 1.072031e-01 -6.348956e-01 -1.477525e+00 -5.509879e-01 -5.551754e-01 2.291497e-01 -1.700011e-01 -2.560454e-01 1.249748e+00
<VARIANCE> 26
 2.823359e+01 3.900347e+01 4.007515e+01 3.361590e+01 4.085224e+01 4.450988e+01 2.971539e+01 3.415342e+01 3.132033e+01 2.266139e+01 2.221992e+01 2.118981e+01 2.831230e+00 6.044731e+00 4.792913e+00 6.093595e+00 7.527290e+00 4.595444e+00 4.920970e+00 5.262823e+00 3.725021e+00 4.274771e+00 3.719716e+00 2.616313e+00 4.651423e+00 9.159923e-01
<GCONST> 1.086470e+02
<TRANSP> 5
 0.000000e+00 1.000000e+00 0.000000e+00 0.000000e+00 0.000000e+00
 0.000000e+00 6.166373e-01 3.833626e-01 0.000000e+00 0.000000e+00
 0.000000e+00 0.000000e+00 6.904067e-01 3.095933e-01 0.000000e+00
 0.000000e+00 0.000000e+00 0.000000e+00 7.335642e-01 2.664359e-01
 0.000000e+00 0.000000e+00 0.000000e+00 0.000000e+00 0.000000e+00
<ENDHMM>
~h "u"
<BEGINHMM>
<NUMSTATES> 5
<STATE> 2
<MEAN> 26
 4.572093e-01 4.455028e+00 1.763427e+00 -1.293731e+01 -5.442145e+00 1.839502e+00 -1.075129e+01 -6.654886e+00 -1.170852e+01 -8.015071e+00 3.973840e+00 -5.388786e+00 1.940015e+01 3.088449e+00 1.553272e+00 8.364605e-02 -2.757455e+00 -2.740665e+00 1.450752e+00 -1.236293e+00 -5.470426e-01 -2.057389e+00 -3.027706e+00 1.816772e+00 -1.042398e+00 8.027955e-01
<VARIANCE> 26
 2.675063e+01 3.390230e+01 9.721210e+00 6.226806e+01 7.047598e+01 5.175916e+01 4.665959e+01 7.932777e+01 3.974832e+01 5.359977e+01 6.461998e+01 4.948287e+01 1.144302e+00 4.236929e+00 2.682159e+00 2.218525e+00 4.823527e+00 6.969479e+00 4.090971e+00 4.588277e+00 6.611592e+00 6.309823e+00 6.499545e+00 4.278200e+00 4.609800e+00 4.630472e-01
<GCONST> 1.107771e+02
<STATE> 3
<MEAN> 26
 3.554937e+00 5.070704e+00 7.233863e-01 -1.671442e+01 -1.357240e+01 6.326948e+00 -1.112609e+01 -5.762537e+00 -1.318474e+01 -1.506165e+01 6.283823e+00 -6.534754e+00 2.054775e+01 1.268790e-01 1.666826e-01 -8.999653e-02 -4.694367e-01 -5.193939e-01 1.687889e-01 7.159324e-02 3.290343e-01 -1.912771e-01 2.242410e-01 -3.606760e-01 -3.188468e-01 1.925626e-04
<VARIANCE> 26
 1.068334e+01 1.088093e+01 1.611012e+01 1.115131e+02 4.594749e+01 3.481831e+01 3.001873e+01 4.621346e+01 3.947603e+01 5.684448e+01 5.280140e+01 4.799966e+01 3.579069e-01 4.441301e-01 1.060734e+00 9.454120e-01 2.102844e+00 2.622034e+00 2.523833e+00 2.572119e+00 3.021470e+00 2.525212e+00 3.163276e+00 2.730157e+00 2.181414e+00 1.986125e-02
<GCONST> 9.299107e+01
<STATE> 4
<MEAN> 26
 2.588432e+00 5.356731e+00 2.036889e+00 -1.570342e+01 -8.940638e+00 4.377577e+00 -1.109800e+01 -5.772692e+00 -1.446002e+01 -8.840549e+00 4.438815e+00 -5.909733e+00 1.977264e+01 -1.037260e+00 -6.728655e-02 4.170170e-01 3.994251e-01 1.720378e+00 -6.129785e-01 7.639421e-01 -1.395903e+00 1.108184e+00 2.240855e+00 -1.575105e+00 1.279908e+00 -3.103831e-01
<VARIANCE> 26
 1.525240e+01 2.150500e+01 2.018049e+01 1.187146e+02 6.624590e+01 3.944571e+01 4.542046e+01 9.975011e+01 6.329603e+01 5.223436e+01 5.457938e+01 5.709087e+01 7.296989e-01 1.065176e+00 1.858845e+00 2.138484e+00 3.840544e+00 6.251978e+00 4.136002e+00 4.237695e+00 4.797648e+00 4.875208e+00 7.496756e+00 5.502635e+00 3.341175e+00 7.776316e-02
<GCONST> 1.064886e+02
<TRANSP> 5
 0.000000e+00 1.000000e+00 0.000000e+00 0.000000e+00 0.000000e+00
 0.000000e+00 5.914650e-01 4.085350e-01 0.000000e+00 0.000000e+00
 0.000000e+00 0.000000e+00 8.171718e-01 1.828283e-01 0.000000e+00
 0.000000e+00 0.000000e+00 0.000000e+00 6.518292e-01 3.481708e-01
 0.000000e+00 0.000000e+00 0.000000e+00 0.000000e+00 0.000000e+00
<ENDHMM>
~h "v"
<BEGINHMM>
<NUMSTATES> 5
<STATE> 2
<MEAN> 26
 -1.958742e+00 2.525936e+00 3.470152e+00 -5.642906e+00 4.107084e+00 8.720124e-01 -1.024366e+01 -7.208059e+00 -7.997488e+00 4.067225e+00 4.519081e+00 -7.011550e-01 1.784452e+01 -5.880909e-01 1.533731e+00 5.315732e-01 1.399019e+00 1.621624e+00 8.284516e-01 7.177193e-01 -1.381780e+00 1.041129e-01 -2.463032e-01 -3.546015e-01 4.250597e-01 -4.212056e-02
<VARIANCE> 26
 1.847318e+01 1.104888e+01 1.546712e+01 2.865786e+01 1.703305e+01 3.488683e+01 3.298291e+01 3.131627e+01 3.177810e+01 2.674555e+01 1.620086e+01 1.348109e+01 4.274282e+00 4.863186e+00 2.511589e+00 1.843975e+00 6.382099e+00 2.443287e+00 1.808203e+00 6.163515e+00 2.534630e+00 4.760160e+00 2.946282e+00 2.079418e+00 1.218228e+00 6.023936e-01
<GCONST> 9.837496e+01
<STATE> 3
<MEAN> 26
 -7.995416e+00 7.630662e+00 6.808723e+00 2.354181e-01 7.336734e+00 4.396967e+00 -5.942861e+00 -8.171600e+00 -7.355664e+00 1.603977e+00 -3.251919e-01 5.720581e-01 1.756515e+01 -1.037745e+00 -2.306282e-02 1.851719e-01 3.273230e-01 9.805679e-02 3.760448e-01 6.279092e-01 3.102317e-01 -2.459159e-02 -2.343713e-01 -6.712157e-01 1.364282e-01 -1.139544e-01
<VARIANCE> 26
 8.497394e+00 7.202658e+00 1.978571e+01 1.786965e+01 1.667110e+01 2.222841e+01 2.253025e+01 1.981291e+01 1.785489e+01 1.235098e+01 1.578874e+01 8.976040e+00 2.858609e-01 7.942356e-01 1.321381e+00 1.288867e+00 1.476976e+00 1.482092e+00 1.405284e+00 1.490983e+00 1.935516e+00 1.012937e+00 1.552853e+00 1.689822e+00 9.698557e-01 2.543871e-02
<GCONST> 7.864198e+01
<STATE> 4
<MEAN> 26
 -8.144536e+00 3.604326e+00 4.191592e+00 -4.027484e+00 4.080717e+00 4.070239e+00 -5.522570e+00 -6.626771e+00 -7.363475e+00 5.841398e-01 -1.331473e-01 4.970744e-01 1.799958e+01 1.297051e+00 -1.974640e+00 -3.495771e-01 -2.706759e+00 -2.251467e+00 -8.886233e-01 -2.007263e+00 8.648957e-01 3.869049e-01 -2.456194e-01 1.274551e+00 -8.850200e-01 4.841219e-01
<VARIANCE> 26
 7.870828e+00 1.112546e+01 2.235696e+01 2.276670e+01 1.903573e+01 2.009907e+01 2.289747e+01 1.750225e+01 1.714650e+01 1.616641e+01 1.602686e+01 1.039740e+01 4.120182e-01 1.859239e+00 1.992977e+00 2.693418e+00 2.634913e+00 2.180172e+00 2.502820e+00 3.121701e+00 2.174696e+00 1.505190e+00 2.968181e+00 2.492052e+00 1.879515e+00 6.872778e-02
<GCONST> 8.752879e+01
<TRANSP> 5
 0.000000e+00 1.000000e+00 0.000000e+00 0.000000e+00 0.000000e+00
 0.000000e+00 6.343984e-01 3.656016e-01 0.000000e+00 0.000000e+00
 0.000000e+00 0.000000e+00 7.531777e-01 2.468223e-01 0.000000e+00
 0.000000e+00 0.000000e+00 0.000000e+00 5.616301e-01 4.383699e-01
 0.000000e+00 0.000000e+00 0.000000e+00 0.000000e+00 0.000000e+00
<ENDHMM>
~h "w"
<BEGINHMM>
<NUMSTATES> 5
<STATE> 2
<MEAN> 26
 6.304616e-02 4.755519e+00 1.315045e+00 -1.557667e+01 -7.323479e+00 2.491809e+00 -5.664025e+00 -2.956197e+00 -8.830910e+00 -3.840298e+00 3.718166e+00 -2.038401e+00 1.827052e+01 3.052675e+00 4.987153e-01 -8.271249e-03 -2.449327e+00 -2.064531e+00 3.431033e-01 -1.378371e+00 1.609987e+00 -2.494406e+00 -1.555486e+00 6.176718e-01 -1.843093e+00 8.131776e-01
<VARIANCE> 26
 3.491592e+01 3.336943e+01 2.619118e+01 7.370066e+01 4.897857e+01 4.753480e+01 5.128625e+01 7.527516e+01 7.909595e+01 5.301231e+01 4.890324e+01 4.758688e+01 6.209344e+00 4.751722e+00 4.390795e+00 2.669466e+00 5.660577e+00 5.332617e+00 5.006927e+00 5.133150e+00 4.232411e+00 6.060725e+00 5.007531e+00 3.701699e+00 3.193152e+00 4.649266e-01
<GCONST> 1.135752e+02
<STATE> 3
<MEAN> 26
 5.690288e+00 3.473478e+00 1.010940e+00 -1.636468e+01 -1.193243e+01 5.014725e+00 -8.594227e+00 1.854770e-01 -1.215210e+01 -6.584682e+00 4.487062e+00 -6.020879e+00 2.009653e+01 5.422711e-02 -3.770590e-01 -2.353926e-02 -8.224678e-01 -4.655531e-01 2.770445e-01 -1.482068e-01 5.135258e-01 -3.016007e-01 3.627461e-01 2.331947e-01 2.271843e-02 1.027105e-01
<VARIANCE> 26
 1.572888e+01 2.389066e+01 1.781398e+01 7.657886e+01 3.981059e+01 5.160698e+01 3.286970e+01 3.933733e+01 3.480532e+01 3.385803e+01 3.934739e+01 2.449361e+01 5.218503e-01 1.066021e+00 1.333758e+00 1.619759e+00 3.252199e+00 2.507611e+00 2.669553e+00 2.362702e+00 2.869991e+00 2.462440e+00 2.306476e+00 2.412715e+00 1.890281e+00 5.788858e-02
<GCONST> 9.525104e+01
<STATE> 4
<MEAN> 26
 3.087075e+00 -4.622470e+00 -4.039040e+00 -2.737286e+01 -8.856462e+00 1.148483e+01 -8.479192e+00 2.538222e+00 -1.379941e+01 -7.955796e-01 6.569901e+00 -5.107851e+00 2.135694e+01 -4.462651e-01 -1.543017e+00 -9.826791e-01 -7.656166e-02 2.119569e+00 3.726846e-01 -3.791617e-01 -1.827991e-01 -8.965960e-02 8.095162e-01 2.478989e-01 -5.281580e-01 1.344347e-01
<VARIANCE> 26
 9.480350e+00 2.582535e+01 3.252997e+01 8.273015e+01 6.058028e+01 2.169503e+01 4.565307e+01 3.908661e+01 2.846949e+01 5.058691e+01 4.543671e+01 2.354671e+01 6.123310e-01 3.599791e-01 1.092147e+00 1.804665e+00 2.765745e+00 2.113029e+00 1.793877e+00 2.468792e+00 2.161166e+00 2.178073e+00 3.516362e+00 1.870630e+00 2.287988e+00 3.744233e-02
<GCONST> 9.349425e+01
<TRANSP> 5
 0.000000e+00 1.000000e+00 0.000000e+00 0.000000e+00 0.000000e+00
 0.000000e+00 5.448932e-01 4.551068e-01 0.000000e+00 0.000000e+00
 0.000000e+00 0.000000e+00 8.281207e-01 1.718793e-01 0.000000e+00
 0.000000e+00 0.000000e+00 0.000000e+00 7.425149e-01 2.574851e-01
 0.000000e+00 0.000000e+00 0.000000e+00 0.000000e+00 0.000000e+00
<ENDHMM>
~h "x"
<BEGINHMM>
<NUMSTATES> 5
<STATE> 2
<MEAN> 26
 -1.153543e+00 -4.116908e+00 4.103696e+00 -1.076112e+01 -4.850502e+00 1.990433e+00 -2.371159e+01 -9.248310e+00 -1.041932e+01 7.756379e-01 1.106983e+01 -8.235544e+00 2.017649e+01 1.908419e+00 -7.157339e-01 -2.794778e-01 -1.769361e+00 -1.679613e+00 2.109589e+00 -4.340201e+00 -6.082063e-02 -1.533432e+00 6.288099e-01 2.995042e+00 -2.318031e+00 8.697032e-01
<VARIANCE> 26
 4.571851e+00 8.273045e+00 1.101353e+01 3.284404e+01 1.553314e+01 3.441788e+01 4.294429e+01 3.235962e+01 6.080263e+01 5.086132e+01 2.241398e+01 2.205611e+01 1.315400e+00 2.342233e+00 1.344641e+00 1.060652e+00 2.296821e+00 1.806911e+00 2.410757e+00 5.339283e+00 3.792334e+00 5.633931e+00 3.623616e+00 2.204725e+00 2.194003e+00 8.627344e-01
<GCONST> 9.630339e+01
<STATE> 3
<MEAN> 26
 -1.367286e-01 -4.894860e+00 2.403559e+00 -1.294436e+01 -9.582873e+00 7.463317e+00 -2.878837e+01 -1.059620e+01 -9.593189e+00 1.800413e-01 1.592100e+01 -1.240431e+01 2.133559e+01 -5.524305e-02 7.671264e-02 1.278658e-02 -1.530902e-01 -1.133856e-01 4.340211e-02 6.142634e-02 -1.328123e-01 -2.441197e-01 3.030308e-02 -2.358883e-01 -5.270521e-02 -4.879185e-04
<VARIANCE> 26
 1.880414e+00 5.248740e+00 7.164185e+00 2.594531e+01 9.815716e+00 1.776581e+01 1.462425e+01 1.761977e+01 2.022273e+01 1.695350e+01 8.613156e+00 2.267383e+01 1.795498e-01 1.981283e-01 4.908638e-01 1.506195e+00 1.262922e+00 1.355223e+00 1.278799e+00 1.292022e+00 1.078496e+00 1.887247e+00 1.082314e+00 1.086082e+00 1.481165e+00 1.098154e-02
<GCONST> 7.127914e+01
<STATE> 4
<MEAN> 26
 2.998632e-01 -1.857278e+00 4.864696e+00 -1.231876e+01 -2.475750e+00 4.254432e+00 -2.085911e+01 -6.192373e+00 -1.162148e+01 1.924169e+00 8.310289e+00 -8.370221e+00 1.980965e+01 -2.831387e-01 1.492190e+00 2.706540e-01 8.618247e-01 2.120761e+00 -5.562660e-01 3.365975e+00 6.215054e-01 3.941069e-02 4.355877e-01 -2.449041e+00 1.311187e+00 -5.360983e-01
<VARIANCE> 26
 7.683169e+00 1.776657e+01 1.359348e+01 4.891315e+01 5.487613e+01 3.926820e+01 6.229898e+01 4.521413e+01 3.408459e+01 3.277015e+01 2.947294e+01 2.257173e+01 1.841389e+00 8.287416e-01 2.418313e+00 2.036257e+00 5.744654e+00 2.538942e+00 3.740107e+00 2.853719e+00 1.065310e+00 2.180125e+00 4.086297e+00 2.166128e+00 2.040906e+00 1.027316e-01
<GCONST> 9.686376e+01
<TRANSP> 5
 0.000000e+00 1.000000e+00 0.000000e+00 0.000000e+00 0.000000e+00
 0.000000e+00 6.419587e-01 3.580413e-01 0.000000e+00 0.000000e+00
 0.000000e+00 0.000000e+00 8.496562e-01 1.503439e-01 0.000000e+00
 0.000000e+00 0.000000e+00 0.000000e+00 7.286938e-01 2.713062e-01
 0.000000e+00 0.000000e+00 0.000000e+00 0.000000e+00 0.000000e+00
<ENDHMM>
~h "y"
<BEGINHMM>
<NUMSTATES> 5
<STATE> 2
<MEAN> 26
 -7.635995e+00 -7.429219e-01 1.405662e+01 4.837815e+00 -6.524859e+00 -6.618175e+00 -1.115061e+01 3.707675e-01 -1.292822e+01 -8.056226e+00 -4.818702e-01 2.074097e+00 1.814119e+01 1.679953e+00 -2.787922e-01 2.089931e+00 1.172848e+00 -6.193258e-01 -2.143782e+00 -3.001443e+00 1.364183e+00 -1.651965e+00 -3.499146e+00 1.094327e+00 6.344290e-01 7.844818e-01
<VARIANCE> 26
 2.648172e+01 2.339143e+01 4.087440e+01 2.566069e+01 2.924147e+01 4.853954e+01 9.725197e+01 4.923108e+01 5.876466e+01 6.792585e+01 2.714302e+01 2.639826e+01 5.529989e+00 4.579941e+00 2.731708e+00 4.673715e+00 3.086746e+00 2.740385e+00 5.218724e+00 7.631395e+00 2.838984e+00 6.018053e+00 5.024220e+00 2.138463e+00 2.531657e+00 5.519369e-01
<GCONST> 1.089129e+02
<STATE> 3
<MEAN> 26
 -3.116161e+00 -4.125552e+00 1.584651e+01 5.434468e+00 -1.056011e+01 -7.484737e+00 -2.059862e+01 2.908422e+00 -1.352642e+01 -2.001912e+01 4.756452e+00 2.443878e+00 2.017693e+01 1.780051e-01 -2.722635e-01 -8.542070e-02 -6.306892e-01 -6.746700e-01 3.435619e-01 -3.606350e-01 -3.728920e-02 1.658883e-01 -2.084817e-01 2.543230e-01 -4.660009e-01 9.856218e-02
<VARIANCE> 26
 7.189350e+00 1.639452e+01 1.745961e+01 2.288939e+01 2.926925e+01 1.901979e+01 4.014115e+01 4.251529e+01 4.225288e+01 3.181549e+01 2.223385e+01 2.130970e+01 4.165911e-01 8.006546e-01 1.036266e+00 2.492179e+00 2.293443e+00 2.572641e+00 2.738115e+00 4.915515e+00 2.755198e+00 2.114436e+00 4.343408e+00 1.769112e+00 1.538310e+00 3.911852e-02
<GCONST> 9.089000e+01
<STATE> 4
<MEAN> 26
 -2.435579e+00 -4.103504e+00 1.373292e+01 -3.647300e+00 -1.200650e+01 -8.022164e-01 -1.908764e+01 -3.093043e+00 -1.129085e+01 -8.537273e+00 4.137195e+00 -3.430406e+00 2.027280e+01 1.083582e-01 1.000563e+00 -1.331789e+00 -1.663549e+00 2.704164e-01 2.249262e+00 1.767625e+00 -2.224083e+00 5.029148e-01 3.263061e+00 -1.048251e+00 -8.005819e-01 -1.420326e-01
<VARIANCE> 26
 1.219062e+01 1.884430e+01 7.356271e+01 6.631924e+01 3.294202e+01 8.334924e+01 7.489715e+01 4.268061e+01 3.809292e+01 9.372827e+01 3.833676e+01 3.711789e+01 7.273311e-01 1.411828e+00 2.198876e+00 3.270204e+00 4.737134e+00 2.590216e+00 5.819993e+00 5.821502e+00 4.494155e+00 4.321951e+00 3.356293e+00 3.495136e+00 5.404187e+00 9.858809e-02
<GCONST> 1.059713e+02
<TRANSP> 5
 0.000000e+00 1.000000e+00 0.000000e+00 0.000000e+00 0.000000e+00
 0.000000e+00 6.159101e-01 3.840899e-01 0.000000e+00 0.000000e+00
 0.000000e+00 0.000000e+00 7.667076e-01 2.332924e-01 0.000000e+00
 0.000000e+00 0.000000e+00 0.000000e+00 6.905823e-01 3.094177e-01
 0.000000e+00 0.000000e+00 0.000000e+00 0.000000e+00 0.000000e+00
<ENDHMM>
~h "z"
<BEGINHMM>
<NUMSTATES> 5
<STATE> 2
<MEAN> 26
 -9.410742e+00 1.000466e+01 3.577959e+00 -3.966916e+00 9.599532e-01 -6.838060e+00 -1.025440e+01 -7.628549e+00 -7.842120e+00 1.636350e+00 -2.203120e+00 -3.087948e+00 1.907391e+01 -2.319999e+00 3.101708e+00 -9.890736e-01 1.866419e+00 1.855163e+00 -4.565812e-02 1.848620e+00 -3.200612e-01 1.226987e+00 1.826168e-01 -1.192263e+00 1.631395e+00 -4.558323e-01
<VARIANCE> 26
 1.127199e+01 1.918594e+01 3.212737e+01 4.640065e+01 4.270187e+01 3.415233e+01 2.627427e+01 2.356836e+01 2.453473e+01 3.872921e+01 2.400243e+01 2.380857e+01 5.890293e-01 8.643717e-01 2.514603e+00 2.455941e+00 4.022323e+00 2.833935e+00 3.802056e+00 3.070494e+00 2.432992e+00 2.557268e+00 2.432131e+00 2.500509e+00 1.537403e+00 2.598161e-02
<GCONST> 9.383633e+01
<STATE> 3
<MEAN> 26
 -1.645215e+01 1.452901e+01 2.772437e+00 3.726266e-01 3.791423e+00 -2.967546e+00 -5.135607e+00 -7.052404e+00 -5.595219e+00 -3.646801e-01 -3.324545e+00 1.412558e+00 1.783257e+01 -5.981060e-01 -2.771096e-01 7.362901e-03 -2.324405e-01 2.907890e-01 2.463512e-01 3.473462e-01 -3.586154e-01 2.742801e-01 2.149178e-01 -7.140163e-02 1.694498e-01 -6.210537e-02
<VARIANCE> 26
 8.508796e+00 8.905539e+00 2.910424e+01 3.350007e+01 3.383945e+01 2.925492e+01 2.247072e+01 2.122232e+01 1.844209e+01 3.752481e+01 1.767576e+01 1.918064e+01 5.522857e-01 1.346058e+00 1.032703e+00 1.507965e+00 1.563583e+00 1.868305e+00 3.600849e+00 2.082439e+00 1.613958e+00 1.125957e+00 2.022075e+00 8.878664e-01 1.601492e+00 4.615033e-02
<GCONST> 8.623643e+01
<STATE> 4
<MEAN> 26
 -1.164922e+01 8.544720e+00 2.022500e+00 -6.864209e+00 3.188618e+00 -7.038646e+00 -9.430116e+00 -9.132476e+00 -4.658209e+00 4.730462e+00 -2.899143e+00 -2.619779e+00 1.873184e+01 2.934748e+00 -3.694776e+00 5.472729e-01 -3.216467e+00 -1.436715e+00 -4.693006e-01 -2.389699e+00 9.151053e-01 -3.067707e-01 1.503112e+00 9.949815e-01 -1.807940e+00 4.845294e-01
<VARIANCE> 26
 2.020215e+01 2.459769e+01 3.043743e+01 4.298407e+01 2.165476e+01 3.020950e+01 2.432035e+01 2.430793e+01 2.093185e+01 3.135527e+01 2.164483e+01 2.267281e+01 9.580925e-01 1.537589e+00 2.549918e+00 1.763712e+00 4.489678e+00 1.976187e+00 4.976567e+00 4.071882e+00 3.918517e+00 2.057075e+00 3.332736e+00 2.466795e+00 3.337186e+00 9.827107e-02
<GCONST> 9.687934e+01
<TRANSP> 5
 0.000000e+00 1.000000e+00 0.000000e+00 0.000000e+00 0.000000e+00
 0.000000e+00 6.829910e-01 3.170090e-01 0.000000e+00 0.000000e+00
 0.000000e+00 0.000000e+00 7.322253e-01 2.677747e-01 0.000000e+00
 0.000000e+00 0.000000e+00 0.000000e+00 6.241622e-01 3.758379e-01
 0.000000e+00 0.000000e+00 0.000000e+00 0.000000e+00 0.000000e+00
<ENDHMM>
~h "__"
<BEGINHMM>
<NUMSTATES> 5
<STATE> 2
<MEAN> 26
 -9.596161e+00 1.188263e+00 -2.189500e-01 -5.074072e-02 2.179466e+00 3.666182e+00 7.841893e-01 3.151645e-01 -1.618148e+00 -1.171126e+00 -9.782192e-01 3.511655e-01 1.217060e+01 -3.192164e-01 6.632159e-02 -2.502792e-01 1.803141e-01 -2.706111e-01 -3.759675e-02 4.289887e-02 2.523952e-01 2.595199e-01 2.873170e-01 3.920628e-01 1.899477e-01 -1.958291e-01
<VARIANCE> 26
 1.807598e+01 1.630252e+01 2.656781e+01 3.153045e+01 2.430032e+01 2.185482e+01 2.856613e+01 2.149441e+01 2.300403e+01 2.497104e+01 2.330216e+01 1.499068e+01 3.888087e+00 1.106136e+00 1.217358e+00 1.610836e+00 2.375237e+00 2.471280e+00 2.660660e+00 2.460056e+00 2.340732e+00 2.386003e+00 2.203890e+00 2.017582e+00 1.356690e+00 3.464321e-01
<GCONST> 9.334367e+01
<STATE> 3
<MEAN> 26
 -1.267184e+01 3.396048e+00 8.119430e-01 2.233940e+00 2.336872e+00 3.180368e+00 1.605767e+00 3.523682e+00 1.269335e+00 2.690727e+00 3.305018e+00 1.989401e+00 1.184174e+01 -6.184222e-02 -3.439298e-02 -7.464500e-02 -5.675130e-02 -3.245975e-02 -4.936767e-02 3.590405e-02 7.207748e-02 6.270248e-02 9.392916e-02 1.085576e-01 1.441305e-02 -5.268341e-02
<VARIANCE> 26
 2.454423e+00 4.593319e+00 7.778302e+00 1.148671e+01 9.940734e+00 1.056240e+01 1.276926e+01 1.456271e+01 1.443392e+01 1.444650e+01 1.300705e+01 1.135339e+01 2.111581e+00 2.206379e-01 4.152057e-01 5.260146e-01 1.130670e+00 9.913816e-01 1.077476e+00 1.312603e+00 1.505229e+00 1.392074e+00 1.375431e+00 1.358591e+00 1.211604e+00 5.249204e-02
<GCONST> 7.169971e+01
<STATE> 4
<MEAN> 26
 -1.334643e+01 2.125434e+00 -8.793869e-01 2.797490e-01 -2.451513e-01 3.814250e-01 -6.641705e-01 8.552336e-01 -1.490762e+00 -1.752930e-01 9.396034e-01 -4.445308e-01 8.634862e+00 -9.342180e-02 -3.017702e-02 1.120530e-01 -5.459963e-02 6.595409e-02 5.312182e-02 -5.996600e-02 2.227269e-02 9.188592e-02 2.634777e-02 1.258765e-02 -1.271169e-02 -1.353938e-02
<VARIANCE> 26
 3.325168e+00 2.895438e+00 5.349901e+00 6.209182e+00 8.630770e+00 1.001779e+01 1.068264e+01 1.296268e+01 1.457473e+01 1.367109e+01 1.180762e+01 1.060340e+01 7.836357e-01 2.470292e-01 3.278491e-01 5.765178e-01 7.230302e-01 8.901078e-01 1.034658e+00 1.219985e+00 1.342944e+00 1.378867e+00 1.390723e+00 1.377628e+00 1.186788e+00 4.637866e-02
<GCONST> 6.791827e+01
<TRANSP> 5
 0.000000e+00 1.000000e+00 0.000000e+00 0.000000e+00 0.000000e+00
 0.000000e+00 8.978552e-01 1.021447e-01 0.000000e+00 0.000000e+00
 0.000000e+00 0.000000e+00 9.444124e-01 5.558769e-02 0.000000e+00
 0.000000e+00 0.000000e+00 0.000000e+00 9.611140e-01 3.888606e-02
 0.000000e+00 0.000000e+00 0.000000e+00 0.000000e+00 0.000000e+00
<ENDHMM>
~h "a~"
<BEGINHMM>
<NUMSTATES> 5
<STATE> 2
<MEAN> 26
 8.157712e-01 -6.220127e+00 -4.815539e+00 -2.348868e+01 -5.422925e+00 9.502037e+00 -9.630932e+00 1.076065e+00 -1.268713e+01 -6.727157e-01 4.790067e+00 -3.517022e+00 2.074071e+01 1.847393e+00 -6.258503e-01 -1.442207e+00 -2.141381e+00 -1.438455e+00 1.782555e+00 7.584022e-01 2.238992e+00 -1.445830e+00 -2.298903e+00 1.751514e-01 7.273397e-01 5.780883e-01
<VARIANCE> 26
 8.133596e+00 1.965108e+01 1.850671e+01 3.803080e+01 3.456573e+01 4.511401e+01 6.987106e+01 3.538770e+01 2.351122e+01 6.697569e+01 4.063899e+01 4.196735e+01 1.457584e+00 3.985916e+00 2.840640e+00 1.801404e+00 8.490400e+00 3.370455e+00 6.537149e+00 6.961351e+00 3.005136e+00 5.002453e+00 4.681486e+00 3.785417e+00 4.640568e+00 6.195724e-01
<GCONST> 1.065891e+02
<STATE> 3
<MEAN> 26
 2.454304e+00 -5.616933e+00 -7.167103e+00 -2.129722e+01 -1.135764e+01 8.645977e+00 -4.542300e+00 8.471647e+00 -1.398502e+01 -9.965479e+00 2.960876e+00 -4.031899e+00 2.118320e+01 6.258867e-02 3.515243e-01 7.661144e-02 4.472579e-01 -2.999143e-01 -6.224839e-01 3.919572e-01 1.619761e-01 -3.358276e-01 2.923129e-01 -6.768418e-01 -4.645173e-01 -5.683250e-02
<VARIANCE> 26
 6.256412e+00 1.017212e+01 1.370560e+01 2.179089e+01 1.841893e+01 2.981925e+01 2.536218e+01 1.558727e+01 1.663584e+01 2.219623e+01 2.030107e+01 1.750507e+01 3.037679e-01 3.467325e-01 9.263163e-01 1.053294e+00 1.520863e+00 1.545469e+00 1.532877e+00 1.984903e+00 1.988058e+00 1.266695e+00 2.844218e+00 1.333899e+00 1.178874e+00 2.222934e-02
<GCONST> 8.001745e+01
<STATE> 4
<MEAN> 26
 3.016138e+00 -6.952062e-02 -4.217813e+00 -1.230664e+01 -9.489873e+00 4.618320e+00 -2.447301e+00 1.845815e+00 -1.736203e+01 -2.441041e+00 -1.666486e+00 -4.144668e+00 1.991389e+01 -5.387384e-01 1.448019e+00 1.128996e+00 2.954602e+00 1.334234e+00 -2.876524e-01 3.878646e-01 -2.061453e+00 4.973223e-01 6.212366e-01 -1.096695e-01 4.631507e-01 -4.388582e-01
<VARIANCE> 26
 7.188392e+00 2.589269e+01 2.191216e+01 9.104406e+01 3.158883e+01 2.537365e+01 6.052338e+01 4.467938e+01 5.128892e+01 2.709384e+01 2.716663e+01 2.206880e+01 1.103827e+00 2.399026e+00 2.160429e+00 2.068519e+00 6.249964e+00 5.135901e+00 2.934812e+00 3.453141e+00 3.928519e+00 5.322124e+00 3.005934e+00 1.858171e+00 2.286603e+00 1.021327e-01
<GCONST> 1.003932e+02
<TRANSP> 5
 0.000000e+00 1.000000e+00 0.000000e+00 0.000000e+00 0.000000e+00
 0.000000e+00 6.713014e-01 3.286986e-01 0.000000e+00 0.000000e+00
 0.000000e+00 0.000000e+00 8.640083e-01 1.359916e-01 0.000000e+00
 0.000000e+00 0.000000e+00 0.000000e+00 7.594180e-01 2.405820e-01
 0.000000e+00 0.000000e+00 0.000000e+00 0.000000e+00 0.000000e+00
<ENDHMM>
~h "e^"
<BEGINHMM>
<NUMSTATES> 5
<STATE> 2
<MEAN> 26
 -5.478188e+00 -4.376966e+00 1.390959e+01 -1.289907e+01 -7.823203e+00 -8.148512e+00 -1.517849e+01 -2.035574e+00 -1.081008e+01 3.901905e-01 1.661245e+00 -1.274829e+00 1.985052e+01 1.368651e+00 -2.198222e+00 2.876122e+00 -2.248399e+00 -3.060944e+00 -1.106279e+00 -2.808009e+00 1.598418e+00 -2.769337e+00 5.057443e-01 1.041601e+00 -1.996998e-01 8.748471e-01
<VARIANCE> 26
 1.339540e+01 2.730476e+01 4.263167e+01 4.758033e+01 2.865513e+01 3.181067e+01 4.594365e+01 3.482326e+01 5.032682e+01 5.485839e+01 2.716545e+01 1.456282e+01 3.284847e+00 3.232158e+00 2.065231e+00 4.823874e+00 4.216531e+00 2.800665e+00 3.901089e+00 5.146553e+00 3.813319e+00 4.080209e+00 3.532828e+00 3.031768e+00 2.123868e+00 5.907314e-01
<GCONST> 1.048708e+02
<STATE> 3
<MEAN> 26
 -4.375752e+00 -6.984302e+00 1.835487e+01 -1.604465e+01 -1.387203e+01 -6.164494e+00 -1.891760e+01 1.178241e+00 -1.687548e+01 1.416869e+00 3.955901e+00 -2.213605e+00 2.099601e+01 8.591904e-02 2.492063e-01 2.168440e-01 1.136524e-01 -1.717638e-01 3.242872e-02 3.412189e-01 -1.404293e-01 -7.877432e-01 3.861214e-01 -1.841091e-01 -1.372718e-02 -1.098537e-02
<VARIANCE> 26
 4.490500e+00 1.463950e+01 2.007739e+01 1.638772e+01 1.796264e+01 2.116691e+01 1.954290e+01 1.985302e+01 2.738225e+01 3.001864e+01 1.883014e+01 1.266902e+01 3.060931e-01 4.007705e-01 1.284490e+00 1.281562e+00 2.139746e+00 1.913001e+00 1.783147e+00 1.805559e+00 1.724449e+00 1.810698e+00 1.925794e+00 1.286040e+00 8.871068e-01 3.118359e-02
<GCONST> 8.129134e+01
<STATE> 4
<MEAN> 26
 -2.936322e+00 -5.540929e-01 1.681357e+01 -1.117147e+01 -7.910487e+00 -6.453166e+00 -8.947423e+00 -1.668952e+00 -1.613547e+01 2.466812e+00 -3.646488e-01 -1.834608e+00 1.965434e+01 2.062874e-01 2.100596e+00 -1.600524e+00 2.812789e+00 2.457390e+00 4.348137e-01 2.719715e+00 -3.904915e-01 2.220235e+00 -7.391154e-01 -8.327513e-01 -3.547923e-01 -5.668661e-01
<VARIANCE> 26
 5.512689e+00 3.787799e+01 2.509319e+01 4.206831e+01 3.302744e+01 4.278454e+01 1.192228e+02 3.152372e+01 3.647600e+01 4.295318e+01 3.060850e+01 1.694124e+01 1.524291e+00 2.221861e+00 4.848410e+00 2.687276e+00 4.977542e+00 2.552347e+00 3.574270e+00 3.404530e+00 5.320373e+00 3.274526e+00 3.603127e+00 2.619707e+00 2.089645e+00 1.081384e-01
<GCONST> 1.016243e+02
<TRANSP> 5
 0.000000e+00 1.000000e+00 0.000000e+00 0.000000e+00 0.000000e+00
 0.000000e+00 5.662887e-01 4.337113e-01 0.000000e+00 0.000000e+00
 0.000000e+00 0.000000e+00 8.032824e-01 1.967175e-01 0.000000e+00
 0.000000e+00 0.000000e+00 0.000000e+00 6.754761e-01 3.245238e-01
 0.000000e+00 0.000000e+00 0.000000e+00 0.000000e+00 0.000000e+00
<ENDHMM>
~h "e~"
<BEGINHMM>
<NUMSTATES> 5
<STATE> 2
<MEAN> 26
 -1.309845e+00 -1.183490e+01 -2.465854e+00 -1.975637e+01 1.253372e-02 5.789885e+00 -1.738909e+01 2.147033e+00 -6.551999e+00 3.572217e+00 2.674480e+00 -8.688339e+00 2.084933e+01 1.482286e+00 -2.692058e+00 -7.698951e-01 -2.367014e+00 8.307416e-01 1.781079e+00 -2.263129e+00 1.301281e+00 -1.221851e+00 8.123509e-01 2.202330e-01 -1.243109e+00 6.540489e-01
<VARIANCE> 26
 6.283039e+00 2.784176e+01 2.058451e+01 2.148739e+01 3.517656e+01 3.187511e+01 2.804676e+01 2.776427e+01 2.548161e+01 3.005829e+01 5.081874e+01 4.042413e+01 1.599534e+00 2.523652e+00 3.785052e+00 1.707623e+00 5.332266e+00 4.504389e+00 2.167443e+00 3.887263e+00 3.533403e+00 1.766930e+00 2.649069e+00 2.596990e+00 2.605687e+00 6.158943e-01
<GCONST> 9.979455e+01
<STATE> 3
<MEAN> 26
 2.351248e-02 -1.431839e+01 -5.356608e+00 -2.081338e+01 3.622164e+00 7.885162e+00 -1.980007e+01 3.090945e+00 -1.031107e+01 4.257212e-01 5.195185e+00 -8.664949e+00 2.160122e+01 1.857780e-01 3.375183e-01 -2.135394e-01 9.358856e-02 5.518927e-01 -8.705699e-01 1.460266e-01 -2.126530e-01 -5.666991e-01 -1.285296e-01 -1.919636e-01 2.856478e-02 -7.602229e-02
<VARIANCE> 26
 5.507535e+00 8.642735e+00 1.232800e+01 1.362396e+01 2.030776e+01 2.295463e+01 2.050562e+01 1.240880e+01 1.819241e+01 1.711250e+01 2.417944e+01 1.569949e+01 3.067655e-01 3.404648e-01 8.110293e-01 1.205528e+00 1.005495e+00 1.474361e+00 1.867284e+00 1.153385e+00 8.815216e-01 1.231920e+00 1.289613e+00 2.233829e+00 1.044876e+00 1.689509e-02
<GCONST> 7.611784e+01
<STATE> 4
<MEAN> 26
 1.102108e+00 -6.492850e+00 -4.435976e+00 -1.417538e+01 1.722571e+00 -1.215863e+00 -1.361625e+01 -6.944939e-01 -1.449049e+01 1.438258e+00 -1.035385e+00 -8.167456e+00 2.036261e+01 -3.194616e-01 2.760891e+00 7.239126e-01 3.167858e+00 -1.103981e+00 -7.576826e-01 2.651678e+00 -1.483675e+00 2.651023e-01 -4.158669e-01 -1.184142e+00 1.198310e+00 -4.253703e-01
<VARIANCE> 26
 6.985512e+00 3.695457e+01 3.546635e+01 8.823055e+01 7.268224e+01 4.536855e+01 4.738941e+01 5.053713e+01 4.791052e+01 3.755411e+01 3.450943e+01 2.641194e+01 4.920278e-01 2.999694e+00 3.321135e+00 2.397611e+00 7.058625e+00 4.946578e+00 2.892656e+00 1.952523e+00 2.851124e+00 4.895948e+00 3.326446e+00 3.144684e+00 2.085119e+00 7.252230e-02
<GCONST> 1.024221e+02
<TRANSP> 5
 0.000000e+00 1.000000e+00 0.000000e+00 0.000000e+00 0.000000e+00
 0.000000e+00 5.203905e-01 4.796095e-01 0.000000e+00 0.000000e+00
 0.000000e+00 0.000000e+00 8.632017e-01 1.367983e-01 0.000000e+00
 0.000000e+00 0.000000e+00 0.000000e+00 7.150384e-01 2.849616e-01
 0.000000e+00 0.000000e+00 0.000000e+00 0.000000e+00 0.000000e+00
<ENDHMM>
~h "o^"
<BEGINHMM>
<NUMSTATES> 5
<STATE> 2
<MEAN> 26
 1.777878e+00 2.299956e-01 1.913505e+00 -2.747961e+01 -9.782986e+00 6.106580e+00 -1.195147e+01 -4.940750e+00 -1.556178e+01 2.862127e-01 6.951181e+00 -4.242398e+00 2.037399e+01 1.605921e+00 5.682791e-01 6.788186e-01 -3.953008e+00 -2.953807e+00 2.320056e+00 -1.413060e+00 5.602499e-01 -2.523679e+00 -1.211156e+00 2.026647e+00 -1.102736e+00 9.716613e-01
<VARIANCE> 26
 7.944705e+00 3.825332e+01 1.313251e+01 9.198688e+01 3.393813e+01 2.037511e+01 5.255106e+01 5.379849e+01 5.843295e+01 5.339399e+01 8.606446e+01 2.246631e+01 2.764680e+00 3.840591e+00 1.713488e+00 1.622437e+00 1.521864e+01 2.816733e+00 2.317851e+00 4.171575e+00 2.766654e+00 7.518145e+00 3.184288e+00 3.887910e+00 5.331212e+00 1.401593e+00
<GCONST> 1.076711e+02
<STATE> 3
<MEAN> 26
 2.935393e+00 4.317498e-01 3.063458e+00 -2.997840e+01 -1.628045e+01 1.083471e+01 -1.309457e+01 -4.355817e+00 -1.581129e+01 -6.428067e+00 1.246448e+01 -7.432333e+00 2.164317e+01 8.340769e-02 1.750947e-02 -1.460051e-02 -7.514427e-02 1.008900e-02 1.042966e-01 -3.045713e-01 9.301169e-02 -5.959098e-01 -1.116491e-01 -2.606593e-02 -9.440466e-02 -1.326112e-03
<VARIANCE> 26
 5.780424e+00 1.149626e+01 1.919688e+01 2.534148e+01 2.096629e+01 1.516224e+01 2.092513e+01 3.889400e+01 4.670355e+01 4.128019e+01 3.662358e+01 2.663375e+01 3.218201e-01 3.751391e-01 1.036098e+00 9.553099e-01 2.796890e+00 2.053562e+00 1.064305e+00 1.587806e+00 2.218177e+00 2.179707e+00 3.412816e+00 2.183368e+00 1.824017e+00 2.953326e-02
<GCONST> 8.589045e+01
<STATE> 4
<MEAN> 26
 2.072308e+00 8.638322e-01 1.646281e+00 -2.533963e+01 -7.677734e+00 6.027707e+00 -1.557351e+01 -4.435318e+00 -1.976829e+01 8.129700e-02 8.770680e+00 -6.504982e+00 2.039088e+01 -6.655744e-01 7.094511e-01 -1.327230e-01 3.120807e+00 2.540925e+00 -2.179720e+00 1.284712e+00 -6.574118e-01 1.753976e+00 1.204763e+00 -1.954848e+00 6.204143e-01 -6.320200e-01
<VARIANCE> 26
 1.090609e+01 3.320893e+01 1.815875e+01 1.011589e+02 5.176536e+01 4.114645e+01 7.297689e+01 6.424751e+01 5.683442e+01 5.007798e+01 5.983351e+01 5.255524e+01 1.910906e+00 1.040825e+00 3.462777e+00 3.075575e+00 7.637295e+00 3.279553e+00 2.849199e+00 7.826111e+00 3.865522e+00 6.246756e+00 7.771966e+00 6.448359e+00 6.541342e+00 2.372411e-01
<GCONST> 1.102331e+02
<TRANSP> 5
 0.000000e+00 1.000000e+00 0.000000e+00 0.000000e+00 0.000000e+00
 0.000000e+00 5.867057e-01 4.132943e-01 0.000000e+00 0.000000e+00
 0.000000e+00 0.000000e+00 8.688905e-01 1.311095e-01 0.000000e+00
 0.000000e+00 0.000000e+00 0.000000e+00 7.099432e-01 2.900568e-01
 0.000000e+00 0.000000e+00 0.000000e+00 0.000000e+00 0.000000e+00
<ENDHMM>
~h "n~"
<BEGINHMM>
<NUMSTATES> 5
<STATE> 2
<MEAN> 26
 4.558384e-01 3.120670e-01 8.146269e+00 -2.553225e+00 -9.030733e+00 -4.171844e+00 -1.159163e+01 2.313174e+00 -1.938297e+01 -1.537009e+01 9.448645e+00 -4.460585e+00 2.070675e+01 -2.490547e-01 -2.716885e-02 2.141060e-01 -8.665609e-02 1.107240e-01 -1.874247e-02 1.742760e-02 6.416761e-01 -1.490435e-01 -9.247309e-01 1.660747e+00 -5.155436e-01 1.107014e-02
<VARIANCE> 26
 4.909536e+00 5.068729e+00 1.963449e+01 3.884504e+01 2.078807e+01 3.052919e+01 1.309764e+01 2.158658e+01 1.514422e+01 1.873327e+01 4.284184e+01 1.222963e+01 1.388700e-01 1.774680e+00 9.583821e-01 3.996048e+00 6.905788e+00 2.641987e+00 3.942247e+00 4.089470e+00 2.324082e+00 1.090150e+00 1.680783e+00 2.758896e+00 1.326125e+00 1.215163e-03
<GCONST> 8.330219e+01
<STATE> 3
<MEAN> 26
 -4.548282e+00 -8.470254e-02 1.802221e+01 -1.109048e+01 -1.572209e+01 6.219000e+00 -1.625993e+01 -4.428779e-01 -1.623869e+01 -1.338963e+01 9.683874e+00 -5.651844e+00 2.076929e+01 -5.818830e-01 -5.452062e-01 1.443403e+00 -7.717920e-01 -2.362724e+00 1.616130e+00 -5.285466e-02 -9.836807e-01 1.579290e+00 1.278737e+00 -1.204894e+00 4.622479e-01 -7.661510e-03
<VARIANCE> 26
 7.043119e+00 1.406828e+01 1.541705e+01 3.508503e+01 4.833119e+01 3.170713e+01 2.030780e+01 4.348637e+01 2.506956e+01 2.900588e+01 2.843020e+01 9.264602e+00 9.164988e-02 6.275315e-01 1.217671e+00 2.960320e+00 4.501748e+00 2.834492e+00 1.027556e+01 1.775789e+00 4.908489e+00 9.164683e-01 1.682074e+00 1.665577e+00 7.302631e-01 5.054347e-03
<GCONST> 8.576381e+01
<STATE> 4
<MEAN> 26
 -3.228159e+00 -5.164919e+00 1.354339e+01 -7.956996e+00 -1.709222e+01 1.227318e+00 -1.823624e+01 2.377496e+00 -9.249087e+00 -8.703339e+00 6.157604e+00 -4.303952e+00 2.089670e+01 8.441727e-01 -3.060091e-01 -2.422216e+00 1.335231e-01 2.329489e+00 -1.259228e+00 -1.063229e+00 4.497775e-01 7.993375e-01 1.337230e+00 -2.780388e-01 -2.838495e-01 -7.122915e-03
<VARIANCE> 26
 9.360814e+00 1.550635e+01 3.278422e+01 1.428288e+01 2.997339e+01 4.140565e+01 1.999520e+01 2.098065e+01 3.244150e+01 2.429760e+01 1.078693e+01 6.166710e+00 9.623821e-02 2.184399e-01 2.309023e+00 2.178996e+00 3.054456e+00 2.364358e+00 6.744077e+00 4.634620e+00 3.952342e+00 3.327835e+00 2.081562e+00 1.355741e+00 2.086806e+00 1.778850e-02
<GCONST> 8.643508e+01
<TRANSP> 5
 0.000000e+00 1.000000e+00 0.000000e+00 0.000000e+00 0.000000e+00
 0.000000e+00 7.803524e-01 2.196476e-01 0.000000e+00 0.000000e+00
 0.000000e+00 0.000000e+00 7.468698e-01 2.531302e-01 0.000000e+00
 0.000000e+00 0.000000e+00 0.000000e+00 7.421952e-01 2.578048e-01
 0.000000e+00 0.000000e+00 0.000000e+00 0.000000e+00 0.000000e+00
<ENDHMM>
~h "o~"
<BEGINHMM>
<NUMSTATES> 5
<STATE> 2
<MEAN> 26
 6.237724e-01 5.539902e-01 2.451538e-01 -1.575176e+01 -1.203966e+01 6.718765e+00 -7.860437e+00 1.712594e+00 -1.174001e+01 -5.137971e+00 5.110081e+00 -2.344321e+00 1.978401e+01 2.079475e+00 -1.834136e-02 -4.821482e-02 -1.214021e+00 -3.579207e+00 5.789554e-01 -6.893772e-01 2.010793e+00 -1.158977e+00 -6.133409e-01 8.534409e-01 -9.708110e-01 6.173974e-01
<VARIANCE> 26
 1.446790e+01 2.129884e+01 1.735094e+01 3.375503e+01 4.836190e+01 3.198787e+01 4.435699e+01 4.431514e+01 4.275644e+01 2.962369e+01 3.743036e+01 1.649063e+01 2.398063e+00 5.158679e+00 2.015323e+00 2.675877e+00 4.970990e+00 4.078251e+00 3.729103e+00 6.213649e+00 4.546769e+00 6.007160e+00 3.230549e+00 3.989167e+00 1.363099e+00 2.442247e-01
<GCONST> 1.035015e+02
<STATE> 3
<MEAN> 26
 1.898986e+00 -2.085702e+00 -1.010493e+00 -1.240664e+01 -1.884559e+01 6.298932e+00 -9.473758e+00 2.903194e+00 -1.351419e+01 -3.696144e+00 2.950503e+00 -5.861221e+00 2.066119e+01 2.925288e-02 1.019152e-01 -1.048930e-01 6.741552e-01 -9.100977e-02 5.019889e-02 1.952723e-01 -3.263272e-01 -6.977512e-01 4.156759e-01 -8.373477e-01 -2.407210e-01 -4.461431e-02
<VARIANCE> 26
 3.821076e+00 1.337147e+01 1.331986e+01 2.387227e+01 1.665376e+01 1.890252e+01 1.967366e+01 2.092077e+01 3.124697e+01 2.226008e+01 2.196579e+01 1.558067e+01 1.669465e-01 2.894292e-01 7.168103e-01 1.161064e+00 2.476251e+00 1.849128e+00 2.265586e+00 1.649058e+00 1.711238e+00 2.111670e+00 1.636191e+00 1.605971e+00 9.397109e-01 1.351239e-02
<GCONST> 7.914307e+01
<STATE> 4
<MEAN> 26
 2.983783e+00 9.575096e-01 -5.772363e-01 -6.269138e+00 -1.112618e+01 5.437723e+00 -3.919829e+00 -1.047380e+00 -1.852806e+01 -3.957653e-01 -3.608279e+00 -3.677776e+00 1.939761e+01 -3.454612e-01 1.098286e+00 1.314675e-01 1.725357e+00 2.561399e+00 -1.223937e+00 1.926719e+00 -1.437376e+00 1.128971e+00 9.661539e-03 -1.680229e-01 9.019672e-01 -5.236173e-01
<VARIANCE> 26
 5.037868e+00 2.890621e+01 1.255256e+01 8.289938e+01 4.668991e+01 4.052848e+01 4.391812e+01 3.370269e+01 3.009501e+01 2.963159e+01 3.665076e+01 2.718923e+01 7.887741e-01 1.768775e+00 2.333474e+00 1.183963e+00 5.909492e+00 2.665123e+00 3.247537e+00 2.689535e+00 3.069103e+00 4.523657e+00 2.615731e+00 3.524627e+00 2.346934e+00 1.227305e-01
<GCONST> 9.813696e+01
<TRANSP> 5
 0.000000e+00 1.000000e+00 0.000000e+00 0.000000e+00 0.000000e+00
 0.000000e+00 5.859604e-01 4.140396e-01 0.000000e+00 0.000000e+00
 0.000000e+00 0.000000e+00 8.758949e-01 1.241051e-01 0.000000e+00
 0.000000e+00 0.000000e+00 0.000000e+00 7.293606e-01 2.706394e-01
 0.000000e+00 0.000000e+00 0.000000e+00 0.000000e+00 0.000000e+00
<ENDHMM>
~h "s^"
<BEGINHMM>
<NUMSTATES> 5
<STATE> 2
<MEAN> 26
 -2.007700e+01 -6.504408e-01 9.054553e+00 -7.360762e+00 3.188853e+00 -3.427270e+00 4.884337e-01 -8.586293e+00 -2.651117e+00 -2.407278e+00 -3.814270e+00 -5.880095e-01 1.828876e+01 -4.934441e+00 -1.632100e+00 -4.066950e-01 -1.331872e-02 1.136868e+00 3.122141e-01 2.528728e+00 4.607382e-01 2.440764e+00 5.438486e-01 1.365721e+00 5.952517e-01 -3.622548e-01
<VARIANCE> 26
 5.253944e+01 2.490958e+01 2.201319e+01 2.188002e+01 4.432619e+01 4.504498e+01 4.459923e+01 4.178388e+01 3.142337e+01 4.674939e+01 2.552042e+01 1.972884e+01 6.782312e-01 2.488486e+00 3.736253e+00 4.767644e+00 5.239586e+00 4.090662e+00 5.821700e+00 3.780773e+00 3.200831e+00 3.270239e+00 3.598424e+00 3.011787e+00 2.064448e+00 1.312222e-01
<GCONST> 1.027673e+02
<STATE> 3
<MEAN> 26
 -3.055163e+01 -6.926853e+00 5.557761e+00 -1.263522e+01 1.520165e+00 -5.344160e+00 3.540512e+00 -7.173287e+00 1.939041e+00 1.475083e+00 -1.905921e-01 1.842391e+00 1.817691e+01 -8.754341e-02 -2.270745e-02 -7.346755e-02 -2.382707e-01 -6.844234e-02 -2.194224e-01 -2.025724e-03 -1.488438e-01 1.814881e-01 1.873564e-01 -8.892440e-03 8.152853e-03 -7.609403e-03
<VARIANCE> 26
 7.173939e+00 9.157955e+00 9.689718e+00 1.115231e+01 2.445112e+01 2.970903e+01 1.923762e+01 1.668022e+01 1.247641e+01 1.690227e+01 1.054854e+01 1.406222e+01 3.479029e-01 1.187673e+00 7.346064e-01 6.645812e-01 1.054034e+00 1.358464e+00 1.355323e+00 1.390313e+00 1.668456e+00 1.348179e+00 1.592958e+00 1.352136e+00 1.506777e+00 2.496658e-02
<GCONST> 7.705198e+01
<STATE> 4
<MEAN> 26
 -2.038951e+01 -3.461296e+00 4.859371e+00 -1.140898e+01 1.761114e+00 -6.182717e+00 -3.621508e-01 -9.578853e+00 1.281815e+00 7.753241e-01 -1.580908e+00 -1.171832e-01 1.716616e+01 5.093224e+00 6.322188e-01 -4.099421e-01 8.839498e-01 -9.301333e-01 6.641299e-01 -2.755507e+00 -3.777204e-01 -1.391868e+00 -4.088568e-01 -1.254335e-01 -6.421967e-01 2.905738e-04
<VARIANCE> 26
 6.825143e+01 1.846601e+01 2.226949e+01 2.417116e+01 4.337251e+01 3.044345e+01 3.801252e+01 2.242279e+01 2.039347e+01 4.331779e+01 2.149067e+01 2.010438e+01 3.502105e+00 6.452143e+00 2.864302e+00 2.782762e+00 2.013130e+00 5.775069e+00 7.060092e+00 5.714522e+00 4.072115e+00 4.087425e+00 3.752674e+00 3.611028e+00 2.575599e+00 4.848049e-01
<GCONST> 1.049832e+02
<TRANSP> 5
 0.000000e+00 1.000000e+00 0.000000e+00 0.000000e+00 0.000000e+00
 0.000000e+00 6.965782e-01 3.034218e-01 0.000000e+00 0.000000e+00
 0.000000e+00 0.000000e+00 8.928910e-01 1.071090e-01 0.000000e+00
 0.000000e+00 0.000000e+00 0.000000e+00 7.052259e-01 2.947741e-01
 0.000000e+00 0.000000e+00 0.000000e+00 0.000000e+00 0.000000e+00
<ENDHMM>
~h "x^"
<BEGINHMM>
<NUMSTATES> 5
<STATE> 2
<MEAN> 26
 -1.194069e+00 -9.349216e+00 5.454663e+00 -1.808319e+01 -4.717435e+00 -2.512634e+00 -2.366207e+01 -5.249099e-01 -7.948198e+00 1.065701e+01 4.831175e+00 -1.160575e+01 2.079799e+01 1.080742e+00 -2.039592e+00 -7.053922e-02 -3.509522e+00 -1.410519e+00 1.015169e+00 -2.618358e+00 1.353033e+00 4.526932e-01 2.804550e+00 1.157266e+00 -1.188411e+00 7.255674e-01
<VARIANCE> 26
 6.168121e+00 1.742560e+01 2.124836e+01 3.742676e+01 3.361322e+01 3.650266e+01 2.265824e+01 2.171777e+01 2.134854e+01 3.598141e+01 3.057205e+01 1.472163e+01 7.532772e-01 4.180423e+00 1.659274e+00 2.245901e+00 6.743467e+00 3.896989e+00 2.871358e+00 6.204926e+00 3.483442e+00 4.840692e+00 2.288734e+00 2.781578e+00 3.513706e+00 6.728748e-01
<GCONST> 9.935320e+01
<STATE> 3
<MEAN> 26
 7.331829e-02 -1.214123e+01 1.697320e+00 -2.115737e+01 -6.455770e+00 4.216685e-02 -2.476629e+01 5.193551e+00 -6.795822e+00 1.331468e+01 4.229014e+00 -1.168883e+01 2.170600e+01 1.072985e-01 1.223980e-01 -5.646256e-01 -4.741867e-01 2.709549e-01 4.016795e-01 2.293083e-01 5.560045e-02 -2.927847e-01 3.052031e-01 -3.755276e-01 -1.275269e-01 -8.334747e-03
<VARIANCE> 26
 2.609408e+00 9.268419e+00 1.754594e+01 1.663470e+01 1.828691e+01 1.933409e+01 1.211787e+01 2.146913e+01 8.095736e+00 1.631892e+01 1.764207e+01 1.518886e+01 2.471587e-01 2.710407e-01 6.681970e-01 1.035617e+00 1.771883e+00 1.314651e+00 1.872508e+00 1.211756e+00 1.459988e+00 1.103674e+00 1.225597e+00 1.131986e+00 1.202438e+00 1.733520e-02
<GCONST> 7.407809e+01
<STATE> 4
<MEAN> 26
 9.978686e-01 -7.998186e+00 -1.099524e-01 -2.462892e+01 -1.125361e+00 3.155345e+00 -1.685087e+01 -2.725453e+00 -1.060733e+01 1.332201e+01 1.979414e+00 -8.271821e+00 2.077897e+01 3.620316e-02 1.257830e+00 -2.209790e-01 6.062683e-01 1.170535e+00 7.415230e-01 2.963516e+00 -2.353906e+00 -2.607426e-01 -1.458455e+00 -3.067538e-01 1.818426e+00 -3.604130e-01
<VARIANCE> 26
 3.074380e+00 2.335162e+01 1.743638e+01 3.161876e+01 2.128773e+01 4.046549e+01 7.375618e+01 3.107956e+01 3.190578e+01 1.775433e+01 2.904128e+01 2.191196e+01 5.658094e-01 8.145434e-01 2.039478e+00 1.711618e+00 4.540541e+00 1.931370e+00 1.928574e+00 3.939496e+00 2.419433e+00 2.983165e+00 2.772932e+00 1.397051e+00 1.726773e+00 8.190817e-02
<GCONST> 9.171146e+01
<TRANSP> 5
 0.000000e+00 1.000000e+00 0.000000e+00 0.000000e+00 0.000000e+00
 0.000000e+00 5.198038e-01 4.801961e-01 0.000000e+00 0.000000e+00
 0.000000e+00 0.000000e+00 8.365278e-01 1.634722e-01 0.000000e+00
 0.000000e+00 0.000000e+00 0.000000e+00 7.349242e-01 2.650759e-01
 0.000000e+00 0.000000e+00 0.000000e+00 0.000000e+00 0.000000e+00
<ENDHMM>
~h "x~"
<BEGINHMM>
<NUMSTATES> 5
<STATE> 2
<MEAN> 26
 -1.171207e+00 -1.119458e+01 -2.765046e+00 -2.146709e+01 8.191689e+00 -4.514362e+00 -1.149345e+01 -3.033411e+00 -2.813060e+00 5.177808e+00 -2.815839e+00 -8.271554e+00 1.920488e+01 2.517485e+00 -3.050800e+00 2.660418e-01 -3.506029e+00 1.675559e+00 5.611881e-01 -2.363879e+00 9.645821e-01 -1.701071e+00 3.270324e-01 -7.107860e-02 -1.649771e+00 1.481947e+00
<VARIANCE> 26
 1.031080e+01 3.770435e+01 1.479384e+01 2.483113e+01 5.258044e+01 2.062040e+01 4.099041e+01 3.807486e+01 2.109366e+01 2.566760e+01 2.693876e+01 2.767360e+01 2.539676e+00 3.144978e+00 3.876574e+00 1.720151e+00 6.495636e+00 3.397583e+00 3.682982e+00 3.580836e+00 5.333595e+00 2.282202e+00 3.024811e+00 2.086489e+00 2.796599e+00 1.291144e+00
<GCONST> 1.021780e+02
<STATE> 3
<MEAN> 26
 3.181074e-01 -1.466858e+01 -2.195227e+00 -2.189279e+01 7.169607e+00 4.669659e+00 -1.788458e+01 2.335871e+00 -7.931255e+00 2.541502e+00 1.017773e+00 -8.640031e+00 2.118959e+01 -3.215743e-02 4.571406e-01 5.203959e-02 4.246760e-01 -5.926771e-01 5.989982e-01 -5.529822e-01 5.418614e-01 -4.216861e-01 4.656098e-02 1.484069e-01 1.078451e-01 5.894611e-02
<VARIANCE> 26
 3.994250e+00 1.104201e+01 6.615106e+00 1.367952e+01 1.964864e+01 2.662126e+01 1.820548e+01 1.374467e+01 1.115877e+01 1.442438e+01 3.336342e+01 1.130866e+01 3.281417e-01 2.911805e-01 1.268769e+00 7.406631e-01 7.558371e-01 1.564104e+00 2.262166e+00 1.600220e+00 1.119123e+00 9.757010e-01 9.361300e-01 1.368998e+00 7.244827e-01 4.888066e-02
<GCONST> 7.491181e+01
<STATE> 4
<MEAN> 26
 1.018463e+00 -5.972029e+00 -7.994439e-01 -1.319877e+01 -4.088625e-01 2.163808e+00 -1.603476e+01 3.502502e+00 -1.400532e+01 3.732507e+00 6.923438e-01 -9.311542e+00 2.056013e+01 3.032222e-01 2.757608e+00 5.620291e-01 3.935157e+00 -2.297842e+00 -2.779360e-01 2.739218e+00 -1.730829e+00 -1.106619e+00 -4.398924e-01 -2.896172e-01 7.228406e-01 -3.078745e-01
<VARIANCE> 26
 6.669477e+00 2.958847e+01 2.226904e+01 9.275776e+01 4.865788e+01 4.995908e+01 4.691383e+01 4.235873e+01 5.374836e+01 3.576085e+01 4.587431e+01 1.783798e+01 4.478170e-01 1.335548e+00 3.437585e+00 1.833327e+00 6.541211e+00 2.833053e+00 1.825094e+00 3.536372e+00 3.374553e+00 5.554214e+00 2.644196e+00 3.634298e+00 1.713187e+00 4.288727e-02
<GCONST> 9.905569e+01
<TRANSP> 5
 0.000000e+00 1.000000e+00 0.000000e+00 0.000000e+00 0.000000e+00
 0.000000e+00 6.711024e-01 3.288976e-01 0.000000e+00 0.000000e+00
 0.000000e+00 0.000000e+00 8.732864e-01 1.267136e-01 0.000000e+00
 0.000000e+00 0.000000e+00 0.000000e+00 6.725632e-01 3.274368e-01
 0.000000e+00 0.000000e+00 0.000000e+00 0.000000e+00 0.000000e+00
<ENDHMM>
~h "z^"
<BEGINHMM>
<NUMSTATES> 5
<STATE> 2
<MEAN> 26
 -1.045787e+01 3.111602e+00 1.195860e+01 -7.476061e+00 -1.076372e+00 -6.006658e+00 -4.259195e+00 -1.204585e+01 -1.841306e+00 -1.713335e+00 -3.471428e+00 6.708042e-01 1.905533e+01 -3.225040e+00 1.678330e+00 1.662832e+00 1.304592e+00 1.665514e+00 9.023542e-02 1.962781e+00 -1.030926e+00 1.203092e+00 -5.839776e-01 2.861805e-01 5.396870e-01 -3.543017e-01
<VARIANCE> 26
 2.915979e+01 1.765738e+01 2.359172e+01 3.084358e+01 3.833030e+01 3.927491e+01 2.747409e+01 2.940595e+01 2.186630e+01 2.835803e+01 2.653434e+01 1.852870e+01 5.441783e-01 1.690446e+00 2.538987e+00 2.179669e+00 2.938456e+00 2.018694e+00 4.030221e+00 2.340627e+00 4.467153e+00 3.194612e+00 2.383478e+00 2.015980e+00 1.738469e+00 4.664409e-02
<GCONST> 9.462516e+01
<STATE> 3
<MEAN> 26
 -2.078106e+01 5.258702e+00 1.722684e+01 -5.121287e+00 4.375382e+00 -1.897447e+00 1.972353e+00 -1.017129e+01 -5.314330e-01 -2.304058e+00 -3.469385e+00 8.755386e-01 1.815507e+01 -3.224880e-01 1.512364e-02 -1.113136e-01 -6.500914e-02 1.618168e-01 -4.835695e-02 -2.573673e-02 2.088227e-01 1.202742e-01 -8.294392e-02 3.862097e-02 2.946672e-02 5.388591e-03
<VARIANCE> 26
 1.432424e+01 9.009226e+00 1.359276e+01 2.200273e+01 2.803498e+01 3.075494e+01 2.797713e+01 1.680593e+01 1.618133e+01 1.774039e+01 1.598729e+01 1.515870e+01 3.469675e-01 2.618873e+00 1.014449e+00 1.572088e+00 9.355514e-01 1.597253e+00 2.673155e+00 2.521989e+00 1.589841e+00 1.099095e+00 9.884399e-01 1.497215e+00 1.338627e+00 3.133721e-02
<GCONST> 8.286816e+01
<STATE> 4
<MEAN> 26
 -1.219379e+01 2.607576e+00 1.063604e+01 -8.009278e+00 1.192959e+00 -7.798369e+00 -3.637240e+00 -1.178326e+01 -1.391738e-01 -1.895670e+00 -2.586217e+00 3.539156e-01 1.898022e+01 3.679819e+00 -2.093438e+00 -1.856269e+00 -6.122549e-01 -1.862027e+00 -3.878683e-01 -2.706980e+00 4.962192e-01 -6.530455e-01 2.748148e-01 8.428121e-01 -4.430138e-01 3.780933e-01
<VARIANCE> 26
 3.767746e+01 2.357694e+01 2.954777e+01 1.988507e+01 3.214649e+01 2.540368e+01 3.098530e+01 3.355273e+01 1.457495e+01 2.219365e+01 1.665824e+01 1.829832e+01 8.952158e-01 1.700587e+00 2.790472e+00 2.783710e+00 1.230197e+00 2.586998e+00 5.269874e+00 3.874076e+00 3.982780e+00 2.726558e+00 3.338453e+00 2.351525e+00 1.694067e+00 6.453427e-02
<GCONST> 9.497720e+01
<TRANSP> 5
 0.000000e+00 1.000000e+00 0.000000e+00 0.000000e+00 0.000000e+00
 0.000000e+00 7.193483e-01 2.806517e-01 0.000000e+00 0.000000e+00
 0.000000e+00 0.000000e+00 7.648820e-01 2.351180e-01 0.000000e+00
 0.000000e+00 0.000000e+00 0.000000e+00 6.381305e-01 3.618695e-01
 0.000000e+00 0.000000e+00 0.000000e+00 0.000000e+00 0.000000e+00
<ENDHMM>
