~o
<STREAMINFO> 1 26
<VECSIZE> 26<NULLD><MFCC_E_D><DIAGC>
~v "varFloor1"
<VARIANCE> 26
 7.528608e-01 4.836471e-01 6.936527e-01 1.165170e+00 5.971813e-01 4.755226e-01 8.837133e-01 4.464411e-01 6.617475e-01 5.043612e-01 3.577261e-01 3.682624e-01 2.346386e-01 2.926073e-02 2.980258e-02 2.837205e-02 5.332779e-02 3.412719e-02 3.071158e-02 4.275788e-02 3.327679e-02 3.738448e-02 3.113799e-02 2.695941e-02 2.419822e-02 4.406946e-03
~h "_"
<BEGINHMM>
<NUMSTATES> 5
<STATE> 2
<MEAN> 26
 -8.628424e+00 -5.146651e-01 -1.629834e+00 -1.136213e+01 -3.016097e+00 -6.241434e+00 -5.350179e+00 -5.469533e+00 -2.933753e+00 6.892499e+00 2.502133e+00 2.329626e-01 1.339663e+01 -1.315832e+00 7.871419e-01 -7.301620e-01 3.022086e+00 3.479534e-02 1.158037e+00 1.087447e+00 1.189911e+00 2.141271e+00 -4.920573e-01 6.905214e-01 -2.021356e-01 -1.436348e+00
<VARIANCE> 26
 2.363683e+01 3.177720e+01 6.415117e+01 8.360034e+01 6.150714e+01 9.243208e+01 6.609991e+01 5.930260e+01 1.261675e+02 9.940958e+01 6.566845e+01 4.788221e+01 9.296531e+00 2.614350e+00 3.846382e+00 6.155010e+00 6.074693e+00 6.221646e+00 5.851222e+00 5.809809e+00 6.527040e+00 9.865012e+00 8.070915e+00 6.435741e+00 5.008503e+00 3.354836e-01
<GCONST> 1.195508e+02
<STATE> 3
<MEAN> 26
 -1.359491e+01 1.787351e+00 -1.545973e+00 -4.548810e-01 4.410503e-01 5.291997e-01 -1.179180e+00 9.493997e-01 -4.103540e-01 1.180450e+00 1.333109e+00 -6.006264e-01 8.629592e+00 -2.168031e-01 -3.957443e-02 1.541353e-01 2.591220e-01 2.755784e-01 1.015086e-01 1.107990e-01 2.640631e-01 -9.937982e-02 -1.840432e-01 -1.957957e-01 3.421898e-02 -1.100442e-01
<VARIANCE> 26
 2.327717e+00 4.057468e+00 5.824578e+00 8.272804e+00 1.089743e+01 1.272734e+01 1.255391e+01 1.369921e+01 1.366012e+01 1.493467e+01 1.522306e+01 1.157526e+01 8.280358e-01 5.677462e-01 7.884759e-01 1.085504e+00 1.694661e+00 1.835675e+00 2.176824e+00 1.755528e+00 2.399043e+00 2.540170e+00 2.588167e+00 2.151852e+00 1.668007e+00 1.878217e-01
<GCONST> 7.840388e+01
<STATE> 4
<MEAN> 26
 -1.312763e+01 1.435008e+00 -7.040318e-01 -1.539400e+00 -2.111649e-03 -9.830861e-01 -1.693628e+00 6.470271e-01 -1.191294e+00 9.339043e-01 9.882379e-01 -6.536909e-01 9.340786e+00 2.118698e+00 -1.133410e+00 9.648071e-01 -3.253163e+00 -2.149305e-02 -1.414750e+00 -1.501930e+00 -9.615369e-01 -2.303692e+00 1.260717e-01 -8.625011e-01 -1.024706e-01 1.912516e+00
<VARIANCE> 26
 6.971252e+00 1.056820e+01 1.623345e+01 2.353709e+01 1.408687e+01 2.459206e+01 1.579457e+01 1.826874e+01 2.288331e+01 1.536849e+01 1.442539e+01 1.422532e+01 3.078432e+00 3.227331e+00 5.703435e+00 5.888036e+00 1.168010e+01 5.126595e+00 4.467150e+00 3.745934e+00 4.666450e+00 5.314332e+00 3.969458e+00 3.499522e+00 3.121909e+00 8.707233e-01
<GCONST> 1.002913e+02
<TRANSP> 5
 0.000000e+00 1.000000e+00 0.000000e+00 0.000000e+00 0.000000e+00
 0.000000e+00 7.919475e-01 2.080525e-01 0.000000e+00 0.000000e+00
 0.000000e+00 0.000000e+00 8.171650e-01 1.828350e-01 0.000000e+00
 0.000000e+00 0.000000e+00 0.000000e+00 4.269501e-01 5.730500e-01
 0.000000e+00 0.000000e+00 0.000000e+00 0.000000e+00 0.000000e+00
<ENDHMM>
~h "a"
<BEGINHMM>
<NUMSTATES> 5
<STATE> 2
<MEAN> 26
 -1.063036e+00 -1.000520e+01 -2.269493e+00 -2.177436e+01 2.057623e-01 2.150471e-01 -1.212901e+01 9.833574e-02 -4.057118e+00 6.421077e+00 -1.644696e+00 -8.752275e+00 2.017856e+01 1.776195e+00 -3.203035e+00 -1.042996e+00 -3.401740e+00 7.951019e-01 7.853131e-01 -9.824968e-01 1.532794e+00 -1.028536e-01 5.518041e-01 -1.011116e+00 -2.297373e+00 8.900996e-01
<VARIANCE> 26
 1.817303e+01 3.318254e+01 3.532541e+01 4.862716e+01 6.254847e+01 4.605518e+01 9.131561e+01 5.529306e+01 3.106269e+01 3.643243e+01 3.340759e+01 2.903717e+01 6.544273e+00 3.401978e+00 2.847910e+00 3.071333e+00 6.942113e+00 4.172915e+00 3.798864e+00 6.743493e+00 7.574707e+00 4.764455e+00 4.134221e+00 2.649782e+00 2.822236e+00 7.359396e-01
<GCONST> 1.106290e+02
<STATE> 3
<MEAN> 26
 6.521880e-01 -1.615346e+01 -5.374469e+00 -2.609645e+01 4.791127e+00 3.230078e+00 -1.151682e+01 1.680043e+00 -3.591967e+00 3.837862e+00 -4.486245e+00 -1.285870e+01 2.180001e+01 -6.376431e-02 -1.157004e-01 5.505875e-02 1.670282e-01 1.673159e-01 -4.606251e-01 3.501830e-01 -1.296056e-01 3.583886e-02 -1.430013e-01 -2.661880e-01 1.458607e-01 -1.047227e-02
<VARIANCE> 26
 6.807490e+00 1.697395e+01 2.253555e+01 2.111835e+01 3.945842e+01 4.559607e+01 4.036931e+01 5.224170e+01 2.532160e+01 2.624032e+01 2.951566e+01 2.073935e+01 4.827592e-01 5.473205e-01 1.562926e+00 2.069059e+00 1.609184e+00 2.896471e+00 2.652533e+00 2.886670e+00 2.635840e+00 1.532755e+00 2.087927e+00 2.231277e+00 1.876972e+00 4.233657e-02
<GCONST> 9.058478e+01
<STATE> 4
<MEAN> 26
 2.435214e-01 -9.969223e+00 -1.055923e+00 -2.024778e+01 1.211442e+00 -4.120614e+00 -1.049318e+01 -1.060252e+00 -4.793046e+00 5.438148e+00 -4.350481e+00 -7.700819e+00 2.047605e+01 -5.335197e-01 3.486849e+00 1.258466e+00 3.664490e+00 -1.823493e-01 -5.309348e-01 7.076939e-01 -1.985804e+00 -4.538611e-01 -7.099267e-01 4.034900e-01 1.555036e+00 -6.629038e-01
<VARIANCE> 26
 1.055670e+01 3.554840e+01 3.786312e+01 4.362691e+01 4.505161e+01 6.573890e+01 7.251389e+01 7.308154e+01 3.986534e+01 3.200295e+01 3.837371e+01 2.610098e+01 1.266930e+00 2.257285e+00 4.463555e+00 2.812289e+00 5.154558e+00 3.833000e+00 3.613767e+00 4.586462e+00 4.535244e+00 4.686961e+00 3.146386e+00 2.663553e+00 1.968571e+00 2.071481e-01
<GCONST> 1.054093e+02
<TRANSP> 5
 0.000000e+00 1.000000e+00 0.000000e+00 0.000000e+00 0.000000e+00
 0.000000e+00 5.894066e-01 4.105934e-01 0.000000e+00 0.000000e+00
 0.000000e+00 0.000000e+00 8.361286e-01 1.638714e-01 0.000000e+00
 0.000000e+00 0.000000e+00 0.000000e+00 6.494753e-01 3.505247e-01
 0.000000e+00 0.000000e+00 0.000000e+00 0.000000e+00 0.000000e+00
<ENDHMM>
~h "b"
<BEGINHMM>
<NUMSTATES> 5
<STATE> 2
<MEAN> 26
 4.935735e+00 2.687100e+00 4.874475e+00 -6.276849e-01 -2.136306e+00 5.976960e+00 -1.135896e+01 -5.798019e+00 -1.512811e+01 -5.343381e+00 4.735183e+00 -6.806900e+00 1.873822e+01 1.865342e+00 2.737190e+00 -7.303081e-02 1.349418e+00 2.102142e+00 8.369807e-02 3.518402e-01 -1.413145e+00 1.207609e+00 7.203336e-01 6.778845e-01 2.032327e-01 -1.882198e-01
<VARIANCE> 26
 2.326291e+01 2.004520e+01 3.128359e+01 3.757043e+01 5.626833e+01 5.686945e+01 3.809473e+01 3.350556e+01 9.173894e+01 6.373018e+01 3.444272e+01 3.055585e+01 2.860150e+00 2.968426e+00 2.544736e+00 3.374812e+00 9.700582e+00 4.446213e+00 5.076611e+00 4.823820e+00 3.268722e+00 9.008168e+00 5.187512e+00 4.027661e+00 3.016858e+00 2.874968e-01
<GCONST> 1.093855e+02
<STATE> 3
<MEAN> 26
 7.190216e+00 1.120961e+01 5.882083e+00 1.006915e+00 3.735670e+00 4.309118e+00 -8.783640e+00 -8.327454e+00 -8.427914e+00 -8.339097e-01 5.622117e+00 -5.278074e+00 1.774805e+01 -8.187690e-01 2.928228e-01 -6.932127e-02 -2.274353e-01 4.012575e-01 -2.199499e-01 7.986079e-01 -3.357868e-01 4.983396e-01 2.696823e-01 -5.806234e-01 5.425344e-01 -1.137361e-01
<VARIANCE> 26
 7.328408e+00 1.928785e+01 1.419618e+01 2.821040e+01 3.000786e+01 2.778665e+01 4.388855e+01 1.800032e+01 1.893826e+01 2.749806e+01 2.327726e+01 2.394014e+01 6.602196e-01 2.325454e+00 4.254861e+00 1.568620e+00 4.061408e+00 2.417311e+00 2.002096e+00 1.601755e+00 2.029498e+00 3.230757e+00 1.984593e+00 2.748983e+00 1.517198e+00 3.092374e-02
<GCONST> 9.099934e+01
<STATE> 4
<MEAN> 26
 -5.382168e-01 3.632719e+00 5.694803e+00 -6.582349e+00 3.967839e+00 1.659313e+00 -7.716109e+00 -9.332983e+00 -8.173885e+00 3.831817e-01 -5.630916e-01 -2.916067e+00 1.821497e+01 -1.201722e+00 -3.484268e+00 -7.721961e-01 -2.776225e+00 -8.085413e-01 -1.026530e+00 -1.476609e+00 2.403100e-01 6.986691e-01 9.362382e-01 -5.249103e-01 8.252053e-01 4.398915e-01
<VARIANCE> 26
 1.589687e+01 3.548567e+01 1.710592e+01 6.153770e+01 3.466805e+01 2.835199e+01 6.730376e+01 2.120725e+01 3.480350e+01 5.547287e+01 3.778558e+01 2.034652e+01 1.077446e+00 2.293082e+00 4.461963e+00 3.223878e+00 6.581760e+00 4.193493e+00 5.312358e+00 4.569666e+00 3.456516e+00 3.163014e+00 5.834434e+00 3.314477e+00 2.503928e+00 1.328891e-01
<GCONST> 1.037751e+02
<TRANSP> 5
 0.000000e+00 1.000000e+00 0.000000e+00 0.000000e+00 0.000000e+00
 0.000000e+00 5.673978e-01 4.326021e-01 0.000000e+00 0.000000e+00
 0.000000e+00 0.000000e+00 7.596531e-01 2.403470e-01 0.000000e+00
 0.000000e+00 0.000000e+00 0.000000e+00 4.665506e-01 5.334494e-01
 0.000000e+00 0.000000e+00 0.000000e+00 0.000000e+00 0.000000e+00
<ENDHMM>
~h "d"
<BEGINHMM>
<NUMSTATES> 5
<STATE> 2
<MEAN> 26
 3.648858e+00 8.218507e+00 9.545259e+00 2.057560e+00 -2.699671e+00 -2.888500e+00 -9.661713e+00 -9.919365e-01 -6.969665e+00 1.178106e+00 -1.650118e+00 -8.443700e+00 1.779410e+01 1.993054e+00 2.605572e+00 5.896829e-01 2.466983e+00 2.940123e-01 -1.412563e+00 6.819429e-01 6.632252e-01 2.712985e+00 2.226386e-01 -1.137889e+00 -1.146807e+00 -6.712915e-02
<VARIANCE> 26
 2.657385e+01 3.112464e+01 5.123564e+01 3.568061e+01 3.892654e+01 5.118706e+01 4.574384e+01 3.127309e+01 6.651676e+01 2.250584e+01 3.480717e+01 4.375257e+01 3.281139e+00 3.102414e+00 4.009745e+00 4.339645e+00 8.395544e+00 4.227139e+00 3.174033e+00 6.142716e+00 2.824353e+00 6.559821e+00 2.695109e+00 2.684931e+00 3.829961e+00 6.821335e-01
<GCONST> 1.090914e+02
<STATE> 3
<MEAN> 26
 5.503555e+00 1.451735e+01 1.170815e+01 5.797862e+00 -2.464677e+00 -6.719931e+00 -7.914606e+00 9.166552e-01 5.040911e-01 7.228918e-01 -4.443636e+00 -8.500226e+00 1.746752e+01 -1.678566e+00 -6.080549e-01 -9.716189e-02 -9.392302e-01 9.828207e-01 8.307934e-01 8.330887e-01 -7.675249e-01 3.001852e-01 -2.363187e-01 -1.153411e-01 1.248018e+00 -1.245366e-01
<VARIANCE> 26
 7.101167e+00 1.868969e+01 1.432557e+01 1.333350e+01 2.102245e+01 2.103719e+01 1.957932e+01 1.883882e+01 2.501419e+01 1.395260e+01 2.366507e+01 2.022623e+01 4.211325e-01 3.501538e+00 6.485272e+00 2.958769e+00 4.262275e+00 3.366155e+00 4.290247e+00 2.689330e+00 2.913784e+00 3.755487e+00 2.012071e+00 2.323027e+00 2.612993e+00 5.366037e-02
<GCONST> 9.237576e+01
<STATE> 4
<MEAN> 26
 -7.249209e+00 2.296586e+00 8.400744e+00 -6.147076e+00 3.372030e+00 -3.161550e-02 -5.538614e+00 -6.791191e+00 -3.744395e+00 -2.084396e-01 -3.176406e+00 -8.967634e-01 1.784662e+01 -2.881356e+00 -2.995877e+00 1.968001e-02 -3.322611e+00 -3.499865e-01 3.338709e-01 -1.230397e+00 -1.236371e+00 -1.060064e+00 -3.859089e-01 1.077456e+00 1.699482e+00 4.779758e-01
<VARIANCE> 26
 2.135509e+01 4.923899e+01 4.287014e+01 5.126585e+01 3.284039e+01 6.765656e+01 4.621535e+01 3.438764e+01 2.590271e+01 2.807911e+01 2.354403e+01 2.563142e+01 1.345040e+00 4.525125e+00 5.199247e+00 5.047037e+00 5.118217e+00 5.555387e+00 4.811819e+00 6.929017e+00 3.713267e+00 4.487311e+00 5.466144e+00 2.878334e+00 3.375926e+00 2.060801e-01
<GCONST> 1.076410e+02
<TRANSP> 5
 0.000000e+00 1.000000e+00 0.000000e+00 0.000000e+00 0.000000e+00
 0.000000e+00 5.913268e-01 4.086732e-01 0.000000e+00 0.000000e+00
 0.000000e+00 0.000000e+00 7.168691e-01 2.831309e-01 0.000000e+00
 0.000000e+00 0.000000e+00 0.000000e+00 5.761540e-01 4.238461e-01
 0.000000e+00 0.000000e+00 0.000000e+00 0.000000e+00 0.000000e+00
<ENDHMM>
~h "e"
<BEGINHMM>
<NUMSTATES> 5
<STATE> 2
<MEAN> 26
 -3.138296e+00 -7.520416e+00 8.477818e+00 -1.495848e+01 -7.564650e+00 -7.465702e+00 -1.697729e+01 1.488654e+00 -7.826958e+00 2.598878e+00 1.415143e+00 -3.203595e+00 2.031203e+01 1.834160e+00 -2.823938e+00 1.511607e+00 -2.797139e+00 -2.489727e+00 -1.237383e+00 -2.556762e+00 2.647416e+00 -1.236992e+00 1.106547e+00 1.429467e-01 -8.121059e-01 7.920581e-01
<VARIANCE> 26
 1.079214e+01 3.223418e+01 4.658826e+01 3.750004e+01 3.320829e+01 3.476550e+01 6.030964e+01 4.044993e+01 3.321687e+01 3.407586e+01 3.368134e+01 1.986467e+01 2.988784e+00 3.955107e+00 2.684520e+00 4.310162e+00 3.603900e+00 4.543490e+00 3.503311e+00 6.296576e+00 4.629338e+00 4.424309e+00 3.069566e+00 3.426946e+00 2.270540e+00 3.473935e-01
<GCONST> 1.054341e+02
<STATE> 3
<MEAN> 26
 -2.152075e+00 -1.178071e+01 9.081779e+00 -2.027476e+01 -1.028527e+01 -8.611916e+00 -1.571803e+01 6.933542e+00 -7.998633e+00 5.127598e+00 8.706334e-01 -4.577034e+00 2.124847e+01 -3.948859e-04 -1.189818e-01 6.489320e-02 -2.862803e-01 1.598765e-01 -2.233204e-01 5.319227e-01 -1.861263e-01 -1.846262e-01 -1.299090e-02 -2.105623e-01 -9.235664e-02 -1.995944e-02
<VARIANCE> 26
 7.312471e+00 2.120545e+01 4.274179e+01 1.934076e+01 2.833889e+01 2.841365e+01 3.727809e+01 2.781903e+01 3.675599e+01 2.064550e+01 2.454148e+01 1.432478e+01 3.409360e-01 4.621178e-01 9.616697e-01 1.892313e+00 1.555666e+00 1.849685e+00 1.798109e+00 2.167986e+00 2.362124e+00 2.006326e+00 1.492252e+00 1.582128e+00 1.132753e+00 2.019982e-02
<GCONST> 8.548107e+01
<STATE> 4
<MEAN> 26
 -2.107481e+00 -9.091469e+00 9.337772e+00 -1.764022e+01 -5.965740e+00 -8.259825e+00 -1.335114e+01 2.238418e-01 -1.034148e+01 3.206972e+00 -1.518039e+00 -4.426378e+00 2.034402e+01 -3.015451e-01 2.322647e+00 -5.515107e-01 2.321850e+00 2.096118e+00 1.240868e+00 1.356926e+00 -2.556202e+00 6.716301e-01 -8.097820e-01 -8.841042e-01 1.290968e-01 -5.183434e-01
<VARIANCE> 26
 8.790513e+00 3.426788e+01 6.760279e+01 4.160877e+01 3.731900e+01 4.185451e+01 6.132941e+01 4.379321e+01 7.104797e+01 3.477140e+01 3.531683e+01 2.302377e+01 8.900939e-01 1.634785e+00 3.426715e+00 3.663605e+00 4.423691e+00 2.284048e+00 3.251020e+00 4.012441e+00 4.623199e+00 4.847498e+00 3.154727e+00 2.426691e+00 1.685190e+00 1.038091e-01
<GCONST> 1.023852e+02
<TRANSP> 5
 0.000000e+00 1.000000e+00 0.000000e+00 0.000000e+00 0.000000e+00
 0.000000e+00 5.611758e-01 4.388242e-01 0.000000e+00 0.000000e+00
 0.000000e+00 0.000000e+00 8.499711e-01 1.500289e-01 0.000000e+00
 0.000000e+00 0.000000e+00 0.000000e+00 6.469449e-01 3.530551e-01
 0.000000e+00 0.000000e+00 0.000000e+00 0.000000e+00 0.000000e+00
<ENDHMM>
~h "f"
<BEGINHMM>
<NUMSTATES> 5
<STATE> 2
<MEAN> 26
 -1.587772e+01 -2.316107e+00 1.202261e+00 -5.185765e+00 2.960225e+00 4.808674e-01 -9.637178e-01 -1.583680e+00 -1.702807e+00 1.881408e+00 -2.669049e+00 -1.621628e-01 1.554029e+01 -3.359595e+00 -1.978914e+00 -2.049360e+00 -3.059446e-01 5.802460e-01 3.570268e-01 5.854389e-01 4.802817e-01 1.330623e+00 9.309555e-01 6.027626e-01 1.112859e+00 -8.089713e-01
<VARIANCE> 26
 3.647018e+01 1.961778e+01 3.044860e+01 2.120137e+01 2.297244e+01 2.328771e+01 2.108928e+01 2.202392e+01 3.016647e+01 2.787029e+01 2.045609e+01 1.327663e+01 4.802079e+00 3.739830e+00 1.568509e+00 3.284553e+00 5.847337e+00 5.111383e+00 4.332850e+00 4.388247e+00 3.300078e+00 3.723238e+00 2.946049e+00 2.714896e+00 1.849753e+00 3.245833e-01
<GCONST> 1.005372e+02
<STATE> 3
<MEAN> 26
 -2.245009e+01 -6.419759e+00 -4.936538e+00 -8.918759e+00 5.429010e-01 4.845576e-01 -3.732839e+00 -2.949003e+00 -1.603060e+00 5.545278e+00 8.495650e-02 3.501171e+00 1.404231e+01 -9.434304e-02 -6.214766e-02 -1.663637e-01 -9.119631e-02 -2.473918e-01 -1.419693e-02 -1.903825e-01 -1.432595e-01 -8.729848e-02 1.050219e-01 6.917643e-02 8.967669e-02 6.687109e-03
<VARIANCE> 26
 6.865599e+00 5.719630e+00 9.227229e+00 1.132357e+01 2.038592e+01 1.884353e+01 1.833179e+01 1.872209e+01 1.905511e+01 1.930501e+01 1.575868e+01 1.535673e+01 1.257887e+00 7.946852e-01 5.808631e-01 9.194145e-01 1.162892e+00 1.679817e+00 1.465356e+00 1.807552e+00 1.900986e+00 1.841602e+00 2.029319e+00 1.699030e+00 1.654959e+00 7.745090e-02
<GCONST> 8.074273e+01
<STATE> 4
<MEAN> 26
 -1.851094e+01 -5.020582e+00 -2.117257e+00 -8.613731e+00 2.687521e-01 -1.963392e-02 -2.752951e+00 -3.418268e+00 -2.287899e+00 3.235941e+00 -2.051029e+00 1.643899e+00 1.522068e+01 3.828530e+00 1.602302e+00 1.715790e+00 -2.238848e-01 1.328892e-02 2.305198e-01 -9.283233e-01 -4.676318e-01 -1.329848e+00 -1.715876e+00 -6.050781e-01 -1.283115e+00 8.947550e-01
<VARIANCE> 26
 2.419502e+01 1.308935e+01 2.129854e+01 1.604814e+01 3.179409e+01 2.591851e+01 1.784766e+01 2.410996e+01 2.253601e+01 2.157129e+01 2.005574e+01 2.465929e+01 1.797426e+00 4.374761e+00 1.601752e+00 3.374464e+00 4.245503e+00 3.434262e+00 3.921955e+00 5.244853e+00 3.923043e+00 4.427379e+00 2.668835e+00 4.031266e+00 2.194433e+00 3.491367e-01
<GCONST> 9.896296e+01
<TRANSP> 5
 0.000000e+00 1.000000e+00 0.000000e+00 0.000000e+00 0.000000e+00
 0.000000e+00 6.951708e-01 3.048292e-01 0.000000e+00 0.000000e+00
 0.000000e+00 0.000000e+00 8.930058e-01 1.069942e-01 0.000000e+00
 0.000000e+00 0.000000e+00 0.000000e+00 6.157260e-01 3.842740e-01
 0.000000e+00 0.000000e+00 0.000000e+00 0.000000e+00 0.000000e+00
<ENDHMM>
~h "g"
<BEGINHMM>
<NUMSTATES> 5
<STATE> 2
<MEAN> 26
 1.396522e+00 8.640882e+00 1.202608e+01 2.468022e+00 -5.978357e+00 -3.767144e+00 -6.502959e+00 -6.413134e-01 -1.234762e+01 -4.598395e-01 4.854436e+00 -8.652268e+00 1.783863e+01 2.051625e+00 1.274482e+00 4.383160e-01 1.914165e+00 -1.597310e+00 -1.206885e+00 1.288043e+00 1.397479e-01 -1.811215e-01 -5.111270e-02 1.098215e+00 -5.205007e-01 4.086449e-02
<VARIANCE> 26
 4.273565e+01 4.540503e+01 7.013867e+01 3.603285e+01 7.689999e+01 2.344304e+01 4.264391e+01 3.079054e+01 7.081969e+01 2.967436e+01 4.101289e+01 4.692898e+01 2.206997e+00 4.918972e+00 5.021631e+00 4.667072e+00 2.486831e+00 6.985850e+00 2.533315e+00 5.266980e+00 3.827230e+00 1.160739e+01 2.109763e+00 4.293376e+00 2.548545e+00 4.176390e-01
<GCONST> 1.101252e+02
<STATE> 3
<MEAN> 26
 5.204910e+00 9.083038e+00 1.072392e+01 3.010208e+00 -1.073552e+01 -3.342826e+00 -3.153194e+00 1.052261e+00 -1.454631e+01 -4.168916e+00 8.394431e+00 -9.997546e+00 1.830751e+01 -1.544221e+00 -8.839613e-01 -2.043156e-01 -1.759470e+00 2.468231e+00 1.590300e+00 -1.283757e-01 -8.655629e-01 3.654021e-01 3.271751e-01 -1.660748e+00 1.840253e+00 -1.550209e-01
<VARIANCE> 26
 7.030102e+00 2.024736e+01 5.707280e+01 3.511082e+01 4.328819e+01 2.668345e+01 2.969890e+01 2.110172e+01 8.185719e+01 3.910031e+01 4.827111e+01 2.951711e+01 8.739561e-01 3.930925e+00 4.373000e+00 5.312037e+00 4.235887e+00 5.913956e+00 1.813548e+00 3.553391e+00 5.012326e+00 3.327927e+00 4.506652e+00 5.596571e+00 3.428157e+00 9.323211e-02
<GCONST> 1.035362e+02
<STATE> 4
<MEAN> 26
 -4.473126e+00 1.648718e+00 9.257092e+00 -7.551888e+00 5.348154e-01 1.791305e+00 -9.107270e+00 -3.214493e+00 -1.391891e+01 9.908404e-01 1.366879e-01 -2.348946e+00 1.806792e+01 -1.862939e+00 -1.642569e+00 1.597585e-01 -2.463814e+00 -8.776687e-02 -3.690127e-01 -1.873178e+00 2.428031e-02 4.172186e-01 -3.940557e-01 1.219408e-01 1.693528e+00 3.267874e-01
<VARIANCE> 26
 3.128675e+01 3.236190e+01 7.939356e+01 5.489752e+01 5.928784e+01 4.718499e+01 6.160126e+01 2.943934e+01 4.094326e+01 3.668525e+01 5.191858e+01 1.416445e+01 1.505251e+00 3.955250e+00 6.492770e+00 6.811212e+00 3.722530e+00 8.936404e+00 4.852677e+00 4.768514e+00 5.105286e+00 5.816371e+00 6.257125e+00 4.551517e+00 3.671525e+00 1.808718e-01
<GCONST> 1.109895e+02
<TRANSP> 5
 0.000000e+00 1.000000e+00 0.000000e+00 0.000000e+00 0.000000e+00
 0.000000e+00 6.031319e-01 3.968681e-01 0.000000e+00 0.000000e+00
 0.000000e+00 0.000000e+00 5.958896e-01 4.041104e-01 0.000000e+00
 0.000000e+00 0.000000e+00 0.000000e+00 5.654716e-01 4.345284e-01
 0.000000e+00 0.000000e+00 0.000000e+00 0.000000e+00 0.000000e+00
<ENDHMM>
~h "h"
<BEGINHMM>
<NUMSTATES> 5
<STATE> 2
<MEAN> 26
 -1.990855e+01 -7.512931e+00 5.786402e+00 -3.038842e+00 -6.110852e+00 -1.963241e+00 -5.053113e-01 -1.315172e+00 -5.557839e+00 3.270756e+00 -7.209891e-01 1.953936e+00 1.665080e+01 6.672426e-01 -1.509399e-02 1.716167e+00 2.432373e+00 -2.354741e-01 -1.335045e+00 -1.476118e-01 3.648249e-01 -6.987782e-01 -1.294381e+00 -3.241886e-01 -5.228288e-01 3.992675e-01
<VARIANCE> 26
 3.539705e+01 2.266660e+01 3.007977e+01 2.990191e+01 2.903936e+01 4.231468e+01 2.815737e+01 2.959776e+01 2.427902e+01 3.212997e+01 1.306986e+01 1.745251e+01 9.203562e-01 4.464928e+00 2.206955e+00 2.011279e+00 2.179012e+00 2.089239e+00 3.254734e+00 4.800302e+00 2.940119e+00 2.581215e+00 5.390236e+00 1.756684e+00 1.575207e+00 2.451077e-01
<GCONST> 9.769373e+01
<STATE> 3
<MEAN> 26
 -7.294042e+00 -2.697171e+00 1.458489e+01 7.563940e+00 -5.616669e+00 -8.216514e+00 -1.121753e+01 -1.290842e+00 -1.065687e+01 -1.094635e+01 -2.056293e+00 2.604070e+00 1.915868e+01 3.002744e+00 -1.340006e-01 1.784423e+00 1.353261e+00 -4.540116e-01 -1.272872e+00 -4.026385e+00 5.712625e-01 -1.038074e+00 -5.009839e+00 1.109143e+00 7.686058e-01 6.696074e-01
<VARIANCE> 26
 2.067029e+01 1.132549e+01 1.767593e+01 1.077319e+01 2.025491e+01 1.782432e+01 4.646055e+01 1.702070e+01 2.831850e+01 3.737158e+01 1.711918e+01 2.078222e+01 4.317433e-01 3.239376e+00 2.451252e+00 2.409868e+00 2.921255e+00 3.277489e+00 3.603047e+00 4.046154e+00 2.506015e+00 3.599908e+00 5.196058e+00 2.697028e+00 2.503243e+00 1.718702e-01
<GCONST> 9.493702e+01
<STATE> 4
<MEAN> 26
 -3.485439e+00 -5.934928e+00 1.777073e+01 6.584248e+00 -6.561038e+00 -6.423369e+00 -1.828489e+01 1.041108e+00 -9.902309e+00 -1.904227e+01 4.967723e+00 2.483867e+00 1.992327e+01 -5.490563e-02 -3.127482e-01 8.151757e-01 -1.110950e+00 -9.677898e-01 8.974651e-01 -4.619563e-01 -3.034822e-01 3.537652e-02 1.710514e-01 8.205352e-01 -8.130078e-01 1.194654e-01
<VARIANCE> 26
 6.270782e+00 1.261914e+01 2.710642e+01 4.225895e+01 1.829814e+01 1.757569e+01 4.037221e+01 2.230952e+01 3.692947e+01 4.308930e+01 1.728699e+01 2.516785e+01 2.993545e-01 8.503525e-01 5.130093e-01 2.482790e+00 3.044004e+00 2.536530e+00 2.258118e+00 3.097914e+00 2.164003e+00 1.377703e+00 4.722471e+00 1.441919e+00 1.306264e+00 1.839911e-02
<GCONST> 8.736911e+01
<TRANSP> 5
 0.000000e+00 1.000000e+00 0.000000e+00 0.000000e+00 0.000000e+00
 0.000000e+00 7.420782e-01 2.579218e-01 0.000000e+00 0.000000e+00
 0.000000e+00 0.000000e+00 6.238020e-01 3.761980e-01 0.000000e+00
 0.000000e+00 0.000000e+00 0.000000e+00 7.951372e-01 2.048628e-01
 0.000000e+00 0.000000e+00 0.000000e+00 0.000000e+00 0.000000e+00
<ENDHMM>
~h "i"
<BEGINHMM>
<NUMSTATES> 5
<STATE> 2
<MEAN> 26
 -1.095813e+01 4.759112e+00 1.806932e+01 -8.289718e+00 -2.595176e+00 -3.088488e+00 -1.386896e+01 -7.149629e+00 -8.693127e+00 -1.007712e+01 -1.906085e+00 1.917904e+00 1.930521e+01 1.053979e+00 -1.849918e-01 3.211684e+00 -1.256655e+00 -1.639300e+00 5.758364e-01 -2.674690e+00 -7.907993e-02 -2.001892e+00 -2.278492e+00 7.764655e-01 -3.066676e-01 4.283117e-01
<VARIANCE> 26
 2.389085e+01 3.375729e+01 2.820548e+01 2.854008e+01 4.869528e+01 2.611815e+01 3.380188e+01 2.862245e+01 3.656509e+01 4.424288e+01 3.323673e+01 2.235737e+01 1.299273e+00 4.133390e+00 3.062755e+00 4.096103e+00 3.743081e+00 5.436884e+00 3.698298e+00 4.094696e+00 2.555508e+00 4.471354e+00 4.047630e+00 3.054498e+00 2.181443e+00 1.633058e-01
<GCONST> 1.030503e+02
<STATE> 3
<MEAN> 26
 -9.854549e+00 4.081820e+00 2.285585e+01 -1.231391e+01 -6.118211e+00 2.021966e+00 -2.012459e+01 -4.328281e+00 -1.347464e+01 -1.449727e+01 3.213905e+00 -1.605601e+00 1.999039e+01 -3.567878e-02 2.494633e-01 5.651785e-02 -5.248158e-01 -2.357648e-01 1.990612e-01 -1.541763e-01 2.450254e-01 -4.879134e-01 2.745636e-01 7.996876e-03 -4.750473e-01 -1.492485e-02
<VARIANCE> 26
 7.687857e+00 1.847690e+01 1.556989e+01 2.498414e+01 3.439742e+01 2.367037e+01 2.751922e+01 2.616015e+01 4.231319e+01 2.832441e+01 3.210617e+01 2.136808e+01 3.885694e-01 8.565975e-01 1.960504e+00 1.746848e+00 2.079610e+00 2.413437e+00 2.172756e+00 2.429811e+00 2.083699e+00 2.462882e+00 2.384234e+00 1.870454e+00 1.365642e+00 2.327981e-02
<GCONST> 8.869563e+01
<STATE> 4
<MEAN> 26
 -7.693055e+00 4.600112e+00 1.759940e+01 -9.815699e+00 -5.812044e+00 -1.934851e+00 -1.376260e+01 -5.025977e+00 -1.297713e+01 -7.357856e+00 -3.676230e-01 -2.036180e+00 1.925080e+01 6.248484e-01 3.674834e-01 -2.184257e+00 1.787107e+00 9.662530e-01 -8.452507e-01 2.156430e+00 -3.362498e-01 1.283928e+00 1.694240e+00 -8.689227e-01 4.969364e-02 -3.726463e-01
<VARIANCE> 26
 2.493865e+01 5.186384e+01 3.740052e+01 5.945800e+01 5.650728e+01 3.320501e+01 5.070406e+01 4.405445e+01 7.087105e+01 4.460186e+01 4.855611e+01 3.343812e+01 1.505407e+00 4.190441e+00 3.787370e+00 3.680440e+00 4.470229e+00 4.312437e+00 3.967345e+00 3.877990e+00 3.842169e+00 4.592672e+00 3.852842e+00 3.335533e+00 3.180292e+00 1.471817e-01
<GCONST> 1.081901e+02
<TRANSP> 5
 0.000000e+00 1.000000e+00 0.000000e+00 0.000000e+00 0.000000e+00
 0.000000e+00 5.988836e-01 4.011165e-01 0.000000e+00 0.000000e+00
 0.000000e+00 0.000000e+00 8.054073e-01 1.945927e-01 0.000000e+00
 0.000000e+00 0.000000e+00 0.000000e+00 6.988235e-01 3.011765e-01
 0.000000e+00 0.000000e+00 0.000000e+00 0.000000e+00 0.000000e+00
<ENDHMM>
~h "j"
<BEGINHMM>
<NUMSTATES> 5
<STATE> 2
<MEAN> 26
 -1.109949e+01 6.209073e+00 2.161137e+01 -8.273590e+00 -2.131852e+00 -2.011290e+00 -1.432698e+01 -4.828357e+00 -1.042760e+01 -7.508872e+00 -1.862427e-01 1.404027e+00 1.913198e+01 9.517901e-01 -1.236761e-01 7.451933e-01 2.968768e-01 -7.345929e-01 -5.719312e-01 -1.071033e+00 5.076376e-01 -6.819633e-01 -1.315431e+00 4.255631e-01 3.104348e-02 2.194773e-01
<VARIANCE> 26
 1.509689e+01 2.395942e+01 2.378232e+01 4.421517e+01 4.534962e+01 2.555099e+01 3.609797e+01 3.044975e+01 4.297891e+01 3.558832e+01 2.275936e+01 1.870853e+01 6.884512e-01 6.585194e+00 4.003539e+00 3.734859e+00 3.428914e+00 4.448478e+00 4.030979e+00 5.748349e+00 3.451817e+00 3.332455e+00 4.606758e+00 1.984951e+00 1.430414e+00 1.744072e-01
<GCONST> 1.014292e+02
<STATE> 3
<MEAN> 26
 -6.702853e+00 -1.650165e+00 1.762427e+01 -7.126450e+00 -1.057821e+01 -5.010363e+00 -1.797562e+01 -2.083742e+00 -1.135320e+01 -1.044499e+01 1.927922e+00 7.645015e-01 2.024833e+01 2.723657e+00 -2.780591e+00 -1.442981e+00 -1.187499e+00 -1.844394e+00 -8.714010e-01 -2.967535e+00 2.924156e+00 8.549187e-02 4.102285e-01 1.570786e+00 -9.472812e-01 4.961994e-01
<VARIANCE> 26
 9.411486e+00 1.674077e+01 3.348211e+01 8.315152e+01 2.732674e+01 3.094960e+01 3.321979e+01 4.082384e+01 3.601490e+01 4.676942e+01 1.725250e+01 1.092398e+01 5.322239e-01 3.171692e+00 1.745189e+00 3.817208e+00 3.552097e+00 4.641943e+00 3.790158e+00 7.765445e+00 3.241460e+00 2.808214e+00 9.106851e+00 3.567431e+00 2.177047e+00 6.552193e-02
<GCONST> 9.974373e+01
<STATE> 4
<MEAN> 26
 -2.211010e+00 -7.920567e+00 9.468369e+00 -1.273397e+01 -1.072513e+01 -1.844912e+00 -2.206729e+01 4.442926e+00 -8.707046e+00 -1.851774e+00 3.484293e+00 -3.702835e+00 2.080535e+01 1.236529e+00 -9.237686e-01 -2.915550e+00 -1.778307e+00 8.523386e-01 2.248627e+00 2.488139e-01 1.382001e-01 2.822655e-01 2.255075e+00 2.999522e-01 -1.297359e+00 9.787693e-02
<VARIANCE> 26
 7.499818e+00 2.112790e+01 5.181797e+01 6.034132e+01 2.540861e+01 3.814275e+01 3.890395e+01 3.324901e+01 3.924675e+01 7.000974e+01 4.325719e+01 2.818943e+01 8.849927e-01 7.960188e-01 3.378811e+00 2.438938e+00 4.516631e+00 3.201651e+00 5.393174e+00 6.311542e+00 6.527687e+00 4.844326e+00 3.622829e+00 5.703716e+00 2.091873e+00 4.597940e-02
<GCONST> 1.020626e+02
<TRANSP> 5
 0.000000e+00 1.000000e+00 0.000000e+00 0.000000e+00 0.000000e+00
 0.000000e+00 7.113444e-01 2.886556e-01 0.000000e+00 0.000000e+00
 0.000000e+00 0.000000e+00 4.761015e-01 5.238985e-01 0.000000e+00
 0.000000e+00 0.000000e+00 0.000000e+00 5.826942e-01 4.173058e-01
 0.000000e+00 0.000000e+00 0.000000e+00 0.000000e+00 0.000000e+00
<ENDHMM>
~h "k"
<BEGINHMM>
<NUMSTATES> 5
<STATE> 2
<MEAN> 26
 -9.082243e+00 8.093755e-01 1.316767e-02 -6.201753e-01 1.892246e+00 4.950261e-01 -2.188961e+00 -6.973221e-01 -5.521297e+00 -3.329717e-01 -1.457871e-01 -2.064692e+00 1.221409e+01 -1.415117e+00 -1.160257e+00 -1.347605e+00 -1.409630e+00 7.229847e-02 4.092253e-01 9.119342e-02 -4.549500e-01 5.770173e-01 2.508915e-01 -4.658678e-02 8.858500e-01 -3.354257e-01
<VARIANCE> 26
 3.600008e+01 3.861259e+01 3.824732e+01 3.682158e+01 3.134260e+01 2.967275e+01 3.863026e+01 2.836245e+01 4.960497e+01 3.946328e+01 3.307660e+01 2.601840e+01 8.645083e+00 5.834673e+00 5.319973e+00 6.138563e+00 1.635578e+01 5.262234e+00 3.497534e+00 8.339901e+00 5.190961e+00 7.312642e+00 4.460001e+00 4.362930e+00 3.499181e+00 2.736243e+00
<GCONST> 1.145425e+02
<STATE> 3
<MEAN> 26
 -9.702423e+00 -6.641876e+00 -8.218857e+00 -1.775381e+01 1.238754e-01 1.771596e+00 -8.049392e+00 -2.783841e+00 -8.866633e+00 3.287822e+00 1.580084e-01 -8.044770e-01 1.586636e+01 7.231275e-01 -1.482044e+00 -1.674205e+00 -5.035185e+00 -3.081110e-01 3.227496e-02 -2.008861e+00 -1.342394e+00 -1.940925e+00 1.078166e+00 1.088484e-02 -1.972964e-01 1.721976e+00
<VARIANCE> 26
 3.334386e+01 3.679002e+01 7.018609e+01 5.651674e+01 5.506348e+01 4.578784e+01 6.552242e+01 4.821282e+01 4.112654e+01 3.546954e+01 2.634002e+01 2.979315e+01 4.721280e+00 3.895701e+00 3.271082e+00 6.833755e+00 7.641778e+00 4.375292e+00 3.388266e+00 4.058191e+00 4.113357e+00 6.659925e+00 2.392870e+00 3.050700e+00 3.228874e+00 8.424090e-01
<GCONST> 1.114723e+02
<STATE> 4
<MEAN> 26
 -1.007428e+01 -3.984965e+00 -5.592838e+00 -1.668359e+01 6.957608e-01 4.164949e-01 -6.039389e+00 -5.324909e+00 -8.218510e+00 3.394349e+00 -1.254270e-01 -1.337837e-01 1.680061e+01 1.028292e+00 1.382939e+00 2.065200e+00 1.395279e+00 -5.683517e-01 -4.643100e-01 2.644538e-01 -3.409415e-01 -2.838457e-01 -8.571181e-01 5.539690e-01 -1.520207e-01 4.948209e-01
<VARIANCE> 26
 4.560494e+01 2.941635e+01 8.806250e+01 7.742841e+01 5.233029e+01 3.722112e+01 5.636735e+01 4.493635e+01 6.951994e+01 3.789092e+01 3.126785e+01 2.881482e+01 3.356713e+00 5.159525e+00 3.704762e+00 3.921811e+00 5.970048e+00 5.650289e+00 4.184784e+00 7.189560e+00 4.554066e+00 4.816158e+00 3.731544e+00 4.525803e+00 3.286114e+00 4.433483e-01
<GCONST> 1.126466e+02
<TRANSP> 5
 0.000000e+00 1.000000e+00 0.000000e+00 0.000000e+00 0.000000e+00
 0.000000e+00 6.887857e-01 3.112143e-01 0.000000e+00 0.000000e+00
 0.000000e+00 0.000000e+00 3.923605e-01 6.076395e-01 0.000000e+00
 0.000000e+00 0.000000e+00 0.000000e+00 6.233010e-01 3.766990e-01
 0.000000e+00 0.000000e+00 0.000000e+00 0.000000e+00 0.000000e+00
<ENDHMM>
~h "l"
<BEGINHMM>
<NUMSTATES> 5
<STATE> 2
<MEAN> 26
 -1.096410e+00 -3.126470e+00 3.729384e+00 -2.870787e+00 1.274541e+00 -2.500836e+00 -1.347679e+01 -7.252786e+00 -3.146331e+00 2.922597e+00 -3.228781e+00 -3.231034e+00 1.729032e+01 2.199228e+00 -2.769232e-01 1.428625e+00 -3.803084e-02 1.338938e+00 -1.268340e+00 -3.268519e+00 -1.508837e+00 -1.049412e+00 -2.771162e-01 -1.096705e+00 -1.212107e+00 8.279372e-01
<VARIANCE> 26
 5.051830e+01 2.997781e+01 7.892251e+01 3.771545e+01 3.700833e+01 5.207982e+01 9.676129e+01 9.521259e+01 4.266269e+01 4.866913e+01 3.687090e+01 2.830664e+01 1.019409e+01 5.786797e+00 5.014716e+00 4.149235e+00 4.056594e+00 6.686625e+00 4.117088e+00 8.099551e+00 5.810432e+00 4.459147e+00 4.580893e+00 4.169827e+00 3.731037e+00 7.685158e-01
<GCONST> 1.155652e+02
<STATE> 3
<MEAN> 26
 2.470945e+00 -1.835554e+00 1.036082e+01 -4.366529e+00 3.775450e+00 -4.377810e+00 -2.450009e+01 -7.813786e+00 -5.691049e+00 -1.545757e+00 -2.866706e+00 -6.721515e+00 1.962001e+01 -1.409393e-01 1.032032e-01 4.597805e-01 -1.919751e-01 7.730648e-02 8.699043e-02 -7.668814e-01 5.649925e-01 -6.137404e-02 -5.609149e-01 4.852732e-01 -6.059172e-01 1.049628e-01
<VARIANCE> 26
 1.877437e+01 2.834674e+01 9.274624e+01 5.230568e+01 5.364751e+01 4.881767e+01 5.618634e+01 7.324277e+01 3.574574e+01 4.855150e+01 3.307244e+01 4.026478e+01 3.815845e-01 8.210664e-01 2.306110e+00 2.546857e+00 2.342939e+00 2.506150e+00 3.059770e+00 4.648829e+00 4.271138e+00 3.429984e+00 3.188002e+00 2.127223e+00 2.585050e+00 3.358557e-02
<GCONST> 1.005847e+02
<STATE> 4
<MEAN> 26
 1.877837e+00 -5.276271e+00 6.604803e+00 -6.308521e+00 8.665473e-01 -2.974849e+00 -1.962804e+01 -5.243184e+00 -6.407611e+00 5.323041e-01 -1.030290e+00 -8.650588e+00 1.961765e+01 -5.674455e-01 -7.772027e-01 -1.127563e-01 -1.743306e+00 -1.775468e+00 1.948173e-01 1.776098e+00 1.380571e+00 -3.877565e-01 7.903221e-01 1.303577e+00 3.947209e-01 6.537820e-02
<VARIANCE> 26
 1.509233e+01 2.447832e+01 6.500744e+01 8.267175e+01 6.337487e+01 4.590183e+01 9.659972e+01 8.133754e+01 4.671790e+01 7.708418e+01 4.116174e+01 3.799695e+01 1.493931e+00 1.157711e+00 3.543783e+00 7.862290e+00 6.541549e+00 7.363819e+00 5.396692e+00 4.930758e+00 7.219692e+00 6.002527e+00 7.704055e+00 5.102814e+00 3.873607e+00 6.126505e-02
<GCONST> 1.118083e+02
<TRANSP> 5
 0.000000e+00 1.000000e+00 0.000000e+00 0.000000e+00 0.000000e+00
 0.000000e+00 5.714464e-01 4.285536e-01 0.000000e+00 0.000000e+00
 0.000000e+00 0.000000e+00 7.292419e-01 2.707581e-01 0.000000e+00
 0.000000e+00 0.000000e+00 0.000000e+00 6.166739e-01 3.833261e-01
 0.000000e+00 0.000000e+00 0.000000e+00 0.000000e+00 0.000000e+00
<ENDHMM>
~h "m"
<BEGINHMM>
<NUMSTATES> 5
<STATE> 2
<MEAN> 26
 2.094719e+00 -8.644515e-01 2.452037e+00 2.004225e+00 -5.789754e+00 1.249751e+00 -1.005129e+01 -4.244255e-01 -1.977447e+01 -4.898333e+00 8.464101e+00 -6.947116e+00 1.925316e+01 9.862873e-01 6.261659e-01 -1.157342e-01 4.181774e+00 -6.825911e-02 -2.602232e-01 1.834947e-01 -7.911531e-01 -3.830836e+00 -6.984108e-01 1.335014e+00 -1.217589e+00 2.781219e-01
<VARIANCE> 26
 1.692844e+01 2.647378e+01 3.345956e+01 6.455713e+01 3.010816e+01 4.316076e+01 6.921188e+01 3.514505e+01 7.568289e+01 6.036084e+01 4.301744e+01 2.674990e+01 4.903903e+00 2.488973e+00 2.343687e+00 4.694739e+00 9.581749e+00 2.608859e+00 4.467225e+00 6.611548e+00 5.331479e+00 5.668931e+00 3.091642e+00 4.416628e+00 2.336299e+00 3.875167e-01
<GCONST> 1.094370e+02
<STATE> 3
<MEAN> 26
 2.477473e+00 -1.235095e+00 3.232092e+00 7.399864e+00 -7.123460e+00 8.502442e-01 -1.207660e+01 -3.567475e+00 -2.583005e+01 -5.492706e+00 1.280472e+01 -9.688378e+00 2.041061e+01 -1.213740e-01 -2.398606e-01 6.795491e-02 8.689830e-02 7.697032e-02 9.957447e-02 1.369422e-02 -2.801763e-01 -3.261248e-01 1.018981e-01 4.381486e-02 5.417383e-02 3.749178e-02
<VARIANCE> 26
 5.946544e+00 2.071982e+01 1.335663e+01 1.410739e+01 1.967598e+01 4.236108e+01 5.040757e+01 4.236295e+01 3.742931e+01 7.109882e+01 3.941856e+01 3.386146e+01 1.389202e-01 2.345652e-01 1.045417e+00 1.040709e+00 3.219319e+00 1.096310e+00 1.865924e+00 2.306179e+00 1.834354e+00 2.606751e+00 2.323380e+00 2.705916e+00 1.841477e+00 8.470166e-03
<GCONST> 8.593604e+01
<STATE> 4
<MEAN> 26
 2.046623e+00 -3.965636e+00 2.437971e+00 -1.127806e+00 -7.152805e+00 3.526973e+00 -1.336412e+01 -2.054108e+00 -2.109322e+01 -5.199421e+00 9.130589e+00 -7.100222e+00 2.043736e+01 -3.801539e-01 -9.897419e-01 4.022002e-02 -5.436682e+00 -4.725488e-01 7.924439e-01 -4.453680e-01 1.629627e+00 3.787026e+00 2.830313e-01 -1.827928e+00 8.405465e-01 8.268848e-02
<VARIANCE> 26
 7.698577e+00 1.964098e+01 2.458641e+01 7.842814e+01 3.037313e+01 5.850924e+01 5.448283e+01 3.738992e+01 6.538816e+01 5.913742e+01 4.753040e+01 2.459683e+01 1.963653e-01 7.978701e-01 2.737480e+00 5.011203e+00 8.296065e+00 2.932639e+00 3.263981e+00 2.861423e+00 4.591650e+00 4.238802e+00 2.666487e+00 3.552078e+00 2.431886e+00 3.026129e-02
<GCONST> 9.959273e+01
<TRANSP> 5
 0.000000e+00 1.000000e+00 0.000000e+00 0.000000e+00 0.000000e+00
 0.000000e+00 5.829520e-01 4.170480e-01 0.000000e+00 0.000000e+00
 0.000000e+00 0.000000e+00 7.884024e-01 2.115976e-01 0.000000e+00
 0.000000e+00 0.000000e+00 0.000000e+00 5.961043e-01 4.038958e-01
 0.000000e+00 0.000000e+00 0.000000e+00 0.000000e+00 0.000000e+00
<ENDHMM>
~h "n"
<BEGINHMM>
<NUMSTATES> 5
<STATE> 2
<MEAN> 26
 6.530755e-01 2.489372e+00 6.773205e+00 3.038113e+00 -1.159244e+01 2.530608e+00 -9.993144e+00 -1.933974e+00 -1.906049e+01 -1.226280e+00 -3.041498e-02 -7.381091e+00 1.987459e+01 1.042524e+00 1.135973e+00 -1.071579e+00 3.544498e+00 -1.518406e+00 -3.121169e-02 2.119668e+00 -1.435719e+00 -1.978407e+00 7.331823e-01 -8.572319e-01 -1.895663e-01 2.356666e-01
<VARIANCE> 26
 9.681502e+00 2.419131e+01 2.029217e+01 4.142489e+01 4.175173e+01 4.669514e+01 4.414967e+01 4.504131e+01 5.783239e+01 4.951245e+01 4.121483e+01 2.065587e+01 2.163336e+00 1.696074e+00 2.179827e+00 5.572642e+00 4.900177e+00 4.328275e+00 3.237306e+00 6.795481e+00 3.735474e+00 5.762055e+00 3.826509e+00 3.126234e+00 2.862512e+00 3.322722e-01
<GCONST> 1.052956e+02
<STATE> 3
<MEAN> 26
 1.550496e+00 2.383953e+00 5.385211e+00 7.773475e+00 -1.443491e+01 2.344283e+00 -6.085772e+00 -5.151542e+00 -1.823305e+01 -1.979210e+00 -8.845822e-01 -6.251925e+00 2.043960e+01 -9.538981e-02 -8.445613e-02 -2.641063e-04 2.699515e-02 6.851997e-02 -2.565590e-01 2.991306e-01 4.702514e-02 2.279543e-01 -3.578059e-01 2.653907e-01 1.249419e-01 2.822369e-02
<VARIANCE> 26
 5.664327e+00 1.320028e+01 8.000553e+00 1.597102e+01 1.440456e+01 1.958439e+01 2.660426e+01 2.533016e+01 3.629298e+01 6.183038e+01 4.383057e+01 2.145132e+01 1.838070e-01 2.539507e-01 1.064408e+00 7.380720e-01 1.141030e+00 1.238078e+00 1.690502e+00 1.404917e+00 1.413027e+00 1.894217e+00 2.329561e+00 2.109797e+00 1.754991e+00 6.681965e-03
<GCONST> 7.970264e+01
<STATE> 4
<MEAN> 26
 -3.771755e-01 1.619125e-01 7.527155e+00 1.120009e+00 -1.178644e+01 8.658862e-01 -1.075956e+01 -2.067805e+00 -1.511219e+01 -5.001148e+00 1.598768e+00 -6.700933e+00 2.054326e+01 -8.544306e-01 -1.202971e+00 8.188545e-01 -3.962212e+00 1.419401e+00 -2.919039e-01 -2.580914e+00 1.578323e+00 2.233872e+00 -1.163121e+00 1.447553e+00 -7.705314e-02 3.396749e-02
<VARIANCE> 26
 6.611665e+00 1.755668e+01 1.978904e+01 5.607310e+01 3.265264e+01 3.548555e+01 4.315784e+01 3.164182e+01 4.928769e+01 7.999129e+01 4.931017e+01 3.416666e+01 1.547198e-01 5.408399e-01 1.426791e+00 3.237619e+00 4.925308e+00 3.747419e+00 3.113849e+00 5.286993e+00 3.785489e+00 5.063426e+00 3.227922e+00 3.406050e+00 2.107678e+00 8.425346e-03
<GCONST> 9.561997e+01
<TRANSP> 5
 0.000000e+00 1.000000e+00 0.000000e+00 0.000000e+00 0.000000e+00
 0.000000e+00 5.930331e-01 4.069668e-01 0.000000e+00 0.000000e+00
 0.000000e+00 0.000000e+00 7.353871e-01 2.646129e-01 0.000000e+00
 0.000000e+00 0.000000e+00 0.000000e+00 6.670219e-01 3.329781e-01
 0.000000e+00 0.000000e+00 0.000000e+00 0.000000e+00 0.000000e+00
<ENDHMM>
~h "o"
<BEGINHMM>
<NUMSTATES> 5
<STATE> 2
<MEAN> 26
 6.291595e-02 -2.424069e-01 1.129775e+00 -2.106975e+01 -8.886837e+00 6.973485e+00 -1.488278e+01 -7.238144e+00 -1.259872e+01 7.937689e-02 8.440340e+00 -6.090156e+00 2.043917e+01 1.827382e+00 -7.786204e-01 -1.567212e-02 -3.033507e+00 -2.985777e+00 2.210365e+00 -2.725679e+00 2.394174e-01 -1.908497e+00 -8.231211e-02 2.611233e+00 -1.589548e+00 7.572041e-01
<VARIANCE> 26
 1.298870e+01 3.743419e+01 2.358866e+01 7.243821e+01 4.894847e+01 3.185385e+01 7.304006e+01 5.512875e+01 5.251537e+01 5.107082e+01 7.070129e+01 3.307982e+01 2.589608e+00 3.778519e+00 2.971516e+00 3.813360e+00 6.963385e+00 4.874909e+00 3.008613e+00 4.540342e+00 4.130268e+00 6.241389e+00 4.869408e+00 5.283056e+00 3.409986e+00 2.821686e-01
<GCONST> 1.100254e+02
<STATE> 3
<MEAN> 26
 1.501910e+00 -3.713685e+00 -1.750532e+00 -2.707025e+01 -1.176411e+01 1.156792e+01 -1.583760e+01 -5.638772e+00 -1.444633e+01 1.719956e+00 1.111228e+01 -8.056434e+00 2.171222e+01 3.115991e-02 -5.592191e-02 -2.410883e-01 -2.764675e-01 7.692152e-02 1.238083e-01 3.673843e-01 -2.183081e-02 -1.837340e-01 -9.179056e-02 -3.880312e-01 1.751233e-02 1.894738e-02
<VARIANCE> 26
 5.083294e+00 3.219073e+01 2.513889e+01 3.768339e+01 3.116603e+01 1.638047e+01 4.810822e+01 3.546919e+01 3.539836e+01 8.435233e+01 4.192435e+01 2.928605e+01 3.365087e-01 3.960972e-01 1.160073e+00 1.338334e+00 3.222368e+00 2.153702e+00 1.946457e+00 3.603715e+00 1.783210e+00 2.448161e+00 2.455996e+00 2.602626e+00 1.961303e+00 2.806776e-02
<GCONST> 9.126750e+01
<STATE> 4
<MEAN> 26
 1.176889e+00 -1.617008e+00 1.891904e-01 -2.035379e+01 -7.505502e+00 6.629304e+00 -1.605788e+01 -6.801890e+00 -1.330306e+01 -4.014726e-01 6.268381e+00 -8.096577e+00 2.072155e+01 -3.881649e-01 1.023970e+00 8.100477e-01 3.745522e+00 2.182339e+00 -2.000274e+00 1.845014e+00 -2.803709e-02 1.438747e+00 -4.213486e-01 -2.630809e+00 9.019148e-01 -5.119133e-01
<VARIANCE> 26
 9.501244e+00 4.500437e+01 3.436644e+01 1.020981e+02 3.925690e+01 3.608103e+01 1.295502e+02 6.011252e+01 3.503823e+01 5.954373e+01 6.541016e+01 5.662051e+01 1.310675e+00 2.198337e+00 3.573306e+00 3.014426e+00 6.239299e+00 4.645107e+00 3.511801e+00 6.257717e+00 3.557010e+00 5.933983e+00 4.767235e+00 5.069003e+00 2.626932e+00 1.468969e-01
<GCONST> 1.092565e+02
<TRANSP> 5
 0.000000e+00 1.000000e+00 0.000000e+00 0.000000e+00 0.000000e+00
 0.000000e+00 5.795212e-01 4.204787e-01 0.000000e+00 0.000000e+00
 0.000000e+00 0.000000e+00 8.328949e-01 1.671050e-01 0.000000e+00
 0.000000e+00 0.000000e+00 0.000000e+00 6.112869e-01 3.887131e-01
 0.000000e+00 0.000000e+00 0.000000e+00 0.000000e+00 0.000000e+00
<ENDHMM>
~h "p"
<BEGINHMM>
<NUMSTATES> 5
<STATE> 2
<MEAN> 26
 -4.728892e+00 7.649019e+00 4.009687e+00 3.115432e+00 1.869036e+00 4.761375e-01 -3.730900e+00 -3.555230e+00 -6.264120e+00 -2.109330e+00 -1.234234e+00 -5.336931e+00 1.372679e+01 -3.129292e+00 2.526639e-02 -5.395336e-01 1.603583e+00 9.546271e-01 1.931693e-01 1.512530e+00 7.622659e-01 1.796546e+00 1.297475e-02 -4.294709e-01 2.551005e-01 -1.652525e+00
<VARIANCE> 26
 4.933937e+01 2.623741e+01 2.396430e+01 2.040807e+01 1.995930e+01 1.620935e+01 3.555264e+01 2.178095e+01 3.390617e+01 2.630564e+01 2.383773e+01 1.817890e+01 8.092217e+00 3.161982e+00 7.413545e+00 3.455963e+00 8.279639e+00 2.254423e+00 3.196321e+00 3.937143e+00 3.246893e+00 3.020472e+00 3.883169e+00 3.108528e+00 2.328286e+00 5.614880e-01
<GCONST> 1.034260e+02
<STATE> 3
<MEAN> 26
 -1.347186e+01 2.157152e+00 -1.173893e-01 1.579347e+00 1.977754e+00 1.500397e+00 -3.000546e-01 1.633661e+00 2.007201e-01 1.745109e+00 1.554228e+00 -7.727196e-01 9.685090e+00 2.868726e-02 -7.423389e-01 -3.645949e-01 -1.178704e+00 -2.599501e-01 -2.400727e-01 5.634713e-02 -9.913083e-02 3.843890e-01 4.169981e-01 3.024281e-01 7.174863e-01 3.131273e-01
<VARIANCE> 26
 2.027934e+00 3.902867e+00 5.786696e+00 8.313513e+00 1.059303e+01 1.079703e+01 1.417926e+01 1.298558e+01 1.342938e+01 1.374048e+01 1.330717e+01 1.665695e+01 2.749261e+00 1.497202e+00 1.036873e+00 1.372410e+00 2.791111e+00 1.623953e+00 1.372014e+00 1.830637e+00 2.934515e+00 2.227853e+00 2.078763e+00 1.731828e+00 2.186577e+00 1.097136e+00
<GCONST> 8.253449e+01
<STATE> 4
<MEAN> 26
 -1.051131e+01 -1.988228e+00 7.302516e-01 -7.007873e+00 2.750553e+00 -6.999617e-01 -1.174358e+00 -3.732941e+00 -4.250615e-01 2.997146e+00 2.275762e-01 2.019417e+00 1.525817e+01 2.059644e+00 -1.243621e+00 -7.697167e-02 -3.391509e+00 -4.170988e-01 5.571181e-01 -1.746261e+00 -1.155697e+00 -1.225452e+00 1.757703e-01 2.759640e-02 -7.349991e-01 1.984997e+00
<VARIANCE> 26
 1.724343e+01 1.480827e+01 1.748796e+01 2.101518e+01 1.900505e+01 2.284816e+01 2.124774e+01 2.274258e+01 2.735174e+01 1.676899e+01 1.670772e+01 2.026633e+01 4.803599e+00 4.702127e+00 3.093498e+00 3.373799e+00 6.586361e+00 4.383456e+00 5.406137e+00 5.432031e+00 3.127170e+00 5.322493e+00 3.426691e+00 3.280619e+00 4.198709e+00 1.085544e+00
<GCONST> 1.023954e+02
<TRANSP> 5
 0.000000e+00 1.000000e+00 0.000000e+00 0.000000e+00 0.000000e+00
 0.000000e+00 6.714737e-01 3.285263e-01 0.000000e+00 0.000000e+00
 0.000000e+00 0.000000e+00 7.825625e-01 2.174376e-01 0.000000e+00
 0.000000e+00 0.000000e+00 0.000000e+00 5.722854e-01 4.277146e-01
 0.000000e+00 0.000000e+00 0.000000e+00 0.000000e+00 0.000000e+00
<ENDHMM>
~h "q"
<BEGINHMM>
<NUMSTATES> 5
<STATE> 2
<MEAN> 26
 -1.396779e+00 -4.170537e+00 5.999344e+00 -1.508479e+01 -5.944777e+00 3.327199e+00 -1.939465e+01 -5.633636e+00 -9.354968e+00 3.234426e+00 4.819542e+00 -6.852243e+00 2.030830e+01 1.260336e+00 -1.409306e+00 3.707137e-03 -6.459673e-01 -1.353903e+00 3.930880e-01 -3.333612e+00 6.103827e-01 -9.111602e-01 1.136196e+00 1.790706e+00 -1.836402e+00 3.874557e-01
<VARIANCE> 26
 1.630961e+01 2.015260e+01 4.276471e+01 6.400061e+01 5.223076e+01 6.351420e+01 7.650201e+01 4.980014e+01 2.900873e+01 5.288417e+01 3.130041e+01 3.367897e+01 1.699884e+00 3.384763e+00 2.058558e+00 2.330048e+00 4.193508e+00 5.251928e+00 4.024822e+00 6.435163e+00 3.429731e+00 3.561193e+00 3.252438e+00 3.993191e+00 3.633833e+00 1.505078e-01
<GCONST> 1.062702e+02
<STATE> 3
<MEAN> 26
 -9.742523e-01 -6.374985e+00 7.194280e+00 -1.305587e+01 -6.837430e+00 1.028184e+00 -2.583080e+01 -2.912241e+00 -9.303634e+00 3.648696e+00 7.009847e+00 -1.068703e+01 2.072272e+01 1.836267e-01 4.852398e-01 -1.612703e-01 3.833457e-01 6.667024e-01 -3.211820e-01 6.327080e-01 1.997870e-01 -2.899582e-01 1.854592e-01 -4.008108e-01 4.075172e-01 -1.324716e-01
<VARIANCE> 26
 1.085408e+01 1.292066e+01 3.408202e+01 2.576909e+01 3.281171e+01 2.520483e+01 5.013109e+01 4.374317e+01 3.548885e+01 5.893977e+01 3.225206e+01 1.993060e+01 1.280137e+00 5.624537e-01 1.480378e+00 1.876691e+00 3.696344e+00 2.352009e+00 2.912789e+00 3.483927e+00 3.142559e+00 2.131014e+00 4.260173e+00 2.451056e+00 1.856833e+00 5.384791e-02
<GCONST> 9.514645e+01
<STATE> 4
<MEAN> 26
 1.056543e+00 -7.439155e-01 9.738824e-01 -8.371245e+00 4.360130e+00 -3.102022e-01 -7.162932e+00 -2.888853e+00 -7.278252e+00 1.698562e+00 1.023494e-01 -2.804763e+00 1.840634e+01 -6.477746e-01 1.543901e+00 7.689773e-02 2.459363e+00 9.734811e-01 4.780254e-01 2.955087e+00 -2.067921e-01 1.511612e+00 -9.949959e-01 -7.078751e-01 9.331345e-01 -5.328847e-01
<VARIANCE> 26
 2.087301e+01 2.307359e+01 5.191877e+01 6.117263e+01 7.353370e+01 4.935143e+01 1.796373e+02 3.892361e+01 4.695731e+01 7.260582e+01 4.706863e+01 3.255823e+01 2.768466e+00 2.457284e+00 3.427635e+00 2.025623e+00 3.732065e+00 3.546832e+00 4.714432e+00 4.892434e+00 4.420135e+00 3.908355e+00 3.581610e+00 3.360921e+00 2.877111e+00 1.769191e-01
<GCONST> 1.087820e+02
<TRANSP> 5
 0.000000e+00 1.000000e+00 0.000000e+00 0.000000e+00 0.000000e+00
 0.000000e+00 4.946457e-01 5.053542e-01 0.000000e+00 0.000000e+00
 0.000000e+00 0.000000e+00 6.960831e-01 3.039170e-01 0.000000e+00
 0.000000e+00 0.000000e+00 0.000000e+00 6.389831e-01 3.610168e-01
 0.000000e+00 0.000000e+00 0.000000e+00 0.000000e+00 0.000000e+00
<ENDHMM>
~h "r"
<BEGINHMM>
<NUMSTATES> 5
<STATE> 2
<MEAN> 26
 -2.818827e+00 -9.296981e-02 -2.507321e+00 -2.112962e+01 1.391284e+00 7.559575e+00 -5.062909e+00 -8.760130e+00 -3.090505e+00 3.759918e+00 -1.744013e+00 -1.097611e+00 1.878724e+01 -8.968051e-01 1.810388e+00 -7.585692e-01 5.850102e-01 1.403657e+00 1.201433e+00 6.876267e-01 -5.509137e-01 1.452050e+00 -5.999032e-01 -1.533484e-01 1.279797e+00 -4.068523e-01
<VARIANCE> 26
 1.727909e+01 4.059101e+01 2.334330e+01 4.769848e+01 8.374559e+01 3.808072e+01 5.255130e+01 3.798190e+01 4.759745e+01 5.505905e+01 3.439516e+01 3.076859e+01 2.236154e+00 2.454188e+00 3.087738e+00 2.569811e+00 5.752606e+00 4.995536e+00 5.209043e+00 5.027369e+00 4.265963e+00 4.336591e+00 3.739820e+00 4.112667e+00 3.217186e+00 2.863123e-01
<GCONST> 1.078211e+02
<STATE> 3
<MEAN> 26
 -8.820451e+00 9.285688e-01 -5.335748e+00 -1.680306e+01 8.972514e+00 1.217363e+01 -4.781778e+00 -6.288686e+00 1.735042e+00 2.420841e+00 7.086774e-01 2.472605e+00 1.695442e+01 -3.432743e-01 -4.173151e-03 -1.614633e-01 4.855762e-01 -1.431982e-01 -3.273904e-01 1.916781e-01 4.199568e-01 3.248241e-02 -1.529619e-01 3.410507e-01 1.813494e-01 -2.079086e-01
<VARIANCE> 26
 1.682428e+01 2.292898e+01 1.703750e+01 3.272050e+01 7.431817e+01 3.831357e+01 4.288879e+01 3.309447e+01 3.297335e+01 3.374868e+01 2.988317e+01 2.260207e+01 3.183626e+00 1.288584e+00 1.336022e+00 1.689299e+00 2.167815e+00 3.220830e+00 3.059401e+00 2.756574e+00 3.489914e+00 2.826536e+00 3.192465e+00 2.543559e+00 1.978412e+00 1.139867e-01
<GCONST> 9.800061e+01
<STATE> 4
<MEAN> 26
 -4.634790e+00 3.184192e+00 -3.053146e+00 -1.792724e+01 -2.875935e-01 5.779370e+00 -3.537192e+00 -6.842295e+00 -1.058831e+00 1.602742e+00 3.146029e-02 1.791187e+00 1.773101e+01 7.960225e-01 -5.333897e-01 9.792786e-01 9.046422e-01 -1.327694e+00 -1.231051e+00 -1.172629e-01 4.078580e-01 -1.196198e+00 -9.020280e-02 3.214035e-01 -6.713890e-01 1.281458e-01
<VARIANCE> 26
 3.151802e+01 4.907263e+01 3.156263e+01 5.272705e+01 8.892970e+01 4.249795e+01 5.535295e+01 4.625208e+01 6.380194e+01 3.975896e+01 3.182384e+01 3.222224e+01 5.271879e+00 2.536696e+00 2.826135e+00 3.138805e+00 6.364531e+00 5.821945e+00 3.830721e+00 3.675406e+00 4.500974e+00 4.079882e+00 3.323250e+00 3.575218e+00 2.685887e+00 3.854282e-01
<GCONST> 1.098554e+02
<TRANSP> 5
 0.000000e+00 1.000000e+00 0.000000e+00 0.000000e+00 0.000000e+00
 0.000000e+00 6.000097e-01 3.999903e-01 0.000000e+00 0.000000e+00
 0.000000e+00 0.000000e+00 6.605699e-01 3.394301e-01 0.000000e+00
 0.000000e+00 0.000000e+00 0.000000e+00 5.449436e-01 4.550564e-01
 0.000000e+00 0.000000e+00 0.000000e+00 0.000000e+00 0.000000e+00
<ENDHMM>
~h "s"
<BEGINHMM>
<NUMSTATES> 5
<STATE> 2
<MEAN> 26
 -1.926388e+01 3.339212e+00 -9.923372e-01 -7.265074e+00 3.329520e+00 -2.012659e+00 -1.823760e+00 -1.773852e+00 -2.405563e+00 1.918499e+00 -1.283760e+00 9.119939e-01 1.606585e+01 -3.892768e+00 -5.377461e-01 -2.149633e+00 -5.861304e-01 1.738234e-01 5.716529e-01 4.490784e-01 4.276693e-01 7.104927e-01 6.023727e-01 4.103437e-01 1.122740e+00 -2.142375e-01
<VARIANCE> 26
 4.291474e+01 3.417379e+01 3.843320e+01 3.275978e+01 3.293412e+01 4.033134e+01 2.763225e+01 3.579802e+01 2.985873e+01 2.428423e+01 2.630710e+01 1.992783e+01 5.673967e+00 3.812335e+00 3.483642e+00 5.086346e+00 5.322938e+00 4.138782e+00 5.160782e+00 4.097469e+00 3.196358e+00 4.233954e+00 2.804245e+00 2.707974e+00 2.597238e+00 4.049267e-01
<GCONST> 1.059259e+02
<STATE> 3
<MEAN> 26
 -2.823177e+01 1.765853e+00 -8.725116e+00 -1.140546e+01 -3.272348e-01 -1.503852e+00 -3.981539e+00 -2.429548e+00 -3.424050e+00 2.653718e+00 3.644353e-01 3.625473e+00 1.669532e+01 -1.816532e-01 -1.110084e-02 9.089290e-02 -1.747667e-01 -2.205008e-01 3.115578e-02 -2.379893e-01 -2.107974e-01 -1.387378e-02 -7.171881e-02 -1.956919e-02 8.743736e-02 5.691642e-02
<VARIANCE> 26
 5.993885e+00 9.011762e+00 2.403042e+01 3.064150e+01 2.914238e+01 2.792274e+01 2.106479e+01 2.470881e+01 2.112980e+01 1.801772e+01 1.359524e+01 1.346013e+01 9.084056e-01 6.855164e-01 7.716590e-01 1.876934e+00 1.370580e+00 1.873614e+00 2.088165e+00 1.741313e+00 1.804667e+00 1.804332e+00 1.771029e+00 1.491394e+00 1.462287e+00 4.621859e-02
<GCONST> 8.407191e+01
<STATE> 4
<MEAN> 26
 -2.383698e+01 1.897082e+00 -1.732206e+00 -1.045615e+01 9.417558e-01 -1.387325e+00 -3.982761e+00 -4.006398e+00 -2.707613e+00 1.991728e+00 -1.950362e+00 1.987689e+00 1.682829e+01 4.418777e+00 -6.901120e-02 3.080127e+00 3.976682e-01 -4.100774e-01 -7.145053e-01 -1.440117e+00 -3.591432e-01 -1.326018e+00 -6.118211e-01 -2.981585e-01 -1.664619e+00 2.747681e-01
<VARIANCE> 26
 3.933898e+01 2.947884e+01 4.992861e+01 3.309026e+01 4.562919e+01 4.694648e+01 2.712638e+01 2.906237e+01 2.443599e+01 2.061680e+01 1.753854e+01 2.306729e+01 2.103878e+00 5.602145e+00 3.584253e+00 4.705866e+00 5.944978e+00 3.420642e+00 5.696070e+00 6.521092e+00 3.338638e+00 3.252164e+00 4.283279e+00 3.071618e+00 3.530601e+00 5.854986e-01
<GCONST> 1.064225e+02
<TRANSP> 5
 0.000000e+00 1.000000e+00 0.000000e+00 0.000000e+00 0.000000e+00
 0.000000e+00 7.205124e-01 2.794876e-01 0.000000e+00 0.000000e+00
 0.000000e+00 0.000000e+00 8.878283e-01 1.121717e-01 0.000000e+00
 0.000000e+00 0.000000e+00 0.000000e+00 6.265954e-01 3.734047e-01
 0.000000e+00 0.000000e+00 0.000000e+00 0.000000e+00 0.000000e+00
<ENDHMM>
~h "t"
<BEGINHMM>
<NUMSTATES> 5
<STATE> 2
<MEAN> 26
 -5.225814e+00 8.219981e+00 5.905326e+00 2.255157e+00 5.777320e-01 -2.955095e+00 -4.621816e+00 -2.470092e+00 -6.232893e+00 -1.810357e+00 -2.355507e+00 -4.167467e+00 1.444428e+01 -2.127648e+00 3.131721e-02 -1.217187e+00 1.521934e+00 8.749654e-01 1.056518e+00 1.282828e+00 4.798113e-01 1.498775e+00 -7.196159e-01 -1.015314e-01 1.350579e-01 -1.714460e+00
<VARIANCE> 26
 4.585725e+01 3.355584e+01 3.331889e+01 3.350776e+01 3.848322e+01 3.901247e+01 3.364797e+01 2.644423e+01 3.860077e+01 3.274546e+01 2.474109e+01 2.309090e+01 7.492075e+00 4.302262e+00 8.368718e+00 4.206656e+00 8.876209e+00 3.868196e+00 4.565250e+00 3.548122e+00 3.605655e+00 3.672291e+00 2.916939e+00 2.857310e+00 2.672300e+00 5.387124e-01
<GCONST> 1.081598e+02
<STATE> 3
<MEAN> 26
 -1.338879e+01 2.396523e+00 3.930762e-01 1.026764e+00 1.891335e+00 1.325184e+00 -7.780239e-01 1.023195e+00 -4.968343e-01 8.213265e-01 7.364113e-01 -1.015632e+00 9.852249e+00 -8.857012e-01 -1.886218e+00 -7.348378e-01 -1.946091e+00 -3.517528e-01 3.216199e-01 1.286699e-01 -8.693334e-02 5.628817e-01 5.916184e-01 3.559803e-01 9.206909e-01 3.184816e-01
<VARIANCE> 26
 4.507611e+00 7.968915e+00 8.283393e+00 1.659608e+01 1.207720e+01 1.345978e+01 1.528574e+01 1.632104e+01 1.835030e+01 1.541195e+01 1.612558e+01 1.554132e+01 3.031495e+00 2.454932e+00 3.989787e+00 3.218423e+00 6.678499e+00 2.343052e+00 3.284917e+00 2.343339e+00 3.240600e+00 3.568134e+00 2.484991e+00 1.997237e+00 2.826114e+00 1.313878e+00
<GCONST> 9.278140e+01
<STATE> 4
<MEAN> 26
 -1.721774e+01 -4.145616e+00 -8.847784e-01 -1.254980e+01 1.116632e+00 -9.306059e-01 -4.209101e+00 -3.530693e+00 -1.411344e+00 2.399511e+00 4.843064e-02 3.406520e+00 1.617414e+01 4.130279e-01 4.534627e-02 4.192038e-01 -1.684028e+00 6.347033e-02 -6.747852e-01 -1.547547e+00 -5.369920e-01 -5.963045e-01 2.554681e-01 -1.693478e-01 -2.941208e-01 1.259934e+00
<VARIANCE> 26
 2.886867e+01 3.956478e+01 4.039129e+01 3.354946e+01 4.047455e+01 4.402853e+01 3.032385e+01 3.368812e+01 3.136819e+01 2.269933e+01 2.245488e+01 2.167934e+01 2.973464e+00 6.093001e+00 4.809314e+00 6.184736e+00 7.545794e+00 4.686267e+00 4.837882e+00 5.379323e+00 3.780226e+00 4.294960e+00 3.741918e+00 2.630459e+00 4.808890e+00 9.045556e-01
<GCONST> 1.088660e+02
<TRANSP> 5
 0.000000e+00 1.000000e+00 0.000000e+00 0.000000e+00 0.000000e+00
 0.000000e+00 6.126348e-01 3.873653e-01 0.000000e+00 0.000000e+00
 0.000000e+00 0.000000e+00 6.886610e-01 3.113391e-01 0.000000e+00
 0.000000e+00 0.000000e+00 0.000000e+00 7.349334e-01 2.650667e-01
 0.000000e+00 0.000000e+00 0.000000e+00 0.000000e+00 0.000000e+00
<ENDHMM>
~h "u"
<BEGINHMM>
<NUMSTATES> 5
<STATE> 2
<MEAN> 26
 5.308444e-01 4.469041e+00 1.639001e+00 -1.299664e+01 -5.746153e+00 2.060609e+00 -1.080167e+01 -6.824697e+00 -1.188842e+01 -8.471944e+00 4.243485e+00 -5.124861e+00 1.944666e+01 3.069589e+00 1.643180e+00 1.107872e-01 -2.930821e+00 -2.923265e+00 1.492604e+00 -1.332290e+00 -4.715029e-01 -2.108114e+00 -3.038870e+00 1.867554e+00 -1.100100e+00 8.164508e-01
<VARIANCE> 26
 2.028426e+01 3.214167e+01 9.218024e+00 6.030344e+01 6.416631e+01 4.918450e+01 4.631226e+01 7.924349e+01 3.775111e+01 5.248247e+01 6.492242e+01 4.854478e+01 1.103456e+00 4.015516e+00 2.386610e+00 2.041904e+00 4.442896e+00 6.575418e+00 4.197661e+00 4.350626e+00 6.878918e+00 6.087620e+00 6.041945e+00 4.266787e+00 4.595447e+00 4.930190e-01
<GCONST> 1.096515e+02
<STATE> 3
<MEAN> 26
 3.668728e+00 5.213474e+00 7.742510e-01 -1.681653e+01 -1.341595e+01 6.118039e+00 -1.129001e+01 -5.482956e+00 -1.321294e+01 -1.489490e+01 6.301757e+00 -6.811781e+00 2.050859e+01 1.016588e-01 1.263407e-01 -6.324289e-02 -4.470624e-01 -4.855039e-01 1.774969e-01 4.399234e-02 2.584922e-01 -1.947949e-01 2.498284e-01 -3.185168e-01 -2.900327e-01 -6.993908e-04
<VARIANCE> 26
 1.082046e+01 1.233359e+01 1.548916e+01 1.092583e+02 4.710265e+01 3.677093e+01 3.079928e+01 4.881356e+01 3.917028e+01 5.700927e+01 5.183994e+01 5.037671e+01 3.888578e-01 5.346938e-01 1.230206e+00 9.691018e-01 2.169343e+00 2.675706e+00 2.475619e+00 2.564473e+00 3.127128e+00 2.481695e+00 3.283198e+00 2.693982e+00 2.217033e+00 2.286990e-02
<GCONST> 9.392299e+01
<STATE> 4
<MEAN> 26
 2.315961e+00 5.428653e+00 2.051230e+00 -1.592766e+01 -8.891294e+00 4.081323e+00 -1.063491e+01 -5.999090e+00 -1.448598e+01 -8.041894e+00 3.966933e+00 -5.301067e+00 1.963640e+01 -1.117776e+00 -5.289604e-02 2.018178e-01 6.154958e-01 1.881260e+00 -6.002168e-01 1.027709e+00 -1.493560e+00 1.333445e+00 2.191262e+00 -1.760608e+00 1.462440e+00 -3.741393e-01
<VARIANCE> 26
 1.577609e+01 2.197813e+01 2.153161e+01 1.198106e+02 6.406058e+01 4.656354e+01 4.390160e+01 9.598999e+01 6.777891e+01 5.111739e+01 5.515393e+01 5.196484e+01 1.081827e+00 1.136558e+00 1.612247e+00 2.932597e+00 4.419394e+00 6.908117e+00 4.366787e+00 4.376862e+00 4.868519e+00 4.929958e+00 8.084093e+00 5.460124e+00 3.517971e+00 1.316689e-01
<GCONST> 1.082718e+02
<TRANSP> 5
 0.000000e+00 1.000000e+00 0.000000e+00 0.000000e+00 0.000000e+00
 0.000000e+00 5.577587e-01 4.422413e-01 0.000000e+00 0.000000e+00
 0.000000e+00 0.000000e+00 8.286930e-01 1.713070e-01 0.000000e+00
 0.000000e+00 0.000000e+00 0.000000e+00 6.397445e-01 3.602555e-01
 0.000000e+00 0.000000e+00 0.000000e+00 0.000000e+00 0.000000e+00
<ENDHMM>
~h "v"
<BEGINHMM>
<NUMSTATES> 5
<STATE> 2
<MEAN> 26
 -2.063475e+00 2.796466e+00 3.532348e+00 -5.523668e+00 4.235756e+00 1.194147e+00 -1.013011e+01 -7.430085e+00 -8.061996e+00 3.896919e+00 4.376352e+00 -6.641014e-01 1.789945e+01 -6.737458e-01 1.504173e+00 5.378205e-01 1.373844e+00 1.572827e+00 8.657575e-01 7.405391e-01 -1.251953e+00 1.205072e-01 -2.076129e-01 -4.098294e-01 4.488873e-01 -5.485624e-02
<VARIANCE> 26
 1.730202e+01 1.128686e+01 1.478611e+01 2.865003e+01 1.730959e+01 3.503135e+01 3.169663e+01 2.979830e+01 3.196539e+01 2.625052e+01 1.707791e+01 1.300038e+01 3.795127e+00 4.630233e+00 2.307347e+00 1.738995e+00 5.847642e+00 2.371814e+00 1.823105e+00 5.803337e+00 2.599810e+00 4.491836e+00 2.815665e+00 2.069052e+00 1.201826e+00 5.652480e-01
<GCONST> 9.757911e+01
<STATE> 3
<MEAN> 26
 -8.350027e+00 7.560288e+00 6.759557e+00 3.384766e-01 7.340838e+00 4.434483e+00 -5.661233e+00 -8.098414e+00 -7.398583e+00 1.555015e+00 -5.136187e-01 6.479954e-01 1.751854e+01 -8.600860e-01 -2.589888e-01 8.927542e-02 1.037779e-01 -1.019320e-01 1.947687e-01 4.513236e-01 3.547469e-01 4.615020e-02 -2.489942e-01 -5.663623e-01 8.403202e-02 -6.871291e-02
<VARIANCE> 26
 7.697376e+00 7.199398e+00 1.965411e+01 1.663430e+01 1.680532e+01 2.122052e+01 2.198380e+01 1.947942e+01 1.700766e+01 1.194668e+01 1.501218e+01 8.836551e+00 2.530701e-01 9.666984e-01 1.515764e+00 1.447814e+00 1.699427e+00 1.585740e+00 1.463954e+00 1.706559e+00 1.875352e+00 1.120638e+00 1.494670e+00 1.680439e+00 9.699126e-01 3.583567e-02
<GCONST> 7.931693e+01
<STATE> 4
<MEAN> 26
 -7.368424e+00 2.268238e+00 3.750987e+00 -5.536145e+00 3.332979e+00 3.670552e+00 -6.795316e+00 -6.377174e+00 -6.858925e+00 4.462784e-01 8.874584e-01 -2.619952e-03 1.829290e+01 1.601074e+00 -2.261164e+00 -2.844637e-01 -3.126878e+00 -2.635808e+00 -7.727647e-01 -2.641197e+00 1.122852e+00 2.480694e-01 -5.077025e-02 1.579427e+00 -1.208205e+00 5.907807e-01
<VARIANCE> 26
 8.731049e+00 1.308871e+01 2.402605e+01 2.353191e+01 1.594094e+01 2.161064e+01 2.944569e+01 1.670827e+01 1.856188e+01 1.795775e+01 2.109209e+01 1.316016e+01 5.259205e-01 1.837532e+00 2.405271e+00 2.760532e+00 2.602828e+00 2.284020e+00 3.394817e+00 3.790533e+00 2.762583e+00 1.466178e+00 3.875467e+00 2.538670e+00 2.055629e+00 8.353325e-02
<GCONST> 9.045609e+01
<TRANSP> 5
 0.000000e+00 1.000000e+00 0.000000e+00 0.000000e+00 0.000000e+00
 0.000000e+00 6.547116e-01 3.452884e-01 0.000000e+00 0.000000e+00
 0.000000e+00 0.000000e+00 7.664722e-01 2.335279e-01 0.000000e+00
 0.000000e+00 0.000000e+00 0.000000e+00 5.352494e-01 4.647506e-01
 0.000000e+00 0.000000e+00 0.000000e+00 0.000000e+00 0.000000e+00
<ENDHMM>
~h "w"
<BEGINHMM>
<NUMSTATES> 5
<STATE> 2
<MEAN> 26
 3.288002e-01 4.588061e+00 1.302979e+00 -1.555048e+01 -7.372666e+00 2.744838e+00 -5.845959e+00 -2.679350e+00 -9.324211e+00 -4.187999e+00 3.919785e+00 -2.357770e+00 1.834671e+01 3.026814e+00 5.259855e-01 -2.859028e-02 -2.444917e+00 -2.042944e+00 3.882240e-01 -1.469582e+00 1.705110e+00 -2.489770e+00 -1.573083e+00 6.324598e-01 -1.844435e+00 8.027787e-01
<VARIANCE> 26
 3.361652e+01 3.178767e+01 2.565284e+01 7.420436e+01 4.689317e+01 4.828663e+01 5.170671e+01 7.581517e+01 7.518828e+01 5.400440e+01 5.107328e+01 4.695371e+01 6.245210e+00 4.855873e+00 4.402330e+00 2.636645e+00 5.664622e+00 5.437771e+00 5.010754e+00 5.071263e+00 4.302758e+00 6.072114e+00 5.059165e+00 3.812604e+00 3.211310e+00 4.774308e-01
<GCONST> 1.135770e+02
<STATE> 3
<MEAN> 26
 5.636637e+00 3.413876e+00 1.018631e+00 -1.638613e+01 -1.197814e+01 5.150289e+00 -8.622070e+00 2.803208e-01 -1.234707e+01 -6.548243e+00 4.513647e+00 -6.049972e+00 2.010684e+01 2.732684e-02 -3.925410e-01 -1.962348e-02 -8.045145e-01 -4.549548e-01 2.602574e-01 -1.524377e-01 4.944736e-01 -3.003417e-01 3.869966e-01 2.327442e-01 4.322771e-02 1.037166e-01
<VARIANCE> 26
 1.570906e+01 2.410166e+01 1.780830e+01 7.805289e+01 4.003570e+01 5.178292e+01 3.267167e+01 3.946812e+01 3.693682e+01 3.350282e+01 3.947082e+01 2.468928e+01 5.215198e-01 1.063942e+00 1.339734e+00 1.652516e+00 3.279673e+00 2.483814e+00 2.653633e+00 2.374190e+00 2.758247e+00 2.477587e+00 2.319967e+00 2.362581e+00 1.858133e+00 5.757210e-02
<GCONST> 9.529189e+01
<STATE> 4
<MEAN> 26
 3.045639e+00 -5.014909e+00 -4.248537e+00 -2.755997e+01 -8.249288e+00 1.148938e+01 -8.529382e+00 2.367569e+00 -1.370473e+01 -5.718495e-01 6.597434e+00 -5.281731e+00 2.139175e+01 -4.422953e-01 -1.557716e+00 -9.278709e-01 -2.268419e-03 2.124030e+00 2.700889e-01 -3.793949e-01 -1.990535e-01 -2.324817e-02 8.125410e-01 2.063303e-01 -6.010399e-01 1.285217e-01
<VARIANCE> 26
 9.378992e+00 2.664778e+01 3.262873e+01 8.360960e+01 6.381113e+01 2.186987e+01 4.712277e+01 3.901306e+01 2.729712e+01 5.040662e+01 4.562156e+01 2.392700e+01 6.249065e-01 3.672847e-01 1.085746e+00 1.975892e+00 2.844978e+00 2.210589e+00 2.018671e+00 2.388937e+00 2.137190e+00 2.150073e+00 3.452985e+00 1.903501e+00 2.364406e+00 3.701757e-02
<GCONST> 9.387302e+01
<TRANSP> 5
 0.000000e+00 1.000000e+00 0.000000e+00 0.000000e+00 0.000000e+00
 0.000000e+00 5.332103e-01 4.667896e-01 0.000000e+00 0.000000e+00
 0.000000e+00 0.000000e+00 8.317710e-01 1.682290e-01 0.000000e+00
 0.000000e+00 0.000000e+00 0.000000e+00 7.462670e-01 2.537330e-01
 0.000000e+00 0.000000e+00 0.000000e+00 0.000000e+00 0.000000e+00
<ENDHMM>
~h "x"
<BEGINHMM>
<NUMSTATES> 5
<STATE> 2
<MEAN> 26
 -1.006297e+00 -4.144101e+00 4.059724e+00 -1.111999e+01 -5.024179e+00 2.272549e+00 -2.392021e+01 -9.268397e+00 -1.058974e+01 9.174961e-01 1.144464e+01 -8.527854e+00 2.018931e+01 1.934271e+00 -6.867947e-01 -3.047217e-01 -1.819057e+00 -1.660845e+00 2.097877e+00 -4.261184e+00 -1.050841e-01 -1.541959e+00 6.969917e-01 2.951068e+00 -2.329030e+00 8.818985e-01
<VARIANCE> 26
 4.036005e+00 8.608223e+00 1.120137e+01 2.951530e+01 1.549925e+01 3.300751e+01 4.288253e+01 3.320376e+01 6.101167e+01 5.132064e+01 1.900335e+01 2.071026e+01 1.355538e+00 2.370860e+00 1.361953e+00 1.103054e+00 2.286540e+00 1.857706e+00 2.475306e+00 5.371904e+00 3.815962e+00 5.783833e+00 3.720119e+00 2.241704e+00 2.256218e+00 8.765084e-01
<GCONST> 9.616231e+01
<STATE> 3
<MEAN> 26
 -1.427066e-01 -4.884723e+00 2.394058e+00 -1.294901e+01 -9.592896e+00 7.462567e+00 -2.877451e+01 -1.058753e+01 -9.597887e+00 1.677244e-01 1.591681e+01 -1.239503e+01 2.133643e+01 -5.654930e-02 7.808609e-02 1.356145e-02 -1.546060e-01 -1.120752e-01 4.316399e-02 6.788313e-02 -1.370435e-01 -2.379068e-01 2.894893e-02 -2.371506e-01 -5.087885e-02 -9.629292e-04
<VARIANCE> 26
 1.888712e+00 5.244210e+00 7.094665e+00 2.616115e+01 9.871538e+00 1.799355e+01 1.480789e+01 1.765330e+01 2.035480e+01 1.711757e+01 8.643669e+00 2.269690e+01 1.795766e-01 1.978930e-01 4.933564e-01 1.502929e+00 1.267360e+00 1.352462e+00 1.280478e+00 1.291032e+00 1.074593e+00 1.874930e+00 1.074922e+00 1.088690e+00 1.482198e+00 1.094550e-02
<GCONST> 7.132137e+01
<STATE> 4
<MEAN> 26
 3.501422e-01 -1.894008e+00 4.948818e+00 -1.197654e+01 -1.995173e+00 3.929861e+00 -2.100333e+01 -6.085454e+00 -1.152277e+01 2.058239e+00 8.222767e+00 -8.493552e+00 1.975993e+01 -3.012404e-01 1.492646e+00 2.940147e-01 9.443945e-01 2.174425e+00 -5.799929e-01 3.381272e+00 6.226804e-01 -5.402361e-03 4.027664e-01 -2.394798e+00 1.273912e+00 -5.469644e-01
<VARIANCE> 26
 7.783894e+00 1.797572e+01 1.364532e+01 4.619775e+01 4.895008e+01 3.360281e+01 6.136338e+01 4.503807e+01 3.444435e+01 3.307097e+01 2.987149e+01 2.183249e+01 1.843018e+00 8.610787e-01 2.476418e+00 2.066448e+00 5.917208e+00 2.396982e+00 3.716532e+00 2.886768e+00 1.081426e+00 2.031528e+00 4.202858e+00 2.043999e+00 1.998844e+00 1.078161e-01
<GCONST> 9.654270e+01
<TRANSP> 5
 0.000000e+00 1.000000e+00 0.000000e+00 0.000000e+00 0.000000e+00
 0.000000e+00 6.330755e-01 3.669245e-01 0.000000e+00 0.000000e+00
 0.000000e+00 0.000000e+00 8.499077e-01 1.500923e-01 0.000000e+00
 0.000000e+00 0.000000e+00 0.000000e+00 7.258572e-01 2.741428e-01
 0.000000e+00 0.000000e+00 0.000000e+00 0.000000e+00 0.000000e+00
<ENDHMM>
~h "y"
<BEGINHMM>
<NUMSTATES> 5
<STATE> 2
<MEAN> 26
 -7.549874e+00 -6.728694e-01 1.420789e+01 4.917659e+00 -6.612112e+00 -6.678638e+00 -1.118097e+01 3.787346e-01 -1.297224e+01 -8.166394e+00 -4.508431e-01 2.135562e+00 1.817058e+01 1.666060e+00 -3.066839e-01 2.074980e+00 1.145697e+00 -6.161833e-01 -2.096667e+00 -2.986604e+00 1.366876e+00 -1.618971e+00 -3.499354e+00 1.124043e+00 6.109477e-01 7.749051e-01
<VARIANCE> 26
 2.634526e+01 2.313153e+01 3.887779e+01 2.546674e+01 2.847091e+01 4.894849e+01 9.705424e+01 4.924093e+01 5.784555e+01 6.630564e+01 2.703604e+01 2.616632e+01 5.495214e+00 4.569946e+00 2.694505e+00 4.652038e+00 3.040830e+00 2.752825e+00 5.241099e+00 7.543724e+00 2.852403e+00 6.129915e+00 5.034356e+00 2.064596e+00 2.507200e+00 5.513669e-01
<GCONST> 1.087007e+02
<STATE> 3
<MEAN> 26
 -3.097183e+00 -4.232430e+00 1.579256e+01 5.134602e+00 -1.059879e+01 -7.438478e+00 -2.073288e+01 2.800719e+00 -1.341206e+01 -1.988046e+01 4.786406e+00 2.265690e+00 2.019530e+01 1.879565e-01 -2.655241e-01 -1.271461e-01 -6.950637e-01 -6.509755e-01 3.914387e-01 -3.685374e-01 -7.747821e-02 1.611614e-01 -7.470895e-02 2.508703e-01 -5.219083e-01 9.593672e-02
<VARIANCE> 26
 7.036373e+00 1.591299e+01 1.825015e+01 2.487304e+01 2.947005e+01 1.928569e+01 4.076463e+01 4.168198e+01 4.182767e+01 3.246063e+01 2.223626e+01 2.192656e+01 4.075909e-01 8.107373e-01 1.031047e+00 2.607680e+00 2.478040e+00 2.542718e+00 2.814968e+00 4.887198e+00 2.811521e+00 2.122478e+00 4.698134e+00 1.817498e+00 1.691623e+00 3.787234e-02
<GCONST> 9.133172e+01
<STATE> 4
<MEAN> 26
 -2.507200e+00 -3.780704e+00 1.375823e+01 -3.563248e+00 -1.185461e+01 -9.426712e-01 -1.834624e+01 -3.331277e+00 -1.138342e+01 -7.875792e+00 3.685137e+00 -3.198757e+00 2.013792e+01 4.611486e-02 1.136892e+00 -1.373539e+00 -1.604985e+00 3.255598e-01 2.240410e+00 1.989350e+00 -2.286589e+00 6.380951e-01 3.181484e+00 -1.140239e+00 -6.891039e-01 -1.915039e-01
<VARIANCE> 26
 1.272674e+01 2.021300e+01 7.635735e+01 7.093130e+01 3.211854e+01 8.998449e+01 7.646385e+01 4.439046e+01 4.485439e+01 9.349800e+01 4.060018e+01 3.830034e+01 1.085809e+00 1.531173e+00 2.400886e+00 3.233860e+00 4.637240e+00 2.644340e+00 6.047398e+00 5.377558e+00 4.485794e+00 4.368443e+00 3.742975e+00 3.394722e+00 5.559655e+00 1.320410e-01
<GCONST> 1.074761e+02
<TRANSP> 5
 0.000000e+00 1.000000e+00 0.000000e+00 0.000000e+00 0.000000e+00
 0.000000e+00 6.158057e-01 3.841943e-01 0.000000e+00 0.000000e+00
 0.000000e+00 0.000000e+00 7.759976e-01 2.240023e-01 0.000000e+00
 0.000000e+00 0.000000e+00 0.000000e+00 6.827963e-01 3.172037e-01
 0.000000e+00 0.000000e+00 0.000000e+00 0.000000e+00 0.000000e+00
<ENDHMM>
~h "z"
<BEGINHMM>
<NUMSTATES> 5
<STATE> 2
<MEAN> 26
 -9.541028e+00 1.021603e+01 3.499962e+00 -3.878780e+00 1.036349e+00 -6.847456e+00 -1.017578e+01 -7.594298e+00 -7.797148e+00 1.626143e+00 -2.293649e+00 -3.028759e+00 1.905030e+01 -2.325440e+00 3.075576e+00 -9.600138e-01 1.855595e+00 1.821885e+00 -2.196649e-02 1.832681e+00 -3.021889e-01 1.209876e+00 1.901444e-01 -1.170092e+00 1.625761e+00 -4.524855e-01
<VARIANCE> 26
 1.107576e+01 1.801243e+01 3.187984e+01 4.568346e+01 4.240005e+01 3.401434e+01 2.573544e+01 2.345700e+01 2.398409e+01 3.849095e+01 2.400308e+01 2.373807e+01 5.772731e-01 8.620042e-01 2.494930e+00 2.430892e+00 3.959756e+00 2.767173e+00 3.811192e+00 2.982635e+00 2.451786e+00 2.530904e+00 2.372419e+00 2.470887e+00 1.542786e+00 2.653649e-02
<GCONST> 9.354196e+01
<STATE> 3
<MEAN> 26
 -1.649934e+01 1.450783e+01 2.793498e+00 2.607456e-01 3.904946e+00 -3.055045e+00 -5.170542e+00 -7.095661e+00 -5.574544e+00 -2.625206e-01 -3.322639e+00 1.392818e+00 1.782240e+01 -4.982101e-01 -3.414910e-01 1.392826e-02 -3.015556e-01 2.550424e-01 1.994833e-01 2.641739e-01 -3.753339e-01 2.629577e-01 2.747779e-01 -4.377067e-02 1.162629e-01 -4.862186e-02
<VARIANCE> 26
 8.341371e+00 8.819809e+00 2.893067e+01 3.343039e+01 3.366669e+01 2.975945e+01 2.242400e+01 2.123609e+01 1.833606e+01 3.696794e+01 1.750380e+01 1.901651e+01 5.687295e-01 1.532978e+00 1.065570e+00 1.519325e+00 1.637562e+00 1.837442e+00 3.581410e+00 2.241943e+00 1.619816e+00 1.128522e+00 2.143256e+00 9.237281e-01 1.650054e+00 4.749141e-02
<GCONST> 8.662868e+01
<STATE> 4
<MEAN> 26
 -1.112499e+01 8.014029e+00 2.006868e+00 -7.384920e+00 2.974111e+00 -6.997795e+00 -9.781100e+00 -9.035320e+00 -4.636826e+00 4.965289e+00 -2.702456e+00 -2.958913e+00 1.882056e+01 2.994972e+00 -3.811615e+00 5.738504e-01 -3.292793e+00 -1.499688e+00 -4.019961e-01 -2.409115e+00 1.068089e+00 -3.492135e-01 1.494491e+00 9.812248e-01 -1.848664e+00 4.999073e-01
<VARIANCE> 26
 2.069848e+01 2.556275e+01 3.019442e+01 4.579778e+01 2.121972e+01 3.009076e+01 2.511665e+01 2.524203e+01 2.220004e+01 3.185072e+01 2.265662e+01 2.322578e+01 9.177848e-01 1.453387e+00 2.370261e+00 1.769838e+00 4.502005e+00 2.050573e+00 5.159889e+00 4.059006e+00 4.136117e+00 2.117946e+00 3.360137e+00 2.601254e+00 3.370225e+00 9.928581e-02
<GCONST> 9.725584e+01
<TRANSP> 5
 0.000000e+00 1.000000e+00 0.000000e+00 0.000000e+00 0.000000e+00
 0.000000e+00 6.808796e-01 3.191204e-01 0.000000e+00 0.000000e+00
 0.000000e+00 0.000000e+00 7.388957e-01 2.611043e-01 0.000000e+00
 0.000000e+00 0.000000e+00 0.000000e+00 6.169089e-01 3.830911e-01
 0.000000e+00 0.000000e+00 0.000000e+00 0.000000e+00 0.000000e+00
<ENDHMM>
~h "__"
<BEGINHMM>
<NUMSTATES> 5
<STATE> 2
<MEAN> 26
 -9.853723e+00 1.206528e+00 -2.271023e-01 -2.495725e-02 1.987655e+00 3.613080e+00 6.141469e-01 3.378760e-01 -1.638458e+00 -1.104609e+00 -8.977517e-01 3.875506e-01 1.206554e+01 -2.919233e-01 7.819814e-02 -2.361162e-01 1.394344e-01 -2.729817e-01 -7.857120e-02 3.180138e-02 2.305061e-01 2.355529e-01 3.096946e-01 3.956366e-01 1.927647e-01 -1.802089e-01
<VARIANCE> 26
 1.570764e+01 1.637398e+01 2.650595e+01 3.115222e+01 2.272801e+01 2.137021e+01 2.724501e+01 2.101868e+01 2.272516e+01 2.464903e+01 2.281777e+01 1.485745e+01 3.510438e+00 1.077309e+00 1.190315e+00 1.532783e+00 2.271883e+00 2.435829e+00 2.546854e+00 2.423787e+00 2.265828e+00 2.341579e+00 2.147060e+00 2.005664e+00 1.351896e+00 3.441925e-01
<GCONST> 9.256741e+01
<STATE> 3
<MEAN> 26
 -1.267462e+01 3.396380e+00 8.042952e-01 2.225328e+00 2.339698e+00 3.179978e+00 1.623107e+00 3.543058e+00 1.291910e+00 2.718374e+00 3.342214e+00 2.004415e+00 1.184430e+01 -6.211030e-02 -3.649318e-02 -7.443402e-02 -5.890627e-02 -3.427219e-02 -5.109116e-02 3.048179e-02 6.648023e-02 5.827234e-02 9.012202e-02 1.026779e-01 1.164377e-02 -5.463069e-02
<VARIANCE> 26
 2.451729e+00 4.528660e+00 7.705362e+00 1.147562e+01 9.945992e+00 1.052192e+01 1.275092e+01 1.447703e+01 1.436656e+01 1.430733e+01 1.283639e+01 1.131420e+01 2.110516e+00 2.204536e-01 4.081857e-01 5.251251e-01 1.131849e+00 9.907100e-01 1.070918e+00 1.307100e+00 1.495020e+00 1.386413e+00 1.370872e+00 1.351921e+00 1.207777e+00 5.144631e-02
<GCONST> 7.155994e+01
<STATE> 4
<MEAN> 26
 -1.335166e+01 2.127897e+00 -8.733734e-01 2.835169e-01 -2.399294e-01 3.843463e-01 -6.661829e-01 8.595724e-01 -1.486304e+00 -1.716291e-01 9.400110e-01 -4.455752e-01 8.634652e+00 -9.328623e-02 -3.139120e-02 1.107144e-01 -5.539807e-02 6.538280e-02 5.286891e-02 -5.976556e-02 2.206482e-02 9.205103e-02 2.610048e-02 1.228088e-02 -1.296278e-02 -1.337674e-02
<VARIANCE> 26
 3.305882e+00 2.889974e+00 5.335586e+00 6.213545e+00 8.617652e+00 1.001702e+01 1.067943e+01 1.297815e+01 1.455733e+01 1.366706e+01 1.180862e+01 1.060950e+01 7.828553e-01 2.472914e-01 3.276501e-01 5.758837e-01 7.232992e-01 8.902432e-01 1.036366e+00 1.221867e+00 1.346258e+00 1.379743e+00 1.390656e+00 1.378357e+00 1.188187e+00 4.671391e-02
<GCONST> 6.792111e+01
<TRANSP> 5
 0.000000e+00 1.000000e+00 0.000000e+00 0.000000e+00 0.000000e+00
 0.000000e+00 8.970540e-01 1.029460e-01 0.000000e+00 0.000000e+00
 0.000000e+00 0.000000e+00 9.437904e-01 5.620962e-02 0.000000e+00
 0.000000e+00 0.000000e+00 0.000000e+00 9.611269e-01 3.887312e-02
 0.000000e+00 0.000000e+00 0.000000e+00 0.000000e+00 0.000000e+00
<ENDHMM>
~h "a~"
<BEGINHMM>
<NUMSTATES> 5
<STATE> 2
<MEAN> 26
 8.834248e-01 -6.310693e+00 -4.868518e+00 -2.360352e+01 -5.520333e+00 9.641852e+00 -9.663085e+00 1.117278e+00 -1.268682e+01 -6.709946e-01 4.827803e+00 -3.528563e+00 2.075926e+01 1.807268e+00 -6.171449e-01 -1.438888e+00 -2.087213e+00 -1.432298e+00 1.761600e+00 7.963169e-01 2.243672e+00 -1.487990e+00 -2.307122e+00 1.368860e-01 7.629182e-01 5.723200e-01
<VARIANCE> 26
 7.761477e+00 1.927422e+01 1.829153e+01 3.768146e+01 3.420172e+01 4.481197e+01 7.026535e+01 3.518757e+01 2.368773e+01 6.741962e+01 4.038142e+01 4.249339e+01 1.453908e+00 3.729735e+00 2.853942e+00 1.785475e+00 8.311509e+00 3.291944e+00 6.488815e+00 6.948012e+00 2.960222e+00 4.794273e+00 4.666298e+00 3.643391e+00 4.625759e+00 6.246319e-01
<GCONST> 1.062833e+02
<STATE> 3
<MEAN> 26
 2.455934e+00 -5.600063e+00 -7.163272e+00 -2.128596e+01 -1.135932e+01 8.627361e+00 -4.520833e+00 8.454745e+00 -1.401689e+01 -9.913194e+00 2.918175e+00 -4.038914e+00 2.117997e+01 6.096938e-02 3.531000e-01 7.930152e-02 4.633756e-01 -2.949263e-01 -6.208037e-01 3.830510e-01 1.502881e-01 -3.452089e-01 3.077132e-01 -6.735979e-01 -4.657837e-01 -5.762750e-02
<VARIANCE> 26
 6.273370e+00 1.022650e+01 1.371279e+01 2.204233e+01 1.861938e+01 2.985246e+01 2.536271e+01 1.574121e+01 1.669677e+01 2.247968e+01 2.034435e+01 1.750521e+01 3.052319e-01 3.489364e-01 9.339662e-01 1.060967e+00 1.529643e+00 1.559812e+00 1.543556e+00 2.009794e+00 2.004285e+00 1.284044e+00 2.890553e+00 1.346211e+00 1.182199e+00 2.246650e-02
<GCONST> 8.019927e+01
<STATE> 4
<MEAN> 26
 3.029442e+00 1.060283e-01 -4.160156e+00 -1.228758e+01 -9.234550e+00 4.469821e+00 -2.185313e+00 1.868398e+00 -1.712785e+01 -2.592768e+00 -1.684920e+00 -4.002286e+00 1.984603e+01 -6.171027e-01 1.435696e+00 1.152323e+00 2.997642e+00 1.368081e+00 -2.893301e-01 4.253300e-01 -2.099333e+00 5.291685e-01 5.783141e-01 -1.083837e-01 4.763212e-01 -4.613321e-01
<VARIANCE> 26
 7.368731e+00 2.597566e+01 2.201544e+01 9.139996e+01 3.199844e+01 2.463556e+01 5.919137e+01 4.374118e+01 5.276747e+01 2.622371e+01 2.632426e+01 2.220590e+01 1.177302e+00 2.568805e+00 2.201822e+00 2.075901e+00 6.359836e+00 5.193545e+00 2.933224e+00 3.375657e+00 3.750377e+00 5.259035e+00 2.901900e+00 1.834819e+00 2.240896e+00 1.160082e-01
<GCONST> 1.005019e+02
<TRANSP> 5
 0.000000e+00 1.000000e+00 0.000000e+00 0.000000e+00 0.000000e+00
 0.000000e+00 6.636220e-01 3.363781e-01 0.000000e+00 0.000000e+00
 0.000000e+00 0.000000e+00 8.651040e-01 1.348960e-01 0.000000e+00
 0.000000e+00 0.000000e+00 0.000000e+00 7.569882e-01 2.430119e-01
 0.000000e+00 0.000000e+00 0.000000e+00 0.000000e+00 0.000000e+00
<ENDHMM>
~h "e^"
<BEGINHMM>
<NUMSTATES> 5
<STATE> 2
<MEAN> 26
 -5.153521e+00 -4.802080e+00 1.432653e+01 -1.317285e+01 -8.181314e+00 -8.092420e+00 -1.574825e+01 -1.773631e+00 -1.108675e+01 3.222079e-01 1.899281e+00 -1.394982e+00 1.999516e+01 1.262136e+00 -2.194880e+00 2.746197e+00 -2.221577e+00 -3.047945e+00 -1.033837e+00 -2.668593e+00 1.630355e+00 -2.725271e+00 5.716704e-01 1.043159e+00 -1.609096e-01 8.305418e-01
<VARIANCE> 26
 1.120595e+01 2.565506e+01 3.921039e+01 4.625774e+01 2.846318e+01 3.101163e+01 4.288881e+01 3.470703e+01 4.948062e+01 5.508167e+01 2.696190e+01 1.480783e+01 2.841311e+00 2.817882e+00 1.988027e+00 4.735017e+00 3.976998e+00 2.647428e+00 3.796921e+00 5.193069e+00 3.700750e+00 3.950633e+00 3.487345e+00 2.909255e+00 2.051019e+00 5.588059e-01
<GCONST> 1.037315e+02
<STATE> 3
<MEAN> 26
 -4.357706e+00 -6.914260e+00 1.837964e+01 -1.602907e+01 -1.382719e+01 -6.182078e+00 -1.883257e+01 1.146625e+00 -1.703358e+01 1.496404e+00 3.867110e+00 -2.207198e+00 2.098352e+01 9.580876e-02 3.181083e-01 1.636209e-01 1.713333e-01 -8.070946e-02 6.924473e-03 4.349228e-01 -1.939500e-01 -7.322628e-01 3.791793e-01 -2.374112e-01 -4.314682e-03 -2.342443e-02
<VARIANCE> 26
 4.435142e+00 1.459014e+01 2.017681e+01 1.615571e+01 1.774225e+01 2.130671e+01 1.997459e+01 1.990055e+01 2.692661e+01 2.952947e+01 1.886163e+01 1.286141e+01 3.167991e-01 4.105413e-01 1.336896e+00 1.300149e+00 2.185953e+00 1.990658e+00 1.846523e+00 1.988239e+00 1.767114e+00 1.831974e+00 1.946316e+00 1.349620e+00 9.087110e-01 3.315672e-02
<GCONST> 8.175396e+01
<STATE> 4
<MEAN> 26
 -2.875934e+00 -8.548221e-02 1.624981e+01 -1.050982e+01 -7.199418e+00 -6.284537e+00 -8.018267e+00 -1.557302e+00 -1.532958e+01 2.476701e+00 -5.213544e-01 -1.930618e+00 1.945032e+01 1.251434e-01 2.055872e+00 -1.773099e+00 2.898001e+00 2.466045e+00 5.889965e-01 2.611015e+00 -2.751820e-01 2.434629e+00 -8.185211e-01 -7.987074e-01 -3.721541e-01 -6.282429e-01
<VARIANCE> 26
 6.657452e+00 3.768673e+01 2.893140e+01 4.839782e+01 3.761473e+01 4.760659e+01 1.237497e+02 3.383908e+01 4.397134e+01 4.681891e+01 3.215393e+01 1.780530e+01 1.847525e+00 2.462540e+00 5.235588e+00 3.027023e+00 4.808019e+00 2.738356e+00 3.641099e+00 3.808797e+00 5.821669e+00 3.336413e+00 3.519302e+00 2.617050e+00 2.218277e+00 1.461381e-01
<GCONST> 1.039100e+02
<TRANSP> 5
 0.000000e+00 1.000000e+00 0.000000e+00 0.000000e+00 0.000000e+00
 0.000000e+00 5.587194e-01 4.412806e-01 0.000000e+00 0.000000e+00
 0.000000e+00 0.000000e+00 8.077883e-01 1.922118e-01 0.000000e+00
 0.000000e+00 0.000000e+00 0.000000e+00 6.781018e-01 3.218982e-01
 0.000000e+00 0.000000e+00 0.000000e+00 0.000000e+00 0.000000e+00
<ENDHMM>
~h "e~"
<BEGINHMM>
<NUMSTATES> 5
<STATE> 2
<MEAN> 26
 -1.074760e+00 -1.272197e+01 -2.470551e+00 -2.032925e+01 -1.912101e-01 6.162643e+00 -1.804336e+01 2.879731e+00 -6.943749e+00 3.986969e+00 2.328704e+00 -9.167581e+00 2.106253e+01 1.317911e+00 -2.461801e+00 -7.833232e-01 -2.036003e+00 1.123791e+00 1.759296e+00 -1.935817e+00 1.179292e+00 -1.228547e+00 6.616565e-01 1.174453e-01 -1.081271e+00 5.534120e-01
<VARIANCE> 26
 5.748678e+00 2.207525e+01 2.149592e+01 1.770161e+01 3.650675e+01 3.150209e+01 2.635440e+01 2.402328e+01 2.379171e+01 2.978753e+01 4.854354e+01 3.904938e+01 1.014425e+00 2.486745e+00 3.664243e+00 1.685347e+00 4.656785e+00 3.328205e+00 2.209666e+00 3.485818e+00 3.450817e+00 1.815025e+00 2.531800e+00 2.278026e+00 2.337059e+00 5.068200e-01
<GCONST> 9.746310e+01
<STATE> 3
<MEAN> 26
 4.855685e-02 -1.430140e+01 -5.399384e+00 -2.081935e+01 3.716965e+00 7.838019e+00 -1.977417e+01 3.067775e+00 -1.036691e+01 3.705548e-01 5.233572e+00 -8.654250e+00 2.159682e+01 1.858864e-01 3.588109e-01 -2.012527e-01 1.078967e-01 5.291564e-01 -8.988196e-01 1.568331e-01 -2.148544e-01 -5.686100e-01 -1.333656e-01 -1.901108e-01 2.750190e-02 -7.998364e-02
<VARIANCE> 26
 5.513364e+00 8.662283e+00 1.223183e+01 1.376163e+01 2.005546e+01 2.302546e+01 2.070626e+01 1.247766e+01 1.820885e+01 1.674550e+01 2.372136e+01 1.566563e+01 3.090869e-01 3.392306e-01 7.868032e-01 1.201982e+00 9.885560e-01 1.456538e+00 1.825230e+00 1.141002e+00 8.803651e-01 1.231672e+00 1.290471e+00 2.223791e+00 1.051705e+00 1.597303e-02
<GCONST> 7.594013e+01
<STATE> 4
<MEAN> 26
 1.083326e+00 -6.713981e+00 -4.585833e+00 -1.459460e+01 2.066661e+00 -1.282574e+00 -1.360639e+01 -7.390320e-01 -1.440675e+01 1.377358e+00 -9.373439e-01 -8.133274e+00 2.035673e+01 -3.529483e-01 2.745911e+00 7.424474e-01 3.148005e+00 -1.099706e+00 -7.397321e-01 2.615010e+00 -1.469400e+00 2.544112e-01 -3.629786e-01 -1.217315e+00 1.204378e+00 -4.290842e-01
<VARIANCE> 26
 7.027660e+00 3.393377e+01 3.534627e+01 8.119742e+01 6.962731e+01 4.561340e+01 4.786551e+01 5.153693e+01 4.819333e+01 3.764291e+01 3.430876e+01 2.671722e+01 5.092315e-01 2.928252e+00 3.392859e+00 2.379902e+00 7.177739e+00 5.008127e+00 2.801687e+00 1.842456e+00 2.838689e+00 4.885123e+00 3.334800e+00 3.061334e+00 2.108380e+00 7.490583e-02
<GCONST> 1.022381e+02
<TRANSP> 5
 0.000000e+00 1.000000e+00 0.000000e+00 0.000000e+00 0.000000e+00
 0.000000e+00 5.041975e-01 4.958026e-01 0.000000e+00 0.000000e+00
 0.000000e+00 0.000000e+00 8.609449e-01 1.390551e-01 0.000000e+00
 0.000000e+00 0.000000e+00 0.000000e+00 7.125369e-01 2.874631e-01
 0.000000e+00 0.000000e+00 0.000000e+00 0.000000e+00 0.000000e+00
<ENDHMM>
~h "o^"
<BEGINHMM>
<NUMSTATES> 5
<STATE> 2
<MEAN> 26
 1.720659e+00 -4.439501e-02 1.765941e+00 -2.723734e+01 -9.451989e+00 5.921792e+00 -1.195692e+01 -5.222204e+00 -1.559442e+01 5.380014e-01 7.093372e+00 -3.880864e+00 2.034476e+01 1.711790e+00 6.281444e-01 7.294428e-01 -4.242092e+00 -3.009272e+00 2.290317e+00 -1.472037e+00 5.936106e-01 -2.694421e+00 -1.113305e+00 2.001552e+00 -1.079247e+00 1.015421e+00
<VARIANCE> 26
 8.135122e+00 3.806114e+01 1.310553e+01 9.017924e+01 3.241015e+01 2.112734e+01 5.423312e+01 5.340692e+01 5.579904e+01 5.384783e+01 8.918925e+01 1.952445e+01 2.915207e+00 3.931854e+00 1.719972e+00 1.653385e+00 1.489854e+01 2.889597e+00 2.339735e+00 4.317997e+00 2.914116e+00 7.581488e+00 3.172976e+00 4.044565e+00 5.519747e+00 1.482758e+00
<GCONST> 1.078746e+02
<STATE> 3
<MEAN> 26
 2.927099e+00 4.785329e-01 3.066445e+00 -3.004843e+01 -1.623838e+01 1.081355e+01 -1.315537e+01 -4.312785e+00 -1.591761e+01 -6.324784e+00 1.235659e+01 -7.492915e+00 2.163198e+01 7.567186e-02 3.919736e-03 -1.513923e-02 -4.196581e-02 4.006454e-03 1.372655e-01 -3.287657e-01 7.581245e-02 -5.757630e-01 -1.259157e-01 1.952000e-02 -1.252191e-01 4.829825e-03
<VARIANCE> 26
 5.768501e+00 1.190513e+01 1.897315e+01 2.612375e+01 2.092418e+01 1.519806e+01 2.118780e+01 3.926199e+01 4.707680e+01 4.150933e+01 3.773814e+01 2.676600e+01 3.285707e-01 3.773085e-01 1.058230e+00 9.504305e-01 2.867055e+00 2.151523e+00 1.237327e+00 1.642196e+00 2.223790e+00 2.195564e+00 3.578759e+00 2.271528e+00 1.879908e+00 3.235826e-02
<GCONST> 8.652927e+01
<STATE> 4
<MEAN> 26
 2.039608e+00 1.003469e+00 1.571784e+00 -2.524401e+01 -7.367746e+00 5.663940e+00 -1.507945e+01 -4.347978e+00 -1.959566e+01 2.688277e-01 8.377878e+00 -6.341052e+00 2.030596e+01 -6.907045e-01 7.613153e-01 -1.919768e-01 3.214152e+00 2.457259e+00 -2.188120e+00 1.408673e+00 -6.468133e-01 1.852560e+00 1.101296e+00 -1.976943e+00 6.680757e-01 -6.656505e-01
<VARIANCE> 26
 1.119085e+01 3.378419e+01 1.910867e+01 1.046282e+02 5.197712e+01 4.232851e+01 8.412112e+01 6.627969e+01 5.701944e+01 5.093048e+01 6.041920e+01 5.682527e+01 2.019469e+00 1.110228e+00 3.465873e+00 3.327947e+00 7.741408e+00 3.563478e+00 2.884571e+00 7.626039e+00 3.851833e+00 6.354463e+00 7.775562e+00 6.682309e+00 6.583225e+00 2.474730e-01
<GCONST> 1.110552e+02
<TRANSP> 5
 0.000000e+00 1.000000e+00 0.000000e+00 0.000000e+00 0.000000e+00
 0.000000e+00 5.542979e-01 4.457021e-01 0.000000e+00 0.000000e+00
 0.000000e+00 0.000000e+00 8.728200e-01 1.271800e-01 0.000000e+00
 0.000000e+00 0.000000e+00 0.000000e+00 7.111685e-01 2.888315e-01
 0.000000e+00 0.000000e+00 0.000000e+00 0.000000e+00 0.000000e+00
<ENDHMM>
~h "n~"
<BEGINHMM>
<NUMSTATES> 5
<STATE> 2
<MEAN> 26
 4.711486e-01 2.754624e-01 8.123879e+00 -2.460648e+00 -9.036533e+00 -4.230554e+00 -1.150124e+01 2.277850e+00 -1.932397e+01 -1.537187e+01 9.460202e+00 -4.433322e+00 2.070670e+01 -2.576174e-01 -3.074193e-02 2.316358e-01 -1.000474e-01 1.157368e-01 -1.033435e-02 1.585267e-02 6.389978e-01 -1.533182e-01 -9.236996e-01 1.689081e+00 -5.314447e-01 1.140489e-02
<VARIANCE> 26
 4.896901e+00 4.974784e+00 1.973184e+01 3.828319e+01 2.050232e+01 3.046331e+01 1.238519e+01 2.075710e+01 1.514877e+01 1.883839e+01 4.312725e+01 1.221030e+01 1.387692e-01 1.764837e+00 9.563066e-01 3.957940e+00 6.915913e+00 2.630107e+00 3.930394e+00 4.095907e+00 2.339025e+00 1.103337e+00 1.716157e+00 2.705446e+00 1.328737e+00 1.233393e-03
<GCONST> 8.318515e+01
<STATE> 3
<MEAN> 26
 -4.517651e+00 -4.956009e-02 1.798008e+01 -1.107055e+01 -1.563317e+01 6.200759e+00 -1.627848e+01 -3.503235e-01 -1.627986e+01 -1.342358e+01 9.695040e+00 -5.635980e+00 2.076631e+01 -5.875621e-01 -5.312543e-01 1.439126e+00 -7.697595e-01 -2.368629e+00 1.620773e+00 -5.588160e-02 -9.836822e-01 1.562443e+00 1.276630e+00 -1.200656e+00 4.513708e-01 -7.556220e-03
<VARIANCE> 26
 7.216417e+00 1.414345e+01 1.561152e+01 3.499065e+01 4.918554e+01 3.157561e+01 2.032146e+01 4.464938e+01 2.535586e+01 2.891591e+01 2.829714e+01 9.199247e+00 9.083315e-02 6.207128e-01 1.221204e+00 2.939790e+00 4.476041e+00 2.767186e+00 1.015224e+01 1.761673e+00 4.841106e+00 9.533750e-01 1.667153e+00 1.661389e+00 7.236937e-01 5.009473e-03
<GCONST> 8.576274e+01
<STATE> 4
<MEAN> 26
 -3.188405e+00 -5.072783e+00 1.348960e+01 -7.905711e+00 -1.702794e+01 1.302717e+00 -1.817781e+01 2.293706e+00 -9.318668e+00 -8.699362e+00 6.158102e+00 -4.322679e+00 2.088981e+01 8.446382e-01 -2.982411e-01 -2.412860e+00 1.434677e-01 2.329036e+00 -1.277949e+00 -1.053930e+00 4.613863e-01 7.683237e-01 1.334485e+00 -2.733242e-01 -2.828703e-01 -6.788965e-03
<VARIANCE> 26
 9.487221e+00 1.603979e+01 3.271198e+01 1.421892e+01 3.045718e+01 4.148054e+01 2.014025e+01 2.128843e+01 3.255688e+01 2.408770e+01 1.078203e+01 6.234325e+00 1.034925e-01 2.157961e-01 2.306947e+00 2.166177e+00 3.044333e+00 2.333523e+00 6.722095e+00 4.614766e+00 3.934152e+00 3.389735e+00 2.069385e+00 1.352725e+00 2.085050e+00 1.761761e-02
<GCONST> 8.654551e+01
<TRANSP> 5
 0.000000e+00 1.000000e+00 0.000000e+00 0.000000e+00 0.000000e+00
 0.000000e+00 7.778051e-01 2.221948e-01 0.000000e+00 0.000000e+00
 0.000000e+00 0.000000e+00 7.487390e-01 2.512609e-01 0.000000e+00
 0.000000e+00 0.000000e+00 0.000000e+00 7.454947e-01 2.545052e-01
 0.000000e+00 0.000000e+00 0.000000e+00 0.000000e+00 0.000000e+00
<ENDHMM>
~h "o~"
<BEGINHMM>
<NUMSTATES> 5
<STATE> 2
<MEAN> 26
 8.287165e-01 4.481338e-01 3.443221e-01 -1.590273e+01 -1.244556e+01 6.777120e+00 -8.116407e+00 1.986774e+00 -1.173740e+01 -5.190553e+00 5.267651e+00 -2.434502e+00 1.983528e+01 1.959426e+00 -3.747205e-02 -7.103606e-02 -1.202298e+00 -3.516906e+00 5.476981e-01 -6.753199e-01 1.973423e+00 -1.086738e+00 -5.547995e-01 8.395071e-01 -9.666523e-01 5.967038e-01
<VARIANCE> 26
 1.322326e+01 2.156635e+01 1.683956e+01 3.412823e+01 4.557160e+01 3.255549e+01 4.385672e+01 4.256829e+01 4.288543e+01 3.017045e+01 3.742247e+01 1.617751e+01 2.383079e+00 4.762578e+00 1.926228e+00 2.566167e+00 5.068391e+00 4.063945e+00 3.662630e+00 6.237407e+00 4.607419e+00 5.889883e+00 3.064092e+00 3.986642e+00 1.358276e+00 2.385828e-01
<GCONST> 1.030552e+02
<STATE> 3
<MEAN> 26
 1.900689e+00 -2.095834e+00 -1.016376e+00 -1.235794e+01 -1.880615e+01 6.314779e+00 -9.477152e+00 2.888535e+00 -1.360787e+01 -3.654233e+00 2.905980e+00 -5.860821e+00 2.065528e+01 3.037477e-02 1.105046e-01 -1.026469e-01 6.805884e-01 -7.261407e-02 4.809048e-02 2.108817e-01 -3.424964e-01 -7.081869e-01 4.185454e-01 -8.431382e-01 -2.307897e-01 -4.734566e-02
<VARIANCE> 26
 3.811570e+00 1.332056e+01 1.324347e+01 2.372760e+01 1.667987e+01 1.904931e+01 1.977793e+01 2.098851e+01 3.155971e+01 2.221204e+01 2.223043e+01 1.556392e+01 1.692824e-01 2.907473e-01 7.236286e-01 1.159577e+00 2.566125e+00 1.854758e+00 2.278537e+00 1.667083e+00 1.733695e+00 2.100603e+00 1.641625e+00 1.626869e+00 9.566731e-01 1.370655e-02
<GCONST> 7.929951e+01
<STATE> 4
<MEAN> 26
 2.943246e+00 1.128333e+00 -5.189495e-01 -5.945368e+00 -1.060571e+01 5.269071e+00 -3.522821e+00 -1.246517e+00 -1.818592e+01 -4.196394e-01 -3.743346e+00 -3.481710e+00 1.932795e+01 -4.249025e-01 1.078040e+00 1.241159e-01 1.702576e+00 2.579316e+00 -1.187771e+00 1.921274e+00 -1.403073e+00 1.243606e+00 -3.349475e-02 -1.115394e-01 8.908774e-01 -5.444075e-01
<VARIANCE> 26
 5.042315e+00 2.911316e+01 1.283866e+01 8.684962e+01 5.199117e+01 4.095237e+01 4.359814e+01 3.328567e+01 3.247395e+01 2.995769e+01 3.655341e+01 2.768637e+01 8.589846e-01 1.907152e+00 2.386046e+00 1.211401e+00 5.862072e+00 2.627408e+00 3.393154e+00 2.742381e+00 3.144864e+00 4.479175e+00 2.648766e+00 3.487608e+00 2.382213e+00 1.299472e-01
<GCONST> 9.875008e+01
<TRANSP> 5
 0.000000e+00 1.000000e+00 0.000000e+00 0.000000e+00 0.000000e+00
 0.000000e+00 5.795296e-01 4.204704e-01 0.000000e+00 0.000000e+00
 0.000000e+00 0.000000e+00 8.769515e-01 1.230485e-01 0.000000e+00
 0.000000e+00 0.000000e+00 0.000000e+00 7.312837e-01 2.687164e-01
 0.000000e+00 0.000000e+00 0.000000e+00 0.000000e+00 0.000000e+00
<ENDHMM>
~h "s^"
<BEGINHMM>
<NUMSTATES> 5
<STATE> 2
<MEAN> 26
 -2.040225e+01 -6.739617e-01 9.012136e+00 -7.395686e+00 3.176874e+00 -3.664586e+00 5.279050e-01 -8.922220e+00 -2.704231e+00 -2.343706e+00 -3.633532e+00 -5.717263e-01 1.825229e+01 -4.929227e+00 -1.664200e+00 -4.620228e-01 -8.928793e-02 1.172938e+00 2.382180e-01 2.543529e+00 5.010030e-01 2.427639e+00 6.149516e-01 1.337252e+00 5.883949e-01 -3.421254e-01
<VARIANCE> 26
 4.836542e+01 2.498951e+01 2.214787e+01 2.202581e+01 4.541043e+01 4.900522e+01 4.480581e+01 4.158473e+01 3.148755e+01 4.710748e+01 2.532661e+01 2.002213e+01 7.104691e-01 2.579403e+00 3.608790e+00 4.328490e+00 4.832577e+00 4.137718e+00 5.715257e+00 3.916401e+00 3.059849e+00 3.296563e+00 3.274192e+00 3.049396e+00 2.039849e+00 1.451600e-01
<GCONST> 1.026938e+02
<STATE> 3
<MEAN> 26
 -3.052172e+01 -6.896322e+00 5.559186e+00 -1.267893e+01 1.506752e+00 -5.321863e+00 3.512960e+00 -7.179649e+00 1.937976e+00 1.476936e+00 -1.903514e-01 1.840829e+00 1.817368e+01 -3.116285e-02 1.253664e-02 -5.994482e-02 -2.153074e-01 -4.698170e-02 -2.119076e-01 -3.287791e-02 -1.633192e-01 1.625919e-01 1.767862e-01 -2.048092e-02 -2.461870e-03 -9.375223e-03
<VARIANCE> 26
 7.244906e+00 9.245470e+00 9.805039e+00 1.149128e+01 2.438010e+01 2.958723e+01 1.927175e+01 1.650663e+01 1.238655e+01 1.696682e+01 1.061110e+01 1.406729e+01 3.497578e-01 1.366246e+00 8.043972e-01 6.837419e-01 1.085379e+00 1.369107e+00 1.351735e+00 1.440757e+00 1.659977e+00 1.364864e+00 1.609732e+00 1.353230e+00 1.507400e+00 2.571948e-02
<GCONST> 7.748353e+01
<STATE> 4
<MEAN> 26
 -1.932340e+01 -3.450613e+00 4.714714e+00 -1.102146e+01 1.624453e+00 -6.357733e+00 -8.681719e-01 -9.741741e+00 1.207006e+00 8.416640e-01 -1.710817e+00 -3.300143e-01 1.705988e+01 5.173984e+00 4.903273e-01 -5.240170e-01 8.521708e-01 -1.070238e+00 7.831942e-01 -2.912370e+00 -3.041605e-01 -1.426010e+00 -3.117657e-01 -1.608148e-03 -6.706706e-01 2.123957e-02
<VARIANCE> 26
 7.217665e+01 1.809387e+01 2.164454e+01 2.382000e+01 4.471281e+01 3.114096e+01 4.122707e+01 2.459959e+01 2.082826e+01 4.481610e+01 2.154033e+01 2.044135e+01 4.203313e+00 6.677560e+00 2.903502e+00 2.739149e+00 2.171657e+00 6.012369e+00 7.330260e+00 6.549603e+00 4.273986e+00 4.087706e+00 4.015795e+00 4.120044e+00 2.748771e+00 5.573188e-01
<GCONST> 1.062338e+02
<TRANSP> 5
 0.000000e+00 1.000000e+00 0.000000e+00 0.000000e+00 0.000000e+00
 0.000000e+00 6.940541e-01 3.059459e-01 0.000000e+00 0.000000e+00
 0.000000e+00 0.000000e+00 8.950204e-01 1.049796e-01 0.000000e+00
 0.000000e+00 0.000000e+00 0.000000e+00 6.993231e-01 3.006769e-01
 0.000000e+00 0.000000e+00 0.000000e+00 0.000000e+00 0.000000e+00
<ENDHMM>
~h "x^"
<BEGINHMM>
<NUMSTATES> 5
<STATE> 2
<MEAN> 26
 -1.184254e+00 -9.309216e+00 5.428449e+00 -1.788216e+01 -4.733831e+00 -2.501863e+00 -2.356798e+01 -5.474343e-01 -7.871109e+00 1.042954e+01 4.819313e+00 -1.153743e+01 2.078578e+01 1.084208e+00 -2.029877e+00 -7.902971e-02 -3.503867e+00 -1.408957e+00 1.038547e+00 -2.627567e+00 1.321225e+00 4.391809e-01 2.810493e+00 1.181195e+00 -1.202711e+00 7.290364e-01
<VARIANCE> 26
 6.096578e+00 1.760939e+01 2.119538e+01 3.951894e+01 3.385072e+01 3.629731e+01 2.440602e+01 2.146308e+01 2.185880e+01 3.875116e+01 3.033380e+01 1.501810e+01 7.737084e-01 4.158619e+00 1.659927e+00 2.220235e+00 6.676744e+00 3.886756e+00 2.890251e+00 6.274060e+00 3.518564e+00 4.785357e+00 2.262396e+00 2.871511e+00 3.475222e+00 6.759595e-01
<GCONST> 9.960558e+01
<STATE> 3
<MEAN> 26
 6.877138e-02 -1.211588e+01 1.611381e+00 -2.123410e+01 -6.374223e+00 1.247079e-01 -2.470687e+01 5.125714e+00 -6.865595e+00 1.334525e+01 4.137119e+00 -1.176070e+01 2.169967e+01 1.097423e-01 1.276921e-01 -5.735897e-01 -4.848531e-01 2.820522e-01 4.102370e-01 2.712246e-01 -4.671302e-03 -3.330044e-01 3.009432e-01 -3.849136e-01 -9.166243e-02 -1.073591e-02
<VARIANCE> 26
 2.575579e+00 9.449072e+00 1.817532e+01 1.711074e+01 1.850432e+01 1.973768e+01 1.247459e+01 2.155947e+01 8.156487e+00 1.620383e+01 1.793927e+01 1.512357e+01 2.456798e-01 2.713624e-01 6.749965e-01 1.068578e+00 1.806832e+00 1.292181e+00 1.861853e+00 1.324049e+00 1.588705e+00 1.227918e+00 1.217237e+00 1.169536e+00 1.233979e+00 1.755033e-02
<GCONST> 7.460336e+01
<STATE> 4
<MEAN> 26
 1.074417e+00 -7.811041e+00 3.627003e-02 -2.444367e+01 -8.812848e-01 3.135757e+00 -1.652090e+01 -3.026589e+00 -1.065288e+01 1.317312e+01 2.001415e+00 -8.020479e+00 2.071198e+01 4.230314e-02 1.345980e+00 -1.792068e-01 7.361832e-01 1.228081e+00 7.420499e-01 3.028582e+00 -2.373666e+00 -1.556413e-01 -1.562094e+00 -2.757573e-01 1.804581e+00 -3.799055e-01
<VARIANCE> 26
 3.129911e+00 2.296975e+01 1.796734e+01 3.409323e+01 2.166567e+01 4.178500e+01 7.677074e+01 3.014955e+01 3.327133e+01 1.808013e+01 2.897370e+01 2.108120e+01 6.081074e-01 8.957656e-01 2.166449e+00 1.647954e+00 4.644976e+00 2.098698e+00 1.954458e+00 3.851394e+00 2.448978e+00 2.819631e+00 2.725007e+00 1.326675e+00 1.876646e+00 8.311093e-02
<GCONST> 9.216730e+01
<TRANSP> 5
 0.000000e+00 1.000000e+00 0.000000e+00 0.000000e+00 0.000000e+00
 0.000000e+00 5.270386e-01 4.729614e-01 0.000000e+00 0.000000e+00
 0.000000e+00 0.000000e+00 8.408325e-01 1.591675e-01 0.000000e+00
 0.000000e+00 0.000000e+00 0.000000e+00 7.293550e-01 2.706449e-01
 0.000000e+00 0.000000e+00 0.000000e+00 0.000000e+00 0.000000e+00
<ENDHMM>
~h "x~"
<BEGINHMM>
<NUMSTATES> 5
<STATE> 2
<MEAN> 26
 -1.252376e+00 -1.126632e+01 -2.862030e+00 -2.136711e+01 7.981284e+00 -4.462892e+00 -1.150168e+01 -2.951204e+00 -2.887663e+00 5.394339e+00 -2.684806e+00 -8.384007e+00 1.915697e+01 2.636121e+00 -3.185504e+00 2.613879e-01 -3.712312e+00 1.804582e+00 5.020477e-01 -2.355998e+00 9.216399e-01 -1.740167e+00 3.558825e-01 -8.836067e-02 -1.713381e+00 1.531729e+00
<VARIANCE> 26
 9.878129e+00 3.687691e+01 1.471575e+01 2.457864e+01 5.336111e+01 2.085999e+01 4.247149e+01 3.896838e+01 2.151495e+01 2.582279e+01 2.694726e+01 2.856600e+01 2.643926e+00 2.953203e+00 3.728422e+00 1.757639e+00 5.992388e+00 3.234482e+00 3.771258e+00 3.676568e+00 5.528283e+00 2.316462e+00 3.093297e+00 2.111089e+00 2.666885e+00 1.318352e+00
<GCONST> 1.021786e+02
<STATE> 3
<MEAN> 26
 3.400241e-01 -1.460173e+01 -2.171144e+00 -2.194896e+01 7.260324e+00 4.500592e+00 -1.779277e+01 2.247335e+00 -7.840593e+00 2.535926e+00 9.036571e-01 -8.587913e+00 2.116815e+01 -2.631113e-02 4.487823e-01 5.544516e-02 4.328591e-01 -5.990025e-01 6.150471e-01 -5.702462e-01 5.604258e-01 -4.404750e-01 4.045992e-02 1.532525e-01 1.070588e-01 6.574923e-02
<VARIANCE> 26
 4.085898e+00 1.135246e+01 6.819727e+00 1.376496e+01 2.008491e+01 2.798903e+01 1.841756e+01 1.421020e+01 1.162833e+01 1.439430e+01 3.367151e+01 1.138805e+01 3.469205e-01 2.988510e-01 1.273522e+00 7.425352e-01 7.654241e-01 1.573490e+00 2.266695e+00 1.681061e+00 1.170042e+00 1.009595e+00 9.475101e-01 1.364161e+00 7.262580e-01 5.303074e-02
<GCONST> 7.550010e+01
<STATE> 4
<MEAN> 26
 1.053729e+00 -5.869054e+00 -8.431429e-01 -1.308443e+01 -3.791479e-01 2.022375e+00 -1.571552e+01 3.385132e+00 -1.419919e+01 3.651893e+00 8.448150e-01 -9.276218e+00 2.050675e+01 2.720320e-01 2.708158e+00 5.182223e-01 3.956897e+00 -2.280643e+00 -2.633857e-01 2.836081e+00 -1.781027e+00 -1.067684e+00 -4.684688e-01 -3.260633e-01 7.618735e-01 -3.330775e-01
<VARIANCE> 26
 6.579309e+00 3.163461e+01 2.305559e+01 9.506512e+01 4.995423e+01 4.958617e+01 5.008696e+01 4.381954e+01 5.473576e+01 3.587530e+01 4.491389e+01 1.785652e+01 5.122662e-01 1.405207e+00 3.710073e+00 1.947978e+00 6.511863e+00 2.800120e+00 1.793465e+00 3.798725e+00 3.349484e+00 5.532852e+00 2.661613e+00 3.653964e+00 1.714789e+00 6.095247e-02
<GCONST> 1.000009e+02
<TRANSP> 5
 0.000000e+00 1.000000e+00 0.000000e+00 0.000000e+00 0.000000e+00
 0.000000e+00 6.510398e-01 3.489601e-01 0.000000e+00 0.000000e+00
 0.000000e+00 0.000000e+00 8.764216e-01 1.235783e-01 0.000000e+00
 0.000000e+00 0.000000e+00 0.000000e+00 6.734126e-01 3.265874e-01
 0.000000e+00 0.000000e+00 0.000000e+00 0.000000e+00 0.000000e+00
<ENDHMM>
~h "z^"
<BEGINHMM>
<NUMSTATES> 5
<STATE> 2
<MEAN> 26
 -1.017599e+01 3.008276e+00 1.172499e+01 -7.630682e+00 -1.255610e+00 -6.035466e+00 -4.396077e+00 -1.209152e+01 -1.987520e+00 -1.695285e+00 -3.511713e+00 5.230289e-01 1.910208e+01 -3.235385e+00 1.733259e+00 1.670765e+00 1.350147e+00 1.679711e+00 1.978605e-02 1.979746e+00 -1.110977e+00 1.270983e+00 -6.115767e-01 3.075910e-01 5.759320e-01 -3.573627e-01
<VARIANCE> 26
 2.928292e+01 1.791105e+01 2.388803e+01 3.148537e+01 3.776976e+01 3.934982e+01 2.846158e+01 3.023270e+01 2.221754e+01 2.831364e+01 2.696759e+01 1.877475e+01 5.221986e-01 1.752360e+00 2.524591e+00 2.249252e+00 2.985698e+00 2.045026e+00 4.120886e+00 2.417895e+00 4.543046e+00 3.248230e+00 2.460408e+00 2.060023e+00 1.742972e+00 4.821916e-02
<GCONST> 9.499748e+01
<STATE> 3
<MEAN> 26
 -2.039166e+01 5.277268e+00 1.705436e+01 -5.228831e+00 4.217628e+00 -2.236047e+00 1.648250e+00 -1.022233e+01 -4.452121e-01 -2.369778e+00 -3.275512e+00 1.064921e+00 1.817560e+01 -2.053695e-01 -1.180058e-02 -1.679926e-01 -7.390650e-02 1.429277e-01 -1.157703e-01 -7.960276e-02 1.771397e-01 9.717349e-02 -9.632020e-02 6.323537e-02 1.033976e-02 1.311742e-02
<VARIANCE> 26
 1.535827e+01 8.815448e+00 1.346151e+01 2.174181e+01 2.779808e+01 3.144263e+01 2.817372e+01 1.668324e+01 1.619915e+01 1.808566e+01 1.645543e+01 1.498089e+01 3.531585e-01 3.315719e+00 1.056077e+00 1.801504e+00 9.686351e-01 1.680184e+00 2.854570e+00 2.682893e+00 1.601765e+00 1.125426e+00 1.049891e+00 1.515216e+00 1.320987e+00 3.643074e-02
<GCONST> 8.382890e+01
<STATE> 4
<MEAN> 26
 -1.095398e+01 1.850330e+00 9.881276e+00 -8.062813e+00 7.575773e-01 -7.922535e+00 -4.428383e+00 -1.182599e+01 -4.243818e-01 -1.739929e+00 -2.563240e+00 1.256351e-01 1.913165e+01 3.654401e+00 -2.293771e+00 -1.790379e+00 -6.390314e-01 -2.086375e+00 3.717738e-02 -2.956019e+00 7.194132e-01 -7.718450e-01 3.060175e-01 9.711139e-01 -5.991938e-01 3.921412e-01
<VARIANCE> 26
 4.073876e+01 2.618558e+01 3.070014e+01 2.003862e+01 3.370008e+01 2.478046e+01 3.608562e+01 3.587317e+01 1.575227e+01 2.252082e+01 1.604163e+01 1.833800e+01 1.018100e+00 1.820565e+00 2.617150e+00 2.840924e+00 1.271118e+00 2.864791e+00 6.187087e+00 4.806721e+00 4.437009e+00 2.929893e+00 3.500699e+00 2.819164e+00 2.104798e+00 7.003052e-02
<GCONST> 9.687606e+01
<TRANSP> 5
 0.000000e+00 1.000000e+00 0.000000e+00 0.000000e+00 0.000000e+00
 0.000000e+00 7.093846e-01 2.906154e-01 0.000000e+00 0.000000e+00
 0.000000e+00 0.000000e+00 7.875619e-01 2.124380e-01 0.000000e+00
 0.000000e+00 0.000000e+00 0.000000e+00 6.294853e-01 3.705148e-01
 0.000000e+00 0.000000e+00 0.000000e+00 0.000000e+00 0.000000e+00
<ENDHMM>
