~o
<STREAMINFO> 1 26
<VECSIZE> 26<NULLD><MFCC_E_D><DIAGC>
~v "varFloor1"
<VARIANCE> 26
 7.528608e-01 4.836471e-01 6.936527e-01 1.165170e+00 5.971813e-01 4.755226e-01 8.837133e-01 4.464411e-01 6.617475e-01 5.043612e-01 3.577261e-01 3.682624e-01 2.346386e-01 2.926073e-02 2.980258e-02 2.837205e-02 5.332779e-02 3.412719e-02 3.071158e-02 4.275788e-02 3.327679e-02 3.738448e-02 3.113799e-02 2.695941e-02 2.419822e-02 4.406946e-03
~h "_"
<BEGINHMM>
<NUMSTATES> 5
<STATE> 2
<MEAN> 26
 -8.601336e+00 -5.110048e-01 -1.563815e+00 -1.146142e+01 -2.997701e+00 -6.275742e+00 -5.401836e+00 -5.503370e+00 -3.074344e+00 6.844653e+00 2.435546e+00 2.242774e-01 1.344298e+01 -1.310602e+00 7.767564e-01 -7.455032e-01 3.012880e+00 2.751557e-02 1.135818e+00 1.091512e+00 1.166465e+00 2.147995e+00 -4.695106e-01 6.956912e-01 -1.841758e-01 -1.434105e+00
<VARIANCE> 26
 2.410203e+01 3.193454e+01 6.519850e+01 8.427148e+01 6.157573e+01 9.258672e+01 6.667463e+01 5.908540e+01 1.276569e+02 9.963256e+01 6.624831e+01 4.790414e+01 9.378649e+00 2.634529e+00 3.859533e+00 6.172678e+00 6.131370e+00 6.207948e+00 5.881582e+00 5.811643e+00 6.599250e+00 9.824832e+00 8.113761e+00 6.434370e+00 5.052569e+00 3.353321e-01
<GCONST> 1.196860e+02
<STATE> 3
<MEAN> 26
 -1.359299e+01 1.787195e+00 -1.546544e+00 -4.589655e-01 4.396583e-01 5.289453e-01 -1.178664e+00 9.480627e-01 -4.102581e-01 1.185599e+00 1.336743e+00 -5.984372e-01 8.630662e+00 -2.178853e-01 -3.790013e-02 1.545538e-01 2.616949e-01 2.750507e-01 1.028366e-01 1.132136e-01 2.654293e-01 -9.889394e-02 -1.842292e-01 -1.952471e-01 3.467013e-02 -1.114557e-01
<VARIANCE> 26
 2.335517e+00 4.061020e+00 5.838650e+00 8.290254e+00 1.094656e+01 1.276547e+01 1.256382e+01 1.370870e+01 1.367667e+01 1.497306e+01 1.524678e+01 1.158217e+01 8.307211e-01 5.680301e-01 7.891659e-01 1.085168e+00 1.691804e+00 1.836337e+00 2.178519e+00 1.759476e+00 2.399818e+00 2.537612e+00 2.589377e+00 2.151099e+00 1.666288e+00 1.874241e-01
<GCONST> 7.842982e+01
<STATE> 4
<MEAN> 26
 -1.313586e+01 1.455518e+00 -7.328720e-01 -1.489722e+00 -5.127255e-03 -9.402865e-01 -1.687796e+00 6.991611e-01 -1.168720e+00 9.177428e-01 9.948373e-01 -6.627076e-01 9.319118e+00 2.127492e+00 -1.134962e+00 9.554763e-01 -3.267212e+00 -2.636317e-02 -1.406360e+00 -1.506670e+00 -9.655845e-01 -2.304694e+00 1.346886e-01 -8.613705e-01 -1.025673e-01 1.914553e+00
<VARIANCE> 26
 6.760423e+00 1.040256e+01 1.560247e+01 2.279189e+01 1.404842e+01 2.369735e+01 1.557448e+01 1.789402e+01 2.278510e+01 1.543272e+01 1.417877e+01 1.413909e+01 2.994927e+00 3.228745e+00 5.691591e+00 5.847090e+00 1.170862e+01 5.134419e+00 4.467864e+00 3.736902e+00 4.692071e+00 5.291704e+00 3.986635e+00 3.497258e+00 3.118535e+00 8.691888e-01
<GCONST> 1.000426e+02
<TRANSP> 5
 0.000000e+00 1.000000e+00 0.000000e+00 0.000000e+00 0.000000e+00
 0.000000e+00 7.940792e-01 2.059208e-01 0.000000e+00 0.000000e+00
 0.000000e+00 0.000000e+00 8.172964e-01 1.827036e-01 0.000000e+00
 0.000000e+00 0.000000e+00 0.000000e+00 4.286515e-01 5.713485e-01
 0.000000e+00 0.000000e+00 0.000000e+00 0.000000e+00 0.000000e+00
<ENDHMM>
~h "a"
<BEGINHMM>
<NUMSTATES> 5
<STATE> 2
<MEAN> 26
 -1.128254e+00 -9.837000e+00 -2.248576e+00 -2.165206e+01 1.214761e-01 1.197818e-01 -1.206095e+01 3.452549e-02 -4.003223e+00 6.397725e+00 -1.595002e+00 -8.646231e+00 2.014483e+01 1.801476e+00 -3.216424e+00 -1.036204e+00 -3.419272e+00 7.705178e-01 7.871324e-01 -1.008306e+00 1.553685e+00 -9.177751e-02 5.692996e-01 -1.008819e+00 -2.327240e+00 8.933550e-01
<VARIANCE> 26
 1.855532e+01 3.427235e+01 3.549599e+01 4.900177e+01 6.312319e+01 4.722841e+01 9.106136e+01 5.540501e+01 3.167891e+01 3.687415e+01 3.363331e+01 2.912037e+01 6.638995e+00 3.466986e+00 2.884802e+00 3.153360e+00 7.138454e+00 4.220688e+00 3.851219e+00 6.785534e+00 7.615062e+00 4.928824e+00 4.169118e+00 2.671491e+00 2.846502e+00 7.611852e-01
<GCONST> 1.109992e+02
<STATE> 3
<MEAN> 26
 6.624081e-01 -1.615578e+01 -5.387272e+00 -2.611280e+01 4.797761e+00 3.274896e+00 -1.153048e+01 1.682394e+00 -3.594503e+00 3.836805e+00 -4.462676e+00 -1.287053e+01 2.180267e+01 -6.352492e-02 -1.388272e-01 4.174560e-02 1.529421e-01 1.833348e-01 -4.489195e-01 3.498816e-01 -1.155332e-01 4.101129e-02 -1.471544e-01 -2.752471e-01 1.258642e-01 -6.854032e-03
<VARIANCE> 26
 6.775292e+00 1.697098e+01 2.247639e+01 2.117652e+01 3.945911e+01 4.537118e+01 4.046044e+01 5.214121e+01 2.540316e+01 2.636957e+01 2.958857e+01 2.072158e+01 4.827435e-01 5.484954e-01 1.537065e+00 2.064096e+00 1.613262e+00 2.894590e+00 2.661867e+00 2.872323e+00 2.629248e+00 1.527399e+00 2.089571e+00 2.229557e+00 1.863531e+00 4.178471e-02
<GCONST> 9.054227e+01
<STATE> 4
<MEAN> 26
 2.385542e-01 -1.014278e+01 -1.109378e+00 -2.043145e+01 1.205144e+00 -4.078791e+00 -1.051256e+01 -9.640535e-01 -4.778215e+00 5.478065e+00 -4.362581e+00 -7.765349e+00 2.051512e+01 -5.096564e-01 3.460875e+00 1.260811e+00 3.607590e+00 -2.030523e-01 -5.574597e-01 6.924573e-01 -1.982051e+00 -4.582546e-01 -6.888025e-01 4.020055e-01 1.562585e+00 -6.527830e-01
<VARIANCE> 26
 1.038235e+01 3.496156e+01 3.764924e+01 4.208606e+01 4.495561e+01 6.563300e+01 7.206615e+01 7.303834e+01 3.916406e+01 3.153530e+01 3.797045e+01 2.609089e+01 1.202047e+00 2.184365e+00 4.457209e+00 2.803166e+00 5.180051e+00 3.804581e+00 3.585816e+00 4.564780e+00 4.457923e+00 4.629663e+00 3.125837e+00 2.661947e+00 1.940335e+00 2.017300e-01
<GCONST> 1.050977e+02
<TRANSP> 5
 0.000000e+00 1.000000e+00 0.000000e+00 0.000000e+00 0.000000e+00
 0.000000e+00 5.923889e-01 4.076112e-01 0.000000e+00 0.000000e+00
 0.000000e+00 0.000000e+00 8.354782e-01 1.645218e-01 0.000000e+00
 0.000000e+00 0.000000e+00 0.000000e+00 6.521351e-01 3.478650e-01
 0.000000e+00 0.000000e+00 0.000000e+00 0.000000e+00 0.000000e+00
<ENDHMM>
~h "b"
<BEGINHMM>
<NUMSTATES> 5
<STATE> 2
<MEAN> 26
 4.912280e+00 2.607687e+00 4.912815e+00 -6.681880e-01 -2.106566e+00 5.958103e+00 -1.143854e+01 -5.774015e+00 -1.511630e+01 -5.292479e+00 4.738905e+00 -6.836081e+00 1.873839e+01 1.872211e+00 2.755309e+00 -7.527179e-02 1.360015e+00 2.125372e+00 8.893014e-02 3.720002e-01 -1.429760e+00 1.212633e+00 7.113237e-01 6.702704e-01 1.925963e-01 -1.913575e-01
<VARIANCE> 26
 2.320736e+01 2.018276e+01 3.135840e+01 3.748792e+01 5.600628e+01 5.659084e+01 3.875677e+01 3.354295e+01 9.133371e+01 6.429074e+01 3.429697e+01 3.069877e+01 2.856231e+00 2.967971e+00 2.577779e+00 3.395375e+00 9.725692e+00 4.445700e+00 5.081246e+00 4.846380e+00 3.294361e+00 8.965715e+00 5.241106e+00 4.017478e+00 2.996233e+00 2.893806e-01
<GCONST> 1.094396e+02
<STATE> 3
<MEAN> 26
 7.240825e+00 1.117050e+01 5.847800e+00 9.727897e-01 3.702126e+00 4.341844e+00 -8.825810e+00 -8.338930e+00 -8.421017e+00 -8.495895e-01 5.646141e+00 -5.288716e+00 1.775959e+01 -8.049586e-01 3.374699e-01 -6.700891e-02 -2.056910e-01 4.129937e-01 -2.151924e-01 8.045024e-01 -3.421687e-01 4.871958e-01 2.741489e-01 -5.736291e-01 5.404847e-01 -1.177103e-01
<VARIANCE> 26
 7.098482e+00 1.918060e+01 1.411110e+01 2.837590e+01 3.009801e+01 2.791799e+01 4.382713e+01 1.806771e+01 1.901490e+01 2.770213e+01 2.321492e+01 2.406832e+01 6.502618e-01 2.334140e+00 4.130690e+00 1.569412e+00 4.068951e+00 2.399170e+00 2.006369e+00 1.615806e+00 2.021494e+00 3.254427e+00 1.993923e+00 2.765172e+00 1.529686e+00 2.981189e-02
<GCONST> 9.093595e+01
<STATE> 4
<MEAN> 26
 -5.574786e-01 3.969604e+00 5.854612e+00 -6.195141e+00 4.125497e+00 1.578637e+00 -7.617187e+00 -9.283021e+00 -8.210831e+00 3.523056e-01 -5.594473e-01 -2.910886e+00 1.816976e+01 -1.242151e+00 -3.492948e+00 -7.395185e-01 -2.729751e+00 -7.864158e-01 -1.058709e+00 -1.432268e+00 2.409248e-01 7.458023e-01 8.997676e-01 -5.721616e-01 8.216669e-01 4.340040e-01
<VARIANCE> 26
 1.615877e+01 3.733919e+01 1.706129e+01 6.182540e+01 3.319534e+01 2.771356e+01 6.624419e+01 2.092159e+01 3.464300e+01 5.377745e+01 3.734675e+01 2.003993e+01 1.104890e+00 2.264365e+00 4.384327e+00 3.267293e+00 6.491269e+00 4.123534e+00 5.157152e+00 4.495252e+00 3.338789e+00 3.057253e+00 5.778400e+00 3.241095e+00 2.471972e+00 1.303680e-01
<GCONST> 1.034852e+02
<TRANSP> 5
 0.000000e+00 1.000000e+00 0.000000e+00 0.000000e+00 0.000000e+00
 0.000000e+00 5.673126e-01 4.326874e-01 0.000000e+00 0.000000e+00
 0.000000e+00 0.000000e+00 7.581139e-01 2.418861e-01 0.000000e+00
 0.000000e+00 0.000000e+00 0.000000e+00 4.690156e-01 5.309845e-01
 0.000000e+00 0.000000e+00 0.000000e+00 0.000000e+00 0.000000e+00
<ENDHMM>
~h "d"
<BEGINHMM>
<NUMSTATES> 5
<STATE> 2
<MEAN> 26
 3.661475e+00 8.215076e+00 9.607730e+00 2.010490e+00 -2.617899e+00 -2.961654e+00 -9.662081e+00 -9.697578e-01 -6.878067e+00 1.184882e+00 -1.636292e+00 -8.448241e+00 1.778664e+01 1.992004e+00 2.613710e+00 5.872804e-01 2.478628e+00 2.905104e-01 -1.406823e+00 6.769909e-01 6.626191e-01 2.714841e+00 2.196017e-01 -1.147198e+00 -1.151141e+00 -6.886275e-02
<VARIANCE> 26
 2.652518e+01 3.147361e+01 5.090392e+01 3.614204e+01 3.825035e+01 5.108285e+01 4.558548e+01 3.127958e+01 6.530097e+01 2.258128e+01 3.462954e+01 4.382802e+01 3.242950e+00 3.095550e+00 4.039169e+00 4.341093e+00 8.444569e+00 4.223105e+00 3.172265e+00 6.126255e+00 2.816463e+00 6.551998e+00 2.699670e+00 2.687933e+00 3.812175e+00 6.814696e-01
<GCONST> 1.090543e+02
<STATE> 3
<MEAN> 26
 5.510396e+00 1.452819e+01 1.171166e+01 5.806529e+00 -2.479810e+00 -6.734663e+00 -7.912326e+00 9.337928e-01 5.200351e-01 7.164630e-01 -4.454997e+00 -8.507734e+00 1.746786e+01 -1.678361e+00 -6.058957e-01 -9.756808e-02 -9.417347e-01 9.862388e-01 8.344001e-01 8.338779e-01 -7.695655e-01 2.952475e-01 -2.349174e-01 -1.125056e-01 1.248865e+00 -1.250242e-01
<VARIANCE> 26
 7.048149e+00 1.862819e+01 1.432883e+01 1.330275e+01 2.098348e+01 2.096481e+01 1.955981e+01 1.874553e+01 2.497785e+01 1.391785e+01 2.367561e+01 2.017612e+01 4.182277e-01 3.473679e+00 6.444804e+00 2.962304e+00 4.243696e+00 3.362886e+00 4.288784e+00 2.689234e+00 2.911827e+00 3.736173e+00 1.999609e+00 2.316854e+00 2.598310e+00 5.328307e-02
<GCONST> 9.229256e+01
<STATE> 4
<MEAN> 26
 -7.228950e+00 2.387913e+00 8.419893e+00 -6.026634e+00 3.424576e+00 2.863471e-02 -5.414944e+00 -6.757167e+00 -3.710926e+00 -2.073421e-01 -3.222815e+00 -9.086537e-01 1.782061e+01 -2.942969e+00 -3.027345e+00 3.076306e-02 -3.332653e+00 -3.026114e-01 3.449455e-01 -1.173468e+00 -1.242639e+00 -1.057443e+00 -4.112039e-01 1.052540e+00 1.743725e+00 4.709384e-01
<VARIANCE> 26
 2.196967e+01 5.026741e+01 4.291587e+01 5.083542e+01 3.270741e+01 6.702766e+01 4.498108e+01 3.445033e+01 2.552105e+01 2.801278e+01 2.330998e+01 2.578175e+01 1.314991e+00 4.364579e+00 5.150101e+00 4.989563e+00 5.068042e+00 5.453398e+00 4.762891e+00 6.802982e+00 3.617095e+00 4.501601e+00 5.388148e+00 2.838547e+00 3.237516e+00 2.021206e-01
<GCONST> 1.073735e+02
<TRANSP> 5
 0.000000e+00 1.000000e+00 0.000000e+00 0.000000e+00 0.000000e+00
 0.000000e+00 5.930244e-01 4.069756e-01 0.000000e+00 0.000000e+00
 0.000000e+00 0.000000e+00 7.151709e-01 2.848291e-01 0.000000e+00
 0.000000e+00 0.000000e+00 0.000000e+00 5.721655e-01 4.278344e-01
 0.000000e+00 0.000000e+00 0.000000e+00 0.000000e+00 0.000000e+00
<ENDHMM>
~h "e"
<BEGINHMM>
<NUMSTATES> 5
<STATE> 2
<MEAN> 26
 -3.182624e+00 -7.382194e+00 8.435068e+00 -1.489588e+01 -7.475286e+00 -7.472335e+00 -1.688761e+01 1.376812e+00 -7.807630e+00 2.581250e+00 1.380499e+00 -3.201469e+00 2.029786e+01 1.868076e+00 -2.830708e+00 1.535057e+00 -2.801687e+00 -2.502769e+00 -1.244330e+00 -2.597761e+00 2.648264e+00 -1.237181e+00 1.091700e+00 1.510190e-01 -8.291650e-01 7.971539e-01
<VARIANCE> 26
 1.099828e+01 3.324462e+01 4.664633e+01 3.778559e+01 3.353594e+01 3.494541e+01 6.069215e+01 4.106643e+01 3.335201e+01 3.384704e+01 3.355729e+01 1.987372e+01 2.976963e+00 4.056190e+00 2.668811e+00 4.340892e+00 3.634804e+00 4.591277e+00 3.532402e+00 6.259018e+00 4.602177e+00 4.461861e+00 3.082631e+00 3.443166e+00 2.315269e+00 3.471026e-01
<GCONST> 1.055972e+02
<STATE> 3
<MEAN> 26
 -2.148004e+00 -1.176696e+01 9.090019e+00 -2.024839e+01 -1.031826e+01 -8.596075e+00 -1.574475e+01 6.958197e+00 -7.994643e+00 5.129210e+00 8.942583e-01 -4.554057e+00 2.124892e+01 -2.970675e-03 -1.284222e-01 7.383809e-02 -2.978077e-01 1.406763e-01 -2.328321e-01 5.314227e-01 -1.652207e-01 -1.845375e-01 -5.084105e-03 -2.032437e-01 -9.039728e-02 -1.771923e-02
<VARIANCE> 26
 7.297307e+00 2.117088e+01 4.249631e+01 1.934935e+01 2.815320e+01 2.836542e+01 3.717999e+01 2.767595e+01 3.656752e+01 2.066129e+01 2.445113e+01 1.415054e+01 3.410849e-01 4.619314e-01 9.598022e-01 1.864290e+00 1.556768e+00 1.833401e+00 1.771389e+00 2.164011e+00 2.331606e+00 1.984858e+00 1.494254e+00 1.566830e+00 1.130874e+00 2.005704e-02
<GCONST> 8.535303e+01
<STATE> 4
<MEAN> 26
 -2.116642e+00 -9.239711e+00 9.336013e+00 -1.782211e+01 -6.041179e+00 -8.272617e+00 -1.341771e+01 3.245294e-01 -1.030332e+01 3.222599e+00 -1.509317e+00 -4.493860e+00 2.037759e+01 -2.763152e-01 2.280663e+00 -5.441223e-01 2.268920e+00 2.080367e+00 1.221602e+00 1.336066e+00 -2.558615e+00 6.354123e-01 -7.954192e-01 -8.908432e-01 1.170324e-01 -5.059806e-01
<VARIANCE> 26
 8.761113e+00 3.401597e+01 6.767059e+01 4.044112e+01 3.720764e+01 4.155218e+01 6.087848e+01 4.357696e+01 7.064384e+01 3.424279e+01 3.523194e+01 2.329591e+01 8.667591e-01 1.592551e+00 3.410305e+00 3.659691e+00 4.430554e+00 2.243411e+00 3.261479e+00 3.983208e+00 4.580097e+00 4.838875e+00 3.128676e+00 2.442325e+00 1.665092e+00 1.001124e-01
<GCONST> 1.021724e+02
<TRANSP> 5
 0.000000e+00 1.000000e+00 0.000000e+00 0.000000e+00 0.000000e+00
 0.000000e+00 5.637707e-01 4.362294e-01 0.000000e+00 0.000000e+00
 0.000000e+00 0.000000e+00 8.489823e-01 1.510176e-01 0.000000e+00
 0.000000e+00 0.000000e+00 0.000000e+00 6.509126e-01 3.490874e-01
 0.000000e+00 0.000000e+00 0.000000e+00 0.000000e+00 0.000000e+00
<ENDHMM>
~h "f"
<BEGINHMM>
<NUMSTATES> 5
<STATE> 2
<MEAN> 26
 -1.589464e+01 -2.343840e+00 1.182469e+00 -5.223106e+00 2.921231e+00 4.352607e-01 -1.020470e+00 -1.629510e+00 -1.735195e+00 1.874925e+00 -2.674882e+00 -1.702531e-01 1.553749e+01 -3.348187e+00 -1.961758e+00 -2.042902e+00 -2.914730e-01 5.792475e-01 3.650942e-01 5.796423e-01 4.802549e-01 1.324987e+00 9.313265e-01 6.058065e-01 1.114679e+00 -8.056480e-01
<VARIANCE> 26
 3.665552e+01 1.970208e+01 3.054528e+01 2.115849e+01 2.305591e+01 2.366219e+01 2.148868e+01 2.216349e+01 3.015969e+01 2.784243e+01 2.045666e+01 1.328227e+01 4.801341e+00 3.725975e+00 1.579748e+00 3.266359e+00 5.839018e+00 5.104724e+00 4.326539e+00 4.395367e+00 3.295654e+00 3.731151e+00 2.942150e+00 2.709130e+00 1.855601e+00 3.255884e-01
<GCONST> 1.005903e+02
<STATE> 3
<MEAN> 26
 -2.245295e+01 -6.413301e+00 -4.952919e+00 -8.925897e+00 5.391994e-01 4.922598e-01 -3.739455e+00 -2.959650e+00 -1.602007e+00 5.559927e+00 1.004995e-01 3.520439e+00 1.403934e+01 -9.698041e-02 -6.146822e-02 -1.736350e-01 -9.376794e-02 -2.541543e-01 -1.719410e-02 -1.939197e-01 -1.433603e-01 -8.880907e-02 1.115142e-01 7.585385e-02 9.588627e-02 5.424950e-03
<VARIANCE> 26
 6.757477e+00 5.714375e+00 9.116407e+00 1.127093e+01 2.028768e+01 1.884340e+01 1.840069e+01 1.877276e+01 1.908600e+01 1.925479e+01 1.574479e+01 1.524302e+01 1.256507e+00 7.723667e-01 5.763819e-01 8.964221e-01 1.146525e+00 1.665347e+00 1.456814e+00 1.807595e+00 1.896956e+00 1.835896e+00 2.015821e+00 1.684125e+00 1.637566e+00 7.605293e-02
<GCONST> 8.056071e+01
<STATE> 4
<MEAN> 26
 -1.896881e+01 -5.315911e+00 -2.191958e+00 -8.531691e+00 2.516842e-01 -1.092814e-01 -2.739321e+00 -3.293462e+00 -2.087463e+00 3.441086e+00 -1.942116e+00 1.792778e+00 1.511425e+01 3.695585e+00 1.575743e+00 1.722476e+00 -1.397693e-01 1.040837e-01 2.156875e-01 -8.622167e-01 -4.846498e-01 -1.256521e+00 -1.663655e+00 -6.697111e-01 -1.274509e+00 8.686579e-01
<VARIANCE> 26
 2.106590e+01 1.169514e+01 2.086103e+01 1.565416e+01 3.262602e+01 2.522302e+01 1.766179e+01 2.404992e+01 2.089070e+01 2.094508e+01 2.001846e+01 2.474664e+01 1.630231e+00 4.391776e+00 1.540466e+00 3.309011e+00 4.099615e+00 3.253971e+00 3.813232e+00 5.020300e+00 3.632917e+00 4.342531e+00 2.482953e+00 3.905063e+00 2.158860e+00 3.463386e-01
<GCONST> 9.801060e+01
<TRANSP> 5
 0.000000e+00 1.000000e+00 0.000000e+00 0.000000e+00 0.000000e+00
 0.000000e+00 6.996556e-01 3.003444e-01 0.000000e+00 0.000000e+00
 0.000000e+00 0.000000e+00 8.918601e-01 1.081399e-01 0.000000e+00
 0.000000e+00 0.000000e+00 0.000000e+00 6.125361e-01 3.874640e-01
 0.000000e+00 0.000000e+00 0.000000e+00 0.000000e+00 0.000000e+00
<ENDHMM>
~h "g"
<BEGINHMM>
<NUMSTATES> 5
<STATE> 2
<MEAN> 26
 1.381791e+00 8.530807e+00 1.189842e+01 2.328197e+00 -5.965421e+00 -3.828236e+00 -6.512525e+00 -5.433090e-01 -1.250593e+01 -5.246155e-01 4.880383e+00 -8.720603e+00 1.786366e+01 2.043866e+00 1.284713e+00 4.308631e-01 1.946161e+00 -1.616285e+00 -1.210289e+00 1.318251e+00 1.253936e-01 -1.877489e-01 -2.470653e-02 1.094999e+00 -5.161806e-01 3.652963e-02
<VARIANCE> 26
 4.234723e+01 4.607563e+01 7.117297e+01 3.751121e+01 7.632236e+01 2.410532e+01 4.241399e+01 3.211129e+01 7.129707e+01 2.991410e+01 4.096360e+01 4.728436e+01 2.218266e+00 4.894691e+00 4.996779e+00 4.641012e+00 2.496487e+00 7.008067e+00 2.502670e+00 5.221190e+00 3.821075e+00 1.167475e+01 2.133026e+00 4.262321e+00 2.536946e+00 4.140249e-01
<GCONST> 1.102340e+02
<STATE> 3
<MEAN> 26
 5.242157e+00 8.990527e+00 1.073070e+01 2.967407e+00 -1.087624e+01 -3.328548e+00 -3.101050e+00 1.127999e+00 -1.461252e+01 -4.146779e+00 8.506362e+00 -1.006473e+01 1.833843e+01 -1.509505e+00 -8.107673e-01 -1.601016e-01 -1.736283e+00 2.452698e+00 1.574742e+00 -9.671893e-02 -8.529256e-01 3.832745e-01 3.159266e-01 -1.644328e+00 1.843392e+00 -1.557263e-01
<VARIANCE> 26
 6.915024e+00 1.975321e+01 5.788700e+01 3.525141e+01 4.225373e+01 2.685758e+01 2.964985e+01 2.058896e+01 8.284379e+01 3.926750e+01 4.701686e+01 2.963067e+01 8.031371e-01 3.857457e+00 3.941424e+00 5.151992e+00 4.220429e+00 5.792100e+00 1.729459e+00 3.421443e+00 5.060075e+00 3.322591e+00 4.557310e+00 5.648067e+00 3.444118e+00 9.196426e-02
<GCONST> 1.031344e+02
<STATE> 4
<MEAN> 26
 -4.402232e+00 1.835979e+00 9.269284e+00 -7.376797e+00 5.928243e-01 1.744487e+00 -9.103704e+00 -3.310065e+00 -1.387750e+01 9.375740e-01 1.076535e-01 -2.435481e+00 1.804234e+01 -1.938051e+00 -1.716919e+00 1.065722e-01 -2.488333e+00 -7.668801e-03 -3.080893e-01 -1.879617e+00 -1.328889e-02 3.918634e-01 -3.693207e-01 5.347643e-02 1.734333e+00 3.170687e-01
<VARIANCE> 26
 3.151180e+01 3.476154e+01 7.763227e+01 5.684290e+01 5.823995e+01 4.727814e+01 6.087447e+01 2.948667e+01 4.091222e+01 3.693728e+01 5.205252e+01 1.403675e+01 1.557091e+00 3.891917e+00 6.859159e+00 7.023566e+00 3.669878e+00 9.144851e+00 4.982967e+00 4.743203e+00 5.029854e+00 5.783167e+00 6.207389e+00 4.508189e+00 3.512744e+00 1.841156e-01
<GCONST> 1.111227e+02
<TRANSP> 5
 0.000000e+00 1.000000e+00 0.000000e+00 0.000000e+00 0.000000e+00
 0.000000e+00 6.085726e-01 3.914274e-01 0.000000e+00 0.000000e+00
 0.000000e+00 0.000000e+00 5.917972e-01 4.082028e-01 0.000000e+00
 0.000000e+00 0.000000e+00 0.000000e+00 5.677013e-01 4.322987e-01
 0.000000e+00 0.000000e+00 0.000000e+00 0.000000e+00 0.000000e+00
<ENDHMM>
~h "h"
<BEGINHMM>
<NUMSTATES> 5
<STATE> 2
<MEAN> 26
 -1.991396e+01 -7.484402e+00 5.809923e+00 -2.981126e+00 -6.075340e+00 -1.969005e+00 -4.524674e-01 -1.354369e+00 -5.514176e+00 3.261017e+00 -7.300124e-01 1.966888e+00 1.664909e+01 6.754489e-01 -1.567140e-02 1.715853e+00 2.436057e+00 -2.309171e-01 -1.337631e+00 -1.470785e-01 3.665797e-01 -6.921928e-01 -1.322820e+00 -3.343986e-01 -5.178838e-01 3.963321e-01
<VARIANCE> 26
 3.531044e+01 2.310242e+01 2.979305e+01 2.961657e+01 2.929969e+01 4.219620e+01 2.745253e+01 2.974167e+01 2.388054e+01 3.191136e+01 1.305712e+01 1.753273e+01 8.911747e-01 4.460687e+00 2.216951e+00 2.000425e+00 2.179318e+00 2.046555e+00 3.261733e+00 4.726248e+00 2.931657e+00 2.560453e+00 5.400276e+00 1.701618e+00 1.573941e+00 2.435191e-01
<GCONST> 9.754082e+01
<STATE> 3
<MEAN> 26
 -7.317461e+00 -2.652664e+00 1.455523e+01 7.577389e+00 -5.532932e+00 -8.195353e+00 -1.115997e+01 -1.302211e+00 -1.066611e+01 -1.091634e+01 -2.119634e+00 2.639174e+00 1.915117e+01 2.999423e+00 -1.498920e-01 1.780757e+00 1.344812e+00 -4.541715e-01 -1.269897e+00 -4.021281e+00 5.738084e-01 -1.042616e+00 -5.008866e+00 1.104725e+00 7.757499e-01 6.673387e-01
<VARIANCE> 26
 2.060190e+01 1.120605e+01 1.777807e+01 1.055217e+01 2.036606e+01 1.791488e+01 4.592240e+01 1.693599e+01 2.827740e+01 3.752031e+01 1.583572e+01 2.076727e+01 4.261269e-01 3.226270e+00 2.500093e+00 2.410714e+00 2.947924e+00 3.261890e+00 3.591433e+00 4.085127e+00 2.520225e+00 3.604556e+00 5.143822e+00 2.683322e+00 2.468862e+00 1.728000e-01
<GCONST> 9.482281e+01
<STATE> 4
<MEAN> 26
 -3.483382e+00 -5.959338e+00 1.780753e+01 6.508586e+00 -6.612420e+00 -6.364797e+00 -1.827994e+01 1.033163e+00 -9.882816e+00 -1.899819e+01 4.970960e+00 2.434973e+00 1.992676e+01 -5.554306e-02 -3.117872e-01 8.109600e-01 -1.123561e+00 -9.725530e-01 8.973610e-01 -4.750333e-01 -2.965967e-01 3.966944e-02 1.764926e-01 8.118433e-01 -8.159737e-01 1.214976e-01
<VARIANCE> 26
 6.244095e+00 1.262809e+01 2.774607e+01 4.296337e+01 1.852107e+01 1.788699e+01 4.036370e+01 2.230014e+01 3.687645e+01 4.308192e+01 1.706327e+01 2.515006e+01 3.016604e-01 8.496369e-01 5.250621e-01 2.483325e+00 3.069062e+00 2.554152e+00 2.305552e+00 3.137414e+00 2.192751e+00 1.414089e+00 4.742851e+00 1.491521e+00 1.296806e+00 1.966575e-02
<GCONST> 8.763465e+01
<TRANSP> 5
 0.000000e+00 1.000000e+00 0.000000e+00 0.000000e+00 0.000000e+00
 0.000000e+00 7.411039e-01 2.588960e-01 0.000000e+00 0.000000e+00
 0.000000e+00 0.000000e+00 6.255055e-01 3.744945e-01 0.000000e+00
 0.000000e+00 0.000000e+00 0.000000e+00 7.964835e-01 2.035166e-01
 0.000000e+00 0.000000e+00 0.000000e+00 0.000000e+00 0.000000e+00
<ENDHMM>
~h "i"
<BEGINHMM>
<NUMSTATES> 5
<STATE> 2
<MEAN> 26
 -1.098871e+01 4.770862e+00 1.805751e+01 -8.311411e+00 -2.536443e+00 -3.086503e+00 -1.386967e+01 -7.149704e+00 -8.672503e+00 -1.004105e+01 -1.941125e+00 1.919170e+00 1.929813e+01 1.066147e+00 -1.826036e-01 3.216052e+00 -1.249409e+00 -1.637972e+00 5.640672e-01 -2.685941e+00 -7.342011e-02 -2.008645e+00 -2.294600e+00 7.768147e-01 -3.062037e-01 4.306204e-01
<VARIANCE> 26
 2.382954e+01 3.364464e+01 2.837767e+01 2.837807e+01 4.822304e+01 2.610667e+01 3.374847e+01 2.861634e+01 3.688898e+01 4.443000e+01 3.296963e+01 2.241520e+01 1.295112e+00 4.119842e+00 3.073516e+00 4.107061e+00 3.727110e+00 5.458539e+00 3.654736e+00 4.074784e+00 2.516319e+00 4.466125e+00 4.009259e+00 3.042142e+00 2.177788e+00 1.631090e-01
<GCONST> 1.029900e+02
<STATE> 3
<MEAN> 26
 -9.850797e+00 4.048757e+00 2.286075e+01 -1.228198e+01 -6.132121e+00 2.052598e+00 -2.014753e+01 -4.349521e+00 -1.344811e+01 -1.456435e+01 3.243077e+00 -1.588205e+00 1.999405e+01 -3.998373e-02 2.552068e-01 7.678824e-02 -5.454405e-01 -2.414207e-01 2.139365e-01 -1.825155e-01 2.619882e-01 -5.061105e-01 2.680471e-01 1.899758e-02 -4.809864e-01 -1.400866e-02
<VARIANCE> 26
 7.680767e+00 1.815844e+01 1.565965e+01 2.473263e+01 3.421694e+01 2.365511e+01 2.746745e+01 2.584447e+01 4.229035e+01 2.779816e+01 3.199049e+01 2.144751e+01 3.851188e-01 8.488430e-01 1.957006e+00 1.735384e+00 2.050097e+00 2.415950e+00 2.155424e+00 2.393699e+00 2.040007e+00 2.449963e+00 2.348523e+00 1.862281e+00 1.362445e+00 2.285730e-02
<GCONST> 8.850464e+01
<STATE> 4
<MEAN> 26
 -7.737431e+00 4.593171e+00 1.775781e+01 -9.968792e+00 -5.856248e+00 -1.858436e+00 -1.393035e+01 -4.976663e+00 -1.302197e+01 -7.466336e+00 -2.988898e-01 -2.030274e+00 1.928150e+01 6.323823e-01 3.574789e-01 -2.154102e+00 1.756505e+00 9.460983e-01 -8.510824e-01 2.145595e+00 -3.523612e-01 1.251516e+00 1.681862e+00 -8.778211e-01 5.097937e-02 -3.567517e-01
<VARIANCE> 26
 2.411886e+01 5.137608e+01 3.689790e+01 5.897108e+01 5.598505e+01 3.258269e+01 5.014262e+01 4.405890e+01 7.045575e+01 4.443880e+01 4.830404e+01 3.286513e+01 1.452338e+00 4.092838e+00 3.735425e+00 3.656266e+00 4.414325e+00 4.293299e+00 3.936411e+00 3.874705e+00 3.858637e+00 4.550992e+00 3.898488e+00 3.296722e+00 3.128324e+00 1.397862e-01
<GCONST> 1.078759e+02
<TRANSP> 5
 0.000000e+00 1.000000e+00 0.000000e+00 0.000000e+00 0.000000e+00
 0.000000e+00 5.980181e-01 4.019819e-01 0.000000e+00 0.000000e+00
 0.000000e+00 0.000000e+00 8.027951e-01 1.972050e-01 0.000000e+00
 0.000000e+00 0.000000e+00 0.000000e+00 7.026676e-01 2.973325e-01
 0.000000e+00 0.000000e+00 0.000000e+00 0.000000e+00 0.000000e+00
<ENDHMM>
~h "j"
<BEGINHMM>
<NUMSTATES> 5
<STATE> 2
<MEAN> 26
 -1.106411e+01 6.190267e+00 2.162218e+01 -8.288585e+00 -2.174953e+00 -2.018332e+00 -1.434576e+01 -4.817767e+00 -1.045045e+01 -7.537900e+00 -1.732229e-01 1.406006e+00 1.913702e+01 9.625096e-01 -1.318378e-01 7.389055e-01 2.955849e-01 -7.427145e-01 -5.744118e-01 -1.075444e+00 5.166851e-01 -6.822349e-01 -1.315682e+00 4.352010e-01 3.337707e-02 2.206845e-01
<VARIANCE> 26
 1.497497e+01 2.392973e+01 2.368957e+01 4.430339e+01 4.533479e+01 2.569802e+01 3.586285e+01 3.024201e+01 4.301947e+01 3.544083e+01 2.270940e+01 1.869564e+01 6.852418e-01 6.545920e+00 4.029610e+00 3.739481e+00 3.423704e+00 4.504572e+00 4.048261e+00 5.804938e+00 3.459610e+00 3.344235e+00 4.634408e+00 2.006777e+00 1.435543e+00 1.751569e-01
<GCONST> 1.014566e+02
<STATE> 3
<MEAN> 26
 -6.679360e+00 -1.669421e+00 1.759128e+01 -7.091089e+00 -1.060432e+01 -5.032736e+00 -1.800016e+01 -2.060626e+00 -1.132751e+01 -1.048240e+01 1.941206e+00 7.647669e-01 2.025183e+01 2.735260e+00 -2.786946e+00 -1.459650e+00 -1.188003e+00 -1.830005e+00 -8.646225e-01 -2.980738e+00 2.933033e+00 9.554112e-02 4.141175e-01 1.572552e+00 -9.605439e-01 4.958434e-01
<VARIANCE> 26
 9.389888e+00 1.648227e+01 3.358375e+01 8.370306e+01 2.706744e+01 3.110679e+01 3.341125e+01 4.093187e+01 3.610216e+01 4.671083e+01 1.723991e+01 1.083085e+01 5.291610e-01 3.181585e+00 1.736875e+00 3.762223e+00 3.583954e+00 4.654688e+00 3.774177e+00 7.758578e+00 3.245562e+00 2.768501e+00 9.085649e+00 3.566033e+00 2.157632e+00 6.511673e-02
<GCONST> 9.968507e+01
<STATE> 4
<MEAN> 26
 -2.225071e+00 -7.920429e+00 9.465531e+00 -1.270369e+01 -1.077818e+01 -1.834180e+00 -2.210717e+01 4.439074e+00 -8.762565e+00 -1.922239e+00 3.553957e+00 -3.698131e+00 2.081064e+01 1.234265e+00 -9.418696e-01 -2.916677e+00 -1.789269e+00 8.281958e-01 2.245483e+00 2.389355e-01 1.554716e-01 2.712454e-01 2.259044e+00 3.081379e-01 -1.292746e+00 1.009350e-01
<VARIANCE> 26
 7.427705e+00 2.091790e+01 5.206775e+01 6.000841e+01 2.492754e+01 3.831912e+01 3.830646e+01 3.312308e+01 3.931117e+01 6.989272e+01 4.305922e+01 2.812836e+01 8.708185e-01 7.971925e-01 3.328937e+00 2.435165e+00 4.510885e+00 3.243404e+00 5.452701e+00 6.314134e+00 6.557587e+00 4.864265e+00 3.618363e+00 5.708523e+00 2.095391e+00 4.514047e-02
<GCONST> 1.019852e+02
<TRANSP> 5
 0.000000e+00 1.000000e+00 0.000000e+00 0.000000e+00 0.000000e+00
 0.000000e+00 7.126520e-01 2.873480e-01 0.000000e+00 0.000000e+00
 0.000000e+00 0.000000e+00 4.674934e-01 5.325066e-01 0.000000e+00
 0.000000e+00 0.000000e+00 0.000000e+00 5.826994e-01 4.173007e-01
 0.000000e+00 0.000000e+00 0.000000e+00 0.000000e+00 0.000000e+00
<ENDHMM>
~h "k"
<BEGINHMM>
<NUMSTATES> 5
<STATE> 2
<MEAN> 26
 -8.838842e+00 7.840511e-01 4.440425e-02 -7.914726e-01 1.896226e+00 5.026892e-01 -2.331563e+00 -7.367135e-01 -5.737580e+00 -2.265367e-01 -1.144900e-01 -2.116210e+00 1.235392e+01 -1.432390e+00 -1.121170e+00 -1.344061e+00 -1.280062e+00 1.435121e-01 4.224246e-01 1.707321e-01 -4.678554e-01 6.224174e-01 2.156454e-01 -8.637030e-02 8.943880e-01 -3.754409e-01
<VARIANCE> 26
 3.748840e+01 3.896146e+01 3.907998e+01 3.901996e+01 3.163740e+01 3.090679e+01 4.018211e+01 2.994127e+01 5.096629e+01 4.010162e+01 3.458990e+01 2.654041e+01 9.021115e+00 5.742715e+00 5.315052e+00 6.092399e+00 1.660091e+01 5.504879e+00 3.495521e+00 8.551536e+00 5.194858e+00 7.318174e+00 4.640624e+00 4.455616e+00 3.488419e+00 2.733659e+00
<GCONST> 1.150838e+02
<STATE> 3
<MEAN> 26
 -9.747622e+00 -6.629621e+00 -8.233643e+00 -1.764940e+01 1.228228e-01 1.793649e+00 -8.030061e+00 -2.751464e+00 -8.804008e+00 3.225016e+00 1.680406e-01 -7.990212e-01 1.583588e+01 6.989275e-01 -1.483898e+00 -1.702695e+00 -5.026596e+00 -3.130679e-01 3.203973e-02 -2.003624e+00 -1.335875e+00 -1.922127e+00 1.053061e+00 4.466297e-04 -2.070309e-01 1.712586e+00
<VARIANCE> 26
 3.285598e+01 3.705069e+01 7.033040e+01 5.784497e+01 5.507475e+01 4.564359e+01 6.566492e+01 4.882453e+01 4.124109e+01 3.553743e+01 2.608061e+01 2.960470e+01 4.825319e+00 3.814178e+00 3.310436e+00 6.853056e+00 7.594876e+00 4.352280e+00 3.400478e+00 4.034269e+00 4.107585e+00 6.561398e+00 2.226575e+00 3.040804e+00 3.244547e+00 8.228018e-01
<GCONST> 1.113815e+02
<STATE> 4
<MEAN> 26
 -1.013514e+01 -4.016959e+00 -5.616875e+00 -1.671602e+01 7.110521e-01 3.825965e-01 -6.036758e+00 -5.269609e+00 -8.164273e+00 3.422454e+00 -1.387784e-01 -1.309249e-01 1.678686e+01 1.011009e+00 1.378502e+00 2.054141e+00 1.396004e+00 -5.431619e-01 -4.603309e-01 2.765651e-01 -3.462720e-01 -2.706078e-01 -8.495048e-01 5.428056e-01 -1.388453e-01 4.881891e-01
<VARIANCE> 26
 4.581770e+01 2.932215e+01 8.769735e+01 7.720557e+01 5.241733e+01 3.719846e+01 5.678411e+01 4.470948e+01 6.917632e+01 3.772965e+01 3.113529e+01 2.881297e+01 3.327745e+00 5.149131e+00 3.697510e+00 3.919857e+00 5.983923e+00 5.591753e+00 4.172606e+00 7.159470e+00 4.532691e+00 4.803302e+00 3.731127e+00 4.472812e+00 3.275324e+00 4.440266e-01
<GCONST> 1.125815e+02
<TRANSP> 5
 0.000000e+00 1.000000e+00 0.000000e+00 0.000000e+00 0.000000e+00
 0.000000e+00 6.951436e-01 3.048564e-01 0.000000e+00 0.000000e+00
 0.000000e+00 0.000000e+00 3.901957e-01 6.098044e-01 0.000000e+00
 0.000000e+00 0.000000e+00 0.000000e+00 6.225428e-01 3.774572e-01
 0.000000e+00 0.000000e+00 0.000000e+00 0.000000e+00 0.000000e+00
<ENDHMM>
~h "l"
<BEGINHMM>
<NUMSTATES> 5
<STATE> 2
<MEAN> 26
 -1.117274e+00 -3.122108e+00 3.769258e+00 -2.858177e+00 1.277514e+00 -2.539849e+00 -1.346261e+01 -7.212018e+00 -3.110055e+00 2.885297e+00 -3.268563e+00 -3.195788e+00 1.727845e+01 2.204039e+00 -2.733255e-01 1.433456e+00 -3.186280e-02 1.325555e+00 -1.258946e+00 -3.263710e+00 -1.521152e+00 -1.064246e+00 -2.885099e-01 -1.091106e+00 -1.210304e+00 8.296255e-01
<VARIANCE> 26
 5.054478e+01 2.996749e+01 7.825102e+01 3.773581e+01 3.669972e+01 5.161310e+01 9.675572e+01 9.457796e+01 4.235667e+01 4.814444e+01 3.647423e+01 2.806414e+01 1.016279e+01 5.810980e+00 5.052862e+00 4.175916e+00 4.072139e+00 6.654793e+00 4.109770e+00 8.104814e+00 5.873919e+00 4.409217e+00 4.564756e+00 4.171968e+00 3.715283e+00 7.683578e-01
<GCONST> 1.155009e+02
<STATE> 3
<MEAN> 26
 2.476080e+00 -1.824756e+00 1.035393e+01 -4.368958e+00 3.763228e+00 -4.368433e+00 -2.448790e+01 -7.822254e+00 -5.704329e+00 -1.529888e+00 -2.854980e+00 -6.711863e+00 1.961964e+01 -1.420619e-01 1.061776e-01 4.633759e-01 -1.880163e-01 8.916756e-02 8.612162e-02 -7.763786e-01 5.592495e-01 -5.665681e-02 -5.626782e-01 4.814727e-01 -6.125864e-01 1.049350e-01
<VARIANCE> 26
 1.875150e+01 2.834199e+01 9.296012e+01 5.217618e+01 5.375753e+01 4.891030e+01 5.625674e+01 7.323154e+01 3.569968e+01 4.874065e+01 3.327047e+01 4.023487e+01 3.828749e-01 8.155055e-01 2.310483e+00 2.518804e+00 2.342023e+00 2.517802e+00 3.061660e+00 4.649493e+00 4.285116e+00 3.423840e+00 3.177925e+00 2.120879e+00 2.591791e+00 3.371258e-02
<GCONST> 1.005901e+02
<STATE> 4
<MEAN> 26
 1.867656e+00 -5.359491e+00 6.708047e+00 -6.284182e+00 7.692072e-01 -2.954315e+00 -1.989980e+01 -5.309035e+00 -6.466370e+00 5.001004e-01 -9.841936e-01 -8.757365e+00 1.965391e+01 -5.642514e-01 -7.877530e-01 -1.081567e-01 -1.776359e+00 -1.791778e+00 1.571967e-01 1.770781e+00 1.378519e+00 -4.010826e-01 8.119872e-01 1.308357e+00 3.953979e-01 6.866892e-02
<VARIANCE> 26
 1.525889e+01 2.387325e+01 6.535258e+01 8.313480e+01 6.260925e+01 4.642900e+01 9.233920e+01 8.274215e+01 4.668914e+01 7.783163e+01 4.098924e+01 3.734674e+01 1.403059e+00 1.162658e+00 3.533805e+00 7.940358e+00 6.332779e+00 7.382993e+00 5.364903e+00 4.952868e+00 7.253893e+00 6.040223e+00 7.637809e+00 5.132945e+00 3.895837e+00 6.006103e-02
<GCONST> 1.116754e+02
<TRANSP> 5
 0.000000e+00 1.000000e+00 0.000000e+00 0.000000e+00 0.000000e+00
 0.000000e+00 5.710073e-01 4.289927e-01 0.000000e+00 0.000000e+00
 0.000000e+00 0.000000e+00 7.283425e-01 2.716575e-01 0.000000e+00
 0.000000e+00 0.000000e+00 0.000000e+00 6.152187e-01 3.847813e-01
 0.000000e+00 0.000000e+00 0.000000e+00 0.000000e+00 0.000000e+00
<ENDHMM>
~h "m"
<BEGINHMM>
<NUMSTATES> 5
<STATE> 2
<MEAN> 26
 2.098193e+00 -8.861650e-01 2.506618e+00 1.940595e+00 -5.714162e+00 1.192898e+00 -1.006352e+01 -3.827940e-01 -1.978585e+01 -4.810827e+00 8.431925e+00 -6.950663e+00 1.924776e+01 9.685473e-01 6.327128e-01 -1.170534e-01 4.155601e+00 -7.561450e-02 -2.595808e-01 1.675548e-01 -7.876247e-01 -3.780189e+00 -7.129539e-01 1.315666e+00 -1.200636e+00 2.778679e-01
<VARIANCE> 26
 1.682307e+01 2.637763e+01 3.419181e+01 6.453849e+01 2.993254e+01 4.370735e+01 6.945193e+01 3.509256e+01 7.534527e+01 5.985967e+01 4.278674e+01 2.655543e+01 4.866710e+00 2.498212e+00 2.338680e+00 4.634101e+00 9.603476e+00 2.579629e+00 4.430376e+00 6.605501e+00 5.316903e+00 5.987119e+00 3.091354e+00 4.416255e+00 2.334867e+00 3.848004e-01
<GCONST> 1.094385e+02
<STATE> 3
<MEAN> 26
 2.466968e+00 -1.216549e+00 3.222015e+00 7.422116e+00 -7.115157e+00 8.179951e-01 -1.210605e+01 -3.569025e+00 -2.581458e+01 -5.487201e+00 1.284184e+01 -9.707183e+00 2.041223e+01 -1.212602e-01 -2.354567e-01 5.978139e-02 1.173225e-01 8.561698e-02 9.480865e-02 1.502998e-02 -2.955194e-01 -3.510629e-01 1.064105e-01 6.064324e-02 4.486455e-02 3.767330e-02
<VARIANCE> 26
 6.012791e+00 2.068023e+01 1.311296e+01 1.395150e+01 1.964935e+01 4.226401e+01 5.034311e+01 4.236069e+01 3.764152e+01 7.100023e+01 3.932513e+01 3.383897e+01 1.341371e-01 2.334417e-01 1.049105e+00 1.051844e+00 3.164839e+00 1.077544e+00 1.859695e+00 2.305304e+00 1.841991e+00 2.591005e+00 2.318306e+00 2.679693e+00 1.839412e+00 8.562311e-03
<GCONST> 8.584406e+01
<STATE> 4
<MEAN> 26
 2.065541e+00 -3.890948e+00 2.415817e+00 -8.420518e-01 -7.245113e+00 3.587300e+00 -1.324171e+01 -2.168255e+00 -2.129193e+01 -5.267880e+00 9.174419e+00 -7.181294e+00 2.044276e+01 -3.704132e-01 -9.759247e-01 7.117096e-02 -5.390900e+00 -4.891089e-01 7.955575e-01 -4.379772e-01 1.626452e+00 3.736523e+00 2.856187e-01 -1.815099e+00 8.560075e-01 7.879007e-02
<VARIANCE> 26
 7.553820e+00 1.947301e+01 2.357360e+01 7.681898e+01 3.001853e+01 5.763132e+01 5.499242e+01 3.734896e+01 6.465919e+01 5.964295e+01 4.762701e+01 2.474667e+01 1.747672e-01 7.915959e-01 2.666529e+00 4.937298e+00 8.175029e+00 2.910577e+00 3.243432e+00 2.846995e+00 4.511965e+00 4.241064e+00 2.668575e+00 3.566141e+00 2.366518e+00 2.873841e-02
<GCONST> 9.919885e+01
<TRANSP> 5
 0.000000e+00 1.000000e+00 0.000000e+00 0.000000e+00 0.000000e+00
 0.000000e+00 5.864947e-01 4.135052e-01 0.000000e+00 0.000000e+00
 0.000000e+00 0.000000e+00 7.860148e-01 2.139852e-01 0.000000e+00
 0.000000e+00 0.000000e+00 0.000000e+00 5.988072e-01 4.011928e-01
 0.000000e+00 0.000000e+00 0.000000e+00 0.000000e+00 0.000000e+00
<ENDHMM>
~h "n"
<BEGINHMM>
<NUMSTATES> 5
<STATE> 2
<MEAN> 26
 6.471322e-01 2.466797e+00 6.774098e+00 3.032157e+00 -1.159511e+01 2.536396e+00 -9.980041e+00 -1.935894e+00 -1.902061e+01 -1.246518e+00 -3.496496e-02 -7.369018e+00 1.987181e+01 1.041804e+00 1.140137e+00 -1.073012e+00 3.534113e+00 -1.507406e+00 -3.919044e-02 2.115371e+00 -1.421490e+00 -1.980467e+00 7.257401e-01 -8.505642e-01 -1.924922e-01 2.363506e-01
<VARIANCE> 26
 9.671054e+00 2.412854e+01 2.043277e+01 4.148238e+01 4.175508e+01 4.669616e+01 4.458951e+01 4.500700e+01 5.785765e+01 4.993577e+01 4.137117e+01 2.068368e+01 2.176090e+00 1.707410e+00 2.183298e+00 5.547930e+00 4.891626e+00 4.325971e+00 3.241397e+00 6.783577e+00 3.720946e+00 5.773965e+00 3.833297e+00 3.131707e+00 2.867081e+00 3.342789e-01
<GCONST> 1.053398e+02
<STATE> 3
<MEAN> 26
 1.564403e+00 2.390308e+00 5.371942e+00 7.793936e+00 -1.443723e+01 2.355361e+00 -6.063763e+00 -5.143938e+00 -1.827842e+01 -1.909727e+00 -9.258997e-01 -6.277896e+00 2.043680e+01 -8.955933e-02 -8.398448e-02 -1.075667e-02 3.084126e-02 7.439790e-02 -2.579593e-01 3.001569e-01 4.248239e-02 2.322113e-01 -3.489210e-01 2.532963e-01 1.289614e-01 2.835426e-02
<VARIANCE> 26
 5.671235e+00 1.318730e+01 7.928013e+00 1.593834e+01 1.436139e+01 1.963522e+01 2.668780e+01 2.531660e+01 3.599741e+01 6.117261e+01 4.357755e+01 2.118652e+01 1.841209e-01 2.504668e-01 1.058076e+00 7.120330e-01 1.104856e+00 1.216868e+00 1.669363e+00 1.374555e+00 1.387182e+00 1.878849e+00 2.291674e+00 2.064820e+00 1.746518e+00 6.690012e-03
<GCONST> 7.945074e+01
<STATE> 4
<MEAN> 26
 -3.573471e-01 2.390827e-01 7.531884e+00 1.339664e+00 -1.194720e+01 9.008446e-01 -1.060616e+01 -2.222272e+00 -1.512899e+01 -5.142855e+00 1.663677e+00 -6.614938e+00 2.055097e+01 -8.594558e-01 -1.185291e+00 8.510736e-01 -3.905672e+00 1.373571e+00 -2.695348e-01 -2.544350e+00 1.545319e+00 2.195247e+00 -1.174022e+00 1.447361e+00 -9.034009e-02 3.344525e-02
<VARIANCE> 26
 6.588334e+00 1.729203e+01 1.978247e+01 5.379687e+01 3.113262e+01 3.518001e+01 4.195891e+01 3.158152e+01 4.918332e+01 8.055743e+01 4.977499e+01 3.450273e+01 1.509243e-01 5.362049e-01 1.430440e+00 3.195291e+00 4.955630e+00 3.729354e+00 3.174983e+00 5.339695e+00 3.892114e+00 5.157031e+00 3.255765e+00 3.398139e+00 2.110245e+00 8.117821e-03
<GCONST> 9.550019e+01
<TRANSP> 5
 0.000000e+00 1.000000e+00 0.000000e+00 0.000000e+00 0.000000e+00
 0.000000e+00 5.973036e-01 4.026964e-01 0.000000e+00 0.000000e+00
 0.000000e+00 0.000000e+00 7.314754e-01 2.685246e-01 0.000000e+00
 0.000000e+00 0.000000e+00 0.000000e+00 6.682448e-01 3.317553e-01
 0.000000e+00 0.000000e+00 0.000000e+00 0.000000e+00 0.000000e+00
<ENDHMM>
~h "o"
<BEGINHMM>
<NUMSTATES> 5
<STATE> 2
<MEAN> 26
 -5.004162e-02 -1.969478e-01 1.123828e+00 -2.090548e+01 -8.686281e+00 6.823276e+00 -1.475946e+01 -7.311496e+00 -1.251412e+01 5.740641e-02 8.272929e+00 -6.028735e+00 2.041047e+01 1.884293e+00 -7.745724e-01 4.081445e-03 -3.047366e+00 -3.009411e+00 2.204666e+00 -2.780616e+00 2.113107e-01 -1.912963e+00 -8.235667e-02 2.621718e+00 -1.635649e+00 7.674350e-01
<VARIANCE> 26
 1.343060e+01 3.698440e+01 2.377954e+01 7.310832e+01 4.972247e+01 3.265758e+01 7.345488e+01 5.445130e+01 5.259554e+01 5.038126e+01 7.143287e+01 3.290243e+01 2.589040e+00 3.983301e+00 3.033495e+00 3.945432e+00 6.892463e+00 4.841767e+00 3.012886e+00 4.618104e+00 4.220895e+00 6.227345e+00 4.894567e+00 5.296134e+00 3.566913e+00 2.821551e-01
<GCONST> 1.102714e+02
<STATE> 3
<MEAN> 26
 1.511491e+00 -3.708523e+00 -1.738648e+00 -2.706478e+01 -1.178633e+01 1.156700e+01 -1.582986e+01 -5.620336e+00 -1.443304e+01 1.694674e+00 1.111086e+01 -8.038825e+00 2.171232e+01 3.369573e-02 -5.555614e-02 -2.439676e-01 -2.940138e-01 6.185431e-02 1.365468e-01 3.686587e-01 -1.599938e-02 -1.902641e-01 -9.401500e-02 -3.841822e-01 1.407136e-02 2.072204e-02
<VARIANCE> 26
 5.109097e+00 3.222391e+01 2.512869e+01 3.760390e+01 3.121302e+01 1.641210e+01 4.795079e+01 3.543871e+01 3.535233e+01 8.473341e+01 4.192747e+01 2.947573e+01 3.365456e-01 3.959455e-01 1.159155e+00 1.339682e+00 3.195215e+00 2.133806e+00 1.937885e+00 3.592645e+00 1.779223e+00 2.453857e+00 2.452793e+00 2.601410e+00 1.961158e+00 2.804048e-02
<GCONST> 9.125209e+01
<STATE> 4
<MEAN> 26
 1.165672e+00 -1.666685e+00 1.756894e-01 -2.045308e+01 -7.597816e+00 6.653359e+00 -1.611309e+01 -6.868912e+00 -1.332285e+01 -3.736034e-01 6.310343e+00 -8.123216e+00 2.074272e+01 -3.792754e-01 1.014323e+00 8.054457e-01 3.726090e+00 2.182540e+00 -2.003841e+00 1.817376e+00 -2.255163e-02 1.427845e+00 -4.109092e-01 -2.609223e+00 8.902367e-01 -5.039936e-01
<VARIANCE> 26
 9.468981e+00 4.443985e+01 3.436765e+01 1.016930e+02 3.873831e+01 3.592473e+01 1.284584e+02 5.960340e+01 3.509514e+01 5.942964e+01 6.561857e+01 5.638416e+01 1.260488e+00 2.177934e+00 3.568495e+00 3.006333e+00 6.211697e+00 4.628451e+00 3.496789e+00 6.316850e+00 3.513926e+00 5.911388e+00 4.766006e+00 5.107466e+00 2.637502e+00 1.384178e-01
<GCONST> 1.090812e+02
<TRANSP> 5
 0.000000e+00 1.000000e+00 0.000000e+00 0.000000e+00 0.000000e+00
 0.000000e+00 5.839428e-01 4.160572e-01 0.000000e+00 0.000000e+00
 0.000000e+00 0.000000e+00 8.329879e-01 1.670121e-01 0.000000e+00
 0.000000e+00 0.000000e+00 0.000000e+00 6.134521e-01 3.865478e-01
 0.000000e+00 0.000000e+00 0.000000e+00 0.000000e+00 0.000000e+00
<ENDHMM>
~h "p"
<BEGINHMM>
<NUMSTATES> 5
<STATE> 2
<MEAN> 26
 -4.650782e+00 7.618086e+00 4.032546e+00 3.075072e+00 1.859948e+00 4.445206e-01 -3.792740e+00 -3.576943e+00 -6.315719e+00 -2.124679e+00 -1.236749e+00 -5.341448e+00 1.376607e+01 -3.107939e+00 6.009679e-02 -5.407498e-01 1.638311e+00 9.546260e-01 1.875958e-01 1.520587e+00 7.503244e-01 1.796060e+00 3.361246e-04 -4.325953e-01 2.468242e-01 -1.651689e+00
<VARIANCE> 26
 4.955078e+01 2.631059e+01 2.398357e+01 2.071193e+01 2.015884e+01 1.685994e+01 3.574342e+01 2.209921e+01 3.439350e+01 2.655685e+01 2.405123e+01 1.824452e+01 8.177691e+00 3.196338e+00 7.521521e+00 3.482510e+00 8.426855e+00 2.284076e+00 3.225219e+00 3.935615e+00 3.253424e+00 3.045440e+00 3.895641e+00 3.093989e+00 2.333560e+00 5.593156e-01
<GCONST> 1.036440e+02
<STATE> 3
<MEAN> 26
 -1.347074e+01 2.158629e+00 -1.178657e-01 1.579620e+00 1.979118e+00 1.501513e+00 -2.986904e-01 1.636153e+00 2.038717e-01 1.747836e+00 1.554230e+00 -7.716628e-01 9.686350e+00 2.804707e-02 -7.416787e-01 -3.653390e-01 -1.174914e+00 -2.600167e-01 -2.403079e-01 5.581817e-02 -9.820490e-02 3.848648e-01 4.182184e-01 3.040282e-01 7.162731e-01 3.115998e-01
<VARIANCE> 26
 2.028270e+00 3.893026e+00 5.782905e+00 8.346997e+00 1.060685e+01 1.078987e+01 1.420443e+01 1.300041e+01 1.345912e+01 1.374612e+01 1.331916e+01 1.668853e+01 2.753227e+00 1.499561e+00 1.036517e+00 1.369777e+00 2.809091e+00 1.623826e+00 1.374405e+00 1.829968e+00 2.932246e+00 2.227454e+00 2.077203e+00 1.736517e+00 2.192358e+00 1.098170e+00
<GCONST> 8.255756e+01
<STATE> 4
<MEAN> 26
 -1.058588e+01 -1.984992e+00 7.782738e-01 -6.964963e+00 2.774662e+00 -7.281708e-01 -1.153219e+00 -3.703781e+00 -4.017164e-01 3.015099e+00 2.209403e-01 2.082071e+00 1.522376e+01 2.035765e+00 -1.239529e+00 -5.756521e-02 -3.367226e+00 -4.126612e-01 5.467943e-01 -1.732857e+00 -1.170005e+00 -1.210301e+00 1.681404e-01 1.933022e-02 -7.053717e-01 1.980636e+00
<VARIANCE> 26
 1.686254e+01 1.479219e+01 1.737278e+01 2.048193e+01 1.896160e+01 2.298652e+01 2.134443e+01 2.267961e+01 2.722689e+01 1.684165e+01 1.679085e+01 1.986640e+01 4.683923e+00 4.691261e+00 2.981306e+00 3.356383e+00 6.469366e+00 4.361050e+00 5.401524e+00 5.419775e+00 3.102574e+00 5.275691e+00 3.404909e+00 3.284762e+00 4.136800e+00 1.082917e+00
<GCONST> 1.021950e+02
<TRANSP> 5
 0.000000e+00 1.000000e+00 0.000000e+00 0.000000e+00 0.000000e+00
 0.000000e+00 6.746158e-01 3.253841e-01 0.000000e+00 0.000000e+00
 0.000000e+00 0.000000e+00 7.827846e-01 2.172155e-01 0.000000e+00
 0.000000e+00 0.000000e+00 0.000000e+00 5.684080e-01 4.315920e-01
 0.000000e+00 0.000000e+00 0.000000e+00 0.000000e+00 0.000000e+00
<ENDHMM>
~h "q"
<BEGINHMM>
<NUMSTATES> 5
<STATE> 2
<MEAN> 26
 -1.486294e+00 -4.065693e+00 6.037996e+00 -1.493839e+01 -5.793843e+00 3.187834e+00 -1.926914e+01 -5.702897e+00 -9.315311e+00 3.178127e+00 4.729591e+00 -6.789788e+00 2.028234e+01 1.319794e+00 -1.424309e+00 2.670659e-02 -6.590921e-01 -1.374943e+00 3.720578e-01 -3.402134e+00 6.089709e-01 -9.297409e-01 1.136239e+00 1.804357e+00 -1.878582e+00 3.993948e-01
<VARIANCE> 26
 1.650604e+01 2.030329e+01 4.232193e+01 6.423830e+01 5.233180e+01 6.389703e+01 7.501352e+01 4.909396e+01 2.915493e+01 5.252039e+01 3.143773e+01 3.339056e+01 1.720254e+00 3.643338e+00 2.069771e+00 2.396219e+00 4.284074e+00 5.334358e+00 4.113300e+00 6.545891e+00 3.555453e+00 3.638302e+00 3.256219e+00 3.982800e+00 3.683252e+00 1.559601e-01
<GCONST> 1.065506e+02
<STATE> 3
<MEAN> 26
 -9.854765e-01 -6.387916e+00 7.205850e+00 -1.305819e+01 -6.889437e+00 1.043655e+00 -2.586623e+01 -2.925797e+00 -9.243825e+00 3.617681e+00 7.047205e+00 -1.071347e+01 2.072757e+01 1.828892e-01 4.542596e-01 -1.596261e-01 3.426442e-01 6.440141e-01 -3.093961e-01 5.767839e-01 2.205236e-01 -3.053169e-01 2.048283e-01 -3.759180e-01 3.924683e-01 -1.261050e-01
<VARIANCE> 26
 1.079373e+01 1.291088e+01 3.378153e+01 2.562199e+01 3.232176e+01 2.477853e+01 4.985160e+01 4.407459e+01 3.523926e+01 5.817523e+01 3.212597e+01 2.000628e+01 1.292643e+00 5.554824e-01 1.433017e+00 1.873084e+00 3.678090e+00 2.347995e+00 2.886352e+00 3.397478e+00 3.126856e+00 2.059867e+00 4.236347e+00 2.442646e+00 1.825384e+00 5.257536e-02
<GCONST> 9.490804e+01
<STATE> 4
<MEAN> 26
 1.117497e+00 -8.936493e-01 1.059366e+00 -8.706684e+00 4.151854e+00 -5.123859e-01 -7.715323e+00 -2.919898e+00 -7.536498e+00 1.886782e+00 1.764568e-01 -2.944368e+00 1.849407e+01 -6.171063e-01 1.589227e+00 6.459310e-02 2.477801e+00 1.021954e+00 4.268413e-01 2.999679e+00 -2.685544e-01 1.528984e+00 -1.021363e+00 -7.510301e-01 9.700506e-01 -5.266020e-01
<VARIANCE> 26
 2.027756e+01 2.340788e+01 5.279840e+01 5.909243e+01 7.341153e+01 4.788094e+01 1.789269e+02 3.873216e+01 4.639401e+01 7.315420e+01 4.652647e+01 3.290725e+01 2.615235e+00 2.449912e+00 3.373647e+00 2.014990e+00 3.682576e+00 3.489075e+00 4.728499e+00 4.798804e+00 4.347233e+00 3.864039e+00 3.478795e+00 3.313190e+00 2.824872e+00 1.699830e-01
<GCONST> 1.084464e+02
<TRANSP> 5
 0.000000e+00 1.000000e+00 0.000000e+00 0.000000e+00 0.000000e+00
 0.000000e+00 5.009281e-01 4.990719e-01 0.000000e+00 0.000000e+00
 0.000000e+00 0.000000e+00 6.934525e-01 3.065474e-01 0.000000e+00
 0.000000e+00 0.000000e+00 0.000000e+00 6.374062e-01 3.625938e-01
 0.000000e+00 0.000000e+00 0.000000e+00 0.000000e+00 0.000000e+00
<ENDHMM>
~h "r"
<BEGINHMM>
<NUMSTATES> 5
<STATE> 2
<MEAN> 26
 -2.761683e+00 -9.140759e-02 -2.449733e+00 -2.116965e+01 1.324451e+00 7.494153e+00 -5.086216e+00 -8.701101e+00 -3.126925e+00 3.759441e+00 -1.780539e+00 -1.119342e+00 1.881183e+01 -8.869193e-01 1.825239e+00 -7.599224e-01 5.639215e-01 1.420747e+00 1.210316e+00 6.870829e-01 -5.774409e-01 1.463286e+00 -6.092722e-01 -1.668774e-01 1.284877e+00 -4.018850e-01
<VARIANCE> 26
 1.707452e+01 4.050424e+01 2.326177e+01 4.764125e+01 8.289578e+01 3.823841e+01 5.228699e+01 3.742485e+01 4.729627e+01 5.551392e+01 3.452824e+01 3.074988e+01 2.175079e+00 2.486229e+00 3.087835e+00 2.577829e+00 5.850673e+00 4.991970e+00 5.238616e+00 5.059808e+00 4.246402e+00 4.360457e+00 3.752548e+00 4.093297e+00 3.235650e+00 2.856192e-01
<GCONST> 1.078011e+02
<STATE> 3
<MEAN> 26
 -8.778201e+00 9.860313e-01 -5.251396e+00 -1.687887e+01 9.031649e+00 1.221399e+01 -4.880234e+00 -6.347939e+00 1.782981e+00 2.491453e+00 6.178134e-01 2.458149e+00 1.700567e+01 -3.720007e-01 3.131131e-03 -1.707471e-01 4.782839e-01 -1.056452e-01 -2.873536e-01 1.771539e-01 4.176619e-01 5.977173e-02 -1.595277e-01 3.582828e-01 2.073147e-01 -2.087452e-01
<VARIANCE> 26
 1.682861e+01 2.274298e+01 1.637320e+01 3.242789e+01 7.448318e+01 3.827209e+01 4.244543e+01 3.299031e+01 3.290056e+01 3.307339e+01 2.963482e+01 2.266494e+01 2.980473e+00 1.267664e+00 1.353060e+00 1.668884e+00 2.140910e+00 3.205769e+00 3.040434e+00 2.757146e+00 3.468600e+00 2.805883e+00 3.151625e+00 2.534834e+00 1.944722e+00 1.116760e-01
<GCONST> 9.773117e+01
<STATE> 4
<MEAN> 26
 -4.724831e+00 3.047302e+00 -3.237106e+00 -1.786784e+01 -1.624161e-01 5.904861e+00 -3.463158e+00 -6.866953e+00 -1.056486e+00 1.568765e+00 1.355254e-01 1.791767e+00 1.767341e+01 7.691678e-01 -5.088143e-01 9.491608e-01 9.207113e-01 -1.311762e+00 -1.233124e+00 -9.637762e-02 4.089840e-01 -1.168672e+00 -7.710458e-02 3.257020e-01 -6.652943e-01 1.109031e-01
<VARIANCE> 26
 3.158874e+01 4.943098e+01 3.245078e+01 5.265694e+01 8.900994e+01 4.252788e+01 5.571286e+01 4.699939e+01 6.341751e+01 4.018559e+01 3.213201e+01 3.220390e+01 5.454499e+00 2.538715e+00 2.816402e+00 3.146285e+00 6.211006e+00 5.731820e+00 3.828491e+00 3.684722e+00 4.567939e+00 4.060558e+00 3.384015e+00 3.565284e+00 2.686096e+00 3.876562e-01
<GCONST> 1.099561e+02
<TRANSP> 5
 0.000000e+00 1.000000e+00 0.000000e+00 0.000000e+00 0.000000e+00
 0.000000e+00 5.953568e-01 4.046432e-01 0.000000e+00 0.000000e+00
 0.000000e+00 0.000000e+00 6.565600e-01 3.434400e-01 0.000000e+00
 0.000000e+00 0.000000e+00 0.000000e+00 5.550129e-01 4.449871e-01
 0.000000e+00 0.000000e+00 0.000000e+00 0.000000e+00 0.000000e+00
<ENDHMM>
~h "s"
<BEGINHMM>
<NUMSTATES> 5
<STATE> 2
<MEAN> 26
 -1.921379e+01 3.372140e+00 -9.672831e-01 -7.264419e+00 3.311562e+00 -2.057466e+00 -1.818433e+00 -1.805047e+00 -2.424736e+00 1.902494e+00 -1.304474e+00 8.841317e-01 1.608571e+01 -3.901386e+00 -5.189819e-01 -2.150008e+00 -5.651028e-01 1.875424e-01 5.780275e-01 4.587906e-01 4.214079e-01 7.202088e-01 5.951722e-01 4.085710e-01 1.122096e+00 -2.183202e-01
<VARIANCE> 26
 4.358530e+01 3.418780e+01 3.866761e+01 3.280785e+01 3.289793e+01 4.065405e+01 2.740309e+01 3.603152e+01 3.002247e+01 2.439402e+01 2.629548e+01 2.017629e+01 5.689823e+00 3.793512e+00 3.524564e+00 5.103887e+00 5.398646e+00 4.196403e+00 5.150944e+00 4.127222e+00 3.191330e+00 4.257529e+00 2.818034e+00 2.695276e+00 2.608664e+00 4.063122e-01
<GCONST> 1.060346e+02
<STATE> 3
<MEAN> 26
 -2.823201e+01 1.768220e+00 -8.754211e+00 -1.139858e+01 -3.393637e-01 -1.507245e+00 -3.985140e+00 -2.427605e+00 -3.431938e+00 2.654085e+00 3.699215e-01 3.624053e+00 1.669448e+01 -1.937444e-01 -1.344157e-02 7.528136e-02 -1.816424e-01 -2.250112e-01 3.129087e-02 -2.403058e-01 -2.090746e-01 -1.375887e-02 -6.944592e-02 -1.239512e-02 9.431107e-02 5.745489e-02
<VARIANCE> 26
 5.992976e+00 8.955291e+00 2.376372e+01 3.062116e+01 2.896611e+01 2.784153e+01 2.104703e+01 2.466128e+01 2.118492e+01 1.805508e+01 1.358998e+01 1.345138e+01 9.107001e-01 6.507972e-01 7.630460e-01 1.834353e+00 1.362565e+00 1.856983e+00 2.081930e+00 1.740862e+00 1.801880e+00 1.803711e+00 1.769611e+00 1.484553e+00 1.457614e+00 4.555247e-02
<GCONST> 8.391888e+01
<STATE> 4
<MEAN> 26
 -2.424562e+01 1.852832e+00 -1.903168e+00 -1.051237e+01 9.667071e-01 -1.254288e+00 -3.850963e+00 -3.912188e+00 -2.630483e+00 2.022630e+00 -1.915056e+00 2.146476e+00 1.678412e+01 4.293701e+00 -8.993968e-03 3.056773e+00 4.524238e-01 -3.477246e-01 -7.115073e-01 -1.336247e+00 -3.825915e-01 -1.278179e+00 -6.302413e-01 -3.574031e-01 -1.601060e+00 2.522651e-01
<VARIANCE> 26
 3.484504e+01 2.946661e+01 4.992139e+01 3.306642e+01 4.625030e+01 4.615459e+01 2.621613e+01 2.894099e+01 2.412305e+01 2.055771e+01 1.771746e+01 2.245601e+01 1.977675e+00 5.622651e+00 3.405376e+00 4.604724e+00 5.746967e+00 3.352609e+00 5.567968e+00 6.225725e+00 3.231052e+00 3.203056e+00 4.179285e+00 2.936922e+00 3.370907e+00 5.725412e-01
<GCONST> 1.057854e+02
<TRANSP> 5
 0.000000e+00 1.000000e+00 0.000000e+00 0.000000e+00 0.000000e+00
 0.000000e+00 7.222882e-01 2.777118e-01 0.000000e+00 0.000000e+00
 0.000000e+00 0.000000e+00 8.868673e-01 1.131327e-01 0.000000e+00
 0.000000e+00 0.000000e+00 0.000000e+00 6.288361e-01 3.711639e-01
 0.000000e+00 0.000000e+00 0.000000e+00 0.000000e+00 0.000000e+00
<ENDHMM>
~h "t"
<BEGINHMM>
<NUMSTATES> 5
<STATE> 2
<MEAN> 26
 -5.123168e+00 8.211508e+00 6.006990e+00 2.197783e+00 4.947972e-01 -3.011069e+00 -4.655576e+00 -2.484256e+00 -6.284976e+00 -1.754845e+00 -2.337933e+00 -4.143207e+00 1.452176e+01 -2.084965e+00 1.015051e-01 -1.217912e+00 1.573133e+00 8.779951e-01 1.038552e+00 1.299126e+00 4.748452e-01 1.511565e+00 -7.285788e-01 -1.212127e-01 1.138572e-01 -1.710819e+00
<VARIANCE> 26
 4.614622e+01 3.384071e+01 3.427759e+01 3.399294e+01 3.945053e+01 3.967313e+01 3.376934e+01 2.662534e+01 3.914402e+01 3.320590e+01 2.496590e+01 2.362349e+01 7.512750e+00 4.388816e+00 8.489252e+00 4.198987e+00 8.917354e+00 3.879929e+00 4.568461e+00 3.589870e+00 3.606761e+00 3.668163e+00 2.920202e+00 2.850911e+00 2.716760e+00 5.371619e-01
<GCONST> 1.083960e+02
<STATE> 3
<MEAN> 26
 -1.336276e+01 2.436348e+00 4.142748e-01 1.006455e+00 1.871621e+00 1.249386e+00 -8.583055e-01 9.682036e-01 -5.770695e-01 7.671443e-01 6.546165e-01 -1.096554e+00 9.831120e+00 -9.132247e-01 -1.927320e+00 -7.499096e-01 -1.972952e+00 -3.524573e-01 3.322933e-01 1.348518e-01 -8.911850e-02 5.720353e-01 6.031343e-01 3.616840e-01 9.328457e-01 3.127528e-01
<VARIANCE> 26
 4.593444e+00 7.809864e+00 8.391853e+00 1.689381e+01 1.213439e+01 1.320844e+01 1.526783e+01 1.607243e+01 1.821085e+01 1.554199e+01 1.599045e+01 1.551004e+01 3.023218e+00 2.492206e+00 3.929948e+00 3.266037e+00 6.704806e+00 2.357362e+00 3.304665e+00 2.374635e+00 3.229950e+00 3.588774e+00 2.508068e+00 2.000935e+00 2.820348e+00 1.348475e+00
<GCONST> 9.284930e+01
<STATE> 4
<MEAN> 26
 -1.725945e+01 -4.172745e+00 -9.037128e-01 -1.256447e+01 1.153374e+00 -9.000372e-01 -4.180693e+00 -3.509353e+00 -1.389682e+00 2.397319e+00 7.130884e-02 3.430269e+00 1.616196e+01 4.001455e-01 5.610880e-02 4.105420e-01 -1.675475e+00 8.122060e-02 -6.617075e-01 -1.520239e+00 -5.416364e-01 -5.853768e-01 2.448851e-01 -1.700139e-01 -2.778496e-01 1.255351e+00
<VARIANCE> 26
 2.865045e+01 3.938660e+01 4.024617e+01 3.365298e+01 4.062354e+01 4.430830e+01 3.007563e+01 3.384843e+01 3.137256e+01 2.269065e+01 2.239124e+01 2.148945e+01 2.916748e+00 6.062954e+00 4.800372e+00 6.163453e+00 7.549650e+00 4.652792e+00 4.873724e+00 5.339843e+00 3.758698e+00 4.301959e+00 3.733788e+00 2.626261e+00 4.724143e+00 9.094182e-01
<GCONST> 1.087917e+02
<TRANSP> 5
 0.000000e+00 1.000000e+00 0.000000e+00 0.000000e+00 0.000000e+00
 0.000000e+00 6.153632e-01 3.846368e-01 0.000000e+00 0.000000e+00
 0.000000e+00 0.000000e+00 6.852437e-01 3.147562e-01 0.000000e+00
 0.000000e+00 0.000000e+00 0.000000e+00 7.348283e-01 2.651717e-01
 0.000000e+00 0.000000e+00 0.000000e+00 0.000000e+00 0.000000e+00
<ENDHMM>
~h "u"
<BEGINHMM>
<NUMSTATES> 5
<STATE> 2
<MEAN> 26
 5.895449e-01 4.504385e+00 1.663533e+00 -1.311049e+01 -5.795818e+00 2.084430e+00 -1.077644e+01 -6.782539e+00 -1.185172e+01 -8.462398e+00 4.194677e+00 -5.181758e+00 1.944710e+01 3.049693e+00 1.619454e+00 1.116404e-01 -2.909798e+00 -2.897570e+00 1.487335e+00 -1.313834e+00 -4.672283e-01 -2.073489e+00 -3.009683e+00 1.855949e+00 -1.089485e+00 8.102806e-01
<VARIANCE> 26
 2.072336e+01 3.204388e+01 9.267683e+00 6.084489e+01 6.513448e+01 4.954211e+01 4.609483e+01 7.903759e+01 3.788684e+01 5.247717e+01 6.444505e+01 4.894481e+01 1.096736e+00 4.026929e+00 2.413226e+00 2.073917e+00 4.514278e+00 6.595469e+00 4.179396e+00 4.340889e+00 6.825528e+00 6.144085e+00 6.186586e+00 4.216110e+00 4.578497e+00 4.886409e-01
<GCONST> 1.097398e+02
<STATE> 3
<MEAN> 26
 3.651481e+00 5.225667e+00 7.508280e-01 -1.674524e+01 -1.342555e+01 6.111685e+00 -1.126328e+01 -5.520400e+00 -1.323522e+01 -1.493436e+01 6.315738e+00 -6.797744e+00 2.051195e+01 1.025047e-01 1.275990e-01 -6.972263e-02 -4.388705e-01 -4.842989e-01 1.764639e-01 4.211182e-02 2.668249e-01 -2.027121e-01 2.469314e-01 -3.280882e-01 -2.909100e-01 -1.221446e-03
<VARIANCE> 26
 1.080188e+01 1.201626e+01 1.560849e+01 1.098443e+02 4.690992e+01 3.668415e+01 3.088267e+01 4.898021e+01 3.932105e+01 5.725584e+01 5.206278e+01 5.007990e+01 3.786960e-01 5.169355e-01 1.210690e+00 9.521424e-01 2.138435e+00 2.666140e+00 2.479501e+00 2.566279e+00 3.113968e+00 2.464562e+00 3.258638e+00 2.693310e+00 2.210349e+00 2.220155e-02
<GCONST> 9.375327e+01
<STATE> 4
<MEAN> 26
 2.369007e+00 5.398571e+00 2.082299e+00 -1.591194e+01 -8.884373e+00 4.131907e+00 -1.073032e+01 -5.956428e+00 -1.440941e+01 -8.136281e+00 4.002521e+00 -5.386509e+00 1.967214e+01 -1.099267e+00 -4.579492e-02 2.411402e-01 5.645629e-01 1.861187e+00 -6.094159e-01 1.007659e+00 -1.461685e+00 1.306465e+00 2.207625e+00 -1.736251e+00 1.426810e+00 -3.590185e-01
<VARIANCE> 26
 1.576365e+01 2.162190e+01 2.123504e+01 1.196451e+02 6.459697e+01 4.549395e+01 4.392131e+01 9.575054e+01 6.646416e+01 5.133984e+01 5.472963e+01 5.280447e+01 9.848939e-01 1.112874e+00 1.658830e+00 2.791521e+00 4.280638e+00 6.853862e+00 4.327237e+00 4.304967e+00 4.798613e+00 4.954242e+00 8.009216e+00 5.453133e+00 3.502470e+00 1.178482e-01
<GCONST> 1.078789e+02
<TRANSP> 5
 0.000000e+00 1.000000e+00 0.000000e+00 0.000000e+00 0.000000e+00
 0.000000e+00 5.646187e-01 4.353814e-01 0.000000e+00 0.000000e+00
 0.000000e+00 0.000000e+00 8.258280e-01 1.741720e-01 0.000000e+00
 0.000000e+00 0.000000e+00 0.000000e+00 6.406694e-01 3.593307e-01
 0.000000e+00 0.000000e+00 0.000000e+00 0.000000e+00 0.000000e+00
<ENDHMM>
~h "v"
<BEGINHMM>
<NUMSTATES> 5
<STATE> 2
<MEAN> 26
 -2.074977e+00 2.768399e+00 3.513588e+00 -5.531536e+00 4.220942e+00 1.154475e+00 -1.012700e+01 -7.383982e+00 -8.033170e+00 3.925897e+00 4.381330e+00 -6.681231e-01 1.788277e+01 -6.612470e-01 1.501849e+00 5.381662e-01 1.374155e+00 1.573050e+00 8.582395e-01 7.314376e-01 -1.264462e+00 1.111719e-01 -2.165864e-01 -3.977476e-01 4.436995e-01 -5.216857e-02
<VARIANCE> 26
 1.765027e+01 1.128661e+01 1.490403e+01 2.858719e+01 1.720736e+01 3.502071e+01 3.204866e+01 3.012607e+01 3.193015e+01 2.615930e+01 1.697724e+01 1.304463e+01 3.918515e+00 4.665483e+00 2.347183e+00 1.745951e+00 5.934913e+00 2.377887e+00 1.824147e+00 5.858402e+00 2.614003e+00 4.540971e+00 2.825217e+00 2.090186e+00 1.204649e+00 5.697039e-01
<GCONST> 9.774157e+01
<STATE> 3
<MEAN> 26
 -8.318110e+00 7.566045e+00 6.801743e+00 3.304032e-01 7.390172e+00 4.427678e+00 -5.728141e+00 -8.123655e+00 -7.391422e+00 1.567734e+00 -4.771899e-01 6.255665e-01 1.752209e+01 -8.873937e-01 -2.284352e-01 9.659916e-02 1.456461e-01 -6.872946e-02 2.199280e-01 4.802298e-01 3.470922e-01 3.864588e-02 -2.424577e-01 -5.849524e-01 8.760650e-02 -7.592973e-02
<VARIANCE> 26
 7.811259e+00 7.216175e+00 1.959675e+01 1.674706e+01 1.666534e+01 2.132403e+01 2.205368e+01 1.955484e+01 1.709326e+01 1.201561e+01 1.503163e+01 8.901153e+00 2.557830e-01 9.391801e-01 1.494081e+00 1.443518e+00 1.644155e+00 1.562135e+00 1.462848e+00 1.667321e+00 1.877819e+00 1.100520e+00 1.488207e+00 1.674604e+00 9.704600e-01 3.398295e-02
<GCONST> 7.917584e+01
<STATE> 4
<MEAN> 26
 -7.517542e+00 2.518017e+00 3.786923e+00 -5.228680e+00 3.448465e+00 3.681625e+00 -6.455909e+00 -6.387811e+00 -6.968365e+00 5.027174e-01 6.364373e-01 1.064100e-01 1.823384e+01 1.555970e+00 -2.218879e+00 -2.782957e-01 -3.075558e+00 -2.584298e+00 -8.040338e-01 -2.541137e+00 1.068300e+00 2.787443e-01 -6.982014e-02 1.536452e+00 -1.159044e+00 5.756714e-01
<VARIANCE> 26
 8.314956e+00 1.311860e+01 2.371856e+01 2.349984e+01 1.585256e+01 2.113023e+01 2.751251e+01 1.681673e+01 1.776669e+01 1.750961e+01 1.995306e+01 1.259490e+01 4.940017e-01 1.851497e+00 2.385543e+00 2.695281e+00 2.606333e+00 2.269223e+00 3.275352e+00 3.799152e+00 2.661862e+00 1.469608e+00 3.733012e+00 2.531885e+00 2.088089e+00 8.353647e-02
<GCONST> 8.995222e+01
<TRANSP> 5
 0.000000e+00 1.000000e+00 0.000000e+00 0.000000e+00 0.000000e+00
 0.000000e+00 6.528279e-01 3.471721e-01 0.000000e+00 0.000000e+00
 0.000000e+00 0.000000e+00 7.636679e-01 2.363321e-01 0.000000e+00
 0.000000e+00 0.000000e+00 0.000000e+00 5.370566e-01 4.629434e-01
 0.000000e+00 0.000000e+00 0.000000e+00 0.000000e+00 0.000000e+00
<ENDHMM>
~h "w"
<BEGINHMM>
<NUMSTATES> 5
<STATE> 2
<MEAN> 26
 2.571465e-01 4.659958e+00 1.317972e+00 -1.555692e+01 -7.369310e+00 2.677520e+00 -5.779579e+00 -2.793753e+00 -9.171947e+00 -4.093672e+00 3.872624e+00 -2.239533e+00 1.833302e+01 3.027019e+00 5.176259e-01 -2.509436e-02 -2.451614e+00 -2.044444e+00 3.837490e-01 -1.436044e+00 1.680109e+00 -2.476429e+00 -1.569030e+00 6.221250e-01 -1.844458e+00 8.036801e-01
<VARIANCE> 26
 3.373708e+01 3.204816e+01 2.593827e+01 7.414399e+01 4.731741e+01 4.823675e+01 5.155246e+01 7.582294e+01 7.661300e+01 5.400045e+01 5.037587e+01 4.717394e+01 6.186434e+00 4.822269e+00 4.397533e+00 2.645733e+00 5.680152e+00 5.420148e+00 4.986457e+00 5.115222e+00 4.299480e+00 6.068696e+00 5.047342e+00 3.781733e+00 3.208595e+00 4.718588e-01
<GCONST> 1.135786e+02
<STATE> 3
<MEAN> 26
 5.643934e+00 3.423427e+00 1.017980e+00 -1.635325e+01 -1.196157e+01 5.115450e+00 -8.612376e+00 2.625421e-01 -1.230526e+01 -6.546063e+00 4.498774e+00 -6.040926e+00 2.010443e+01 3.344184e-02 -3.897400e-01 -1.734711e-02 -8.079340e-01 -4.573556e-01 2.631873e-01 -1.542147e-01 4.972835e-01 -2.975661e-01 3.795091e-01 2.339581e-01 3.780419e-02 1.034630e-01
<VARIANCE> 26
 1.573493e+01 2.409983e+01 1.778542e+01 7.746878e+01 4.007871e+01 5.169677e+01 3.269433e+01 3.932207e+01 3.649062e+01 3.347992e+01 3.945019e+01 2.457490e+01 5.211175e-01 1.066030e+00 1.334166e+00 1.645937e+00 3.270925e+00 2.486667e+00 2.652483e+00 2.370909e+00 2.779909e+00 2.464492e+00 2.306311e+00 2.369212e+00 1.864297e+00 5.749736e-02
<GCONST> 9.525417e+01
<STATE> 4
<MEAN> 26
 3.068972e+00 -4.897080e+00 -4.191762e+00 -2.754699e+01 -8.400187e+00 1.148396e+01 -8.509401e+00 2.401156e+00 -1.372359e+01 -6.368300e-01 6.583452e+00 -5.230950e+00 2.138165e+01 -4.449929e-01 -1.558179e+00 -9.413973e-01 -1.962696e-02 2.121174e+00 2.978984e-01 -3.771751e-01 -1.946701e-01 -4.526827e-02 8.139402e-01 2.208101e-01 -5.830140e-01 1.304843e-01
<VARIANCE> 26
 9.421323e+00 2.631010e+01 3.280707e+01 8.326795e+01 6.312222e+01 2.183804e+01 4.688358e+01 3.913188e+01 2.752641e+01 5.040532e+01 4.560878e+01 2.379883e+01 6.202876e-01 3.657256e-01 1.090692e+00 1.955906e+00 2.846947e+00 2.203344e+00 1.979013e+00 2.404050e+00 2.144616e+00 2.172436e+00 3.478599e+00 1.891416e+00 2.353995e+00 3.732126e-02
<GCONST> 9.383965e+01
<TRANSP> 5
 0.000000e+00 1.000000e+00 0.000000e+00 0.000000e+00 0.000000e+00
 0.000000e+00 5.380393e-01 4.619607e-01 0.000000e+00 0.000000e+00
 0.000000e+00 0.000000e+00 8.308381e-01 1.691618e-01 0.000000e+00
 0.000000e+00 0.000000e+00 0.000000e+00 7.448393e-01 2.551606e-01
 0.000000e+00 0.000000e+00 0.000000e+00 0.000000e+00 0.000000e+00
<ENDHMM>
~h "x"
<BEGINHMM>
<NUMSTATES> 5
<STATE> 2
<MEAN> 26
 -1.041349e+00 -4.124948e+00 4.059329e+00 -1.103788e+01 -4.971428e+00 2.207539e+00 -2.386456e+01 -9.253234e+00 -1.057391e+01 9.016354e-01 1.135630e+01 -8.444025e+00 2.018228e+01 1.932157e+00 -6.952716e-01 -2.969000e-01 -1.809762e+00 -1.664105e+00 2.099454e+00 -4.284435e+00 -9.874695e-02 -1.539145e+00 6.771099e-01 2.966267e+00 -2.330497e+00 8.819297e-01
<VARIANCE> 26
 4.166576e+00 8.526450e+00 1.114784e+01 3.031060e+01 1.547645e+01 3.337930e+01 4.294664e+01 3.305839e+01 6.096637e+01 5.130560e+01 1.979758e+01 2.092478e+01 1.348613e+00 2.368511e+00 1.359280e+00 1.094499e+00 2.293987e+00 1.850323e+00 2.465920e+00 5.370312e+00 3.812431e+00 5.765095e+00 3.694549e+00 2.227243e+00 2.242717e+00 8.749908e-01
<GCONST> 9.621745e+01
<STATE> 3
<MEAN> 26
 -1.410312e-01 -4.890313e+00 2.401784e+00 -1.294729e+01 -9.591933e+00 7.459223e+00 -2.877482e+01 -1.059017e+01 -9.589214e+00 1.654969e-01 1.591464e+01 -1.239945e+01 2.133630e+01 -5.546110e-02 7.826348e-02 1.231342e-02 -1.557958e-01 -1.144558e-01 4.613709e-02 6.485176e-02 -1.346979e-01 -2.415320e-01 3.140552e-02 -2.357918e-01 -5.173395e-02 -7.521036e-04
<VARIANCE> 26
 1.885459e+00 5.252224e+00 7.133841e+00 2.610018e+01 9.853364e+00 1.795046e+01 1.477016e+01 1.764176e+01 2.035224e+01 1.708406e+01 8.637324e+00 2.268895e+01 1.794727e-01 1.982112e-01 4.924937e-01 1.502774e+00 1.266542e+00 1.356873e+00 1.284504e+00 1.295773e+00 1.077818e+00 1.881816e+00 1.080130e+00 1.087752e+00 1.481607e+00 1.096410e-02
<GCONST> 7.133423e+01
<STATE> 4
<MEAN> 26
 3.115560e-01 -1.876431e+00 4.938941e+00 -1.207074e+01 -2.117061e+00 4.003078e+00 -2.095958e+01 -6.127042e+00 -1.156084e+01 2.003725e+00 8.216986e+00 -8.485925e+00 1.977305e+01 -3.063998e-01 1.502312e+00 2.804658e-01 9.339651e-01 2.158725e+00 -5.742410e-01 3.382689e+00 6.156627e-01 8.365806e-03 4.014186e-01 -2.416409e+00 1.283250e+00 -5.449260e-01
<VARIANCE> 26
 7.910158e+00 1.792135e+01 1.364104e+01 4.687067e+01 5.098891e+01 3.514197e+01 6.147639e+01 4.492532e+01 3.429793e+01 3.313682e+01 3.006462e+01 2.193594e+01 1.845093e+00 8.670064e-01 2.475422e+00 2.078340e+00 5.905446e+00 2.447468e+00 3.729717e+00 2.878838e+00 1.084067e+00 2.050101e+00 4.171973e+00 2.072162e+00 1.998093e+00 1.073300e-01
<GCONST> 9.670967e+01
<TRANSP> 5
 0.000000e+00 1.000000e+00 0.000000e+00 0.000000e+00 0.000000e+00
 0.000000e+00 6.339787e-01 3.660213e-01 0.000000e+00 0.000000e+00
 0.000000e+00 0.000000e+00 8.500209e-01 1.499790e-01 0.000000e+00
 0.000000e+00 0.000000e+00 0.000000e+00 7.278170e-01 2.721830e-01
 0.000000e+00 0.000000e+00 0.000000e+00 0.000000e+00 0.000000e+00
<ENDHMM>
~h "y"
<BEGINHMM>
<NUMSTATES> 5
<STATE> 2
<MEAN> 26
 -7.572627e+00 -6.759794e-01 1.417958e+01 4.911283e+00 -6.602409e+00 -6.665571e+00 -1.115076e+01 3.752981e-01 -1.296691e+01 -8.145119e+00 -4.642432e-01 2.121673e+00 1.816400e+01 1.671139e+00 -3.018200e-01 2.073632e+00 1.152290e+00 -6.102851e-01 -2.107416e+00 -2.991657e+00 1.364998e+00 -1.629917e+00 -3.500239e+00 1.117530e+00 6.160228e-01 7.745798e-01
<VARIANCE> 26
 2.639739e+01 2.310596e+01 3.909744e+01 2.555054e+01 2.850443e+01 4.885750e+01 9.688934e+01 4.921394e+01 5.819236e+01 6.657912e+01 2.704351e+01 2.610147e+01 5.499432e+00 4.574424e+00 2.698731e+00 4.669117e+00 3.058271e+00 2.754724e+00 5.232260e+00 7.556103e+00 2.855496e+00 6.104798e+00 5.022771e+00 2.068532e+00 2.504517e+00 5.529714e-01
<GCONST> 1.087272e+02
<STATE> 3
<MEAN> 26
 -3.101005e+00 -4.208418e+00 1.580325e+01 5.202328e+00 -1.058542e+01 -7.457376e+00 -2.070423e+01 2.827851e+00 -1.343783e+01 -1.991618e+01 4.778610e+00 2.308701e+00 2.019049e+01 1.863342e-01 -2.667741e-01 -1.175243e-01 -6.815675e-01 -6.564256e-01 3.819745e-01 -3.677338e-01 -7.035721e-02 1.623939e-01 -1.034783e-01 2.522745e-01 -5.105694e-01 9.621255e-02
<VARIANCE> 26
 7.067400e+00 1.598940e+01 1.804835e+01 2.436413e+01 2.947954e+01 1.926674e+01 4.052580e+01 4.188454e+01 4.198468e+01 3.228971e+01 2.225188e+01 2.179310e+01 4.117708e-01 8.113711e-01 1.032651e+00 2.588678e+00 2.429918e+00 2.550359e+00 2.805959e+00 4.897582e+00 2.801639e+00 2.119113e+00 4.622874e+00 1.809626e+00 1.657395e+00 3.864876e-02
<GCONST> 9.126228e+01
<STATE> 4
<MEAN> 26
 -2.477792e+00 -3.884290e+00 1.369028e+01 -3.688686e+00 -1.190702e+01 -8.276514e-01 -1.861205e+01 -3.289436e+00 -1.141687e+01 -7.979641e+00 3.863681e+00 -3.312190e+00 2.018498e+01 5.248864e-02 1.089590e+00 -1.349324e+00 -1.623447e+00 3.031497e-01 2.251241e+00 1.954868e+00 -2.285125e+00 5.954771e-01 3.202675e+00 -1.131203e+00 -7.007117e-01 -1.756978e-01
<VARIANCE> 26
 1.257831e+01 1.988663e+01 7.611894e+01 7.050978e+01 3.214125e+01 8.889368e+01 7.534708e+01 4.433910e+01 4.253621e+01 9.416016e+01 3.971741e+01 3.796032e+01 9.751683e-01 1.485035e+00 2.268866e+00 3.217838e+00 4.687711e+00 2.606231e+00 5.970501e+00 5.502174e+00 4.435685e+00 4.336024e+00 3.649653e+00 3.428629e+00 5.550480e+00 1.198926e-01
<GCONST> 1.070094e+02
<TRANSP> 5
 0.000000e+00 1.000000e+00 0.000000e+00 0.000000e+00 0.000000e+00
 0.000000e+00 6.159878e-01 3.840122e-01 0.000000e+00 0.000000e+00
 0.000000e+00 0.000000e+00 7.741691e-01 2.258309e-01 0.000000e+00
 0.000000e+00 0.000000e+00 0.000000e+00 6.837450e-01 3.162550e-01
 0.000000e+00 0.000000e+00 0.000000e+00 0.000000e+00 0.000000e+00
<ENDHMM>
~h "z"
<BEGINHMM>
<NUMSTATES> 5
<STATE> 2
<MEAN> 26
 -9.529579e+00 1.020818e+01 3.505711e+00 -3.874025e+00 1.018914e+00 -6.840658e+00 -1.016928e+01 -7.598924e+00 -7.793613e+00 1.634212e+00 -2.283163e+00 -3.024906e+00 1.905312e+01 -2.324524e+00 3.076991e+00 -9.632356e-01 1.853883e+00 1.828735e+00 -2.199659e-02 1.834471e+00 -3.009637e-01 1.210829e+00 1.912246e-01 -1.169954e+00 1.629239e+00 -4.535477e-01
<VARIANCE> 26
 1.108668e+01 1.792541e+01 3.195348e+01 4.580356e+01 4.252510e+01 3.408339e+01 2.577061e+01 2.347555e+01 2.404246e+01 3.850660e+01 2.397228e+01 2.368268e+01 5.792701e-01 8.633777e-01 2.502309e+00 2.421477e+00 3.993478e+00 2.790623e+00 3.811609e+00 2.985885e+00 2.441269e+00 2.533527e+00 2.386214e+00 2.465110e+00 1.541207e+00 2.610556e-02
<GCONST> 9.355441e+01
<STATE> 3
<MEAN> 26
 -1.648887e+01 1.450329e+01 2.803350e+00 2.865917e-01 3.881141e+00 -3.020208e+00 -5.164038e+00 -7.075321e+00 -5.587298e+00 -2.949564e-01 -3.324167e+00 1.399717e+00 1.782769e+01 -5.277123e-01 -3.277491e-01 1.433997e-02 -2.806749e-01 2.620097e-01 2.128288e-01 2.863593e-01 -3.697082e-01 2.650861e-01 2.586563e-01 -5.228654e-02 1.285096e-01 -5.187608e-02
<VARIANCE> 26
 8.389516e+00 8.866459e+00 2.905046e+01 3.352587e+01 3.379140e+01 2.958454e+01 2.254522e+01 2.125477e+01 1.842631e+01 3.718575e+01 1.748732e+01 1.908898e+01 5.616463e-01 1.456301e+00 1.053836e+00 1.521056e+00 1.602770e+00 1.846645e+00 3.576401e+00 2.194992e+00 1.615154e+00 1.125813e+00 2.115033e+00 9.160630e-01 1.639412e+00 4.696533e-02
<GCONST> 8.650711e+01
<STATE> 4
<MEAN> 26
 -1.130316e+01 8.218139e+00 1.978296e+00 -7.194318e+00 3.031964e+00 -7.030247e+00 -9.643456e+00 -9.095600e+00 -4.635795e+00 4.890100e+00 -2.782793e+00 -2.848460e+00 1.878667e+01 2.986901e+00 -3.776822e+00 5.636965e-01 -3.283064e+00 -1.477646e+00 -4.339440e-01 -2.409408e+00 1.014855e+00 -3.362373e-01 1.499943e+00 9.856620e-01 -1.835815e+00 4.957272e-01
<VARIANCE> 26
 2.058183e+01 2.510105e+01 3.023734e+01 4.461286e+01 2.128082e+01 3.006801e+01 2.460421e+01 2.488199e+01 2.168363e+01 3.170452e+01 2.228225e+01 2.300392e+01 9.380524e-01 1.469864e+00 2.442483e+00 1.757980e+00 4.442403e+00 2.027283e+00 5.116127e+00 4.063280e+00 4.081868e+00 2.111124e+00 3.343402e+00 2.546123e+00 3.369136e+00 9.877973e-02
<GCONST> 9.709583e+01
<TRANSP> 5
 0.000000e+00 1.000000e+00 0.000000e+00 0.000000e+00 0.000000e+00
 0.000000e+00 6.806644e-01 3.193356e-01 0.000000e+00 0.000000e+00
 0.000000e+00 0.000000e+00 7.368952e-01 2.631048e-01 0.000000e+00
 0.000000e+00 0.000000e+00 0.000000e+00 6.170055e-01 3.829945e-01
 0.000000e+00 0.000000e+00 0.000000e+00 0.000000e+00 0.000000e+00
<ENDHMM>
~h "__"
<BEGINHMM>
<NUMSTATES> 5
<STATE> 2
<MEAN> 26
 -9.780328e+00 1.196898e+00 -2.318003e-01 -3.512985e-02 2.043167e+00 3.633673e+00 6.711851e-01 3.349941e-01 -1.632702e+00 -1.130038e+00 -9.149358e-01 3.770519e-01 1.209397e+01 -3.003516e-01 7.313427e-02 -2.415987e-01 1.490865e-01 -2.767388e-01 -6.959660e-02 3.354876e-02 2.357425e-01 2.407615e-01 3.046377e-01 3.942492e-01 1.913161e-01 -1.856454e-01
<VARIANCE> 26
 1.631004e+01 1.636331e+01 2.656255e+01 3.121918e+01 2.324273e+01 2.155235e+01 2.771285e+01 2.113562e+01 2.283063e+01 2.467214e+01 2.295637e+01 1.488454e+01 3.614975e+00 1.087603e+00 1.198501e+00 1.560360e+00 2.294698e+00 2.448645e+00 2.580724e+00 2.436804e+00 2.283715e+00 2.355897e+00 2.163790e+00 2.013141e+00 1.352293e+00 3.457362e-01
<GCONST> 9.280315e+01
<STATE> 3
<MEAN> 26
 -1.267594e+01 3.393260e+00 8.062152e-01 2.230036e+00 2.336278e+00 3.179797e+00 1.615254e+00 3.533846e+00 1.280881e+00 2.704686e+00 3.323497e+00 1.996317e+00 1.183992e+01 -6.195464e-02 -3.572707e-02 -7.462530e-02 -5.799455e-02 -3.324372e-02 -5.011341e-02 3.268744e-02 6.860492e-02 6.023163e-02 9.148119e-02 1.048522e-01 1.267816e-02 -5.379716e-02
<VARIANCE> 26
 2.450605e+00 4.572471e+00 7.717126e+00 1.146681e+01 9.944081e+00 1.055599e+01 1.275570e+01 1.454155e+01 1.441497e+01 1.437460e+01 1.293756e+01 1.133811e+01 2.114203e+00 2.202677e-01 4.138874e-01 5.246565e-01 1.129911e+00 9.916487e-01 1.075830e+00 1.309301e+00 1.503984e+00 1.390488e+00 1.372267e+00 1.355834e+00 1.210321e+00 5.187849e-02
<GCONST> 7.163841e+01
<STATE> 4
<MEAN> 26
 -1.335068e+01 2.126485e+00 -8.761091e-01 2.808581e-01 -2.417051e-01 3.830445e-01 -6.660045e-01 8.577825e-01 -1.486632e+00 -1.713934e-01 9.418110e-01 -4.452519e-01 8.633610e+00 -9.341349e-02 -3.094089e-02 1.111654e-01 -5.528017e-02 6.563982e-02 5.301118e-02 -5.991933e-02 2.211213e-02 9.202131e-02 2.602353e-02 1.241231e-02 -1.288028e-02 -1.339706e-02
<VARIANCE> 26
 3.312836e+00 2.892276e+00 5.340054e+00 6.208380e+00 8.621934e+00 1.001779e+01 1.068017e+01 1.296643e+01 1.456159e+01 1.366469e+01 1.180047e+01 1.060580e+01 7.822294e-01 2.472798e-01 3.277144e-01 5.763252e-01 7.233261e-01 8.898751e-01 1.034754e+00 1.220724e+00 1.343927e+00 1.378600e+00 1.390564e+00 1.377494e+00 1.187419e+00 4.649139e-02
<GCONST> 6.791139e+01
<TRANSP> 5
 0.000000e+00 1.000000e+00 0.000000e+00 0.000000e+00 0.000000e+00
 0.000000e+00 8.972497e-01 1.027503e-01 0.000000e+00 0.000000e+00
 0.000000e+00 0.000000e+00 9.441575e-01 5.584256e-02 0.000000e+00
 0.000000e+00 0.000000e+00 0.000000e+00 9.610789e-01 3.892116e-02
 0.000000e+00 0.000000e+00 0.000000e+00 0.000000e+00 0.000000e+00
<ENDHMM>
~h "a~"
<BEGINHMM>
<NUMSTATES> 5
<STATE> 2
<MEAN> 26
 8.336037e-01 -6.239192e+00 -4.851233e+00 -2.353967e+01 -5.453078e+00 9.560130e+00 -9.618613e+00 1.080610e+00 -1.267832e+01 -6.805269e-01 4.784430e+00 -3.518485e+00 2.074637e+01 1.841875e+00 -6.189108e-01 -1.435931e+00 -2.104689e+00 -1.440555e+00 1.772677e+00 7.751379e-01 2.242974e+00 -1.472741e+00 -2.308670e+00 1.624943e-01 7.366897e-01 5.765223e-01
<VARIANCE> 26
 8.072565e+00 1.960927e+01 1.835545e+01 3.782821e+01 3.446931e+01 4.513539e+01 6.994285e+01 3.534055e+01 2.351501e+01 6.700163e+01 4.051606e+01 4.203516e+01 1.462044e+00 3.948030e+00 2.853372e+00 1.787352e+00 8.363021e+00 3.327014e+00 6.525913e+00 6.957844e+00 2.975560e+00 4.851815e+00 4.683499e+00 3.723782e+00 4.638558e+00 6.224915e-01
<GCONST> 1.064700e+02
<STATE> 3
<MEAN> 26
 2.455277e+00 -5.604044e+00 -7.164247e+00 -2.128147e+01 -1.136818e+01 8.628362e+00 -4.524242e+00 8.464742e+00 -1.400862e+01 -9.931334e+00 2.929322e+00 -4.043139e+00 2.118082e+01 6.065584e-02 3.519583e-01 8.033227e-02 4.583631e-01 -2.950141e-01 -6.212975e-01 3.832619e-01 1.510750e-01 -3.438343e-01 3.085369e-01 -6.747478e-01 -4.666757e-01 -5.760457e-02
<VARIANCE> 26
 6.271034e+00 1.021254e+01 1.371287e+01 2.193195e+01 1.850575e+01 2.979404e+01 2.535134e+01 1.567816e+01 1.668014e+01 2.240065e+01 2.032580e+01 1.749089e+01 3.046993e-01 3.475825e-01 9.312729e-01 1.056491e+00 1.527345e+00 1.554299e+00 1.538375e+00 1.999166e+00 1.994925e+00 1.279570e+00 2.861573e+00 1.344037e+00 1.178432e+00 2.232423e-02
<GCONST> 8.011787e+01
<STATE> 4
<MEAN> 26
 3.036664e+00 4.857839e-02 -4.187755e+00 -1.231245e+01 -9.310811e+00 4.509965e+00 -2.248980e+00 1.874461e+00 -1.720052e+01 -2.553757e+00 -1.672597e+00 -4.033216e+00 1.986555e+01 -5.934778e-01 1.439453e+00 1.146829e+00 2.988697e+00 1.354009e+00 -2.927774e-01 4.147204e-01 -2.095603e+00 5.178425e-01 5.902394e-01 -1.114188e-01 4.714789e-01 -4.555359e-01
<VARIANCE> 26
 7.252925e+00 2.594536e+01 2.193297e+01 9.099612e+01 3.171825e+01 2.483136e+01 5.951894e+01 4.395904e+01 5.211135e+01 2.642342e+01 2.647219e+01 2.210526e+01 1.154909e+00 2.496741e+00 2.193496e+00 2.074558e+00 6.347661e+00 5.163935e+00 2.931184e+00 3.400540e+00 3.771663e+00 5.271900e+00 2.928891e+00 1.839909e+00 2.259273e+00 1.128750e-01
<GCONST> 1.004303e+02
<TRANSP> 5
 0.000000e+00 1.000000e+00 0.000000e+00 0.000000e+00 0.000000e+00
 0.000000e+00 6.693282e-01 3.306718e-01 0.000000e+00 0.000000e+00
 0.000000e+00 0.000000e+00 8.646051e-01 1.353949e-01 0.000000e+00
 0.000000e+00 0.000000e+00 0.000000e+00 7.573221e-01 2.426778e-01
 0.000000e+00 0.000000e+00 0.000000e+00 0.000000e+00 0.000000e+00
<ENDHMM>
~h "e^"
<BEGINHMM>
<NUMSTATES> 5
<STATE> 2
<MEAN> 26
 -5.244252e+00 -4.695926e+00 1.421447e+01 -1.309915e+01 -8.109108e+00 -8.122369e+00 -1.561946e+01 -1.822369e+00 -1.102565e+01 3.372335e-01 1.853128e+00 -1.353970e+00 1.995820e+01 1.288732e+00 -2.192622e+00 2.772440e+00 -2.211959e+00 -3.035717e+00 -1.042544e+00 -2.684914e+00 1.623864e+00 -2.733057e+00 5.497366e-01 1.045580e+00 -1.781912e-01 8.358487e-01
<VARIANCE> 26
 1.192091e+01 2.638240e+01 4.001764e+01 4.669337e+01 2.854972e+01 3.103026e+01 4.377412e+01 3.462202e+01 4.954505e+01 5.497809e+01 2.698880e+01 1.475658e+01 3.010640e+00 2.957947e+00 2.000253e+00 4.764392e+00 4.004006e+00 2.730536e+00 3.819723e+00 5.200218e+00 3.701381e+00 3.957128e+00 3.518028e+00 2.925615e+00 2.099012e+00 5.580890e-01
<GCONST> 1.040714e+02
<STATE> 3
<MEAN> 26
 -4.365180e+00 -6.924247e+00 1.837522e+01 -1.603297e+01 -1.384555e+01 -6.169559e+00 -1.884864e+01 1.160769e+00 -1.700661e+01 1.473814e+00 3.888028e+00 -2.216280e+00 2.098661e+01 9.341494e-02 3.060735e-01 1.736233e-01 1.594650e-01 -9.862310e-02 1.156658e-02 4.166939e-01 -1.862238e-01 -7.434748e-01 3.806182e-01 -2.271729e-01 -5.826839e-03 -2.074559e-02
<VARIANCE> 26
 4.450060e+00 1.458398e+01 2.009969e+01 1.617630e+01 1.775977e+01 2.123733e+01 1.984308e+01 1.987701e+01 2.688666e+01 2.958072e+01 1.887150e+01 1.279923e+01 3.140494e-01 4.060048e-01 1.317971e+00 1.291623e+00 2.164372e+00 1.955749e+00 1.831467e+00 1.945552e+00 1.753169e+00 1.820314e+00 1.935749e+00 1.327805e+00 9.054629e-01 3.225133e-02
<GCONST> 8.157471e+01
<STATE> 4
<MEAN> 26
 -2.879187e+00 -2.230003e-01 1.643458e+01 -1.070509e+01 -7.368331e+00 -6.322699e+00 -8.293821e+00 -1.636190e+00 -1.561447e+01 2.449623e+00 -4.753008e-01 -1.892424e+00 1.951884e+01 1.490409e-01 2.067619e+00 -1.719603e+00 2.873801e+00 2.472943e+00 5.508474e-01 2.640312e+00 -3.127547e-01 2.378773e+00 -7.900551e-01 -8.058923e-01 -3.619905e-01 -6.066483e-01
<VARIANCE> 26
 6.280794e+00 3.764969e+01 2.750360e+01 4.656460e+01 3.641276e+01 4.657192e+01 1.231730e+02 3.280938e+01 4.026840e+01 4.608458e+01 3.180270e+01 1.763193e+01 1.708589e+00 2.421725e+00 5.129720e+00 2.920513e+00 4.867790e+00 2.650594e+00 3.581984e+00 3.679882e+00 5.679954e+00 3.335768e+00 3.538453e+00 2.600883e+00 2.162045e+00 1.284127e-01
<GCONST> 1.031442e+02
<TRANSP> 5
 0.000000e+00 1.000000e+00 0.000000e+00 0.000000e+00 0.000000e+00
 0.000000e+00 5.645624e-01 4.354376e-01 0.000000e+00 0.000000e+00
 0.000000e+00 0.000000e+00 8.061929e-01 1.938072e-01 0.000000e+00
 0.000000e+00 0.000000e+00 0.000000e+00 6.761951e-01 3.238049e-01
 0.000000e+00 0.000000e+00 0.000000e+00 0.000000e+00 0.000000e+00
<ENDHMM>
~h "e~"
<BEGINHMM>
<NUMSTATES> 5
<STATE> 2
<MEAN> 26
 -1.085886e+00 -1.257832e+01 -2.410351e+00 -2.019864e+01 -2.303658e-01 6.143933e+00 -1.800055e+01 2.772856e+00 -6.802825e+00 3.870076e+00 2.420885e+00 -9.071176e+00 2.104275e+01 1.348842e+00 -2.496630e+00 -8.140960e-01 -2.073824e+00 1.064888e+00 1.775727e+00 -1.987098e+00 1.222316e+00 -1.225639e+00 6.721511e-01 1.516502e-01 -1.104885e+00 5.628074e-01
<VARIANCE> 26
 5.693658e+00 2.333054e+01 2.156858e+01 1.860255e+01 3.637667e+01 3.128393e+01 2.626537e+01 2.468458e+01 2.491655e+01 3.020510e+01 4.925454e+01 3.911518e+01 1.016656e+00 2.491058e+00 3.661496e+00 1.716553e+00 4.703341e+00 3.589758e+00 2.161374e+00 3.508942e+00 3.534317e+00 1.798939e+00 2.504230e+00 2.307134e+00 2.313350e+00 5.067086e-01
<GCONST> 9.774940e+01
<STATE> 3
<MEAN> 26
 4.087842e-02 -1.430295e+01 -5.395088e+00 -2.081672e+01 3.687110e+00 7.861887e+00 -1.978071e+01 3.070493e+00 -1.035522e+01 3.727430e-01 5.242802e+00 -8.655538e+00 2.159916e+01 1.845323e-01 3.533596e-01 -2.026640e-01 1.039426e-01 5.341530e-01 -8.936594e-01 1.536503e-01 -2.136134e-01 -5.672325e-01 -1.309362e-01 -1.928502e-01 2.731907e-02 -7.905936e-02
<VARIANCE> 26
 5.514340e+00 8.628289e+00 1.219200e+01 1.372335e+01 2.013774e+01 2.299869e+01 2.064449e+01 1.244039e+01 1.819477e+01 1.681303e+01 2.378333e+01 1.566297e+01 3.085102e-01 3.395740e-01 7.914100e-01 1.200263e+00 9.916472e-01 1.457787e+00 1.827725e+00 1.143891e+00 8.788935e-01 1.232773e+00 1.292061e+00 2.226303e+00 1.050654e+00 1.611552e-02
<GCONST> 7.595386e+01
<STATE> 4
<MEAN> 26
 1.084239e+00 -6.689754e+00 -4.565444e+00 -1.454444e+01 2.023243e+00 -1.268360e+00 -1.361667e+01 -7.266636e-01 -1.441433e+01 1.388029e+00 -9.507047e-01 -8.138259e+00 2.035828e+01 -3.478757e-01 2.745759e+00 7.391795e-01 3.148401e+00 -1.098969e+00 -7.444642e-01 2.618559e+00 -1.469189e+00 2.535653e-01 -3.692769e-01 -1.212188e+00 1.201403e+00 -4.283234e-01
<VARIANCE> 26
 7.014318e+00 3.435920e+01 3.535572e+01 8.219810e+01 7.011189e+01 4.557689e+01 4.780584e+01 5.143856e+01 4.815240e+01 3.758626e+01 3.436266e+01 2.667301e+01 5.069820e-01 2.935390e+00 3.380534e+00 2.382434e+00 7.154278e+00 4.994273e+00 2.818117e+00 1.857842e+00 2.841606e+00 4.882802e+00 3.334643e+00 3.071435e+00 2.104918e+00 7.464016e-02
<GCONST> 1.022639e+02
<TRANSP> 5
 0.000000e+00 1.000000e+00 0.000000e+00 0.000000e+00 0.000000e+00
 0.000000e+00 5.088874e-01 4.911126e-01 0.000000e+00 0.000000e+00
 0.000000e+00 0.000000e+00 8.613775e-01 1.386225e-01 0.000000e+00
 0.000000e+00 0.000000e+00 0.000000e+00 7.133960e-01 2.866040e-01
 0.000000e+00 0.000000e+00 0.000000e+00 0.000000e+00 0.000000e+00
<ENDHMM>
~h "o^"
<BEGINHMM>
<NUMSTATES> 5
<STATE> 2
<MEAN> 26
 1.734693e+00 -2.155849e-02 1.801001e+00 -2.726460e+01 -9.531782e+00 5.993297e+00 -1.198613e+01 -5.136751e+00 -1.563463e+01 4.756054e-01 7.107724e+00 -3.990590e+00 2.036128e+01 1.669853e+00 6.177485e-01 7.159935e-01 -4.153427e+00 -2.992688e+00 2.298471e+00 -1.451833e+00 5.860754e-01 -2.644772e+00 -1.136906e+00 2.009231e+00 -1.072515e+00 9.986953e-01
<VARIANCE> 26
 8.063406e+00 3.809836e+01 1.313269e+01 9.106130e+01 3.294190e+01 2.093010e+01 5.362707e+01 5.398757e+01 5.598861e+01 5.403660e+01 8.827823e+01 2.018002e+01 2.872258e+00 3.917640e+00 1.715524e+00 1.631613e+00 1.493452e+01 2.882228e+00 2.330477e+00 4.272177e+00 2.861555e+00 7.547745e+00 3.175460e+00 4.003388e+00 5.497252e+00 1.456289e+00
<GCONST> 1.078113e+02
<STATE> 3
<MEAN> 26
 2.938488e+00 4.757465e-01 3.071372e+00 -3.003971e+01 -1.626435e+01 1.081252e+01 -1.312646e+01 -4.318848e+00 -1.587090e+01 -6.365933e+00 1.237464e+01 -7.483870e+00 2.163518e+01 7.862412e-02 9.160539e-03 -1.711240e-02 -4.983447e-02 4.162937e-03 1.290992e-01 -3.203660e-01 8.296537e-02 -5.804230e-01 -1.243836e-01 3.689617e-03 -1.170593e-01 2.820939e-03
<VARIANCE> 26
 5.753837e+00 1.176668e+01 1.903057e+01 2.590324e+01 2.085073e+01 1.519341e+01 2.099989e+01 3.904337e+01 4.695068e+01 4.130321e+01 3.744570e+01 2.679235e+01 3.256955e-01 3.761095e-01 1.044863e+00 9.529805e-01 2.843053e+00 2.111665e+00 1.194206e+00 1.616680e+00 2.217220e+00 2.192364e+00 3.512944e+00 2.241848e+00 1.859772e+00 3.140903e-02
<GCONST> 8.629988e+01
<STATE> 4
<MEAN> 26
 2.038202e+00 9.231246e-01 1.620828e+00 -2.529492e+01 -7.502510e+00 5.807900e+00 -1.537209e+01 -4.438179e+00 -1.970437e+01 2.289289e-01 8.568192e+00 -6.389742e+00 2.035024e+01 -6.771813e-01 7.438600e-01 -1.633869e-01 3.175623e+00 2.502825e+00 -2.189054e+00 1.354043e+00 -6.546338e-01 1.806844e+00 1.152853e+00 -1.963986e+00 6.540449e-01 -6.481707e-01
<VARIANCE> 26
 1.112601e+01 3.348617e+01 1.857827e+01 1.029096e+02 5.175029e+01 4.200740e+01 7.776752e+01 6.492175e+01 5.662806e+01 5.038695e+01 5.997950e+01 5.493283e+01 1.938653e+00 1.064508e+00 3.469821e+00 3.230718e+00 7.708972e+00 3.445133e+00 2.866552e+00 7.745501e+00 3.864832e+00 6.325718e+00 7.784195e+00 6.577449e+00 6.575188e+00 2.386461e-01
<GCONST> 1.106323e+02
<TRANSP> 5
 0.000000e+00 1.000000e+00 0.000000e+00 0.000000e+00 0.000000e+00
 0.000000e+00 5.657985e-01 4.342015e-01 0.000000e+00 0.000000e+00
 0.000000e+00 0.000000e+00 8.714557e-01 1.285443e-01 0.000000e+00
 0.000000e+00 0.000000e+00 0.000000e+00 7.099736e-01 2.900263e-01
 0.000000e+00 0.000000e+00 0.000000e+00 0.000000e+00 0.000000e+00
<ENDHMM>
~h "n~"
<BEGINHMM>
<NUMSTATES> 5
<STATE> 2
<MEAN> 26
 4.648658e-01 2.851218e-01 8.128731e+00 -2.491378e+00 -9.041095e+00 -4.215327e+00 -1.153187e+01 2.280290e+00 -1.934546e+01 -1.536828e+01 9.450256e+00 -4.445770e+00 2.070686e+01 -2.531103e-01 -3.025146e-02 2.235235e-01 -9.395923e-02 1.153220e-01 -1.582660e-02 1.823076e-02 6.420299e-01 -1.514019e-01 -9.258083e-01 1.679833e+00 -5.245980e-01 1.126133e-02
<VARIANCE> 26
 4.904929e+00 4.993443e+00 1.969676e+01 3.856576e+01 2.058687e+01 3.046521e+01 1.263900e+01 2.096982e+01 1.511746e+01 1.880278e+01 4.305023e+01 1.223359e+01 1.390599e-01 1.769668e+00 9.565806e-01 3.977537e+00 6.918015e+00 2.635279e+00 3.936676e+00 4.096251e+00 2.334759e+00 1.098990e+00 1.699503e+00 2.723039e+00 1.328961e+00 1.226256e-03
<GCONST> 8.322626e+01
<STATE> 3
<MEAN> 26
 -4.523143e+00 -5.641178e-02 1.798838e+01 -1.107547e+01 -1.565108e+01 6.204042e+00 -1.627715e+01 -3.697664e-01 -1.627605e+01 -1.341588e+01 9.695090e+00 -5.642201e+00 2.076731e+01 -5.863419e-01 -5.343916e-01 1.441823e+00 -7.722498e-01 -2.365893e+00 1.621749e+00 -5.672262e-02 -9.837263e-01 1.568464e+00 1.276270e+00 -1.202856e+00 4.558234e-01 -7.640988e-03
<VARIANCE> 26
 7.168583e+00 1.412831e+01 1.557565e+01 3.499775e+01 4.901588e+01 3.160633e+01 2.030336e+01 4.438445e+01 2.528480e+01 2.894658e+01 2.833582e+01 9.221730e+00 9.123019e-02 6.231619e-01 1.221237e+00 2.941621e+00 4.479775e+00 2.795285e+00 1.018392e+01 1.768645e+00 4.864206e+00 9.366881e-01 1.673139e+00 1.660674e+00 7.264457e-01 5.022973e-03
<GCONST> 8.576935e+01
<STATE> 4
<MEAN> 26
 -3.211348e+00 -5.115334e+00 1.352841e+01 -7.932390e+00 -1.706573e+01 1.270410e+00 -1.820034e+01 2.333628e+00 -9.288417e+00 -8.706094e+00 6.152288e+00 -4.307597e+00 2.089280e+01 8.444746e-01 -3.042869e-01 -2.416680e+00 1.411853e-01 2.328792e+00 -1.273196e+00 -1.060126e+00 4.573342e-01 7.868349e-01 1.335034e+00 -2.780127e-01 -2.820434e-01 -6.907067e-03
<VARIANCE> 26
 9.418979e+00 1.579479e+01 3.261514e+01 1.426403e+01 3.018841e+01 4.148027e+01 2.008039e+01 2.116349e+01 3.248972e+01 2.415792e+01 1.078210e+01 6.195641e+00 1.000716e-01 2.171708e-01 2.306999e+00 2.171564e+00 3.044364e+00 2.353642e+00 6.724871e+00 4.618097e+00 3.943823e+00 3.345624e+00 2.068880e+00 1.346811e+00 2.081687e+00 1.769393e-02
<GCONST> 8.647240e+01
<TRANSP> 5
 0.000000e+00 1.000000e+00 0.000000e+00 0.000000e+00 0.000000e+00
 0.000000e+00 7.786566e-01 2.213434e-01 0.000000e+00 0.000000e+00
 0.000000e+00 0.000000e+00 7.481373e-01 2.518627e-01 0.000000e+00
 0.000000e+00 0.000000e+00 0.000000e+00 7.438669e-01 2.561330e-01
 0.000000e+00 0.000000e+00 0.000000e+00 0.000000e+00 0.000000e+00
<ENDHMM>
~h "o~"
<BEGINHMM>
<NUMSTATES> 5
<STATE> 2
<MEAN> 26
 7.253932e-01 5.086481e-01 3.243048e-01 -1.585324e+01 -1.226893e+01 6.743572e+00 -8.026085e+00 1.882158e+00 -1.172201e+01 -5.158651e+00 5.185640e+00 -2.390172e+00 1.981403e+01 2.023819e+00 -3.129808e-02 -6.496292e-02 -1.206119e+00 -3.545519e+00 5.606014e-01 -6.791388e-01 1.990492e+00 -1.122689e+00 -5.811197e-01 8.450024e-01 -9.671075e-01 6.055803e-01
<VARIANCE> 26
 1.401942e+01 2.146382e+01 1.703578e+01 3.386965e+01 4.692647e+01 3.229329e+01 4.384620e+01 4.332081e+01 4.274444e+01 2.994253e+01 3.740733e+01 1.624441e+01 2.385408e+00 5.029359e+00 1.955397e+00 2.587189e+00 5.018672e+00 4.081224e+00 3.672038e+00 6.211997e+00 4.570509e+00 5.955987e+00 3.137111e+00 3.999213e+00 1.359312e+00 2.411167e-01
<GCONST> 1.032569e+02
<STATE> 3
<MEAN> 26
 1.900729e+00 -2.092248e+00 -1.014255e+00 -1.237438e+01 -1.882128e+01 6.307572e+00 -9.473393e+00 2.896573e+00 -1.357556e+01 -3.664935e+00 2.917297e+00 -5.861238e+00 2.065694e+01 3.002174e-02 1.073831e-01 -1.034890e-01 6.778143e-01 -7.741441e-02 4.781899e-02 2.051755e-01 -3.364821e-01 -7.045592e-01 4.174605e-01 -8.421407e-01 -2.333386e-01 -4.656150e-02
<VARIANCE> 26
 3.812403e+00 1.334243e+01 1.325933e+01 2.377134e+01 1.665602e+01 1.897943e+01 1.971896e+01 2.094063e+01 3.143720e+01 2.222184e+01 2.215019e+01 1.556063e+01 1.687162e-01 2.902876e-01 7.211962e-01 1.159884e+00 2.532681e+00 1.853538e+00 2.272661e+00 1.657151e+00 1.724905e+00 2.103091e+00 1.639102e+00 1.619896e+00 9.526086e-01 1.367757e-02
<GCONST> 7.924026e+01
<STATE> 4
<MEAN> 26
 2.946118e+00 1.098780e+00 -5.204816e-01 -5.986692e+00 -1.069996e+01 5.313336e+00 -3.614777e+00 -1.209014e+00 -1.824829e+01 -4.245529e-01 -3.714747e+00 -3.527802e+00 1.934184e+01 -4.103637e-01 1.080739e+00 1.263105e-01 1.708707e+00 2.572754e+00 -1.190889e+00 1.920412e+00 -1.406660e+00 1.217411e+00 -2.541835e-02 -1.235228e-01 8.862523e-01 -5.397857e-01
<VARIANCE> 26
 5.059754e+00 2.902231e+01 1.279968e+01 8.611216e+01 5.124030e+01 4.081901e+01 4.402513e+01 3.341080e+01 3.219454e+01 2.978731e+01 3.655508e+01 2.757957e+01 8.489785e-01 1.884379e+00 2.373662e+00 1.204144e+00 5.885663e+00 2.635490e+00 3.372634e+00 2.715827e+00 3.157224e+00 4.501595e+00 2.646059e+00 3.499324e+00 2.373473e+00 1.284419e-01
<GCONST> 9.866866e+01
<TRANSP> 5
 0.000000e+00 1.000000e+00 0.000000e+00 0.000000e+00 0.000000e+00
 0.000000e+00 5.828792e-01 4.171208e-01 0.000000e+00 0.000000e+00
 0.000000e+00 0.000000e+00 8.766094e-01 1.233906e-01 0.000000e+00
 0.000000e+00 0.000000e+00 0.000000e+00 7.319783e-01 2.680217e-01
 0.000000e+00 0.000000e+00 0.000000e+00 0.000000e+00 0.000000e+00
<ENDHMM>
~h "s^"
<BEGINHMM>
<NUMSTATES> 5
<STATE> 2
<MEAN> 26
 -2.041794e+01 -6.462630e-01 9.075532e+00 -7.329970e+00 3.264937e+00 -3.516602e+00 5.568128e-01 -8.807499e+00 -2.673342e+00 -2.346468e+00 -3.689439e+00 -5.685979e-01 1.825660e+01 -4.939973e+00 -1.691833e+00 -4.832742e-01 -1.006349e-01 1.156397e+00 2.539286e-01 2.526255e+00 5.144438e-01 2.437002e+00 6.290073e-01 1.358872e+00 5.839749e-01 -3.479063e-01
<VARIANCE> 26
 4.799897e+01 2.513185e+01 2.215625e+01 2.172179e+01 4.474859e+01 4.686322e+01 4.456646e+01 4.120510e+01 3.143454e+01 4.710007e+01 2.541420e+01 1.997179e+01 6.774613e-01 2.546663e+00 3.541601e+00 4.370185e+00 4.877605e+00 4.136119e+00 5.742974e+00 3.811986e+00 3.044445e+00 3.274435e+00 3.252517e+00 3.030755e+00 2.046015e+00 1.374925e-01
<GCONST> 1.024449e+02
<STATE> 3
<MEAN> 26
 -3.052962e+01 -6.911172e+00 5.559225e+00 -1.267086e+01 1.507828e+00 -5.333010e+00 3.526206e+00 -7.179082e+00 1.940847e+00 1.484089e+00 -1.867446e-01 1.837144e+00 1.817479e+01 -5.475476e-02 -2.575978e-03 -6.444401e-02 -2.226673e-01 -5.476244e-02 -2.124894e-01 -1.967615e-02 -1.573949e-01 1.709280e-01 1.819939e-01 -1.700335e-02 1.218666e-03 -8.984328e-03
<VARIANCE> 26
 7.233252e+00 9.207402e+00 9.765162e+00 1.139550e+01 2.442030e+01 2.962807e+01 1.927308e+01 1.660133e+01 1.239861e+01 1.691860e+01 1.061038e+01 1.405438e+01 3.489708e-01 1.279403e+00 7.737475e-01 6.775753e-01 1.075662e+00 1.367881e+00 1.356767e+00 1.419307e+00 1.664849e+00 1.357246e+00 1.599468e+00 1.352557e+00 1.507792e+00 2.551584e-02
<GCONST> 7.731705e+01
<STATE> 4
<MEAN> 26
 -1.969910e+01 -3.447745e+00 4.768185e+00 -1.111218e+01 1.684137e+00 -6.282014e+00 -7.128282e-01 -9.699629e+00 1.210899e+00 8.041770e-01 -1.671861e+00 -2.622744e-01 1.708980e+01 5.150073e+00 5.427960e-01 -4.837519e-01 8.540340e-01 -1.015239e+00 7.387500e-01 -2.860028e+00 -3.392140e-01 -1.412954e+00 -3.505779e-01 -3.916793e-02 -6.673437e-01 1.950919e-02
<VARIANCE> 26
 7.122112e+01 1.816451e+01 2.183687e+01 2.392017e+01 4.402061e+01 3.120550e+01 4.013423e+01 2.429287e+01 2.071218e+01 4.433359e+01 2.137067e+01 2.053522e+01 4.038884e+00 6.552173e+00 2.908558e+00 2.743632e+00 2.143394e+00 5.966856e+00 7.234261e+00 6.256217e+00 4.184536e+00 4.061985e+00 3.913559e+00 3.984337e+00 2.712313e+00 5.368153e-01
<GCONST> 1.058920e+02
<TRANSP> 5
 0.000000e+00 1.000000e+00 0.000000e+00 0.000000e+00 0.000000e+00
 0.000000e+00 6.914114e-01 3.085886e-01 0.000000e+00 0.000000e+00
 0.000000e+00 0.000000e+00 8.942327e-01 1.057674e-01 0.000000e+00
 0.000000e+00 0.000000e+00 0.000000e+00 7.031242e-01 2.968758e-01
 0.000000e+00 0.000000e+00 0.000000e+00 0.000000e+00 0.000000e+00
<ENDHMM>
~h "x^"
<BEGINHMM>
<NUMSTATES> 5
<STATE> 2
<MEAN> 26
 -1.186435e+00 -9.313981e+00 5.449852e+00 -1.793295e+01 -4.699304e+00 -2.505446e+00 -2.359499e+01 -5.442266e-01 -7.942819e+00 1.054509e+01 4.807690e+00 -1.158556e+01 2.078787e+01 1.081868e+00 -2.036671e+00 -7.221836e-02 -3.510451e+00 -1.421638e+00 1.035879e+00 -2.620718e+00 1.329571e+00 4.513496e-01 2.808219e+00 1.171994e+00 -1.194373e+00 7.281034e-01
<VARIANCE> 26
 6.120106e+00 1.751702e+01 2.138347e+01 3.913465e+01 3.373534e+01 3.635000e+01 2.378888e+01 2.157116e+01 2.186014e+01 3.693962e+01 3.040110e+01 1.476835e+01 7.648957e-01 4.169352e+00 1.652743e+00 2.229837e+00 6.696905e+00 3.900328e+00 2.878979e+00 6.271140e+00 3.527078e+00 4.830294e+00 2.275817e+00 2.847501e+00 3.501808e+00 6.746949e-01
<GCONST> 9.952657e+01
<STATE> 3
<MEAN> 26
 6.889571e-02 -1.213137e+01 1.630458e+00 -2.120889e+01 -6.401042e+00 9.097703e-02 -2.472506e+01 5.146889e+00 -6.841044e+00 1.332630e+01 4.161498e+00 -1.174439e+01 2.170238e+01 1.102147e-01 1.265073e-01 -5.715222e-01 -4.821407e-01 2.795618e-01 4.071597e-01 2.602796e-01 1.185940e-02 -3.214938e-01 3.011990e-01 -3.805018e-01 -1.034786e-01 -1.015930e-02
<VARIANCE> 26
 2.585253e+00 9.386395e+00 1.811623e+01 1.697279e+01 1.844167e+01 1.953584e+01 1.238115e+01 2.152337e+01 8.119778e+00 1.626178e+01 1.785436e+01 1.518188e+01 2.458732e-01 2.717962e-01 6.713192e-01 1.060785e+00 1.792470e+00 1.299483e+00 1.862359e+00 1.299449e+00 1.554515e+00 1.186511e+00 1.219756e+00 1.155391e+00 1.222523e+00 1.750054e-02
<GCONST> 7.445482e+01
<STATE> 4
<MEAN> 26
 1.050894e+00 -7.850286e+00 8.714054e-03 -2.450644e+01 -9.572957e-01 3.161800e+00 -1.662833e+01 -2.943562e+00 -1.064175e+01 1.323370e+01 1.998205e+00 -8.078657e+00 2.073127e+01 3.832109e-02 1.317235e+00 -1.917409e-01 6.964328e-01 1.209831e+00 7.401639e-01 3.007617e+00 -2.365497e+00 -1.872520e-01 -1.528180e+00 -2.894926e-01 1.814442e+00 -3.736479e-01
<VARIANCE> 26
 3.108929e+00 2.303310e+01 1.758318e+01 3.329298e+01 2.154498e+01 4.143573e+01 7.569423e+01 3.052722e+01 3.290060e+01 1.794782e+01 2.898847e+01 2.128970e+01 5.913233e-01 8.702079e-01 2.125016e+00 1.665330e+00 4.626497e+00 2.043227e+00 1.945402e+00 3.877211e+00 2.437430e+00 2.875956e+00 2.754129e+00 1.352995e+00 1.820817e+00 8.272372e-02
<GCONST> 9.201009e+01
<TRANSP> 5
 0.000000e+00 1.000000e+00 0.000000e+00 0.000000e+00 0.000000e+00
 0.000000e+00 5.245908e-01 4.754092e-01 0.000000e+00 0.000000e+00
 0.000000e+00 0.000000e+00 8.395886e-01 1.604113e-01 0.000000e+00
 0.000000e+00 0.000000e+00 0.000000e+00 7.309232e-01 2.690768e-01
 0.000000e+00 0.000000e+00 0.000000e+00 0.000000e+00 0.000000e+00
<ENDHMM>
~h "x~"
<BEGINHMM>
<NUMSTATES> 5
<STATE> 2
<MEAN> 26
 -1.241367e+00 -1.117605e+01 -2.812220e+00 -2.138178e+01 8.046817e+00 -4.497725e+00 -1.148955e+01 -3.003811e+00 -2.825887e+00 5.290476e+00 -2.744617e+00 -8.341055e+00 1.917638e+01 2.590418e+00 -3.134746e+00 2.694687e-01 -3.631532e+00 1.742720e+00 5.209749e-01 -2.374008e+00 9.418024e-01 -1.717561e+00 3.534584e-01 -9.109129e-02 -1.700481e+00 1.511656e+00
<VARIANCE> 26
 1.012313e+01 3.776903e+01 1.489591e+01 2.484599e+01 5.310300e+01 2.064078e+01 4.171740e+01 3.874197e+01 2.132962e+01 2.579663e+01 2.675302e+01 2.804849e+01 2.595006e+00 3.042417e+00 3.763162e+00 1.748780e+00 6.171479e+00 3.329657e+00 3.729933e+00 3.645756e+00 5.451533e+00 2.308878e+00 3.070896e+00 2.108061e+00 2.747580e+00 1.305225e+00
<GCONST> 1.022238e+02
<STATE> 3
<MEAN> 26
 3.323997e-01 -1.462238e+01 -2.189583e+00 -2.192813e+01 7.220318e+00 4.570638e+00 -1.782837e+01 2.277860e+00 -7.880938e+00 2.544345e+00 9.413632e-01 -8.602532e+00 2.117638e+01 -2.660176e-02 4.550156e-01 5.350241e-02 4.317836e-01 -5.983928e-01 6.083663e-01 -5.564651e-01 5.489999e-01 -4.354343e-01 4.255921e-02 1.524971e-01 1.082681e-01 6.286056e-02
<VARIANCE> 26
 4.070284e+00 1.129103e+01 6.725354e+00 1.374684e+01 1.993640e+01 2.742941e+01 1.833897e+01 1.405546e+01 1.141208e+01 1.440671e+01 3.361427e+01 1.138999e+01 3.389889e-01 2.969736e-01 1.271937e+00 7.420514e-01 7.648367e-01 1.575777e+00 2.265399e+00 1.638168e+00 1.151955e+00 9.995121e-01 9.451214e-01 1.366320e+00 7.278041e-01 5.166312e-02
<GCONST> 7.530567e+01
<STATE> 4
<MEAN> 26
 1.052778e+00 -5.913192e+00 -8.471608e-01 -1.310875e+01 -3.941340e-01 2.042801e+00 -1.578715e+01 3.396706e+00 -1.415346e+01 3.667503e+00 8.101237e-01 -9.291283e+00 2.052045e+01 2.764143e-01 2.723517e+00 5.412875e-01 3.951275e+00 -2.284675e+00 -2.664937e-01 2.803653e+00 -1.762000e+00 -1.077750e+00 -4.568275e-01 -3.151647e-01 7.549379e-01 -3.258924e-01
<VARIANCE> 26
 6.614882e+00 3.094271e+01 2.288818e+01 9.456226e+01 5.002135e+01 4.982581e+01 4.949364e+01 4.369808e+01 5.442582e+01 3.595483e+01 4.519452e+01 1.787751e+01 4.928918e-01 1.395504e+00 3.657829e+00 1.891270e+00 6.520666e+00 2.812457e+00 1.807587e+00 3.670397e+00 3.352201e+00 5.560904e+00 2.651055e+00 3.648861e+00 1.715537e+00 5.548551e-02
<GCONST> 9.976398e+01
<TRANSP> 5
 0.000000e+00 1.000000e+00 0.000000e+00 0.000000e+00 0.000000e+00
 0.000000e+00 6.599647e-01 3.400353e-01 0.000000e+00 0.000000e+00
 0.000000e+00 0.000000e+00 8.754790e-01 1.245210e-01 0.000000e+00
 0.000000e+00 0.000000e+00 0.000000e+00 6.727105e-01 3.272894e-01
 0.000000e+00 0.000000e+00 0.000000e+00 0.000000e+00 0.000000e+00
<ENDHMM>
~h "z^"
<BEGINHMM>
<NUMSTATES> 5
<STATE> 2
<MEAN> 26
 -1.026740e+01 3.042641e+00 1.179938e+01 -7.567703e+00 -1.197284e+00 -6.036105e+00 -4.341557e+00 -1.207858e+01 -1.936413e+00 -1.696332e+00 -3.501836e+00 5.683489e-01 1.908718e+01 -3.232491e+00 1.715768e+00 1.668445e+00 1.337863e+00 1.674287e+00 3.902312e-02 1.976198e+00 -1.082491e+00 1.247702e+00 -6.030572e-01 3.023889e-01 5.659564e-01 -3.566850e-01
<VARIANCE> 26
 2.925895e+01 1.781685e+01 2.381516e+01 3.133622e+01 3.810305e+01 3.925428e+01 2.805787e+01 2.989236e+01 2.200944e+01 2.834829e+01 2.685236e+01 1.871747e+01 5.279232e-01 1.727296e+00 2.532627e+00 2.225212e+00 2.968817e+00 2.036717e+00 4.092373e+00 2.395712e+00 4.530582e+00 3.232989e+00 2.437308e+00 2.047686e+00 1.738693e+00 4.748344e-02
<GCONST> 9.487111e+01
<STATE> 3
<MEAN> 26
 -2.049871e+01 5.263384e+00 1.709058e+01 -5.191707e+00 4.256392e+00 -2.135989e+00 1.746934e+00 -1.021486e+01 -4.704001e-01 -2.349638e+00 -3.322571e+00 1.005552e+00 1.817048e+01 -2.498017e-01 -1.930285e-03 -1.498599e-01 -7.005650e-02 1.555786e-01 -8.980251e-02 -5.951115e-02 1.812709e-01 1.074985e-01 -9.071985e-02 5.589934e-02 1.437378e-02 1.053909e-02
<VARIANCE> 26
 1.512870e+01 8.879360e+00 1.358746e+01 2.178514e+01 2.783252e+01 3.138104e+01 2.816124e+01 1.676823e+01 1.625174e+01 1.795947e+01 1.644747e+01 1.506396e+01 3.518489e-01 3.043688e+00 1.038010e+00 1.720956e+00 9.509764e-01 1.633730e+00 2.784137e+00 2.620532e+00 1.591755e+00 1.115801e+00 1.022628e+00 1.515226e+00 1.330718e+00 3.465025e-02
<GCONST> 8.350638e+01
<STATE> 4
<MEAN> 26
 -1.130577e+01 2.042582e+00 1.013434e+01 -8.057835e+00 8.857969e-01 -7.875218e+00 -4.239099e+00 -1.181525e+01 -3.420374e-01 -1.784948e+00 -2.596395e+00 1.958963e-01 1.909208e+01 3.665833e+00 -2.238216e+00 -1.804330e+00 -6.376014e-01 -2.036497e+00 -7.881284e-02 -2.902368e+00 6.609499e-01 -7.440990e-01 2.910585e-01 9.444043e-01 -5.614896e-01 3.885628e-01
<VARIANCE> 26
 4.066589e+01 2.587503e+01 3.056813e+01 1.995799e+01 3.332937e+01 2.474747e+01 3.488093e+01 3.507816e+01 1.546836e+01 2.231539e+01 1.601559e+01 1.823050e+01 1.004429e+00 1.790910e+00 2.684194e+00 2.835777e+00 1.266635e+00 2.775413e+00 6.059184e+00 4.639046e+00 4.348913e+00 2.864766e+00 3.457870e+00 2.715173e+00 2.024808e+00 6.851988e-02
<GCONST> 9.649933e+01
<TRANSP> 5
 0.000000e+00 1.000000e+00 0.000000e+00 0.000000e+00 0.000000e+00
 0.000000e+00 7.124522e-01 2.875478e-01 0.000000e+00 0.000000e+00
 0.000000e+00 0.000000e+00 7.807735e-01 2.192264e-01 0.000000e+00
 0.000000e+00 0.000000e+00 0.000000e+00 6.356900e-01 3.643100e-01
 0.000000e+00 0.000000e+00 0.000000e+00 0.000000e+00 0.000000e+00
<ENDHMM>
